{"learner":{"attributes":{"scikit_learn":"{\"_estimator_type\": \"classifier\"}"},"feature_names":[],"feature_types":[],"gradient_booster":{"model":{"gbtree_model_param":{"num_parallel_tree":"1","num_trees":"20"},"iteration_indptr":[0,1,2,3,4,5,6,7,8,9,10,11,12,13,14,15,16,17,18,19,20],"tree_info":[0,0,0,0,0,0,0,0,0,0,0,0,0,0,0,0,0,0,0,0],"trees":[{"base_weights":[-0E0,1.9130434E-1,-1.5714285E0,-1.3127754E0,4.85739E-1,-1.726708E0,3.818182E-1,-1.4929577E0,1.1111112E0,6.3757116E-1,-1.0280374E0,-1.7961783E0,1.5E-1,8.695652E-2,-1.6494845E0,-0E0,4.2857146E-1,-9.433962E-1,8.1092435E-1,6.666667E-1,-1.3118279E0,-1.20000005E-1,-1.8410596E0,3.4285718E-1,-3.2307696E-1,-1.715847E0,-4E-1,-1.2527473E0,7.368421E-1,-1.8705036E-1,9.767442E-1,4.2857146E-1,-3E-1,2.857143E-1,-1.5180722E0,-1.5E-1,-5.591837E-1,-5.318182E-1,-5.454546E-2,-3.818182E-1,3E-1,2.0000002E-1,-4.4096386E-1,-1.5E-1,3.6E-1,1.009901E-1,-4.2857146E-1,-1.2592593E-1,3.3729732E-1,-1.20000005E-1,3E-1,-5.1780826E-1,-0E0],"categories":[],"categories_nodes":[],"categories_segments":[],"categories_sizes":[],"default_left":[0,0,0,0,0,0,0,0,0,0,0,0,0,0,0,0,0,0,0,0,0,0,0,0,0,0,0,0,0,0,0,0,0,0,0,0,0,0,0,0,0,0,0,0,0,0,0,0,0,0,0,0,0],"id":0,"left_children":[1,3,5,7,9,11,-1,13,15,17,19,21,-1,23,25,-1,-1,27,29,31,33,-1,35,-1,-1,37,39,41,43,45,47,-1,-1,49,51,-1,-1,-1,-1,-1,-1,-1,-1,-1,-1,-1,-1,-1,-1,-1,-1,-1,-1],"loss_changes":[1.1634038E2,1.5342201E2,2.0746468E1,2.6443932E1,6.713665E1,7.124359E0,0E0,1.3312088E1,1.5873017E0,7.298135E1,1.3739725E1,1.7230682E0,0E0,8.297182E0,3.3352356E0,0E0,0E0,1.469734E1,3.956787E1,7.1428566E0,8.094238E0,0E0,2.2662354E-1,0E0,0E0,3.6696472E0,5.8545456E0,1.0461361E1,3.3210528E0,2.307413E1,4.256691E1,0E0,0E0,2.1142857E0,6.550583E0,0E0,0E0,0E0,0E0,0E0,0E0,0E0,0E0,0E0,0E0,0E0,0E0,0E0,0E0,0E0,0E0,0E0,0E0],"parents":[2147483647,0,0,1,1,2,2,3,3,4,4,5,5,7,7,8,8,9,9,10,10,11,11,13,13,14,14,17,17,18,18,19,19,20,20,22,22,25,25,26,26,27,27,28,28,29,29,30,30,33,33,34,34],"right_children":[2,4,6,8,10,12,-1,14,16,18,20,22,-1,24,26,-1,-1,28,30,32,34,-1,36,-1,-1,38,40,42,44,46,48,-1,-1,50,52,-1,-1,-1,-1,-1,-1,-1,-1,-1,-1,-1,-1,-1,-1,-1,-1,-1,-1],"split_conditions":[8.214783E-2,-5.233617E-2,1.5226469E-2,3.3228865E-3,2.6759103E-2,2.8325073E-2,3.818182E-1,-2.1840975E-2,1.1946931E-2,-2.5597114E-2,-3.079119E-2,-2.4911804E-2,1.5E-1,1.828507E-2,9.068199E-3,-0E0,4.2857146E-1,2.945799E-2,-1.7490676E-2,3.2134593E-2,-6.1905417E-3,-1.20000005E-1,-3.9957996E-2,3.4285718E-1,-3.2307696E-1,1.34675205E-2,3.3604868E-3,-2.8655738E-2,-5.7642892E-2,1.4131714E-2,-4.1056097E-2,4.2857146E-1,-3E-1,2.0232075E-3,7.583798E-3,-1.5E-1,-5.591837E-1,-5.318182E-1,-5.454546E-2,-3.818182E-1,3E-1,2.0000002E-1,-4.4096386E-1,-1.5E-1,3.6E-1,1.009901E-1,-4.2857146E-1,-1.2592593E-1,3.3729732E-1,-1.20000005E-1,3E-1,-5.1780826E-1,-0E0],"split_indices":[180,135,57,138,83,170,0,170,18,83,51,99,0,25,221,0,0,51,93,113,208,0,26,0,0,171,10,162,53,89,110,0,0,9,29,0,0,0,0,0,0,0,0,0,0,0,0,0,0,0,0,0,0],"split_type":[0,0,0,0,0,0,0,0,0,0,0,0,0,0,0,0,0,0,0,0,0,0,0,0,0,0,0,0,0,0,0,0,0,0,0,0,0,0,0,0,0,0,0,0,0,0,0,0,0,0,0,0,0],"sum_hessian":[3.85E2,3.44E2,4.1E1,5.575E1,2.8825E2,3.925E1,1.75E0,5.225E1,3.5E0,2.625E2,2.575E1,3.825E1,1E0,4.75E0,4.75E1,1E0,2.5E0,2.55E1,2.37E2,3.5E0,2.225E1,1.5E0,3.675E1,2.5E0,2.25E0,4.475E1,2.75E0,2.175E1,3.75E0,3.375E1,2.0325E2,2.5E0,1E0,2.5E0,1.975E1,1E0,3.575E1,4.3E1,1.75E0,1.75E0,1E0,2E0,1.975E1,1E0,2.75E0,2.425E1,9.5E0,1.925E1,1.84E2,1.5E0,1E0,1.725E1,2.5E0],"tree_param":{"num_deleted":"0","num_feature":"246","num_nodes":"53","size_leaf_vector":"1"}},{"base_weights":[-4.4851457E-3,1.7462273E-1,-1.0648972E0,4.3547776E-1,-9.269726E-1,9.4465333E-1,-1.2187773E0,5.754339E-1,-7.172954E-1,-2.6387918E-1,-1.2456169E0,3.6909718E-2,3.6459675E-1,-1.3580691E0,1.4803076E-1,8.143141E-1,-3.0582252E-1,-1.4219218E0,2.2081032E-1,3.632975E-1,-6.1255425E-1,-7.257701E-1,-4.7128472E-1,-1.563254E0,-9.2857087E-1,-2.8223813E-1,3.310569E-1,9.601636E-1,-7.052424E-1,-9.6435386E-1,2.8508246E-1,-1.6134317E0,1.5740119E-1,-2.4289456E-1,1.1222008E0,5.776353E-1,-1.2958815E0,-9.1821057E-1,3.1251335E-1,-2.35032E-2,-4.8696765E-1,7.994612E-2,-1.4387529E0,8.882459E-2,3.4587225E-1,3.216875E-2,-4.0673813E-1,-4.1705215E-1,6.728836E-4,-3.624883E-2,3.32054E-1,-1.996745E-1,-5.158906E-1,-3.2774097E-1,1.8314914E-1,6.343733E-2,4.1459557E-1,-2.7771494E-1,3.3020383E-1,-8.279151E-2,-4.233489E-1,-4.4894096E-1,-5.679382E-2,2.7498582E-1,-3.5523042E-1,-1.3519031E-1,-4.5217353E-1],"categories":[],"categories_nodes":[],"categories_segments":[],"categories_sizes":[],"default_left":[0,0,0,0,0,0,0,0,0,0,0,0,0,0,0,0,0,0,0,0,0,0,0,0,0,0,0,0,0,0,0,0,0,0,0,0,0,0,0,0,0,0,0,0,0,0,0,0,0,0,0,0,0,0,0,0,0,0,0,0,0,0,0,0,0,0,0],"id":1,"left_children":[1,3,5,7,9,11,13,15,17,19,21,-1,-1,23,25,27,29,31,33,-1,35,37,-1,39,41,-1,-1,43,45,47,49,51,-1,53,55,57,59,61,-1,-1,-1,63,65,-1,-1,-1,-1,-1,-1,-1,-1,-1,-1,-1,-1,-1,-1,-1,-1,-1,-1,-1,-1,-1,-1,-1,-1],"loss_changes":[7.084484E1,9.210816E1,1.781829E1,4.2152542E1,1.2648922E1,8.2831883E-1,9.815735E0,4.8931915E1,1.9122608E1,1.1646054E1,5.8304825E0,0E0,0E0,2.5959702E0,6.835434E0,4.1060104E1,1.9748787E1,6.9541855E0,5.735818E0,0E0,1.5236365E1,6.9850664E0,0E0,2.5103455E0,9.022156E0,0E0,0E0,2.0993027E1,8.884442E0,9.838696E0,9.1895075E0,3.8167572E-1,0E0,7.5203958E0,8.003373E-1,6.671711E0,9.7737885E-1,6.677741E0,0E0,0E0,0E0,8.237678E0,1.02365494E-1,0E0,0E0,0E0,0E0,0E0,0E0,0E0,0E0,0E0,0E0,0E0,0E0,0E0,0E0,0E0,0E0,0E0,0E0,0E0,0E0,0E0,0E0,0E0,0E0],"parents":[2147483647,0,0,1,1,2,2,3,3,4,4,5,5,6,6,7,7,8,8,9,9,10,10,13,13,14,14,15,15,16,16,17,17,18,18,20,20,21,21,23,23,24,24,27,27,28,28,29,29,30,30,31,31,33,33,34,34,35,35,36,36,37,37,41,41,42,42],"right_children":[2,4,6,8,10,12,14,16,18,20,22,-1,-1,24,26,28,30,32,34,-1,36,38,-1,40,42,-1,-1,44,46,48,50,52,-1,54,56,58,60,62,-1,-1,-1,64,66,-1,-1,-1,-1,-1,-1,-1,-1,-1,-1,-1,-1,-1,-1,-1,-1,-1,-1,-1,-1,-1,-1,-1,-1],"split_conditions":[5.233617E-2,6.310886E-2,-4.730817E-3,2.1692999E-2,-2.2803494E-3,-5.196673E-3,2.1177461E-2,1.4934953E-2,2.1977243E-3,-1.3803307E-3,8.9501314E-2,3.6909718E-2,3.6459675E-1,2.5984405E-2,-1.9760286E-2,2.4224663E-2,-8.769771E-3,6.9335416E-2,3.347836E-2,3.632975E-1,1.8133027E-2,7.0241444E-2,-4.7128472E-1,9.906941E-3,2.7931917E-2,-2.8223813E-1,3.310569E-1,-1.8596016E-2,2.519789E-3,4.1983044E-4,-5.118312E-3,1.7868871E-3,1.5740119E-1,-2.085503E-2,-1.2433034E-3,-1.7915118E-2,-4.5352202E-4,-7.7090473E-3,3.1251335E-1,-2.35032E-2,-4.8696765E-1,9.762247E-2,6.807967E-3,8.882459E-2,3.4587225E-1,3.216875E-2,-4.0673813E-1,-4.1705215E-1,6.728836E-4,-3.624883E-2,3.32054E-1,-1.996745E-1,-5.158906E-1,-3.2774097E-1,1.8314914E-1,6.343733E-2,4.1459557E-1,-2.7771494E-1,3.3020383E-1,-8.279151E-2,-4.233489E-1,-4.4894096E-1,-5.679382E-2,2.7498582E-1,-3.5523042E-1,-1.3519031E-1,-4.5217353E-1],"split_indices":[135,186,138,89,25,2,170,83,150,194,186,0,0,136,25,93,148,49,61,0,30,216,0,117,73,0,0,69,187,155,233,0,0,48,42,98,208,86,0,0,0,127,3,0,0,0,0,0,0,0,0,0,0,0,0,0,0,0,0,0,0,0,0,0,0,0,0],"split_type":[0,0,0,0,0,0,0,0,0,0,0,0,0,0,0,0,0,0,0,0,0,0,0,0,0,0,0,0,0,0,0,0,0,0,0,0,0,0,0,0,0,0,0,0,0,0,0,0,0,0,0,0,0,0,0,0,0,0,0,0,0,0,0,0,0,0,0],"sum_hessian":[3.7102954E2,3.1813123E2,5.289832E1,2.5771066E2,6.042056E1,3.3970232E0,4.9501297E1,2.3025645E2,2.7454205E1,2.0204166E1,4.0216393E1,1.2022183E0,2.194805E0,4.4928967E1,4.5723295E0,1.8121176E2,4.9044704E1,1.5383597E1,1.2070608E1,3.3903027E0,1.6813864E1,1.6724016E1,2.3492378E1,2.8617674E1,1.6311295E1,2.1442487E0,2.4280808E0,1.6567786E2,1.5533895E1,2.2896173E1,2.614853E1,1.4161509E1,1.2220883E0,8.452763E0,3.6178453E0,6.1889296E0,1.0624933E1,1.551524E1,1.2087759E0,1.2004546E0,2.741722E1,5.7628045E0,1.054849E1,3.7839947E1,1.2783791E2,7.2787085E0,8.255186E0,1.559001E1,7.306163E0,1.8073872E1,8.074658E0,2.1590803E0,1.2002429E1,4.0954638E0,4.357299E0,1.2055267E0,2.4123187E0,1.398745E0,4.7901845E0,1.4236468E0,9.201287E0,8.064411E0,7.450828E0,3.632985E0,2.1298196E0,1.1750925E0,9.373398E0],"tree_param":{"num_deleted":"0","num_feature":"246","num_nodes":"67","size_leaf_vector":"1"}},{"base_weights":[-1.1865382E-2,-8.374321E-1,1.380847E-1,7.007782E-1,-9.2155194E-1,-6.207808E-1,3.8629177E-1,3.7873484E-2,2.8230876E-1,-1.0223105E0,4.1817847E-1,-1.3663414E0,-3.637676E-1,-7.37009E-1,4.8557818E-1,2.1488365E-2,-1.1565212E0,-1.9640593E-1,3.181918E-1,-4.3523917E-1,-3.6187458E-3,4.134189E-1,-6.606355E-1,-5.9877515E-2,-1.1962382E0,6.613444E-1,-3.362371E-1,-7.1431845E-1,3.5455582E-1,-1.4111848E0,-7.34501E-1,1.0510701E0,-3.7885827E-1,-1.1854906E0,-2.5989404E-1,-6.8744165E-1,3.224734E-1,-3.4191005E-2,-1.3708501E0,-9.5286095E-1,7.5044763E-1,-1.0626235E0,1.5842342E-1,7.672443E-2,-3.2485035E-1,-4.3211523E-1,-1.2272682E-1,1.7385432E-1,-2.9476893E-1,-1.415783E-1,4.0281853E-1,1.6446084E-2,-3.7104028E-1,1.8950159E-2,-3.8222513E-1,-1.8210709E-1,3.127171E-1,1.0141512E-1,-3.1627262E-1,-4.4178703E-1,-9.280289E-2,-4.61047E-1,4.9098667E-2,2.4485034E-1,-2.250347E-1,6.4988625E-3,-4.0029207E-1,-7.986777E-2,2.913633E-1],"categories":[],"categories_nodes":[],"categories_segments":[],"categories_sizes":[],"default_left":[0,0,0,0,0,0,0,0,0,0,0,0,0,0,0,0,0,0,0,0,0,0,0,0,0,0,0,0,0,0,0,0,0,0,0,0,0,0,0,0,0,0,0,0,0,0,0,0,0,0,0,0,0,0,0,0,0,0,0,0,0,0,0,0,0,0,0,0,0],"id":2,"left_children":[1,3,5,7,9,11,13,-1,-1,15,17,19,21,23,25,27,29,-1,-1,-1,-1,31,33,35,37,39,41,43,-1,45,47,49,51,53,55,57,-1,-1,59,61,63,65,67,-1,-1,-1,-1,-1,-1,-1,-1,-1,-1,-1,-1,-1,-1,-1,-1,-1,-1,-1,-1,-1,-1,-1,-1,-1,-1],"loss_changes":[4.3103603E1,7.570877E0,5.575492E1,3.4265304E-1,7.335743E0,1.3495983E1,2.5196396E1,0E0,0E0,6.7332726E0,3.650915E0,2.0821648E0,1.3116885E1,5.675968E0,2.9866833E1,6.3405905E0,3.5256424E0,0E0,0E0,0E0,0E0,8.48217E0,8.24526E0,6.8081098E0,1.9151783E0,2.5080643E1,1.3399145E1,1.9080393E0,0E0,1.536293E-1,6.456479E0,4.6895847E0,2.9962602E0,1.9971066E0,1.1636083E1,2.649958E0,0E0,0E0,5.543175E-1,6.316777E0,1.649965E1,4.461458E0,8.119491E0,0E0,0E0,0E0,0E0,0E0,0E0,0E0,0E0,0E0,0E0,0E0,0E0,0E0,0E0,0E0,0E0,0E0,0E0,0E0,0E0,0E0,0E0,0E0,0E0,0E0,0E0],"parents":[2147483647,0,0,1,1,2,2,3,3,4,4,5,5,6,6,9,9,10,10,11,11,12,12,13,13,14,14,15,15,16,16,21,21,22,22,23,23,24,24,25,25,26,26,27,27,29,29,30,30,31,31,32,32,33,33,34,34,35,35,38,38,39,39,40,40,41,41,42,42],"right_children":[2,4,6,8,10,12,14,-1,-1,16,18,20,22,24,26,28,30,-1,-1,-1,-1,32,34,36,38,40,42,44,-1,46,48,50,52,54,56,58,-1,-1,60,62,64,66,68,-1,-1,-1,-1,-1,-1,-1,-1,-1,-1,-1,-1,-1,-1,-1,-1,-1,-1,-1,-1,-1,-1,-1,-1,-1,-1],"split_conditions":[-6.410726E-2,-3.6978416E-2,-4.5474425E-2,1.5449765E-3,1.5226469E-2,-1.963134E-2,-2.5597114E-2,3.7873484E-2,2.8230876E-1,-2.1529086E-2,6.926894E-2,-5.0346524E-2,-8.970196E-3,-1.5581354E-3,3.4699418E-2,-4.9301494E-2,3.4220148E-2,-1.9640593E-1,3.181918E-1,-4.3523917E-1,-3.6187458E-3,-1.3642829E-3,-7.340541E-2,3.270738E-3,-3.9493553E-3,-1.6809661E-2,-9.239879E-3,4.9241297E-3,3.5455582E-1,1.2680383E-2,4.4888493E-2,-8.71442E-2,-2.1492261E-2,-5.9285415E-3,3.3556644E-2,-3.604885E-3,3.224734E-1,-3.4191005E-2,-2.3594454E-3,-3.0567404E-3,2.477545E-2,3.502772E-2,-8.055521E-4,7.672443E-2,-3.2485035E-1,-4.3211523E-1,-1.2272682E-1,1.7385432E-1,-2.9476893E-1,-1.415783E-1,4.0281853E-1,1.6446084E-2,-3.7104028E-1,1.8950159E-2,-3.8222513E-1,-1.8210709E-1,3.127171E-1,1.0141512E-1,-3.1627262E-1,-4.4178703E-1,-9.280289E-2,-4.61047E-1,4.9098667E-2,2.4485034E-1,-2.250347E-1,6.4988625E-3,-4.0029207E-1,-7.986777E-2,2.913633E-1],"split_indices":[186,230,180,2,57,89,83,0,0,164,121,180,176,18,242,24,145,0,0,0,0,160,114,208,3,174,96,3,0,81,115,135,243,81,154,102,0,0,91,101,83,188,174,0,0,0,0,0,0,0,0,0,0,0,0,0,0,0,0,0,0,0,0,0,0,0,0,0,0],"split_type":[0,0,0,0,0,0,0,0,0,0,0,0,0,0,0,0,0,0,0,0,0,0,0,0,0,0,0,0,0,0,0,0,0,0,0,0,0,0,0,0,0,0,0,0,0,0,0,0,0,0,0,0,0,0,0,0,0,0,0,0,0,0,0,0,0,0,0,0,0],"sum_hessian":[3.4625464E2,5.2519268E1,2.9373538E2,2.343084E0,5.017618E1,7.2025215E1,2.2171014E2,1.1406995E0,1.2023846E0,4.6886845E1,3.28934E0,1.7357433E1,5.4667786E1,1.7483482E1,2.0422667E2,5.4375095E0,4.1449333E1,1.2248673E0,2.0644727E0,1.627144E1,1.0859922E0,1.5001622E1,3.966616E1,7.5222874E0,9.961194E0,1.6840434E2,3.5822323E1,3.562726E0,1.8747838E0,2.4388481E1,1.7060854E1,8.130932E0,6.8706913E0,1.6325823E1,2.334034E1,5.097478E0,2.4248097E0,1.6134592E0,8.347734E0,8.302434E0,1.6010191E2,1.4046901E1,2.1775421E1,1.0650741E0,2.4976518E0,2.3272978E1,1.115503E0,2.4971223E0,1.4563731E1,1.2074927E0,6.9234385E0,5.1855617E0,1.6851295E0,1.1006023E0,1.522522E1,1.8849737E1,4.4906015E0,1.3635832E0,3.7338946E0,7.263995E0,1.0837394E0,5.204137E0,3.098297E0,1.538211E2,6.280812E0,2.998835E0,1.1048066E1,1.4744472E1,7.030949E0],"tree_param":{"num_deleted":"0","num_feature":"246","num_nodes":"69","size_leaf_vector":"1"}},{"base_weights":[-1.8872637E-2,9.316671E-2,-7.60432E-1,-5.406978E-1,2.8278562E-1,6.715891E-1,-8.8517463E-1,3.0083752E-1,-8.384907E-1,-5.866664E-1,4.1218928E-1,2.7837613E-1,6.424849E-5,-1.010358E0,1.5961617E-1,5.33304E-1,-4.440943E-1,4.8455253E-1,-9.462025E-1,8.161569E-1,-8.8901615E-1,5.4818654E-1,-4.0205488E-1,-1.1763705E0,-5.320833E-1,-1.9883151E-1,2.530351E-1,-3.1779984E-1,8.1051266E-1,2.946454E-1,-1.3140662E-1,-1.0713674E0,1.6469082E-1,1.2082053E-2,3.3317482E-1,-1.1977488E0,-1.5667832E-1,-1.0188049E0,6.2574476E-1,9.977468E-2,-1.3104677E0,8.8343825E-3,-1.2288811E0,1.8181486E-1,-8.410545E-1,1.8535702E-3,3.362935E-1,-3.6294302E-1,-5.5308864E-2,-2.641985E-1,2.6714844E-1,-3.9883673E-1,2.6206723E-3,1.2717064E-1,-3.441543E-1,1.788478E-1,-4.0534434E-1,2.2004008E-1,-1.5300971E-3,1.3705571E-1,-3.3048236E-1,-6.483393E-2,-4.3913782E-1,-3.823165E-1,-1.16923824E-1,-3.3749747E-1,-3.128818E-2],"categories":[],"categories_nodes":[],"categories_segments":[],"categories_sizes":[],"default_left":[0,0,0,0,0,0,0,0,0,0,0,0,0,0,0,0,0,0,0,0,0,0,0,0,0,0,0,0,0,0,0,0,0,0,0,0,0,0,0,0,0,0,0,0,0,0,0,0,0,0,0,0,0,0,0,0,0,0,0,0,0,0,0,0,0,0,0],"id":3,"left_children":[1,3,5,7,9,11,13,15,17,19,21,-1,-1,23,25,27,-1,29,31,33,35,37,39,41,43,-1,-1,-1,45,-1,-1,47,49,-1,-1,51,53,55,57,59,61,-1,63,-1,65,-1,-1,-1,-1,-1,-1,-1,-1,-1,-1,-1,-1,-1,-1,-1,-1,-1,-1,-1,-1,-1,-1],"loss_changes":[2.6694965E1,3.3720215E1,8.12743E0,1.645411E1,2.450214E1,6.79168E-1,5.2911434E0,8.091072E0,7.301285E0,1.2749033E1,2.1069586E1,0E0,0E0,2.1659164E0,3.4047582E0,8.069769E0,0E0,2.3932946E0,6.397442E0,1.2226069E0,5.193407E0,2.0296303E1,1.2677746E1,1.6366158E0,4.3377743E0,0E0,0E0,0E0,3.608654E0,0E0,0E0,4.731125E0,4.8792596E0,0E0,0E0,2.6480331E0,5.206678E0,5.104143E0,1.0519768E1,8.507509E0,1.3388882E0,0E0,4.2913055E-1,0E0,1.761334E0,0E0,0E0,0E0,0E0,0E0,0E0,0E0,0E0,0E0,0E0,0E0,0E0,0E0,0E0,0E0,0E0,0E0,0E0,0E0,0E0,0E0,0E0],"parents":[2147483647,0,0,1,1,2,2,3,3,4,4,5,5,6,6,7,7,8,8,9,9,10,10,13,13,14,14,15,15,17,17,18,18,19,19,20,20,21,21,22,22,23,23,24,24,28,28,31,31,32,32,35,35,36,36,37,37,38,38,39,39,40,40,42,42,44,44],"right_children":[2,4,6,8,10,12,14,16,18,20,22,-1,-1,24,26,28,-1,30,32,34,36,38,40,42,44,-1,-1,-1,46,-1,-1,48,50,-1,-1,52,54,56,58,60,62,-1,64,-1,66,-1,-1,-1,-1,-1,-1,-1,-1,-1,-1,-1,-1,-1,-1,-1,-1,-1,-1,-1,-1,-1,-1],"split_conditions":[5.233617E-2,-3.2059148E-2,-4.730817E-3,-1.3274497E-2,-2.4651334E-2,3.0194588E-2,2.1177461E-2,3.2822285E-2,-1.4325342E-2,-6.381983E-3,1.963134E-2,2.7837613E-1,6.424849E-5,4.8307966E-2,-1.9760286E-2,-3.010526E-2,-4.440943E-1,5.269303E-2,-8.801898E-3,2.6372666E-2,-1.0131494E-2,-2.4133295E-2,5.2958014E-3,-2.1848729E-2,5.5038787E-2,-1.9883151E-1,2.530351E-1,-3.1779984E-1,9.243828E-3,2.946454E-1,-1.3140662E-1,6.584131E-5,2.6812376E-2,1.2082053E-2,3.3317482E-1,4.704122E-2,-1.1541418E-2,-1.7487582E-2,1.7745003E-2,7.020814E-3,-1.12438E-2,8.8343825E-3,2.794333E-2,1.8181486E-1,-4.633553E-3,1.8535702E-3,3.362935E-1,-3.6294302E-1,-5.5308864E-2,-2.641985E-1,2.6714844E-1,-3.9883673E-1,2.6206723E-3,1.2717064E-1,-3.441543E-1,1.788478E-1,-4.0534434E-1,2.2004008E-1,-1.5300971E-3,1.3705571E-1,-3.3048236E-1,-6.483393E-2,-4.3913782E-1,-3.823165E-1,-1.16923824E-1,-3.3749747E-1,-3.128818E-2],"split_indices":[135,242,138,150,148,184,170,188,107,209,89,0,0,145,25,190,0,130,86,37,16,89,0,23,28,0,0,0,94,0,0,72,116,0,0,29,227,224,99,191,204,0,181,0,204,0,0,0,0,0,0,0,0,0,0,0,0,0,0,0,0,0,0,0,0,0,0],"split_type":[0,0,0,0,0,0,0,0,0,0,0,0,0,0,0,0,0,0,0,0,0,0,0,0,0,0,0,0,0,0,0,0,0,0,0,0,0,0,0,0,0,0,0,0,0,0,0,0,0,0,0,0,0,0,0,0,0,0,0,0,0,0,0,0,0,0,0],"sum_hessian":[3.1944885E2,2.782791E2,4.1169754E1,6.3651436E1,2.1462767E2,2.9476395E0,3.8222115E1,1.6634277E1,4.701716E1,2.734763E1,1.8728003E2,1.85665E0,1.0909896E0,3.4161907E1,4.0602064E0,1.5333602E1,1.3006756E0,3.2762156E0,4.3740944E1,4.5477734E0,2.2799856E1,1.6075676E2,2.6523275E1,2.427594E1,9.885967E0,1.8573426E0,2.202864E0,1.8549575E0,1.3478644E1,2.0863483E0,1.1898671E0,3.9343655E1,4.3972874E0,1.5637362E0,2.9840374E0,1.5591438E1,7.208418E0,7.009069E0,1.537477E2,1.765847E1,8.864805E0,1.0313731E0,2.3244568E1,1.9054617E0,7.9805055E0,4.037765E0,9.440879E0,3.371719E1,5.626467E0,1.7145355E0,2.682752E0,1.396501E1,1.6264286E0,4.9052515E0,2.3031666E0,1.0607458E0,5.9483232E0,1.311842E2,2.2563492E1,1.4090259E1,3.568211E0,1.3854784E0,7.479327E0,2.1556826E1,1.6877425E0,5.380135E0,2.6003702E0],"tree_param":{"num_deleted":"0","num_feature":"246","num_nodes":"67","size_leaf_vector":"1"}},{"base_weights":[-2.4934458E-2,-5.899007E-1,8.897178E-2,-3.058847E-3,-1.0438185E0,2.2464938E-1,-7.690609E-1,-4.7209424E-1,5.120648E-1,3.5306212E-1,-1.2350916E0,-6.8251425E-1,3.285646E-1,-3.1509686E-1,-1.1905184E0,-1.0147784E0,4.0413773E-1,8.810438E-1,-2.7012104E-1,2.3653157E-1,-1.1361241E-1,-1.2956555E0,-8.399393E-2,6.591918E-1,-9.0128773E-1,-4.0254483E-1,4.390843E-1,-7.0970875E-1,5.4350924E-1,-1.2332131E0,-8.345657E-2,-2.5743285E-2,-1.2006159E0,-1.8411236E-1,3.1458378E-1,1.2129432E0,-7.574388E-2,-7.19062E-2,-4.037888E-1,2.8685063E-1,-2.1378899E-2,2.360254E-1,-1.0654953E0,-9.9282616E-1,7.7274615E-1,-2.4631347E-1,5.569936E-1,1.8096896E-1,-9.6314234E-1,-1.84435E-1,9.5417196E-1,-1.04710385E-1,-3.816475E-1,-5.6453843E-2,-4.292903E-1,5.5205185E-2,4.142312E-1,-2.1854126E-1,3.09249E-1,-3.6851126E-1,3.1497932E-4,-4.0753275E-1,7.4292445E-3,-2.0095581E-1,3.338707E-1,-1.5097035E-1,2.422466E-1,-8.2752556E-2,2.0052126E-1,-3.641829E-1,2.0378057E-2,4.8297927E-2,3.365555E-1],"categories":[],"categories_nodes":[],"categories_segments":[],"categories_sizes":[],"default_left":[0,0,0,0,0,0,0,0,0,0,0,0,0,0,0,0,0,0,0,0,0,0,0,0,0,0,0,0,0,0,0,0,0,0,0,0,0,0,0,0,0,0,0,0,0,0,0,0,0,0,0,0,0,0,0,0,0,0,0,0,0,0,0,0,0,0,0,0,0,0,0,0,0],"id":4,"left_children":[1,3,5,7,9,11,13,15,17,19,21,23,25,27,29,31,33,35,-1,-1,-1,37,-1,39,41,43,45,47,49,51,-1,-1,53,-1,-1,55,-1,-1,-1,-1,-1,57,59,61,63,65,67,-1,69,-1,71,-1,-1,-1,-1,-1,-1,-1,-1,-1,-1,-1,-1,-1,-1,-1,-1,-1,-1,-1,-1,-1,-1],"loss_changes":[1.9054037E1,1.322876E1,2.888047E1,5.718497E0,7.918865E0,2.036942E1,6.109968E0,6.299337E0,6.673536E0,1.620969E0,1.0750046E0,7.1364307E0,1.5724054E1,6.375442E0,3.2756615E-1,1.2664919E0,4.2198896E0,3.8619556E0,0E0,0E0,0E0,9.044037E-1,0E0,8.712779E-1,3.9092855E0,1.8658108E1,1.368367E1,4.755419E0,3.5038047E0,1.12298965E-1,0E0,0E0,1.2544508E0,0E0,0E0,1.0380878E0,0E0,0E0,0E0,0E0,0E0,3.2728052E0,3.0059109E0,6.5833187E0,5.2522464E0,7.2554116E0,1.3483177E1,0E0,2.9013243E0,0E0,4.7367764E-1,0E0,0E0,0E0,0E0,0E0,0E0,0E0,0E0,0E0,0E0,0E0,0E0,0E0,0E0,0E0,0E0,0E0,0E0,0E0,0E0,0E0,0E0],"parents":[2147483647,0,0,1,1,2,2,3,3,4,4,5,5,6,6,7,7,8,8,9,9,10,10,11,11,12,12,13,13,14,14,15,15,16,16,17,17,21,21,23,23,24,24,25,25,26,26,27,27,28,28,29,29,32,32,35,35,41,41,42,42,43,43,44,44,45,45,46,46,48,48,50,50],"right_children":[2,4,6,8,10,12,14,16,18,20,22,24,26,28,30,32,34,36,-1,-1,-1,38,-1,40,42,44,46,48,50,52,-1,-1,54,-1,-1,56,-1,-1,-1,-1,-1,58,60,62,64,66,68,-1,70,-1,72,-1,-1,-1,-1,-1,-1,-1,-1,-1,-1,-1,-1,-1,-1,-1,-1,-1,-1,-1,-1,-1,-1],"split_conditions":[-1.691563E-2,-3.3449682E-3,2.941864E-2,-1.0586233E-2,-1.2058199E-2,-2.8320827E-2,2.2859786E-2,4.7032606E-2,4.895593E-2,-7.378921E-3,4.9892366E-2,-1.6393062E-2,-3.232399E-2,2.2690244E-2,1.7337296E-2,-2.5676162E-4,-4.9371507E-2,1.868276E-2,-2.7012104E-1,2.3653157E-1,-1.1361241E-1,-1.8057943E-3,-8.399393E-2,-4.415448E-2,-3.2142498E-2,9.9661954E-2,-2.8948128E-2,-4.368552E-3,3.288491E-2,-3.1819665E-3,-8.345657E-2,-2.5743285E-2,1.1018409E-2,-1.8411236E-1,3.1458378E-1,-1.5845947E-2,-7.574388E-2,-7.19062E-2,-4.037888E-1,2.8685063E-1,-2.1378899E-2,-1.9502081E-2,-3.4021607E-3,7.6039033E-3,-1.7604586E-2,5.9758783E-3,-2.9171655E-2,1.8096896E-1,4.6498034E-2,-1.84435E-1,-7.8257106E-2,-1.04710385E-1,-3.816475E-1,-5.6453843E-2,-4.292903E-1,5.5205185E-2,4.142312E-1,-2.1854126E-1,3.09249E-1,-3.6851126E-1,3.1497932E-4,-4.0753275E-1,7.4292445E-3,-2.0095581E-1,3.338707E-1,-1.5097035E-1,2.422466E-1,-8.2752556E-2,2.0052126E-1,-3.641829E-1,2.0378057E-2,4.8297927E-2,3.365555E-1],"split_indices":[89,150,12,204,112,83,224,137,142,162,185,57,133,187,74,174,4,140,0,0,0,147,0,55,240,234,12,149,117,227,0,0,198,0,0,235,0,0,0,0,0,38,229,2,21,143,74,0,41,0,123,0,0,0,0,0,0,0,0,0,0,0,0,0,0,0,0,0,0,0,0,0,0],"split_type":[0,0,0,0,0,0,0,0,0,0,0,0,0,0,0,0,0,0,0,0,0,0,0,0,0,0,0,0,0,0,0,0,0,0,0,0,0,0,0,0,0,0,0,0,0,0,0,0,0,0,0,0,0,0,0,0,0,0,0,0,0,0,0,0,0,0,0,0,0,0,0,0,0],"sum_hessian":[2.9426984E2,4.8673615E1,2.4559622E2,2.1667631E1,2.7005983E1,2.1270079E2,3.2895428E1,1.1384887E1,1.0282744E1,3.1506584E0,2.3855324E1,2.12884E1,1.914124E2,1.667834E1,1.6217085E1,6.932936E0,4.4519506E0,8.451261E0,1.8314843E0,1.926827E0,1.2238314E0,2.2097565E1,1.7577604E0,2.7023227E0,1.8586077E1,2.4788607E1,1.6662378E2,1.1545496E1,5.132846E0,1.51561E1,1.0609847E0,1.3993905E0,5.5335455E0,1.7445117E0,2.707439E0,6.482963E0,1.9682974E0,1.2670084E0,2.0830555E1,1.7015345E0,1.0007881E0,2.2897487E0,1.629633E1,1.6604412E1,8.184195E0,2.4297173E1,1.4232661E2,1.6447047E0,9.900791E0,1.2133858E0,3.9194603E0,1.0597026E0,1.4096397E1,1.362415E0,4.1711307E0,1.2031419E0,5.2798214E0,1.0721513E0,1.2175975E0,1.4005737E1,2.2905912E0,1.1969027E1,4.6353855E0,1.3766377E0,6.8075566E0,1.9954617E1,4.342555E0,1.6618824E1,1.2570779E2,7.8210187E0,2.0797722E0,1.0260476E0,2.8934126E0],"tree_param":{"num_deleted":"0","num_feature":"246","num_nodes":"73","size_leaf_vector":"1"}},{"base_weights":[-2.7054904E-2,7.29486E-2,-5.7100403E-1,2.5548697E-1,-4.6897906E-1,1.3527104E-1,-8.447108E-1,-1.4019169E-1,4.5859224E-1,-2.191238E-1,-1.1947991E0,7.750372E-1,-4.8797706E-1,2.4577053E-1,-1.0892123E0,2.218152E-1,-7.645473E-1,6.4023346E-1,-2.0040064E-1,-6.604268E-1,2.9811928E-1,-9.225755E-3,-3.8780802E-1,1.2955116E0,-2.1238898E-1,3.7762126E-1,-1.0415202E0,-2.215505E-1,8.698153E-1,-4.5277354E-1,-1.3212258E0,4.1321114E-1,-8.300477E-1,2.9237327E-1,-9.8856676E-1,-5.1373756E-1,7.470499E-1,5.524851E-1,-5.435984E-1,-8.7380886E-1,3.00205E-1,5.4095256E-1,-2.54147E-1,1.0552033E-1,4.3739438E-1,2.4661027E-1,-9.7870894E-2,-9.088861E-2,-3.5181355E-1,2.3636175E-2,3.2488E-1,1.7308182E-1,-7.931735E-1,-4.883999E-2,-1.3937491E0,-2.9652667E-1,1.7310499E-1,8.7623164E-2,-3.3337057E-1,2.7085042E-1,-2.0629913E-1,-1.5286936E-1,-5.789844E-1,1.8849082E-1,-2.8538364E-1,1.08427005E-2,2.5701636E-1,2.9974067E-1,-3.6254276E-2,-7.3279147E-3,-2.865003E-1,-4.5339814E-1,-1.010911E-1,-7.862803E-2,2.8327897E-1,-3.1226385E-1,8.905043E-2,-4.3528882E-1,-1.616936E-1],"categories":[],"categories_nodes":[],"categories_segments":[],"categories_sizes":[],"default_left":[0,0,0,0,0,0,0,0,0,0,0,0,0,0,0,0,0,0,0,0,0,0,0,0,0,0,0,0,0,0,0,0,0,0,0,0,0,0,0,0,0,0,0,0,0,0,0,0,0,0,0,0,0,0,0,0,0,0,0,0,0,0,0,0,0,0,0,0,0,0,0,0,0,0,0,0,0,0,0],"id":5,"left_children":[1,3,5,7,9,11,13,15,17,19,21,23,25,27,29,31,33,35,37,39,41,-1,-1,43,-1,45,47,-1,49,51,53,55,57,59,61,63,65,67,69,71,-1,73,-1,-1,-1,-1,-1,-1,-1,-1,-1,-1,75,-1,77,-1,-1,-1,-1,-1,-1,-1,-1,-1,-1,-1,-1,-1,-1,-1,-1,-1,-1,-1,-1,-1,-1,-1,-1],"loss_changes":[1.4772735E1,2.2836304E1,8.266E0,1.3921197E1,1.0295134E1,5.418028E0,8.407507E0,1.3561807E1,1.3794939E1,1.0361394E1,1.6334152E0,6.0296206E0,3.755034E0,4.5779133E0,3.1113338E0,8.0498E0,5.491149E0,1.1445652E1,6.8716393E0,9.501766E0,6.35149E0,0E0,0E0,2.931347E-1,0E0,1.3537837E0,8.5140705E-2,0E0,6.531322E-1,3.3433414E0,1.276001E0,8.159692E0,2.2889152E0,3.3814113E0,7.2941265E0,4.6929693E0,6.404854E0,2.6647375E0,3.8154774E0,7.0554085E0,0E0,6.107549E0,0E0,0E0,0E0,0E0,0E0,0E0,0E0,0E0,0E0,0E0,2.093277E0,0E0,3.4801483E-2,0E0,0E0,0E0,0E0,0E0,0E0,0E0,0E0,0E0,0E0,0E0,0E0,0E0,0E0,0E0,0E0,0E0,0E0,0E0,0E0,0E0,0E0,0E0,0E0],"parents":[2147483647,0,0,1,1,2,2,3,3,4,4,5,5,6,6,7,7,8,8,9,9,10,10,11,11,12,12,13,13,14,14,15,15,16,16,17,17,18,18,19,19,20,20,23,23,25,25,26,26,28,28,29,29,30,30,31,31,32,32,33,33,34,34,35,35,36,36,37,37,38,38,39,39,41,41,52,52,54,54],"right_children":[2,4,6,8,10,12,14,16,18,20,22,24,26,28,30,32,34,36,38,40,42,-1,-1,44,-1,46,48,-1,50,52,54,56,58,60,62,64,66,68,70,72,-1,74,-1,-1,-1,-1,-1,-1,-1,-1,-1,-1,76,-1,78,-1,-1,-1,-1,-1,-1,-1,-1,-1,-1,-1,-1,-1,-1,-1,-1,-1,-1,-1,-1,-1,-1,-1,-1],"split_conditions":[1.7175183E-2,3.028432E-2,-9.637345E-3,-2.130877E-2,1.811996E-2,3.2888833E-2,-8.326326E-3,-3.6175656E-3,2.7454589E-2,1.1365309E-2,-1.17949555E-2,2.7093684E-2,4.6085706E-3,4.933394E-3,1.3424724E-3,1.2612339E-2,5.008507E-4,-4.627564E-2,-1.579922E-2,2.913498E-2,4.7630638E-2,-9.225755E-3,-3.8780802E-1,-8.517849E-5,-2.1238898E-1,1.6706508E-3,1.5451961E-2,-2.215505E-1,-2.1149678E-2,-3.9857468E-3,-3.4696136E-2,-1.7476179E-2,-3.256996E-2,-9.815539E-4,-1.15577895E-2,-1.7275425E-2,-2.6350468E-2,1.3295187E-2,3.199692E-2,2.9613487E-3,3.00205E-1,-3.775178E-2,-2.54147E-1,1.0552033E-1,4.3739438E-1,2.4661027E-1,-9.7870894E-2,-9.088861E-2,-3.5181355E-1,2.3636175E-2,3.2488E-1,1.7308182E-1,2.2661826E-2,-4.883999E-2,-1.4317407E-2,-2.9652667E-1,1.7310499E-1,8.7623164E-2,-3.3337057E-1,2.7085042E-1,-2.0629913E-1,-1.5286936E-1,-5.789844E-1,1.8849082E-1,-2.8538364E-1,1.08427005E-2,2.5701636E-1,2.9974067E-1,-3.6254276E-2,-7.3279147E-3,-2.865003E-1,-4.5339814E-1,-1.010911E-1,-7.862803E-2,2.8327897E-1,-3.1226385E-1,8.905043E-2,-4.3528882E-1,-1.616936E-1],"split_indices":[81,143,25,143,87,96,77,173,135,187,12,197,107,101,123,209,63,213,200,6,59,0,0,90,0,168,118,0,30,9,187,174,5,161,115,17,80,203,42,145,0,57,0,0,0,0,0,0,0,0,0,0,60,0,99,0,0,0,0,0,0,0,0,0,0,0,0,0,0,0,0,0,0,0,0,0,0,0,0],"split_type":[0,0,0,0,0,0,0,0,0,0,0,0,0,0,0,0,0,0,0,0,0,0,0,0,0,0,0,0,0,0,0,0,0,0,0,0,0,0,0,0,0,0,0,0,0,0,0,0,0,0,0,0,0,0,0,0,0,0,0,0,0,0,0,0,0,0,0,0,0,0,0,0,0,0,0,0,0,0,0],"sum_hessian":[2.6980774E2,2.2863899E2,4.116874E1,1.7142589E2,5.72131E1,1.1639603E1,2.9529137E1,5.825209E1,1.13173805E2,4.3530216E1,1.3682883E1,5.6235085E0,6.0160947E0,5.4072976E0,2.412184E1,3.728098E1,2.0971111E1,8.874193E1,2.4431877E1,2.3340057E1,2.019016E1,1.1633859E0,1.2519498E1,4.256182E0,1.3673259E0,2.470571E0,3.5455236E0,2.0269258E0,3.380372E0,7.232843E0,1.6888996E1,3.2055378E1,5.225602E0,3.6142077E0,1.7356903E1,7.195644E0,8.154628E1,7.458992E0,1.6972885E1,2.1103159E1,2.2368987E0,1.7093489E1,3.096673E0,1.0899055E0,3.166277E0,1.4114736E0,1.0590974E0,1.0339718E0,2.5115519E0,1.0081435E0,2.3722284E0,1.6243334E0,5.6085095E0,1.1862148E0,1.5702782E1,2.8274689E0,2.922791E1,1.0393153E0,4.186287E0,2.2755506E0,1.3386571E0,1.2525074E1,4.8318295E0,1.8724132E0,5.3232307E0,1.1076446E1,7.046983E1,4.1934385E0,3.2655535E0,7.971974E0,9.000911E0,8.817168E0,1.228599E1,5.8317766E0,1.1261711E1,4.6067014E0,1.001808E0,1.4063934E1,1.6388472E0],"tree_param":{"num_deleted":"0","num_feature":"246","num_nodes":"79","size_leaf_vector":"1"}},{"base_weights":[-2.9764768E-2,5.367052E-2,-5.4395545E-1,1.7058764E-1,-4.5819396E-1,-9.7310483E-1,-1.0582504E-1,-3.7594986E-1,2.7188975E-1,5.394052E-2,-8.8141006E-1,-1.1714562E0,-1.2331137E-1,5.997812E-1,-6.859517E-1,-9.272722E-1,4.120052E-1,-1.9144145E-1,4.468387E-1,3.8115633E-1,-5.994794E-1,-1.0425837E0,3.5627654E-1,-3.7787244E-1,-1.14790715E-1,2.2848009E-1,-2.1455738E-1,-2.0596088E-1,9.0281826E-1,2.0110199E-1,-3.4525484E-1,-1.3356339E0,-3.1618434E-1,-2.3671436E-1,6.30045E-1,-8.395536E-1,1.2201234E-1,-4.7761157E-2,6.270349E-1,-6.560223E-1,6.674188E-1,-2.7808246E-1,6.0754318E-2,-2.5793347E-1,-1.1346E0,-8.350237E-2,2.265904E-1,3.6357814E-1,-7.7440694E-2,-4.357588E-1,-5.154309E-2,1.4945844E-1,-2.1891674E-1,2.641397E-1,-2.5835574E-1,-3.359195E-1,6.426562E-2,-1.6225165E-1,1.5562825E-1,-3.648989E-1,5.6543414E-2,-3.5160847E-2,2.2718647E-1,-2.327223E-2,-2.6116502E-1,2.4854259E-1,-1.3838266E-1,8.766201E-2,-2.2329849E-1,-3.60521E-1,-1.1116547E-2],"categories":[],"categories_nodes":[],"categories_segments":[],"categories_sizes":[],"default_left":[0,0,0,0,0,0,0,0,0,0,0,0,0,0,0,0,0,0,0,0,0,0,0,0,0,0,0,0,0,0,0,0,0,0,0,0,0,0,0,0,0,0,0,0,0,0,0,0,0,0,0,0,0,0,0,0,0,0,0,0,0,0,0,0,0,0,0,0,0,0,0],"id":6,"left_children":[1,3,5,7,9,11,13,15,17,19,21,23,25,27,29,31,33,35,37,39,41,43,45,-1,-1,-1,-1,-1,47,-1,-1,49,51,-1,53,55,57,59,61,63,65,-1,-1,67,69,-1,-1,-1,-1,-1,-1,-1,-1,-1,-1,-1,-1,-1,-1,-1,-1,-1,-1,-1,-1,-1,-1,-1,-1,-1,-1],"loss_changes":[1.0722728E1,1.296702E1,6.4569464E0,9.849335E0,8.786067E0,2.8058205E0,7.937487E0,1.2523386E1,1.2171659E1,4.330349E0,4.786537E0,4.962597E-1,2.8649185E0,4.061473E0,7.4277654E0,3.7578173E0,3.691407E0,8.547132E0,9.703049E0,4.414733E0,1.9709678E0,1.1396122E0,1.0447178E0,0E0,0E0,0E0,0E0,0E0,3.0322046E0,0E0,0E0,1.0742874E0,3.0645306E0,0E0,4.821023E0,4.2780285E0,7.8784037E0,8.486791E0,7.807272E0,3.5457742E-1,2.3804884E0,0E0,0E0,1.1209662E0,1.2420826E0,0E0,0E0,0E0,0E0,0E0,0E0,0E0,0E0,0E0,0E0,0E0,0E0,0E0,0E0,0E0,0E0,0E0,0E0,0E0,0E0,0E0,0E0,0E0,0E0,0E0,0E0],"parents":[2147483647,0,0,1,1,2,2,3,3,4,4,5,5,6,6,7,7,8,8,9,9,10,10,11,11,12,12,13,13,14,14,15,15,16,16,17,17,18,18,19,19,20,20,21,21,22,22,28,28,31,31,32,32,34,34,35,35,36,36,37,37,38,38,39,39,40,40,43,43,44,44],"right_children":[2,4,6,8,10,12,14,16,18,20,22,24,26,28,30,32,34,36,38,40,42,44,46,-1,-1,-1,-1,-1,48,-1,-1,50,52,-1,54,56,58,60,62,64,66,-1,-1,68,70,-1,-1,-1,-1,-1,-1,-1,-1,-1,-1,-1,-1,-1,-1,-1,-1,-1,-1,-1,-1,-1,-1,-1,-1,-1,-1],"split_conditions":[1.8101463E-2,1.6653901E-2,6.7288317E-3,-1.7906103E-2,-1.6830743E-3,1.8581054E-3,2.9492632E-2,-6.0548154E-3,-2.1309111E-2,1.4049094E-2,4.895593E-2,-1.1213741E-2,1.55278705E-2,-5.5760223E-2,-2.5159653E-2,1.6916353E-2,-2.4269452E-2,-8.594491E-3,-1.948726E-2,-1.5145468E-2,8.377264E-3,-2.660625E-2,2.067611E-2,-3.7787244E-1,-1.14790715E-1,2.2848009E-1,-2.1455738E-1,-2.0596088E-1,1.7944798E-2,2.0110199E-1,-3.4525484E-1,3.90688E-2,3.1219361E-2,-2.3671436E-1,3.5777118E-2,-6.009803E-3,-2.3423769E-3,-4.6642926E-3,-1.7490676E-2,-6.135715E-4,3.780355E-2,-2.7808246E-1,6.0754318E-2,2.5010807E-2,2.196086E-2,-8.350237E-2,2.265904E-1,3.6357814E-1,-7.7440694E-2,-4.357588E-1,-5.154309E-2,1.4945844E-1,-2.1891674E-1,2.641397E-1,-2.5835574E-1,-3.359195E-1,6.426562E-2,-1.6225165E-1,1.5562825E-1,-3.648989E-1,5.6543414E-2,-3.5160847E-2,2.2718647E-1,-2.327223E-2,-2.6116502E-1,2.4854259E-1,-1.3838266E-1,8.766201E-2,-2.2329849E-1,-3.60521E-1,-1.1116547E-2],"split_indices":[98,89,32,87,117,16,151,65,194,146,142,89,140,157,204,236,139,204,189,93,112,99,239,0,0,0,0,0,188,0,0,150,131,0,36,93,102,104,93,3,89,0,0,81,61,0,0,0,0,0,0,0,0,0,0,0,0,0,0,0,0,0,0,0,0,0,0,0,0,0,0],"split_type":[0,0,0,0,0,0,0,0,0,0,0,0,0,0,0,0,0,0,0,0,0,0,0,0,0,0,0,0,0,0,0,0,0,0,0,0,0,0,0,0,0,0,0,0,0,0,0,0,0,0,0,0,0,0,0,0,0,0,0,0,0,0,0,0,0,0,0,0,0,0,0],"sum_hessian":[2.4825694E2,2.1436807E2,3.388887E1,1.7505072E2,3.931734E1,1.650306E1,1.738581E1,2.694858E1,1.4810214E2,1.8184635E1,2.1132708E1,1.3073126E1,3.4299343E0,7.829245E0,9.556566E0,1.5750996E1,1.1197584E1,4.0568115E1,1.0753403E2,1.2394476E1,5.7901587E0,1.8837315E1,2.2953925E0,1.1222669E1,1.8504575E0,1.2597504E0,2.170184E0,1.2514842E0,6.5777607E0,2.3267124E0,7.2298536E0,8.730885E0,7.0201116E0,1.3181036E0,9.87948E0,1.2677373E1,2.7890743E1,2.8911936E1,7.862209E1,2.4015527E0,9.992923E0,4.000797E0,1.7893618E0,2.3763764E0,1.646094E1,1.002863E0,1.2925293E0,5.159987E0,1.417774E0,7.708563E0,1.0223217E0,2.2952905E0,4.724821E0,8.809656E0,1.0698243E0,9.965217E0,2.7121563E0,1.0307213E1,1.758353E1,4.164301E0,2.4747635E1,1.1725491E1,6.689661E1,1.0180655E0,1.3834872E0,8.9778385E0,1.0150847E0,1.3024597E0,1.0739166E0,1.542261E1,1.0383278E0],"tree_param":{"num_deleted":"0","num_feature":"246","num_nodes":"71","size_leaf_vector":"1"}},{"base_weights":[-3.472479E-2,-4.732849E-1,4.593988E-2,-8.8376695E-1,-4.962702E-2,-4.9245247E-1,1.4132427E-1,-1.0500779E0,-1.7523946E-2,-4.9583608E-1,4.4777447E-1,-1.1080754E-1,-9.285584E-1,1.9616573E-1,-6.9869936E-1,-1.2160306E-2,-1.1436783E0,-2.0270263E-1,1.6667134E-1,1.9912426E-1,-8.6721265E-1,2.963385E-1,-2.020011E-1,-6.385099E-1,5.940787E-1,-5.8500845E-2,-1.1165496E0,2.975396E-1,-2.4709988E-1,-9.1628337E-1,1.8957342E-1,-1.0211732E-1,-3.5764813E-1,-2.0150617E-1,2.5443915E-1,1.3552565E-3,-3.1961828E-1,1.8854183E-1,-7.229129E-1,-3.3403397E-1,6.6925406E-1,9.5385695E-1,-1.3077562E-1,1.8073437E-1,-1.7604078E-1,-5.38973E-2,-3.617602E-1,4.2036116E-1,-2.5889704E-1,3.1229413E-1,-6.0979325E-1,2.7109975E-2,-1.0804484E0,-1.35807255E-2,-3.032965E-1,2.3618472E-1,6.3214414E-2,4.4214014E-2,3.2683516E-1,-8.282299E-2,1.5308765E-1,1.1838469E-1,-2.4778396E-1,-2.2767188E-1,1.7927125E-1,-2.1963888E-1,1.4655785E-1,-9.679521E-2,-3.432607E-1],"categories":[],"categories_nodes":[],"categories_segments":[],"categories_sizes":[],"default_left":[0,0,0,0,0,0,0,0,0,0,0,0,0,0,0,0,0,0,0,0,0,0,0,0,0,0,0,0,0,0,0,0,0,0,0,0,0,0,0,0,0,0,0,0,0,0,0,0,0,0,0,0,0,0,0,0,0,0,0,0,0,0,0,0,0,0,0,0,0],"id":7,"left_children":[1,3,5,7,9,11,13,15,17,19,21,23,25,27,29,-1,31,-1,-1,33,35,-1,37,39,41,43,45,47,49,51,-1,-1,-1,-1,-1,-1,-1,-1,53,-1,55,57,-1,-1,-1,-1,-1,59,61,63,65,-1,67,-1,-1,-1,-1,-1,-1,-1,-1,-1,-1,-1,-1,-1,-1,-1,-1],"loss_changes":[8.119706E0,6.155974E0,1.0045582E1,2.5816288E0,4.35095E0,4.8002224E0,7.775118E0,1.3827324E0,1.8553936E0,2.8260896E0,3.470736E0,6.645556E0,2.1612854E0,7.1022973E0,3.5842667E0,0E0,1.3178444E-1,0E0,0E0,3.052893E0,1.1946254E0,0E0,2.6439528E0,7.028157E0,3.280406E0,1.5665816E0,7.154865E-1,8.84015E0,6.2082334E0,1.6393967E0,0E0,0E0,0E0,0E0,0E0,0E0,0E0,0E0,6.522211E-1,0E0,1.3765693E-2,5.0022984E-1,0E0,0E0,0E0,0E0,0E0,6.7195873E0,9.115864E0,4.220799E0,2.8209138E0,0E0,2.2082329E-2,0E0,0E0,0E0,0E0,0E0,0E0,0E0,0E0,0E0,0E0,0E0,0E0,0E0,0E0,0E0,0E0],"parents":[2147483647,0,0,1,1,2,2,3,3,4,4,5,5,6,6,7,7,8,8,9,9,10,10,11,11,12,12,13,13,14,14,16,16,19,19,20,20,22,22,23,23,24,24,25,25,26,26,27,27,28,28,29,29,38,38,40,40,41,41,47,47,48,48,49,49,50,50,52,52],"right_children":[2,4,6,8,10,12,14,16,18,20,22,24,26,28,30,-1,32,-1,-1,34,36,-1,38,40,42,44,46,48,50,52,-1,-1,-1,-1,-1,-1,-1,-1,54,-1,56,58,-1,-1,-1,-1,-1,60,62,64,66,-1,68,-1,-1,-1,-1,-1,-1,-1,-1,-1,-1,-1,-1,-1,-1,-1,-1],"split_conditions":[-1.691563E-2,-2.2908063E-3,-1.8101463E-2,3.305118E-2,-2.7675682E-3,-6.7288317E-3,8.334205E-2,-4.74701E-2,-7.4629616E-3,-3.1203609E-2,2.7773893E-3,-3.0170545E-2,-1.8581054E-3,1.7490676E-2,1.691149E-2,-1.2160306E-2,-5.2873227E-3,-2.0270263E-1,1.6667134E-1,-5.365417E-2,1.0606228E-2,2.963385E-1,-2.8289998E-2,2.1709578E-2,2.440317E-2,1.4811216E-3,-4.579946E-2,1.763068E-2,-2.270054E-2,-6.482996E-2,1.8957342E-1,-1.0211732E-1,-3.5764813E-1,-2.0150617E-1,2.5443915E-1,1.3552565E-3,-3.1961828E-1,1.8854183E-1,6.27273E-2,-3.3403397E-1,4.2510734E-4,-1.7644158E-2,-1.3077562E-1,1.8073437E-1,-1.7604078E-1,-5.38973E-2,-3.617602E-1,-1.6211348E-2,4.34969E-3,-9.530532E-2,6.063341E-2,2.7109975E-2,3.080693E-3,-1.35807255E-2,-3.032965E-1,2.3618472E-1,6.3214414E-2,4.4214014E-2,3.2683516E-1,-8.282299E-2,1.5308765E-1,1.1838469E-1,-2.4778396E-1,-2.2767188E-1,1.7927125E-1,-2.1963888E-1,1.4655785E-1,-9.679521E-2,-3.432607E-1],"split_indices":[89,0,98,65,194,32,22,190,16,11,11,151,16,93,162,0,147,0,0,206,122,0,195,204,12,38,200,87,168,154,0,0,0,0,0,0,0,0,29,0,160,188,0,0,0,0,0,83,65,135,136,0,209,0,0,0,0,0,0,0,0,0,0,0,0,0,0,0,0],"split_type":[0,0,0,0,0,0,0,0,0,0,0,0,0,0,0,0,0,0,0,0,0,0,0,0,0,0,0,0,0,0,0,0,0,0,0,0,0,0,0,0,0,0,0,0,0,0,0,0,0,0,0,0,0,0,0,0,0,0,0,0,0,0,0,0,0,0,0,0,0],"sum_hessian":[2.2790926E2,3.4650898E1,1.9325836E2,1.704752E1,1.7603378E1,2.8459171E1,1.6479918E2,1.4123677E1,2.9238427E0,9.280854E0,8.322524E0,1.5846057E1,1.2613114E1,1.5541904E2,9.380151E0,1.3199689E0,1.2803708E1,1.2776153E0,1.6462274E0,3.3938093E0,5.8870444E0,4.261027E0,4.0614967E0,9.11581E0,6.730247E0,2.4740317E0,1.0139082E1,1.26758415E2,2.8660616E1,8.32948E0,1.0506711E0,1.1853254E0,1.1618383E1,1.4343317E0,1.9594778E0,1.2714769E0,4.6155677E0,1.4859717E0,2.5755253E0,6.7962313E0,2.3195786E0,5.0427403E0,1.6875067E0,1.0366943E0,1.4373373E0,1.144576E0,8.994507E0,1.0403864E2,2.2719774E1,1.1328011E1,1.7332605E1,1.2309446E0,7.0985355E0,1.1134603E0,1.4620649E0,1.2745687E0,1.0450099E0,1.0261832E0,4.0165567E0,1.1661383E1,9.237726E1,1.069644E1,1.2023334E1,2.0331993E0,9.294811E0,1.5895495E1,1.4371104E0,1.0211942E0,6.077341E0],"tree_param":{"num_deleted":"0","num_feature":"246","num_nodes":"69","size_leaf_vector":"1"}},{"base_weights":[-3.481863E-2,-6.553777E-1,1.2811309E-2,1.9929284E-1,-8.0387914E-1,1.2779467E-1,-3.173665E-1,-9.934557E-1,6.0708944E-2,-2.2135422E-1,2.6552582E-1,-5.0319386E-1,2.0471302E-1,-3.1895083E-1,-5.61105E-2,-1.8759386E-1,2.2778548E-1,-7.4992716E-1,1.3733058E-1,4.615807E-1,-5.2605934E-2,-7.33199E-1,-2.9798161E-2,7.027618E-1,-2.7867165E-1,-9.3228035E-2,-1.4027513E0,-6.072528E-1,3.8198167E-1,6.7737997E-1,-2.8369932E-2,8.8433814E-1,-1.9866781E-1,-3.8826317E-1,-1.3426521E0,3.977421E-1,-3.049247E-1,9.837092E-1,-7.115039E-2,5.3023356E-1,-6.628395E-1,-3.222282E-1,1.4039202E-1,-5.2888636E-2,-4.7397253E-1,-3.1490827E-1,1.7094877E-1,1.7703888E-1,-1.6150174E-1,-3.4093667E-2,2.524384E-1,-2.9858708E-1,7.65897E-2,3.0893496E-1,4.041663E-2,-2.9664811E-1,3.4841166E-3,9.8577276E-2,-2.0138675E-1,-9.6814275E-2,-4.297933E-1,1.9578317E-1,-1.5399061E-1,8.711025E-2,3.2111117E-1,1.9945814E-1,3.7619106E-2,-3.7134823E-1,-1.368998E-2],"categories":[],"categories_nodes":[],"categories_segments":[],"categories_sizes":[],"default_left":[0,0,0,0,0,0,0,0,0,0,0,0,0,0,0,0,0,0,0,0,0,0,0,0,0,0,0,0,0,0,0,0,0,0,0,0,0,0,0,0,0,0,0,0,0,0,0,0,0,0,0,0,0,0,0,0,0,0,0,0,0,0,0,0,0,0,0,0,0],"id":8,"left_children":[1,3,5,-1,7,9,11,13,15,17,19,21,23,-1,-1,-1,-1,25,27,29,31,33,35,37,39,41,43,45,47,49,51,53,55,57,59,61,-1,63,-1,65,67,-1,-1,-1,-1,-1,-1,-1,-1,-1,-1,-1,-1,-1,-1,-1,-1,-1,-1,-1,-1,-1,-1,-1,-1,-1,-1,-1,-1],"loss_changes":[6.2738523E0,3.4990106E0,7.5518494E0,0E0,2.3634424E0,7.1498156E0,5.0887375E0,4.522829E-1,2.137453E0,8.114904E0,6.648027E0,4.1363544E0,3.6147037E0,0E0,0E0,0E0,0E0,7.259511E0,4.9719276E0,6.9771996E0,5.840028E0,4.872905E0,6.111457E0,2.1552963E0,2.8134556E0,5.8228326E0,1.5842876E0,4.150636E0,4.1870885E0,6.0305367E0,6.0366387E0,4.898796E-1,6.0968895E0,3.8304653E0,3.5154152E-1,2.6936836E0,0E0,3.755951E-2,0E0,8.594656E-2,2.007522E0,0E0,0E0,0E0,0E0,0E0,0E0,0E0,0E0,0E0,0E0,0E0,0E0,0E0,0E0,0E0,0E0,0E0,0E0,0E0,0E0,0E0,0E0,0E0,0E0,0E0,0E0,0E0,0E0],"parents":[2147483647,0,0,1,1,2,2,4,4,5,5,6,6,7,7,8,8,9,9,10,10,11,11,12,12,17,17,18,18,19,19,20,20,21,21,22,22,23,23,24,24,25,25,26,26,27,27,28,28,29,29,30,30,31,31,32,32,33,33,34,34,35,35,37,37,39,39,40,40],"right_children":[2,4,6,-1,8,10,12,14,16,18,20,22,24,-1,-1,-1,-1,26,28,30,32,34,36,38,40,42,44,46,48,50,52,54,56,58,60,62,-1,64,-1,66,68,-1,-1,-1,-1,-1,-1,-1,-1,-1,-1,-1,-1,-1,-1,-1,-1,-1,-1,-1,-1,-1,-1,-1,-1,-1,-1,-1,-1],"split_conditions":[-7.340541E-2,-1.5226469E-2,1.948726E-2,1.9929284E-1,1.030502E-2,-2.6350468E-2,4.634789E-3,2.925155E-2,-2.8320827E-2,7.6878653E-3,9.402698E-3,-6.778815E-3,1.9612845E-2,-3.1895083E-1,-5.61105E-2,-1.8759386E-1,2.2778548E-1,-2.4749003E-2,-2.5418345E-2,2.179338E-2,-9.710166E-3,-2.5473645E-2,1.9291284E-2,3.3757273E-2,3.957128E-3,-1.8908693E-2,-1.1000184E-2,2.0617323E-2,1.5113283E-2,-2.1309111E-2,-1.5833899E-3,1.254061E-2,-2.0455614E-2,3.7629105E-2,-6.689574E-2,2.1740142E-2,-3.049247E-1,-4.2454496E-2,-7.115039E-2,-8.706386E-3,2.8843574E-2,-3.222282E-1,1.4039202E-1,-5.2888636E-2,-4.7397253E-1,-3.1490827E-1,1.7094877E-1,1.7703888E-1,-1.6150174E-1,-3.4093667E-2,2.524384E-1,-2.9858708E-1,7.65897E-2,3.0893496E-1,4.041663E-2,-2.9664811E-1,3.4841166E-3,9.8577276E-2,-2.0138675E-1,-9.6814275E-2,-4.297933E-1,1.9578317E-1,-1.5399061E-1,8.711025E-2,3.2111117E-1,1.9945814E-1,3.7619106E-2,-3.7134823E-1,-1.368998E-2],"split_indices":[114,57,189,0,89,80,147,14,83,90,59,194,145,0,0,0,0,124,118,194,230,46,196,30,30,75,55,198,89,194,139,162,188,213,166,96,0,108,0,2,114,0,0,0,0,0,0,0,0,0,0,0,0,0,0,0,0,0,0,0,0,0,0,0,0,0,0,0,0],"split_type":[0,0,0,0,0,0,0,0,0,0,0,0,0,0,0,0,0,0,0,0,0,0,0,0,0,0,0,0,0,0,0,0,0,0,0,0,0,0,0,0,0,0,0,0,0,0,0,0,0,0,0,0,0,0,0,0,0,0,0,0,0,0,0,0,0,0,0,0,0],"sum_hessian":[2.1097739E2,1.41293745E1,1.96848E2,1.0778073E0,1.3051567E1,1.4645758E2,5.039043E1,1.0582182E1,2.4693854E0,4.125893E1,1.05198654E2,3.718949E1,1.3200937E1,9.447115E0,1.1350665E0,1.2988006E0,1.1705848E0,1.623847E1,2.5020458E1,6.480835E1,4.039031E1,2.4659544E1,1.2529948E1,6.2783203E0,6.9226174E0,8.664924E0,7.5735474E0,5.8213506E0,1.9199108E1,4.4726128E1,2.0082218E1,4.7656317E0,3.5624676E1,1.6792475E1,7.8670683E0,9.158201E0,3.371747E0,4.7976985E0,1.4806217E0,2.106645E0,4.8159723E0,2.8208075E0,5.844116E0,1.2077113E0,6.365836E0,4.30966E0,1.5116907E0,1.5950402E1,3.2487059E0,7.736471E0,3.698966E1,3.986185E0,1.6096033E1,3.6782153E0,1.0874164E0,6.709708E0,2.8914968E1,4.7077065E0,1.2084768E1,1.009686E0,6.8573823E0,7.3778768E0,1.7803246E0,1.0164111E0,3.7812874E0,1.0989122E0,1.0077327E0,1.9726878E0,2.8432846E0],"tree_param":{"num_deleted":"0","num_feature":"246","num_nodes":"69","size_leaf_vector":"1"}},{"base_weights":[-3.3966955E-2,-7.9590976E-1,-1.5069031E-3,-3.177045E-1,-1.4626175E-1,3.106716E-2,-8.0367666E-1,-2.0317556E-1,1.5716927E-1,9.197021E-2,-4.0441462E-1,4.6135016E-2,-1.0010203E0,-3.7769765E-1,1.6848496E-1,-7.217573E-2,-7.521801E-1,-5.0189707E-2,-3.4744823E-1,-5.006546E-1,1.6996126E-1,-8.9628977E-1,2.0390517E-1,-5.038771E-1,4.6457714E-1,-9.9666876E-1,4.7414616E-2,-2.8596318E-1,-4.961228E-2,-6.382014E-2,-3.0844578E-1,7.1883984E-2,-2.4436244E-1,-2.857428E-1,1.0948278E-2,-1.1980199E-1,2.4518594E-1,-4.5377724E-2,-3.3434072E-1,1.8412791E-1,-1.699923E-1],"categories":[],"categories_nodes":[],"categories_segments":[],"categories_sizes":[],"default_left":[0,0,0,0,0,0,0,0,0,0,0,0,0,0,0,0,0,0,0,0,0,0,0,0,0,0,0,0,0,0,0,0,0,0,0,0,0,0,0,0,0],"id":9,"left_children":[1,3,5,-1,7,9,11,-1,-1,13,15,-1,17,19,21,23,25,-1,-1,27,-1,29,31,33,35,37,39,-1,-1,-1,-1,-1,-1,-1,-1,-1,-1,-1,-1,-1,-1],"loss_changes":[4.882649E0,1.223917E0,5.0000663E0,0E0,1.5951217E0,4.915453E0,1.5648398E0,0E0,0E0,5.8917837E0,2.5745516E0,0E0,6.3478565E-1,2.9572113E0,5.468483E0,3.18665E0,2.1996832E0,0E0,0E0,3.0144677E0,0E0,2.0468163E-1,5.1575503E0,1.862979E0,2.2156634E0,6.7569447E-1,1.5763832E0,0E0,0E0,0E0,0E0,0E0,0E0,0E0,0E0,0E0,0E0,0E0,0E0,0E0,0E0],"parents":[2147483647,0,0,1,1,2,2,4,4,5,5,6,6,9,9,10,10,12,12,13,13,14,14,15,15,16,16,19,19,21,21,22,22,23,23,24,24,25,25,26,26],"right_children":[2,4,6,-1,8,10,12,-1,-1,14,16,-1,18,20,22,24,26,-1,-1,28,-1,30,32,34,36,38,40,-1,-1,-1,-1,-1,-1,-1,-1,-1,-1,-1,-1,-1,-1],"split_conditions":[-3.350013E-2,3.0476578E-2,3.427298E-2,-3.177045E-1,-3.951647E-2,1.8446099E-2,-1.5563835E-2,-2.0317556E-1,1.5716927E-1,-1.8101463E-2,1.9468955E-4,4.6135016E-2,-2.1341214E-2,2.2324946E-2,-9.751244E-2,-3.2077606E-3,-2.0517777E-4,-5.0189707E-2,-3.4744823E-1,2.08112E-3,1.6996126E-1,-1.0854974E-3,9.5340185E-2,-5.6890226E-3,-1.4591369E-2,-1.0463891E-2,2.1835627E-2,-2.8596318E-1,-4.961228E-2,-6.382014E-2,-3.0844578E-1,7.1883984E-2,-2.4436244E-1,-2.857428E-1,1.0948278E-2,-1.1980199E-1,2.4518594E-1,-4.5377724E-2,-3.3434072E-1,1.8412791E-1,-1.699923E-1],"split_indices":[99,170,99,0,122,98,176,0,0,98,61,0,193,204,13,99,3,0,0,158,0,16,13,174,44,11,134,0,0,0,0,0,0,0,0,0,0,0,0,0,0],"split_type":[0,0,0,0,0,0,0,0,0,0,0,0,0,0,0,0,0,0,0,0,0,0,0,0,0,0,0,0,0,0,0,0,0,0,0,0,0,0,0,0,0],"sum_hessian":[1.964652E2,7.066717E0,1.8939847E2,4.5812078E0,2.4855094E0,1.8293137E2,6.4671044E0,1.3808397E0,1.1046696E0,1.6117896E2,2.175241E1,1.1428802E0,5.324224E0,2.2028137E1,1.3915082E2,1.1742099E1,1.0010312E1,1.1717979E0,4.1524262E0,1.990581E1,2.1223276E0,3.697419E0,1.354534E2,6.5418487E0,5.20025E0,7.477485E0,2.5328264E0,7.686997E0,1.2218813E1,1.0205165E0,2.6769025E0,1.3160391E2,3.8494844E0,3.1577523E0,3.3840964E0,1.4692645E0,3.7309859E0,1.1938298E0,6.2836556E0,1.317851E0,1.2149755E0],"tree_param":{"num_deleted":"0","num_feature":"246","num_nodes":"41","size_leaf_vector":"1"}},{"base_weights":[-3.8488775E-2,2.4018623E-2,-3.8233083E-1,-3.2909924E-1,9.999769E-2,-2.2796012E-2,-8.556354E-1,-5.070814E-1,9.949638E-1,-6.487288E-1,1.590471E-1,3.1070128E-1,-7.335231E-1,-1.1292431E0,1.348919E-1,-1.1338391E0,-1.3358764E-1,1.05677225E-1,3.5546285E-1,-9.63928E-1,2.7155492E-1,2.778918E-1,-2.4150078E-1,-2.86657E-1,8.174692E-1,8.620689E-2,-3.094554E-1,-1.2844814E0,4.0850647E-2,4.6166837E-2,-1.367688E0,3.0904E-1,-6.131589E-1,-4.923026E-2,-3.1808513E-1,-9.761402E-2,2.0332775E-1,-4.361003E-2,4.6210137E-1,-5.950789E-1,2.2040807E-1,4.340877E-1,-9.2566186E-1,-6.7409514E-3,2.9965332E-1,-6.2104765E-2,-1.5176053E0,-8.390555E-2,-4.9333292E-1,-1.203767E-1,2.2968827E-1,-2.993815E-1,4.1738242E-2,-1.04274355E-1,1.1350546E-1,1.8909274E-1,-4.4388704E-2,1.3333245E-1,-2.2845177E-1,-1.2591317E-1,1.9624205E-1,2.462828E-1,-9.472205E-2,-5.7726998E-2,-3.359073E-1,-5.049931E-1,-1.7193635E-1],"categories":[],"categories_nodes":[],"categories_segments":[],"categories_sizes":[],"default_left":[0,0,0,0,0,0,0,0,0,0,0,0,0,0,0,0,0,0,0,0,0,0,0,0,0,0,0,0,0,0,0,0,0,0,0,0,0,0,0,0,0,0,0,0,0,0,0,0,0,0,0,0,0,0,0,0,0,0,0,0,0,0,0,0,0,0,0],"id":10,"left_children":[1,3,5,7,9,11,13,15,17,19,21,23,25,27,-1,29,31,-1,-1,33,35,37,39,41,43,-1,-1,45,-1,-1,47,49,51,-1,-1,-1,-1,53,55,57,59,61,63,-1,-1,-1,65,-1,-1,-1,-1,-1,-1,-1,-1,-1,-1,-1,-1,-1,-1,-1,-1,-1,-1,-1,-1],"loss_changes":[4.062476E0,4.3396E0,4.9271894E0,7.2575774E0,5.977359E0,4.3871064E0,4.979686E0,5.91681E0,3.8276672E-2,3.1362176E0,5.9677377E0,4.062477E0,2.0918217E0,2.2643633E0,0E0,3.085105E0,3.8780904E0,0E0,0E0,4.118104E-1,1.0227231E0,5.709016E0,4.850767E0,3.4159365E0,1.1042805E0,0E0,0E0,2.089694E0,0E0,0E0,2.00317E0,3.453478E0,2.6500742E0,0E0,0E0,0E0,0E0,4.7366247E0,6.3687057E0,3.216988E0,3.955829E0,1.3488085E0,3.2348895E-1,0E0,0E0,0E0,2.419014E-1,0E0,0E0,0E0,0E0,0E0,0E0,0E0,0E0,0E0,0E0,0E0,0E0,0E0,0E0,0E0,0E0,0E0,0E0,0E0,0E0],"parents":[2147483647,0,0,1,1,2,2,3,3,4,4,5,5,6,6,7,7,8,8,9,9,10,10,11,11,12,12,13,13,15,15,16,16,19,19,20,20,21,21,22,22,23,23,24,24,27,27,30,30,31,31,32,32,37,37,38,38,39,39,40,40,41,41,42,42,46,46],"right_children":[2,4,6,8,10,12,14,16,18,20,22,24,26,28,-1,30,32,-1,-1,34,36,38,40,42,44,-1,-1,46,-1,-1,48,50,52,-1,-1,-1,-1,54,56,58,60,62,64,-1,-1,-1,66,-1,-1,-1,-1,-1,-1,-1,-1,-1,-1,-1,-1,-1,-1,-1,-1,-1,-1,-1,-1],"split_conditions":[6.7401156E-3,-6.7401156E-3,2.9965846E-3,2.8655738E-2,-6.149403E-2,1.6814448E-2,4.52155E-3,-5.5393158E-3,-2.350704E-2,6.997701E-2,3.9176982E-2,-3.0996444E-4,1.7954323E-2,2.0025754E-2,1.348919E-1,-3.164972E-2,2.0436255E-2,1.05677225E-1,3.5546285E-1,-3.2624483E-2,-8.16156E-2,-8.465512E-3,-8.083234E-3,5.0326907E-3,-1.8446099E-2,8.620689E-2,-3.094554E-1,-1.5581061E-2,4.0850647E-2,4.6166837E-2,1.5089117E-4,2.7619253E-3,8.2686365E-2,-4.923026E-2,-3.1808513E-1,-9.761402E-2,2.0332775E-1,7.536881E-3,2.397199E-2,3.681118E-2,-2.4308504E-3,6.268945E-3,3.233627E-3,-6.7409514E-3,2.9965332E-1,-6.2104765E-2,-2.7598396E-3,-8.390555E-2,-4.9333292E-1,-1.203767E-1,2.2968827E-1,-2.993815E-1,4.1738242E-2,-1.04274355E-1,1.1350546E-1,1.8909274E-1,-4.4388704E-2,1.3333245E-1,-2.2845177E-1,-1.2591317E-1,1.9624205E-1,2.462828E-1,-9.472205E-2,-5.7726998E-2,-3.359073E-1,-5.049931E-1,-1.7193635E-1],"split_indices":[100,100,179,162,110,81,38,179,174,69,4,81,239,195,0,141,56,0,0,89,27,126,5,72,98,0,0,240,0,0,152,16,56,0,0,0,0,206,194,157,59,89,84,0,0,0,236,0,0,0,0,0,0,0,0,0,0,0,0,0,0,0,0,0,0,0,0],"split_type":[0,0,0,0,0,0,0,0,0,0,0,0,0,0,0,0,0,0,0,0,0,0,0,0,0,0,0,0,0,0,0,0,0,0,0,0,0,0,0,0,0,0,0,0,0,0,0,0,0,0,0,0,0,0,0,0,0,0,0,0,0,0,0,0,0,0,0],"sum_hessian":[1.8758955E2,1.5952034E2,2.806922E1,2.7655958E1,1.3186438E2,1.6547476E1,1.1521743E1,2.4922829E1,2.73313E0,8.909442E0,1.2295493E2,1.164574E1,4.901737E0,9.636608E0,1.8851345E0,8.546025E0,1.6376802E1,1.2745624E0,1.4585675E0,6.6011195E0,2.3083227E0,9.5057175E1,2.7897758E1,5.5444727E0,6.101267E0,1.1155964E0,3.7861407E0,8.570168E0,1.0664403E0,1.3659754E0,7.1800504E0,8.701349E0,7.675453E0,1.0003686E0,5.600751E0,1.0152873E0,1.2930354E0,3.4903385E1,6.015379E1,1.5638572E1,1.2259187E1,2.7562885E0,2.7881842E0,1.2391131E0,4.8621535E0,1.8602704E0,6.709897E0,1.8637415E0,5.316309E0,3.4521534E0,5.249196E0,4.8620644E0,2.8133888E0,2.0390688E1,1.4512699E1,4.7126747E1,1.3027045E1,1.9276681E0,1.3710903E1,4.964586E0,7.294601E0,1.7556587E0,1.0006297E0,1.0001874E0,1.7879969E0,5.0428934E0,1.6670036E0],"tree_param":{"num_deleted":"0","num_feature":"246","num_nodes":"67","size_leaf_vector":"1"}},{"base_weights":[-3.448293E-2,-3.7412685E-1,2.3567133E-2,-9.3391016E-2,-8.1351537E-1,4.480891E-1,-5.9858568E-2,1.8575174E-1,-6.617005E-1,7.297349E-2,-1.0145983E0,-1.4688468E-1,5.4529864E-1,3.6346212E-2,-5.173336E-1,5.758321E-1,-4.166923E-1,-9.3649626E-1,7.6464795E-2,-3.4049267E-1,-1.0328286E-1,8.024842E-1,2.9546024E-2,1.089888E-1,-5.1415783E-1,8.827868E-2,-7.653662E-1,-1.5489148E-1,8.5521585E-1,1.2801185E-1,-2.4081147E-1,-3.313091E-1,-6.394174E-2,9.139766E-1,-8.1246786E-2,-5.6738853E-1,4.4731447E-1,2.9098454E-1,-2.0197406E-1,-6.6653734E-1,1.8413691E-1,-5.609173E-1,6.0327595E-1,-9.480438E-1,1.5251309E-1,2.8529298E-1,8.5848436E-2,-2.9006545E-2,3.032118E-1,8.40767E-2,-3.092947E-1,2.1485785E-1,-9.329882E-2,-4.47547E-2,1.467072E-1,7.261093E-2,-1.3369702E-1,-3.392609E-2,-2.896352E-1,1.3040247E-2,-2.387042E-1,2.5711137E-1,-2.7368497E-2,-5.0822333E-2,-3.2197264E-1],"categories":[],"categories_nodes":[],"categories_segments":[],"categories_sizes":[],"default_left":[0,0,0,0,0,0,0,0,0,0,0,0,0,0,0,0,0,0,0,0,0,0,0,0,0,0,0,0,0,0,0,0,0,0,0,0,0,0,0,0,0,0,0,0,0,0,0,0,0,0,0,0,0,0,0,0,0,0,0,0,0,0,0,0,0],"id":11,"left_children":[1,3,5,7,9,11,13,15,17,-1,19,-1,21,23,25,27,29,31,-1,-1,-1,33,35,37,39,41,43,-1,45,-1,-1,-1,-1,47,-1,49,51,53,55,57,-1,59,61,63,-1,-1,-1,-1,-1,-1,-1,-1,-1,-1,-1,-1,-1,-1,-1,-1,-1,-1,-1,-1,-1],"loss_changes":[3.5237637E0,3.1412418E0,5.452353E0,2.8266878E0,2.3798451E0,2.5712237E0,5.692544E0,3.1093988E0,1.7079144E0,0E0,3.0535793E-1,0E0,3.077146E0,4.352974E0,3.4421287E0,2.831078E0,2.0937407E0,3.3553123E-1,0E0,0E0,0E0,2.1095848E0,2.452517E0,5.4776053E0,2.5920742E0,2.8205073E0,4.214534E0,0E0,8.820152E-2,0E0,0E0,0E0,0E0,1.4981337E0,0E0,1.8886132E0,1.3942848E0,5.3737273E0,3.9964967E0,1.8211961E0,0E0,5.740894E-1,8.9271486E-1,1.219841E0,0E0,0E0,0E0,0E0,0E0,0E0,0E0,0E0,0E0,0E0,0E0,0E0,0E0,0E0,0E0,0E0,0E0,0E0,0E0,0E0,0E0],"parents":[2147483647,0,0,1,1,2,2,3,3,4,4,5,5,6,6,7,7,8,8,10,10,12,12,13,13,14,14,15,15,16,16,17,17,21,21,22,22,23,23,24,24,25,25,26,26,28,28,33,33,35,35,36,36,37,37,38,38,39,39,41,41,42,42,43,43],"right_children":[2,4,6,8,10,12,14,16,18,-1,20,-1,22,24,26,28,30,32,-1,-1,-1,34,36,38,40,42,44,-1,46,-1,-1,-1,-1,48,-1,50,52,54,56,58,-1,60,62,64,-1,-1,-1,-1,-1,-1,-1,-1,-1,-1,-1,-1,-1,-1,-1,-1,-1,-1,-1,-1,-1],"split_conditions":[-1.691563E-2,7.963204E-3,-1.4813771E-2,-1.1794178E-2,-3.0150102E-2,-9.309575E-2,1.2656186E-2,1.3495629E-2,1.5440695E-2,7.297349E-2,1.5247789E-2,-1.4688468E-1,4.0881806E-3,3.675538E-2,-1.1036404E-2,-3.5729934E-2,3.6774022E-3,-1.4069894E-2,7.6464795E-2,-3.4049267E-1,-1.0328286E-1,4.167098E-3,-9.910972E-3,1.204148E-2,3.556303E-2,-1.0667524E-2,6.767159E-2,-1.5489148E-1,2.6226243E-2,1.2801185E-1,-2.4081147E-1,-3.313091E-1,-6.394174E-2,-1.5981155E-2,-8.1246786E-2,-3.1812344E-2,5.6079393E-3,-2.5437305E-2,-3.6951269E-3,-3.4888025E-2,1.8413691E-1,9.564691E-3,1.7661462E-2,-3.038336E-2,1.5251309E-1,2.8529298E-1,8.5848436E-2,-2.9006545E-2,3.032118E-1,8.40767E-2,-3.092947E-1,2.1485785E-1,-9.329882E-2,-4.47547E-2,1.467072E-1,7.261093E-2,-1.3369702E-1,-3.392609E-2,-2.896352E-1,1.3040247E-2,-2.387042E-1,2.5711137E-1,-2.7368497E-2,-5.0822333E-2,-3.2197264E-1],"split_indices":[89,33,17,170,61,10,99,209,111,0,23,0,1,15,90,86,153,13,0,0,0,203,176,189,230,98,97,0,154,0,0,0,0,173,0,243,100,56,100,145,0,9,1,127,0,0,0,0,0,0,0,0,0,0,0,0,0,0,0,0,0,0,0,0,0],"split_type":[0,0,0,0,0,0,0,0,0,0,0,0,0,0,0,0,0,0,0,0,0,0,0,0,0,0,0,0,0,0,0,0,0,0,0,0,0,0,0,0,0,0,0,0,0,0,0,0,0,0,0,0,0,0,0,0,0,0,0,0,0,0,0,0,0],"sum_hessian":[1.7727571E2,2.508157E1,1.5219415E2,1.6043524E1,9.038045E0,2.4278564E1,1.2791558E2,1.1210361E1,4.833164E0,1.4113321E0,7.626713E0,1.9013189E0,2.2377247E1,1.0645018E2,2.1465405E1,6.831294E0,4.379066E0,3.7016633E0,1.131501E0,5.8779616E0,1.7487512E0,1.4560532E1,7.8167143E0,9.47494E1,1.1700779E1,6.4240675E0,1.5041336E1,1.2188157E0,5.6124787E0,1.3418468E0,3.0372193E0,2.5769243E0,1.1247389E0,1.332483E1,1.235702E0,3.0708063E0,4.745908E0,5.9809326E1,3.4940075E1,1.0668583E1,1.0321963E0,2.802333E0,3.6217346E0,1.3378344E1,1.6629924E0,4.229572E0,1.3829066E0,1.1639423E0,1.2160888E1,1.2255172E0,1.8452891E0,3.5446157E0,1.201292E0,1.8635765E1,4.117356E1,1.2383337E1,2.2556736E1,4.2247005E0,6.443882E0,1.0119559E0,1.7903771E0,2.4811351E0,1.1405995E0,2.179107E0,1.1199237E1],"tree_param":{"num_deleted":"0","num_feature":"246","num_nodes":"65","size_leaf_vector":"1"}},{"base_weights":[-3.1191029E-2,-1.03358645E-2,-2.6651317E-1,7.315139E-2,-2.2916614E-1,-1.9997501E-1,2.1755919E-1,6.510502E-2,-6.280495E-1,-7.094828E-2,-1.342172E0,4.6933684E-1,-1.3366586E-1,5.565078E-1,-1.2574628E-1,1.5039553E-1,-9.4936347E-1,-3.4823325E-1,3.8225928E-1,-1.6770685E-1,-5.4285884E-1,-1.8140507E-1,6.2835014E-1,3.2190272E-1,-4.4085E-1,8.4706515E-1,-7.406401E-2,-3.2602364E-1,5.888966E-1,-2.4519135E-1,2.2291039E-1,3.9062615E-2,-1.0906363E0,-2.1445368E-1,5.90267E-2,2.1435219E-1,-3.816888E-2,-1.5541424E-1,2.6817778E-1,2.1595006E-1,-1.8702774E-1,2.1143596E-1,-1.1128305E-1,6.30173E-2,-2.1711147E-1,2.9355556E-1,3.4663435E-2,1.0017818E-2,-2.509953E-1,2.5709257E-1,-1.147912E-2,1.0744693E-1,-2.0292437E-1,-3.6384574E-1,-9.477682E-2],"categories":[],"categories_nodes":[],"categories_segments":[],"categories_sizes":[],"default_left":[0,0,0,0,0,0,0,0,0,0,0,0,0,0,0,0,0,0,0,0,0,0,0,0,0,0,0,0,0,0,0,0,0,0,0,0,0,0,0,0,0,0,0,0,0,0,0,0,0,0,0,0,0,0,0],"id":12,"left_children":[1,3,-1,5,7,9,11,13,15,17,19,21,23,25,27,29,31,33,35,-1,-1,37,39,41,43,45,-1,47,49,51,-1,-1,53,-1,-1,-1,-1,-1,-1,-1,-1,-1,-1,-1,-1,-1,-1,-1,-1,-1,-1,-1,-1,-1,-1],"loss_changes":[2.9918888E0,3.0294104E0,0E0,4.7812147E0,5.4145784E0,6.1041293E0,7.053544E0,2.625698E0,5.027592E0,5.0155196E0,5.307088E-1,4.901598E0,4.8701234E0,2.0315995E0,3.1180065E0,1.7222528E0,2.2711601E0,5.061202E0,2.6680238E0,0E0,0E0,4.0330267E0,4.7323647E0,4.024395E0,3.9450521E0,4.5999527E-1,0E0,3.0767112E0,8.450948E-1,1.4628569E0,0E0,0E0,7.9546547E-1,0E0,0E0,0E0,0E0,0E0,0E0,0E0,0E0,0E0,0E0,0E0,0E0,0E0,0E0,0E0,0E0,0E0,0E0,0E0,0E0,0E0,0E0],"parents":[2147483647,0,0,1,1,3,3,4,4,5,5,6,6,7,7,8,8,9,9,10,10,11,11,12,12,13,13,14,14,15,15,16,16,17,17,18,18,21,21,22,22,23,23,24,24,25,25,27,27,28,28,29,29,32,32],"right_children":[2,4,-1,6,8,10,12,14,16,18,20,22,24,26,28,30,32,34,36,-1,-1,38,40,42,44,46,-1,48,50,52,-1,-1,54,-1,-1,-1,-1,-1,-1,-1,-1,-1,-1,-1,-1,-1,-1,-1,-1,-1,-1,-1,-1,-1,-1],"split_conditions":[5.042972E-2,2.6350468E-2,-2.6651317E-1,-2.8882893E-2,-7.6878653E-3,-3.8462447E-4,1.7775344E-2,-3.4200188E-2,-4.8556887E-2,6.357356E-3,-1.3756113E-2,-1.9425368E-2,-6.1131017E-3,9.3800086E-4,1.1378497E-2,6.430993E-3,-2.7040489E-2,1.8949574E-3,3.1848982E-2,-1.6770685E-1,-5.4285884E-1,9.8403925E-3,5.033241E-2,5.7537123E-3,-2.5066833E-3,3.5976362E-3,-7.406401E-2,1.9878011E-2,1.4476021E-2,3.911419E-3,2.2291039E-1,3.9062615E-2,8.626296E-3,-2.1445368E-1,5.90267E-2,2.1435219E-1,-3.816888E-2,-1.5541424E-1,2.6817778E-1,2.1595006E-1,-1.8702774E-1,2.1143596E-1,-1.1128305E-1,6.30173E-2,-2.1711147E-1,2.9355556E-1,3.4663435E-2,1.0017818E-2,-2.509953E-1,2.5709257E-1,-1.147912E-2,1.0744693E-1,-2.0292437E-1,-3.6384574E-1,-9.477682E-2],"split_indices":[77,80,0,237,90,139,155,177,239,197,31,69,25,112,173,160,184,100,8,0,0,176,188,79,105,81,0,118,16,20,0,0,215,0,0,0,0,0,0,0,0,0,0,0,0,0,0,0,0,0,0,0,0,0,0],"split_type":[0,0,0,0,0,0,0,0,0,0,0,0,0,0,0,0,0,0,0,0,0,0,0,0,0,0,0,0,0,0,0,0,0,0,0,0,0,0,0,0,0,0,0,0,0,0,0,0,0,0,0,0,0,0,0],"sum_hessian":[1.6687558E2,1.6389998E2,2.9755952E0,1.19119644E2,4.4780334E1,4.1065468E1,7.805418E1,2.625087E1,1.8529467E1,3.7851715E1,3.2137523E0,4.5267574E1,3.27866E1,6.8073697E0,1.9443499E1,5.5691247E0,1.2960341E1,2.3627426E1,1.4224291E1,2.0218613E0,1.1918912E0,8.861636E0,3.6405937E1,1.3184881E1,1.9601717E1,4.959372E0,1.8479977E0,1.5612046E1,3.8314526E0,3.6913912E0,1.8777332E0,1.508797E0,1.1451545E1,1.393902E1,9.688406E0,8.366153E0,5.8581376E0,7.143531E0,1.718105E0,3.4322502E1,2.083435E0,8.480897E0,4.7039843E0,6.015704E0,1.3586014E1,3.9177132E0,1.041659E0,9.7112055E0,5.9008417E0,2.4274194E0,1.4040332E0,1.6092471E0,2.082144E0,9.4030485E0,2.0484958E0],"tree_param":{"num_deleted":"0","num_feature":"246","num_nodes":"55","size_leaf_vector":"1"}},{"base_weights":[-2.6598861E-2,-5.839254E-1,5.4528974E-3,1.4267197E-1,-3.210382E-1,4.7638097E-1,-4.935352E-2,-1.2645005E-1,4.869301E-1,-4.4567218E-1,6.656071E-1,-5.404809E-1,3.959377E-3,9.874476E-3,2.0584412E-1,-2.0201038E-1,4.877572E-3,-1.2556864E-1,8.811223E-1,-1.0868723E0,-1.597118E-1,-5.25263E-1,5.324081E-2,-2.0193836E-1,1.1113535E-1,9.821598E-1,-1.4497247E-2,-9.497535E-4,-4.0533635E-1,-5.323317E-1,3.1298882E-1,-6.5118647E-1,8.164105E-2,-2.344891E-1,1.689544E-1,3.6893453E-2,3.2378978E-1,4.6279673E-2,-2.801993E-1,1.8686044E-1,-1.12340905E-1,-8.498564E-3,-2.4323337E-1,-1.7456219E-1,3.0203555E-2,1.0669462E-1,-4.7304172E-2],"categories":[],"categories_nodes":[],"categories_segments":[],"categories_sizes":[],"default_left":[0,0,0,0,0,0,0,0,0,0,0,0,0,0,0,0,0,0,0,0,0,0,0,0,0,0,0,0,0,0,0,0,0,0,0,0,0,0,0,0,0,0,0,0,0,0,0],"id":13,"left_children":[1,3,5,7,-1,9,11,-1,13,15,17,19,21,-1,-1,-1,-1,23,25,27,29,31,33,-1,-1,35,-1,-1,-1,37,39,41,-1,43,45,-1,-1,-1,-1,-1,-1,-1,-1,-1,-1,-1,-1],"loss_changes":[2.8292685E0,3.1953728E0,3.9103074E0,1.0472264E0,0E0,3.0521212E0,3.5578623E0,0E0,2.6289672E-1,3.5679173E-1,2.413334E0,2.5945432E0,3.248827E0,0E0,0E0,0E0,0E0,1.2723135E0,1.0558863E0,1.5111694E0,1.754183E0,1.242809E0,3.8312685E0,0E0,0E0,6.79533E-1,0E0,0E0,0E0,1.6361868E0,1.2137756E0,9.17356E-1,0E0,3.9104052E0,5.0443697E0,0E0,0E0,0E0,0E0,0E0,0E0,0E0,0E0,0E0,0E0,0E0,0E0],"parents":[2147483647,0,0,1,1,2,2,3,3,5,5,6,6,8,8,9,9,10,10,11,11,12,12,17,17,18,18,19,19,20,20,21,21,22,22,25,25,29,29,30,30,31,31,33,33,34,34],"right_children":[2,4,6,8,-1,10,12,-1,14,16,18,20,22,-1,-1,-1,-1,24,26,28,30,32,34,-1,-1,36,-1,-1,-1,38,40,42,-1,44,46,-1,-1,-1,-1,-1,-1,-1,-1,-1,-1,-1,-1],"split_conditions":[-4.2731546E-2,-1.0371358E-1,-1.7558761E-2,-6.428772E-2,-3.210382E-1,-3.350013E-2,-8.539579E-3,-1.2645005E-1,-1.3264876E-2,2.2831688E-2,7.378921E-3,-5.5393158E-3,-2.1692999E-2,9.874476E-3,2.0584412E-1,-2.0201038E-1,4.877572E-3,-1.1436285E-2,2.4637109E-2,-5.739294E-3,-3.523777E-2,1.6587792E-2,-7.879057E-3,-2.0193836E-1,1.1113535E-1,-2.460933E-2,-1.4497247E-2,-9.497535E-4,-4.0533635E-1,-7.9272084E-2,1.4914187E-2,-3.0084725E-2,8.164105E-2,6.0848393E-3,1.1908276E-2,3.6893453E-2,3.2378978E-1,4.6279673E-2,-2.801993E-1,1.8686044E-1,-1.12340905E-1,-8.498564E-3,-2.4323337E-1,-1.7456219E-1,3.0203555E-2,1.0669462E-1,-4.7304172E-2],"split_indices":[148,234,102,243,0,99,100,0,96,84,162,179,89,0,0,0,0,131,67,143,106,38,82,0,0,196,0,0,0,41,150,33,0,206,194,0,0,0,0,0,0,0,0,0,0,0,0],"split_type":[0,0,0,0,0,0,0,0,0,0,0,0,0,0,0,0,0,0,0,0,0,0,0,0,0,0,0,0,0,0,0,0,0,0,0,0,0,0,0,0,0,0,0,0,0,0,0],"sum_hessian":[1.5720622E2,7.6128726E0,1.4959334E2,3.3351955E0,4.277677E0,1.47928295E1,1.348005E2,1.1788756E0,2.15632E0,2.2881231E0,1.2504706E1,1.2305184E1,1.2249533E2,1.0129741E0,1.1433458E0,1.2260512E0,1.062072E0,2.766391E0,9.738316E0,4.2919545E0,8.013229E0,9.61232E0,1.1288301E2,1.1451713E0,1.6212196E0,8.732333E0,1.0059819E0,1.039766E0,3.2521887E0,4.4104304E0,3.602799E0,8.459741E0,1.1525792E0,3.208212E1,8.080089E1,1.1171681E0,7.615165E0,1.8551761E0,2.5552545E0,2.5481489E0,1.0546502E0,1.9656502E0,6.4940906E0,1.5392489E1,1.6689632E1,5.1357647E1,2.9443243E1],"tree_param":{"num_deleted":"0","num_feature":"246","num_nodes":"47","size_leaf_vector":"1"}},{"base_weights":[-2.5736991E-2,4.093673E-2,-3.1768537E-1,1.0125869E-1,-3.8204592E-1,-6.101611E-1,-5.402758E-3,1.5251687E-1,-5.421216E-1,-7.6929265E-1,2.3933181E-1,6.388212E-2,-8.66569E-1,4.119198E-1,-4.5710963E-1,-2.2594972E-1,2.3507802E-1,-8.3523065E-1,-9.587196E-2,1.2013271E-2,-9.4283944E-1,-1.3962342E-1,4.9870905E-1,4.321994E-1,-1.3213228E-1,1.9731864E-2,-9.8059446E-1,-1.6699627E-1,8.0503464E-1,2.8172934E-1,-3.135674E-1,-6.0890275E-1,4.387489E-1,-2.8766424E-4,3.8221702E-1,-5.1810965E-2,-2.93456E-1,-4.6294877E-1,1.3480374E-1,-7.904065E-2,-3.0150387E-1,-4.8496358E-2,6.966295E-1,1.883775E-1,-1.30143E-3,-4.8005012E-1,-3.4102172E-1,-1.4112744E-2,2.9353765E-1,1.903439E-1,-1.0478789E-1,-3.6007243E-1,-4.8843008E-2,1.8460882E-1,-9.978366E-2,7.3791206E-2,-1.7169327E-1,-1.1377897E-1,1.3866107E-1,-1.9261579E-1,-1.5615428E-2,3.903283E-2,2.5202894E-1,-2.286383E-1,5.0956372E-2],"categories":[],"categories_nodes":[],"categories_segments":[],"categories_sizes":[],"default_left":[0,0,0,0,0,0,0,0,0,0,0,0,0,0,0,0,0,0,0,0,0,0,0,0,0,0,0,0,0,0,0,0,0,0,0,0,0,0,0,0,0,0,0,0,0,0,0,0,0,0,0,0,0,0,0,0,0,0,0,0,0,0,0,0,0],"id":14,"left_children":[1,3,5,7,9,11,13,15,17,19,21,23,25,27,29,31,33,35,37,-1,39,-1,41,43,-1,-1,45,-1,47,49,-1,51,53,55,57,-1,-1,59,-1,-1,-1,-1,61,-1,-1,63,-1,-1,-1,-1,-1,-1,-1,-1,-1,-1,-1,-1,-1,-1,-1,-1,-1,-1,-1],"loss_changes":[2.9772851E0,3.224479E0,2.5930417E0,3.7124825E0,3.9844131E0,2.5907445E0,2.9700372E0,3.2629006E0,1.0109825E0,1.4376988E0,1.4799211E0,1.1142763E0,1.201581E0,3.5689468E0,3.5796366E0,5.0795975E0,2.9374952E0,2.9561925E-1,1.0959352E0,0E0,8.3590984E-2,0E0,8.2787657E-1,2.9145777E-1,0E0,0E0,2.0408535E-1,0E0,9.679465E-1,1.142824E0,0E0,3.079268E0,1.2253262E0,4.87759E0,3.3542037E0,0E0,0E0,1.9795436E-1,0E0,0E0,0E0,0E0,2.4822831E-1,0E0,0E0,8.649515E-1,0E0,0E0,0E0,0E0,0E0,0E0,0E0,0E0,0E0,0E0,0E0,0E0,0E0,0E0,0E0,0E0,0E0,0E0,0E0],"parents":[2147483647,0,0,1,1,2,2,3,3,4,4,5,5,6,6,7,7,8,8,9,9,10,10,11,11,12,12,13,13,14,14,15,15,16,16,17,17,18,18,20,20,22,22,23,23,26,26,28,28,29,29,31,31,32,32,33,33,34,34,37,37,42,42,45,45],"right_children":[2,4,6,8,10,12,14,16,18,20,22,24,26,28,30,32,34,36,38,-1,40,-1,42,44,-1,-1,46,-1,48,50,-1,52,54,56,58,-1,-1,60,-1,-1,-1,-1,62,-1,-1,64,-1,-1,-1,-1,-1,-1,-1,-1,-1,-1,-1,-1,-1,-1,-1,-1,-1,-1,-1],"split_conditions":[1.4266337E-2,3.232399E-2,1.716225E-3,2.4631582E-2,2.3260988E-2,-9.160176E-3,3.1392932E-2,-1.2922278E-2,2.2735553E-2,4.0112776E-5,-2.6230399E-2,1.7175183E-2,-2.7136237E-3,-2.477545E-2,-1.6828194E-2,6.478913E-3,-9.912657E-3,-1.4331235E-2,1.9191029E-2,1.2013271E-2,-2.7809953E-2,-1.3962342E-1,-1.0264549E-2,2.5858686E-3,-1.3213228E-1,1.9731864E-2,-5.8542314E-4,-1.6699627E-1,-9.929969E-4,-9.243828E-3,-3.135674E-1,3.7163962E-3,-9.216491E-4,6.327619E-3,-2.3557253E-2,-5.1810965E-2,-2.93456E-1,-3.8869528E-3,1.3480374E-1,-7.904065E-2,-3.0150387E-1,-4.8496358E-2,1.4211042E-2,1.883775E-1,-1.30143E-3,-1.9175123E-2,-3.4102172E-1,-1.4112744E-2,2.9353765E-1,1.903439E-1,-1.0478789E-1,-3.6007243E-1,-4.8843008E-2,1.8460882E-1,-9.978366E-2,7.3791206E-2,-1.7169327E-1,-1.1377897E-1,1.3866107E-1,-1.9261579E-1,-1.5615428E-2,3.903283E-2,2.5202894E-1,-2.286383E-1,5.0956372E-2],"split_indices":[89,133,6,175,32,99,237,99,150,84,16,81,12,83,210,228,96,81,102,0,123,0,9,196,0,0,220,0,107,94,0,173,165,20,57,0,0,89,0,0,0,0,162,0,0,186,0,0,0,0,0,0,0,0,0,0,0,0,0,0,0,0,0,0,0],"split_type":[0,0,0,0,0,0,0,0,0,0,0,0,0,0,0,0,0,0,0,0,0,0,0,0,0,0,0,0,0,0,0,0,0,0,0,0,0,0,0,0,0,0,0,0,0,0,0,0,0,0,0,0,0,0,0,0,0,0,0,0,0,0,0,0,0],"sum_hessian":[1.5128548E2,1.23858955E2,2.7426514E1,1.0906561E2,1.4793342E1,1.3669831E1,1.3756682E1,1.0172418E2,7.3414345E0,8.967002E0,5.8263392E0,3.9739633E0,9.6958685E0,7.196275E0,6.560407E0,1.7905811E1,8.381837E1,3.9049134E0,3.436521E0,1.7191219E0,7.2478805E0,1.353758E0,4.472581E0,2.3793135E0,1.5946498E0,1.1026993E0,8.593169E0,1.9574394E0,5.238836E0,3.1385112E0,3.4218962E0,1.1413874E1,6.491937E0,3.2626537E1,5.1191833E1,1.084926E0,2.8199873E0,2.143958E0,1.292563E0,1.0468266E0,6.2010536E0,1.0736319E0,3.3989491E0,1.3400625E0,1.039251E0,3.0120373E0,5.5811315E0,1.0091867E0,4.229649E0,2.0096242E0,1.1288869E0,4.180997E0,7.232877E0,5.447007E0,1.04493E0,2.3206179E1,9.420357E0,4.5104327E0,4.66814E1,1.1013393E0,1.0426188E0,1.072151E0,2.3267982E0,1.9799887E0,1.0320487E0],"tree_param":{"num_deleted":"0","num_feature":"246","num_nodes":"65","size_leaf_vector":"1"}},{"base_weights":[-3.1474315E-2,2.6669907E-3,-4.7474518E-1,-2.248602E-1,7.123053E-2,-5.9290206E-1,9.158901E-2,3.6277164E-2,-6.2753737E-1,-1.1990924E-2,4.0353444E-1,-7.5328934E-1,-1.966003E-2,2.4961086E-1,-6.07624E-1,1.3600431E-1,-8.3269274E-1,-2.8225362E-1,1.5255123E-1,7.747326E-1,9.148696E-2,-2.6463E-1,-4.982073E-2,-1.4474566E-1,1.3631897E-1,5.8932406E-1,-1.695803E-1,6.4375184E-2,-2.5839216E-1,1.6536468E-1,-8.437535E-2,-1.0017413E0,4.4655494E-2,-6.201885E-1,1.0825747E-1,3.3693215E-1,-3.0335099E-1,8.997921E-1,-3.9200816E-2,-5.3717184E-1,3.1601298E-1,-9.2757024E-2,2.2351195E-1,-1.3843279E-1,1.7627808E-1,-6.030269E-2,-3.2520422E-1,-6.355559E-2,-3.9680383E-1,-1.8385449E-1,1.2149162E-1,2.0741503E-1,-1.5324929E-2,9.923584E-2,-2.1310496E-1,4.8434824E-2,2.945433E-1,-2.3674096E-1,7.0327558E-3,-4.3910757E-2,2.0339851E-1],"categories":[],"categories_nodes":[],"categories_segments":[],"categories_sizes":[],"default_left":[0,0,0,0,0,0,0,0,0,0,0,0,0,0,0,0,0,0,0,0,0,0,0,0,0,0,0,0,0,0,0,0,0,0,0,0,0,0,0,0,0,0,0,0,0,0,0,0,0,0,0,0,0,0,0,0,0,0,0,0,0],"id":15,"left_children":[1,3,5,7,9,11,-1,13,15,17,19,21,23,25,27,29,31,33,35,37,39,-1,-1,-1,-1,41,43,-1,-1,-1,-1,45,-1,47,49,51,53,55,-1,57,59,-1,-1,-1,-1,-1,-1,-1,-1,-1,-1,-1,-1,-1,-1,-1,-1,-1,-1,-1,-1],"loss_changes":[2.1685038E0,2.1057723E0,1.1254146E0,3.3099074E0,2.8725824E0,8.3459306E-1,0E0,2.8863702E0,2.0481381E0,3.774074E0,2.338123E0,3.9751768E-1,8.876705E-1,2.330364E0,1.2789469E0,7.5717247E-1,1.7879052E0,4.30343E0,4.5405006E0,1.1779184E0,1.9246581E0,0E0,0E0,0E0,0E0,1.4720705E0,1.992146E0,0E0,0E0,0E0,0E0,3.456812E-1,0E0,4.6988645E0,3.6166961E0,5.270983E0,4.294964E0,3.4744215E-1,0E0,5.329865E-1,1.7379341E0,0E0,0E0,0E0,0E0,0E0,0E0,0E0,0E0,0E0,0E0,0E0,0E0,0E0,0E0,0E0,0E0,0E0,0E0,0E0,0E0],"parents":[2147483647,0,0,1,1,2,2,3,3,4,4,5,5,7,7,8,8,9,9,10,10,11,11,12,12,13,13,14,14,15,15,16,16,17,17,18,18,19,19,20,20,25,25,26,26,31,31,33,33,34,34,35,35,36,36,37,37,39,39,40,40],"right_children":[2,4,6,8,10,12,-1,14,16,18,20,22,24,26,28,30,32,34,36,38,40,-1,-1,-1,-1,42,44,-1,-1,-1,-1,46,-1,48,50,52,54,56,-1,58,60,-1,-1,-1,-1,-1,-1,-1,-1,-1,-1,-1,-1,-1,-1,-1,-1,-1,-1,-1,-1],"split_conditions":[2.4499297E-2,-1.2191765E-2,4.5551002E-2,7.963204E-3,8.488608E-3,3.347836E-2,9.158901E-2,2.6759103E-2,-1.8267184E-2,-4.416057E-3,5.091664E-4,-3.8262503E-3,-3.5883407E-3,-5.9271585E-3,3.6774022E-3,-3.0150102E-2,9.213559E-3,-7.015469E-3,1.0457363E-2,3.600319E-2,-1.222063E-2,-2.6463E-1,-4.982073E-2,-1.4474566E-1,1.3631897E-1,-2.2198737E-2,4.089023E-2,6.4375184E-2,-2.5839216E-1,1.6536468E-1,-8.437535E-2,-2.8037787E-3,4.4655494E-2,-1.2579662E-2,-1.84129E-2,2.0825738E-2,6.376362E-3,-2.0778393E-2,-3.9200816E-2,-8.435195E-3,-4.789377E-2,-9.2757024E-2,2.2351195E-1,-1.3843279E-1,1.7627808E-1,-6.030269E-2,-3.2520422E-1,-6.355559E-2,-3.9680383E-1,-1.8385449E-1,1.2149162E-1,2.0741503E-1,-1.5324929E-2,9.923584E-2,-2.1310496E-1,4.8434824E-2,2.945433E-1,-2.3674096E-1,7.0327558E-3,-4.3910757E-2,2.0339851E-1],"split_indices":[89,89,181,33,2,61,0,83,102,162,208,98,125,107,153,61,99,200,164,148,182,0,0,0,0,30,214,0,0,0,0,24,0,178,187,199,78,162,0,60,7,0,0,0,0,0,0,0,0,0,0,0,0,0,0,0,0,0,0,0,0],"split_type":[0,0,0,0,0,0,0,0,0,0,0,0,0,0,0,0,0,0,0,0,0,0,0,0,0,0,0,0,0,0,0,0,0,0,0,0,0,0,0,0,0,0,0,0,0,0,0,0,0,0,0,0,0,0,0,0,0,0,0,0,0],"sum_hessian":[1.422047E2,1.3295807E2,9.246622E0,3.0260248E1,1.0269782E2,8.238591E0,1.0080308E0,1.890816E1,1.1352089E1,8.290035E1,1.9797466E1,6.192036E0,2.0465546E0,1.4662582E1,4.245578E0,2.4755857E0,8.876503E0,3.1101059E1,5.1799294E1,8.364582E0,1.1432884E1,4.6662927E0,1.5257436E0,1.0265473E0,1.0200074E0,7.8748946E0,6.787688E0,1.0374011E0,3.2081766E0,1.0799128E0,1.3956728E0,7.554787E0,1.3217157E0,1.6357607E1,1.4743453E1,3.7068573E1,1.473072E1,7.3548784E0,1.0097032E0,2.6422575E0,8.790627E0,1.0175872E0,6.8573074E0,5.1811285E0,1.6065593E0,1.0247228E0,6.530064E0,1.1167723E1,5.189883E0,3.9874065E0,1.0756046E1,1.8963554E1,1.810502E1,5.831706E0,8.8990135E0,1.0321146E0,6.322764E0,1.541715E0,1.1005424E0,4.1215544E0,4.669072E0],"tree_param":{"num_deleted":"0","num_feature":"246","num_nodes":"61","size_leaf_vector":"1"}},{"base_weights":[-2.7763927E-2,4.830862E-2,-2.4521586E-1,2.4696006E-1,-1.1555523E-1,-5.17876E-1,1.2213347E-1,-5.609799E-1,3.672952E-1,2.939023E-1,-2.793897E-1,-7.5211865E-1,1.1739349E-1,-2.604615E-1,4.347901E-1,7.569212E-2,-7.839148E-1,-6.6764E-2,5.144471E-1,-5.5503577E-1,5.4514784E-1,1.2097848E-1,-5.045207E-1,-5.7366963E-2,-9.2288256E-1,5.4989594E-1,-4.1132674E-1,-2.3481224E-1,6.541198E-2,5.8673424E-1,-8.339041E-2,-2.9426137E-1,-4.8454907E-3,-5.2608126E-1,6.794642E-1,8.5907E-2,7.8352225E-1,-2.617166E-1,3.5305656E-2,-1.9466414E-1,7.195541E-1,3.3648482E-1,-5.7868236E-1,-9.022604E-1,-2.2732796E-1,1.2945135E-1,-1.5076508E-1,-1.0415716E0,2.9483228E-3,2.2520535E-1,-4.456493E-3,-2.0005798E-1,3.0615887E-2,2.2566858E-1,-3.4471303E-1,-1.1835205E-2,7.017802E-1,1.1353814E-1,-2.4868874E-1,1.2387807E-2,2.5866756E-1,1.6751266E-1,-1.2406672E-1,-4.065944E-2,2.9237723E-1,-1.9789432E-1,1.2046198E-1,-3.9932214E-2,2.4859338E-1,-1.5341215E-1,1.4952314E-1,-2.633998E-1,4.6195414E-2,-3.2703406E-1,-7.2248573E-3,-1.9525106E-1,1.55731775E-2,-3.623575E-2,-3.453362E-1,3.411044E-2,-2.003902E-1,2.5122616E-2,2.7003232E-1],"categories":[],"categories_nodes":[],"categories_segments":[],"categories_sizes":[],"default_left":[0,0,0,0,0,0,0,0,0,0,0,0,0,0,0,0,0,0,0,0,0,0,0,0,0,0,0,0,0,0,0,0,0,0,0,0,0,0,0,0,0,0,0,0,0,0,0,0,0,0,0,0,0,0,0,0,0,0,0,0,0,0,0,0,0,0,0,0,0,0,0,0,0,0,0,0,0,0,0,0,0,0,0],"id":16,"left_children":[1,3,5,7,9,11,13,15,17,19,21,23,25,27,29,-1,31,33,35,37,39,41,43,45,47,49,51,-1,53,55,-1,-1,-1,57,59,61,63,-1,-1,65,67,69,71,73,75,-1,-1,77,-1,-1,-1,-1,-1,-1,79,-1,81,-1,-1,-1,-1,-1,-1,-1,-1,-1,-1,-1,-1,-1,-1,-1,-1,-1,-1,-1,-1,-1,-1,-1,-1,-1,-1],"loss_changes":[2.2486982E0,3.3166497E0,3.5899239E0,4.6761894E0,3.8410382E0,3.1240215E0,2.0043874E0,1.3501835E0,2.6289835E0,3.8220148E0,3.7145035E0,1.7313375E0,1.6807213E0,1.3675761E0,1.1458597E0,0E0,7.753179E-1,4.185991E0,3.4441137E0,1.012923E0,1.8479979E0,2.5160522E0,2.6765966E0,1.0947064E0,1.3393412E0,4.5641696E-1,5.185605E-1,0E0,1.8608847E0,5.8970094E-1,0E0,0E0,0E0,2.362393E0,5.116551E-1,3.2676945E0,3.3953743E0,0E0,0E0,1.1831229E0,1.1264744E0,1.9575921E0,1.0108672E0,1.6890717E0,2.0134447E0,0E0,0E0,9.3625736E-1,0E0,0E0,0E0,0E0,0E0,0E0,7.051024E-1,0E0,7.389798E-1,0E0,0E0,0E0,0E0,0E0,0E0,0E0,0E0,0E0,0E0,0E0,0E0,0E0,0E0,0E0,0E0,0E0,0E0,0E0,0E0,0E0,0E0,0E0,0E0,0E0,0E0],"parents":[2147483647,0,0,1,1,2,2,3,3,4,4,5,5,6,6,7,7,8,8,9,9,10,10,11,11,12,12,13,13,14,14,16,16,17,17,18,18,19,19,20,20,21,21,22,22,23,23,24,24,25,25,26,26,28,28,29,29,33,33,34,34,35,35,36,36,39,39,40,40,41,41,42,42,43,43,44,44,47,47,54,54,56,56],"right_children":[2,4,6,8,10,12,14,16,18,20,22,24,26,28,30,-1,32,34,36,38,40,42,44,46,48,50,52,-1,54,56,-1,-1,-1,58,60,62,64,-1,-1,66,68,70,72,74,76,-1,-1,78,-1,-1,-1,-1,-1,-1,80,-1,82,-1,-1,-1,-1,-1,-1,-1,-1,-1,-1,-1,-1,-1,-1,-1,-1,-1,-1,-1,-1,-1,-1,-1,-1,-1,-1],"split_conditions":[2.8681045E-2,7.2715916E-3,6.0528904E-2,-2.1167425E-2,-5.144722E-3,4.8113945E-3,1.25711365E-2,-3.770698E-2,-4.0597827E-3,-1.0538316E-2,-7.0155566E-3,-9.341206E-3,2.2455035E-2,2.3729749E-2,3.1729735E-2,7.569212E-2,3.2278094E-2,-6.1481013E-3,-8.115992E-3,-5.5071567E-3,-2.7324257E-2,-1.12095345E-2,2.309292E-3,3.8523327E-3,3.3805218E-2,9.3051564E-4,-2.8129041E-2,-2.3481224E-1,6.921263E-2,-1.3223267E-2,-8.339041E-2,-2.9426137E-1,-4.8454907E-3,-2.3349214E-2,-1.8146929E-3,-3.8733326E-3,-1.3750778E-2,-2.617166E-1,3.5305656E-2,-2.5343562E-2,-1.43115055E-2,-3.391085E-2,-8.367643E-3,4.422876E-3,-2.960883E-2,1.2945135E-1,-1.5076508E-1,-7.423704E-3,2.9483228E-3,2.2520535E-1,-4.456493E-3,-2.0005798E-1,3.0615887E-2,2.2566858E-1,2.0803756E-3,-1.1835205E-2,-1.5100142E-2,1.1353814E-1,-2.4868874E-1,1.2387807E-2,2.5866756E-1,1.6751266E-1,-1.2406672E-1,-4.065944E-2,2.9237723E-1,-1.9789432E-1,1.2046198E-1,-3.9932214E-2,2.4859338E-1,-1.5341215E-1,1.4952314E-1,-2.633998E-1,4.6195414E-2,-3.2703406E-1,-7.2248573E-3,-1.9525106E-1,1.55731775E-2,-3.623575E-2,-3.453362E-1,3.411044E-2,-2.003902E-1,2.5122616E-2,2.7003232E-1],"split_indices":[80,236,56,31,161,161,150,154,209,133,173,18,95,126,28,0,28,226,152,47,82,143,90,168,96,96,239,0,91,89,0,0,0,65,1,159,81,0,0,83,198,111,173,100,39,0,0,119,0,0,0,0,0,0,87,0,25,0,0,0,0,0,0,0,0,0,0,0,0,0,0,0,0,0,0,0,0,0,0,0,0,0,0],"split_type":[0,0,0,0,0,0,0,0,0,0,0,0,0,0,0,0,0,0,0,0,0,0,0,0,0,0,0,0,0,0,0,0,0,0,0,0,0,0,0,0,0,0,0,0,0,0,0,0,0,0,0,0,0,0,0,0,0,0,0,0,0,0,0,0,0,0,0,0,0,0,0,0,0,0,0,0,0,0,0,0,0,0,0],"sum_hessian":[1.3422159E2,1.0001171E2,3.420987E1,4.4977985E1,5.5033726E1,1.940041E1,1.480946E1,5.355942E0,3.9622044E1,1.5500572E1,3.9533154E1,1.4039642E1,5.360768E0,6.73493E0,8.07453E0,1.1239431E0,4.231999E0,1.0169878E1,2.9452166E1,3.2636912E0,1.2236881E1,1.4395368E1,2.5137787E1,3.0335615E0,1.1006081E1,2.9266586E0,2.434109E0,2.0491233E0,4.6858068E0,6.8014283E0,1.2731013E0,3.147096E0,1.0849028E0,6.477729E0,3.6921494E0,1.1868762E1,1.7583405E1,2.0158966E0,1.2477946E0,2.3122828E0,9.924598E0,1.1402344E1,2.9930236E0,9.397895E0,1.5739893E1,1.4604816E0,1.57308E0,9.6601E0,1.3459799E0,1.9161648E0,1.0104939E0,1.4255736E0,1.0085355E0,1.4400612E0,3.2457457E0,1.1576309E0,5.6437974E0,1.562338E0,4.915391E0,1.0948945E0,2.597255E0,6.038587E0,5.8301744E0,3.0763922E0,1.4507012E1,1.2393179E0,1.072965E0,1.1007638E0,8.823834E0,1.4823794E0,9.919965E0,1.9840983E0,1.0089253E0,7.543014E0,1.8548808E0,5.725509E0,1.0014384E1,1.2506514E0,8.409449E0,1.6103418E0,1.6354038E0,1.7166203E0,3.927177E0],"tree_param":{"num_deleted":"0","num_feature":"246","num_nodes":"83","size_leaf_vector":"1"}},{"base_weights":[-2.5873348E-2,-3.8306844E-1,1.5145899E-2,2.3382826E-1,-6.5700847E-1,-1.797609E-1,1.0135701E-1,5.4101914E-1,-1.2975472E-1,-2.5276878E-1,-2.8994113E-1,-6.065925E-1,3.7010152E-2,2.0559815E-1,-1.6025181E-1,2.1427956E-1,1.1768283E-2,9.9304214E-2,-6.1494446E-1,-1.1931354E0,-8.567882E-2,-4.7228333E-1,1.5364562E-1,-3.6540333E-2,3.9217642E-1,-3.9615878E-1,2.519914E-1,-4.0059477E-2,-2.2495835E-1,-7.090593E-2,-4.0644106E-1,-5.342279E-1,4.4339597E-1,-4.6927147E-3,-1.9900402E-1,3.8598737E-1,-2.5850612E-1,2.4926965E-1,-3.763699E-1,-2.0412019E-1,5.3820276E-1,-6.5885156E-1,7.1320936E-2,-4.2326248E-1,5.086162E-1,4.8182596E-2,-2.3613568E-1,2.276708E-1,-6.9164306E-2,1.6095291E-1,-4.8669614E-2,1.1812978E-1,-1.3637975E-1,-1.1911029E-1,1.544356E-1,-2.9341897E-1,8.2511604E-2,-1.8474466E-1,8.021946E-2,-1.2084087E-1,1.9852686E-1,-2.6469773E-1,-1.591583E-2,1.3061017E-1,-2.0082644E-1,-3.5744042E-3,-1.8780948E-1,2.4108332E-1,-4.82158E-2],"categories":[],"categories_nodes":[],"categories_segments":[],"categories_sizes":[],"default_left":[0,0,0,0,0,0,0,0,0,0,0,0,0,0,0,0,0,0,0,0,0,0,0,0,0,0,0,0,0,0,0,0,0,0,0,0,0,0,0,0,0,0,0,0,0,0,0,0,0,0,0,0,0,0,0,0,0,0,0,0,0,0,0,0,0,0,0,0,0],"id":17,"left_children":[1,3,5,7,9,11,13,15,-1,17,-1,19,21,23,25,-1,-1,-1,27,29,31,33,35,37,39,41,43,-1,-1,-1,-1,45,47,-1,-1,49,51,53,55,57,59,61,63,65,67,-1,-1,-1,-1,-1,-1,-1,-1,-1,-1,-1,-1,-1,-1,-1,-1,-1,-1,-1,-1,-1,-1,-1,-1],"loss_changes":[1.8448999E0,2.3450494E0,1.9262506E0,1.2012138E0,9.119005E-1,3.2778254E0,2.197351E0,2.917608E-1,0E0,1.3371862E0,0E0,3.5360413E0,1.514606E0,2.5981364E0,2.353744E0,0E0,0E0,0E0,1.3751101E-1,5.3419447E-1,1.9892311E0,4.0571272E-1,2.0635345E0,2.6001534E0,2.9299703E0,1.904957E0,1.7829471E0,0E0,0E0,0E0,0E0,9.0830743E-1,1.011545E0,0E0,0E0,1.2023106E0,1.2011976E0,2.712895E0,5.045599E0,1.5421722E0,3.3232765E0,1.2777681E0,2.0025916E0,2.4586207E-1,1.5131975E0,0E0,0E0,0E0,0E0,0E0,0E0,0E0,0E0,0E0,0E0,0E0,0E0,0E0,0E0,0E0,0E0,0E0,0E0,0E0,0E0,0E0,0E0,0E0,0E0],"parents":[2147483647,0,0,1,1,2,2,3,3,4,4,5,5,6,6,7,7,9,9,11,11,12,12,13,13,14,14,18,18,19,19,20,20,21,21,22,22,23,23,24,24,25,25,26,26,31,31,32,32,35,35,36,36,37,37,38,38,39,39,40,40,41,41,42,42,43,43,44,44],"right_children":[2,4,6,8,10,12,14,16,-1,18,-1,20,22,24,26,-1,-1,-1,28,30,32,34,36,38,40,42,44,-1,-1,-1,-1,46,48,-1,-1,50,52,54,56,58,60,62,64,66,68,-1,-1,-1,-1,-1,-1,-1,-1,-1,-1,-1,-1,-1,-1,-1,-1,-1,-1,-1,-1,-1,-1,-1,-1],"split_conditions":[-4.4185568E-2,-8.7127247E-4,-1.5682222E-2,1.5359826E-3,-2.6644023E-2,8.292417E-3,2.8681045E-2,3.107275E-4,-1.2975472E-1,-3.1935763E-2,-2.8994113E-1,-7.534399E-4,-5.525056E-3,-2.0455614E-2,1.25711365E-2,2.1427956E-1,1.1768283E-2,9.9304214E-2,-2.6447657E-2,-6.629218E-3,-2.552127E-2,8.1482E-3,3.3902552E-2,-4.2367633E-3,-5.5207377E-3,4.996689E-3,-8.075375E-4,-4.0059477E-2,-2.2495835E-1,-7.090593E-2,-4.0644106E-1,-4.651725E-2,4.805128E-2,-4.6927147E-3,-1.9900402E-1,1.937999E-2,-2.1978984E-2,7.536881E-3,5.8914255E-4,2.0316336E-3,-1.153635E-2,2.1978984E-2,3.779004E-2,2.7960135E-2,2.3234429E-2,4.8182596E-2,-2.3613568E-1,2.276708E-1,-6.9164306E-2,1.6095291E-1,-4.8669614E-2,1.1812978E-1,-1.3637975E-1,-1.1911029E-1,1.544356E-1,-2.9341897E-1,8.2511604E-2,-1.8474466E-1,8.021946E-2,-1.2084087E-1,1.9852686E-1,-2.6469773E-1,-1.591583E-2,1.3061017E-1,-2.0082644E-1,-3.5744042E-3,-1.8780948E-1,2.4108332E-1,-4.82158E-2],"split_indices":[48,194,53,25,145,90,80,9,0,64,0,190,203,188,150,0,0,0,212,183,169,70,8,190,100,74,23,0,0,0,0,40,73,0,0,46,142,206,183,156,32,142,148,179,43,0,0,0,0,0,0,0,0,0,0,0,0,0,0,0,0,0,0,0,0,0,0,0,0],"split_type":[0,0,0,0,0,0,0,0,0,0,0,0,0,0,0,0,0,0,0,0,0,0,0,0,0,0,0,0,0,0,0,0,0,0,0,0,0,0,0,0,0,0,0,0,0,0,0,0,0,0,0,0,0,0,0,0,0,0,0,0,0,0,0,0,0,0,0,0,0],"sum_hessian":[1.2451963E2,1.1967555E1,1.1255207E2,3.7251542E0,8.242401E0,3.4183838E1,7.836823E1,2.6784444E0,1.0467099E0,4.3616824E0,3.8807187E0,1.0907732E1,2.3276106E1,5.6191975E1,2.2176258E1,1.6762727E0,1.0021715E0,1.7028834E0,2.6587992E0,4.5236673E0,6.3840647E0,3.7690728E0,1.9507034E1,2.4804815E1,3.1387161E1,1.412959E1,8.046668E0,1.0175798E0,1.6412193E0,1.0097487E0,3.5139189E0,3.4496853E0,2.9343796E0,1.4309577E0,2.338115E0,1.2515289E1,6.9917445E0,1.3618015E1,1.1186799E1,6.0960774E0,2.5291084E1,8.784122E0,5.3454676E0,2.0371077E0,6.0095606E0,1.017884E0,2.4318013E0,1.9128271E0,1.0215524E0,9.836015E0,2.679274E0,1.3830831E0,5.608661E0,3.8212361E0,9.79678E0,5.5546336E0,5.6321654E0,3.0911155E0,3.004962E0,2.672985E0,2.26181E1,6.083503E0,2.7006195E0,3.8604574E0,1.4850101E0,1.0221936E0,1.014914E0,4.0319552E0,1.9776053E0],"tree_param":{"num_deleted":"0","num_feature":"246","num_nodes":"69","size_leaf_vector":"1"}},{"base_weights":[-3.2365005E-2,-6.12E-1,-8.354419E-3,-6.610257E-3,-2.3047456E-1,1.7915934E-2,-5.903151E-1,4.8590556E-2,-3.881102E-1,5.2751E-3,-2.374082E-1,1.1617943E-1,-1.9989556E-1,1.2651828E-1,-2.2806084E-1,3.597934E-1,-3.5561414E-3,-3.2259077E-1,5.851826E-1,1.6424431E-1,-1.4303833E-1,1.3655978E-2,1.8771024E-1,-5.9932917E-2,6.835089E-2,-1.5174495E-1,1.7938474E-2,2.0471355E-1,5.398251E-2],"categories":[],"categories_nodes":[],"categories_segments":[],"categories_sizes":[],"default_left":[0,0,0,0,0,0,0,0,0,0,0,0,0,0,0,0,0,0,0,0,0,0,0,0,0,0,0,0,0],"id":18,"left_children":[1,3,5,-1,-1,7,9,11,13,-1,-1,15,17,19,-1,21,23,25,27,-1,-1,-1,-1,-1,-1,-1,-1,-1,-1],"loss_changes":[1.6260096E0,4.115237E-1,1.7466023E0,0E0,0E0,1.3841244E0,6.1691964E-1,1.7498653E0,1.5919161E0,0E0,0E0,2.377284E0,2.341812E0,1.3112253E0,0E0,2.215487E0,2.570137E0,1.4297717E0,1.020205E-2,0E0,0E0,0E0,0E0,0E0,0E0,0E0,0E0,0E0,0E0],"parents":[2147483647,0,0,1,1,2,2,5,5,6,6,7,7,8,8,11,11,12,12,13,13,15,15,16,16,17,17,18,18],"right_children":[2,4,6,-1,-1,8,10,12,14,-1,-1,16,18,20,-1,22,24,26,28,-1,-1,-1,-1,-1,-1,-1,-1,-1,-1],"split_conditions":[-3.350013E-2,-3.0511996E-2,3.350013E-2,-6.610257E-3,-2.3047456E-1,8.461228E-2,-3.0476578E-2,1.2191765E-2,-4.74701E-2,5.2751E-3,-2.374082E-1,-4.506441E-3,9.587157E-3,7.270515E-2,-2.2806084E-1,-4.214835E-3,4.4698357E-3,-5.413148E-3,2.4133295E-2,1.6424431E-1,-1.4303833E-1,1.3655978E-2,1.8771024E-1,-5.9932917E-2,6.835089E-2,-1.5174495E-1,1.7938474E-2,2.0471355E-1,5.398251E-2],"split_indices":[99,168,99,0,0,186,170,89,190,0,0,159,21,34,0,21,90,133,89,0,0,0,0,0,0,0,0,0,0],"split_type":[0,0,0,0,0,0,0,0,0,0,0,0,0,0,0,0,0,0,0,0,0,0,0,0,0,0,0,0,0],"sum_hessian":[1.1620044E2,3.6479208E0,1.1255251E2,1.0027479E0,2.645173E0,1.0861857E2,3.9339488E0,1.018075E2,6.8110666E0,1.2044897E0,2.729459E0,8.045577E1,2.135173E1,3.1350577E0,3.676009E0,2.585213E1,5.460364E1,1.8975292E1,2.3764381E0,1.9011017E0,1.2339559E0,1.2385274E1,1.3466856E1,2.9621397E1,2.4982243E1,1.2610159E1,6.3651333E0,1.3651316E0,1.0113065E0],"tree_param":{"num_deleted":"0","num_feature":"246","num_nodes":"29","size_leaf_vector":"1"}},{"base_weights":[-2.650263E-2,6.0520835E-2,-1.6155156E-1,-5.658922E-1,1.3615024E-1,-5.084587E-1,3.9094524E-3,-2.531779E-1,5.7501648E-2,-2.0927588E-2,3.7885657E-1,1.6034807E-1,-7.6695347E-1,2.9460305E-1,-3.2648897E-1,-1.18426755E-1,1.5186346E-1,5.4584168E-2,-5.2391875E-1,5.067829E-1,-4.4421482E-1,-1.3094829E-1,4.8807657E-1,-2.1006276E-1,-9.946823E-1,-1.157737E-1,5.8756524E-1,1.4475983E-1,-4.685454E-1,-1.9519962E-1,1.2045462E-1,-2.8711578E-1,3.8338475E-2,-6.0053788E-2,7.439282E-1,-2.2535488E-1,3.1341545E-2,5.770398E-3,1.9805928E-1,-4.840748E-1,8.3308965E-2,-8.4855914E-2,-1.0646524E0,2.784783E-1,-7.257375E-1,-8.236777E-2,7.758797E-1,-6.337707E-1,1.1767412E-1,1.1752493E-1,-3.0090591E-2,-1.8891974E-1,7.103465E-2,9.46713E-2,2.8947526E-1,-1.8831263E-1,-2.6538307E-2,-8.8865474E-2,-3.4726053E-1,-1.1279915E-1,1.669394E-1,-2.7285528E-1,-4.4561476E-2,2.6458538E-1,3.9572925E-3,-2.6775062E-1,-6.818007E-2,1.3272911E-1,-1.0065925E-1],"categories":[],"categories_nodes":[],"categories_segments":[],"categories_sizes":[],"default_left":[0,0,0,0,0,0,0,0,0,0,0,0,0,0,0,0,0,0,0,0,0,0,0,0,0,0,0,0,0,0,0,0,0,0,0,0,0,0,0,0,0,0,0,0,0,0,0,0,0,0,0,0,0,0,0,0,0,0,0,0,0,0,0,0,0,0,0,0,0],"id":19,"left_children":[1,3,5,7,9,11,13,-1,15,17,19,21,23,25,27,-1,-1,29,31,33,35,-1,37,39,41,43,45,-1,47,-1,49,-1,-1,51,53,-1,-1,-1,-1,55,-1,-1,57,59,61,-1,63,65,67,-1,-1,-1,-1,-1,-1,-1,-1,-1,-1,-1,-1,-1,-1,-1,-1,-1,-1,-1,-1],"loss_changes":[1.3505085E0,3.3982263E0,2.5836792E0,1.3911083E0,2.4233618E0,2.6353838E0,3.116322E0,0E0,8.7465733E-1,1.5255219E0,2.851747E0,1.1672165E0,1.1422286E0,2.1423044E0,1.9720312E0,0E0,0E0,1.7123381E0,1.6010948E0,3.0096908E0,7.334284E-1,0E0,2.7951586E-1,7.1715224E-1,6.216097E-2,2.1312127E0,1.8740966E0,0E0,1.3753896E0,0E0,2.0163991E0,0E0,0E0,1.4057732E0,1.1746922E0,0E0,0E0,0E0,0E0,1.23821676E-1,0E0,0E0,1.053195E-1,1.2272004E0,2.2839797E-1,0E0,6.8884134E-1,9.1556454E-1,7.072012E-1,0E0,0E0,0E0,0E0,0E0,0E0,0E0,0E0,0E0,0E0,0E0,0E0,0E0,0E0,0E0,0E0,0E0,0E0,0E0,0E0],"parents":[2147483647,0,0,1,1,2,2,3,3,4,4,5,5,6,6,8,8,9,9,10,10,11,11,12,12,13,13,14,14,17,17,18,18,19,19,20,20,22,22,23,23,24,24,25,25,26,26,28,28,30,30,33,33,34,34,39,39,42,42,43,43,44,44,46,46,47,47,48,48],"right_children":[2,4,6,8,10,12,14,-1,16,18,20,22,24,26,28,-1,-1,30,32,34,36,-1,38,40,42,44,46,-1,48,-1,50,-1,-1,52,54,-1,-1,-1,-1,56,-1,-1,58,60,62,-1,64,66,68,-1,-1,-1,-1,-1,-1,-1,-1,-1,-1,-1,-1,-1,-1,-1,-1,-1,-1,-1,-1],"split_conditions":[4.200124E-3,-1.904527E-2,-4.699766E-3,-6.993846E-4,-4.200124E-3,-9.332194E-3,5.245603E-3,-2.531779E-1,5.950827E-2,-5.101131E-3,8.074792E-3,-7.369325E-2,-1.5668918E-3,-3.6540102E-2,-2.1982365E-3,-1.18426755E-1,1.5186346E-1,-3.5889514E-2,3.8286875E-4,-8.712551E-3,-1.0476874E-3,-1.3094829E-1,1.8736774E-2,-8.614325E-3,3.1908671E-3,-1.791918E-2,-2.9171417E-2,1.4475983E-1,3.1195166E-2,-1.9519962E-1,3.294172E-2,-2.8711578E-1,3.8338475E-2,1.2810863E-2,-3.9493553E-3,-2.2535488E-1,3.1341545E-2,5.770398E-3,1.9805928E-1,3.548322E-2,8.3308965E-2,-8.4855914E-2,-7.644634E-3,-7.9669926E-4,-1.0994184E-2,-8.236777E-2,9.203442E-3,-2.4745506E-3,-2.4391157E-3,1.1752493E-1,-3.0090591E-2,-1.8891974E-1,7.103465E-2,9.46713E-2,2.8947526E-1,-1.8831263E-1,-2.6538307E-2,-8.8865474E-2,-3.4726053E-1,-1.1279915E-1,1.669394E-1,-2.7285528E-1,-4.4561476E-2,2.6458538E-1,3.9572925E-3,-2.6775062E-1,-6.818007E-2,1.3272911E-1,-1.0065925E-1],"split_indices":[104,30,12,8,104,25,221,0,136,104,203,22,208,7,207,0,0,103,165,89,160,0,223,230,215,83,42,0,142,0,71,0,0,95,3,0,0,0,0,245,0,0,26,21,50,0,156,50,98,0,0,0,0,0,0,0,0,0,0,0,0,0,0,0,0,0,0,0,0],"split_type":[0,0,0,0,0,0,0,0,0,0,0,0,0,0,0,0,0,0,0,0,0,0,0,0,0,0,0,0,0,0,0,0,0,0,0,0,0,0,0,0,0,0,0,0,0,0,0,0,0,0,0,0,0,0,0,0,0,0,0,0,0,0,0,0,0,0,0,0,0],"sum_hessian":[1.1308122E2,6.910371E1,4.3977512E1,6.7460437E0,6.2357666E1,1.3532392E1,3.0445122E1,4.420664E0,2.32538E0,3.8411674E1,2.3945992E1,3.8781335E0,9.654258E0,1.6253334E1,1.4191789E1,1.2179965E0,1.1073837E0,3.417293E1,4.2387443E0,2.105741E1,2.8885813E0,1.2570255E0,2.621108E0,3.3600295E0,6.2942286E0,7.0219355E0,9.231398E0,1.7617464E0,1.2430042E1,2.1607418E0,3.2012188E1,2.2649348E0,1.9738095E0,6.431434E0,1.4625976E1,1.6156397E0,1.2729417E0,1.0024034E0,1.6187047E0,2.156251E0,1.2037786E0,1.0146221E0,5.279607E0,4.5952396E0,2.426696E0,1.5728292E0,7.658569E0,9.633684E0,2.7963576E0,1.4014601E1,1.7997587E1,1.8189932E0,4.6124406E0,5.803905E0,8.822071E0,1.1515073E0,1.0047437E0,1.0210936E0,4.258513E0,1.2648271E0,3.3304124E0,1.4039395E0,1.0227567E0,6.5862145E0,1.0723541E0,5.156268E0,4.477416E0,1.6428812E0,1.1534765E0],"tree_param":{"num_deleted":"0","num_feature":"246","num_nodes":"69","size_leaf_vector":"1"}}]},"name":"gbtree"},"learner_model_param":{"base_score":"5E-1","boost_from_average":"1","num_class":"0","num_feature":"246","num_target":"1"},"objective":{"name":"binary:logistic","reg_loss_param":{"scale_pos_weight":"1"}}},"version":[3,0,0]}