{"learner":{"attributes":{"scikit_learn":"{\"_estimator_type\": \"classifier\"}"},"feature_names":[],"feature_types":[],"gradient_booster":{"model":{"gbtree_model_param":{"num_parallel_tree":"1","num_trees":"20"},"iteration_indptr":[0,1,2,3,4,5,6,7,8,9,10,11,12,13,14,15,16,17,18,19,20],"tree_info":[0,0,0,0,0,0,0,0,0,0,0,0,0,0,0,0,0,0,0,0],"trees":[{"base_weights":[-0E0,2.891933E-1,-1.6239316E0,-1.6223176E0,6.986175E-1,2.0689656E-1,-1.84689E0,-1.8301886E0,4E-1,-4.7953215E-1,9.150327E-1,1.1578947E0,-3.4285718E-1,-1.919192E0,-4E-1,-3.1578946E-1,-1.9390863E0,-7.692308E-1,3.75E-1,-1.2592592E0,8.0597013E-1,1.2289157E0,-4.457143E-1,4.4000003E-1,-0E0,-5.874346E-1,-1.6363637E-1,-3.818182E-1,3E-1,3.6E-1,-4.1538465E-1,-1.5E-1,-5.875648E-1,-3.3333337E-1,-0E0,-1.8E0,-5.3846157E-1,1.1864407E0,-4.0000004E-1,-7.234042E-1,1.3522727E0,8.405797E-1,-1.2363636E0,-1.5E-1,-5.5714285E-1,1.2857144E-1,-4.2857146E-1,-2.4000001E-1,4.4150946E-1,-4.7142857E-1,1.3043478E-1,4.4727275E-1,-2.0000002E-1,-4.0000004E-1,3.6393443E-1,-1.6363637E-1,-5.3898305E-1],"categories":[],"categories_nodes":[],"categories_segments":[],"categories_sizes":[],"default_left":[0,0,0,0,0,0,0,0,0,0,0,0,0,0,0,0,0,0,0,0,0,0,0,0,0,0,0,0,0,0,0,0,0,0,0,0,0,0,0,0,0,0,0,0,0,0,0,0,0,0,0,0,0,0,0,0,0],"id":0,"left_children":[1,3,5,7,9,11,13,15,17,19,21,23,-1,25,27,29,31,33,-1,35,37,39,41,-1,-1,-1,-1,-1,-1,-1,-1,-1,-1,-1,-1,43,45,47,-1,49,51,53,55,-1,-1,-1,-1,-1,-1,-1,-1,-1,-1,-1,-1,-1,-1],"loss_changes":[1.8174686E2,2.5822366E2,2.4261734E1,2.52193E1,6.959926E1,1.0629505E1,4.698349E0,8.128113E0,7.1730766E0,4.3865E1,9.857071E1,1.6982455E0,0E0,1.5787201E0,5.8545456E0,9.357084E0,4.0016174E-1,8.547008E-1,0E0,9.554413E0,1.5215449E1,4.5953705E1,4.553334E1,0E0,0E0,0E0,0E0,0E0,0E0,0E0,0E0,0E0,0E0,0E0,0E0,1.8571472E-1,1.1802197E1,9.5354E0,0E0,1.2223735E1,5.0256073E1,1.5587551E1,9.664711E0,0E0,0E0,0E0,0E0,0E0,0E0,0E0,0E0,0E0,0E0,0E0,0E0,0E0,0E0],"parents":[2147483647,0,0,1,1,2,2,3,3,4,4,5,5,6,6,7,7,8,8,9,9,10,10,11,11,13,13,14,14,15,15,16,16,17,17,19,19,20,20,21,21,22,22,35,35,36,36,37,37,39,39,40,40,41,41,42,42],"right_children":[2,4,6,8,10,12,14,16,18,20,22,24,-1,26,28,30,32,34,-1,36,38,40,42,-1,-1,-1,-1,-1,-1,-1,-1,-1,-1,-1,-1,44,46,48,-1,50,52,54,56,-1,-1,-1,-1,-1,-1,-1,-1,-1,-1,-1,-1,-1,-1],"split_conditions":[1.1184905E-2,-1.1184905E-2,-2.222499E-3,7.5669414E-3,-5.266315E-3,-7.0962184E-3,1.4462409E-3,-1.0760811E-3,-7.954855E-3,1.6321751E-3,5.1926523E-3,-1.637259E-3,-3.4285718E-1,4.931629E-3,-1.5433133E-3,-2.0818906E-4,-5.130097E-3,-6.697484E-5,3.75E-1,-7.1181883E-3,1.8352849E-3,-4.049008E-3,-1.692089E-3,4.4000003E-1,-0E0,-5.874346E-1,-1.6363637E-1,-3.818182E-1,3E-1,3.6E-1,-4.1538465E-1,-1.5E-1,-5.875648E-1,-3.3333337E-1,-0E0,-1.7121404E-3,2.3165368E-3,-2.146926E-3,-4.0000004E-1,6.567566E-4,4.049008E-3,-1.9015932E-3,7.1181883E-3,-1.5E-1,-5.5714285E-1,1.2857144E-1,-4.2857146E-1,-2.4000001E-1,4.4150946E-1,-4.7142857E-1,1.3043478E-1,4.4727275E-1,-2.0000002E-1,-4.0000004E-1,3.6393443E-1,-1.6363637E-1,-5.3898305E-1],"split_indices":[152,152,139,162,40,162,79,79,55,38,40,2,0,147,13,48,114,0,0,67,153,3,38,0,0,0,0,0,0,0,0,0,0,0,0,20,0,163,0,80,3,153,67,0,0,0,0,0,0,0,0,0,0,0,0,0,0],"split_type":[0,0,0,0,0,0,0,0,0,0,0,0,0,0,0,0,0,0,0,0,0,0,0,0,0,0,0,0,0,0,0,0,0,0,0,0,0,0,0,0,0,0,0,0,0,0,0,0,0,0,0,0,0,0,0,0,0],"sum_hessian":[3.85E2,3.275E2,5.75E1,5.725E1,2.7025E2,6.25E0,5.125E1,5.2E1,5.25E0,4.175E1,2.285E2,3.75E0,2.5E0,4.85E1,2.75E0,3.75E0,4.825E1,2.25E0,3E0,2.6E1,1.575E1,1.8575E2,4.275E1,2.75E0,1E0,4.675E1,1.75E0,1.75E0,1E0,1.5E0,2.25E0,1E0,4.725E1,1.25E0,1E0,1.4E1,1.2E1,1.375E1,2E0,1.075E1,1.75E2,1.625E1,2.65E1,1E0,1.3E1,6E0,6E0,1.5E0,1.225E1,6E0,4.75E0,1.64E2,1.1E1,2E0,1.425E1,1.275E1,1.375E1],"tree_param":{"num_deleted":"0","num_feature":"180","num_nodes":"57","size_leaf_vector":"1"}},{"base_weights":[-1.14582125E-2,2.0419246E-1,-1.2501111E0,-1.209804E0,5.175167E-1,2.2042713E-1,-1.4354472E0,-1.4345869E0,3.1247663E-1,6.151783E-1,-1.1262175E0,8.810982E-1,-3.109373E-1,-1.5031781E0,4.48412E-2,-2.9394546E-1,-1.5089756E0,-3.168082E-1,8.1610566E-1,-4.8296326E-1,7.8779364E-1,2.7834776E-1,-1.3784493E0,3.904452E-1,-7.801853E-2,-1.2295727E-1,-4.5667788E-1,2.065018E-1,-3.085831E-1,-9.120816E-2,-4.6403417E-1,4.0599933E-1,-1.4244184E-1,-1.3808342E0,3.9108295E-2,8.791756E-1,-8.704211E-1,-1.4986756E0,-2.1173587E-2,-8.542884E-2,-4.6736708E-1,2.3306462E-1,-2.6981604E-1,3.2698253E-1,8.192182E-3,-4.5657638E-1,1.9692443E-1,-4.682397E-1,-1.468743E-1],"categories":[],"categories_nodes":[],"categories_segments":[],"categories_sizes":[],"default_left":[0,0,0,0,0,0,0,0,0,0,0,0,0,0,0,0,0,0,0,0,0,0,0,0,0,0,0,0,0,0,0,0,0,0,0,0,0,0,0,0,0,0,0,0,0,0,0,0,0],"id":1,"left_children":[1,3,5,7,9,11,13,15,17,19,21,23,-1,25,-1,27,29,-1,31,33,35,-1,37,-1,-1,-1,-1,-1,-1,-1,-1,-1,-1,39,41,43,45,47,-1,-1,-1,-1,-1,-1,-1,-1,-1,-1,-1],"loss_changes":[9.798091E1,1.3905966E2,1.5140327E1,1.9945282E1,4.1866295E1,6.6882887E0,5.4242096E0,3.784233E0,6.480447E0,4.639473E1,8.914421E0,2.7846098E0,0E0,3.470459E-1,0E0,3.8056955E0,1.6494751E0,0E0,5.166475E0,1.5801261E1,3.2610016E1,0E0,2.0213795E0,0E0,0E0,0E0,0E0,0E0,0E0,0E0,0E0,0E0,0E0,1.958725E0,1.6080236E1,3.582083E1,1.2417442E1,9.418488E-3,0E0,0E0,0E0,0E0,0E0,0E0,0E0,0E0,0E0,0E0,0E0],"parents":[2147483647,0,0,1,1,2,2,3,3,4,4,5,5,6,6,7,7,8,8,9,9,10,10,11,11,13,13,15,15,16,16,18,18,19,19,20,20,22,22,33,33,34,34,35,35,36,36,37,37],"right_children":[2,4,6,8,10,12,14,16,18,20,22,24,-1,26,-1,28,30,-1,32,34,36,-1,38,-1,-1,-1,-1,-1,-1,-1,-1,-1,-1,40,42,44,46,48,-1,-1,-1,-1,-1,-1,-1,-1,-1,-1,-1],"split_conditions":[1.1184905E-2,-1.0829639E-2,-7.0962184E-3,2.113522E-3,9.635154E-3,-1.8221821E-3,2.5703143E-3,-1.3828751E-3,4.987232E-4,-4.3901196E-3,-4.136242E-3,3.6089716E-3,-3.109373E-1,1.5664481E-3,4.48412E-2,1.290122E-3,-4.931629E-3,-3.168082E-1,2.9248535E-3,-1.047734E-2,5.963055E-3,2.7834776E-1,1.6552729E-3,3.904452E-1,-7.801853E-2,-1.2295727E-1,-4.5667788E-1,2.065018E-1,-3.085831E-1,-9.120816E-2,-4.6403417E-1,4.0599933E-1,-1.4244184E-1,1.20883E-3,4.082096E-3,3.4519574E-3,5.4656956E-3,9.7371265E-3,-2.1173587E-2,-8.542884E-2,-4.6736708E-1,2.3306462E-1,-2.6981604E-1,3.2698253E-1,8.192182E-3,-4.5657638E-1,1.9692443E-1,-4.682397E-1,-1.468743E-1],"split_indices":[152,152,162,139,40,139,76,76,50,37,105,132,0,116,0,10,147,0,83,166,72,0,179,0,0,0,0,0,0,0,0,0,0,68,149,99,10,93,0,0,0,0,0,0,0,0,0,0,0],"split_type":[0,0,0,0,0,0,0,0,0,0,0,0,0,0,0,0,0,0,0,0,0,0,0,0,0,0,0,0,0,0,0,0,0,0,0,0,0,0,0,0,0,0,0,0,0,0,0,0,0],"sum_hessian":[3.6485428E2,3.1146335E2,5.3390926E1,5.5978336E1,2.5548503E2,5.954667E0,4.743626E1,4.8826176E1,7.1521583E0,2.4174747E2,1.3737556E1,4.0990286E0,1.8556384E0,4.554163E1,1.8946292E0,3.2924712E0,4.5533707E1,1.6289635E0,5.523195E0,3.259394E1,2.0915353E2,1.2095068E0,1.2528049E1,2.8928537E0,1.2061749E0,1.1667936E0,4.4374836E1,1.4357957E0,1.8566756E0,1.6602067E0,4.3873497E1,3.865978E0,1.6572169E0,1.1379056E1,2.1214884E1,1.9867464E2,1.0478886E1,1.1339751E1,1.1882987E0,1.9452479E0,9.433808E0,1.197402E1,9.240863E0,1.5904488E2,3.962977E1,7.3471003E0,3.131785E0,1.0167099E1,1.1726526E0],"tree_param":{"num_deleted":"0","num_feature":"180","num_nodes":"49","size_leaf_vector":"1"}},{"base_weights":[-2.008235E-2,1.5712656E-1,-1.0332038E0,-1.0243171E0,4.022274E-1,3.1275788E-1,-1.2251413E0,-1.224448E0,2.3476703E-1,-8.9403015E-1,4.9467456E-1,-2.1367006E-1,8.5063833E-1,-1.2727141E0,9.230941E-2,-2.4788995E-1,-1.2937944E0,-2.7418745E-1,6.661882E-1,5.505855E-1,-1.300828E0,-2.50505E-1,6.8939954E-1,-6.5287E-2,3.6214444E-1,-1.3047937E0,-8.730711E-2,1.9116054E-1,-2.7763996E-1,-7.520072E-2,-3.9957935E-1,3.1809497E-1,-1.7169507E-1,3.245444E-1,-1.0027619E-1,-3.327725E-1,-4.7587427E-1,-1.6358529E0,1.5172501E-1,8.2220936E-1,-5.3282166E-1,-4.0472308E-1,-4.2906493E-1,2.557801E-1,-3.1850708E-1,-5.1765126E-1,-1.2230648E-1,-3.162034E-1,1.1671073E-1,2.710015E-1,-3.0354753E-1,2.3358251E-1,-3.8252905E-1,-2.5829473E-1,7.292248E-2],"categories":[],"categories_nodes":[],"categories_segments":[],"categories_sizes":[],"default_left":[0,0,0,0,0,0,0,0,0,0,0,0,0,0,0,0,0,0,0,0,0,0,0,0,0,0,0,0,0,0,0,0,0,0,0,0,0,0,0,0,0,0,0,0,0,0,0,0,0,0,0,0,0,0,0],"id":2,"left_children":[1,3,5,7,9,11,13,15,17,19,21,-1,23,25,-1,27,29,-1,31,33,35,37,39,-1,-1,41,-1,-1,-1,-1,-1,-1,-1,-1,-1,43,-1,45,47,49,51,-1,53,-1,-1,-1,-1,-1,-1,-1,-1,-1,-1,-1,-1],"loss_changes":[6.0090294E1,8.2931984E1,1.3255146E1,1.2696064E1,2.8810547E1,4.473447E0,3.5863342E0,2.5676575E0,4.3718047E0,1.0186655E1,3.232971E1,0E0,2.188451E0,9.645691E-1,0E0,3.0275035E0,1.240921E0,0E0,3.5835812E0,2.356278E0,3.0286522E0,2.6240675E1,2.9001404E1,0E0,0E0,1.0130234E0,0E0,0E0,0E0,0E0,0E0,0E0,0E0,0E0,0E0,4.5310745E0,0E0,4.6155357E-1,1.1015642E1,2.4588852E1,1.8372263E1,0E0,1.2085766E0,0E0,0E0,0E0,0E0,0E0,0E0,0E0,0E0,0E0,0E0,0E0,0E0],"parents":[2147483647,0,0,1,1,2,2,3,3,4,4,5,5,6,6,7,7,8,8,9,9,10,10,12,12,13,13,15,15,16,16,18,18,19,19,20,20,21,21,22,22,25,25,35,35,37,37,38,38,39,39,40,40,42,42],"right_children":[2,4,6,8,10,12,14,16,18,20,22,-1,24,26,-1,28,30,-1,32,34,36,38,40,-1,-1,42,-1,-1,-1,-1,-1,-1,-1,-1,-1,44,-1,46,48,50,52,-1,54,-1,-1,-1,-1,-1,-1,-1,-1,-1,-1,-1,-1],"split_conditions":[1.0829639E-2,-1.0829639E-2,-2.7404984E-3,2.113522E-3,-5.963055E-3,-2.0511535E-3,3.0834556E-3,-1.3828751E-3,4.987232E-4,-3.198088E-3,-3.418665E-3,-2.1367006E-1,9.982653E-6,4.931629E-3,9.230941E-2,-1.6995717E-3,-4.931629E-3,-2.7418745E-1,1.024855E-3,4.7678486E-3,-7.200251E-3,-4.9794684E-3,5.4285857E-3,-6.5287E-2,3.6214444E-1,1.3828751E-3,-8.730711E-2,1.9116054E-1,-2.7763996E-1,-7.520072E-2,-3.9957935E-1,3.1809497E-1,-1.7169507E-1,3.245444E-1,-1.0027619E-1,7.0562755E-4,-4.7587427E-1,8.40857E-3,-3.641369E-3,1.2538025E-2,-3.307796E-3,-4.0472308E-1,-5.4656956E-3,2.557801E-1,-3.1850708E-1,-5.1765126E-1,-1.2230648E-1,-3.162034E-1,1.1671073E-1,2.710015E-1,-3.0354753E-1,2.3358251E-1,-3.8252905E-1,-2.5829473E-1,7.292248E-2],"split_indices":[152,152,139,139,72,164,82,76,50,161,99,0,51,147,0,71,147,0,115,109,13,151,19,0,0,76,0,0,0,0,0,0,0,0,0,135,0,35,176,166,55,0,10,0,0,0,0,0,0,0,0,0,0,0,0],"split_type":[0,0,0,0,0,0,0,0,0,0,0,0,0,0,0,0,0,0,0,0,0,0,0,0,0,0,0,0,0,0,0,0,0,0,0,0,0,0,0,0,0,0,0,0,0,0,0,0,0,0,0,0,0,0,0],"sum_hessian":[3.3279697E2,2.8397137E2,4.88256E1,4.8244133E1,2.3572723E2,6.015116E0,4.2810482E1,4.1651207E1,6.592929E0,1.5115333E1,2.2061191E2,1.9586126E0,4.056504E0,4.1686417E1,1.1240668E0,3.0649056E0,3.85863E1,1.4946667E0,5.098262E0,3.2435198E0,1.1871813E1,4.564599E1,1.7496593E2,1.1125078E0,2.943996E0,4.004858E1,1.6378355E0,1.3547871E0,1.7101185E0,1.6280618E0,3.695824E1,3.9766502E0,1.1216118E0,1.8876339E0,1.355886E0,3.1964262E0,8.675386E0,9.580876E0,3.6065113E1,1.581123E2,1.685362E1,3.7606407E1,2.442172E0,1.1525152E0,2.043911E0,8.551692E0,1.0291847E0,5.364994E0,3.0700117E1,1.519004E2,6.2118897E0,6.0737486E0,1.0779871E1,1.3157275E0,1.1264445E0],"tree_param":{"num_deleted":"0","num_feature":"180","num_nodes":"55","size_leaf_vector":"1"}},{"base_weights":[-2.9360943E-2,8.47391E-2,-1.1626755E0,-9.487929E-1,2.5383016E-1,-1.1994371E0,-2.9998196E-2,-1.0991775E0,2.204858E-1,3.9100513E-1,-4.230054E-1,-8.268664E-2,-3.6753017E-1,-8.533027E-2,-1.1878617E0,6.55323E-1,-2.3415849E-1,-3.6931884E-1,5.993538E-1,-9.552021E-1,5.193886E-1,2.3793893E-1,-2.4259287E-1,-3.6397856E-1,-7.234791E-2,-7.093619E-2,3.0311376E-1,-1.0489674E0,-1.2582306E-2,7.2467273E-1,-4.507733E-1,-1.3011626E0,-2.898563E-1,-3.1328967E-1,8.1759423E-1,-3.8330415E-1,2.6445526E-1,-2.6409334E-1,1.0461645E-1,-2.3850655E-2,2.7035475E-1,1.5235005E-1,-3.790501E-1,-2.1276632E-2,-4.133595E-1,-3.7471548E-1,1.6649625E-1,-2.5091124E-1,3.2365608E-1],"categories":[],"categories_nodes":[],"categories_segments":[],"categories_sizes":[],"default_left":[0,0,0,0,0,0,0,0,0,0,0,0,0,0,0,0,0,0,0,0,0,0,0,0,0,0,0,0,0,0,0,0,0,0,0,0,0,0,0,0,0,0,0,0,0,0,0,0,0],"id":3,"left_children":[1,3,5,7,9,11,-1,13,15,17,19,-1,-1,21,23,25,-1,27,29,31,33,-1,-1,-1,-1,-1,-1,35,37,39,41,43,45,-1,47,-1,-1,-1,-1,-1,-1,-1,-1,-1,-1,-1,-1,-1,-1],"loss_changes":[3.9052372E1,4.8233494E1,9.591522E-1,7.06905E0,2.215068E1,2.9315186E-1,0E0,3.0065346E0,2.7997851E0,3.1493763E1,2.0750555E1,0E0,0E0,3.0925903E0,4.6987152E-1,1.5714816E0,0E0,1.0431612E1,2.0768482E1,5.6448E0,7.952316E0,0E0,0E0,0E0,0E0,0E0,0E0,7.668087E0,9.481335E0,1.9823952E1,1.4024053E1,1.4993896E0,8.98839E0,0E0,6.6692066E0,0E0,0E0,0E0,0E0,0E0,0E0,0E0,0E0,0E0,0E0,0E0,0E0,0E0,0E0],"parents":[2147483647,0,0,1,1,2,2,3,3,4,4,5,5,7,7,8,8,9,9,10,10,13,13,14,14,15,15,17,17,18,18,19,19,20,20,27,27,28,28,29,29,30,30,31,31,32,32,34,34],"right_children":[2,4,6,8,10,12,-1,14,16,18,20,-1,-1,22,24,26,-1,28,30,32,34,-1,-1,-1,-1,-1,-1,36,38,40,42,44,46,-1,48,-1,-1,-1,-1,-1,-1,-1,-1,-1,-1,-1,-1,-1,-1],"split_conditions":[1.4501794E-2,-1.1184905E-2,1.945818E-3,7.5669414E-3,5.1926523E-3,-7.34241E-3,-2.9998196E-2,-1.0760811E-3,6.150929E-3,-3.6803077E-3,5.403971E-4,-8.268664E-2,-3.6753017E-1,-2.0818906E-4,-3.3584558E-3,-4.2876432E-4,-2.3415849E-1,-8.539114E-3,4.803493E-3,3.7986897E-3,-2.1128436E-3,2.3793893E-1,-2.4259287E-1,-3.6397856E-1,-7.234791E-2,-7.093619E-2,3.0311376E-1,3.2301429E-3,-1.7857291E-3,-4.395618E-3,-4.973746E-4,-3.8855942E-3,-9.639547E-4,-3.1328967E-1,-6.6763368E-3,-3.8330415E-1,2.6445526E-1,-2.6409334E-1,1.0461645E-1,-2.3850655E-2,2.7035475E-1,1.5235005E-1,-3.790501E-1,-2.1276632E-2,-4.133595E-1,-3.7471548E-1,1.6649625E-1,-2.5091124E-1,3.2365608E-1],"split_indices":[152,152,143,162,40,118,0,79,79,37,113,0,0,48,116,57,0,67,33,96,30,0,0,0,0,0,0,54,114,39,16,18,140,0,79,0,0,0,0,0,0,0,0,0,0,0,0,0,0],"split_type":[0,0,0,0,0,0,0,0,0,0,0,0,0,0,0,0,0,0,0,0,0,0,0,0,0,0,0,0,0,0,0,0,0,0,0,0,0,0,0,0,0,0,0,0,0,0,0,0,0],"sum_hessian":[3.0024103E2,2.736188E2,2.6622213E1,3.7822987E1,2.3579582E2,2.560767E1,1.014543E0,3.3565918E1,4.2570677E0,1.9641125E2,3.9384567E1,1.0094622E0,2.4598207E1,2.85777E0,3.0708149E1,3.2086022E0,1.0484655E0,4.207929E1,1.5433197E2,2.516154E1,1.4223028E1,1.246896E0,1.6108739E0,2.9631565E1,1.0765841E0,1.0088246E0,2.1997776E0,1.3816283E1,2.8263004E1,1.381549E2,1.6177065E1,1.5925252E1,9.236287E0,1.8772793E0,1.2345749E1,1.265513E1,1.1611536E0,7.886303E0,2.0376701E1,2.4964897E1,1.1319E2,7.594521E0,8.582544E0,1.0475813E0,1.487767E1,4.101359E0,5.134928E0,1.383823E0,1.09619255E1],"tree_param":{"num_deleted":"0","num_feature":"180","num_nodes":"49","size_leaf_vector":"1"}},{"base_weights":[-3.4405887E-2,-1.0669333E0,6.0951587E-2,-1.6349593E-2,-3.3548763E-1,2.0923676E-1,-8.055307E-1,2.9255056E-1,-9.9681324E-1,4.151756E-1,-1.0107127E0,4.2977023E-1,-3.4562674E-1,-1.4709098E0,4.4373628E-1,-1.51463E-1,2.919387E-1,-1.095555E0,-6.7139976E-2,-2.7908775E-1,5.894556E-1,-9.4048774E-1,9.403589E-2,-4.980373E-1,2.3289984E-2,2.7471954E-1,-1.4653173E-1,-3.4657574E-1,-1.5638944E-2,-2.3677374E-1,2.5033358E-1,1.9932704E-1,-2.1020171E-1,2.0839536E-1,-1.6378558E-1,3.149303E-2,-3.9762652E-1,1.14764936E-1,-2.6854017E-1],"categories":[],"categories_nodes":[],"categories_segments":[],"categories_sizes":[],"default_left":[0,0,0,0,0,0,0,0,0,0,0,0,0,0,0,0,0,0,0,0,0,0,0,0,0,0,0,0,0,0,0,0,0,0,0,0,0,0,0],"id":4,"left_children":[1,3,5,-1,-1,7,9,11,13,15,17,19,21,23,25,-1,-1,27,29,31,33,35,37,-1,-1,-1,-1,-1,-1,-1,-1,-1,-1,-1,-1,-1,-1,-1,-1],"loss_changes":[2.657739E1,1.1256256E0,3.1962875E1,0E0,0E0,2.1602245E1,9.528046E0,1.758871E1,1.016711E1,3.5415E0,2.442089E0,1.8768839E1,9.451052E0,3.2679615E0,2.3030436E0,0E0,0E0,1.7316246E0,3.0398939E0,1.2755237E1,1.6439255E1,6.2983284E0,6.4764314E0,0E0,0E0,0E0,0E0,0E0,0E0,0E0,0E0,0E0,0E0,0E0,0E0,0E0,0E0,0E0,0E0],"parents":[2147483647,0,0,1,1,2,2,5,5,6,6,7,7,8,8,9,9,10,10,11,11,12,12,13,13,14,14,17,17,18,18,19,19,20,20,21,21,22,22],"right_children":[2,4,6,-1,-1,8,10,12,14,16,18,20,22,24,26,-1,-1,28,30,32,34,36,38,-1,-1,-1,-1,-1,-1,-1,-1,-1,-1,-1,-1,-1,-1,-1,-1],"split_conditions":[-1.4201284E-2,-2.7692118E-3,1.0829639E-2,-1.6349593E-2,-3.3548763E-1,5.2015036E-3,-2.8516534E-3,3.6803077E-3,1.0116958E-3,2.2865595E-4,1.4462409E-3,-5.1926523E-3,-4.6774107E-3,3.6826907E-3,-7.4629416E-3,-1.51463E-1,2.919387E-1,4.931629E-3,-1.5433133E-3,-1.4620571E-3,5.684937E-3,-2.6842512E-4,1.5064484E-3,-4.980373E-1,2.3289984E-2,2.7471954E-1,-1.4653173E-1,-3.4657574E-1,-1.5638944E-2,-2.3677374E-1,2.5033358E-1,1.9932704E-1,-2.1020171E-1,2.0839536E-1,-1.6378558E-1,3.149303E-2,-3.9762652E-1,1.14764936E-1,-2.6854017E-1],"split_indices":[152,76,152,0,0,143,139,37,154,73,79,40,59,46,158,0,0,147,13,110,75,115,114,0,0,0,0,0,0,0,0,0,0,0,0,0,0,0,0],"split_type":[0,0,0,0,0,0,0,0,0,0,0,0,0,0,0,0,0,0,0,0,0,0,0,0,0,0,0,0,0,0,0,0,0,0,0,0,0,0,0],"sum_hessian":[2.6827252E2,2.1819794E1,2.4645273E2,1.152947E0,2.0666847E1,2.1108696E2,3.5365772E1,1.981558E2,1.293115E1,4.9417787E0,3.0423996E1,1.6335754E2,3.4798267E1,9.713337E0,3.217814E0,1.9014533E0,3.0403256E0,2.776629E1,2.6577046E0,2.9896498E1,1.3346104E2,1.4304818E1,2.0493448E1,8.591497E0,1.1218396E0,2.1478944E0,1.0699196E0,2.6162292E1,1.6039978E0,1.5449286E0,1.112776E0,9.05509E0,2.0841408E1,1.2249963E2,1.0961408E1,4.0452833E0,1.0259535E1,1.6340603E1,4.1528463E0],"tree_param":{"num_deleted":"0","num_feature":"180","num_nodes":"39","size_leaf_vector":"1"}},{"base_weights":[-3.7216324E-2,-1.0213194E0,4.6694074E-2,3.6438912E-1,-1.2870845E0,1.5991712E-1,-8.2144403E-1,2.408738E-1,-1.3041195E-1,-4.0647745E-1,-5.2975412E-2,-5.1801336E-1,3.072524E-1,-1.0313599E0,2.1138269E-1,4.9419567E-2,-1.1765691E0,-8.4046906E-1,4.270656E-1,5.4596517E-2,-1.1402107E0,-2.3577364E-1,8.46074E-1,2.9645547E-1,-2.5241664E-1,-2.9602844E-1,-1.3208907E0,-2.3268022E-1,-1.4536356E0,5.201544E-1,-6.616508E-1,-8.1077E-1,-1.4248836E0,6.9979504E-2,3.0820826E-1,1.5503834E-1,-2.695226E-1,-2.4903484E-1,1.661012E-1,-9.362746E-2,-4.3289605E-1,1.7619283E-1,-2.4832799E-1,-4.6711156E-1,-1.2634246E-1,1.8422553E-1,-1.0684635E-1,-3.49397E-1,2.242623E-1,-3.8155105E-3,-3.3415735E-1,-4.867045E-1,-1.9650127E-1],"categories":[],"categories_nodes":[],"categories_segments":[],"categories_sizes":[],"default_left":[0,0,0,0,0,0,0,0,0,0,0,0,0,0,0,0,0,0,0,0,0,0,0,0,0,0,0,0,0,0,0,0,0,0,0,0,0,0,0,0,0,0,0,0,0,0,0,0,0,0,0,0,0],"id":5,"left_children":[1,3,5,7,9,11,13,-1,-1,-1,-1,15,17,19,21,23,25,27,29,-1,31,-1,33,35,-1,37,39,41,43,45,47,49,51,-1,-1,-1,-1,-1,-1,-1,-1,-1,-1,-1,-1,-1,-1,-1,-1,-1,-1,-1,-1],"loss_changes":[2.0130087E1,7.521784E0,2.225192E1,1.7020972E0,9.879589E-1,2.0127714E1,5.8826027E0,0E0,0E0,0E0,0E0,1.3534773E1,2.302853E1,3.0978374E0,3.9837313E0,4.723717E0,1.7353115E0,5.5946884E0,1.5539711E1,0E0,7.4105453E-1,0E0,1.6980481E-1,4.8497105E0,0E0,2.113793E0,1.2847595E0,4.9683146E0,1.7000008E-1,1.1634193E1,9.554026E0,2.8142104E0,3.856697E-1,0E0,0E0,0E0,0E0,0E0,0E0,0E0,0E0,0E0,0E0,0E0,0E0,0E0,0E0,0E0,0E0,0E0,0E0,0E0,0E0],"parents":[2147483647,0,0,1,1,2,2,3,3,4,4,5,5,6,6,11,11,12,12,13,13,14,14,15,15,16,16,17,17,18,18,20,20,22,22,23,23,25,25,26,26,27,27,28,28,29,29,30,30,31,31,32,32],"right_children":[2,4,6,8,10,12,14,-1,-1,-1,-1,16,18,20,22,24,26,28,30,-1,32,-1,34,36,-1,38,40,42,44,46,48,50,52,-1,-1,-1,-1,-1,-1,-1,-1,-1,-1,-1,-1,-1,-1,-1,-1,-1,-1,-1,-1],"split_conditions":[-5.0695958E-3,-5.1317737E-3,5.868399E-3,4.930415E-3,7.937624E-3,-3.8795695E-3,8.171775E-3,2.408738E-1,-1.3041195E-1,-4.0647745E-1,-5.2975412E-2,-3.330254E-4,-7.400836E-3,-4.4180835E-3,-1.1463922E-2,1.0569811E-2,-7.577883E-3,-1.3176817E-4,5.1615667E-3,5.4596517E-2,-1.889067E-3,-2.3577364E-1,-8.3861576E-4,3.3171058E-3,-2.5241664E-1,1.1819649E-3,-1.7428023E-3,1.137471E-3,1.9245371E-3,8.065497E-3,2.828526E-4,2.2683803E-3,6.539712E-3,6.9979504E-2,3.0820826E-1,1.5503834E-1,-2.695226E-1,-2.4903484E-1,1.661012E-1,-9.362746E-2,-4.3289605E-1,1.7619283E-1,-2.4832799E-1,-4.6711156E-1,-1.2634246E-1,1.8422553E-1,-1.0684635E-1,-3.49397E-1,2.242623E-1,-3.8155105E-3,-3.3415735E-1,-4.867045E-1,-1.9650127E-1],"split_indices":[143,127,79,145,29,75,47,0,0,0,0,16,151,118,62,152,158,114,176,0,77,0,42,82,0,128,109,47,111,149,154,150,160,0,0,0,0,0,0,0,0,0,0,0,0,0,0,0,0,0,0,0,0],"split_type":[0,0,0,0,0,0,0,0,0,0,0,0,0,0,0,0,0,0,0,0,0,0,0,0,0,0,0,0,0,0,0,0,0,0,0,0,0,0,0,0,0,0,0,0,0,0,0,0,0,0,0,0,0],"sum_hessian":[2.4219757E2,1.8150974E1,2.240466E2,2.8612447E0,1.5289729E1,1.9891924E2,2.5127363E1,1.8443404E0,1.0169042E0,1.42020235E1,1.0877054E0,3.506403E1,1.638552E2,2.0884193E1,4.2431693E0,1.9331951E1,1.57320795E1,1.4919797E1,1.4893541E2,1.6639875E0,1.9220205E1,1.557539E0,2.6856303E0,1.56571665E1,3.6747856E0,2.645067E0,1.3087012E1,8.18553E0,6.734267E0,1.376851E2,1.1250293E1,1.0693321E1,8.526885E0,1.1351541E0,1.5504763E0,1.3698568E1,1.9585981E0,1.6383262E0,1.0067409E0,1.79686E0,1.1290153E1,3.4477553E0,4.737774E0,5.659445E0,1.0748223E0,1.24625824E2,1.3059281E1,8.418771E0,2.8315215E0,3.2301278E0,7.4631934E0,5.905039E0,2.621846E0],"tree_param":{"num_deleted":"0","num_feature":"180","num_nodes":"53","size_leaf_vector":"1"}},{"base_weights":[-4.59339E-2,3.4490775E-2,-8.950984E-1,1.2023188E-1,-9.5694107E-1,-3.0690342E-1,-1.2715958E0,2.579076E-1,-4.0240598E-1,-3.1337872E-1,3.904098E-2,-8.894868E-1,4.336099E-1,-5.8049228E-2,-1.3757676E0,-6.4366186E-1,3.7042543E-1,-1.0477504E0,7.397004E-2,-7.997634E-2,-2.9219216E-1,2.594691E-1,-1.2058826E-1,-4.3394437E-1,-1.1061178E-1,-1.0638278E0,6.570684E-1,4.835594E-1,-5.260578E-1,1.3312641E-1,-1.2311393E0,4.770719E-1,-6.9697356E-1,-3.7825415E-1,1.3851576E-1,2.762766E-1,9.705918E-3,-1.7699E-1,1.7800993E-1,-3.3316982E-1,1.1204212E-1,-1.2925749E-1,2.0043305E-1,-2.1556397E-1,-4.9111745E-1,-1.074382E-1,2.5705484E-1,-3.0850643E-1,1.2026486E-1],"categories":[],"categories_nodes":[],"categories_segments":[],"categories_sizes":[],"default_left":[0,0,0,0,0,0,0,0,0,0,0,0,0,0,0,0,0,0,0,0,0,0,0,0,0,0,0,0,0,0,0,0,0,0,0,0,0,0,0,0,0,0,0,0,0,0,0,0,0],"id":6,"left_children":[1,3,5,7,9,11,13,15,17,-1,-1,19,21,-1,23,25,27,29,31,-1,-1,-1,-1,-1,-1,33,35,37,39,41,43,45,47,-1,-1,-1,-1,-1,-1,-1,-1,-1,-1,-1,-1,-1,-1,-1,-1],"loss_changes":[1.5260114E1,1.7512997E1,3.8904266E0,1.3722148E1,1.6989088E0,4.2089205E0,1.0217037E0,1.5496552E1,1.2329098E1,0E0,0E0,1.862669E-2,1.996151E0,0E0,1.9971848E-1,1.0019476E1,1.3881247E1,3.8433514E0,7.7479587E0,0E0,0E0,0E0,0E0,0E0,0E0,4.571247E0,7.58445E-1,1.447484E1,8.582563E0,1.2492495E0,1.9040108E0,5.46517E0,3.5406823E0,0E0,0E0,0E0,0E0,0E0,0E0,0E0,0E0,0E0,0E0,0E0,0E0,0E0,0E0,0E0,0E0],"parents":[2147483647,0,0,1,1,2,2,3,3,4,4,5,5,6,6,7,7,8,8,11,11,12,12,14,14,15,15,16,16,17,17,18,18,25,25,26,26,27,27,28,28,29,29,30,30,31,31,32,32],"right_children":[2,4,6,8,10,12,14,16,18,-1,-1,20,22,-1,24,26,28,30,32,-1,-1,-1,-1,-1,-1,34,36,38,40,42,44,46,48,-1,-1,-1,-1,-1,-1,-1,-1,-1,-1,-1,-1,-1,-1,-1,-1],"split_conditions":[7.6973555E-3,1.4201284E-2,-4.6432755E-4,3.0117196E-3,2.5703143E-3,-4.7367797E-3,-1.3586023E-4,-5.552641E-3,-1.4354488E-3,-3.1337872E-1,3.904098E-2,-9.939666E-3,4.0643546E-3,-5.8049228E-2,7.341217E-3,2.4816156E-3,5.069996E-3,-1.2146648E-2,4.908222E-3,-7.997634E-2,-2.9219216E-1,2.594691E-1,-1.2058826E-1,-4.3394437E-1,-1.1061178E-1,6.2457905E-3,-3.6239305E-3,-5.6000757E-3,2.5929126E-3,-1.0349563E-3,2.5500716E-3,-2.155253E-3,1.7862872E-3,-3.7825415E-1,1.3851576E-1,2.762766E-1,9.705918E-3,-1.7699E-1,1.7800993E-1,-3.3316982E-1,1.1204212E-1,-1.2925749E-1,2.0043305E-1,-2.1556397E-1,-4.9111745E-1,-1.074382E-1,2.5705484E-1,-3.0850643E-1,1.2026486E-1],"split_indices":[151,152,51,82,76,40,102,25,126,0,0,17,22,0,140,147,75,71,25,0,0,0,0,0,0,135,164,72,16,4,168,148,107,0,0,0,0,0,0,0,0,0,0,0,0,0,0,0,0],"split_type":[0,0,0,0,0,0,0,0,0,0,0,0,0,0,0,0,0,0,0,0,0,0,0,0,0,0,0,0,0,0,0,0,0,0,0,0,0,0,0,0,0,0,0,0,0,0,0,0,0],"sum_hessian":[2.2199602E2,2.036661E2,1.8329906E1,1.8826343E2,1.5402687E1,7.8621583E0,1.0467749E1,1.4941132E2,3.8852104E1,1.4289553E1,1.1131341E0,4.2877135E0,3.5744445E0,1.1741072E0,9.293642E0,1.6054134E1,1.3335718E2,1.5990471E1,2.2861633E1,1.0084041E0,3.2793095E0,2.3344178E0,1.2400267E0,8.276168E0,1.0174733E0,1.2272095E1,3.78204E0,1.1882266E2,1.453452E1,2.1863332E0,1.3804137E1,1.5262528E1,7.5991063E0,1.1022134E1,1.2499605E0,2.3256404E0,1.4563998E0,1.0620339E1,1.08202324E2,8.667708E0,5.8668113E0,1.1590672E0,1.027266E0,7.3247013E0,6.479436E0,4.788582E0,1.0473947E1,5.885815E0,1.7132908E0],"tree_param":{"num_deleted":"0","num_feature":"180","num_nodes":"49","size_leaf_vector":"1"}},{"base_weights":[-4.723336E-2,-6.6273427E-1,5.277517E-2,4.392528E-1,-8.79271E-1,1.6819651E-1,-6.977055E-1,-1.8262137E-1,2.5777602E-1,2.0030652E-1,-1.0095831E0,-6.177031E-1,2.7940965E-1,2.926474E-1,-9.2503494E-1,-1.33877E-1,1.9767098E-1,1.5559565E-2,-1.1130021E0,-8.726827E-1,4.8091343E-1,4.4241327E-1,-6.2600356E-1,2.5336516E-1,-1.4750326E-1,9.032087E-2,-1.0232375E0,-1.4267166E0,-6.8690246E-1,-1.173373E0,1.6049767E-1,2.5023523E-1,-9.8678485E-2,-2.4765237E-1,5.4533035E-1,-8.663151E-1,4.997435E-1,-1.1329861E0,5.47816E-2,-2.4827246E-1,-5.1080036E-1,1.5859222E-1,-3.0177808E-1,-3.9267942E-1,-3.9390508E-2,-2.1888013E-1,2.356364E-1,-2.3999536E-1,1.254247E-1,2.0470862E-1,-7.375797E-2,-3.723517E-1,-3.825178E-2,2.4653648E-1,-8.2808726E-2,-3.7645346E-1,-1.9930169E-2],"categories":[],"categories_nodes":[],"categories_segments":[],"categories_sizes":[],"default_left":[0,0,0,0,0,0,0,0,0,0,0,0,0,0,0,0,0,0,0,0,0,0,0,0,0,0,0,0,0,0,0,0,0,0,0,0,0,0,0,0,0,0,0,0,0,0,0,0,0,0,0,0,0,0,0,0,0],"id":7,"left_children":[1,3,5,7,9,11,13,-1,-1,15,17,19,21,23,25,-1,-1,-1,27,29,31,33,35,-1,-1,-1,37,39,41,43,45,-1,-1,47,49,51,53,55,-1,-1,-1,-1,-1,-1,-1,-1,-1,-1,-1,-1,-1,-1,-1,-1,-1,-1,-1],"loss_changes":[1.2622723E1,7.2242575E0,1.5435348E1,2.8880315E0,3.6184769E0,1.3638866E1,5.6213217E0,0E0,0E0,1.3169799E0,2.4544811E0,5.857316E0,2.029853E1,2.6646914E0,2.6643658E0,0E0,0E0,0E0,1.6853943E0,5.193224E0,1.5047023E0,8.34132E0,6.1441603E0,0E0,0E0,0E0,2.6347523E0,3.3615685E-1,4.5584846E0,1.6078625E0,3.0826042E0,0E0,0E0,6.1016655E0,1.1103386E1,4.761244E0,1.3131075E0,2.1201344E0,0E0,0E0,0E0,0E0,0E0,0E0,0E0,0E0,0E0,0E0,0E0,0E0,0E0,0E0,0E0,0E0,0E0,0E0,0E0],"parents":[2147483647,0,0,1,1,2,2,3,3,4,4,5,5,6,6,9,9,10,10,11,11,12,12,13,13,14,14,18,18,19,19,20,20,21,21,22,22,26,26,27,27,28,28,29,29,30,30,33,33,34,34,35,35,36,36,37,37],"right_children":[2,4,6,8,10,12,14,-1,-1,16,18,20,22,24,26,-1,-1,-1,28,30,32,34,36,-1,-1,-1,38,40,42,44,46,-1,-1,48,50,52,54,56,-1,-1,-1,-1,-1,-1,-1,-1,-1,-1,-1,-1,-1,-1,-1,-1,-1,-1,-1],"split_conditions":[-3.630794E-3,-2.4100812E-3,8.065497E-3,-1.3264371E-3,-2.682738E-3,-7.937174E-3,-3.1007137E-3,-1.8262137E-1,2.5777602E-1,-5.83674E-4,-7.4021183E-3,2.918985E-3,3.630794E-3,4.624386E-3,-2.918985E-3,-1.33877E-1,1.9767098E-1,1.5559565E-2,-3.6244962E-4,2.5703143E-3,2.4353038E-3,-4.0373756E-3,2.3675968E-3,2.5336516E-1,-1.4750326E-1,9.032087E-2,4.5227488E-3,-5.7103527E-3,1.9121197E-3,1.0094214E-3,4.6432755E-4,2.5023523E-1,-9.8678485E-2,5.9366605E-4,4.0373756E-3,-1.8006943E-3,2.9331273E-3,7.460922E-4,5.47816E-2,-2.4827246E-1,-5.1080036E-1,1.5859222E-1,-3.0177808E-1,-3.9267942E-1,-3.9390508E-2,-2.1888013E-1,2.356364E-1,-2.3999536E-1,1.254247E-1,2.0470862E-1,-7.375797E-2,-3.723517E-1,-3.825178E-2,2.4653648E-1,-8.2808726E-2,-3.7645346E-1,-1.9930169E-2],"split_indices":[143,154,149,125,169,149,76,0,0,85,162,143,143,59,143,0,0,0,2,76,2,45,154,0,0,0,145,113,116,0,51,0,0,24,45,116,23,152,0,0,0,0,0,0,0,0,0,0,0,0,0,0,0,0,0,0,0],"split_type":[0,0,0,0,0,0,0,0,0,0,0,0,0,0,0,0,0,0,0,0,0,0,0,0,0,0,0,0,0,0,0,0,0,0,0,0,0,0,0,0,0,0,0,0,0,0,0,0,0,0,0,0,0,0,0,0,0],"sum_hessian":[2.034948E2,2.7656506E1,1.7583829E2,4.3730216E0,2.3283484E1,1.530722E2,2.2766096E1,1.1225778E0,3.2504437E0,2.449914E0,2.0833569E1,1.8411455E1,1.3466074E2,4.1965675E0,1.8569529E1,1.0277812E0,1.4221327E0,1.8938991E0,1.893967E1,1.5110166E1,3.3012896E0,1.145495E2,2.011124E1,2.4181855E0,1.7783822E0,1.2238165E0,1.7345713E1,9.555874E0,9.383797E0,1.1598826E1,3.5113392E0,2.2778523E0,1.0234373E0,1.4684257E1,9.986525E1,1.6763266E1,3.347976E0,1.5954087E1,1.3916252E0,4.2743807E0,5.2814927E0,1.8142201E0,7.5695767E0,1.0037064E1,1.5617632E0,1.3793508E0,2.1319885E0,7.9154677E0,6.7687883E0,8.523957E1,1.4625678E1,1.06697035E1,6.093561E0,2.3239315E0,1.0240444E0,1.4159728E1,1.7943593E0],"tree_param":{"num_deleted":"0","num_feature":"180","num_nodes":"57","size_leaf_vector":"1"}},{"base_weights":[-4.4875078E-2,-2.805832E-1,1.4006241E-2,-7.6652646E-1,9.272039E-2,9.653222E-2,-1.0298082E0,2.3925482E-1,-2.7882245E-1,-2.1948345E-1,1.8380032E-1,-4.1490495E-1,-5.315904E-1,-1.681287E-1,5.626576E-1,-6.916896E-1,2.6674265E-1,1.1891928E-1,-7.755625E-1,-8.752754E-1,1.4562967E-1,-2.305486E-1,7.03636E-1,2.2517136E-1,-9.165547E-1,4.6951658E-1,-8.4324384E-1,-2.8491074E-1,-5.898716E-2,-4.0528497E-1,-3.5192516E-2,1.5205348E-1,-1.4516364E-1,-3.694127E-1,9.93858E-2,-7.7650264E-2,2.4638435E-1,-1.5710294E-1,2.4902363E-1,-3.3638114E-1,-1.2433569E-1,-1.9498555E-1,1.906291E-1,-3.098698E-1,-5.657118E-2],"categories":[],"categories_nodes":[],"categories_segments":[],"categories_sizes":[],"default_left":[0,0,0,0,0,0,0,0,0,0,0,0,0,0,0,0,0,0,0,0,0,0,0,0,0,0,0,0,0,0,0,0,0,0,0,0,0,0,0,0,0,0,0,0,0],"id":8,"left_children":[1,-1,3,5,7,9,11,13,15,-1,-1,-1,17,19,21,23,25,-1,27,29,31,33,35,37,39,41,43,-1,-1,-1,-1,-1,-1,-1,-1,-1,-1,-1,-1,-1,-1,-1,-1,-1,-1],"loss_changes":[9.867905E0,0E0,1.096385E1,3.814475E0,8.8836E0,2.4725618E0,1.4844656E0,1.5466806E1,1.0605893E1,0E0,0E0,0E0,1.8598763E0,1.1754669E1,7.4614067E0,5.6935043E0,5.044229E0,0E0,3.947518E-1,5.6998034E0,8.69416E0,6.37036E0,6.5160446E0,3.172782E0,1.752428E0,3.77564E0,2.4571228E-1,0E0,0E0,0E0,0E0,0E0,0E0,0E0,0E0,0E0,0E0,0E0,0E0,0E0,0E0,0E0,0E0,0E0,0E0],"parents":[2147483647,0,0,2,2,3,3,4,4,5,5,6,6,7,7,8,8,12,12,13,13,14,14,15,15,16,16,18,18,19,19,20,20,21,21,22,22,23,23,24,24,25,25,26,26],"right_children":[2,-1,4,6,8,10,12,14,16,-1,-1,-1,18,20,22,24,26,-1,28,30,32,34,36,38,40,42,44,-1,-1,-1,-1,-1,-1,-1,-1,-1,-1,-1,-1,-1,-1,-1,-1,-1,-1],"split_conditions":[-1.4501794E-2,-2.805832E-1,-8.852579E-3,-1.3017211E-3,2.2050904E-3,-1.3216371E-3,-5.516138E-4,-1.6981151E-3,-1.2015358E-3,-2.1948345E-1,1.8380032E-1,-4.1490495E-1,-1.6006053E-3,-5.477258E-4,-3.0185436E-3,-2.8296756E-3,4.988579E-3,1.1891928E-1,-3.34109E-3,-1.5343677E-3,1.4181139E-3,-2.095494E-3,-3.6956815E-3,-4.0187705E-3,1.4772501E-3,-5.0695958E-3,3.2186958E-3,-2.8491074E-1,-5.898716E-2,-4.0528497E-1,-3.5192516E-2,1.5205348E-1,-1.4516364E-1,-3.694127E-1,9.93858E-2,-7.7650264E-2,2.4638435E-1,-1.5710294E-1,2.4902363E-1,-3.3638114E-1,-1.2433569E-1,-1.9498555E-1,1.906291E-1,-3.098698E-1,-5.657118E-2],"split_indices":[152,0,163,152,83,107,66,83,26,0,0,0,141,103,179,174,66,0,178,60,176,102,45,175,24,143,20,0,0,0,0,0,0,0,0,0,0,0,0,0,0,0,0,0,0],"split_type":[0,0,0,0,0,0,0,0,0,0,0,0,0,0,0,0,0,0,0,0,0,0,0,0,0,0,0,0,0,0,0,0,0,0,0,0,0,0,0,0,0,0,0,0,0],"sum_hessian":[1.8696815E2,1.0673877E1,1.7629428E2,1.5349537E1,1.6094475E2,3.735995E0,1.1613542E1,1.15678024E2,4.526672E1,1.2741429E0,2.4618523E0,5.756548E0,5.8569937E0,5.1404724E1,6.42733E1,2.5614555E1,1.9652163E1,1.0892159E0,4.767778E0,1.5248377E1,3.6156345E1,9.603646E0,5.4669655E1,5.0445657E0,2.056999E1,1.7104496E1,2.5476668E0,3.1729586E0,1.5948193E0,8.8881445E0,6.3602324E0,2.309765E1,1.3058696E1,3.0244038E0,6.5792427E0,5.8238482E0,4.8845806E1,2.3141007E0,2.730465E0,1.3736311E1,6.833679E0,1.8312314E0,1.5273264E1,1.5274422E0,1.0202246E0],"tree_param":{"num_deleted":"0","num_feature":"180","num_nodes":"45","size_leaf_vector":"1"}},{"base_weights":[-4.776079E-2,2.3135575E-2,-6.6678333E-1,-3.755603E-1,1.8043335E-1,3.3552483E-1,-8.8572264E-1,3.302308E-2,-9.647615E-1,-4.5353982E-1,3.035647E-1,2.0877308E-1,-6.1396364E-2,-1.0103769E0,1.1120553E-1,4.6826372E-1,-3.7248218E-1,-1.274308E0,-4.7911215E-1,-1.0879259E0,1.6239232E-1,-2.4315782E-1,4.920049E-1,-3.478583E-1,-9.123907E-3,-1.6613266E-1,6.8634504E-1,-8.0414313E-1,1.3573071E-1,-1.3855269E0,-1.5806583E-1,1.9479673E-2,-2.621675E-1,1.974833E-2,-1.2360772E0,4.6607763E-1,-2.4346212E-1,8.43538E-2,-1.0108097E0,-6.1254805E-1,5.7939786E-1,-7.605419E-2,2.8209522E-1,-3.095054E-1,4.626961E-2,1.6469151E-1,-2.661788E-1,-4.450623E-1,-1.0348639E-1,-1.7705658E-1,1.631774E-1,-1.2245637E-1,-3.988612E-1,2.1244915E-1,-1.9121294E-1,-2.881549E-1,1.1111807E-1,-3.5851404E-1,2.35651E-2,-3.226064E-1,5.3767733E-2,-2.73392E-1,1.9582127E-1],"categories":[],"categories_nodes":[],"categories_segments":[],"categories_sizes":[],"default_left":[0,0,0,0,0,0,0,0,0,0,0,0,0,0,0,0,0,0,0,0,0,0,0,0,0,0,0,0,0,0,0,0,0,0,0,0,0,0,0,0,0,0,0,0,0,0,0,0,0,0,0,0,0,0,0,0,0,0,0,0,0,0,0],"id":9,"left_children":[1,3,5,7,9,11,13,15,17,19,21,-1,-1,23,-1,25,27,29,31,33,35,37,39,-1,-1,-1,41,43,45,47,-1,49,-1,-1,51,53,-1,55,57,59,61,-1,-1,-1,-1,-1,-1,-1,-1,-1,-1,-1,-1,-1,-1,-1,-1,-1,-1,-1,-1,-1,-1],"loss_changes":[7.5999584E0,9.85296E0,4.2017097E0,1.0736778E1,8.924477E0,9.045771E-1,2.704627E0,4.979453E0,2.1317997E0,7.486376E0,9.891968E0,0E0,0E0,1.9822512E0,0E0,3.4055958E0,3.323218E0,1.4601326E-1,1.730181E0,1.6787987E0,3.4429617E0,6.3663044E0,7.196165E0,0E0,0E0,0E0,3.0153117E0,1.9181952E0,3.6933427E0,3.6125755E-1,0E0,1.8635247E0,0E0,0E0,1.0203171E-1,2.7310872E0,0E0,5.865391E0,1.6087956E0,2.2749712E0,7.831173E0,0E0,0E0,0E0,0E0,0E0,0E0,0E0,0E0,0E0,0E0,0E0,0E0,0E0,0E0,0E0,0E0,0E0,0E0,0E0,0E0,0E0,0E0],"parents":[2147483647,0,0,1,1,2,2,3,3,4,4,5,5,6,6,7,7,8,8,9,9,10,10,13,13,15,15,16,16,17,17,18,18,19,19,20,20,21,21,22,22,26,26,27,27,28,28,29,29,31,31,34,34,35,35,37,37,38,38,39,39,40,40],"right_children":[2,4,6,8,10,12,14,16,18,20,22,-1,-1,24,-1,26,28,30,32,34,36,38,40,-1,-1,-1,42,44,46,48,-1,50,-1,-1,52,54,-1,56,58,60,62,-1,-1,-1,-1,-1,-1,-1,-1,-1,-1,-1,-1,-1,-1,-1,-1,-1,-1,-1,-1,-1,-1],"split_conditions":[5.552641E-3,-2.3751701E-3,-2.895274E-3,1.3391689E-3,-4.6775807E-3,4.3144478E-3,6.804353E-3,4.285411E-3,4.312542E-3,2.573494E-3,-3.3716876E-3,2.0877308E-1,-6.1396364E-2,1.0710305E-2,1.1120553E-1,-6.5257885E-3,1.7404003E-3,2.1534563E-4,7.0579974E-3,-1.3491249E-3,1.332315E-2,2.0327687E-3,-9.602673E-3,-3.478583E-1,-9.123907E-3,-1.6613266E-1,-2.983825E-3,-1.6586443E-3,4.0762546E-3,5.448579E-3,-1.5806583E-1,-1.1786994E-2,-2.621675E-1,1.974833E-2,-1.5526705E-3,-1.7511942E-3,-2.4346212E-1,-5.659636E-3,3.6184173E-3,4.785338E-4,-8.847573E-3,-7.605419E-2,2.8209522E-1,-3.095054E-1,4.626961E-2,1.6469151E-1,-2.661788E-1,-4.450623E-1,-1.0348639E-1,-1.7705658E-1,1.631774E-1,-1.2245637E-1,-3.988612E-1,2.1244915E-1,-1.9121294E-1,-2.881549E-1,1.1111807E-1,-3.5851404E-1,2.35651E-2,-3.226064E-1,5.3767733E-2,-2.73392E-1,1.9582127E-1],"split_indices":[25,82,147,126,19,85,60,119,77,55,103,0,0,38,0,25,118,109,116,54,11,22,149,0,0,0,114,28,26,119,0,101,0,0,115,101,0,41,76,51,37,0,0,0,0,0,0,0,0,0,0,0,0,0,0,0,0,0,0,0,0,0,0],"split_type":[0,0,0,0,0,0,0,0,0,0,0,0,0,0,0,0,0,0,0,0,0,0,0,0,0,0,0,0,0,0,0,0,0,0,0,0,0,0,0,0,0,0,0,0,0,0,0,0,0,0,0,0,0,0,0,0,0,0,0,0,0,0,0],"sum_hessian":[1.7182173E2,1.5502896E2,1.6792768E1,4.346713E1,1.1156184E2,2.9150615E0,1.38777075E1,2.6225163E1,1.7241966E1,1.7707397E1,9.385444E1,1.5755949E0,1.3394666E0,1.2803256E1,1.0744513E0,1.2574171E1,1.3650991E1,9.538394E0,7.7035723E0,8.345525E0,9.361873E0,2.3982761E1,6.987167E1,1.0952974E1,1.8502812E0,1.940535E0,1.0633636E1,7.066565E0,6.5844264E0,7.5597386E0,1.9786555E0,3.8242917E0,3.8792808E0,1.012919E0,7.3326063E0,7.53409E0,1.8277826E0,1.7434574E1,6.548187E0,4.6823764E0,6.51893E1,2.2625542E0,8.371082E0,5.6488886E0,1.4176762E0,5.019965E0,1.5644612E0,6.5199146E0,1.0398244E0,1.7104878E0,2.1138039E0,1.2882783E0,6.0443277E0,6.4723535E0,1.0617363E0,3.240268E0,1.4194306E1,5.5179505E0,1.0302362E0,2.7290416E0,1.9533348E0,2.521026E0,6.2668274E1],"tree_param":{"num_deleted":"0","num_feature":"180","num_nodes":"63","size_leaf_vector":"1"}},{"base_weights":[-5.7937704E-2,2.8275093E-2,-5.406465E-1,1.0018988E-1,-7.120483E-1,-2.0531651E-1,-9.420429E-1,1.8556108E-1,-5.0088096E-1,-3.8083896E-1,-2.3746277E-1,-5.9502685E-1,2.779996E-1,-3.0675876E-1,-3.5682258E-1,-6.2049454E-1,2.6292354E-1,3.6657116E-1,-8.796378E-1,-2.3884629E-1,4.1411746E-1,-9.037918E-1,1.5832254E-1,4.909363E-1,-1.2448862E-1,1.15037106E-1,-1.9168566E-1,3.7374142E-1,-9.52795E-1,-1.4525926E-1,4.2057392E-1,-1.2398666E-1,2.5067753E-1,-1.0758727E0,7.9502665E-2,-7.550177E-2,2.1099983E-1,-2.9946113E-1,-8.050484E-2,-6.893368E-2,1.3237606E-1,7.325895E-1,-4.7876988E-2,-3.8430728E-2,1.9964494E-1,-4.021949E-2,-3.2995564E-1,-2.0854752E-1,1.2807287E-1,-2.511521E-1,1.4587736E-1,-3.631922E-1,-3.542671E-2,2.543563E-1,5.6845523E-2],"categories":[],"categories_nodes":[],"categories_segments":[],"categories_sizes":[],"default_left":[0,0,0,0,0,0,0,0,0,0,0,0,0,0,0,0,0,0,0,0,0,0,0,0,0,0,0,0,0,0,0,0,0,0,0,0,0,0,0,0,0,0,0,0,0,0,0,0,0,0,0,0,0,0,0],"id":10,"left_children":[1,3,5,7,9,11,13,15,17,-1,19,21,23,25,-1,27,29,31,33,-1,35,37,39,41,-1,-1,-1,43,45,47,49,-1,-1,51,-1,-1,-1,-1,-1,-1,-1,53,-1,-1,-1,-1,-1,-1,-1,-1,-1,-1,-1,-1,-1],"loss_changes":[6.562148E0,7.2283177E0,3.0220637E0,6.4252424E0,2.879784E0,2.857811E0,1.3000736E0,6.9468045E0,5.4536715E0,0E0,3.1420074E0,2.0579054E0,1.2458318E0,1.2347782E0,0E0,3.6018384E0,6.4935927E0,2.3396926E0,2.7930279E0,0E0,9.903845E-1,9.136772E-2,4.5760417E-1,1.0381845E0,0E0,0E0,0E0,5.5071557E-1,7.729931E-1,9.293454E0,6.385581E0,0E0,0E0,1.1128149E0,0E0,0E0,0E0,0E0,0E0,0E0,0E0,1.18041754E-1,0E0,0E0,0E0,0E0,0E0,0E0,0E0,0E0,0E0,0E0,0E0,0E0,0E0],"parents":[2147483647,0,0,1,1,2,2,3,3,4,4,5,5,6,6,7,7,8,8,10,10,11,11,12,12,13,13,15,15,16,16,17,17,18,18,20,20,21,21,22,22,23,23,27,27,28,28,29,29,30,30,33,33,41,41],"right_children":[2,4,6,8,10,12,14,16,18,-1,20,22,24,26,-1,28,30,32,34,-1,36,38,40,42,-1,-1,-1,44,46,48,50,-1,-1,52,-1,-1,-1,-1,-1,-1,-1,54,-1,-1,-1,-1,-1,-1,-1,-1,-1,-1,-1,-1,-1],"split_conditions":[4.3901196E-3,7.6973555E-3,8.8401936E-4,4.423248E-3,8.7226654E-5,-1.1872741E-3,-1.1367603E-3,-8.852579E-3,-1.9858174E-3,-3.8083896E-1,-4.6585514E-3,-1.5203899E-3,5.6347726E-3,2.2122264E-3,-3.5682258E-1,-1.3017211E-3,-3.3145926E-3,-3.840235E-3,7.4021183E-3,-2.3884629E-1,-6.9312553E-4,1.0819654E-3,-2.9987623E-3,-2.3333635E-4,-1.2448862E-1,1.15037106E-1,-1.9168566E-1,1.4812676E-3,-1.1485603E-2,9.276922E-4,-6.9824816E-3,-1.2398666E-1,2.5067753E-1,1.6871514E-3,7.9502665E-2,-7.550177E-2,2.1099983E-1,-2.9946113E-1,-8.050484E-2,-6.893368E-2,1.3237606E-1,4.201409E-3,-4.7876988E-2,-3.8430728E-2,1.9964494E-1,-4.021949E-2,-3.2995564E-1,-2.0854752E-1,1.2807287E-1,-2.511521E-1,1.4587736E-1,-3.631922E-1,-3.542671E-2,2.543563E-1,5.6845523E-2],"split_indices":[37,151,175,176,114,179,25,163,113,0,40,59,131,43,0,152,99,169,162,0,60,111,149,124,0,0,0,169,32,16,114,0,0,152,0,0,0,0,0,0,0,129,0,0,0,0,0,0,0,0,0,0,0,0,0],"split_type":[0,0,0,0,0,0,0,0,0,0,0,0,0,0,0,0,0,0,0,0,0,0,0,0,0,0,0,0,0,0,0,0,0,0,0,0,0,0,0,0,0,0,0,0,0,0,0,0,0,0,0,0,0,0,0],"sum_hessian":[1.563172E2,1.334281E2,2.2889112E1,1.2240261E2,1.1025484E1,1.329438E1,9.594732E0,1.0778499E2,1.4617618E1,4.300054E0,6.72543E0,7.231943E0,6.062437E0,3.3167539E0,6.2779784E0,8.82411E0,9.8960884E1,4.45247E0,1.0165148E1,3.5013487E0,3.2240813E0,4.9879165E0,2.2440267E0,4.860437E0,1.2020003E0,1.0275146E0,2.2892394E0,2.1792202E0,6.64489E0,2.7594023E1,7.136686E1,1.7167628E0,2.735707E0,8.728792E0,1.4363562E0,1.0156974E0,2.208384E0,3.8456607E0,1.1422559E0,1.0253702E0,1.2186564E0,3.4519722E0,1.4084647E0,1.0073377E0,1.1718825E0,1.3028748E0,5.3420153E0,1.3961231E1,1.36327915E1,2.9590993E0,6.840776E1,7.4206448E0,1.3081472E0,2.3847277E0,1.0672445E0],"tree_param":{"num_deleted":"0","num_feature":"180","num_nodes":"55","size_leaf_vector":"1"}},{"base_weights":[-5.861185E-2,-6.604897E-1,5.141698E-3,3.9732686E-1,-1.0045791E0,-5.708461E-1,8.582017E-2,2.2060151E-1,-7.112954E-2,-1.1450096E0,4.759908E-2,-9.314474E-2,-9.335538E-1,-4.2166057E-1,1.8932302E-1,-9.174076E-2,-1.3005363E0,4.5928562E-1,-4.6991846E-1,-3.1271246E-1,-3.9487742E-2,-5.9959415E-2,-1.0973641E0,-4.4363886E-1,2.7742368E-1,-8.718932E-2,-4.22053E-1,2.2596355E-1,-3.9152127E-2,-2.660303E-1,1.3024867E-2,3.8086995E-1,-5.735973E-1,-4.7013674E-2,-3.964757E-1,-8.941288E-1,4.265056E-1,3.195171E-1,-7.4354243E-1,1.3881883E-1,-1.4051923E-1,-1.9544458E-1,1.9256684E-1,-2.8334337E-1,-1.2801798E-3,-3.385187E-1,1.1574822E-1,2.3505524E-1,-1.2474747E-1,-8.250076E-2,1.21055745E-1,-4.1397046E-2,-2.7552015E-1],"categories":[],"categories_nodes":[],"categories_segments":[],"categories_sizes":[],"default_left":[0,0,0,0,0,0,0,0,0,0,0,0,0,0,0,0,0,0,0,0,0,0,0,0,0,0,0,0,0,0,0,0,0,0,0,0,0,0,0,0,0,0,0,0,0,0,0,0,0,0,0,0,0],"id":11,"left_children":[1,3,5,7,9,11,13,-1,-1,15,-1,17,19,21,23,-1,25,27,29,-1,-1,31,33,35,37,-1,-1,-1,-1,-1,39,41,43,-1,-1,45,47,49,51,-1,-1,-1,-1,-1,-1,-1,-1,-1,-1,-1,-1,-1,-1],"loss_changes":[5.561131E0,5.4513297E0,6.181082E0,1.0585834E0,1.9388542E0,2.7447686E0,6.205136E0,0E0,0E0,8.7091637E-1,0E0,1.9151579E0,6.638074E-1,4.838128E0,5.562915E0,0E0,4.3849087E-1,7.598568E-1,1.0882059E0,0E0,0E0,3.4171736E0,1.2562246E0,5.2042656E0,3.9441137E0,0E0,0E0,0E0,0E0,0E0,9.6650904E-1,2.6286526E0,1.4579282E0,0E0,0E0,2.9629955E0,1.7915287E0,4.282589E0,2.6670218E-1,0E0,0E0,0E0,0E0,0E0,0E0,0E0,0E0,0E0,0E0,0E0,0E0,0E0,0E0],"parents":[2147483647,0,0,1,1,2,2,3,3,4,4,5,5,6,6,9,9,11,11,12,12,13,13,14,14,16,16,17,17,18,18,21,21,22,22,23,23,24,24,30,30,31,31,32,32,35,35,36,36,37,37,38,38],"right_children":[2,4,6,8,10,12,14,-1,-1,16,-1,18,20,22,24,-1,26,28,30,-1,-1,32,34,36,38,-1,-1,-1,-1,-1,40,42,44,-1,-1,46,48,50,52,-1,-1,-1,-1,-1,-1,-1,-1,-1,-1,-1,-1,-1,-1],"split_conditions":[-5.02523E-3,-7.756051E-4,-9.824387E-3,6.722503E-3,2.735027E-3,2.3819897E-3,-3.9828736E-3,2.2060151E-1,-7.112954E-2,-2.2350117E-3,4.759908E-2,1.3513609E-3,2.2136632E-3,1.4248589E-3,-8.160115E-3,-9.174076E-2,-5.8108284E-3,2.3252487E-3,-2.7080142E-4,-3.1271246E-1,-3.9487742E-2,1.9427005E-3,-1.896394E-3,6.222681E-4,1.3873177E-2,-8.718932E-2,-4.22053E-1,2.2596355E-1,-3.9152127E-2,-2.660303E-1,-1.7411439E-3,-5.616571E-3,2.5787754E-3,-4.7013674E-2,-3.964757E-1,2.6511978E-3,8.1675295E-3,-7.954855E-3,2.5264912E-3,1.3881883E-1,-1.4051923E-1,-1.9544458E-1,1.9256684E-1,-2.8334337E-1,-1.2801798E-3,-3.385187E-1,1.1574822E-1,2.3505524E-1,-1.2474747E-1,-8.250076E-2,1.21055745E-1,-4.1397046E-2,-2.7552015E-1],"split_indices":[176,154,116,152,153,163,148,0,0,93,0,164,124,125,149,0,66,176,83,0,0,24,161,125,127,0,0,0,0,0,108,150,96,0,0,143,155,55,149,0,0,0,0,0,0,0,0,0,0,0,0,0,0],"split_type":[0,0,0,0,0,0,0,0,0,0,0,0,0,0,0,0,0,0,0,0,0,0,0,0,0,0,0,0,0,0,0,0,0,0,0,0,0,0,0,0,0,0,0,0,0,0,0,0,0,0,0,0,0],"sum_hessian":[1.4383887E2,1.2880257E1,1.3095862E2,3.1234071E0,9.756849E0,1.5343218E1,1.15615395E2,1.9339616E0,1.1894455E0,8.719836E0,1.0370132E0,7.1643167E0,8.178901E0,1.9064941E1,9.655045E1,1.8271176E0,6.8927183E0,2.816189E0,4.348128E0,6.937634E0,1.2412672E0,1.3126904E1,5.9380383E0,1.1303626E1,8.5246826E1,1.0120682E0,5.8806505E0,1.6945986E0,1.1215905E0,1.8849622E0,2.4631655E0,7.203225E0,5.923678E0,1.4700059E0,4.4680324E0,7.429613E0,3.8740125E0,8.25312E1,2.7156343E0,1.2936107E0,1.1695548E0,1.1518111E0,6.051414E0,3.1879876E0,2.73569E0,6.3802624E0,1.049351E0,2.7698615E0,1.1041512E0,9.935993E0,7.25952E1,1.0093391E0,1.7062951E0],"tree_param":{"num_deleted":"0","num_feature":"180","num_nodes":"53","size_leaf_vector":"1"}},{"base_weights":[-6.220162E-2,-1.9993667E-2,-8.0926317E-1,4.1122705E-2,-6.388867E-1,-5.6415725E-2,-2.6978266E-1,-2.3505944E-1,1.7124915E-1,-9.1117793E-1,1.7866139E-1,-8.656347E-2,-8.8078517E-1,3.03959E-1,-2.8503844E-1,-3.523796E-1,-2.678807E-1,1.7726795E-1,-1.360213E-1,-7.052258E-1,6.3990496E-2,-3.256589E-1,-5.1097725E-2,-5.682403E-1,3.8454133E-1,1.8301591E-1,-7.196218E-1,-1.9869055E-1,8.867749E-2,6.229999E-2,-3.0181372E-1,1.2195691E-1,-5.6384943E-2,-2.789293E-1,1.0350074E-1,1.7520341E-1,-3.101468E-2,-1.494549E-1,2.1300554E-1,-2.949704E-1,6.8706505E-2],"categories":[],"categories_nodes":[],"categories_segments":[],"categories_sizes":[],"default_left":[0,0,0,0,0,0,0,0,0,0,0,0,0,0,0,0,0,0,0,0,0,0,0,0,0,0,0,0,0,0,0,0,0,0,0,0,0,0,0,0,0],"id":12,"left_children":[1,3,5,7,9,-1,-1,11,13,15,17,19,21,23,25,-1,27,-1,-1,29,31,-1,-1,33,35,37,39,-1,-1,-1,-1,-1,-1,-1,-1,-1,-1,-1,-1,-1,-1],"loss_changes":[4.2402167E0,4.89782E0,2.3311949E-1,4.286672E0,2.7530718E0,0E0,0E0,3.592727E0,4.9851055E0,1.1922755E0,1.2432427E0,3.04599E0,8.3990526E-1,4.6570487E0,3.9441402E0,0E0,1.0578476E0,0E0,0E0,1.9634569E0,2.3916948E0,0E0,0E0,2.2174358E0,5.744895E0,3.8794374E0,2.7063322E0,0E0,0E0,0E0,0E0,0E0,0E0,0E0,0E0,0E0,0E0,0E0,0E0,0E0,0E0],"parents":[2147483647,0,0,1,1,2,2,3,3,4,4,7,7,8,8,9,9,10,10,11,11,12,12,13,13,14,14,16,16,19,19,20,20,23,23,24,24,25,25,26,26],"right_children":[2,4,6,8,10,-1,-1,12,14,16,18,20,22,24,26,-1,28,-1,-1,30,32,-1,-1,34,36,38,40,-1,-1,-1,-1,-1,-1,-1,-1,-1,-1,-1,-1,-1,-1],"split_conditions":[1.4501794E-2,8.88976E-3,-5.413594E-3,-3.0518363E-3,1.1515762E-3,-5.6415725E-2,-2.6978266E-1,4.5447825E-3,4.395723E-3,1.5169624E-3,7.580928E-4,-8.6457067E-4,-1.0628333E-4,-9.3610985E-3,-1.7743895E-3,-3.523796E-1,-8.385635E-3,1.7726795E-1,-1.360213E-1,-1.4744686E-3,1.7809051E-3,-3.256589E-1,-5.1097725E-2,-1.5161192E-3,4.7983816E-3,-2.6501963E-4,2.0211686E-3,-1.9869055E-1,8.867749E-2,6.229999E-2,-3.0181372E-1,1.2195691E-1,-5.6384943E-2,-2.789293E-1,1.0350074E-1,1.7520341E-1,-3.101468E-2,-1.494549E-1,2.1300554E-1,-2.949704E-1,6.8706505E-2],"split_indices":[152,163,107,69,152,0,0,19,124,84,107,172,37,47,154,0,152,0,0,108,77,0,0,115,1,42,111,0,0,0,0,0,0,0,0,0,0,0,0,0,0],"split_type":[0,0,0,0,0,0,0,0,0,0,0,0,0,0,0,0,0,0,0,0,0,0,0,0,0,0,0,0,0,0,0,0,0,0,0,0,0,0,0,0,0],"sum_hessian":[1.3398685E2,1.2779346E2,6.1933923E0,1.1715757E2,1.0635886E1,1.1748022E0,5.01859E0,3.7263218E1,7.9894356E1,7.8926477E0,2.7432384E0,3.1218119E1,6.0450993E0,6.2151596E1,1.7742758E1,5.0137067E0,2.878941E0,1.6997833E0,1.043455E0,5.389043E0,2.5829077E1,4.2829013E0,1.762198E0,4.7446985E0,5.74069E1,8.821119E0,8.921639E0,1.5903379E0,1.2886033E0,1.4124305E0,3.9766123E0,1.0686447E1,1.5142629E1,3.386141E0,1.3585577E0,4.0608597E1,1.6798302E1,3.8715165E0,4.9496026E0,6.9530373E0,1.968602E0],"tree_param":{"num_deleted":"0","num_feature":"180","num_nodes":"41","size_leaf_vector":"1"}},{"base_weights":[-5.932466E-2,-3.5962504E-1,4.210343E-2,-3.3283876E-3,-7.3289555E-1,2.3476374E-1,-3.0622154E-1,-5.794255E-1,2.7103674E-1,-2.2347067E-1,-9.847751E-1,-3.2068563E-1,3.283803E-1,-8.192207E-1,4.912154E-2,-8.5220224E-1,1.0065148E-1,6.3484293E-1,-4.291533E-1,-6.730495E-1,3.5839078E-1,-1.170515E0,-4.092335E-2,2.996311E-1,-9.750936E-1,4.5762363E-1,-2.7300572E-1,-3.7964752E-1,-3.35409E-1,-4.6604848E-1,3.080012E-1,-3.278947E-2,-3.0675733E-1,2.8229532E-1,-7.701855E-2,1.01611435E-1,-8.0046797E-1,-2.474705E-1,-5.8912024E-2,-8.645764E-2,2.2382742E-1,-1.2936095E0,-4.5037195E-2,5.8547384E-1,-1.4028436E-1,-4.1761454E-2,-3.5263297E-1,5.46137E-1,-6.530718E-1,-9.6901023E-1,3.501698E-1,-6.551648E-1,1.6143909E-1,1.2005287E-1,-7.874513E-1,5.399054E-1,-5.030228E-1,-6.2381975E-2,-3.0728653E-1,-4.2116657E-1,-1.1983687E-1,2.4682693E-1,-3.18461E-2,-1.10180065E-1,2.010647E-1,-3.0500466E-1,4.3022934E-2,-3.578352E-1,-1.767724E-2,-1.7203444E-1,2.083283E-1,-2.5621063E-1,-3.9199267E-2,-1.0724787E-1,1.5989646E-1,-3.2685757E-1,2.559809E-2,2.4020168E-1,-1.9102497E-2,-2.420371E-1,5.210725E-2],"categories":[],"categories_nodes":[],"categories_segments":[],"categories_sizes":[],"default_left":[0,0,0,0,0,0,0,0,0,0,0,0,0,0,0,0,0,0,0,0,0,0,0,0,0,0,0,0,0,0,0,0,0,0,0,0,0,0,0,0,0,0,0,0,0,0,0,0,0,0,0,0,0,0,0,0,0,0,0,0,0,0,0,0,0,0,0,0,0,0,0,0,0,0,0,0,0,0,0,0,0],"id":13,"left_children":[1,3,5,7,9,11,13,15,17,19,21,23,25,27,29,31,-1,33,35,37,39,41,-1,43,45,47,49,-1,51,53,55,-1,-1,-1,-1,-1,57,-1,-1,-1,-1,59,-1,61,-1,-1,-1,63,65,67,69,71,73,-1,75,77,79,-1,-1,-1,-1,-1,-1,-1,-1,-1,-1,-1,-1,-1,-1,-1,-1,-1,-1,-1,-1,-1,-1,-1,-1],"loss_changes":[3.8678935E0,4.2588487E0,6.477337E0,2.9069533E0,1.7871675E0,3.330461E0,6.315811E0,1.766212E0,3.448062E0,1.93349E0,1.4435062E0,4.1289887E0,4.2887793E0,2.629487E0,2.9818227E0,5.02125E-1,0E0,2.5908852E0,1.6565721E0,1.2732136E-1,1.0854466E0,8.376074E-1,0E0,1.505688E0,6.4600754E-1,4.728441E0,4.7212176E0,0E0,1.4001455E0,2.4075003E0,3.0488057E0,0E0,0E0,0E0,0E0,0E0,2.6081944E-1,0E0,0E0,0E0,0E0,1.4908981E-1,0E0,8.318342E-1,0E0,0E0,0E0,4.975689E0,1.2282548E0,9.5571136E-1,2.3266017E0,4.2609692E-1,9.6033984E-1,0E0,1.6270013E0,1.9342146E0,9.214938E-1,0E0,0E0,0E0,0E0,0E0,0E0,0E0,0E0,0E0,0E0,0E0,0E0,0E0,0E0,0E0,0E0,0E0,0E0,0E0,0E0,0E0,0E0,0E0,0E0],"parents":[2147483647,0,0,1,1,2,2,3,3,4,4,5,5,6,6,7,7,8,8,9,9,10,10,11,11,12,12,13,13,14,14,15,15,17,17,18,18,19,19,20,20,21,21,23,23,24,24,25,25,26,26,28,28,29,29,30,30,36,36,41,41,43,43,47,47,48,48,49,49,50,50,51,51,52,52,54,54,55,55,56,56],"right_children":[2,4,6,8,10,12,14,16,18,20,22,24,26,28,30,32,-1,34,36,38,40,42,-1,44,46,48,50,-1,52,54,56,-1,-1,-1,-1,-1,58,-1,-1,-1,-1,60,-1,62,-1,-1,-1,64,66,68,70,72,74,-1,76,78,80,-1,-1,-1,-1,-1,-1,-1,-1,-1,-1,-1,-1,-1,-1,-1,-1,-1,-1,-1,-1,-1,-1,-1,-1],"split_conditions":[-2.3751701E-3,1.2349022E-4,2.2605255E-3,-5.9072934E-3,-8.775758E-4,-5.321166E-3,-1.4354488E-3,2.5461025E-3,1.4804752E-3,-2.0727427E-3,3.408292E-3,-6.175909E-4,4.8844703E-3,-1.216101E-3,-4.747655E-3,-1.2998509E-3,1.0065148E-1,1.1389408E-2,-2.8248508E-3,-1.612659E-3,-2.1093162E-3,4.8907683E-3,-4.092335E-2,4.559926E-3,-6.072667E-4,8.88976E-3,4.8807956E-4,-3.7964752E-1,-1.2922924E-3,-3.46473E-3,4.0704655E-3,-3.278947E-2,-3.0675733E-1,2.8229532E-1,-7.701855E-2,1.01611435E-1,9.837653E-4,-2.474705E-1,-5.8912024E-2,-8.645764E-2,2.2382742E-1,-2.6574938E-4,-4.5037195E-2,2.428322E-3,-1.4028436E-1,-4.1761454E-2,-3.5263297E-1,-7.533511E-3,9.6159205E-3,-1.4502931E-3,-4.7933725E-3,-2.0788538E-3,4.6042042E-4,1.2005287E-1,4.859472E-3,2.1283608E-3,-1.7205253E-3,-6.2381975E-2,-3.0728653E-1,-4.2116657E-1,-1.1983687E-1,2.4682693E-1,-3.18461E-2,-1.10180065E-1,2.010647E-1,-3.0500466E-1,4.3022934E-2,-3.578352E-1,-1.767724E-2,-1.7203444E-1,2.083283E-1,-2.5621063E-1,-3.9199267E-2,-1.0724787E-1,1.5989646E-1,-3.2685757E-1,2.559809E-2,2.4020168E-1,-1.9102497E-2,-2.420371E-1,5.210725E-2],"split_indices":[82,3,82,25,167,151,126,111,151,160,66,114,151,3,122,153,0,152,85,61,151,74,0,40,10,163,114,0,112,1,31,0,0,0,0,0,145,0,0,0,0,146,0,103,0,0,0,163,32,7,40,130,109,0,127,146,174,0,0,0,0,0,0,0,0,0,0,0,0,0,0,0,0,0,0,0,0,0,0,0,0],"split_type":[0,0,0,0,0,0,0,0,0,0,0,0,0,0,0,0,0,0,0,0,0,0,0,0,0,0,0,0,0,0,0,0,0,0,0,0,0,0,0,0,0,0,0,0,0,0,0,0,0,0,0,0,0,0,0,0,0,0,0,0,0,0,0,0,0,0,0,0,0,0,0,0,0,0,0,0,0,0,0,0,0],"sum_hessian":[1.2549021E2,3.1040955E1,9.444926E1,1.6397766E1,1.46431875E1,6.1023098E1,3.3426163E1,4.931336E0,1.1466431E1,5.4691253E0,9.174063E0,8.451688E0,5.257141E1,1.3144446E1,2.0281715E1,3.851587E0,1.0797489E0,7.6071954E0,3.8592348E0,2.996863E0,2.4722626E0,7.2147427E0,1.9593198E0,4.6171765E0,3.834511E0,4.346865E1,9.102758E0,5.997055E0,7.1473913E0,6.515544E0,1.3766172E1,1.0245333E0,2.8270535E0,5.621502E0,1.9856936E0,1.286548E0,2.572687E0,1.7187891E0,1.2780738E0,1.0229363E0,1.4493262E0,6.199151E0,1.0155916E0,3.5365314E0,1.0806451E0,1.0690562E0,2.7654548E0,4.0731014E1,2.7376363E0,4.0379486E0,5.0648093E0,4.154831E0,2.9925606E0,1.6969472E0,4.818597E0,1.0965102E1,2.8010705E0,1.2342528E0,1.338434E0,5.0110464E0,1.1881046E0,2.4919887E0,1.0445427E0,4.6368623E0,3.6094154E1,1.6897597E0,1.0478767E0,2.991713E0,1.0462356E0,1.1944469E0,3.8703625E0,2.5570226E0,1.5978082E0,1.264417E0,1.7281436E0,3.3951674E0,1.4234296E0,7.4289927E0,3.536109E0,1.8005915E0,1.000479E0],"tree_param":{"num_deleted":"0","num_feature":"180","num_nodes":"81","size_leaf_vector":"1"}},{"base_weights":[-6.9113694E-2,-7.3536754E-1,-2.5004487E-2,-2.595923E-1,-1.2120731E-2,3.0991158E-2,-6.472005E-1,6.7364596E-2,-2.6561764E-1,-7.8505284E-1,6.862206E-2,-1.8885677E-1,1.9506899E-1,-2.7620003E-1,6.025437E-3,3.540697E-1,-5.2607936E-1,4.9754587E-1,-1.2787904E-1,1.7863055E-1,-1.1378661E-1,5.9659623E-2,-2.3134701E-1,-1.1434776E-1,1.744452E-1,4.734097E-2,-2.0526585E-1],"categories":[],"categories_nodes":[],"categories_segments":[],"categories_sizes":[],"default_left":[0,0,0,0,0,0,0,0,0,0,0,0,0,0,0,0,0,0,0,0,0,0,0,0,0,0,0],"id":14,"left_children":[1,3,5,-1,-1,7,9,11,-1,13,-1,15,17,-1,-1,19,21,23,25,-1,-1,-1,-1,-1,-1,-1,-1],"loss_changes":[3.359674E0,6.064062E-1,3.8122435E0,0E0,0E0,3.4199219E0,1.2702641E0,3.2399542E0,0E0,8.952699E-1,0E0,6.2409577E0,6.493491E0,0E0,0E0,2.574418E0,3.849153E0,2.743616E0,5.294032E0,0E0,0E0,0E0,0E0,0E0,0E0,0E0,0E0],"parents":[2147483647,0,0,1,1,2,2,5,5,6,6,7,7,9,9,11,11,12,12,15,15,16,16,17,17,18,18],"right_children":[2,4,6,-1,-1,8,10,12,-1,14,-1,16,18,-1,-1,20,22,24,26,-1,-1,-1,-1,-1,-1,-1,-1],"split_conditions":[-1.2939067E-2,2.113522E-3,1.1463224E-2,-2.595923E-1,-1.2120731E-2,8.847573E-3,2.8241484E-3,-1.6981151E-3,-2.6561764E-1,1.8579705E-4,6.862206E-2,8.0951845E-4,1.6710117E-3,-2.7620003E-1,6.025437E-3,-5.685619E-4,-2.0626208E-3,-9.154689E-3,5.150219E-4,1.7863055E-1,-1.1378661E-1,5.9659623E-2,-2.3134701E-1,-1.1434776E-1,1.744452E-1,4.734097E-2,-2.0526585E-1],"split_indices":[152,139,116,0,0,37,128,83,0,164,0,23,83,0,0,105,84,9,103,0,0,0,0,0,0,0,0],"split_type":[0,0,0,0,0,0,0,0,0,0,0,0,0,0,0,0,0,0,0,0,0,0,0,0,0,0,0],"sum_hessian":[1.1394725E2,6.1023216E0,1.07844925E2,4.934577E0,1.1677448E0,9.9812325E1,8.0325985E0,9.689291E1,2.9194217E0,7.0300026E0,1.0025957E0,3.2069996E1,6.482291E1,5.893789E0,1.136214E0,1.2268241E1,1.9801756E1,3.3193165E1,3.1629744E1,9.371824E0,2.8964167E0,5.0505786E0,1.4751177E1,2.5855362E0,3.060763E1,2.1371683E1,1.02580595E1],"tree_param":{"num_deleted":"0","num_feature":"180","num_nodes":"27","size_leaf_vector":"1"}},{"base_weights":[-6.076952E-2,4.806955E-2,-3.130123E-1,-2.0574994E-1,3.2574064E-1,-8.387755E-1,-1.6855688E-1,-8.439827E-2,-7.194479E-1,-5.616517E-1,4.0205577E-1,-3.164446E-1,5.029559E-2,-9.724808E-3,-7.7853495E-1,1.9756769E-1,-4.2374164E-1,7.385143E-2,-3.0009103E-1,1.4488188E-2,-2.7250466E-1,5.1176196E-1,-3.9391676E-1,-2.3462163E-1,4.4209945E-1,-1.4438714E-2,-2.792104E-1,-2.880084E-1,5.1890457E-1,3.294323E-1,-6.29148E-1,6.012371E-1,-3.4267247E-1,-2.8771538E-1,2.3515399E-1,1.5232229E-1,-5.361528E-1,7.103374E-1,-1.8549715E-1,7.274533E-2,-2.728433E-1,2.1784484E-1,-8.866287E-2,1.9918019E-1,-9.7177796E-2,-2.8552446E-1,-6.064475E-2,2.0773397E-1,-4.358907E-2,1.1839069E-1,-2.4691285E-1,-6.659851E-2,1.7357866E-1,-9.709948E-2,2.070929E-1,-2.2128795E-1,8.15717E-2,2.4544488E-1,2.2339385E-2],"categories":[],"categories_nodes":[],"categories_segments":[],"categories_sizes":[],"default_left":[0,0,0,0,0,0,0,0,0,0,0,0,0,0,0,0,0,0,0,0,0,0,0,0,0,0,0,0,0,0,0,0,0,0,0,0,0,0,0,0,0,0,0,0,0,0,0,0,0,0,0,0,0,0,0,0,0,0,0],"id":15,"left_children":[1,3,5,7,9,11,13,15,17,19,21,-1,-1,23,25,27,29,-1,-1,-1,-1,31,33,35,37,-1,-1,39,41,43,45,47,49,-1,51,53,55,57,-1,-1,-1,-1,-1,-1,-1,-1,-1,-1,-1,-1,-1,-1,-1,-1,-1,-1,-1,-1,-1],"loss_changes":[2.9864147E0,5.4568214E0,2.3464718E0,2.4680953E0,2.7253091E0,1.6572504E0,2.6032627E0,3.3319008E0,2.3124835E0,7.5015354E-1,3.22022E0,0E0,0E0,2.3792002E0,5.7256985E-1,3.1489024E0,2.639887E0,0E0,0E0,0E0,0E0,2.5619383E0,1.9150449E0,1.902344E0,2.654697E0,0E0,0E0,2.9563594E0,2.227402E0,1.0948849E0,1.5568061E0,2.024724E0,1.5850084E0,0E0,6.0763144E-1,2.1729524E0,1.6644044E0,3.9713907E-1,0E0,0E0,0E0,0E0,0E0,0E0,0E0,0E0,0E0,0E0,0E0,0E0,0E0,0E0,0E0,0E0,0E0,0E0,0E0,0E0,0E0],"parents":[2147483647,0,0,1,1,2,2,3,3,4,4,5,5,6,6,7,7,8,8,9,9,10,10,13,13,14,14,15,15,16,16,21,21,22,22,23,23,24,24,27,27,28,28,29,29,30,30,31,31,32,32,34,34,35,35,36,36,37,37],"right_children":[2,4,6,8,10,12,14,16,18,20,22,-1,-1,24,26,28,30,-1,-1,-1,-1,32,34,36,38,-1,-1,40,42,44,46,48,50,-1,52,54,56,58,-1,-1,-1,-1,-1,-1,-1,-1,-1,-1,-1,-1,-1,-1,-1,-1,-1,-1,-1,-1,-1],"split_conditions":[1.9848908E-3,-1.5225961E-3,-2.6276521E-3,2.6276521E-3,-5.02523E-3,8.750877E-3,5.541506E-3,1.1306626E-3,-8.549898E-3,-1.6999572E-3,4.8922678E-3,-3.164446E-1,5.029559E-2,-2.3189494E-3,2.8000125E-3,-3.084911E-3,-2.720841E-3,7.385143E-2,-3.0009103E-1,1.4488188E-2,-2.7250466E-1,9.009987E-3,-2.740202E-4,6.902458E-4,2.1441898E-3,-1.4438714E-2,-2.792104E-1,-2.1989827E-4,2.99023E-3,-2.6081414E-3,-5.8714504E-4,7.2859772E-3,-1.0173506E-3,-2.8771538E-1,-5.8210306E-3,-1.9806712E-3,9.623708E-4,2.3313959E-3,-1.8549715E-1,7.274533E-2,-2.728433E-1,2.1784484E-1,-8.866287E-2,1.9918019E-1,-9.7177796E-2,-2.8552446E-1,-6.064475E-2,2.0773397E-1,-4.358907E-2,1.1839069E-1,-2.4691285E-1,-6.659851E-2,1.7357866E-1,-9.709948E-2,2.070929E-1,-2.2128795E-1,8.15717E-2,2.4544488E-1,2.2339385E-2],"split_indices":[37,37,90,90,176,158,83,21,158,22,128,0,0,7,40,116,71,0,0,0,0,149,85,82,97,0,0,51,132,132,30,106,98,0,116,28,133,115,0,0,0,0,0,0,0,0,0,0,0,0,0,0,0,0,0,0,0,0,0],"split_type":[0,0,0,0,0,0,0,0,0,0,0,0,0,0,0,0,0,0,0,0,0,0,0,0,0,0,0,0,0,0,0,0,0,0,0,0,0,0,0,0,0,0,0,0,0,0,0,0,0,0,0,0,0,0,0,0,0,0,0],"sum_hessian":[1.072313E2,7.547456E1,3.1756737E1,3.9566128E1,3.5908432E1,5.8087206E0,2.5948015E1,3.2947243E1,6.6188836E0,2.3399436E0,3.356849E1,4.742596E0,1.0661244E0,2.1393349E1,4.554667E0,1.8223135E1,1.4724108E1,1.5191914E0,5.0996923E0,1.1599469E0,1.1799967E0,2.98161E1,3.7523904E0,1.4604594E1,6.788755E0,1.0122253E0,3.5424416E0,7.2983017E0,1.0924834E1,3.0257237E0,1.1698383E1,2.7258013E1,2.5580869E0,1.7003264E0,2.052064E0,6.613092E0,7.9915023E0,5.681689E0,1.1070662E0,4.2663336E0,3.031968E0,8.795213E0,2.1296213E0,1.9904705E0,1.0352532E0,5.963784E0,5.7345996E0,2.4354856E1,2.903155E0,1.0795658E0,1.4785212E0,1.0320013E0,1.0200628E0,3.7200954E0,2.8929963E0,6.466394E0,1.5251083E0,4.6129136E0,1.0687752E0],"tree_param":{"num_deleted":"0","num_feature":"180","num_nodes":"59","size_leaf_vector":"1"}},{"base_weights":[-6.022032E-2,-1.671089E-2,-5.948977E-1,3.500404E-2,-5.381065E-1,-3.6523797E-2,-8.0716234E-1,-2.725853E-1,1.2687269E-1,6.03733E-2,-7.1898484E-1,-9.835574E-2,8.538195E-2,-1.37802465E-2,-2.964252E-1,1.9520849E-1,-6.1242056E-1,2.3568955E-1,-2.5307763E-1,-2.5113854E-1,-7.3042493E-3,5.73062E-1,-6.4207244E-1,-3.2517884E-2,-9.9250627E-1,5.862659E-1,5.025134E-2,-4.5292425E-1,4.4059604E-1,-5.779161E-2,2.3135637E-1,-5.5102088E-2,-2.3347893E-1,8.605297E-2,-1.691734E-1,-3.4543145E-1,-1.10194765E-1,-6.0668223E-2,2.1263067E-1,-1.8334848E-1,7.953615E-2,-2.1975854E-1,3.6183063E-2,2.0353101E-1,-3.2338835E-2],"categories":[],"categories_nodes":[],"categories_segments":[],"categories_sizes":[],"default_left":[0,0,0,0,0,0,0,0,0,0,0,0,0,0,0,0,0,0,0,0,0,0,0,0,0,0,0,0,0,0,0,0,0,0,0,0,0,0,0,0,0,0,0,0,0],"id":16,"left_children":[1,3,5,7,9,11,13,15,17,-1,19,-1,-1,-1,-1,21,23,25,27,-1,-1,29,31,33,35,37,39,41,43,-1,-1,-1,-1,-1,-1,-1,-1,-1,-1,-1,-1,-1,-1,-1,-1],"loss_changes":[2.2993696E0,2.5218015E0,8.524642E-1,2.4474928E0,1.2730355E0,3.8304514E-1,6.9062424E-1,3.2919593E0,2.8063378E0,0E0,5.538881E-1,0E0,0E0,0E0,0E0,3.2643957E0,2.5686846E0,3.3615246E0,2.3167775E0,0E0,0E0,1.1857347E0,6.422567E-2,1.1300948E0,2.819805E-1,1.8773336E0,5.1658535E0,2.0688019E0,5.8478475E-1,0E0,0E0,0E0,0E0,0E0,0E0,0E0,0E0,0E0,0E0,0E0,0E0,0E0,0E0,0E0,0E0],"parents":[2147483647,0,0,1,1,2,2,3,3,4,4,5,5,6,6,7,7,8,8,10,10,15,15,16,16,17,17,18,18,21,21,22,22,23,23,24,24,25,25,26,26,27,27,28,28],"right_children":[2,4,6,8,10,12,14,16,18,-1,20,-1,-1,-1,-1,22,24,26,28,-1,-1,30,32,34,36,38,40,42,44,-1,-1,-1,-1,-1,-1,-1,-1,-1,-1,-1,-1,-1,-1,-1,-1],"split_conditions":[7.6973555E-3,1.1184905E-2,-3.7436287E-3,-6.1007394E-3,-7.5669414E-3,-1.3643631E-3,-1.4342448E-3,-4.183901E-4,2.8462305E-3,6.03733E-2,-1.3000684E-4,-9.835574E-2,8.538195E-2,-1.37802465E-2,-2.964252E-1,1.8589962E-3,-1.5968533E-3,-6.6195085E-4,1.9739293E-3,-2.5113854E-1,-7.3042493E-3,-7.954855E-3,-1.4441159E-3,1.2791486E-3,2.8963862E-3,-3.963989E-3,-2.5504057E-3,6.4864806E-3,-3.25836E-3,-5.779161E-2,2.3135637E-1,-5.5102088E-2,-2.3347893E-1,8.605297E-2,-1.691734E-1,-3.4543145E-1,-1.10194765E-1,-6.0668223E-2,2.1263067E-1,-1.8334848E-1,7.953615E-2,-2.1975854E-1,3.6183063E-2,2.0353101E-1,-3.2338835E-2],"split_indices":[151,152,55,116,162,108,111,51,165,0,79,0,0,0,0,21,111,78,31,0,0,55,82,125,88,152,91,5,122,0,0,0,0,0,0,0,0,0,0,0,0,0,0,0,0],"split_type":[0,0,0,0,0,0,0,0,0,0,0,0,0,0,0,0,0,0,0,0,0,0,0,0,0,0,0,0,0,0,0,0,0,0,0,0,0,0,0,0,0,0,0,0,0],"sum_hessian":[9.826753E1,9.182641E1,6.4411297E0,8.438909E1,7.437317E0,2.096979E0,4.344151E0,1.8955673E1,6.543342E1,1.4397326E0,5.9975843E0,1.088532E0,1.0084468E0,1.0749952E0,3.2691557E0,8.15527E0,1.0800404E1,5.1160774E1,1.427264E1,4.9504795E0,1.047105E0,5.8367786E0,2.318491E0,4.705976E0,6.094427E0,1.6951656E1,3.4209118E1,1.1349831E1,2.9228094E0,1.2055112E0,4.631267E0,1.0690085E0,1.2494825E0,3.2268708E0,1.4791054E0,4.188032E0,1.9063946E0,2.1920002E0,1.4759656E1,7.9360194E0,2.62731E1,7.44372E0,3.9061112E0,1.873238E0,1.0495715E0],"tree_param":{"num_deleted":"0","num_feature":"180","num_nodes":"45","size_leaf_vector":"1"}},{"base_weights":[-5.801321E-2,-2.152206E-1,-2.5305755E-2,-3.982405E-1,3.774247E-2,-8.1687707E-1,9.542096E-2,-2.1498705E-1,1.5512945E-1,-9.395447E-1,-1.1428104E-2,3.6045033E-1,-1.4325334E-1,-7.9992515E-1,6.0979463E-2,2.5999475E-1,-4.796319E-1,-3.1716368E-1,-5.64787E-2,6.288954E-1,-1.1675639E-1,-1.0565966E0,-1.3378422E-1,2.7747455E-1,-3.5941985E-1,3.3074313E-1,-3.7585914E-1,3.601282E-2,-2.8039286E-1,2.657462E-2,2.3067261E-1,-6.9255844E-2,-3.5769415E-1,1.2431715E-1,-1.6854604E-1,2.1799755E-1,-8.335933E-2,-2.5552216E-1,6.998235E-2,-2.9607775E-2,1.3878648E-1,1.2054825E-1,-2.4023283E-1,-1.5005144E-1,1.4896359E-1],"categories":[],"categories_nodes":[],"categories_segments":[],"categories_sizes":[],"default_left":[0,0,0,0,0,0,0,0,0,0,0,0,0,0,0,0,0,0,0,0,0,0,0,0,0,0,0,0,0,0,0,0,0,0,0,0,0,0,0,0,0,0,0,0,0],"id":17,"left_children":[1,-1,3,5,7,9,11,13,15,17,-1,19,-1,21,23,25,27,-1,-1,29,-1,31,33,35,37,39,41,43,-1,-1,-1,-1,-1,-1,-1,-1,-1,-1,-1,-1,-1,-1,-1,-1,-1],"loss_changes":[1.9868155E0,0E0,2.1219769E0,2.7738802E0,2.3344312E0,6.485462E-1,1.2170315E0,4.087472E0,3.6888256E0,3.4431934E-1,0E0,1.3062565E0,0E0,1.2420144E0,1.7314728E0,2.2206852E0,1.8972912E0,0E0,0E0,2.546376E-1,0E0,3.630309E-1,1.0294971E0,3.2947E0,2.1040993E0,2.4506993E0,2.0183094E0,1.4055568E0,0E0,0E0,0E0,0E0,0E0,0E0,0E0,0E0,0E0,0E0,0E0,0E0,0E0,0E0,0E0,0E0,0E0],"parents":[2147483647,0,0,2,2,3,3,4,4,5,5,6,6,7,7,8,8,9,9,11,11,13,13,14,14,15,15,16,16,19,19,21,21,22,22,23,23,24,24,25,25,26,26,27,27],"right_children":[2,-1,4,6,8,10,12,14,16,18,-1,20,-1,22,24,26,28,-1,-1,30,-1,32,34,36,38,40,42,44,-1,-1,-1,-1,-1,-1,-1,-1,-1,-1,-1,-1,-1,-1,-1,-1,-1],"split_conditions":[-1.4501794E-2,-2.152206E-1,-4.140818E-3,3.0569192E-3,-1.8363125E-3,3.143487E-3,1.1184905E-2,-3.3312438E-3,3.8856904E-3,3.7095677E-3,-1.1428104E-2,3.4567332E-3,-1.4325334E-1,2.9370368E-3,2.271133E-3,9.463521E-3,9.0952E-5,-3.1716368E-1,-5.64787E-2,-2.5093001E-3,-1.1675639E-1,-2.591465E-3,2.8862436E-3,1.8934153E-4,4.8441286E-4,-5.5578826E-3,-1.9121197E-3,-9.635154E-3,-2.8039286E-1,2.657462E-2,2.3067261E-1,-6.9255844E-2,-3.5769415E-1,1.2431715E-1,-1.6854604E-1,2.1799755E-1,-8.335933E-2,-2.5552216E-1,6.998235E-2,-2.9607775E-2,1.3878648E-1,1.2054825E-1,-2.4023283E-1,-1.5005144E-1,1.4896359E-1],"split_indices":[152,0,22,58,140,92,152,7,26,177,0,39,0,73,3,9,33,0,0,84,0,3,41,117,26,149,116,40,0,0,0,0,0,0,0,0,0,0,0,0,0,0,0,0,0],"split_type":[0,0,0,0,0,0,0,0,0,0,0,0,0,0,0,0,0,0,0,0,0,0,0,0,0,0,0,0,0,0,0,0,0,0,0,0,0,0,0,0,0,0,0,0,0],"sum_hessian":[9.196503E1,3.3568265E0,8.86082E1,1.204496E1,7.656324E1,6.163465E0,5.8814945E0,2.4019266E1,5.2543972E1,5.1464167E0,1.0170479E0,4.2748733E0,1.6066216E0,7.0908604E0,1.6928406E1,4.560091E1,6.94306E0,4.097454E0,1.0489627E0,3.266286E0,1.0085872E0,4.6954904E0,2.3953702E0,1.1398459E1,5.529947E0,4.1466927E1,4.133982E0,3.6863394E0,3.2567205E0,1.0082197E0,2.2580662E0,1.0440661E0,3.6514242E0,1.0642681E0,1.331102E0,6.13096E0,5.2674994E0,2.7820096E0,2.747937E0,9.801603E0,3.1665325E1,1.4798629E0,2.6541193E0,1.6635015E0,2.0228379E0],"tree_param":{"num_deleted":"0","num_feature":"180","num_nodes":"45","size_leaf_vector":"1"}},{"base_weights":[-6.090798E-2,-3.1766385E-2,-2.1520333E-1,-2.661607E-1,5.797225E-2,6.039509E-2,-7.7201277E-1,-4.6991664E-1,1.398737E-1,2.5965804E-1,-4.1895765E-1,-9.5639443E-1,-1.950778E-2,7.002683E-2,-7.6859933E-1,-4.7062686E-1,1.9900493E-1,-1.1221096E-1,4.1670746E-1,-2.2780399E-1,5.6304812E-2,-8.661843E-2,-3.1148458E-1,1.5299016E-1,-1.15983136E-1,-2.8096107E-1,-2.920657E-2,3.895709E-2,-2.133237E-1,3.6992878E-1,-7.353684E-2,2.0746769E-1,-1.0048862E-1,-1.10894695E-1,1.4866117E-1,-1.8402082E-1,6.1545037E-2],"categories":[],"categories_nodes":[],"categories_segments":[],"categories_sizes":[],"default_left":[0,0,0,0,0,0,0,0,0,0,0,0,0,0,0,0,0,0,0,0,0,0,0,0,0,0,0,0,0,0,0,0,0,0,0,0,0],"id":18,"left_children":[1,3,-1,5,7,9,11,13,15,17,19,21,-1,23,25,27,29,-1,31,-1,-1,-1,-1,-1,-1,-1,-1,-1,-1,33,35,-1,-1,-1,-1,-1,-1],"loss_changes":[1.6379504E0,1.7859056E0,0E0,3.925638E0,2.7328408E0,1.5604149E0,1.1481223E0,1.4270304E0,2.049321E0,1.2856753E0,1.1430012E0,9.885502E-2,0E0,9.905119E-1,5.3623295E-1,8.2596827E-1,2.3607335E0,0E0,2.2089417E0,0E0,0E0,0E0,0E0,0E0,0E0,0E0,0E0,0E0,0E0,3.0584955E0,3.1561887E0,0E0,0E0,0E0,0E0,0E0,0E0],"parents":[2147483647,0,0,1,1,3,3,4,4,5,5,6,6,7,7,8,8,9,9,10,10,11,11,13,13,14,14,15,15,16,16,18,18,29,29,30,30],"right_children":[2,4,-1,6,8,10,12,14,16,18,20,22,-1,24,26,28,30,-1,32,-1,-1,-1,-1,-1,-1,-1,-1,-1,-1,34,36,-1,-1,-1,-1,-1,-1],"split_conditions":[7.341217E-3,-2.2605255E-3,-2.1520333E-1,1.3391689E-3,-5.8994996E-3,2.4070255E-3,9.61901E-3,6.086622E-4,-6.356811E-3,-6.812265E-3,1.0465017E-3,-7.321179E-4,-1.950778E-2,-1.2299761E-3,1.0804567E-2,-2.1345858E-3,1.6981151E-3,-1.1221096E-1,7.343216E-3,-2.2780399E-1,5.6304812E-2,-8.661843E-2,-3.1148458E-1,1.5299016E-1,-1.15983136E-1,-2.8096107E-1,-2.920657E-2,3.895709E-2,-2.133237E-1,-3.3065074E-3,-1.4181139E-3,2.0746769E-1,-1.0048862E-1,-1.10894695E-1,1.4866117E-1,-1.8402082E-1,6.1545037E-2],"split_indices":[140,82,0,126,126,148,74,95,44,25,149,130,0,31,35,94,83,0,149,0,0,0,0,0,0,0,0,0,0,60,176,0,0,0,0,0,0],"split_type":[0,0,0,0,0,0,0,0,0,0,0,0,0,0,0,0,0,0,0,0,0,0,0,0,0,0,0,0,0,0,0,0,0,0,0,0,0],"sum_hessian":[8.581506E1,8.317119E1,2.6438785E0,2.2482277E1,6.068891E1,1.4197563E1,8.284714E0,7.5148687E0,5.317404E1,1.0352451E1,3.845112E0,6.291198E0,1.9935154E0,2.9491293E0,4.5657396E0,4.0809755E0,4.9093067E1,1.7816885E0,8.570763E0,2.3018231E0,1.5432891E0,1.1817513E0,5.1094465E0,1.4425436E0,1.5065857E0,3.3359084E0,1.2298311E0,1.2984036E0,2.7825718E0,2.9951643E1,1.9141422E1,6.334494E0,2.2362683E0,4.066337E0,2.5885307E1,6.1080346E0,1.3033388E1],"tree_param":{"num_deleted":"0","num_feature":"180","num_nodes":"37","size_leaf_vector":"1"}},{"base_weights":[-6.265212E-2,-5.417607E-1,-2.0653822E-2,1.0229106E-2,-2.177049E-1,6.3964404E-2,-2.8397775E-1,1.4746769E-1,-3.0743486E-1,-5.645185E-1,1.02549545E-1,2.4436246E-1,-3.270385E-1,1.5880027E-1,-5.883227E-1,-8.659924E-1,-7.258938E-2,-3.748128E-1,5.368022E-1,-4.5730782E-1,3.1280187E-1,9.85654E-2,-5.6374365E-1,4.8700178E-1,-1.632463E-1,-3.1878698E-1,1.1658772E-2,-2.844059E-1,-5.9937652E-2,-1.5549845E-1,1.9716287E-1,-6.223813E-1,4.738274E-2,2.0096911E-1,1.3890627E-2,4.552314E-2,-2.4052854E-1,1.2634715E-1,-6.967965E-2,-2.4067773E-1,9.444275E-2,-3.7127648E-2,2.225035E-1,-1.637923E-1,1.5871154E-1,-6.045477E-2,1.3861048E-1,-2.2419237E-1,-4.886633E-2],"categories":[],"categories_nodes":[],"categories_segments":[],"categories_sizes":[],"default_left":[0,0,0,0,0,0,0,0,0,0,0,0,0,0,0,0,0,0,0,0,0,0,0,0,0,0,0,0,0,0,0,0,0,0,0,0,0,0,0,0,0,0,0,0,0,0,0,0,0],"id":19,"left_children":[1,3,5,-1,-1,7,9,11,13,15,17,19,21,23,25,27,29,31,33,35,37,-1,39,41,-1,-1,43,-1,-1,-1,45,47,-1,-1,-1,-1,-1,-1,-1,-1,-1,-1,-1,-1,-1,-1,-1,-1,-1],"loss_changes":[1.6315193E0,7.174119E-1,1.7137917E0,0E0,0E0,1.8567413E0,2.0846488E0,2.303469E0,1.5399665E0,1.5660949E0,2.0060828E0,2.0991466E0,1.52422E0,1.4047567E0,2.0344138E0,1.7775154E-1,7.35267E-1,7.229973E-1,2.9346657E-1,9.663097E-1,2.3248513E0,0E0,1.6581781E0,6.977213E-1,0E0,0E0,1.4793011E0,0E0,0E0,0E0,5.159794E-1,7.551491E-2,0E0,0E0,0E0,0E0,0E0,0E0,0E0,0E0,0E0,0E0,0E0,0E0,0E0,0E0,0E0,0E0,0E0],"parents":[2147483647,0,0,1,1,2,2,5,5,6,6,7,7,8,8,9,9,10,10,11,11,12,12,13,13,14,14,15,15,16,16,17,17,18,18,19,19,20,20,22,22,23,23,26,26,30,30,31,31],"right_children":[2,4,6,-1,-1,8,10,12,14,16,18,20,22,24,26,28,30,32,34,36,38,-1,40,42,-1,-1,44,-1,-1,-1,46,48,-1,-1,-1,-1,-1,-1,-1,-1,-1,-1,-1,-1,-1,-1,-1,-1,-1],"split_conditions":[-1.1184905E-2,-2.0584508E-3,6.1007394E-3,1.0229106E-2,-2.177049E-1,4.0914877E-3,4.183901E-4,3.6482585E-3,6.360982E-4,1.5968533E-3,-2.0871414E-3,-8.160115E-3,-1.4127683E-3,4.5461985E-3,3.1679802E-4,1.565949E-3,-3.6319809E-3,2.578964E-3,1.2177311E-2,-6.4403965E-4,8.160115E-3,9.85654E-2,7.4021183E-3,-8.5523096E-4,-1.632463E-1,-3.1878698E-1,-1.7062787E-4,-2.844059E-1,-5.9937652E-2,-1.5549845E-1,-2.566451E-3,1.0760811E-3,4.738274E-2,2.0096911E-1,1.3890627E-2,4.552314E-2,-2.4052854E-1,1.2634715E-1,-6.967965E-2,-2.4067773E-1,9.444275E-2,-3.7127648E-2,2.225035E-1,-1.637923E-1,1.5871154E-1,-6.045477E-2,1.3861048E-1,-2.2419237E-1,-4.886633E-2],"split_indices":[152,161,116,0,0,148,51,179,50,111,18,149,146,22,82,25,25,71,116,27,149,0,162,22,0,0,16,0,0,0,113,79,0,0,0,0,0,0,0,0,0,0,0,0,0,0,0,0,0],"split_type":[0,0,0,0,0,0,0,0,0,0,0,0,0,0,0,0,0,0,0,0,0,0,0,0,0,0,0,0,0,0,0,0,0,0,0,0,0,0,0,0,0,0,0,0,0,0,0,0,0],"sum_hessian":[8.063848E1,5.5399704E0,7.509851E1,1.5382733E0,4.001697E0,5.7407803E1,1.7690708E1,4.7362114E1,1.0045687E1,9.983914E0,7.7067943E0,3.97335E1,7.6286135E0,3.9401796E0,6.105507E0,5.718802E0,4.265112E0,3.736375E0,3.9704192E0,3.0261521E0,3.6707348E1,1.9207617E0,5.707852E0,2.8955073E0,1.044672E0,2.979245E0,3.126262E0,4.715208E0,1.003594E0,1.2605996E0,3.0045123E0,2.436101E0,1.3002743E0,2.8353248E0,1.1350944E0,1.2953045E0,1.7308475E0,3.0809902E1,5.8974466E0,4.5574145E0,1.1504374E0,1.0033491E0,1.8921584E0,1.4780006E0,1.6482613E0,1.2948029E0,1.7097094E0,1.422878E0,1.0132228E0],"tree_param":{"num_deleted":"0","num_feature":"180","num_nodes":"49","size_leaf_vector":"1"}}]},"name":"gbtree"},"learner_model_param":{"base_score":"5E-1","boost_from_average":"1","num_class":"0","num_feature":"180","num_target":"1"},"objective":{"name":"binary:logistic","reg_loss_param":{"scale_pos_weight":"1"}}},"version":[3,0,0]}