{"learner":{"attributes":{"scikit_learn":"{\"_estimator_type\": \"classifier\"}"},"feature_names":[],"feature_types":[],"gradient_booster":{"model":{"gbtree_model_param":{"num_parallel_tree":"1","num_trees":"20"},"iteration_indptr":[0,1,2,3,4,5,6,7,8,9,10,11,12,13,14,15,16,17,18,19,20],"tree_info":[0,0,0,0,0,0,0,0,0,0,0,0,0,0,0,0,0,0,0,0],"trees":[{"base_weights":[-0E0,-1.4142259E0,2.582124E-1,-1.725E0,-7.4698794E-1,6.281454E-1,-1.4E0,-0E0,-1.7922078E0,-1.1186441E0,1.4285715E-1,6.831589E-1,-5.0769234E-1,-7.1428573E-1,-1.725E0,-1.6363637E-1,-1.8367347E0,-1.3962264E0,2.4000001E-1,4.0000004E-1,-4.2857146E-1,-4.7142857E-1,7.419669E-1,-2.9508197E-1,-4.666667E-1,-1.7922078E0,-0E0,-1.5E-1,-5.58042E-1,-1.5744681E0,-0E0,8.464912E-1,-8.4033616E-2,-1.1724138E0,4.4444445E-1,-1.8378378E0,-1.20000005E-1,-5.162791E-1,-0E0,-1.9672131E-2,2.9471034E-1,-1.7647061E-1,3.157895E-1,-4.8571432E-1,-0E0,-2.4705884E-1,3.9130437E-1,-5.583334E-1,-1.5E-1],"categories":[],"categories_nodes":[],"categories_segments":[],"categories_sizes":[],"default_left":[0,0,0,0,0,0,0,0,0,0,0,0,0,0,0,0,0,0,0,0,0,0,0,0,0,0,0,0,0,0,0,0,0,0,0,0,0,0,0,0,0,0,0,0,0,0,0,0,0],"id":0,"left_children":[1,3,5,7,9,11,13,-1,15,17,19,21,-1,23,25,-1,27,29,-1,-1,-1,-1,31,33,-1,35,-1,-1,-1,37,-1,39,41,43,45,47,-1,-1,-1,-1,-1,-1,-1,-1,-1,-1,-1,-1,-1],"loss_changes":[1.4132103E2,1.1101227E1,2.0162357E2,4.6373367E0,7.02217E0,3.5399902E1,1.213929E1,0E0,1.135437E0,8.972563E0,1.4999999E1,3.6003395E1,0E0,6.9469175E0,4.6373367E0,0E0,2.197113E-1,3.29747E0,0E0,0E0,0E0,0E0,2.223819E1,1.0415426E1,0E0,1.71064E0,0E0,0E0,0E0,2.7095509E0,0E0,2.8320053E1,1.7669172E1,3.7963877E0,1.0887184E1,2.2146606E-1,0E0,0E0,0E0,0E0,0E0,0E0,0E0,0E0,0E0,0E0,0E0,0E0,0E0],"parents":[2147483647,0,0,1,1,2,2,3,3,4,4,5,5,6,6,8,8,9,9,10,10,11,11,13,13,14,14,16,16,17,17,22,22,23,23,25,25,29,29,31,31,32,32,33,33,34,34,35,35],"right_children":[2,4,6,8,10,12,14,-1,16,18,20,22,-1,24,26,-1,28,30,-1,-1,-1,-1,32,34,-1,36,-1,-1,-1,38,-1,40,42,44,46,48,-1,-1,-1,-1,-1,-1,-1,-1,-1,-1,-1,-1,-1],"split_conditions":[-4.9340077E-2,-2.138689E-2,4.9340077E-2,-2.9514294E-2,-2.5070775E-2,2.3019777E-1,2.138689E-2,-0E0,-5.6017198E-2,1.6412392E-2,3.6716897E-2,-2.2064115E-1,-5.0769234E-1,2.3764394E-2,2.681283E-2,-1.6363637E-1,-1.0103266E-1,2.3111895E-2,2.4000001E-1,4.0000004E-1,-4.2857146E-1,-4.7142857E-1,2.7682256E-2,-1.153476E-1,-4.666667E-1,5.7901926E-2,-0E0,-1.5E-1,-5.58042E-1,3.0005783E-2,-0E0,-2.7252253E-2,1.9984888E-2,-2.8003823E-2,1.0586837E-1,5.538087E-2,-1.20000005E-1,-5.162791E-1,-0E0,-1.9672131E-2,2.9471034E-1,-1.7647061E-1,3.157895E-1,-4.8571432E-1,-0E0,-2.4705884E-1,3.9130437E-1,-5.583334E-1,-1.5E-1],"split_indices":[21,0,21,264,63,296,0,0,65,261,146,296,0,122,264,0,2,136,0,0,0,0,4,236,0,65,0,0,0,0,0,4,18,288,292,2,0,0,0,0,0,0,0,0,0,0,0,0,0],"split_type":[0,0,0,0,0,0,0,0,0,0,0,0,0,0,0,0,0,0,0,0,0,0,0,0,0,0,0,0,0,0,0,0,0,0,0,0,0,0,0,0,0,0,0,0,0,0,0,0,0],"sum_hessian":[3.85E2,5.875E1,3.2625E2,3.9E1,1.975E1,2.6725E2,5.9E1,1.5E0,3.75E1,1.375E1,6E0,2.6175E2,5.5E0,2E1,3.9E1,1.75E0,3.575E1,1.225E1,1.5E0,3.5E0,2.5E0,6E0,2.5575E2,1.425E1,5.75E0,3.75E1,1.5E0,1E0,3.475E1,1.075E1,1.5E0,2.27E2,2.875E1,6.25E0,8E0,3.6E1,1.5E0,9.75E0,1E0,2.95E1,1.975E2,2.025E1,8.5E0,4.25E0,2E0,3.25E0,4.75E0,3.5E1,1E0],"tree_param":{"num_deleted":"0","num_feature":"309","num_nodes":"49","size_leaf_vector":"1"}},{"base_weights":[-1.1264479E-2,1.9325149E-1,-1.0051298E0,-9.315303E-1,5.236968E-1,-5.102168E-1,-1.362742E0,-1.3299385E0,-4.39242E-1,-5.81237E-1,6.104049E-1,4.0136433E-1,-8.853311E-1,-1.4250776E0,-1.4233548E-2,-1.3897098E0,2.4867326E-3,-8.401587E-1,3.262447E-1,-1.1197977E0,7.1928257E-1,7.0961446E-1,-5.0911474E-1,-3.4955627E-1,1.0695144E0,2.6890087E-1,-1.1941041E0,-3.9917636E-3,-1.4737514E0,6.326734E-2,-1.4503223E0,-1.0136373E0,1.8693182E-1,-1.0571902E0,1.034266E0,-1.5312804E0,2.4497639E-1,3.6090308E-1,-1.8997888E-1,1.8381098E-1,8.2382363E-1,-1.2274448E0,9.1680115E-1,-6.659147E-2,4.1529256E-1,-2.4254318E-1,9.143466E-1,-4.432076E-1,-4.6903569E-1,-4.4855094E-1,-1.4220288E-1,-4.4734165E-1,-1.3972855E-1,-3.9129418E-1,-2.610587E-2,-5.199254E-2,-3.9503425E-1,-1.8083885E-1,4.157137E-1,6.5806486E-2,-5.3044415E-1,-2.065583E-1,1.8386072E-1,2.8988376E-1,6.1857354E-2,1.9819617E-1,-4.874009E-1,3.8076705E-1,-1.175577E-1,5.4340582E-2,3.5965517E-1,-3.5534447E-1,1.8791837E-1],"categories":[],"categories_nodes":[],"categories_segments":[],"categories_sizes":[],"default_left":[0,0,0,0,0,0,0,0,0,0,0,0,0,0,0,0,0,0,0,0,0,0,0,0,0,0,0,0,0,0,0,0,0,0,0,0,0,0,0,0,0,0,0,0,0,0,0,0,0,0,0,0,0,0,0,0,0,0,0,0,0,0,0,0,0,0,0,0,0,0,0,0,0],"id":1,"left_children":[1,3,5,7,9,11,13,15,17,19,21,23,25,27,-1,29,-1,31,33,35,37,39,41,-1,43,45,47,-1,49,-1,51,53,-1,55,57,59,-1,-1,-1,61,63,65,67,-1,-1,-1,69,71,-1,-1,-1,-1,-1,-1,-1,-1,-1,-1,-1,-1,-1,-1,-1,-1,-1,-1,-1,-1,-1,-1,-1,-1,-1],"loss_changes":[7.619201E1,1.1605104E2,1.0626518E1,1.333382E1,2.3440361E1,1.007762E1,2.928093E0,3.1092682E0,1.0473684E1,1.3444561E1,2.523079E1,1.06423025E1,7.6112213E0,2.3751526E0,0E0,3.9030228E0,0E0,6.239275E0,1.2988203E1,1.1729797E1,4.617613E0,1.2225479E1,2.0391796E1,0E0,3.077671E0,4.308896E0,3.8337898E0,0E0,1.2435913E-2,0E0,7.4624634E-1,5.308485E0,0E0,8.285184E-1,5.747656E0,5.02997E0,0E0,0E0,0E0,1.466955E1,1.4673653E1,1.07753525E1,3.6675549E0,0E0,0E0,0E0,5.503824E-1,6.115208E0,0E0,0E0,0E0,0E0,0E0,0E0,0E0,0E0,0E0,0E0,0E0,0E0,0E0,0E0,0E0,0E0,0E0,0E0,0E0,0E0,0E0,0E0,0E0,0E0,0E0],"parents":[2147483647,0,0,1,1,2,2,3,3,4,4,5,5,6,6,7,7,8,8,9,9,10,10,11,11,12,12,13,13,15,15,17,17,18,18,19,19,20,20,21,21,22,22,24,24,25,25,26,26,28,28,30,30,31,31,33,33,34,34,35,35,39,39,40,40,41,41,42,42,46,46,47,47],"right_children":[2,4,6,8,10,12,14,16,18,20,22,24,26,28,-1,30,-1,32,34,36,38,40,42,-1,44,46,48,-1,50,-1,52,54,-1,56,58,60,-1,-1,-1,62,64,66,68,-1,-1,-1,70,72,-1,-1,-1,-1,-1,-1,-1,-1,-1,-1,-1,-1,-1,-1,-1,-1,-1,-1,-1,-1,-1,-1,-1,-1,-1],"split_conditions":[4.443255E-2,-3.940132E-2,2.8832402E-2,-2.8832402E-2,-1.6125901E-1,2.4409654E-2,6.2416732E-2,1.4890883E-2,-2.4409654E-2,3.3531178E-2,1.4307036E-1,-7.6373845E-2,-1.1157932E-2,-1.4890883E-2,-1.4233548E-2,-3.0599313E-2,2.4867326E-3,2.3665525E-1,-1.1227867E-1,-4.0813196E-2,2.3713738E-1,-1.8102678E-2,1.5238431E-1,-3.4955627E-1,-1.0294481E-2,8.396443E-2,-6.771359E-2,-3.9917636E-3,1.5190226E-1,6.326734E-2,-1.0222487E-2,9.674651E-3,1.8693182E-1,-3.8250443E-1,-3.3822026E-2,-1.23002104E-1,2.4497639E-1,3.6090308E-1,-1.8997888E-1,5.3376653E-3,1.7864892E-2,-3.5201985E-2,2.7529065E-2,-6.659147E-2,4.1529256E-1,-2.4254318E-1,-1.0247148E-2,-7.0944116E-3,-4.6903569E-1,-4.4855094E-1,-1.4220288E-1,-4.4734165E-1,-1.3972855E-1,-3.9129418E-1,-2.610587E-2,-5.199254E-2,-3.9503425E-1,-1.8083885E-1,4.157137E-1,6.5806486E-2,-5.3044415E-1,-2.065583E-1,1.8386072E-1,2.8988376E-1,6.1857354E-2,1.9819617E-1,-4.874009E-1,3.8076705E-1,-1.175577E-1,5.4340582E-2,3.5965517E-1,-3.5534447E-1,1.8791837E-1],"split_indices":[21,21,0,0,194,63,182,131,63,72,212,215,131,131,0,264,0,146,246,17,292,288,294,0,74,210,272,0,53,0,245,131,0,1,10,277,0,0,0,91,288,72,90,0,0,0,93,22,0,0,0,0,0,0,0,0,0,0,0,0,0,0,0,0,0,0,0,0,0,0,0,0,0],"split_type":[0,0,0,0,0,0,0,0,0,0,0,0,0,0,0,0,0,0,0,0,0,0,0,0,0,0,0,0,0,0,0,0,0,0,0,0,0,0,0,0,0,0,0,0,0,0,0,0,0,0,0,0,0,0,0,0,0,0,0,0,0,0,0,0,0,0,0,0,0,0,0,0,0],"sum_hessian":[3.7289194E2,3.099222E2,6.2969723E1,6.996245E1,2.3995976E2,2.7432114E1,3.553761E1,3.7727825E1,3.2234623E1,1.7045332E1,2.2291443E2,7.9769683E0,1.9455145E1,3.3849903E1,1.6877056E0,3.607795E1,1.6498733E0,2.1090906E1,1.1143719E1,1.2152003E1,4.893329E0,2.0510461E2,1.7809809E1,2.1626039E0,5.8143644E0,4.1333394E0,1.5321806E1,1.1705925E0,3.267931E1,1.225907E0,3.4852043E1,1.9130186E1,1.960719E0,3.605536E0,7.5381823E0,1.0194809E1,1.9571939E0,3.685718E0,1.2076107E0,3.7066216E1,1.680384E2,1.1936019E1,5.873789E0,1.1972694E0,4.617095E0,1.4539006E0,2.6794386E0,5.7769847E0,9.544822E0,3.1508718E1,1.1705925E0,3.2970665E1,1.8813775E0,1.4251833E1,4.8783545E0,1.1971102E0,2.4084258E0,1.2058872E0,6.3322954E0,1.2238082E0,8.971001E0,1.2020999E1,2.5045218E1,1.3608597E2,3.1952427E1,1.9593965E0,9.976623E0,4.651323E0,1.2224663E0,1.2065754E0,1.4728633E0,3.3487637E0,2.428221E0],"tree_param":{"num_deleted":"0","num_feature":"309","num_nodes":"73","size_leaf_vector":"1"}},{"base_weights":[-1.7445078E-2,1.2958248E-1,-8.9679044E-1,-7.507721E-1,3.6690938E-1,-4.5309892E-1,-1.1222891E0,-1.0934141E0,-3.4835038E-1,-5.244337E-1,4.3739405E-1,-2.4698395E-2,-8.600065E-1,-1.2024702E0,-6.1601017E-2,3.2815766E-2,-1.1552994E0,3.267972E-2,-8.6217815E-1,-7.508513E-1,3.169192E-1,5.9437007E-1,-9.337911E-2,5.1804006E-1,-2.705304E-1,-3.6877584E-1,-1.6682091E-1,-1.2403921E0,-4.6264276E-2,-1.5840024E-1,1.3141544E-1,-1.2180974E0,8.106919E-2,-8.6635226E-1,5.362998E-1,-1.1369929E0,1.5684146E-1,-1.2185925E0,1.4789297E-1,7.028533E-1,-2.0473741E-1,7.966683E-1,-4.4087258E-1,8.38147E-1,-1.7740732E-1,-2.5781628E-1,2.2717252E-1,-7.704635E-2,-3.8039237E-1,-3.7816808E-1,-1.3367207E-1,-3.6658025E-1,-5.1524393E-2,2.4624255E-1,-1.6300517E-1,8.1418894E-2,-3.9878425E-1,-4.1412088E-1,-2.8342538E-2,-2.7502942E-1,1.6430984E-1,8.134592E-2,2.7133307E-1,-4.3167195E-1,1.4187583E-1,-1.0708747E-1,3.2312799E-1,-3.178117E-1,7.337714E-2,-6.31981E-2,3.403297E-1],"categories":[],"categories_nodes":[],"categories_segments":[],"categories_sizes":[],"default_left":[0,0,0,0,0,0,0,0,0,0,0,0,0,0,0,0,0,0,0,0,0,0,0,0,0,0,0,0,0,0,0,0,0,0,0,0,0,0,0,0,0,0,0,0,0,0,0,0,0,0,0,0,0,0,0,0,0,0,0,0,0,0,0,0,0,0,0,0,0,0,0],"id":2,"left_children":[1,3,5,7,9,11,13,15,17,19,21,23,25,27,29,-1,31,33,35,37,-1,39,41,43,-1,-1,45,47,-1,-1,-1,49,-1,51,53,55,-1,57,59,61,63,65,67,69,-1,-1,-1,-1,-1,-1,-1,-1,-1,-1,-1,-1,-1,-1,-1,-1,-1,-1,-1,-1,-1,-1,-1,-1,-1,-1,-1],"loss_changes":[4.547664E1,6.326065E1,4.532612E0,8.490795E0,1.5189663E1,3.23077E0,2.7094917E0,2.6783104E0,6.1085615E0,7.201841E0,1.848705E1,5.283181E0,2.23629E0,1.0161896E0,1.0129601E0,0E0,3.2558327E0,8.974994E0,5.6415215E0,7.0097923E0,0E0,1.4955826E1,1.623498E1,2.9406767E0,0E0,0E0,3.5127277E0,4.6579742E-1,0E0,0E0,0E0,4.7146988E-1,0E0,1.5514355E0,4.3363266E0,3.4426088E0,0E0,1.8328476E0,3.248776E0,1.2866531E1,1.840867E1,5.1648397E0,1.6191265E1,2.0279183E0,0E0,0E0,0E0,0E0,0E0,0E0,0E0,0E0,0E0,0E0,0E0,0E0,0E0,0E0,0E0,0E0,0E0,0E0,0E0,0E0,0E0,0E0,0E0,0E0,0E0,0E0,0E0],"parents":[2147483647,0,0,1,1,2,2,3,3,4,4,5,5,6,6,7,7,8,8,9,9,10,10,11,11,12,12,13,13,14,14,16,16,17,17,18,18,19,19,21,21,22,22,23,23,26,26,27,27,31,31,33,33,34,34,35,35,37,37,38,38,39,39,40,40,41,41,42,42,43,43],"right_children":[2,4,6,8,10,12,14,16,18,20,22,24,26,28,30,-1,32,34,36,38,-1,40,42,44,-1,-1,46,48,-1,-1,-1,50,-1,52,54,56,-1,58,60,62,64,66,68,70,-1,-1,-1,-1,-1,-1,-1,-1,-1,-1,-1,-1,-1,-1,-1,-1,-1,-1,-1,-1,-1,-1,-1,-1,-1,-1,-1],"split_conditions":[4.9340077E-2,-3.940132E-2,2.138689E-2,-2.8832402E-2,-1.6125901E-1,-3.2950474E-3,9.5883344E-4,-6.2416732E-2,1.4636584E-2,1.9533267E-2,7.649525E-2,5.7811136E-3,1.739224E-2,5.7901926E-2,7.257902E-2,3.2815766E-2,-7.064701E-3,-1.1227867E-1,1.0770849E-1,-5.1176053E-2,3.169192E-1,8.964076E-3,-3.0974071E-2,1.3590491E-1,-2.705304E-1,-3.6877584E-1,-1.2026907E-2,-4.309054E-2,-4.6264276E-2,-1.5840024E-1,1.3141544E-1,9.569903E-3,8.106919E-2,-8.485525E-4,2.0715449E-2,-6.0336236E-2,1.5684146E-1,-1.6628003E-1,-3.183751E-2,-4.316405E-2,-5.8545E-3,-2.6834467E-2,-8.14625E-3,1.00952014E-1,-1.7740732E-1,-2.5781628E-1,2.2717252E-1,-7.704635E-2,-3.8039237E-1,-3.7816808E-1,-1.3367207E-1,-3.6658025E-1,-5.1524393E-2,2.4624255E-1,-1.6300517E-1,8.1418894E-2,-3.9878425E-1,-4.1412088E-1,-2.8342538E-2,-2.7502942E-1,1.6430984E-1,8.134592E-2,2.7133307E-1,-4.3167195E-1,1.4187583E-1,-1.0708747E-1,3.2312799E-1,-3.178117E-1,7.337714E-2,-6.31981E-2,3.403297E-1],"split_indices":[21,21,0,0,194,137,249,182,90,301,194,236,117,65,170,0,245,246,251,272,0,231,255,150,0,0,208,90,0,0,0,131,0,92,240,63,0,212,4,212,92,303,182,114,0,0,0,0,0,0,0,0,0,0,0,0,0,0,0,0,0,0,0,0,0,0,0,0,0,0,0],"split_type":[0,0,0,0,0,0,0,0,0,0,0,0,0,0,0,0,0,0,0,0,0,0,0,0,0,0,0,0,0,0,0,0,0,0,0,0,0,0,0,0,0,0,0,0,0,0,0,0,0,0,0,0,0,0,0,0,0,0,0,0,0,0,0,0,0,0,0,0,0,0,0],"sum_hessian":[3.4984793E2,3.0046286E2,4.9385094E1,6.3340473E1,2.3712238E2,1.7655472E1,3.1729624E1,3.328385E1,3.005662E1,1.6904839E1,2.2021754E2,9.117296E0,8.538176E0,2.9375366E1,2.354257E0,1.5911342E0,3.1692719E1,1.7796206E1,1.2260414E1,1.5246199E1,1.6586392E0,1.698613E2,5.0356247E1,5.884973E0,3.2323227E0,5.0661817E0,3.4719934E0,2.8172888E1,1.2024785E0,1.1883022E0,1.1659548E0,3.049486E1,1.1978573E0,6.1310964E0,1.1665109E1,1.0379852E1,1.8805622E0,9.793434E0,5.4527645E0,1.4966403E2,2.0197266E1,1.3776751E1,3.6579494E1,4.7569113E0,1.1280618E0,2.024592E0,1.4474016E0,1.0497705E0,2.7123117E1,2.8307177E1,2.1876833E0,3.5530424E0,2.578054E0,9.421982E0,2.2431273E0,1.1974995E0,9.182352E0,8.36181E0,1.4316244E0,1.1356322E0,4.3171325E0,4.8387833E1,1.0127619E2,6.7608485E0,1.3436417E1,2.6406386E0,1.1136112E1,1.8942245E1,1.7637249E1,1.1114684E0,3.645443E0],"tree_param":{"num_deleted":"0","num_feature":"309","num_nodes":"71","size_leaf_vector":"1"}},{"base_weights":[-2.341956E-2,1.14426866E-1,-6.632371E-1,-7.6635015E-1,2.8448388E-1,-9.6889323E-1,-3.1325048E-1,-5.082582E-1,-1.1843954E0,3.4438136E-1,-4.623162E-1,-1.1434807E0,-1.5671025E-1,-1.0226309E0,1.2154431E-1,1.3600455E-1,-8.108861E-1,-3.658908E-1,-1.0684686E-1,-8.912571E-2,4.7418964E-1,-7.7894557E-1,6.551613E-1,-5.210823E-1,-3.8244995E-1,6.7330605E-1,-2.502058E-1,7.1027963E-3,-1.2670641E0,-6.686906E-1,6.5903E-1,-7.638726E-1,1.066123E0,-9.6275085E-1,1.1061815E-1,-4.5156416E-1,8.027626E-1,-3.5431218E-1,5.8683574E-1,5.669774E-1,-1.1660146E0,3.1960627E-1,-1.00617565E-1,-3.014344E-1,1.9933456E-1,2.8367472E-1,1.617966E-2,1.2914816E-1,-1.251749E-1,-4.061763E-1,-1.2369712E-1,1.3216089E-1,-9.694363E-1,1.1051517E0,-2.3332158E-1,5.5511933E-2,-3.193032E-1,4.2910504E-1,-4.0781707E-2,-1.5663111E-1,-3.4278005E-1,-3.498454E-1,3.5853706E-2,3.1982535E-1,-8.154554E-2,9.131494E-2,-4.6213475E-1,2.3257655E-1,5.77284E-2,-8.7986E-2,3.13251E-1,1.23771936E-1,-4.1175464E-1,5.583746E-2,-3.7397438E-1,-1.6338496E-2,3.817255E-1],"categories":[],"categories_nodes":[],"categories_segments":[],"categories_sizes":[],"default_left":[0,0,0,0,0,0,0,0,0,0,0,0,0,0,0,0,0,0,0,0,0,0,0,0,0,0,0,0,0,0,0,0,0,0,0,0,0,0,0,0,0,0,0,0,0,0,0,0,0,0,0,0,0,0,0,0,0,0,0,0,0,0,0,0,0,0,0,0,0,0,0,0,0,0,0,0,0],"id":3,"left_children":[1,3,5,7,9,11,13,15,17,19,21,23,25,27,29,31,33,-1,-1,35,37,39,41,43,-1,45,-1,47,49,51,53,55,57,59,-1,61,63,65,67,69,71,-1,-1,-1,-1,-1,-1,-1,-1,-1,-1,-1,73,75,-1,-1,-1,-1,-1,-1,-1,-1,-1,-1,-1,-1,-1,-1,-1,-1,-1,-1,-1,-1,-1,-1,-1],"loss_changes":[2.8829062E1,4.0521023E1,5.8941402E0,4.125469E0,1.0280222E1,4.1382904E0,8.910599E0,5.73371E0,3.1843185E-2,1.18615055E1,6.6056576E0,1.3715706E0,4.241558E0,2.7604446E0,8.321884E0,9.246575E0,3.8962383E0,0E0,0E0,1.628001E1,1.53076935E1,7.892249E0,2.1234107E0,4.126007E0,0E0,5.3835475E-1,0E0,7.3506016E-1,9.802151E-2,3.0984702E0,8.261121E0,1.822998E0,2.5461545E0,8.1331253E-1,0E0,1.468881E1,4.4177065E0,1.6086031E1,1.0463219E1,1.8551166E0,4.187001E0,0E0,0E0,0E0,0E0,0E0,0E0,0E0,0E0,0E0,0E0,0E0,2.3496518E0,1.8585253E0,0E0,0E0,0E0,0E0,0E0,0E0,0E0,0E0,0E0,0E0,0E0,0E0,0E0,0E0,0E0,0E0,0E0,0E0,0E0,0E0,0E0,0E0,0E0],"parents":[2147483647,0,0,1,1,2,2,3,3,4,4,5,5,6,6,7,7,8,8,9,9,10,10,11,11,12,12,13,13,14,14,15,15,16,16,19,19,20,20,21,21,22,22,23,23,25,25,27,27,28,28,29,29,30,30,31,31,32,32,33,33,35,35,36,36,37,37,38,38,39,39,40,40,52,52,53,53],"right_children":[2,4,6,8,10,12,14,16,18,20,22,24,26,28,30,32,34,-1,-1,36,38,40,42,44,-1,46,-1,48,50,52,54,56,58,60,-1,62,64,66,68,70,72,-1,-1,-1,-1,-1,-1,-1,-1,-1,-1,-1,74,76,-1,-1,-1,-1,-1,-1,-1,-1,-1,-1,-1,-1,-1,-1,-1,-1,-1,-1,-1,-1,-1,-1,-1],"split_conditions":[3.940132E-2,-4.9340077E-2,-3.623525E-2,3.2608535E-2,1.6125901E-1,2.856036E-2,-1.778682E-2,-9.1184475E-2,4.2771447E-2,-7.649525E-2,2.4189785E-2,-7.042039E-2,5.408446E-1,-5.6023877E-2,-1.1092243E-2,-1.1314814E-2,-8.2945675E-3,-3.658908E-1,-1.0684686E-1,3.0974071E-2,-8.964076E-3,4.641143E-2,1.3374704E-2,1.165645E-3,-3.8244995E-1,-8.774119E-2,-2.502058E-1,-4.5326408E-2,7.029206E-3,-2.5511286E-1,8.927383E-2,-6.487202E-2,-5.6949244E-3,1.6734652E-2,1.1061815E-1,1.1108403E-1,2.6834467E-2,3.361052E-3,4.316405E-2,-1.649132E-2,-1.7649848E-2,3.1960627E-1,-1.00617565E-1,-3.014344E-1,1.9933456E-1,2.8367472E-1,1.617966E-2,1.2914816E-1,-1.251749E-1,-4.061763E-1,-1.2369712E-1,1.3216089E-1,8.30766E-2,1.9742869E-1,-2.3332158E-1,5.5511933E-2,-3.193032E-1,4.2910504E-1,-4.0781707E-2,-1.5663111E-1,-3.4278005E-1,-3.498454E-1,3.5853706E-2,3.1982535E-1,-8.154554E-2,9.131494E-2,-4.6213475E-1,2.3257655E-1,5.77284E-2,-8.7986E-2,3.13251E-1,1.23771936E-1,-4.1175464E-1,5.583746E-2,-3.7397438E-1,-1.6338496E-2,3.817255E-1],"split_indices":[21,21,288,107,194,74,83,210,63,194,93,86,79,178,151,10,224,0,0,255,231,17,1,93,0,304,0,99,137,274,141,182,86,101,0,296,303,92,212,39,22,0,0,0,0,0,0,0,0,0,0,0,224,1,0,0,0,0,0,0,0,0,0,0,0,0,0,0,0,0,0,0,0,0,0,0,0],"split_type":[0,0,0,0,0,0,0,0,0,0,0,0,0,0,0,0,0,0,0,0,0,0,0,0,0,0,0,0,0,0,0,0,0,0,0,0,0,0,0,0,0,0,0,0,0,0,0,0,0,0,0,0,0,0,0,0,0,0,0,0,0,0,0,0,0,0,0,0,0,0,0,0,0,0,0,0,0],"sum_hessian":[3.250124E2,2.6807724E2,5.693514E1,4.281563E1,2.2526161E2,2.94484E1,2.7486738E1,2.7842243E1,1.4973387E1,2.0903473E2,1.6226885E1,2.3902412E1,5.5459886E0,9.931394E0,1.7555344E1,9.074397E0,1.8767847E1,1.3909011E1,1.0643755E0,4.8241398E1,1.6079333E2,1.2880288E1,3.346596E0,5.0309396E0,1.8871473E1,2.4947176E0,3.051271E0,2.0914786E0,7.839915E0,7.0079064E0,1.0547438E1,4.703022E0,4.371375E0,1.6790112E1,1.9777361E0,3.465306E1,1.3588335E1,1.898859E1,1.4180473E2,2.7730374E0,1.0107251E1,2.3131816E0,1.0334144E0,3.6813886E0,1.3495508E0,1.367077E0,1.1276406E0,1.0396808E0,1.0517976E0,6.5865865E0,1.2533283E0,1.3956349E0,5.612272E0,8.224507E0,2.3229306E0,1.2234472E0,3.479575E0,3.2090986E0,1.1622766E0,5.997846E0,1.0792265E1,1.4929625E1,1.9723438E1,1.0920273E1,2.6680624E0,1.2686694E1,6.301896E0,9.5307915E1,4.6496826E1,1.1268991E0,1.6461382E0,1.0537763E0,9.053474E0,1.1491768E0,4.4630947E0,1.1217971E0,7.1027102E0],"tree_param":{"num_deleted":"0","num_feature":"309","num_nodes":"77","size_leaf_vector":"1"}},{"base_weights":[-2.6391048E-2,6.660206E-2,-6.791598E-1,-6.5733176E-1,1.87474E-1,-2.1118125E-1,-8.348524E-1,-4.2431575E-1,-1.0571055E0,2.1679583E-1,-3.439411E-1,1.9369155E-1,-2.9731515E-1,-9.495709E-1,6.4154394E-2,3.488478E-3,-7.928498E-1,-3.2906806E-1,-9.05412E-2,-3.3789128E-1,2.4474569E-1,-2.2829638E-1,7.205005E-1,-1.7551368E-1,-1.0292699E0,-2.4242593E-1,2.7999517E-1,3.7516782E-1,-7.7448833E-1,-1.039735E-1,-3.3341154E-1,-6.220964E-2,3.6562246E-1,-6.600364E-2,1.0056721E0,-2.2553955E-1,1.862178E-1,-6.724858E-2,-3.1980082E-1,-5.9877526E-2,3.7519675E-1,-1.6783964E-2,-2.8968564E-1,-2.2542794E-1,1.7355296E-1,1.4314489E-1,-2.5997832E-1,1.84567E-1,-6.9478448E-3,7.628737E-2,3.5644457E-1],"categories":[],"categories_nodes":[],"categories_segments":[],"categories_sizes":[],"default_left":[0,0,0,0,0,0,0,0,0,0,0,0,0,0,0,0,0,0,0,0,0,0,0,0,0,0,0,0,0,0,0,0,0,0,0,0,0,0,0,0,0,0,0,0,0,0,0,0,0,0,0],"id":4,"left_children":[1,3,5,7,9,11,13,15,17,19,-1,21,-1,23,25,27,29,-1,-1,-1,31,-1,33,35,37,-1,-1,39,41,43,-1,45,47,-1,49,-1,-1,-1,-1,-1,-1,-1,-1,-1,-1,-1,-1,-1,-1,-1,-1],"loss_changes":[1.8412092E1,2.337731E1,2.5791664E0,3.1140823E0,9.186273E0,3.5955718E0,2.952633E0,4.0754724E0,7.202625E-2,8.700731E0,0E0,4.53769E0,0E0,1.3572636E0,3.8698668E0,4.0352635E0,2.9304152E0,0E0,0E0,0E0,8.210757E0,0E0,1.729995E0,2.0876927E0,4.2338943E-1,0E0,0E0,4.9983897E0,5.6578946E-1,2.8616612E0,0E0,2.7834547E1,1.5392715E1,0E0,3.1430292E-1,0E0,0E0,0E0,0E0,0E0,0E0,0E0,0E0,0E0,0E0,0E0,0E0,0E0,0E0,0E0,0E0],"parents":[2147483647,0,0,1,1,2,2,3,3,4,4,5,5,6,6,7,7,8,8,9,9,11,11,13,13,14,14,15,15,16,16,20,20,22,22,23,23,24,24,27,27,28,28,29,29,31,31,32,32,34,34],"right_children":[2,4,6,8,10,12,14,16,18,20,-1,22,-1,24,26,28,30,-1,-1,-1,32,-1,34,36,38,-1,-1,40,42,44,-1,46,48,-1,50,-1,-1,-1,-1,-1,-1,-1,-1,-1,-1,-1,-1,-1,-1,-1,-1],"split_conditions":[4.9340077E-2,-4.9340077E-2,-5.4917885E-3,3.2608535E-2,2.3019777E-1,2.9157056E-2,1.8175133E-2,-8.9885145E-2,1.5351278E-2,-2.3019777E-1,-3.439411E-1,2.4034759E-2,-2.9731515E-1,-1.4883481E-2,1.1656903E-2,7.2785895E-3,8.741146E-2,-3.2906806E-1,-9.05412E-2,-3.3789128E-1,-2.613629E-2,-2.2829638E-1,-1.7178012E-2,4.0014813E-4,1.4148346E-2,-2.4242593E-1,2.7999517E-1,-2.5981348E-2,-9.38917E-4,1.833979E-1,-3.3341154E-1,-5.440907E-2,2.613629E-2,-6.600364E-2,-1.2121147E-1,-2.2553955E-1,1.862178E-1,-6.724858E-2,-3.1980082E-1,-5.9877526E-2,3.7519675E-1,-1.6783964E-2,-2.8968564E-1,-2.2542794E-1,1.7355296E-1,1.4314489E-1,-2.5997832E-1,1.84567E-1,-6.9478448E-3,7.628737E-2,3.5644457E-1],"split_indices":[21,21,131,107,296,12,249,26,143,296,0,210,0,128,131,22,6,0,0,0,272,0,4,10,72,0,0,12,264,154,0,211,272,0,215,0,0,0,0,0,0,0,0,0,0,0,0,0,0,0,0],"split_type":[0,0,0,0,0,0,0,0,0,0,0,0,0,0,0,0,0,0,0,0,0,0,0,0,0,0,0,0,0,0,0,0,0,0,0,0,0,0,0,0,0,0,0,0,0,0,0,0,0,0,0],"sum_hessian":[3.015692E2,2.6475092E2,3.6818314E1,3.724465E1,2.2750626E2,9.7795315E0,2.703878E1,2.4832142E1,1.241251E1,2.234324E2,4.073858E0,6.9322543E0,2.8472767E0,2.392905E1,3.109731E0,1.1950368E1,1.2881774E1,1.1361734E1,1.0507749E0,3.7537298E0,2.1967868E2,2.3070006E0,4.6252537E0,2.5327313E0,2.1396318E1,1.5871902E0,1.5225407E0,8.437234E0,3.5131338E0,4.4923873E0,8.389387E0,6.2203648E1,1.5747502E2,1.1292877E0,3.495966E0,1.5016872E0,1.0310441E0,1.2435158E0,2.0152803E1,5.5594597E0,2.877774E0,1.0097528E0,2.503381E0,2.2535188E0,2.2388682E0,3.7479534E1,2.4724112E1,9.554926E1,6.1925762E1,1.1508172E0,2.3451488E0],"tree_param":{"num_deleted":"0","num_feature":"309","num_nodes":"51","size_leaf_vector":"1"}},{"base_weights":[-2.9649142E-2,6.260664E-2,-5.18187E-1,-5.7040733E-1,1.6465034E-1,-3.498081E-1,-3.3547363E-1,-3.6081028E-1,-9.541212E-1,2.9019758E-1,-1.6931893E-1,3.252758E-1,-6.5286577E-1,1.2315729E-1,-6.5557516E-1,-3.38227E-1,-3.154882E-1,4.723057E-1,-2.7709213E-1,2.7252877E-1,-1.021481E0,7.247364E-1,-6.544868E-1,-2.9033917E-1,-1.0168859E0,-5.6177837E-1,6.646698E-1,-9.8589283E-1,4.0347558E-2,-1.7741957E-1,2.509956E-2,6.727405E-1,-2.4189476E-3,6.1791337E-1,-5.3466994E-1,-2.863843E-1,6.260323E-1,-1.1970047E0,1.6061607E-1,9.4617057E-1,-1.5665083E-1,-9.999691E-3,-2.5705877E-1,3.9325064E-1,-6.920161E-1,1.8061358E-2,-3.3827373E-1,-2.7404803E-1,7.059408E-2,-6.777985E-2,3.360077E-1,-3.1939188E-1,-8.505767E-2,2.3361677E-1,-1.5132947E-1,-1.6246992E-1,2.392355E-1,-1.778672E-1,2.2425608E-1,2.8157872E-1,-1.4548178E-1,-3.1163287E-1,6.999295E-2,1.5312059E-1,-4.1700155E-1,-1.1555724E-1,2.8529835E-1,-4.1603988E-1,1.1185645E-1,-7.249661E-2,3.5150218E-1,-9.818331E-2,2.7099314E-1,3.1460453E-2,-3.1963143E-1],"categories":[],"categories_nodes":[],"categories_segments":[],"categories_sizes":[],"default_left":[0,0,0,0,0,0,0,0,0,0,0,0,0,0,0,0,0,0,0,0,0,0,0,0,0,0,0,0,0,0,0,0,0,0,0,0,0,0,0,0,0,0,0,0,0,0,0,0,0,0,0,0,0,0,0,0,0,0,0,0,0,0,0,0,0,0,0,0,0,0,0,0,0,0,0],"id":5,"left_children":[1,3,5,7,9,11,-1,13,15,17,19,21,23,25,27,29,-1,31,33,35,37,39,41,43,45,47,49,51,53,-1,-1,55,57,59,61,63,65,67,-1,69,-1,-1,-1,71,73,-1,-1,-1,-1,-1,-1,-1,-1,-1,-1,-1,-1,-1,-1,-1,-1,-1,-1,-1,-1,-1,-1,-1,-1,-1,-1,-1,-1,-1,-1],"loss_changes":[1.2820723E1,1.556842E1,4.1735134E0,2.3484554E0,8.731805E0,7.727763E0,0E0,3.3991246E0,3.1808567E-1,1.5717103E1,2.1819155E1,5.189941E0,3.0943718E0,3.9513721E0,3.3993263E0,3.7072167E-1,0E0,1.0903931E1,8.927641E0,7.7789555E0,6.036541E0,2.9883223E0,4.7616625E-1,4.190059E0,1.5482779E0,1.5609837E0,2.6236246E0,2.484684E-1,2.6714532E0,0E0,0E0,1.2632763E1,1.5946862E1,3.5667284E0,1.1661089E1,1.4417262E1,8.212071E0,5.896158E0,0E0,2.43323E0,0E0,0E0,0E0,2.4708443E0,2.8940272E0,0E0,0E0,0E0,0E0,0E0,0E0,0E0,0E0,0E0,0E0,0E0,0E0,0E0,0E0,0E0,0E0,0E0,0E0,0E0,0E0,0E0,0E0,0E0,0E0,0E0,0E0,0E0,0E0,0E0,0E0],"parents":[2147483647,0,0,1,1,2,2,3,3,4,4,5,5,7,7,8,8,9,9,10,10,11,11,12,12,13,13,14,14,15,15,17,17,18,18,19,19,20,20,21,21,22,22,23,23,24,24,25,25,26,26,27,27,28,28,31,31,32,32,33,33,34,34,35,35,36,36,37,37,39,39,43,43,44,44],"right_children":[2,4,6,8,10,12,-1,14,16,18,20,22,24,26,28,30,-1,32,34,36,38,40,42,44,46,48,50,52,54,-1,-1,56,58,60,62,64,66,68,-1,70,-1,-1,-1,72,74,-1,-1,-1,-1,-1,-1,-1,-1,-1,-1,-1,-1,-1,-1,-1,-1,-1,-1,-1,-1,-1,-1,-1,-1,-1,-1,-1,-1,-1,-1],"split_conditions":[3.940132E-2,-4.9340077E-2,7.82399E-3,3.2608535E-2,1.4071398E-2,2.4409654E-2,-3.3547363E-1,-7.852394E-2,1.1426969E-1,1.932933E-2,-8.551042E-4,1.1116306E-1,-2.495418E-2,-1.1314814E-2,-2.5070775E-2,5.705359E-2,-3.154882E-1,4.3366164E-2,2.470778E-3,-8.246532E-3,1.8878303E-2,2.9426137E-2,2.1840777E-1,-5.4917885E-3,2.2059966E-2,4.773162E-2,7.2025836E-2,-8.453498E-3,2.8651085E-2,-1.7741957E-1,2.509956E-2,-1.2068784E-2,1.1145214E-2,8.729997E-3,2.8410604E-2,-6.2952034E-2,-1.4609034E-1,7.0530763E-3,1.6061607E-1,-1.0440088E-3,-1.5665083E-1,-9.999691E-3,-2.5705877E-1,-2.3000682E-2,-6.9057783E-3,1.8061358E-2,-3.3827373E-1,-2.7404803E-1,7.059408E-2,-6.777985E-2,3.360077E-1,-3.1939188E-1,-8.505767E-2,2.3361677E-1,-1.5132947E-1,-1.6246992E-1,2.392355E-1,-1.778672E-1,2.2425608E-1,2.8157872E-1,-1.4548178E-1,-3.1163287E-1,6.999295E-2,1.5312059E-1,-4.1700155E-1,-1.1555724E-1,2.8529835E-1,-4.1603988E-1,1.1185645E-1,-7.249661E-2,3.5150218E-1,-9.818331E-2,2.7099314E-1,3.1460453E-2,-3.1963143E-1],"split_indices":[21,21,95,107,182,63,0,210,129,4,6,150,200,10,63,77,0,17,302,208,21,10,261,131,267,95,257,155,236,0,0,131,93,288,302,38,230,0,0,74,0,0,0,111,244,0,0,0,0,0,0,0,0,0,0,0,0,0,0,0,0,0,0,0,0,0,0,0,0,0,0,0,0,0,0],"split_type":[0,0,0,0,0,0,0,0,0,0,0,0,0,0,0,0,0,0,0,0,0,0,0,0,0,0,0,0,0,0,0,0,0,0,0,0,0,0,0,0,0,0,0,0,0,0,0,0,0,0,0,0,0,0,0,0,0,0,0,0,0,0,0,0,0,0,0,0,0,0,0,0,0,0,0],"sum_hessian":[2.8273984E2,2.3856158E2,4.4178265E1,3.248091E1,2.0608067E2,3.5734085E1,8.444179E0,2.2261345E1,1.0219566E1,1.498714E2,5.6209274E1,1.104878E1,2.4685307E1,8.646706E0,1.3614638E1,2.0075731E0,8.211992E0,1.13578514E2,3.6292892E1,3.7464203E1,1.874507E1,8.033658E0,3.015122E0,1.3268669E1,1.1416636E1,3.8012478E0,4.845458E0,8.949917E0,4.6647215E0,1.0035691E0,1.0040041E0,7.956713E1,3.401138E1,7.798054E0,2.8494837E1,1.4588562E1,2.287564E1,1.705357E1,1.6915002E0,7.026949E0,1.0067091E0,1.027158E0,1.9879639E0,4.91874E0,8.34993E0,1.1064581E0,1.0310179E1,2.5361464E0,1.2651016E0,1.809737E0,3.0357213E0,7.583856E0,1.3660607E0,1.7981466E0,2.8665748E0,7.0992723E0,7.2467865E1,1.9146006E1,1.4865375E1,6.1567593E0,1.6412953E0,1.6989937E1,1.1504899E1,8.784149E0,5.804413E0,5.518314E0,1.7357327E1,1.5318218E1,1.7353516E0,1.1097543E0,5.917195E0,2.187274E0,2.7314658E0,2.8937728E0,5.4561567E0],"tree_param":{"num_deleted":"0","num_feature":"309","num_nodes":"75","size_leaf_vector":"1"}},{"base_weights":[-2.8173372E-2,-7.877225E-1,1.6333554E-2,1.2470544E-1,-9.267525E-1,5.5617977E-2,-9.664994E-1,-4.6201733E-1,-4.0733826E-1,-3.668041E-1,1.2486507E-1,-3.3101175E-2,-1.053967E0,1.6011515E-1,-7.1218055E-1,-6.726023E-1,3.6114758E-1,-2.0207033E-1,2.8209865E-1,-9.6943505E-2,-3.4928286E-1,-2.838772E-1,-7.565437E-3,1.02427006E-1,-1.0150689E0,9.172879E-1,-3.010222E-1,-1.0318953E0,1.469269E-1,-3.1047026E-2,4.9804312E-1,-2.2915186E-1,2.1342209E-1,-3.4311065E-1,9.612623E-2,3.6486545E-1,-5.8874298E-2,-2.9835713E-1,1.0853713E-1,4.8488762E-2,-3.8217452E-1,1.7436102E-1,-1.1313456E-1,8.8237375E-2,-1.991715E-1,2.025621E-1,-4.0494762E-2],"categories":[],"categories_nodes":[],"categories_segments":[],"categories_sizes":[],"default_left":[0,0,0,0,0,0,0,0,0,0,0,0,0,0,0,0,0,0,0,0,0,0,0,0,0,0,0,0,0,0,0,0,0,0,0,0,0,0,0,0,0,0,0,0,0,0,0],"id":6,"left_children":[1,3,5,-1,7,9,11,13,-1,15,17,-1,19,-1,21,23,25,27,29,-1,-1,-1,-1,31,33,35,37,39,41,43,45,-1,-1,-1,-1,-1,-1,-1,-1,-1,-1,-1,-1,-1,-1,-1,-1],"loss_changes":[8.922173E0,2.829382E0,9.70394E0,0E0,2.058014E0,7.103579E0,6.071625E-1,2.3644714E0,0E0,7.8640413E0,1.0751514E1,0E0,3.2096386E-1,0E0,1.0688035E0,6.595599E0,4.245268E0,1.988673E1,9.5433235E0,0E0,0E0,0E0,0E0,4.9766545E0,3.2961674E0,2.2708998E0,2.9674559E0,6.0694733E0,1.13353615E1,1.2223163E1,9.450056E0,0E0,0E0,0E0,0E0,0E0,0E0,0E0,0E0,0E0,0E0,0E0,0E0,0E0,0E0,0E0,0E0],"parents":[2147483647,0,0,1,1,2,2,4,4,5,5,6,6,7,7,9,9,10,10,12,12,14,14,15,15,16,16,17,17,18,18,23,23,24,24,25,25,26,26,27,27,28,28,29,29,30,30],"right_children":[2,4,6,-1,8,10,12,14,-1,16,18,-1,20,-1,22,24,26,28,30,-1,-1,-1,-1,32,34,36,38,40,42,44,46,-1,-1,-1,-1,-1,-1,-1,-1,-1,-1,-1,-1,-1,-1,-1,-1],"split_conditions":[-2.402192E-2,-3.1730738E-2,2.8025236E-2,1.2470544E-1,-4.298871E-2,-2.7252253E-2,-5.0659742E-2,1.1605234E-1,-4.0733826E-1,-2.7601353E-3,-1.4071398E-2,-3.3101175E-2,2.3357542E-3,1.6011515E-1,9.0005726E-2,-3.5667356E-2,-1.3161696E-2,8.551042E-4,-2.3986392E-2,-9.6943505E-2,-3.4928286E-1,-2.838772E-1,-7.565437E-3,4.1260566E-3,3.720093E-4,2.6503166E-2,-6.056579E-3,7.699962E-3,1.4636584E-2,2.8253908E-3,2.0396646E-2,-2.2915186E-1,2.1342209E-1,-3.4311065E-1,9.612623E-2,3.6486545E-1,-5.8874298E-2,-2.9835713E-1,1.0853713E-1,4.8488762E-2,-3.8217452E-1,1.7436102E-1,-1.1313456E-1,8.8237375E-2,-1.991715E-1,2.025621E-1,-4.0494762E-2],"split_indices":[240,126,240,0,285,4,182,150,0,302,182,0,113,0,210,302,10,6,257,0,0,0,0,41,305,92,266,303,90,129,21,0,0,0,0,0,0,0,0,0,0,0,0,0,0,0,0],"split_type":[0,0,0,0,0,0,0,0,0,0,0,0,0,0,0,0,0,0,0,0,0,0,0,0,0,0,0,0,0,0,0,0,0,0,0,0,0,0,0,0,0,0,0,0,0,0,0],"sum_hessian":[2.6254837E2,1.360851E1,2.4893987E2,1.203286E0,1.2405224E1,2.4027917E2,8.660692E0,6.9662747E0,5.4389496E0,3.323592E1,2.0704326E2,1.0124037E0,7.6482887E0,1.1711649E0,5.7951097E0,2.3457794E1,9.778125E0,6.714457E1,1.3989868E2,1.5183487E0,6.12994E0,4.040792E0,1.7543175E0,7.4036527E0,1.6054142E1,5.105154E0,4.672971E0,1.929924E1,4.7845333E1,5.7448135E1,8.245055E1,2.9512467E0,4.4524055E0,1.4774668E1,1.2794744E0,3.9520164E0,1.1531379E0,2.03905E0,2.6339204E0,3.3096778E0,1.5989562E1,2.6103851E1,2.174148E1,3.830283E1,1.9145306E1,6.436906E1,1.8081495E1],"tree_param":{"num_deleted":"0","num_feature":"309","num_nodes":"47","size_leaf_vector":"1"}},{"base_weights":[-2.6479218E-2,-9.2712253E-1,4.597883E-3,-1.165919E0,-2.5092723E-2,-4.1147655E-1,7.581476E-2,-5.2062266E-2,-4.010817E-1,-8.0091584E-1,-1.21799484E-1,1.270484E-1,-6.4702106E-1,-1.5023047E-1,-1.1000601E0,2.8553054E-1,-6.4419717E-1,9.8778266E-1,8.277766E-2,2.4211441E-1,-8.952183E-1,2.709665E-1,-2.6380765E-1,-8.555498E-2,-3.4780008E-1,6.098501E-1,-5.142711E-1,3.7595797E-2,-8.281666E-1,-1.0526022E-1,1.202241E0,-2.4770457E-1,1.9919574E-1,-4.8868728E-1,-4.4524223E-1,-1.01620905E-1,2.872808E-1,3.777638E-2,-2.6523143E-1,-3.0255815E-1,-4.4396058E-2,7.347553E-2,4.0592593E-1,-2.2456859E-1,4.4377293E-2,1.186943E-1,-2.4678051E-2,3.939563E-2,-2.5632378E-1],"categories":[],"categories_nodes":[],"categories_segments":[],"categories_sizes":[],"default_left":[0,0,0,0,0,0,0,0,0,0,0,0,0,0,0,0,0,0,0,0,0,0,0,0,0,0,0,0,0,0,0,0,0,0,0,0,0,0,0,0,0,0,0,0,0,0,0,0,0],"id":7,"left_children":[1,3,5,7,-1,9,11,-1,-1,13,15,17,19,21,23,25,27,29,31,-1,33,-1,-1,-1,-1,35,37,-1,39,-1,41,43,45,-1,47,-1,-1,-1,-1,-1,-1,-1,-1,-1,-1,-1,-1,-1,-1],"loss_changes":[6.9927225E0,1.5809088E0,7.212381E0,8.570719E-1,0E0,3.9156775E0,7.776838E0,0E0,0E0,2.7534943E0,4.775824E0,7.3433924E0,5.744787E0,5.3112826E0,1.5789986E-1,3.6385293E0,1.4856982E0,3.1320705E0,7.2216144E0,0E0,3.35598E0,0E0,0E0,0E0,0E0,3.4837158E0,1.1153641E0,0E0,8.3334064E-1,0E0,8.7626934E-1,9.821823E0,7.6856017E0,0E0,2.2444673E0,0E0,0E0,0E0,0E0,0E0,0E0,0E0,0E0,0E0,0E0,0E0,0E0,0E0,0E0],"parents":[2147483647,0,0,1,1,2,2,3,3,5,5,6,6,9,9,10,10,11,11,12,12,13,13,14,14,15,15,16,16,17,17,18,18,20,20,25,25,26,26,28,28,30,30,31,31,32,32,34,34],"right_children":[2,4,6,8,-1,10,12,-1,-1,14,16,18,20,22,24,26,28,30,32,-1,34,-1,-1,-1,-1,36,38,-1,40,-1,42,44,46,-1,48,-1,-1,-1,-1,-1,-1,-1,-1,-1,-1,-1,-1,-1,-1],"split_conditions":[-5.0854826E-1,5.0659742E-2,-4.172978E-2,2.870536E-2,-2.5092723E-2,2.0818373E-2,1.8061874E-2,-5.2062266E-2,-4.010817E-1,3.876739E-3,3.6958247E-2,-4.9878087E-2,-7.62668E-2,-9.989254E-3,-2.7682256E-2,2.4707602E-2,-2.7204758E-2,-1.5941393E-1,-1.4071398E-2,2.4211441E-1,-5.677425E-3,2.709665E-1,-2.6380765E-1,-8.555498E-2,-3.4780008E-1,1.3725348E-2,1.6856177E-1,3.7595797E-2,1.2367929E-1,-1.0526022E-1,-3.3892274E-2,5.3667417E-3,1.2719864E-2,-4.8868728E-1,4.3084785E-2,-1.01620905E-1,2.872808E-1,3.777638E-2,-2.6523143E-1,-3.0255815E-1,-4.4396058E-2,7.347553E-2,4.0592593E-1,-2.2456859E-1,4.4377293E-2,1.186943E-1,-2.4678051E-2,3.939563E-2,-2.5632378E-1],"split_indices":[153,182,21,287,0,176,131,0,0,93,288,241,303,74,4,240,80,308,182,0,26,0,0,0,0,232,38,0,218,0,4,18,63,0,128,0,0,0,0,0,0,0,0,0,0,0,0,0,0],"split_type":[0,0,0,0,0,0,0,0,0,0,0,0,0,0,0,0,0,0,0,0,0,0,0,0,0,0,0,0,0,0,0,0,0,0,0,0,0,0,0,0,0,0,0,0,0,0,0,0,0],"sum_hessian":[2.486825E2,7.3329782E0,2.4134952E2,5.4170837E0,1.9158945E0,3.4574596E1,2.0677492E2,1.0924816E0,4.324602E0,1.3994993E1,2.0579601E1,1.938587E2,1.291621E1,4.880766E0,9.114227E0,1.1818088E1,8.761515E0,8.44057E0,1.8541814E2,1.5549371E0,1.1361273E1,1.8987148E0,2.9820514E0,1.0120556E0,8.102172E0,8.5774355E0,3.240652E0,1.7519934E0,7.009521E0,1.0776719E0,7.362898E0,4.800789E1,1.3741025E2,3.3228598E0,8.038413E0,2.3079157E0,6.26952E0,1.4280967E0,1.8125554E0,5.1588364E0,1.8506849E0,1.3593813E0,6.0035167E0,2.0792704E1,2.7215183E1,8.068656E1,5.6723694E1,3.6185644E0,4.419849E0],"tree_param":{"num_deleted":"0","num_feature":"309","num_nodes":"49","size_leaf_vector":"1"}},{"base_weights":[-2.6707087E-2,-6.670422E-1,1.0913255E-2,1.1769326E-1,-8.16785E-1,1.08033165E-1,-2.6107168E-1,-1.0730618E0,-1.415579E-1,1.9579773E-1,-3.0051303E-1,-5.5951746E-3,-8.578202E-1,-3.4726202E-1,-1.00635156E-1,-2.2137122E-1,1.5132526E-1,-1.1730841E-1,3.331101E-1,-6.444739E-1,3.2391617E-1,-8.751941E-1,1.4450681E-1,1.5797304E-1,-1.0546312E0,5.757148E-1,-3.4239006E-1,4.9737132E-1,-1.7653883E-1,-9.279698E-1,1.387838E-1,6.386857E-1,-5.254182E-1,-1.2765839E0,1.6085927E-1,8.10926E-1,-2.1203628E-1,3.0310811E-2,-1.288623E0,-2.134841E-1,2.6857573E-1,-3.1593423E-3,-2.2235122E-1,-2.370069E-1,1.7425546E-1,-2.8051746E-1,1.3806209E-1,-4.2637676E-1,1.8156966E-2,-2.563442E-1,2.3368995E-1,-1.9120479E-1,2.65964E-1,1.9451989E-1,-3.676709E-1,-1.0581686E-1,-4.2830634E-1,3.3589482E-1,8.471418E-3,-1.2758029E-1,1.21273965E-1,1.516205E-1,-1.7462352E-1,-4.1134354E-1,-7.2822325E-2],"categories":[],"categories_nodes":[],"categories_segments":[],"categories_sizes":[],"default_left":[0,0,0,0,0,0,0,0,0,0,0,0,0,0,0,0,0,0,0,0,0,0,0,0,0,0,0,0,0,0,0,0,0,0,0,0,0,0,0,0,0,0,0,0,0,0,0,0,0,0,0,0,0,0,0,0,0,0,0,0,0,0,0,0,0],"id":8,"left_children":[1,3,5,-1,7,9,11,13,15,17,19,21,23,-1,-1,-1,-1,25,27,29,31,33,35,-1,37,39,41,43,45,47,49,51,53,55,-1,57,59,61,63,-1,-1,-1,-1,-1,-1,-1,-1,-1,-1,-1,-1,-1,-1,-1,-1,-1,-1,-1,-1,-1,-1,-1,-1,-1,-1],"loss_changes":[5.77654E0,2.4311213E0,6.029352E0,0E0,1.9215751E0,6.0867634E0,9.153255E0,1.4345837E-1,2.0859053E0,6.014822E0,6.678548E0,5.74825E0,5.4600096E0,0E0,0E0,0E0,0E0,6.9220347E0,8.198194E0,4.5160913E0,3.3739076E0,4.3564496E0,9.103062E0,0E0,4.124691E0,5.1381626E0,4.3818536E0,8.361109E0,1.2191935E1,7.223362E0,4.557612E0,3.3303266E0,3.7711244E0,2.4219227E-1,0E0,3.1840734E0,3.4939308E0,1.4091176E0,8.1173515E-1,0E0,0E0,0E0,0E0,0E0,0E0,0E0,0E0,0E0,0E0,0E0,0E0,0E0,0E0,0E0,0E0,0E0,0E0,0E0,0E0,0E0,0E0,0E0,0E0,0E0,0E0],"parents":[2147483647,0,0,1,1,2,2,4,4,5,5,6,6,7,7,8,8,9,9,10,10,11,11,12,12,17,17,18,18,19,19,20,20,21,21,22,22,24,24,25,25,26,26,27,27,28,28,29,29,30,30,31,31,32,32,33,33,35,35,36,36,37,37,38,38],"right_children":[2,4,6,-1,8,10,12,14,16,18,20,22,24,-1,-1,-1,-1,26,28,30,32,34,36,-1,38,40,42,44,46,48,50,52,54,56,-1,58,60,62,64,-1,-1,-1,-1,-1,-1,-1,-1,-1,-1,-1,-1,-1,-1,-1,-1,-1,-1,-1,-1,-1,-1,-1,-1,-1,-1],"split_conditions":[-2.3283258E-2,-4.6341453E-2,1.7560741E-2,1.1769326E-1,8.24515E-2,9.909778E-3,3.6099711E-3,1.7437113E-2,-2.73296E-2,-3.9997473E-2,2.3339657E-2,-3.285254E-2,-9.342996E-2,-3.4726202E-1,-1.00635156E-1,-2.2137122E-1,1.5132526E-1,-1.06282234E-1,7.8818435E-3,9.101911E-3,1.732103E-2,9.1394715E-2,4.403337E-2,1.5797304E-1,-1.3198956E-2,-7.146001E-2,2.11914E-2,-1.7207544E-2,1.0313792E-2,2.4153676E-3,1.1751097E-2,-1.3738914E-1,-2.6837422E-2,2.8822443E-2,1.6085927E-1,-1.0535851E-2,-1.45531725E-2,4.1181628E-2,1.3174161E-1,-2.134841E-1,2.6857573E-1,-3.1593423E-3,-2.2235122E-1,-2.370069E-1,1.7425546E-1,-2.8051746E-1,1.3806209E-1,-4.2637676E-1,1.8156966E-2,-2.563442E-1,2.3368995E-1,-1.9120479E-1,2.65964E-1,1.9451989E-1,-3.676709E-1,-1.0581686E-1,-4.2830634E-1,3.3589482E-1,8.471418E-3,-1.2758029E-1,1.21273965E-1,1.516205E-1,-1.7462352E-1,-4.1134354E-1,-7.2822325E-2],"split_indices":[231,303,288,0,248,131,50,212,231,243,117,219,33,0,0,0,0,86,231,24,272,280,3,0,152,3,0,131,177,152,190,129,209,14,0,41,73,180,6,0,0,0,0,0,0,0,0,0,0,0,0,0,0,0,0,0,0,0,0,0,0,0,0,0,0],"split_type":[0,0,0,0,0,0,0,0,0,0,0,0,0,0,0,0,0,0,0,0,0,0,0,0,0,0,0,0,0,0,0,0,0,0,0,0,0,0,0,0,0,0,0,0,0,0,0,0,0,0,0,0,0,0,0,0,0,0,0,0,0,0,0,0,0],"sum_hessian":[2.3849149E2,1.230569E1,2.261858E2,1.3234019E0,1.0982287E1,1.6711534E2,5.907046E1,7.5337343E0,3.4485536E0,1.3799234E2,2.9122995E1,4.206935E1,1.700111E1,6.248758E0,1.2849764E0,1.7191621E0,1.7293913E0,4.2112076E1,9.588027E1,1.8758148E1,1.0364848E1,5.4816084E0,3.658774E1,1.9075547E0,1.50935545E1,9.942244E0,3.216983E1,7.252829E1,2.3351978E1,1.3637405E1,5.120743E0,7.7431836E0,2.6216643E0,4.3422246E0,1.1393839E0,1.2308102E1,2.4279642E1,2.8321722E0,1.2261383E1,1.7330903E0,8.209153E0,1.8118397E1,1.40514345E1,3.9012556E0,6.862704E1,1.044315E1,1.2908829E1,8.805441E0,4.831965E0,1.8757343E0,3.2450082E0,1.0038378E0,6.7393456E0,1.0071211E0,1.6145432E0,1.079062E0,3.2631624E0,8.5178175E0,3.7902846E0,1.8268696E1,6.0109453E0,1.6932533E0,1.1389189E0,1.1076436E1,1.1849473E0],"tree_param":{"num_deleted":"0","num_feature":"309","num_nodes":"65","size_leaf_vector":"1"}},{"base_weights":[-2.6384497E-2,1.1572683E-5,-8.4644616E-1,2.192351E-2,-2.91785E-1,-9.734105E-1,-1.4307309E-2,-4.3311186E-2,4.2838055E-1,-7.971755E-2,-3.1940353E-1,8.899523E-3,-8.114219E-1,-1.3562511E-1,6.7995316E-1,1.6984802E-1,-2.7056003E-1,-1.4821512E0,7.8248835E-1,5.012737E-1,-8.722789E-1,-9.4184175E-2,7.9773766E-1,1.153845E-1,-2.3673486E-2,-1.7581651E-2,-2.9837376E-1,1.4482339E-2,-5.069914E-1,2.8783286E-1,4.171803E-2,-1.725586E-1,2.7706447E-1,-3.860635E-1,1.385703E-2,-1.18098676E-1,2.6932445E-1],"categories":[],"categories_nodes":[],"categories_segments":[],"categories_sizes":[],"default_left":[0,0,0,0,0,0,0,0,0,0,0,0,0,0,0,0,0,0,0,0,0,0,0,0,0,0,0,0,0,0,0,0,0,0,0,0,0],"id":9,"left_children":[1,3,5,7,-1,9,-1,11,13,-1,-1,15,17,19,21,23,25,27,29,31,33,-1,35,-1,-1,-1,-1,-1,-1,-1,-1,-1,-1,-1,-1,-1,-1],"loss_changes":[4.902223E0,4.7186437E0,6.697812E-1,5.759803E0,0E0,1.0734177E-1,0E0,7.526248E0,4.3541837E0,0E0,0E0,7.9867487E0,1.3928846E1,5.175455E0,2.7016249E0,6.0482416E0,9.901976E0,2.865179E0,3.4386826E-1,3.2819295E0,1.9816036E0,0E0,2.61759E0,0E0,0E0,0E0,0E0,0E0,0E0,0E0,0E0,0E0,0E0,0E0,0E0,0E0,0E0],"parents":[2147483647,0,0,1,1,2,2,3,3,5,5,7,7,8,8,11,11,12,12,13,13,14,14,15,15,16,16,17,17,18,18,19,19,20,20,22,22],"right_children":[2,4,6,8,-1,10,-1,12,14,-1,-1,16,18,20,22,24,26,28,30,32,34,-1,36,-1,-1,-1,-1,-1,-1,-1,-1,-1,-1,-1,-1,-1,-1],"split_conditions":[2.8762126E-2,2.3019777E-1,2.2026481E-2,2.9850524E-2,-2.91785E-1,-4.0352997E-1,-1.4307309E-2,3.8948447E-2,-4.595628E-2,-7.971755E-2,-3.1940353E-1,2.9271273E-2,7.984054E-3,-8.172932E-2,-1.20395705E-1,6.3868696E-3,1.3677211E-2,-1.7043033E-1,-2.9421996E-2,-4.6969023E-2,1.1091357E-2,-9.4184175E-2,-3.658846E-2,1.153845E-1,-2.3673486E-2,-1.7581651E-2,-2.9837376E-1,1.4482339E-2,-5.069914E-1,2.8783286E-1,4.171803E-2,-1.725586E-1,2.7706447E-1,-3.860635E-1,1.385703E-2,-1.18098676E-1,2.6932445E-1],"split_indices":[240,296,100,208,0,295,0,190,116,0,0,200,176,158,150,74,72,293,41,180,285,0,161,0,0,0,0,0,0,0,0,0,0,0,0,0,0],"split_type":[0,0,0,0,0,0,0,0,0,0,0,0,0,0,0,0,0,0,0,0,0,0,0,0,0,0,0,0,0,0,0,0,0,0,0,0,0],"sum_hessian":[2.254678E2,2.1940558E2,6.062221E0,2.1552751E2,3.87807E0,5.042105E0,1.020116E0,1.8649005E2,2.903745E1,1.0228076E0,4.0192976E0,1.755461E2,1.0943963E1,9.099034E0,1.9938417E1,1.1164111E2,6.3904984E1,7.7519855E0,3.1919773E0,5.0512943E0,4.04774E0,1.9360464E0,1.800237E1,5.962106E1,5.202005E1,5.0269638E1,1.3635346E1,1.0185922E0,6.7333937E0,2.1182718E0,1.0737053E0,1.321181E0,3.7301133E0,2.5124855E0,1.5352548E0,1.1667657E0,1.6835604E1],"tree_param":{"num_deleted":"0","num_feature":"309","num_nodes":"37","size_leaf_vector":"1"}},{"base_weights":[-2.5384404E-2,6.4533874E-3,-5.5845046E-1,-6.278049E-1,3.685816E-2,-7.385817E-1,1.6519326E-1,-2.870982E-1,-1.11152515E-1,4.6429408E-1,-2.6454654E-2,4.642561E-2,-9.556354E-1,-1.7406404E-1,1.9554152E-1,1.561293E-1,1.009329E0,-6.8499035E-1,2.2832822E-2,-1.4612679E-1,1.7156343E-1,-1.0391055E0,-4.8629712E-2,-3.548659E-1,6.100735E-1,3.379688E-1,3.3077274E-2,2.3549025E-1,-1.1521792E0,-6.270573E-1,8.932622E-2,-8.3743505E-2,-3.342084E-1,-2.6947212E-1,6.300909E-2,-8.2901575E-2,2.522021E-1,-4.075805E-1,-1.6480736E-2,1.459084E-1,-3.3895242E-1,-3.898579E-2,7.5613886E-2],"categories":[],"categories_nodes":[],"categories_segments":[],"categories_sizes":[],"default_left":[0,0,0,0,0,0,0,0,0,0,0,0,0,0,0,0,0,0,0,0,0,0,0,0,0,0,0,0,0,0,0,0,0,0,0,0,0,0,0,0,0,0,0],"id":10,"left_children":[1,3,5,7,9,11,-1,-1,13,15,17,19,21,-1,-1,23,25,27,29,-1,-1,31,-1,33,35,-1,-1,-1,37,39,41,-1,-1,-1,-1,-1,-1,-1,-1,-1,-1,-1,-1],"loss_changes":[3.7281713E0,4.03582E0,2.8800068E0,1.5219245E0,5.411302E0,1.931828E0,0E0,0E0,2.116535E0,4.1745367E0,5.68636E0,1.2185563E0,4.0942812E-1,0E0,0E0,4.312866E0,8.384123E-1,9.281287E0,7.122006E0,0E0,0E0,1.2796593E-1,0E0,2.9327836E0,2.2190614E0,0E0,0E0,0E0,2.1136036E0,9.11557E0,5.356804E0,0E0,0E0,0E0,0E0,0E0,0E0,0E0,0E0,0E0,0E0,0E0,0E0],"parents":[2147483647,0,0,1,1,2,2,3,3,4,4,5,5,8,8,9,9,10,10,11,11,12,12,15,15,16,16,17,17,18,18,21,21,23,23,24,24,28,28,29,29,30,30],"right_children":[2,4,6,8,10,12,-1,-1,14,16,18,20,22,-1,-1,24,26,28,30,-1,-1,32,-1,34,36,-1,-1,-1,38,40,42,-1,-1,-1,-1,-1,-1,-1,-1,-1,-1,-1,-1],"split_conditions":[2.3283258E-2,-1.600301E-1,4.222856E-2,1.9242167E-1,-2.9123595E-2,-1.5861848E-1,1.6519326E-1,-2.870982E-1,-4.379716E-1,5.9441734E-2,-3.8687546E-2,-1.8659957E-1,1.0036664E-2,-1.7406404E-1,1.9554152E-1,-8.110899E-2,9.629244E-3,-7.921614E-3,-7.684155E-2,-1.4612679E-1,1.7156343E-1,-1.2054468E-1,-4.8629712E-2,1.0542111E-1,-2.7317312E-2,3.379688E-1,3.3077274E-2,2.3549025E-1,4.3079544E-2,-1.6147062E-1,-1.6737254E-2,-8.3743505E-2,-3.342084E-1,-2.6947212E-1,6.300909E-2,-8.2901575E-2,2.522021E-1,-4.075805E-1,-1.6480736E-2,1.459084E-1,-3.3895242E-1,-3.898579E-2,7.5613886E-2],"split_indices":[231,135,303,192,208,32,0,0,273,83,190,32,300,0,0,124,231,284,14,0,0,12,0,226,159,0,0,0,41,223,284,0,0,0,0,0,0,0,0,0,0,0,0],"split_type":[0,0,0,0,0,0,0,0,0,0,0,0,0,0,0,0,0,0,0,0,0,0,0,0,0,0,0,0,0,0,0,0,0,0,0,0,0,0,0,0,0,0,0],"sum_hessian":[2.1845824E2,2.0707822E2,1.1380016E1,8.573917E0,1.985043E2,1.0077387E1,1.3026292E0,4.7164793E0,3.8574386E0,2.4792496E1,1.737118E2,2.3531125E0,7.724274E0,2.537142E0,1.3202964E0,1.6659569E1,8.132925E0,1.1197873E1,1.6251393E2,1.2038256E0,1.1492869E0,6.7090993E0,1.0151749E0,7.9399734E0,8.719597E0,6.9709277E0,1.1619973E0,2.5365884E0,8.661285E0,1.4301751E1,1.4821219E2,1.0261674E0,5.682932E0,3.7463021E0,4.193671E0,1.7591588E0,6.960438E0,7.089379E0,1.5719062E0,4.4592886E0,9.842463E0,6.321972E1,8.499246E1],"tree_param":{"num_deleted":"0","num_feature":"309","num_nodes":"43","size_leaf_vector":"1"}},{"base_weights":[-2.189749E-2,5.522187E-3,-5.962739E-1,6.1786074E-2,-3.3638477E-1,-7.9373395E-1,1.2906103E-1,1.7034708E-1,-1.2226315E-1,-6.134505E-1,1.8742868E-1,-9.851028E-1,5.6861605E-2,-1.0241128E-1,4.2435992E-1,-6.7688173E-1,2.9778075E-1,-6.507296E-2,-9.556185E-1,-2.6688123E-1,5.876143E-1,-6.431003E-2,-3.2521302E-1,-7.5088984E-1,1.3995293E-1,5.2211434E-1,-7.495288E-1,-1.4150839E0,1.8639308E-1,-5.376837E-1,4.6764594E-1,-2.4300425E-1,4.002046E-1,-1.1593958E0,1.0590375E-1,-2.38781E-1,9.389177E-1,6.38461E-2,-3.951941E-1,1.3397923E-1,-8.117187E-2,-8.306718E-2,1.9488887E-1,-3.3041844E-1,8.4933445E-2,-5.145868E-1,-1.0561993E-1,-2.2913823E-1,1.4864756E-1,-3.5898873E-1,8.330992E-2,-4.2761426E-2,1.893419E-1,2.620199E-1,-8.413793E-2,-3.9598188E-1,-2.9380107E-2,1.5570907E-1,-2.5135574E-1,3.3323592E-1,3.1004282E-2],"categories":[],"categories_nodes":[],"categories_segments":[],"categories_sizes":[],"default_left":[0,0,0,0,0,0,0,0,0,0,0,0,0,0,0,0,0,0,0,0,0,0,0,0,0,0,0,0,0,0,0,0,0,0,0,0,0,0,0,0,0,0,0,0,0,0,0,0,0,0,0,0,0,0,0,0,0,0,0,0,0],"id":11,"left_children":[1,3,5,7,9,11,-1,13,15,17,19,21,-1,23,25,27,29,31,33,-1,35,-1,-1,37,39,41,43,45,47,49,51,-1,53,55,-1,57,59,-1,-1,-1,-1,-1,-1,-1,-1,-1,-1,-1,-1,-1,-1,-1,-1,-1,-1,-1,-1,-1,-1,-1,-1],"loss_changes":[3.3460305E0,3.936825E0,2.3034568E0,3.5303643E0,4.3122396E0,1.7804332E0,0E0,7.726968E0,1.5518711E1,3.530964E0,5.1652246E0,3.2056952E-1,0E0,8.636428E0,7.0030394E0,1.8515797E1,5.6595993E0,3.2462986E0,3.5343056E0,0E0,2.6789193E0,0E0,0E0,8.427472E0,5.201147E0,5.6589737E0,2.070341E0,4.3601494E0,4.515437E0,4.041817E0,3.3026676E0,0E0,2.1319914E0,1.6384382E0,0E0,1.941846E0,7.663703E-1,0E0,0E0,0E0,0E0,0E0,0E0,0E0,0E0,0E0,0E0,0E0,0E0,0E0,0E0,0E0,0E0,0E0,0E0,0E0,0E0,0E0,0E0,0E0,0E0],"parents":[2147483647,0,0,1,1,2,2,3,3,4,4,5,5,7,7,8,8,9,9,10,10,11,11,13,13,14,14,15,15,16,16,17,17,18,18,20,20,23,23,24,24,25,25,26,26,27,27,28,28,29,29,30,30,32,32,33,33,35,35,36,36],"right_children":[2,4,6,8,10,12,-1,14,16,18,20,22,-1,24,26,28,30,32,34,-1,36,-1,-1,38,40,42,44,46,48,50,52,-1,54,56,-1,58,60,-1,-1,-1,-1,-1,-1,-1,-1,-1,-1,-1,-1,-1,-1,-1,-1,-1,-1,-1,-1,-1,-1,-1,-1],"split_conditions":[1.13064155E-1,2.7252253E-2,7.054429E-3,2.1818617E-2,-1.7933702E-2,8.326963E-3,1.2906103E-1,-2.613629E-2,4.149639E-2,9.748327E-3,-6.579586E-2,-3.0694695E-2,5.6861605E-2,-2.1179412E-3,3.621517E-2,6.2378184E-3,-1.01072386E-1,-1.2845968E-2,1.0925586E-1,-2.6688123E-1,2.1143384E-2,-6.431003E-2,-3.2521302E-1,-3.308509E-2,3.4480337E-2,-2.542559E-2,-3.346708E-3,2.2380032E-2,-4.8549894E-2,5.230518E-2,-4.9340077E-2,-2.4300425E-1,2.9904377E-2,4.2681616E-2,1.0590375E-1,-2.6211442E-2,1.6333003E-2,6.38461E-2,-3.951941E-1,1.3397923E-1,-8.117187E-2,-8.306718E-2,1.9488887E-1,-3.3041844E-1,8.4933445E-2,-5.145868E-1,-1.0561993E-1,-2.2913823E-1,1.4864756E-1,-3.5898873E-1,8.330992E-2,-4.2761426E-2,1.893419E-1,2.620199E-1,-8.413793E-2,-3.9598188E-1,-2.9380107E-2,1.5570907E-1,-2.5135574E-1,3.3323592E-1,3.1004282E-2],"split_indices":[249,4,21,14,5,305,0,272,148,305,200,203,0,120,272,143,248,231,218,0,225,0,0,49,170,21,182,155,9,118,21,0,50,92,0,286,288,0,0,0,0,0,0,0,0,0,0,0,0,0,0,0,0,0,0,0,0,0,0,0,0],"split_type":[0,0,0,0,0,0,0,0,0,0,0,0,0,0,0,0,0,0,0,0,0,0,0,0,0,0,0,0,0,0,0,0,0,0,0,0,0,0,0,0,0,0,0,0,0,0,0,0,0,0,0,0,0,0,0,0,0,0,0,0,0],"sum_hessian":[2.1124788E2,2.0256804E2,8.67984E0,1.7464749E2,2.792054E1,7.4696655E0,1.2101749E0,1.09898544E2,6.4748955E1,1.8149448E1,9.7710905E0,6.251173E0,1.2184924E0,5.328166E1,5.6616886E1,2.7640917E1,3.7108036E1,7.4307265E0,1.0718722E1,2.3157253E0,7.455365E0,1.0714347E0,5.1797385E0,1.3925062E1,3.9356598E1,5.277715E1,3.8397374E0,1.4555251E1,1.3085667E1,5.9040785E0,3.1203959E1,2.571943E0,4.8587837E0,9.373188E0,1.3455342E0,2.3194535E0,5.135912E0,5.385862E0,8.5392E0,2.247838E1,1.6878216E1,7.1023955E0,4.567475E1,2.8142257E0,1.0255116E0,1.0871453E1,3.683798E0,2.8508759E0,1.0234791E1,3.0066848E0,2.8973935E0,6.6211104E0,2.4582848E1,2.6991725E0,2.159611E0,7.9302464E0,1.4429418E0,1.083041E0,1.2364125E0,3.9865434E0,1.1493684E0],"tree_param":{"num_deleted":"0","num_feature":"309","num_nodes":"61","size_leaf_vector":"1"}},{"base_weights":[-2.5946649E-2,-2.6159254E-1,-7.96025E-3,1.3001667E-2,-6.7002916E-1,4.479171E-1,-2.6229572E-2,-3.0294585E-1,3.0799799E-2,5.9690243E-1,-1.695033E-1,-3.0945686E-1,4.919266E-2,-1.0076218E-1,7.668618E-1,-6.7504996E-1,-2.6306998E-2,-2.6568663E-1,1.2347652E-1,-9.560464E-2,2.685935E-1,-5.479793E-2,-3.6784744E-1,-1.2970024E-1,1.5230928E-1,6.1693728E-2,-2.0959412E-1,5.778307E-2,-1.3583346E-1],"categories":[],"categories_nodes":[],"categories_segments":[],"categories_sizes":[],"default_left":[0,0,0,0,0,0,0,0,0,0,0,0,0,0,0,0,0,0,0,0,0,0,0,0,0,0,0,0,0],"id":12,"left_children":[1,-1,3,5,7,9,11,-1,-1,13,-1,15,17,-1,19,21,23,25,27,-1,-1,-1,-1,-1,-1,-1,-1,-1,-1],"loss_changes":[3.0192215E0,0E0,2.725188E0,3.265701E0,1.6858535E0,2.726914E0,3.7722118E0,0E0,0E0,2.5231323E0,0E0,3.825119E0,3.3016827E0,0E0,2.0133357E0,4.1617813E0,4.9810505E0,5.652172E0,4.61922E0,0E0,0E0,0E0,0E0,0E0,0E0,0E0,0E0,0E0,0E0],"parents":[2147483647,0,0,2,2,3,3,4,4,5,5,6,6,9,9,11,11,12,12,14,14,15,15,16,16,17,17,18,18],"right_children":[2,-1,4,6,8,10,12,-1,-1,14,-1,16,18,-1,20,22,24,26,28,-1,-1,-1,-1,-1,-1,-1,-1,-1,-1],"split_conditions":[-2.3019777E-1,-2.6159254E-1,5.2426726E-1,-7.177638E-2,-2.3882456E-2,5.9195384E-2,-1.7869761E-2,-3.0294585E-1,3.0799799E-2,-6.607953E-3,-1.695033E-1,-1.721262E-2,-1.932933E-2,-1.0076218E-1,-1.7702779E-1,-9.7933605E-2,1.4558456E-2,9.774332E-3,9.628868E-3,-9.560464E-2,2.685935E-1,-5.479793E-2,-3.6784744E-1,-1.2970024E-1,1.5230928E-1,6.1693728E-2,-2.0959412E-1,5.778307E-2,-1.3583346E-1],"split_indices":[296,0,153,184,41,159,202,0,0,92,0,169,4,0,308,237,160,10,22,0,0,0,0,0,0,0,0,0,0],"split_type":[0,0,0,0,0,0,0,0,0,0,0,0,0,0,0,0,0,0,0,0,0,0,0,0,0,0,0,0,0],"sum_hessian":[1.9786713E2,3.1306503E0,1.9473648E2,1.8971037E2,5.026102E0,1.4834835E1,1.7487555E2,3.2778137E0,1.7482882E0,1.3290703E1,1.5441315E0,3.6122925E1,1.3875262E2,1.8979748E0,1.1392728E1,1.5162092E1,2.0960833E1,2.599341E1,1.1275921E2,1.0487384E0,1.034399E1,8.710815E0,6.4512773E0,1.2015394E1,8.945439E0,1.2696588E1,1.32968235E1,1.0127493E2,1.1484275E1],"tree_param":{"num_deleted":"0","num_feature":"309","num_nodes":"29","size_leaf_vector":"1"}},{"base_weights":[-2.5117138E-2,-6.2566817E-1,-4.833886E-3,-2.8646508E-1,3.2087784E-2,-7.093544E-2,3.422962E-1,7.0335544E-3,-4.2528534E-1,-6.074274E-1,4.9128804E-1,-4.9889874E-1,7.7526785E-2,-9.03332E-1,1.1505606E-1,-3.0896986E-1,9.027558E-2,6.202279E-1,-3.8536474E-1,-9.5854855E-1,4.1301955E-2,2.1085884E-2,6.734343E-1,-1.464006E0,-2.546294E-1,-4.016076E-1,8.099974E-1,9.3022816E-2,8.396712E-1,-2.3473577E-1,1.11752294E-1,-1.0873441E-1,-4.1626477E-1,2.191504E-1,-1.696734E-1,-5.7980735E-2,5.894844E-2,-1.7770885E-1,2.7506748E-1,-6.693262E-2,-4.8765036E-1,-1.8323323E-1,1.3122773E-1,1.354617E-1,-1.876146E-1,2.999954E-1,-1.3863407E-2,-2.1024214E-1,2.2095391E-1,2.8330025E-1,-3.9931238E-2],"categories":[],"categories_nodes":[],"categories_segments":[],"categories_sizes":[],"default_left":[0,0,0,0,0,0,0,0,0,0,0,0,0,0,0,0,0,0,0,0,0,0,0,0,0,0,0,0,0,0,0,0,0,0,0,0,0,0,0,0,0,0,0,0,0,0,0,0,0,0,0],"id":13,"left_children":[1,3,5,-1,-1,7,9,11,13,15,17,19,21,23,25,-1,-1,27,29,31,33,35,37,39,41,43,45,47,49,-1,-1,-1,-1,-1,-1,-1,-1,-1,-1,-1,-1,-1,-1,-1,-1,-1,-1,-1,-1,-1,-1],"loss_changes":[2.3665988E0,1.633167E0,4.3652797E0,0E0,0E0,4.4166265E0,4.6048784E0,4.743689E0,7.550286E0,2.0652602E0,3.2751374E0,4.0789514E0,3.9093304E0,5.2314024E0,5.502465E0,0E0,0E0,2.6752453E0,1.5135431E0,1.7552958E0,3.9421635E0,4.0835085E0,3.6434941E0,1.2514286E0,2.326201E0,1.988924E0,1.1003299E0,4.66364E0,1.8239279E0,0E0,0E0,0E0,0E0,0E0,0E0,0E0,0E0,0E0,0E0,0E0,0E0,0E0,0E0,0E0,0E0,0E0,0E0,0E0,0E0,0E0,0E0],"parents":[2147483647,0,0,1,1,2,2,5,5,6,6,7,7,8,8,9,9,10,10,11,11,12,12,13,13,14,14,17,17,18,18,19,19,20,20,21,21,22,22,23,23,24,24,25,25,26,26,27,27,28,28],"right_children":[2,4,6,-1,-1,8,10,12,14,16,18,20,22,24,26,-1,-1,28,30,32,34,36,38,40,42,44,46,48,50,-1,-1,-1,-1,-1,-1,-1,-1,-1,-1,-1,-1,-1,-1,-1,-1,-1,-1,-1,-1,-1,-1],"split_conditions":[-5.0854826E-1,-3.1358045E-2,1.2635337E-1,-2.8646508E-1,3.2087784E-2,1.9238735E-2,-3.2460343E-2,-3.782369E-2,7.6543377E-3,6.3197664E-3,4.2537935E-2,2.4693657E-3,1.3087265E-2,4.1488998E-2,-2.9824987E-2,-3.0896986E-1,9.027558E-2,-2.6993375E-2,9.924891E-3,-3.9666343E-2,2.8860627E-2,-1.82053E-2,-1.0719225E-1,-1.8290626E-2,-5.8745652E-2,-3.6297128E-2,1.3596842E-1,-1.165077E-2,1.2628424E-1,-2.3473577E-1,1.11752294E-1,-1.0873441E-1,-4.1626477E-1,2.191504E-1,-1.696734E-1,-5.7980735E-2,5.894844E-2,-1.7770885E-1,2.7506748E-1,-6.693262E-2,-4.8765036E-1,-1.8323323E-1,1.3122773E-1,1.354617E-1,-1.876146E-1,2.999954E-1,-1.3863407E-2,-2.1024214E-1,2.2095391E-1,2.8330025E-1,-3.9931238E-2],"split_indices":[153,178,138,0,0,170,90,178,12,41,207,21,170,119,189,0,0,288,72,79,21,159,201,264,197,130,35,93,122,0,0,0,0,0,0,0,0,0,0,0,0,0,0,0,0,0,0,0,0,0,0],"split_type":[0,0,0,0,0,0,0,0,0,0,0,0,0,0,0,0,0,0,0,0,0,0,0,0,0,0,0,0,0,0,0,0,0,0,0,0,0,0,0,0,0,0,0,0,0,0,0,0,0,0,0],"sum_hessian":[1.9353233E2,5.347772E0,1.8818456E2,3.4804292E0,1.8673432E0,1.5875047E2,2.9434092E1,1.309231E2,2.7827372E1,3.574177E0,2.5859913E1,1.5267863E1,1.15655235E2,1.4408349E1,1.3419023E1,2.3482065E0,1.2259705E0,2.2799084E1,3.06083E0,7.8305335E0,7.43733E0,1.065946E2,9.0606365E0,7.0544033E0,7.353946E0,7.9388638E0,5.480159E0,7.119244E0,1.5679839E1,1.9872013E0,1.0736287E0,4.049115E0,3.7814183E0,3.387096E0,4.050234E0,4.7925888E1,5.866871E1,1.2303902E0,7.830246E0,1.0866119E0,5.9677916E0,4.9328356E0,2.4211104E0,1.4381278E0,6.500736E0,4.347545E0,1.1326138E0,3.1474178E0,3.9718263E0,1.4183089E1,1.4967506E0],"tree_param":{"num_deleted":"0","num_feature":"309","num_nodes":"51","size_leaf_vector":"1"}},{"base_weights":[-2.2407964E-2,2.2592707E-2,-3.0779904E-1,5.0948463E-2,-6.0105956E-1,-8.856025E-1,-8.796066E-2,-6.7576313E-1,7.0281506E-2,-8.2762223E-1,2.3081366E-2,4.280325E-2,-3.254683E-1,-6.492927E-1,3.194216E-1,-1.8604957E-2,-2.5559393E-1,4.8180646E-1,1.2426137E-2,-2.8296608E-1,-8.10081E-2,-8.231411E-1,9.328672E-2,6.423393E-1,-2.3538253E-1,-1.5598471E-1,6.139862E-1,-4.8352265E-1,5.93379E-2,-3.5666167E-3,-9.650999E-1,-4.2144686E-2,7.8533566E-1,-2.2063391E-1,3.3299237E-1,2.4334489E-1,4.924362E-2,4.518839E-2,-2.7045086E-1,-1.9600147E-2,7.001864E-2,-1.0388661E-1,-3.345604E-1,1.6099788E-2,2.7629074E-1,-3.341078E-2,1.8602782E-1],"categories":[],"categories_nodes":[],"categories_segments":[],"categories_sizes":[],"default_left":[0,0,0,0,0,0,0,0,0,0,0,0,0,0,0,0,0,0,0,0,0,0,0,0,0,0,0,0,0,0,0,0,0,0,0,0,0,0,0,0,0,0,0,0,0,0,0],"id":14,"left_children":[1,3,5,7,9,11,13,15,17,19,-1,-1,-1,21,23,-1,-1,25,27,-1,-1,29,-1,31,33,-1,35,37,39,-1,41,-1,43,-1,45,-1,-1,-1,-1,-1,-1,-1,-1,-1,-1,-1,-1],"loss_changes":[2.4054213E0,2.8998852E0,3.161869E0,2.2408562E0,1.1595831E0,1.5727353E0,4.6862693E0,3.948933E-1,3.6362185E0,9.546924E-2,0E0,0E0,0E0,1.6860209E0,2.3045812E0,0E0,0E0,2.8124566E0,3.1730032E0,0E0,0E0,8.554201E-1,0E0,9.90819E-1,1.7097561E0,0E0,1.3828607E0,3.260391E0,2.7138462E0,0E0,2.0771551E-1,0E0,6.2565374E-1,0E0,4.64613E-1,0E0,0E0,0E0,0E0,0E0,0E0,0E0,0E0,0E0,0E0,0E0,0E0],"parents":[2147483647,0,0,1,1,2,2,3,3,4,4,5,5,6,6,7,7,8,8,9,9,13,13,14,14,17,17,18,18,21,21,23,23,24,24,26,26,27,27,28,28,30,30,32,32,34,34],"right_children":[2,4,6,8,10,12,14,16,18,20,-1,-1,-1,22,24,-1,-1,26,28,-1,-1,30,-1,32,34,-1,36,38,40,-1,42,-1,44,-1,46,-1,-1,-1,-1,-1,-1,-1,-1,-1,-1,-1,-1],"split_conditions":[2.7252253E-2,1.13064155E-1,-2.5012959E-2,-2.8762126E-2,-1.301956E-3,7.298635E-3,-7.8818435E-3,-9.1949946E-1,-2.2293821E-2,2.594213E-2,2.3081366E-2,4.280325E-2,-3.254683E-1,1.0672155E-2,8.729997E-3,-1.8604957E-2,-2.5559393E-1,-6.596739E-2,-1.5447938E-2,-2.8296608E-1,-8.10081E-2,-1.30264E-3,9.328672E-2,-7.611889E-2,5.163715E-2,-1.5598471E-1,-1.7471682E-2,6.398925E-3,6.0454546E-3,-3.5666167E-3,-3.152731E-2,-4.2144686E-2,-1.3720898E-1,-2.2063391E-1,-4.5590293E-2,2.4334489E-1,4.924362E-2,4.518839E-2,-2.7045086E-1,-1.9600147E-2,7.001864E-2,-1.0388661E-1,-3.345604E-1,1.6099788E-2,2.7629074E-1,-3.341078E-2,1.8602782E-1],"split_indices":[4,249,10,240,302,130,231,13,259,170,0,0,0,264,288,0,0,168,259,0,0,295,0,266,2,0,289,151,91,0,269,0,107,0,168,0,0,0,0,0,0,0,0,0,0,0,0],"split_type":[0,0,0,0,0,0,0,0,0,0,0,0,0,0,0,0,0,0,0,0,0,0,0,0,0,0,0,0,0,0,0,0,0,0,0,0,0,0,0,0,0,0,0,0,0,0,0],"sum_hessian":[1.8575595E2,1.6125066E2,2.4505285E1,1.5511626E2,6.134404E0,5.9192457E0,1.858604E1,3.1398108E0,1.5197644E2,4.4325256E0,1.7018789E0,1.0070869E0,4.912159E0,7.5664334E0,1.1019607E1,1.0019706E0,2.13784E0,1.7829256E1,1.3414719E2,3.098561E0,1.3339645E0,6.5274525E0,1.038981E0,6.865715E0,4.1538916E0,1.73634E0,1.6092916E1,1.0788166E1,1.23359024E2,1.1335123E0,5.39394E0,1.0631533E0,5.8025618E0,2.0533664E0,2.100525E0,1.0630444E1,5.462473E0,4.539922E0,6.2482443E0,7.22403E1,5.1118717E1,1.6985388E0,3.6954012E0,1.1256974E0,4.6768646E0,1.0647069E0,1.0358181E0],"tree_param":{"num_deleted":"0","num_feature":"309","num_nodes":"47","size_leaf_vector":"1"}},{"base_weights":[-2.2876322E-2,-2.4645661E-1,3.1811226E-2,-1.0273244E0,-2.7703993E-2,-2.709854E-1,1.0756711E-1,-3.8124424E-1,1.08216945E-2,1.2078098E-1,-5.004832E-1,1.935019E-1,-5.690807E-1,-3.219966E-1,1.8479352E-1,-1.7869109E-1,7.144603E-1,-7.627247E-1,1.0311715E-1,6.399212E-1,-2.9188436E-1,-7.652132E-1,4.5376998E-1,-8.2206666E-1,9.3578294E-2,3.3271247E-1,-1.3305044E-1,2.3083447E-1,-5.043717E-1,-6.309947E-2,9.0429103E-1,1.0366354E-2,-3.365488E-1,-4.3377347E-2,8.817718E-1,5.102471E-1,-2.6644158E-1,-1.042635E0,3.0824354E-1,2.2783442E-1,-3.2162145E-2,-1.0357461E0,8.5463434E-2,-6.0422045E-1,4.0419602E-1,4.9240857E-1,-6.111394E-2,-7.839021E-1,1.8687268E-1,-1.0573468E-1,2.2372548E-1,-2.1103081E-1,1.11672804E-1,3.019275E-1,5.1101208E-2,8.1702694E-2,2.9527625E-1,2.4564165E-1,-3.3618744E-2,5.513599E-2,-3.6441576E-1,-1.9116655E-1,2.626666E-1,-3.484947E-2,-3.5085678E-1,-2.509631E-1,2.2669574E-3,-1.12847246E-1,1.8683907E-1,2.4282332E-1,4.411963E-2,-1.8187861E-1,7.9321526E-2,-3.1314164E-1,8.9785025E-2,-1.0384026E-1,1.7424744E-1],"categories":[],"categories_nodes":[],"categories_segments":[],"categories_sizes":[],"default_left":[0,0,0,0,0,0,0,0,0,0,0,0,0,0,0,0,0,0,0,0,0,0,0,0,0,0,0,0,0,0,0,0,0,0,0,0,0,0,0,0,0,0,0,0,0,0,0,0,0,0,0,0,0,0,0,0,0,0,0,0,0,0,0,0,0,0,0,0,0,0,0,0,0,0,0,0,0],"id":15,"left_children":[1,3,5,7,9,11,13,-1,-1,15,17,19,21,23,25,27,29,31,-1,33,35,37,39,41,43,45,47,49,51,-1,53,-1,-1,-1,55,57,-1,59,61,-1,-1,63,-1,65,67,69,71,73,75,-1,-1,-1,-1,-1,-1,-1,-1,-1,-1,-1,-1,-1,-1,-1,-1,-1,-1,-1,-1,-1,-1,-1,-1,-1,-1,-1,-1],"loss_changes":[2.2276044E0,6.0856085E0,3.3954415E0,2.0667849E0,2.095426E0,4.215802E0,3.977311E0,0E0,0E0,4.192906E0,1.8390301E0,2.8601131E0,4.021444E0,3.89267E0,4.7805185E0,2.2502282E0,1.5712442E0,1.6836464E0,0E0,1.4062879E0,3.6085696E0,5.008834E0,6.943803E-1,2.29034E0,2.612318E0,4.371657E0,6.9569073E0,2.5974178E0,1.8717258E0,0E0,3.3198738E-1,0E0,0E0,0E0,6.2499046E-2,7.538756E-1,0E0,2.9111404E0,2.7057235E0,0E0,0E0,7.605033E-1,0E0,5.4160583E-1,1.6261437E0,5.269925E0,3.852409E0,3.401091E0,4.9751377E0,0E0,0E0,0E0,0E0,0E0,0E0,0E0,0E0,0E0,0E0,0E0,0E0,0E0,0E0,0E0,0E0,0E0,0E0,0E0,0E0,0E0,0E0,0E0,0E0,0E0,0E0,0E0,0E0],"parents":[2147483647,0,0,1,1,2,2,3,3,4,4,5,5,6,6,9,9,10,10,11,11,12,12,13,13,14,14,15,15,16,16,17,17,19,19,20,20,21,21,22,22,23,23,24,24,25,25,26,26,27,27,28,28,30,30,34,34,35,35,37,37,38,38,41,41,43,43,44,44,45,45,46,46,47,47,48,48],"right_children":[2,4,6,8,10,12,14,-1,-1,16,18,20,22,24,26,28,30,32,-1,34,36,38,40,42,44,46,48,50,52,-1,54,-1,-1,-1,56,58,-1,60,62,-1,-1,64,-1,66,68,70,72,74,76,-1,-1,-1,-1,-1,-1,-1,-1,-1,-1,-1,-1,-1,-1,-1,-1,-1,-1,-1,-1,-1,-1,-1,-1,-1,-1,-1,-1],"split_conditions":[-2.242654E-2,-7.5096237E-3,-9.909778E-3,1.562193E-2,-2.4336299E-2,-2.2152502E-2,-2.6677744E-2,-3.8124424E-1,1.08216945E-2,-4.4605967E-2,2.1512339E-2,9.171617E-3,4.1338462E-2,-2.4663458E-2,2.6323548E-2,-5.48638E-2,2.9773074E-3,-1.7824994E-1,1.0311715E-1,-1.4668532E-2,-2.1293104E-2,1.73527E-2,1.0478168E-1,5.0581764E-2,-5.157618E-2,1.5023254E-2,1.0227283E-3,-1.3441946E-1,4.320895E-2,-6.309947E-2,2.262527E-2,1.0366354E-2,-3.365488E-1,-4.3377347E-2,-2.0451764E-2,2.3710132E-2,-2.6644158E-1,-1.6697368E-2,-2.1876065E-2,2.2783442E-1,-3.2162145E-2,2.3236903E-4,8.5463434E-2,1.3288508E-2,-2.9527668E-2,2.0569555E-2,-9.06192E-3,5.8620468E-2,-3.4028802E-2,-1.0573468E-1,2.2372548E-1,-2.1103081E-1,1.11672804E-1,3.019275E-1,5.1101208E-2,8.1702694E-2,2.9527625E-1,2.4564165E-1,-3.3618744E-2,5.513599E-2,-3.6441576E-1,-1.9116655E-1,2.626666E-1,-3.484947E-2,-3.5085678E-1,-2.509631E-1,2.2669574E-3,-1.12847246E-1,1.8683907E-1,2.4282332E-1,4.411963E-2,-1.8187861E-1,7.9321526E-2,-3.1314164E-1,8.9785025E-2,-1.0384026E-1,1.7424744E-1],"split_indices":[288,50,131,131,304,117,4,0,0,3,130,231,18,126,272,272,21,55,0,24,242,12,218,72,206,4,240,14,215,0,117,0,0,0,92,118,0,180,6,0,0,287,0,93,0,26,10,86,170,0,0,0,0,0,0,0,0,0,0,0,0,0,0,0,0,0,0,0,0,0,0,0,0,0,0,0,0],"split_type":[0,0,0,0,0,0,0,0,0,0,0,0,0,0,0,0,0,0,0,0,0,0,0,0,0,0,0,0,0,0,0,0,0,0,0,0,0,0,0,0,0,0,0,0,0,0,0,0,0,0,0,0,0,0,0,0,0,0,0,0,0,0,0,0,0,0,0,0,0,0,0,0,0,0,0,0,0],"sum_hessian":[1.8054526E2,3.479313E1,1.4575214E2,6.8050985E0,2.798803E1,2.8652174E1,1.1709995E2,5.378511E0,1.4265877E0,2.1865347E1,6.1226835E0,1.1337358E1,1.7314816E1,1.7361109E1,9.9738846E1,1.4998569E1,6.8667784E0,4.7451773E0,1.3775059E0,5.739892E0,5.597467E0,1.4740244E1,2.574572E0,7.435578E0,9.925531E0,6.803144E1,3.1707407E1,6.7730513E0,8.225517E0,1.1510845E0,5.715694E0,1.7542315E0,2.990946E0,1.4473006E0,4.2925916E0,2.4481947E0,3.1492722E0,1.1735945E1,3.0042992E0,1.4374864E0,1.1370857E0,6.2864003E0,1.1491774E0,2.766162E0,7.1593695E0,4.822567E1,1.9805769E1,9.971369E0,2.1736038E1,3.3236444E0,3.4494069E0,6.8643036E0,1.3612139E0,4.691593E0,1.0241004E0,1.1444391E0,3.1481524E0,1.4255934E0,1.0226014E0,1.4357232E0,1.0300221E1,1.0804394E0,1.9238596E0,1.0356535E0,5.250747E0,1.7385467E0,1.0276152E0,1.4089612E0,5.750408E0,2.4443941E1,2.378173E1,7.0823984E0,1.2723371E1,8.071114E0,1.9002552E0,9.289274E0,1.2446764E1],"tree_param":{"num_deleted":"0","num_feature":"309","num_nodes":"77","size_leaf_vector":"1"}},{"base_weights":[-1.9377332E-2,6.6890664E-2,-1.4097287E-1,-8.2738884E-2,4.540078E-1,-2.3434155E-1,3.270119E-1,-1.8064246E-1,3.1143588E-1,5.9748536E-1,-4.107197E-1,-1.3096947E-2,-6.274983E-1,7.119815E-1,-3.087044E-1,5.6505688E-2,-4.5046648E-1,6.3632685E-1,-8.176684E-2,-2.6363033E-1,7.605376E-1,-2.4125686E-1,8.389224E-2,2.815486E-1,-1.459404E-1,-1.0060847E0,-3.3525467E-2,-4.3783374E-2,8.631993E-1,-7.1902573E-1,1.0455266E-1,1.6653453E-1,-6.951141E-1,-7.057431E-1,8.983375E-2,-1.3121527E-2,2.7248326E-1,5.271758E-1,-6.549095E-1,2.481638E-1,-2.2931962E-1,8.7059736E-1,1.6513806E-2,-5.660313E-1,7.651688E-2,-1.1655482E0,7.591808E-2,6.546769E-1,-4.575474E-1,3.9120924E-2,2.898552E-1,-2.6882693E-1,-5.2831087E-2,8.09799E-2,-1.7420182E-1,-2.9975215E-2,-2.825997E-1,-4.2281562E-1,-1.2535764E-1,1.9486202E-1,-2.3171137E-1,1.3720728E-1,-1.6205567E-1,-6.964793E-2,2.5042757E-1,1.2365427E-2,-3.3483857E-1,1.5745994E-1,-4.373488E-2,2.9109532E-1,1.9367233E-2,-2.3546225E-1,2.1392135E-1,-3.0624878E-1,-1.7078532E-2,-1.4580552E-1,1.22616455E-1,-3.9512673E-1,1.3550038E-2,2.4036197E-1,3.7591644E-2,-3.0070913E-1,7.283156E-2],"categories":[],"categories_nodes":[],"categories_segments":[],"categories_sizes":[],"default_left":[0,0,0,0,0,0,0,0,0,0,0,0,0,0,0,0,0,0,0,0,0,0,0,0,0,0,0,0,0,0,0,0,0,0,0,0,0,0,0,0,0,0,0,0,0,0,0,0,0,0,0,0,0,0,0,0,0,0,0,0,0,0,0,0,0,0,0,0,0,0,0,0,0,0,0,0,0,0,0,0,0,0,0],"id":16,"left_children":[1,3,5,7,9,11,13,15,17,19,21,23,25,27,29,31,33,35,37,39,41,-1,-1,-1,43,45,47,-1,49,51,-1,53,55,57,59,61,-1,63,65,67,-1,69,71,73,75,77,-1,79,81,-1,-1,-1,-1,-1,-1,-1,-1,-1,-1,-1,-1,-1,-1,-1,-1,-1,-1,-1,-1,-1,-1,-1,-1,-1,-1,-1,-1,-1,-1,-1,-1,-1,-1],"loss_changes":[1.7926488E0,5.8370337E0,3.1734684E0,2.8755927E0,3.7274222E0,5.1819315E0,3.206917E0,3.810626E0,1.9557805E0,3.6374702E0,1.4707649E0,5.0927243E0,4.793104E0,1.1514683E0,1.680142E0,2.7929165E0,3.89529E0,1.4732342E0,3.007682E0,1.3788071E0,1.6920614E0,0E0,0E0,0E0,3.3390036E0,2.920229E0,3.0397012E0,0E0,3.920641E-1,1.8731356E-1,0E0,2.4007556E0,5.4171443E-1,3.2559395E0,5.231737E0,1.097057E0,0E0,1.1870663E0,1.4509109E0,4.0893143E-1,0E0,1.3949642E0,2.6276827E0,2.796431E0,4.6720037E0,2.221449E0,0E0,2.0919979E-1,2.684803E0,0E0,0E0,0E0,0E0,0E0,0E0,0E0,0E0,0E0,0E0,0E0,0E0,0E0,0E0,0E0,0E0,0E0,0E0,0E0,0E0,0E0,0E0,0E0,0E0,0E0,0E0,0E0,0E0,0E0,0E0,0E0,0E0,0E0,0E0],"parents":[2147483647,0,0,1,1,2,2,3,3,4,4,5,5,6,6,7,7,8,8,9,9,10,10,11,11,12,12,13,13,14,14,15,15,16,16,17,17,18,18,19,19,20,20,24,24,25,25,26,26,28,28,29,29,31,31,32,32,33,33,34,34,35,35,37,37,38,38,39,39,41,41,42,42,43,43,44,44,45,45,47,47,48,48],"right_children":[2,4,6,8,10,12,14,16,18,20,22,24,26,28,30,32,34,36,38,40,42,-1,-1,-1,44,46,48,-1,50,52,-1,54,56,58,60,62,-1,64,66,68,-1,70,72,74,76,78,-1,80,82,-1,-1,-1,-1,-1,-1,-1,-1,-1,-1,-1,-1,-1,-1,-1,-1,-1,-1,-1,-1,-1,-1,-1,-1,-1,-1,-1,-1,-1,-1,-1,-1,-1,-1],"split_conditions":[2.609132E-3,-2.5537703E-3,2.2293821E-2,1.3219528E-2,3.940132E-2,1.2958194E-2,4.8548333E-2,-2.3102233E-2,2.2933234E-2,-4.0183045E-2,1.6819023E-2,5.438794E-3,3.1842493E-2,-7.795653E-2,2.5129018E-2,1.7871058E-1,7.713536E-3,-2.0277778E-2,-1.1771716E-2,-4.0341187E-3,8.6540796E-2,-2.4125686E-1,8.389224E-2,2.815486E-1,2.1291107E-3,1.4156564E-2,3.9846513E-2,-4.3783374E-2,-5.0051766E-3,6.501103E-2,1.0455266E-1,1.813785E-2,-8.175774E-3,-5.0201394E-2,1.9645182E-2,-4.4906955E-2,2.7248326E-1,4.6475828E-2,2.0306911E-2,2.4256667E-2,-2.2931962E-1,9.518817E-3,5.6431647E-2,2.1782419E-2,-2.203135E-2,8.556548E-2,7.591808E-2,1.7933702E-2,-3.1042213E-2,3.9120924E-2,2.898552E-1,-2.6882693E-1,-5.2831087E-2,8.09799E-2,-1.7420182E-1,-2.9975215E-2,-2.825997E-1,-4.2281562E-1,-1.2535764E-1,1.9486202E-1,-2.3171137E-1,1.3720728E-1,-1.6205567E-1,-6.964793E-2,2.5042757E-1,1.2365427E-2,-3.3483857E-1,1.5745994E-1,-4.373488E-2,2.9109532E-1,1.9367233E-2,-2.3546225E-1,2.1392135E-1,-3.0624878E-1,-1.7078532E-2,-1.4580552E-1,1.22616455E-1,-3.9512673E-1,1.3550038E-2,2.4036197E-1,3.7591644E-2,-3.0070913E-1,7.283156E-2],"split_indices":[137,137,259,40,21,210,286,64,178,21,296,204,255,9,98,293,300,208,50,296,38,0,0,0,24,0,8,0,179,208,0,305,180,14,303,259,0,189,8,288,0,231,27,117,0,153,0,5,304,0,0,0,0,0,0,0,0,0,0,0,0,0,0,0,0,0,0,0,0,0,0,0,0,0,0,0,0,0,0,0,0,0,0],"split_type":[0,0,0,0,0,0,0,0,0,0,0,0,0,0,0,0,0,0,0,0,0,0,0,0,0,0,0,0,0,0,0,0,0,0,0,0,0,0,0,0,0,0,0,0,0,0,0,0,0,0,0,0,0,0,0,0,0,0,0,0,0,0,0,0,0,0,0,0,0,0,0,0,0,0,0,0,0,0,0,0,0,0,0],"sum_hessian":[1.689955E2,9.912177E1,6.987372E1,7.205656E1,2.7065222E1,5.866799E1,1.1205727E1,5.815417E1,1.3902384E1,2.347864E1,3.5865812E0,3.8202995E1,2.0464996E1,6.904571E0,4.3011556E0,3.137196E1,2.6782211E1,7.2738853E0,6.628499E0,3.6397038E0,1.9838936E1,2.179497E0,1.4070843E0,3.9369466E0,3.426605E1,1.2074885E1,8.390111E0,1.0398593E0,5.8647118E0,2.5900462E0,1.7111093E0,2.8044924E1,3.3270352E0,1.7980654E1,8.801557E0,2.4277937E0,4.8460913E0,3.252762E0,3.3757367E0,2.0495062E0,1.5901977E0,1.7134235E1,2.704702E0,1.1328579E1,2.293747E1,1.0783545E1,1.291341E0,2.9912457E0,5.398865E0,1.0018933E0,4.8628187E0,1.4625639E0,1.1274824E0,2.519692E1,2.8480031E0,1.387273E0,1.9397624E0,4.0894985E0,1.3891155E1,5.4865665E0,3.31499E0,1.3526324E0,1.0751613E0,1.0084339E0,2.2443283E0,1.708179E0,1.6675578E0,1.0086887E0,1.0408175E0,1.5066458E1,2.0677767E0,1.1987509E0,1.5059509E0,5.452517E0,5.876062E0,8.344459E0,1.4593011E1,9.505869E0,1.2776763E0,1.940587E0,1.0506587E0,2.793981E0,2.6048844E0],"tree_param":{"num_deleted":"0","num_feature":"309","num_nodes":"83","size_leaf_vector":"1"}},{"base_weights":[-1.9567065E-2,-5.6015225E-3,-2.2207318E-1,-2.8708644E-2,4.689262E-1,2.530315E-1,-7.701385E-2,-5.6908432E-2,7.322369E-1,3.7397295E-1,-3.5425544E-1,-2.4340527E-2,-5.0219876E-1,2.6084715E-1,3.750811E-2,-1.2384039E-1,6.1780936E-1,-1.8538323E-1,1.57181E-2,-1.981173E-1,8.4791735E-2,-2.1786661E-1,-3.5477567E-1,1.07917905E-1,-1.3232522E-1,-4.28616E-2,2.2537802E-1,-2.3490418E-1,-7.0232837E-3,8.40808E-2,-5.8866724E-2,-2.0583965E-1,1.4051284E-1],"categories":[],"categories_nodes":[],"categories_segments":[],"categories_sizes":[],"default_left":[0,0,0,0,0,0,0,0,0,0,0,0,0,0,0,0,0,0,0,0,0,0,0,0,0,0,0,0,0,0,0,0,0],"id":17,"left_children":[1,3,-1,5,7,9,11,-1,13,15,17,19,21,-1,-1,23,25,-1,-1,27,29,31,-1,-1,-1,-1,-1,-1,-1,-1,-1,-1,-1],"loss_changes":[1.6005872E0,1.7395604E0,0E0,2.075232E0,1.4165502E0,1.7733582E0,2.8927672E0,0E0,3.4707665E-1,2.3970673E0,4.8529798E-1,2.225498E0,2.498484E0,0E0,0E0,1.2506822E0,1.4269061E0,0E0,0E0,4.6030693E0,4.0231843E0,3.944095E0,0E0,0E0,0E0,0E0,0E0,0E0,0E0,0E0,0E0,0E0,0E0],"parents":[2147483647,0,0,1,1,3,3,4,4,5,5,6,6,8,8,9,9,10,10,11,11,12,12,15,15,16,16,19,19,20,20,21,21],"right_children":[2,4,-1,6,8,10,12,-1,14,16,18,20,22,-1,-1,24,26,-1,-1,28,30,32,-1,-1,-1,-1,-1,-1,-1,-1,-1,-1,-1],"split_conditions":[2.3019777E-1,1.7470524E-1,-2.2207318E-1,-4.844306E-2,-1.9966653E-2,1.0897822E-1,1.0183256E-1,-5.6908432E-2,3.0754505E-2,3.8918696E-2,1.2453796E-2,-4.6836645E-3,-1.0262663E-1,2.6084715E-1,3.750811E-2,-2.0756877E-3,-5.698129E-1,-1.8538323E-1,1.57181E-2,-9.191389E-2,2.0863201E-2,1.7035681E-1,-3.5477567E-1,1.07917905E-1,-1.3232522E-1,-4.28616E-2,2.2537802E-1,-2.3490418E-1,-7.0232837E-3,8.40808E-2,-5.8866724E-2,-2.0583965E-1,1.4051284E-1],"split_indices":[296,278,0,184,285,243,296,0,118,304,305,303,308,0,0,21,96,0,0,296,21,166,0,0,0,0,0,0,0,0,0,0,0],"split_type":[0,0,0,0,0,0,0,0,0,0,0,0,0,0,0,0,0,0,0,0,0,0,0,0,0,0,0,0,0,0,0,0,0],"sum_hessian":[1.5844269E2,1.5641931E2,2.023379E0,1.5005203E2,6.367282E0,2.1341213E1,1.2871082E2,1.8983941E0,4.468888E0,1.811733E1,3.223883E0,1.15464005E2,1.3246819E1,3.2926698E0,1.1762178E0,6.118334E0,1.1998996E1,1.6405076E0,1.5833753E0,4.4225746E1,7.123826E1,1.027368E1,2.9731388E0,2.3707483E0,3.7475855E0,1.7803326E0,1.0218663E1,9.370962E0,3.4854782E1,4.2014797E1,2.9223461E1,6.1067977E0,4.166882E0],"tree_param":{"num_deleted":"0","num_feature":"309","num_nodes":"33","size_leaf_vector":"1"}},{"base_weights":[-1.8141117E-2,-1.3308427E-3,-5.8189577E-1,-4.474319E-2,2.7534732E-1,-2.5654288E-2,-2.1058413E-1,-2.6095054E-1,4.6056364E-2,4.2688084E-1,-3.4758055E-1,-7.2544616E-1,-4.2348556E-2,2.799462E-1,-7.5349495E-2,-1.4835273E-1,7.3065495E-1,-2.3597635E-1,1.5690812E-1,1.4603011E-1,-1.0177553E0,-3.6385706E-1,2.8247803E-1,-3.7136063E-1,4.303984E-1,-4.081778E-3,-7.780205E-1,1.3225122E-1,-4.1634595E-1,8.607878E-1,-8.6925134E-2,2.0206782E-1,-1.3954961E-1,-3.6107048E-1,-5.070762E-2,3.19944E-2,-2.0753157E-1,2.176527E-1,-6.3394405E-2,-2.1627489E-1,1.2527676E-1,1.880818E-1,-7.2756596E-2,-7.342905E-2,4.4224594E-2,-2.7815858E-1,-1.8190768E-2,-2.3321919E-1,2.2880957E-2,3.0761214E-2,2.8194743E-1],"categories":[],"categories_nodes":[],"categories_segments":[],"categories_sizes":[],"default_left":[0,0,0,0,0,0,0,0,0,0,0,0,0,0,0,0,0,0,0,0,0,0,0,0,0,0,0,0,0,0,0,0,0,0,0,0,0,0,0,0,0,0,0,0,0,0,0,0,0,0,0],"id":18,"left_children":[1,3,5,7,9,-1,-1,11,13,15,17,19,21,23,25,27,29,-1,-1,31,33,35,37,39,41,43,45,-1,47,49,-1,-1,-1,-1,-1,-1,-1,-1,-1,-1,-1,-1,-1,-1,-1,-1,-1,-1,-1,-1,-1],"loss_changes":[1.46197E0,1.8246013E0,2.0616066E-1,2.589223E0,2.093202E0,0E0,0E0,3.9269593E0,2.6704633E0,3.0826116E0,2.1628451E0,3.3102465E0,2.981575E0,3.3047175E0,3.1120799E0,1.2435753E0,1.7508955E0,0E0,0E0,1.6003808E0,1.2820396E0,2.2786045E0,3.2761798E0,2.109982E0,3.661398E0,2.1321409E0,5.562453E-1,0E0,9.714916E-1,5.197258E-1,0E0,0E0,0E0,0E0,0E0,0E0,0E0,0E0,0E0,0E0,0E0,0E0,0E0,0E0,0E0,0E0,0E0,0E0,0E0,0E0,0E0],"parents":[2147483647,0,0,1,1,2,2,3,3,4,4,7,7,8,8,9,9,10,10,11,11,12,12,13,13,14,14,15,15,16,16,19,19,20,20,21,21,22,22,23,23,24,24,25,25,26,26,28,28,29,29],"right_children":[2,4,6,8,10,-1,-1,12,14,16,18,20,22,24,26,28,30,-1,-1,32,34,36,38,40,42,44,46,-1,48,50,-1,-1,-1,-1,-1,-1,-1,-1,-1,-1,-1,-1,-1,-1,-1,-1,-1,-1,-1,-1,-1],"split_conditions":[2.8025236E-2,3.6089223E-2,6.5010213E-3,-8.192792E-3,2.8738886E-2,-2.5654288E-2,-2.1058413E-1,1.6902387E-2,6.1174496E-3,-6.7473665E-2,2.724297E-3,-1.9388467E-1,-1.5328681E-2,-1.49473585E-2,9.171617E-3,1.107999E-2,6.9471383E-1,-2.3597635E-1,1.5690812E-1,1.7774914E-1,4.0272227E-3,-4.6434693E-2,-6.1779167E-3,2.3719578E-3,9.1027215E-2,2.0921234E-2,2.8122233E-3,1.3225122E-1,3.5120137E-2,-1.8061874E-2,-8.6925134E-2,2.0206782E-1,-1.3954961E-1,-3.6107048E-1,-5.070762E-2,3.19944E-2,-2.0753157E-1,2.176527E-1,-6.3394405E-2,-2.1627489E-1,1.2527676E-1,1.880818E-1,-7.2756596E-2,-7.342905E-2,4.4224594E-2,-2.7815858E-1,-1.8190768E-2,-2.3321919E-1,2.2880957E-2,3.0761214E-2,2.8194743E-1],"split_indices":[240,101,113,161,249,0,0,229,161,5,290,256,63,182,231,126,13,0,0,109,244,184,152,231,295,161,95,0,150,131,0,0,0,0,0,0,0,0,0,0,0,0,0,0,0,0,0,0,0,0,0],"split_type":[0,0,0,0,0,0,0,0,0,0,0,0,0,0,0,0,0,0,0,0,0,0,0,0,0,0,0,0,0,0,0,0,0,0,0,0,0,0,0,0,0,0,0,0,0,0,0,0,0,0,0],"sum_hessian":[1.5334889E2,1.49882E2,3.4668844E0,1.3027882E2,1.9603191E1,1.0086577E0,2.4582267E0,3.7976696E1,9.2302124E1,1.602071E1,3.5824814E0,1.1411161E1,2.6565536E1,3.109376E1,6.1208366E1,5.713372E0,1.0307337E1,2.445723E0,1.1367584E0,2.9918442E0,8.419317E0,1.329057E1,1.3274965E1,5.559297E0,2.5534462E1,5.6485214E1,4.723149E0,1.5846096E0,4.1287627E0,9.280248E0,1.0270892E0,1.5510665E0,1.4407777E0,6.5641437E0,1.8551735E0,5.7356305E0,7.5549397E0,6.7497926E0,6.5251727E0,3.9121811E0,1.6471157E0,1.9815306E1,5.719156E0,2.1582195E1,3.4903023E1,3.6679583E0,1.0551906E0,2.0489395E0,2.0798233E0,1.0928818E0,8.187366E0],"tree_param":{"num_deleted":"0","num_feature":"309","num_nodes":"51","size_leaf_vector":"1"}},{"base_weights":[-1.7732166E-2,-1.8535167E-1,3.1169519E-2,4.5237276E-1,-3.083274E-1,1.4556716E-1,-1.5197219E-1,-5.8678996E-2,6.4277893E-1,-5.543598E-1,7.623695E-2,3.059476E-1,-1.113277E-1,5.1685456E-2,-4.7091898E-1,-1.1277884E-2,2.5206387E-1,2.6249075E-1,-7.783441E-1,3.5836998E-1,-5.5044764E-1,3.747074E-1,-2.034223E-1,-7.217066E-1,8.830808E-2,-1.753553E-1,3.9604488E-1,-8.219655E-1,-1.0390169E-3,-8.565588E-2,5.0914514E-1,8.002668E-2,-8.970386E-1,-1.3968317E-1,5.4170895E-1,-2.524318E-1,3.8653437E-2,-1.8159993E-1,4.9544734E-1,2.4383742E-2,-8.684934E-1,-2.171231E-1,2.2094366E-1,2.3093721E-1,-4.4307455E-1,-2.5171584E-1,6.8772614E-1,-9.482292E-1,3.292094E-2,-7.0929086E-1,3.4746873E-1,3.539567E-2,1.906247E-1,-3.2673022E-1,-5.8431286E-2,-3.531421E-2,2.676951E-1,1.20683916E-1,-2.522933E-1,1.8891121E-1,-4.5936994E-2,-3.3810565E-1,-1.45769585E-2,-2.3889793E-2,2.1494012E-1,-1.6407034E-1,1.3361488E-1,-2.0894827E-1,2.1310579E-2,-1.8546668E-1,1.2235099E-1,2.4812791E-1,-2.8186249E-2,-1.6711136E-2,-3.2983345E-1,-2.5913793E-1,-6.1455976E-2,1.885328E-1,-4.730158E-2],"categories":[],"categories_nodes":[],"categories_segments":[],"categories_sizes":[],"default_left":[0,0,0,0,0,0,0,0,0,0,0,0,0,0,0,0,0,0,0,0,0,0,0,0,0,0,0,0,0,0,0,0,0,0,0,0,0,0,0,0,0,0,0,0,0,0,0,0,0,0,0,0,0,0,0,0,0,0,0,0,0,0,0,0,0,0,0,0,0,0,0,0,0,0,0,0,0,0,0],"id":19,"left_children":[1,3,5,7,9,11,13,-1,15,17,19,21,23,25,27,-1,-1,29,31,33,35,37,-1,39,41,43,45,47,49,-1,51,-1,53,-1,55,-1,-1,57,59,-1,61,-1,63,65,67,69,71,73,-1,75,77,-1,-1,-1,-1,-1,-1,-1,-1,-1,-1,-1,-1,-1,-1,-1,-1,-1,-1,-1,-1,-1,-1,-1,-1,-1,-1,-1,-1],"loss_changes":[1.2236731E0,2.782476E0,2.4499083E0,8.4791267E-1,2.77169E0,2.9938078E0,2.9501133E0,0E0,6.706387E-1,3.4451795E0,2.3426993E0,3.2645335E0,3.5175285E0,2.2891288E0,2.9108083E0,0E0,0E0,7.616979E-1,1.9950247E0,1.6077508E0,9.309679E-1,2.9265814E0,0E0,9.068179E-1,2.5563018E0,2.038792E0,2.3624766E0,1.2924833E0,2.3567593E0,0E0,9.808457E-2,0E0,1.5331287E0,0E0,1.9088643E0,0E0,0E0,3.51954E0,3.1412783E0,0E0,1.2347827E0,0E0,3.0197473E0,1.5327681E0,1.492285E0,1.2987841E0,9.773164E-1,1.1534729E0,0E0,6.842208E-2,1.0076208E0,0E0,0E0,0E0,0E0,0E0,0E0,0E0,0E0,0E0,0E0,0E0,0E0,0E0,0E0,0E0,0E0,0E0,0E0,0E0,0E0,0E0,0E0,0E0,0E0,0E0,0E0,0E0,0E0],"parents":[2147483647,0,0,1,1,2,2,3,3,4,4,5,5,6,6,8,8,9,9,10,10,11,11,12,12,13,13,14,14,17,17,18,18,19,19,20,20,21,21,23,23,24,24,25,25,26,26,27,27,28,28,30,30,32,32,34,34,37,37,38,38,40,40,42,42,43,43,44,44,45,45,46,46,47,47,49,49,50,50],"right_children":[2,4,6,8,10,12,14,-1,16,18,20,22,24,26,28,-1,-1,30,32,34,36,38,-1,40,42,44,46,48,50,-1,52,-1,54,-1,56,-1,-1,58,60,-1,62,-1,64,66,68,70,72,74,-1,76,78,-1,-1,-1,-1,-1,-1,-1,-1,-1,-1,-1,-1,-1,-1,-1,-1,-1,-1,-1,-1,-1,-1,-1,-1,-1,-1,-1,-1],"split_conditions":[-9.132698E-3,-5.730881E-2,2.1818617E-2,-1.259173E-1,4.1243013E-2,1.1282547E-2,-3.134641E-2,-5.8678996E-2,-7.384854E-3,-1.4477547E-2,1.2843609E-2,3.4967564E-2,-3.738796E-3,-1.765246E-2,6.2378184E-3,-1.1277884E-2,2.5206387E-1,-1.739224E-2,-2.4089588E-1,-2.7458156E-2,-3.5275232E-2,-1.3253867E-2,-2.034223E-1,-3.315914E-2,-2.0084009E-2,-3.2085992E-2,-4.3638695E-2,4.8974184E-3,-1.8061118E-2,-8.565588E-2,3.3625502E-2,8.002668E-2,3.25738E-2,-1.3968317E-1,-2.4138823E-2,-2.524318E-1,3.8653437E-2,-6.693567E-2,3.0989233E-2,2.4383742E-2,5.2146073E-2,-2.171231E-1,-1.9859431E-2,-3.7619896E-2,-3.1711434E-3,1.5765248E-2,-1.6785314E-2,-1.0204758E-2,3.292094E-2,-6.3905222E-3,5.2429978E-2,3.539567E-2,1.906247E-1,-3.2673022E-1,-5.8431286E-2,-3.531421E-2,2.676951E-1,1.20683916E-1,-2.522933E-1,1.8891121E-1,-4.5936994E-2,-3.3810565E-1,-1.45769585E-2,-2.3889793E-2,2.1494012E-1,-1.6407034E-1,1.3361488E-1,-2.0894827E-1,2.1310579E-2,-1.8546668E-1,1.2235099E-1,2.4812791E-1,-2.8186249E-2,-1.6711136E-2,-3.2983345E-1,-2.5913793E-1,-6.1455976E-2,1.885328E-1,-4.730158E-2],"split_indices":[22,12,14,168,236,64,192,0,14,177,288,130,5,182,143,0,0,117,82,92,86,90,0,204,72,202,300,244,12,0,275,0,130,0,249,0,0,257,201,0,274,0,251,203,23,128,79,10,0,240,14,0,0,0,0,0,0,0,0,0,0,0,0,0,0,0,0,0,0,0,0,0,0,0,0,0,0,0,0],"split_type":[0,0,0,0,0,0,0,0,0,0,0,0,0,0,0,0,0,0,0,0,0,0,0,0,0,0,0,0,0,0,0,0,0,0,0,0,0,0,0,0,0,0,0,0,0,0,0,0,0,0,0,0,0,0,0,0,0,0,0,0,0,0,0,0,0,0,0,0,0,0,0,0,0,0,0,0,0,0,0],"sum_hessian":[1.4758047E2,3.270111E1,1.1487936E2,4.8534837E0,2.7847628E1,7.083694E1,4.404242E1,1.0960989E0,3.7573845E0,1.6713388E1,1.1134238E1,4.349309E1,2.7343843E1,2.7390602E1,1.6651817E1,1.0271935E0,2.730191E0,3.5596714E0,1.3153718E1,7.9729643E0,3.1612744E0,4.1231216E1,2.2618763E0,6.094629E0,2.1249216E1,1.6802963E1,1.058764E1,9.102241E0,7.549578E0,1.0559716E0,2.5036998E0,1.2143149E0,1.1939403E1,1.1709127E0,6.802051E0,2.046084E0,1.1151904E0,7.263001E0,3.3968216E1,1.0108929E0,5.083736E0,2.3577049E0,1.889151E1,6.728753E0,1.007421E1,3.3298297E0,7.2578096E0,8.000305E0,1.1019348E0,2.148363E0,5.401215E0,1.0830437E0,1.4206561E0,8.942812E0,2.996591E0,2.59175E0,4.2103014E0,4.0588207E0,3.20418E0,2.8166689E1,5.8015256E0,3.5802615E0,1.5034745E0,1.228122E1,6.6102896E0,1.1191319E0,5.609621E0,6.510324E0,3.5638862E0,2.180701E0,1.1491287E0,6.1103E0,1.1475098E0,1.3573201E0,6.6429853E0,1.0992807E0,1.0490824E0,3.3138568E0,2.087358E0],"tree_param":{"num_deleted":"0","num_feature":"309","num_nodes":"79","size_leaf_vector":"1"}}]},"name":"gbtree"},"learner_model_param":{"base_score":"5E-1","boost_from_average":"1","num_class":"0","num_feature":"309","num_target":"1"},"objective":{"name":"binary:logistic","reg_loss_param":{"scale_pos_weight":"1"}}},"version":[3,0,0]}