{"learner":{"attributes":{"scikit_learn":"{\"_estimator_type\": \"classifier\"}"},"feature_names":[],"feature_types":[],"gradient_booster":{"model":{"gbtree_model_param":{"num_parallel_tree":"1","num_trees":"20"},"iteration_indptr":[0,1,2,3,4,5,6,7,8,9,10,11,12,13,14,15,16,17,18,19,20],"tree_info":[0,0,0,0,0,0,0,0,0,0,0,0,0,0,0,0,0,0,0,0],"trees":[{"base_weights":[-0E0,-1.5384616E0,2.739726E-1,-8.5714287E-1,-1.8701298E0,6.642066E-1,-1.5384616E0,-1.6226416E0,4E-1,-0E0,-5.837838E-1,-1.5416666E0,8.75E-1,-1.7988827E0,-6.440678E-1,-5.4418606E-1,-5.714286E-1,1.36E0,-4.2857146E-1,3.529412E-1,-1.8554217E0,1.1288888E0,-1.5416666E0,-7.5E-1,-1.8562875E0,-4.875E-1,4.516129E-1,-3.6E-1,1.5E-1,4.8571432E-1,-0E0,-2.4000001E-1,3.818182E-1,-1.5E-1,-5.696203E-1,-5.3846157E-1,1.2253522E0,-1.8554217E0,3.529412E-1,-4.0000004E-1,1.5E-1,-1.5E-1,-5.631902E-1,4.2857146E-1,-3.4285718E-1,-5.0769234E-1,1.6000001E-1,4.0000004E-1,-1.6153848E-1,-5.696203E-1,-1.5E-1,3.818182E-1,-2.4000001E-1],"categories":[],"categories_nodes":[],"categories_segments":[],"categories_sizes":[],"default_left":[0,0,0,0,0,0,0,0,0,0,0,0,0,0,0,0,0,0,0,0,0,0,0,0,0,0,0,0,0,0,0,0,0,0,0,0,0,0,0,0,0,0,0,0,0,0,0,0,0,0,0,0,0],"id":0,"left_children":[1,3,5,7,9,11,13,15,17,-1,-1,19,21,23,25,-1,27,29,-1,31,33,35,37,39,41,-1,43,-1,-1,-1,-1,-1,-1,-1,-1,45,47,49,51,-1,-1,-1,-1,-1,-1,-1,-1,-1,-1,-1,-1,-1,-1],"loss_changes":[1.6311906E2,1.1616394E1,2.333612E2,2.0858221E1,5.4587555E0,1.27359474E2,1.2467163E1,1.6281586E0,1.7302858E1,0E0,0E0,1.4921482E1,1.5390445E2,1.3022156E0,1.6587E1,0E0,2.9571428E0,2.2019043E0,0E0,5.5251336E0,2.687912E-1,3.6848328E1,1.4921482E1,3.5833335E0,2.512207E-1,0E0,1.370507E1,0E0,0E0,0E0,0E0,0E0,0E0,0E0,0E0,1.6979488E1,4.1285675E1,2.687912E-1,5.5251336E0,0E0,0E0,0E0,0E0,0E0,0E0,0E0,0E0,0E0,0E0,0E0,0E0,0E0,0E0],"parents":[2147483647,0,0,1,1,2,2,3,3,4,4,5,5,6,6,7,7,8,8,11,11,12,12,13,13,14,14,16,16,17,17,19,19,20,20,21,21,22,22,23,23,24,24,26,26,35,35,36,36,37,37,38,38],"right_children":[2,4,6,8,10,12,14,16,18,-1,-1,20,22,24,26,-1,28,30,-1,32,34,36,38,40,42,-1,44,-1,-1,-1,-1,-1,-1,-1,-1,46,48,50,52,-1,-1,-1,-1,-1,-1,-1,-1,-1,-1,-1,-1,-1,-1],"split_conditions":[-1.3194963E-2,3.0402443E-3,1.32021075E-2,-6.244906E-3,-6.583077E-3,-1.1497963E-2,-1.2678233E-2,1.1073854E-3,4.2387475E-3,-0E0,-5.837838E-1,1.1694007E-2,1.1497963E-2,7.877376E-3,-5.1696897E-3,-5.4418606E-1,3.029619E-3,1.4892618E-2,-4.2857146E-1,-6.186912E-3,-7.098928E-3,-1.1738928E-2,-1.1932552E-2,-3.7249252E-3,9.102553E-3,-4.875E-1,1.9979975E-3,-3.6E-1,1.5E-1,4.8571432E-1,-0E0,-2.4000001E-1,3.818182E-1,-1.5E-1,-5.696203E-1,-3.030368E-4,1.1738928E-2,5.5744196E-3,6.2333965E-3,-4.0000004E-1,1.5E-1,-1.5E-1,-5.631902E-1,4.2857146E-1,-3.4285718E-1,-5.0769234E-1,1.6000001E-1,4.0000004E-1,-1.6153848E-1,-5.696203E-1,-1.5E-1,3.818182E-1,-2.4000001E-1],"split_indices":[380,786,380,181,247,448,374,219,723,0,0,106,448,90,723,0,10,13,0,626,1,752,106,4,386,0,202,0,0,0,0,0,0,0,0,336,752,1,626,0,0,0,0,0,0,0,0,0,0,0,0,0,0],"split_type":[0,0,0,0,0,0,0,0,0,0,0,0,0,0,0,0,0,0,0,0,0,0,0,0,0,0,0,0,0,0,0,0,0,0,0,0,0,0,0,0,0,0,0,0,0,0,0,0,0,0,0,0,0],"sum_hessian":[3.85E2,5.75E1,3.275E2,2E1,3.75E1,2.7E2,5.75E1,1.225E1,7.75E0,1.5E0,3.6E1,2.3E1,2.47E2,4.375E1,1.375E1,9.75E0,2.5E0,5.25E0,2.5E0,3.25E0,1.975E1,2.24E2,2.3E1,3E0,4.075E1,7E0,6.75E0,1.5E0,1E0,4.25E0,1E0,1.5E0,1.75E0,1E0,1.875E1,1.2E1,2.12E2,1.975E1,3.25E0,2E0,1E0,1E0,3.975E1,4.25E0,2.5E0,5.5E0,6.5E0,2E2,1.2E1,1.875E1,1E0,1.75E0,1.5E0],"tree_param":{"num_deleted":"0","num_feature":"807","num_nodes":"53","size_leaf_vector":"1"}},{"base_weights":[-1.3042467E-2,2.255685E-1,-1.0968677E0,-1.0887612E0,5.912207E-1,-1.3391684E0,1.2003467E-1,8.796954E-2,-1.3256648E0,7.3439157E-1,-1.1628463E0,-1.443966E0,-2.3154356E-1,8.26735E-1,-7.9230124E-1,-3.3542666E-1,6.3604546E-1,-1.4330361E0,-2.0853537E-1,-1.1548334E0,8.968585E-1,1.4032815E-1,-4.3982333E-1,-1.5025746E0,8.3622E-3,6.5625495E-1,-3.748422E-1,-2.8152815E-1,4.2355922E-1,1.7077762E-1,-3.8272232E-1,-3.168369E-1,1.235668E0,1.7673073E-2,-1.4930379E0,-3.5849297E-1,7.5606734E-1,-4.4097665E-1,1.4759298E-1,-9.8058146E-1,9.7130394E-1,3.1403577E-1,-2.4627537E-1,-1.5339549E0,-3.754178E-2,-3.8947653E-2,3.1424716E-1,4.257507E-1,5.6285895E-2,-3.943834E-2,-4.572897E-1,3.3847373E-2,3.067627E-1,-2.5321466E-1,3.2449567E-1,-4.974852E-1,2.430719E-1,3.154774E-1,-2.8487647E-1,-1.9872876E-1,-4.8016497E-1],"categories":[],"categories_nodes":[],"categories_segments":[],"categories_sizes":[],"default_left":[0,0,0,0,0,0,0,0,0,0,0,0,0,0,0,0,0,0,0,0,0,0,0,0,0,0,0,0,0,0,0,0,0,0,0,0,0,0,0,0,0,0,0,0,0,0,0,0,0,0,0,0,0,0,0,0,0,0,0,0,0],"id":1,"left_children":[1,3,5,7,9,11,13,15,17,19,21,23,25,27,29,-1,31,33,35,37,39,41,-1,43,-1,45,-1,-1,-1,-1,-1,-1,47,-1,49,-1,51,-1,53,55,57,-1,-1,59,-1,-1,-1,-1,-1,-1,-1,-1,-1,-1,-1,-1,-1,-1,-1,-1,-1],"loss_changes":[9.514503E1,1.4557387E2,1.9733376E1,1.8512505E1,6.0266525E1,6.1009445E0,8.353432E0,8.641005E0,6.297394E0,6.835908E1,7.4135303E0,4.3944244E0,6.2269316E0,8.77974E0,4.4929304E0,0E0,1.0320944E1,4.5639496E0,6.6053615E0,7.524143E0,2.9259918E1,4.6545763E0,0E0,1.9062805E0,0E0,1.3204685E0,0E0,0E0,0E0,0E0,0E0,0E0,1.0841236E0,0E0,1.8471756E0,0E0,5.089345E-1,0E0,4.9674625E0,1.1322561E1,3.1120148E1,0E0,0E0,1.6892319E0,0E0,0E0,0E0,0E0,0E0,0E0,0E0,0E0,0E0,0E0,0E0,0E0,0E0,0E0,0E0,0E0,0E0],"parents":[2147483647,0,0,1,1,2,2,3,3,4,4,5,5,6,6,7,7,8,8,9,9,10,10,11,11,12,12,13,13,14,14,16,16,17,17,18,18,19,19,20,20,21,21,23,23,25,25,32,32,34,34,36,36,38,38,39,39,40,40,43,43],"right_children":[2,4,6,8,10,12,14,16,18,20,22,24,26,28,30,-1,32,34,36,38,40,42,-1,44,-1,46,-1,-1,-1,-1,-1,-1,48,-1,50,-1,52,-1,54,56,58,-1,-1,60,-1,-1,-1,-1,-1,-1,-1,-1,-1,-1,-1,-1,-1,-1,-1,-1,-1],"split_conditions":[2.5396744E-2,-2.5396744E-2,1.0922804E-3,-1.1836832E-3,2.2889666E-2,-3.1179616E-3,-1.4734474E-3,-1.1120485E-2,-3.0342326E-3,-2.2889666E-2,1.4583041E-2,5.6346543E-3,-1.6049766E-3,-1.6936451E-2,-1.971548E-3,-3.3542666E-1,-2.2514604E-2,-6.1301123E-3,-6.8478817E-3,-1.4523092E-2,-6.821367E-3,-4.184356E-4,-4.3982333E-1,7.648492E-3,8.3622E-3,-6.344539E-5,-3.748422E-1,-2.8152815E-1,4.2355922E-1,1.7077762E-1,-3.8272232E-1,-3.168369E-1,1.1547502E-3,1.7673073E-2,-7.836277E-3,-3.5849297E-1,-1.9679102E-3,-4.4097665E-1,-2.3692325E-4,1.2775526E-2,6.821367E-3,3.1403577E-1,-2.4627537E-1,-3.876807E-3,-3.754178E-2,-3.8947653E-2,3.1424716E-1,4.257507E-1,5.6285895E-2,-3.943834E-2,-4.572897E-1,3.3847373E-2,3.067627E-1,-2.5321466E-1,3.2449567E-1,-4.974852E-1,2.430719E-1,3.154774E-1,-2.8487647E-1,-1.9872876E-1,-4.8016497E-1],"split_indices":[88,88,25,25,93,438,596,752,432,93,380,155,802,15,466,0,90,155,724,380,727,145,0,376,0,3,0,0,0,0,0,0,134,0,376,0,3,0,145,123,727,0,0,248,0,0,0,0,0,0,0,0,0,0,0,0,0,0,0,0,0],"split_type":[0,0,0,0,0,0,0,0,0,0,0,0,0,0,0,0,0,0,0,0,0,0,0,0,0,0,0,0,0,0,0,0,0,0,0,0,0,0,0,0,0,0,0,0,0,0,0,0,0,0,0,0,0,0,0,0,0,0,0,0,0],"sum_hessian":[3.659489E2,3.005687E2,6.538022E1,6.498909E1,2.3557962E2,5.4440044E1,1.094018E1,1.0996536E1,5.3992554E1,2.1833957E2,1.7240044E1,4.945702E1,4.9830213E0,6.2177234E0,4.722456E0,3.1108928E0,7.885644E0,4.9000187E1,4.992366E0,1.6805935E1,2.0153363E2,3.3557048E0,1.3884337E1,4.7542984E1,1.9140372E0,2.8514254E0,2.1315956E0,1.3976448E0,4.8200784E0,1.1908967E0,3.5315592E0,1.8640046E0,6.0216393E0,1.895164E0,4.7105022E1,2.3501654E0,2.6422005E0,1.3428622E1,3.3773124E0,7.222308E0,1.9431133E2,1.6812719E0,1.6744329E0,4.6372902E1,1.1700827E0,1.1696002E0,1.6818253E0,4.8230696E0,1.1985697E0,1.1740578E0,4.5930965E1,1.1908967E0,1.4513037E0,1.6849033E0,1.692409E0,5.293204E0,1.9291041E0,1.8694995E2,7.3613796E0,4.0690155E0,4.2303886E1],"tree_param":{"num_deleted":"0","num_feature":"807","num_nodes":"61","size_leaf_vector":"1"}},{"base_weights":[-2.2153385E-2,-1.0568188E0,1.5222855E-1,-5.995439E-1,-1.317271E0,3.9063936E-1,-1.0305766E0,-1.1394929E0,2.7286687E-1,-3.8693465E-2,-4.0890002E-1,5.3069484E-1,-9.6207726E-1,-1.3195341E0,-4.65326E-1,-4.350116E-2,-1.2424623E0,9.519687E-1,-3.0593574E-1,-7.621305E-1,7.265702E-1,-1.266601E0,8.5542876E-1,-4.1555324E-1,3.9084658E-2,4.6554047E-1,-1.0941975E0,-1.00243725E-1,-3.9064437E-1,-1.3979805E-2,3.597861E-1,-4.3119613E-2,-1.5312101E0,-9.916685E-1,8.116612E-1,8.6233184E-2,-1.4103827E0,2.9426497E-1,8.246991E-2,-2.957837E-1,1.154195E0,-3.6283302E-1,-3.8157023E-2,1.5561983E-1,-3.5952955E-1,-1.14186496E-1,-4.77465E-1,-4.0321353E-1,2.512197E-1,-6.371211E-2,2.831459E-1,-4.3809924E-1,-9.163698E-2,4.1426104E-1,2.6561668E-2],"categories":[],"categories_nodes":[],"categories_segments":[],"categories_sizes":[],"default_left":[0,0,0,0,0,0,0,0,0,0,0,0,0,0,0,0,0,0,0,0,0,0,0,0,0,0,0,0,0,0,0,0,0,0,0,0,0,0,0,0,0,0,0,0,0,0,0,0,0,0,0,0,0,0,0],"id":2,"left_children":[1,3,5,7,9,11,13,15,17,-1,-1,19,21,23,25,-1,27,29,-1,31,33,35,37,-1,-1,39,41,-1,-1,-1,-1,43,45,47,49,-1,51,-1,-1,-1,53,-1,-1,-1,-1,-1,-1,-1,-1,-1,-1,-1,-1,-1,-1],"loss_changes":[6.037392E1,4.9578476E0,8.118411E1,9.424915E0,1.4495735E0,4.5816174E1,7.279873E0,1.0634451E0,8.172247E0,0E0,0E0,5.5592377E1,1.3698168E1,3.1722832E0,1.09842E1,0E0,1.5434265E-1,1.5118217E0,0E0,1.6017328E1,2.847586E1,4.8573303E0,1.2035608E-2,0E0,0E0,9.050627E0,1.0695438E0,0E0,0E0,0E0,0E0,1.1046972E1,3.6787415E-1,7.1713486E0,2.4679642E1,0E0,5.697441E-1,0E0,0E0,0E0,1.2859006E0,0E0,0E0,0E0,0E0,0E0,0E0,0E0,0E0,0E0,0E0,0E0,0E0,0E0,0E0],"parents":[2147483647,0,0,1,1,2,2,3,3,4,4,5,5,6,6,7,7,8,8,11,11,12,12,13,13,14,14,16,16,17,17,19,19,20,20,21,21,22,22,25,25,26,26,31,31,32,32,33,33,34,34,36,36,40,40],"right_children":[2,4,6,8,10,12,14,16,18,-1,-1,20,22,24,26,-1,28,30,-1,32,34,36,38,-1,-1,40,42,-1,-1,-1,-1,44,46,48,50,-1,52,-1,-1,-1,54,-1,-1,-1,-1,-1,-1,-1,-1,-1,-1,-1,-1,-1,-1],"split_conditions":[-1.3194963E-2,3.7124017E-3,1.32021075E-2,-6.244906E-3,-6.583077E-3,1.8298874E-2,-3.1534787E-3,-2.0570266E-3,4.2387475E-3,-3.8693465E-2,-4.0890002E-1,-2.4053962E-3,1.8775504E-4,6.583077E-3,6.2836767E-3,-4.350116E-2,-1.1963771E-2,-2.0125108E-3,-3.0593574E-1,5.0450256E-3,-7.848827E-3,-9.1854585E-3,7.3615666E-3,-4.1555324E-1,3.9084658E-2,-4.5701996E-3,2.6831606E-3,-1.00243725E-1,-3.9064437E-1,-1.3979805E-2,3.597861E-1,7.895498E-3,-9.894983E-3,2.321652E-2,-9.691563E-3,8.6233184E-2,2.2874318E-2,2.9426497E-1,8.246991E-2,-2.957837E-1,6.279582E-4,-3.6283302E-1,-3.8157023E-2,1.5561983E-1,-3.5952955E-1,-1.14186496E-1,-4.77465E-1,-4.0321353E-1,2.512197E-1,-6.371211E-2,2.831459E-1,-4.3809924E-1,-9.163698E-2,4.1426104E-1,2.6561668E-2],"split_indices":[380,786,380,181,247,106,786,95,723,0,0,308,547,247,181,0,276,58,0,370,626,395,113,0,0,723,233,0,0,0,0,626,127,66,439,0,428,0,0,0,52,0,0,0,0,0,0,0,0,0,0,0,0,0,0],"split_type":[0,0,0,0,0,0,0,0,0,0,0,0,0,0,0,0,0,0,0,0,0,0,0,0,0,0,0,0,0,0,0,0,0,0,0,0,0,0,0,0,0,0,0,0,0,0,0,0,0,0,0,0,0,0,0],"sum_hessian":[3.327253E2,4.7259396E1,2.854659E2,1.8347933E1,2.891146E1,2.3813603E2,4.732989E1,1.1144365E1,7.2035685E0,1.2129449E0,2.7698517E1,2.163442E2,2.1791828E1,3.0436335E1,1.6893557E1,1.2715753E0,9.872789E0,4.8953333E0,2.3082352E0,2.8085052E1,1.8825914E2,1.8924185E1,2.8676436E0,2.9160616E1,1.2757185E0,6.9160376E0,9.977518E0,1.0155916E0,8.857198E0,1.1328676E0,3.7624657E0,1.5060803E1,1.3024248E1,8.380381E0,1.7987877E2,1.5179938E0,1.740619E1,1.7909713E0,1.0766723E0,2.086531E0,4.829507E0,8.691032E0,1.2864856E0,1.0503658E1,4.5571456E0,1.0131428E0,1.2011106E1,7.249008E0,1.131373E0,2.0491623E1,1.5938715E2,1.6345636E1,1.0605547E0,3.7384994E0,1.0910075E0],"tree_param":{"num_deleted":"0","num_feature":"807","num_nodes":"55","size_leaf_vector":"1"}},{"base_weights":[-3.0575162E-2,-1.0527284E0,1.0385184E-1,2.9796788E-1,-1.2311797E0,3.4230566E-1,-7.236732E-1,2.7685958E-1,-2.4990542E-1,-1.3183947E0,-5.2100605E-1,4.5988065E-1,-9.785415E-1,-1.1236396E0,-4.4420827E-3,-4.0622747E-1,-7.757779E-2,8.316108E-2,-2.992336E-1,-1.0042377E0,5.7900923E-1,-1.0960121E0,1.071429E-1,-1.2540934E0,-2.0554721E-1,4.6758315E-1,-1.0457753E0,9.675694E-2,-3.489308E-1,6.761329E-1,-5.6755644E-1,-9.837897E-2,-3.5251835E-1,3.687622E-2,-1.3048438E0,3.3815384E-1,-2.8215677E-1,8.0497783E-1,-4.0851793E-1,-3.5398963E-1,-3.258131E-2,2.2838496E-1,-1.7613682E-1,-4.8673E-1,8.80965E-2,-4.440389E-2,-4.1326863E-1,3.261081E-1,-2.3945612E-1],"categories":[],"categories_nodes":[],"categories_segments":[],"categories_sizes":[],"default_left":[0,0,0,0,0,0,0,0,0,0,0,0,0,0,0,0,0,0,0,0,0,0,0,0,0,0,0,0,0,0,0,0,0,0,0,0,0,0,0,0,0,0,0,0,0,0,0,0,0],"id":3,"left_children":[1,3,5,7,9,11,13,-1,-1,15,17,19,21,23,25,-1,-1,-1,-1,27,29,31,-1,33,35,37,39,-1,-1,41,43,-1,-1,-1,45,-1,-1,47,-1,-1,-1,-1,-1,-1,-1,-1,-1,-1,-1],"loss_changes":[4.1021194E1,8.729813E0,5.235184E1,4.199463E0,1.2234001E0,3.2389114E1,1.7078985E1,0E0,0E0,6.6431046E-1,2.188166E0,3.363935E1,3.0792465E0,4.3126526E0,1.14145E1,0E0,0E0,0E0,0E0,3.458086E0,1.9972355E1,5.855942E-1,0E0,2.4817085E0,6.882142E0,1.0962409E1,7.8257275E-1,0E0,0E0,1.7939949E1,1.3450027E1,0E0,0E0,0E0,2.4983063E0,0E0,0E0,7.2544613E0,0E0,0E0,0E0,0E0,0E0,0E0,0E0,0E0,0E0,0E0,0E0],"parents":[2147483647,0,0,1,1,2,2,3,3,4,4,5,5,6,6,9,9,10,10,11,11,12,12,13,13,14,14,19,19,20,20,21,21,23,23,24,24,25,25,26,26,29,29,30,30,34,34,37,37],"right_children":[2,4,6,8,10,12,14,-1,-1,16,18,20,22,24,26,-1,-1,-1,-1,28,30,32,-1,34,36,38,40,-1,-1,42,44,-1,-1,-1,46,-1,-1,48,-1,-1,-1,-1,-1,-1,-1,-1,-1,-1,-1],"split_conditions":[-1.8298874E-2,-1.8775504E-4,1.2292153E-2,8.564873E-3,9.1854585E-3,1.8175667E-2,1.4594783E-3,2.7685958E-1,-2.4990542E-1,1.7539883E-3,4.1580917E-3,-1.8105472E-2,1.2438886E-3,3.876807E-3,1.1169756E-2,-4.0622747E-1,-7.757779E-2,8.316108E-2,-2.992336E-1,9.007619E-3,8.921406E-3,-3.1461853E-3,1.071429E-1,-4.5254678E-3,6.9522476E-3,6.921059E-3,4.916862E-3,9.675694E-2,-3.489308E-1,3.268244E-3,1.2994774E-3,-9.837897E-2,-3.5251835E-1,3.687622E-2,4.265303E-4,3.3815384E-1,-2.8215677E-1,1.4716934E-2,-4.0851793E-1,-3.5398963E-1,-3.258131E-2,2.2838496E-1,-1.7613682E-1,-4.8673E-1,8.80965E-2,-4.440389E-2,-4.1326863E-1,3.261081E-1,-2.3945612E-1],"split_indices":[106,547,106,380,395,380,749,0,0,796,440,380,225,248,374,0,0,0,0,806,533,244,0,443,283,142,757,0,0,308,535,0,0,0,438,0,0,93,0,0,0,0,0,0,0,0,0,0,0],"split_type":[0,0,0,0,0,0,0,0,0,0,0,0,0,0,0,0,0,0,0,0,0,0,0,0,0,0,0,0,0,0,0,0,0,0,0,0,0,0,0,0,0,0,0,0,0,0,0,0,0],"sum_hessian":[2.9674658E2,3.3696278E1,2.630503E2,3.8541908E0,2.9842089E1,2.0466252E2,5.8387768E1,2.6010592E0,1.2531317E0,2.5815323E1,4.026765E0,1.885322E2,1.6130337E1,3.7160458E1,2.122731E1,2.4705494E1,1.1098303E0,1.6614333E0,2.3653314E0,1.3626721E1,1.7490547E2,1.499132E1,1.1390166E0,3.2216732E1,4.943725E0,1.4985514E1,6.241797E0,1.3470076E0,1.2279714E1,1.616248E2,1.3280672E1,1.8793166E0,1.3112002E1,1.0946063E0,3.1122126E1,1.5675914E0,3.3761337E0,1.3124761E1,1.8607528E0,5.233377E0,1.0084199E0,1.5179065E2,9.834146E0,5.5718956E0,7.7087765E0,2.0201545E0,2.910197E1,1.1434932E1,1.6898291E0],"tree_param":{"num_deleted":"0","num_feature":"807","num_nodes":"49","size_leaf_vector":"1"}},{"base_weights":[-3.9888225E-2,-9.198339E-1,8.202306E-2,-1.1265221E0,4.217695E-1,3.3525193E-1,-4.9935788E-1,-1.1876203E0,-2.4183077E-1,-1.8666779E-1,2.6748428E-1,4.5537126E-1,-8.8586867E-1,-1.3478045E-2,-9.211919E-1,-2.8765481E-2,-1.2278291E0,-2.0065828E-1,9.606286E-2,-6.790022E-2,6.723016E-1,9.263176E-2,-3.309622E-1,3.1926864E-1,-8.546048E-1,-9.8312896E-1,1.9734342E-1,-3.777436E-1,-7.542586E-2,9.006728E-1,-3.2342103E-1,-7.07048E-1,7.988039E-1,-1.9496904E-1,2.164798E-1,5.713536E-1,-1.1360805E0,-1.0304631E0,9.3462445E-2,-1.1895642E0,-5.439743E-1,3.3890653E-1,-1.1509236E-1,8.332367E-3,-3.4537953E-1,-5.202469E-1,2.0044509E-1,2.7753252E-1,-6.419065E-2,-1.342581E-1,2.582439E-1,-4.4149384E-1,-6.749995E-2,-3.516577E-1,7.843118E-3,-3.784649E-1,-4.129947E-2,-3.0246803E-1,5.7909306E-2],"categories":[],"categories_nodes":[],"categories_segments":[],"categories_sizes":[],"default_left":[0,0,0,0,0,0,0,0,0,0,0,0,0,0,0,0,0,0,0,0,0,0,0,0,0,0,0,0,0,0,0,0,0,0,0,0,0,0,0,0,0,0,0,0,0,0,0,0,0,0,0,0,0,0,0,0,0,0,0],"id":4,"left_children":[1,3,5,7,9,11,13,15,17,-1,-1,19,21,23,25,-1,27,-1,-1,29,31,33,-1,35,37,39,-1,-1,-1,41,43,45,47,-1,-1,49,51,53,-1,55,57,-1,-1,-1,-1,-1,-1,-1,-1,-1,-1,-1,-1,-1,-1,-1,-1,-1,-1],"loss_changes":[2.8570295E1,9.460653E0,3.4649727E1,1.2452545E0,3.0335526E0,2.442273E1,1.4635323E1,1.035183E0,9.551223E-1,0E0,0E0,1.7044073E1,3.2932415E0,9.852281E0,4.386486E0,0E0,4.553833E-1,0E0,0E0,1.1377592E1,1.9052685E1,2.1734383E0,0E0,9.913632E0,2.3664432E0,2.725071E0,0E0,0E0,0E0,3.2613797E0,1.0550777E1,1.4480183E1,1.26727295E1,0E0,0E0,6.9295664E0,9.1103125E-1,1.3632927E0,0E0,1.6784897E0,4.8947496E0,0E0,0E0,0E0,0E0,0E0,0E0,0E0,0E0,0E0,0E0,0E0,0E0,0E0,0E0,0E0,0E0,0E0,0E0],"parents":[2147483647,0,0,1,1,2,2,3,3,4,4,5,5,6,6,7,7,8,8,11,11,12,12,13,13,14,14,16,16,19,19,20,20,21,21,23,23,24,24,25,25,29,29,30,30,31,31,32,32,35,35,36,36,37,37,39,39,40,40],"right_children":[2,4,6,8,10,12,14,16,18,-1,-1,20,22,24,26,-1,28,-1,-1,30,32,34,-1,36,38,40,-1,-1,-1,42,44,46,48,-1,-1,50,52,54,-1,56,58,-1,-1,-1,-1,-1,-1,-1,-1,-1,-1,-1,-1,-1,-1,-1,-1,-1,-1],"split_conditions":[-1.1504844E-2,1.0962841E-2,7.6910416E-3,6.780987E-3,-1.4022648E-2,1.8175667E-2,2.4451294E-3,-3.2471109E-3,-1.8713929E-2,-1.8666779E-1,2.6748428E-1,-7.6910416E-3,-1.11172085E-4,1.183292E-2,-1.4760224E-3,-2.8765481E-2,6.8391524E-3,-2.0065828E-1,9.606286E-2,-1.6049766E-3,-8.921406E-3,-5.7917368E-3,-3.309622E-1,3.4474563E-3,5.3568184E-3,3.6168876E-4,1.9734342E-1,-3.777436E-1,-7.542586E-2,5.6133154E-3,1.3175664E-3,2.5603543E-3,7.165356E-3,-1.9496904E-1,2.164798E-1,-5.9644957E-3,2.2937977E-3,6.338473E-3,9.3462445E-2,1.4812187E-2,-3.8343687E-3,3.3890653E-1,-1.1509236E-1,8.332367E-3,-3.4537953E-1,-5.202469E-1,2.0044509E-1,2.7753252E-1,-6.419065E-2,-1.342581E-1,2.582439E-1,-4.4149384E-1,-6.749995E-2,-3.516577E-1,7.843118E-3,-3.784649E-1,-4.129947E-2,-3.0246803E-1,5.7909306E-2],"split_indices":[55,317,106,785,707,380,343,646,12,0,0,106,72,102,448,0,326,0,0,802,533,723,0,792,614,731,0,0,0,806,786,735,527,0,0,457,85,87,0,496,352,0,0,0,0,0,0,0,0,0,0,0,0,0,0,0,0,0,0],"split_type":[0,0,0,0,0,0,0,0,0,0,0,0,0,0,0,0,0,0,0,0,0,0,0,0,0,0,0,0,0,0,0,0,0,0,0,0,0,0,0,0,0,0,0,0,0,0,0,0,0,0,0,0,0,0,0,0,0,0,0],"sum_hessian":[2.6462354E2,3.140436E1,2.332192E2,2.735097E1,4.053389E0,1.6275308E2,7.04661E1,2.5263798E1,2.087173E0,1.157376E0,2.8960128E0,1.4874811E2,1.4004984E1,3.322667E1,3.723943E1,1.0176482E0,2.424615E1,1.0780373E0,1.0091357E0,4.379482E1,1.04953285E2,2.64963E0,1.1355353E1,2.4252785E1,8.9738865E0,3.619696E1,1.042469E0,2.3212107E1,1.0340415E0,8.61481E0,3.5180008E1,8.431304E0,9.652198E1,1.1998591E0,1.449771E0,2.1189846E1,3.062939E0,7.8990393E0,1.0748469E0,2.346018E1,1.2736782E1,7.413287E0,1.2015232E0,2.5379663E1,9.800344E0,4.6770697E0,3.7542336E0,8.5896286E1,1.0625692E1,4.567261E0,1.6622583E1,1.7888145E0,1.2741243E0,6.8683524E0,1.030687E0,2.1771004E1,1.6891762E0,7.588591E0,5.1481905E0],"tree_param":{"num_deleted":"0","num_feature":"807","num_nodes":"59","size_leaf_vector":"1"}},{"base_weights":[-4.2293407E-2,-8.226983E-1,7.1154244E-2,-9.171562E-1,4.3595597E-2,-5.0525266E-1,2.732342E-1,-4.166335E-1,-1.0356269E0,-2.0989951E-1,2.3597907E-1,1.7281628E-1,-7.941267E-1,-6.310439E-1,4.256709E-1,5.173845E-1,-2.9889974E-1,-1.0935628E0,-3.2793555E-1,6.4281046E-1,-2.8735816E-1,-3.5430554E-1,-1.2235299E0,4.7054204E-1,-1.2363057E0,-6.300689E-1,6.021598E-1,-1.0164067E-2,2.335886E-1,-3.370011E-1,-9.5720194E-2,3.2180503E-2,-1.7845674E-1,8.7095886E-1,-2.340498E-1,-7.3454505E-1,6.9363844E-1,-1.623344E-1,-1.3715477E0,9.5871514E-1,-6.603544E-1,-1.3596016E0,3.731622E-2,9.134949E-2,-1.2566737E0,7.1591556E-1,-3.5360435E-1,-1.2214733E-1,3.1936616E-1,7.7932045E-2,-3.259473E-1,-1.3230094E-1,3.1553507E-1,2.0922425E-1,-2.7487606E-1,-4.3631896E-1,-1.2783709E-1,3.1234533E-1,7.5441085E-2,8.246699E-2,-3.6850742E-1,-3.294686E-2,-4.3565205E-1,2.1135472E-1,-2.3190959E-1,3.6600016E-2,-4.7329816E-1,2.440011E-1,-3.525924E-2,6.823566E-2,-3.7924507E-1],"categories":[],"categories_nodes":[],"categories_segments":[],"categories_sizes":[],"default_left":[0,0,0,0,0,0,0,0,0,0,0,0,0,0,0,0,0,0,0,0,0,0,0,0,0,0,0,0,0,0,0,0,0,0,0,0,0,0,0,0,0,0,0,0,0,0,0,0,0,0,0,0,0,0,0,0,0,0,0,0,0,0,0,0,0,0,0,0,0,0,0],"id":5,"left_children":[1,3,5,7,9,11,13,15,17,-1,-1,19,21,23,25,27,-1,29,31,33,-1,35,37,39,41,43,45,-1,-1,-1,-1,-1,-1,47,-1,49,51,53,55,57,59,61,-1,63,65,67,69,-1,-1,-1,-1,-1,-1,-1,-1,-1,-1,-1,-1,-1,-1,-1,-1,-1,-1,-1,-1,-1,-1,-1,-1],"loss_changes":[2.1094728E1,2.5141544E0,2.4408663E1,1.1878586E0,2.719201E0,1.0800537E1,2.1624668E1,4.251368E0,5.1916885E-1,0E0,0E0,9.694828E0,6.8100586E0,1.5751571E1,2.5193567E1,5.0171053E-1,0E0,8.8033676E-2,4.1792187E-1,4.7917585E0,0E0,8.62027E0,2.761671E0,5.487116E0,2.6788616E0,8.958184E0,1.2714268E1,0E0,0E0,0E0,0E0,0E0,0E0,3.251505E0,0E0,5.678834E0,2.8750455E0,2.8816578E0,6.7572784E-1,1.2001419E-1,2.0605032E0,1.4371624E0,0E0,5.8583817E0,4.85561E0,8.438671E0,7.09136E0,0E0,0E0,0E0,0E0,0E0,0E0,0E0,0E0,0E0,0E0,0E0,0E0,0E0,0E0,0E0,0E0,0E0,0E0,0E0,0E0,0E0,0E0,0E0,0E0],"parents":[2147483647,0,0,1,1,2,2,3,3,4,4,5,5,6,6,7,7,8,8,11,11,12,12,13,13,14,14,15,15,17,17,18,18,19,19,21,21,22,22,23,23,24,24,25,25,26,26,33,33,35,35,36,36,37,37,38,38,39,39,40,40,41,41,43,43,44,44,45,45,46,46],"right_children":[2,4,6,8,10,12,14,16,18,-1,-1,20,22,24,26,28,-1,30,32,34,-1,36,38,40,42,44,46,-1,-1,-1,-1,-1,-1,48,-1,50,52,54,56,58,60,62,-1,64,66,68,70,-1,-1,-1,-1,-1,-1,-1,-1,-1,-1,-1,-1,-1,-1,-1,-1,-1,-1,-1,-1,-1,-1,-1,-1],"split_conditions":[-1.3194963E-2,4.993621E-3,-9.8818345E-3,1.15642985E-2,-1.785087E-3,-4.089073E-3,-1.6252654E-2,4.717741E-4,3.2716414E-3,-2.0989951E-1,2.3597907E-1,3.282843E-2,3.8714654E-5,-1.1984002E-2,-5.468755E-3,4.487863E-4,-2.9889974E-1,6.8103825E-3,4.0467153E-3,4.2476498E-2,-2.8735816E-1,4.2581485E-4,-6.9098505E-3,4.2115385E-3,7.122979E-3,7.874072E-5,2.4053962E-3,-1.0164067E-2,2.335886E-1,-3.370011E-1,-9.5720194E-2,3.2180503E-2,-1.7845674E-1,-5.6504253E-3,-2.340498E-1,-5.190777E-3,-2.6841788E-3,1.0074449E-2,8.221588E-3,6.7569134E-3,-9.358611E-3,-3.272005E-3,3.731622E-2,6.320416E-3,-4.9280655E-4,1.1073985E-2,-2.6365465E-3,-1.2214733E-1,3.1936616E-1,7.7932045E-2,-3.259473E-1,-1.3230094E-1,3.1553507E-1,2.0922425E-1,-2.7487606E-1,-4.3631896E-1,-1.2783709E-1,3.1234533E-1,7.5441085E-2,8.246699E-2,-3.6850742E-1,-3.294686E-2,-4.3565205E-1,2.1135472E-1,-2.3190959E-1,3.6600016E-2,-4.7329816E-1,2.440011E-1,-3.525924E-2,6.823566E-2,-3.7924507E-1],"split_indices":[380,720,806,102,308,753,745,41,248,0,0,412,628,400,10,731,0,542,419,416,0,350,534,737,422,65,308,0,0,0,0,0,0,263,0,502,723,104,340,133,550,109,0,649,378,737,269,0,0,0,0,0,0,0,0,0,0,0,0,0,0,0,0,0,0,0,0,0,0,0,0],"split_type":[0,0,0,0,0,0,0,0,0,0,0,0,0,0,0,0,0,0,0,0,0,0,0,0,0,0,0,0,0,0,0,0,0,0,0,0,0,0,0,0,0,0,0,0,0,0,0,0,0,0,0,0,0,0,0,0,0,0,0,0,0,0,0,0,0,0,0,0,0,0,0],"sum_hessian":[2.3660283E2,2.9236124E1,2.073667E2,2.6308786E1,2.9273376E0,5.3438896E1,1.5392781E2,5.8997793E0,2.0409006E1,1.4925712E0,1.4347664E0,1.6084885E1,3.735401E1,2.1751984E1,1.3217583E2,2.3005693E0,3.5992103E0,1.836064E1,2.0483668E0,1.1666778E1,4.4181075E0,1.9354774E1,1.7999237E1,7.792355E0,1.3959628E1,1.8563103E1,1.13612724E2,1.0195262E0,1.2810429E0,1.724719E1,1.1134492E0,1.0060935E0,1.0422733E0,1.0389019E1,1.2777586E0,1.4421199E1,4.9335756E0,2.4599133E0,1.5539323E1,5.549192E0,2.243163E0,1.280054E1,1.159088E0,9.025798E0,9.537305E0,1.0175296E2,1.1859766E1,1.2215018E0,9.167517E0,3.838514E0,1.0582685E1,1.1281439E0,3.8054318E0,1.1843086E0,1.2756046E0,1.3792329E1,1.7469943E0,4.547067E0,1.002125E0,1.0425682E0,1.2005948E0,1.0335332E0,1.1767007E1,5.3883862E0,3.6374114E0,1.9182271E0,7.6190777E0,9.112545E1,1.0627508E1,7.6977305E0,4.162035E0],"tree_param":{"num_deleted":"0","num_feature":"807","num_nodes":"71","size_leaf_vector":"1"}},{"base_weights":[-4.695998E-2,-7.228133E-1,6.057175E-2,-6.047655E-2,-9.3909395E-1,1.790208E-1,-7.8452754E-1,6.693694E-1,-6.6139245E-1,8.592099E-2,-1.0120758E0,-3.6658323E-1,3.1512192E-1,4.5640862E-1,-9.964293E-1,1.941604E-4,2.6459444E-1,-3.757806E-1,1.2710604E-1,-1.2000922E0,-5.165227E-1,3.9949092E-1,-6.5548825E-1,4.2174295E-1,-6.7107975E-1,-1.00122176E-1,2.5157374E-1,-1.0781915E0,-1.5996786E-2,-8.743335E-2,-3.758259E-1,3.137728E-1,-2.7563748E-1,9.025758E-1,-2.437079E-1,-3.006543E-1,-1.2369672E0,5.7122064E-1,-3.9305076E-1,5.843978E-1,-1.08265E0,-1.1395748E0,-1.5361047E-2,-6.917741E-2,2.0782505E-1,5.1502332E-2,3.12714E-1,1.3247037E-1,-2.3095019E-1,-4.3865108E-1,-4.1990586E-2,-6.2826455E-2,2.037126E-1,1.3510895E-1,-3.0770236E-1,-2.7274182E-2,2.5548625E-1,-3.7872478E-1,8.2678996E-2,-7.610638E-2,-3.5420704E-1],"categories":[],"categories_nodes":[],"categories_segments":[],"categories_sizes":[],"default_left":[0,0,0,0,0,0,0,0,0,0,0,0,0,0,0,0,0,0,0,0,0,0,0,0,0,0,0,0,0,0,0,0,0,0,0,0,0,0,0,0,0,0,0,0,0,0,0,0,0,0,0,0,0,0,0,0,0,0,0,0,0],"id":6,"left_children":[1,3,5,7,9,11,13,15,17,-1,19,21,23,25,27,-1,-1,-1,-1,29,31,33,35,37,39,-1,-1,41,-1,-1,-1,43,-1,45,-1,47,49,51,53,55,57,59,-1,-1,-1,-1,-1,-1,-1,-1,-1,-1,-1,-1,-1,-1,-1,-1,-1,-1,-1],"loss_changes":[1.5405061E1,4.1104794E0,1.8486673E1,4.05212E0,2.2450848E0,1.2112586E1,6.4281044E0,5.9846175E-1,3.7488935E0,0E0,1.3230286E0,7.5029955E0,1.3936012E1,1.4874724E0,1.4628906E0,0E0,0E0,0E0,0E0,3.2209587E-1,2.7903728E0,6.5744004E0,4.608159E0,1.4570467E1,7.3779445E0,0E0,0E0,1.0821648E0,0E0,0E0,0E0,8.179107E-1,0E0,5.6126976E-1,0E0,6.0198774E0,1.9757595E0,8.553936E0,1.052046E1,7.7621424E-1,2.8339596E0,3.2056618E-1,0E0,0E0,0E0,0E0,0E0,0E0,0E0,0E0,0E0,0E0,0E0,0E0,0E0,0E0,0E0,0E0,0E0,0E0,0E0],"parents":[2147483647,0,0,1,1,2,2,3,3,4,4,5,5,6,6,7,7,8,8,10,10,11,11,12,12,13,13,14,14,19,19,20,20,21,21,22,22,23,23,24,24,27,27,31,31,33,33,35,35,36,36,37,37,38,38,39,39,40,40,41,41],"right_children":[2,4,6,8,10,12,14,16,18,-1,20,22,24,26,28,-1,-1,-1,-1,30,32,34,36,38,40,-1,-1,42,-1,-1,-1,44,-1,46,-1,48,50,52,54,56,58,60,-1,-1,-1,-1,-1,-1,-1,-1,-1,-1,-1,-1,-1,-1,-1,-1,-1,-1,-1],"split_conditions":[-2.4053962E-3,-3.5090828E-3,1.1504844E-2,3.047828E-3,-1.2440085E-2,-9.483416E-3,-1.12354625E-2,-1.0321067E-2,3.7228358E-3,8.592099E-2,-1.1664612E-3,-2.4475794E-2,3.3220068E-2,-2.9484725E-3,1.4662449E-3,1.941604E-4,2.6459444E-1,-3.757806E-1,1.2710604E-1,-2.2088566E-3,3.2042614E-3,1.4941071E-2,5.3706225E-3,1.21708615E-2,-4.2552245E-3,-1.00122176E-1,2.5157374E-1,1.1890869E-2,-1.5996786E-2,-8.743335E-2,-3.758259E-1,-5.941586E-3,-2.7563748E-1,-1.6121157E-2,-2.437079E-1,-1.4852475E-4,1.7907906E-3,-7.0307544E-3,-6.9419635E-3,-4.6871514E-3,2.5366377E-3,-5.8965366E-3,-1.5361047E-2,-6.917741E-2,2.0782505E-1,5.1502332E-2,3.12714E-1,1.3247037E-1,-2.3095019E-1,-4.3865108E-1,-4.1990586E-2,-6.2826455E-2,2.037126E-1,1.3510895E-1,-3.0770236E-1,-2.7274182E-2,2.5548625E-1,-3.7872478E-1,8.2678996E-2,-7.610638E-2,-3.5420704E-1],"split_indices":[308,541,55,3,411,422,317,589,345,0,545,703,95,596,526,0,0,0,0,339,23,43,739,96,803,0,0,127,0,0,0,343,0,637,0,672,34,699,664,519,244,326,0,0,0,0,0,0,0,0,0,0,0,0,0,0,0,0,0,0,0],"split_type":[0,0,0,0,0,0,0,0,0,0,0,0,0,0,0,0,0,0,0,0,0,0,0,0,0,0,0,0,0,0,0,0,0,0,0,0,0,0,0,0,0,0,0,0,0,0,0,0,0,0,0,0,0,0,0,0,0,0,0,0,0],"sum_hessian":[2.1036754E2,2.8090788E1,1.8227675E2,7.229826E0,2.0860962E1,1.6056073E2,2.1716017E1,3.213245E0,4.016581E0,1.0081401E0,1.9852821E1,3.1717543E1,1.2884319E2,2.9990654E0,1.8716951E1,1.0171325E0,2.1961124E0,2.5000381E0,1.5165427E0,1.3361607E1,6.491215E0,8.580996E0,2.3136549E1,1.1678915E2,1.2054044E1,1.0189917E0,1.9800736E0,1.709194E1,1.6250112E0,1.0899086E0,1.2271698E1,2.1903195E0,4.3008957E0,6.2440596E0,2.336936E0,1.5310639E1,7.8259087E0,9.893754E1,1.7851612E1,2.8722975E0,9.1817465E0,1.6024523E1,1.0674173E0,1.0597028E0,1.1306167E0,1.3603038E0,4.8837557E0,5.9526505E0,9.357989E0,6.216782E0,1.6091267E0,1.1892418E1,8.704512E1,7.7746077E0,1.0077004E1,1.0013987E0,1.870899E0,8.170874E0,1.0108724E0,1.0287536E0,1.49957695E1],"tree_param":{"num_deleted":"0","num_feature":"807","num_nodes":"61","size_leaf_vector":"1"}},{"base_weights":[-4.6356153E-2,4.6719942E-2,-7.345927E-1,2.0669027E-1,-5.1518816E-1,-8.8476144E-2,-9.6694887E-1,-4.4222388E-1,3.3749288E-1,-8.6494E-1,-2.2469234E-2,-7.1049017E-1,2.1405917E-1,-1.1174586E0,3.806974E-2,5.759962E-1,-7.7754015E-1,5.664758E-1,-3.42551E-2,-9.613577E-1,5.698614E-2,4.6201444E-1,-7.4935067E-1,4.044708E-2,-3.212445E-1,-3.5032803E-1,-9.274858E-2,-1.5725152E-1,2.8717417E-1,-1.2666608E0,-1.10423736E-1,6.5523237E-1,-5.370842E-1,6.682587E-1,-3.703486E-1,3.828501E-2,-1.0926106E0,8.9768064E-1,-4.0410712E-1,1.1677446E-1,-1.090587E0,-4.5929673E-1,1.6166354E-2,-2.7748674E-1,1.2537546E-1,-1.5850848E-1,2.230786E-1,1.6423617E-1,-3.0804694E-1,2.9032615E-1,-8.6848274E-2,6.678698E-2,-2.76579E-1,2.0387329E-1,-1.930706E-1,-3.5977829E-1,-4.017182E-2,3.1741214E-1,-2.2798376E-3,9.11569E-2,-2.815014E-1,-8.744962E-2,-3.9584514E-1],"categories":[],"categories_nodes":[],"categories_segments":[],"categories_sizes":[],"default_left":[0,0,0,0,0,0,0,0,0,0,0,0,0,0,0,0,0,0,0,0,0,0,0,0,0,0,0,0,0,0,0,0,0,0,0,0,0,0,0,0,0,0,0,0,0,0,0,0,0,0,0,0,0,0,0,0,0,0,0,0,0,0,0],"id":7,"left_children":[1,3,5,7,9,11,13,15,17,19,21,23,-1,25,-1,27,29,31,33,35,-1,37,39,-1,-1,-1,-1,-1,-1,41,43,45,47,49,51,53,55,57,59,-1,61,-1,-1,-1,-1,-1,-1,-1,-1,-1,-1,-1,-1,-1,-1,-1,-1,-1,-1,-1,-1,-1,-1],"loss_changes":[1.2273466E1,1.5319391E1,3.3404932E0,1.139164E1,6.493026E0,4.067207E0,2.8885508E0,8.181959E0,9.451019E0,2.4279003E0,6.2327843E0,1.5212572E0,0E0,2.394085E-1,0E0,3.0965016E0,5.5593433E0,7.0733204E0,1.0441909E1,2.7173233E0,0E0,4.380965E0,3.170161E0,0E0,0E0,0E0,0E0,0E0,0E0,3.5667973E0,4.037734E0,7.0826473E0,3.5672255E0,4.390182E0,9.967695E0,1.8946843E0,1.6858463E0,1.0816331E0,1.8938135E0,0E0,6.579981E-1,0E0,0E0,0E0,0E0,0E0,0E0,0E0,0E0,0E0,0E0,0E0,0E0,0E0,0E0,0E0,0E0,0E0,0E0,0E0,0E0,0E0,0E0],"parents":[2147483647,0,0,1,1,2,2,3,3,4,4,5,5,6,6,7,7,8,8,9,9,10,10,11,11,13,13,15,15,16,16,17,17,18,18,19,19,21,21,22,22,29,29,30,30,31,31,32,32,33,33,34,34,35,35,36,36,37,37,38,38,40,40],"right_children":[2,4,6,8,10,12,14,16,18,20,22,24,-1,26,-1,28,30,32,34,36,-1,38,40,-1,-1,-1,-1,-1,-1,42,44,46,48,50,52,54,56,58,60,-1,62,-1,-1,-1,-1,-1,-1,-1,-1,-1,-1,-1,-1,-1,-1,-1,-1,-1,-1,-1,-1,-1,-1],"split_conditions":[1.6886927E-2,3.9178343E-3,-7.1701566E-3,-7.165356E-3,-1.0120769E-2,-8.528073E-3,-6.1916554E-4,-1.850748E-2,6.401701E-3,1.3680949E-3,9.327163E-3,-4.2647584E-3,2.1405917E-1,-5.0899093E-3,3.806974E-2,-1.00491615E-2,1.1886724E-3,6.0304343E-3,-7.5794016E-3,-2.4364814E-2,5.698614E-2,4.862783E-3,-1.4408342E-2,4.044708E-2,-3.212445E-1,-3.5032803E-1,-9.274858E-2,-1.5725152E-1,2.8717417E-1,-7.842358E-3,-9.382451E-3,-1.713923E-2,-5.0833817E-3,4.6569746E-4,1.313298E-3,1.2906704E-3,2.0854417E-2,2.8099224E-3,6.6981018E-3,1.1677446E-1,-9.830876E-5,-4.5929673E-1,1.6166354E-2,-2.7748674E-1,1.2537546E-1,-1.5850848E-1,2.230786E-1,1.6423617E-1,-3.0804694E-1,2.9032615E-1,-8.6848274E-2,6.678698E-2,-2.76579E-1,2.0387329E-1,-1.930706E-1,-3.5977829E-1,-4.017182E-2,3.1741214E-1,-2.2798376E-3,9.11569E-2,-2.815014E-1,-8.744962E-2,-3.9584514E-1],"split_indices":[103,547,758,527,103,365,733,313,313,728,662,166,0,472,0,439,270,678,361,428,0,380,419,0,0,0,0,0,0,136,736,380,482,626,324,132,602,63,410,0,274,0,0,0,0,0,0,0,0,0,0,0,0,0,0,0,0,0,0,0,0,0,0],"split_type":[0,0,0,0,0,0,0,0,0,0,0,0,0,0,0,0,0,0,0,0,0,0,0,0,0,0,0,0,0,0,0,0,0,0,0,0,0,0,0,0,0,0,0,0,0,0,0,0,0,0,0,0,0,0,0,0,0,0,0,0,0,0,0],"sum_hessian":[1.900624E2,1.6824174E2,2.182065E1,1.3145097E2,3.679078E1,6.1367807E0,1.5683869E1,2.1652359E1,1.0979861E2,2.1075264E1,1.5715516E1,3.5204935E0,2.616287E0,1.3767871E1,1.9159977E0,5.186198E0,1.646616E1,6.762209E1,4.2176517E1,1.9391537E1,1.6837267E0,9.64877E0,6.0667453E0,1.2391961E0,2.2812977E0,1.2542612E1,1.2252598E0,1.2382199E0,3.9479783E0,8.981983E0,7.484178E0,6.296429E1,4.6578026E0,1.332851E1,2.8848007E1,2.3328092E0,1.7058727E1,6.3953967E0,3.2533739E0,1.3664916E0,4.700254E0,7.351173E0,1.6308098E0,2.649237E0,4.834941E0,4.0282116E0,5.893608E1,1.4123256E0,3.2454767E0,1.0145507E1,3.1830027E0,1.4189799E1,1.4658208E1,1.2038809E0,1.1289282E0,1.5125218E1,1.9335095E0,5.2896533E0,1.1057434E0,1.5846373E0,1.6687367E0,1.5528123E0,3.1474416E0],"tree_param":{"num_deleted":"0","num_feature":"807","num_nodes":"63","size_leaf_vector":"1"}},{"base_weights":[-4.5819685E-2,-5.6148154E-1,5.5688374E-2,4.3868795E-1,-7.660881E-1,-7.553454E-1,1.531809E-1,-7.2677866E-2,2.3021139E-1,-1.0916941E0,-1.5967646E-1,-1.0059812E0,-1.2426653E-1,2.7873784E-1,-2.968701E-1,-1.1681714E0,-6.117732E-5,-7.906385E-1,4.9261525E-1,-1.1358798E0,3.8532186E-2,-1.9251022E-1,3.8365656E-1,4.6940085E-1,-2.9352432E-1,-6.288211E-1,3.6533147E-1,-3.6560482E-1,-1.17738344E-1,-2.8442463E-1,-2.9971516E-2,2.9644042E-1,-1.576096E-1,-9.177856E-2,-3.586232E-1,-4.1277196E-2,2.0329492E-1,6.036466E-1,-3.501329E-1,-5.485459E-1,4.3476585E-1,1.6979687E-1,-9.561794E-1,-4.1655123E-1,8.6657614E-1,4.177891E-2,2.5558043E-1,1.7286849E-1,-2.2262706E-1,1.3575804E-1,-2.1452986E-1,2.4560946E-1,-2.0832188E-1,-1.8933976E-1,2.1460752E-1,-3.5073563E-1,1.10037215E-1,-2.5447628E-1,1.3007948E-1,2.9830477E-1,2.4559738E-2],"categories":[],"categories_nodes":[],"categories_segments":[],"categories_sizes":[],"default_left":[0,0,0,0,0,0,0,0,0,0,0,0,0,0,0,0,0,0,0,0,0,0,0,0,0,0,0,0,0,0,0,0,0,0,0,0,0,0,0,0,0,0,0,0,0,0,0,0,0,0,0,0,0,0,0,0,0,0,0,0,0],"id":8,"left_children":[1,3,5,7,9,11,13,-1,-1,15,17,19,21,23,25,27,-1,29,31,33,-1,-1,35,37,39,41,43,-1,-1,-1,-1,-1,-1,-1,-1,-1,-1,45,47,49,51,53,55,57,59,-1,-1,-1,-1,-1,-1,-1,-1,-1,-1,-1,-1,-1,-1,-1,-1],"loss_changes":[9.047517E0,6.152154E0,1.1567341E1,1.4085156E0,4.5562735E0,2.3598623E0,7.435419E0,0E0,0E0,1.2866821E0,4.3164024E0,1.7820826E0,1.7197183E0,1.1294463E1,6.5752573E0,8.622551E-2,0E0,4.7446752E-1,3.1963747E0,1.3153839E-1,0E0,0E0,6.227188E-1,8.691963E0,5.0988913E0,5.2853637E0,4.386467E0,0E0,0E0,0E0,0E0,0E0,0E0,0E0,0E0,0E0,0E0,7.560484E0,4.5968256E0,3.628965E0,3.7526836E0,3.3119485E0,4.3867245E0,2.0882785E0,5.786958E-1,0E0,0E0,0E0,0E0,0E0,0E0,0E0,0E0,0E0,0E0,0E0,0E0,0E0,0E0,0E0,0E0],"parents":[2147483647,0,0,1,1,2,2,3,3,4,4,5,5,6,6,9,9,10,10,11,11,12,12,13,13,14,14,15,15,17,17,18,18,19,19,22,22,23,23,24,24,25,25,26,26,37,37,38,38,39,39,40,40,41,41,42,42,43,43,44,44],"right_children":[2,4,6,8,10,12,14,-1,-1,16,18,20,22,24,26,28,-1,30,32,34,-1,-1,36,38,40,42,44,-1,-1,-1,-1,-1,-1,-1,-1,-1,-1,46,48,50,52,54,56,58,60,-1,-1,-1,-1,-1,-1,-1,-1,-1,-1,-1,-1,-1,-1,-1,-1],"split_conditions":[-4.799463E-3,-2.0040462E-3,-1.2123512E-2,-1.4217403E-3,4.712234E-3,-9.224329E-3,9.8818345E-3,-7.2677866E-2,2.3021139E-1,6.972988E-3,9.5986825E-4,2.720417E-3,-2.4717983E-3,1.1252637E-2,4.240348E-3,1.6206002E-3,-6.117732E-5,3.989477E-3,1.7761901E-2,-2.3151958E-2,3.8532186E-2,-1.9251022E-1,-1.6892774E-2,4.782167E-3,1.8920263E-3,-2.997042E-3,-5.1637357E-3,-3.6560482E-1,-1.17738344E-1,-2.8442463E-1,-2.9971516E-2,2.9644042E-1,-1.576096E-1,-9.177856E-2,-3.586232E-1,-4.1277196E-2,2.0329492E-1,-3.9653424E-3,-2.3118695E-3,9.043217E-3,8.554787E-4,-2.0204488E-2,4.1235485E-3,4.3465383E-3,-3.1299256E-3,4.177891E-2,2.5558043E-1,1.7286849E-1,-2.2262706E-1,1.3575804E-1,-2.1452986E-1,2.4560946E-1,-2.0832188E-1,-1.8933976E-1,2.1460752E-1,-3.5073563E-1,1.10037215E-1,-2.5447628E-1,1.3007948E-1,2.9830477E-1,2.4559738E-2],"split_indices":[728,720,752,545,47,731,806,0,0,423,142,581,141,93,753,672,0,804,658,419,0,0,89,547,377,268,720,0,0,0,0,0,0,0,0,0,0,737,370,96,231,93,644,536,724,0,0,0,0,0,0,0,0,0,0,0,0,0,0,0,0],"split_type":[0,0,0,0,0,0,0,0,0,0,0,0,0,0,0,0,0,0,0,0,0,0,0,0,0,0,0,0,0,0,0,0,0,0,0,0,0,0,0,0,0,0,0,0,0,0,0,0,0,0,0,0,0,0,0,0,0,0,0,0,0],"sum_hessian":[1.7125044E2,2.7420855E1,1.4382959E2,4.462577E0,2.2958277E1,1.4710037E1,1.2911955E2,1.5383826E0,2.924194E0,1.44169855E1,8.541292E0,1.0103372E1,4.6066656E0,1.0125242E2,2.7867134E1,1.3407323E1,1.0096625E0,4.2338214E0,4.307471E0,9.06418E0,1.0391917E0,2.151498E0,2.4551675E0,7.60832E1,2.5169218E1,1.859578E1,9.271355E0,1.2051519E1,1.3558031E0,3.1445012E0,1.0893202E0,2.9169257E0,1.3905449E0,1.0175099E0,8.04667E0,1.0772341E0,1.3779333E0,6.560074E1,1.0482461E1,1.8824383E1,6.3448343E0,5.546337E0,1.3049441E1,3.687795E0,5.5835595E0,2.3398483E1,4.2202255E1,2.976827E0,7.505634E0,2.440246E0,1.6384138E1,4.940098E0,1.4047365E0,2.183674E0,3.3626633E0,1.1340428E1,1.709013E0,2.4472957E0,1.2404991E0,4.571961E0,1.0115988E0],"tree_param":{"num_deleted":"0","num_feature":"807","num_nodes":"61","size_leaf_vector":"1"}},{"base_weights":[-3.939549E-2,2.9285004E-2,-7.450662E-1,2.0264342E-1,-3.7278986E-1,-9.4837844E-1,-7.629723E-2,3.6152992E-1,-2.5049427E-1,-5.5425805E-1,1.3463923E-1,-8.970645E-3,-3.1374863E-1,3.4643754E-1,-1.9194467E-1,-1.8656237E-1,5.1483524E-1,-7.773748E-1,8.559782E-2,-1.6346712E-1,-9.0638614E-1,7.986789E-1,-6.1013865E-1,-3.5023995E-2,1.8855275E-1,-7.8407013E-1,2.8644004E-1,-5.2805084E-1,5.929525E-1,1.2964058E-1,-9.621822E-1,4.552509E-1,-7.059524E-1,2.7017686E-1,-7.507778E-1,-1.302892E-1,-1.132785E0,3.0055937E-1,-4.7475114E-2,-8.117064E-1,6.33217E-2,-3.152611E-1,9.689808E-2,1.6300623E-1,-1.7452791E-1,-2.6989746E-1,1.2242587E-1,-9.3418695E-2,2.0696422E-1,-2.8417809E-2,-3.3806124E-1,-2.4827848E-1,2.112837E-1,-3.2052556E-1,1.425838E-1,-2.3238792E-1,1.8174818E-1,-2.4179392E-3,-2.721042E-1,-2.632697E-1,1.7743787E-1,-3.8271597E-1,5.0483238E-2,-6.237402E-2,-2.7119654E-1],"categories":[],"categories_nodes":[],"categories_segments":[],"categories_sizes":[],"default_left":[0,0,0,0,0,0,0,0,0,0,0,0,0,0,0,0,0,0,0,0,0,0,0,0,0,0,0,0,0,0,0,0,0,0,0,0,0,0,0,0,0,0,0,0,0,0,0,0,0,0,0,0,0,0,0,0,0,0,0,0,0,0,0,0,0],"id":9,"left_children":[1,3,5,7,9,11,13,15,17,19,21,-1,-1,23,-1,25,27,29,31,33,35,37,39,-1,-1,41,43,45,47,-1,49,51,53,55,57,59,61,-1,-1,63,-1,-1,-1,-1,-1,-1,-1,-1,-1,-1,-1,-1,-1,-1,-1,-1,-1,-1,-1,-1,-1,-1,-1,-1,-1],"loss_changes":[7.568505E0,1.0033531E1,1.8106108E0,7.3242235E0,4.0702477E0,9.1144466E-1,1.2498229E0,6.380924E0,4.7899537E0,4.276928E0,6.5381627E0,0E0,0E0,4.803301E-1,0E0,5.052501E0,5.096444E0,2.7600355E0,5.350076E0,4.3954053E0,2.7858973E0,1.500349E0,1.2197478E0,0E0,0E0,2.6478343E0,2.6062026E0,1.9744929E0,5.0442142E0,0E0,1.2371998E0,4.5196905E0,3.018107E0,4.0481176E0,8.347521E-1,3.1620264E0,2.5941124E0,0E0,0E0,1.0690689E-1,0E0,0E0,0E0,0E0,0E0,0E0,0E0,0E0,0E0,0E0,0E0,0E0,0E0,0E0,0E0,0E0,0E0,0E0,0E0,0E0,0E0,0E0,0E0,0E0,0E0],"parents":[2147483647,0,0,1,1,2,2,3,3,4,4,5,5,6,6,7,7,8,8,9,9,10,10,13,13,15,15,16,16,17,17,18,18,19,19,20,20,21,21,22,22,25,25,26,26,27,27,28,28,30,30,31,31,32,32,33,33,34,34,35,35,36,36,39,39],"right_children":[2,4,6,8,10,12,14,16,18,20,22,-1,-1,24,-1,26,28,30,32,34,36,38,40,-1,-1,42,44,46,48,-1,50,52,54,56,58,60,62,-1,-1,64,-1,-1,-1,-1,-1,-1,-1,-1,-1,-1,-1,-1,-1,-1,-1,-1,-1,-1,-1,-1,-1,-1,-1,-1,-1],"split_conditions":[1.9681431E-2,7.6910416E-3,1.646496E-2,7.19301E-3,1.6049766E-3,-3.2511912E-3,3.0394783E-3,-8.55986E-3,-2.7930026E-3,-3.5649778E-3,1.1504844E-2,-8.970645E-3,-3.1374863E-1,-1.0190468E-3,-1.9194467E-1,-9.560876E-4,-1.7447937E-2,-8.918113E-3,8.695344E-3,4.2826873E-3,-1.0784842E-2,-2.6421736E-3,-3.3383889E-3,-3.5023995E-2,1.8855275E-1,9.567217E-3,9.181506E-3,1.8426684E-3,-1.8039562E-2,1.2964058E-1,-8.394129E-3,-5.6632967E-3,4.3726363E-3,-1.0990151E-2,-1.155603E-2,-2.7676744E-2,-7.595998E-4,3.0055937E-1,-4.7475114E-2,5.431477E-3,6.33217E-2,-3.152611E-1,9.689808E-2,1.6300623E-1,-1.7452791E-1,-2.6989746E-1,1.2242587E-1,-9.3418695E-2,2.0696422E-1,-2.8417809E-2,-3.3806124E-1,-2.4827848E-1,2.112837E-1,-3.2052556E-1,1.425838E-1,-2.3238792E-1,1.8174818E-1,-2.4179392E-3,-2.721042E-1,-2.632697E-1,1.7743787E-1,-3.8271597E-1,5.0483238E-2,-6.237402E-2,-2.7119654E-1],"split_indices":[112,106,392,674,802,298,143,491,199,77,55,0,0,3,0,74,803,735,775,4,203,166,334,0,0,595,104,227,775,0,755,726,345,744,218,92,415,0,0,553,0,0,0,0,0,0,0,0,0,0,0,0,0,0,0,0,0,0,0,0,0,0,0,0,0],"split_type":[0,0,0,0,0,0,0,0,0,0,0,0,0,0,0,0,0,0,0,0,0,0,0,0,0,0,0,0,0,0,0,0,0,0,0,0,0,0,0,0,0,0,0,0,0,0,0,0,0,0,0,0,0,0,0,0,0,0,0,0,0,0,0,0,0],"sum_hessian":[1.5471152E2,1.4186299E2,1.2848534E1,9.9471085E1,4.2391903E1,9.5324745E0,3.3160598E0,7.379726E1,2.5673828E1,3.1157122E1,1.1234781E1,1.0397351E0,8.492739E0,2.1148136E0,1.2012464E0,1.6082539E1,5.7714714E1,9.48754E0,1.6186289E1,1.5461839E1,1.5695283E1,5.901059E0,5.333722E0,1.0222716E0,1.0925419E0,6.8154535E0,9.267086E0,3.6204908E0,5.4094223E1,1.0801268E0,8.4074135E0,1.1323219E1,4.8630686E0,9.205146E0,6.2566924E0,3.9003475E0,1.1794935E1,4.828798E0,1.0722612E0,4.2918525E0,1.0418695E0,5.532815E0,1.2826385E0,7.4397163E0,1.8273697E0,2.6195903E0,1.0009005E0,5.0223794E0,4.9071842E1,1.5928187E0,6.8145947E0,1.463066E0,9.860153E0,3.7942817E0,1.068787E0,1.9201912E0,7.2849545E0,1.2701629E0,4.98653E0,1.8102169E0,2.0901306E0,1.0644957E1,1.1499782E0,1.0002604E0,3.2915924E0],"tree_param":{"num_deleted":"0","num_feature":"807","num_nodes":"65","size_leaf_vector":"1"}},{"base_weights":[-4.4442203E-2,-7.8543353E-1,9.961961E-3,-2.8195554E-1,-1.5841094E-1,6.568922E-2,-7.4133754E-1,-1.6337454E-1,8.9124545E-2,-6.145253E-1,1.21335395E-1,-2.7463815E-1,-1.58342E-1,1.2832533E-1,-7.9149824E-1,-2.295847E-1,2.6965758E-1,8.8743985E-2,-1.6835436E-1,-7.973174E-3,-3.108819E-1,5.527116E-1,-4.1524592E-1,-1.01496905E-1,4.1050154E-1,1.254258E-1,-1.3016967E-1,2.3547141E-1,-8.61831E-2,-1.7561708E-1,1.0195262E-1,-3.064241E-1,8.7976076E-2,-1.5601121E-1,1.4931734E-1],"categories":[],"categories_nodes":[],"categories_segments":[],"categories_sizes":[],"default_left":[0,0,0,0,0,0,0,0,0,0,0,0,0,0,0,0,0,0,0,0,0,0,0,0,0,0,0,0,0,0,0,0,0,0,0],"id":10,"left_children":[1,3,5,-1,7,9,11,-1,-1,13,15,-1,17,-1,19,21,23,-1,-1,25,-1,27,29,31,33,-1,-1,-1,-1,-1,-1,-1,-1,-1,-1],"loss_changes":[5.6505113E0,7.7931213E-1,5.549525E0,0E0,7.065529E-1,4.7390413E0,7.842822E-1,0E0,0E0,2.0878806E0,6.0344434E0,0E0,7.723722E-1,0E0,1.6138735E0,5.259402E0,4.28203E0,0E0,0E0,7.2964144E-1,0E0,1.6047034E0,3.8681045E0,8.693782E0,5.047595E0,0E0,0E0,0E0,0E0,0E0,0E0,0E0,0E0,0E0,0E0],"parents":[2147483647,0,0,1,1,2,2,4,4,5,5,6,6,9,9,10,10,12,12,14,14,15,15,16,16,19,19,21,21,22,22,23,23,24,24],"right_children":[2,4,6,-1,8,10,12,-1,-1,14,16,-1,18,-1,20,22,24,-1,-1,26,-1,28,30,32,34,-1,-1,-1,-1,-1,-1,-1,-1,-1,-1],"split_conditions":[-1.8105472E-2,1.11172085E-4,1.8175667E-2,-2.8195554E-1,-2.110924E-2,-1.9681431E-2,-2.6197878E-3,-1.6337454E-1,8.9124545E-2,-3.4121892E-3,-7.6910416E-3,-2.7463815E-1,-1.3790522E-3,1.2832533E-1,-4.2493353E-3,-1.2739627E-2,-5.413371E-3,8.8743985E-2,-1.6835436E-1,-3.6742276E-4,-3.108819E-1,9.895767E-3,3.3373702E-3,-2.4801565E-3,-8.921406E-3,1.254258E-1,-1.3016967E-1,2.3547141E-1,-8.61831E-2,-1.7561708E-1,1.0195262E-1,-3.064241E-1,8.7976076E-2,-1.5601121E-1,1.4931734E-1],"split_indices":[380,72,380,0,93,112,786,0,0,784,106,0,219,0,362,400,370,0,0,372,0,744,198,623,533,0,0,0,0,0,0,0,0,0,0],"split_type":[0,0,0,0,0,0,0,0,0,0,0,0,0,0,0,0,0,0,0,0,0,0,0,0,0,0,0,0,0,0,0,0,0,0,0],"sum_hessian":[1.3897185E2,8.586443E0,1.303854E2,6.4893775E0,2.0970652E0,1.22231514E2,8.153894E0,1.0290442E0,1.0680212E0,8.483721E0,1.1374779E2,5.8395348E0,2.31436E0,1.0257218E0,7.457999E0,3.363108E1,8.011671E1,1.2127743E0,1.1015856E0,2.0210814E0,5.436918E0,6.0714827E0,2.7559599E1,2.2115892E1,5.8000816E1,1.0195842E0,1.0014974E0,4.8080106E0,1.2634724E0,2.2674974E1,4.8846235E0,6.16399E0,1.5951902E1,4.5454493E0,5.3455368E1],"tree_param":{"num_deleted":"0","num_feature":"807","num_nodes":"35","size_leaf_vector":"1"}},{"base_weights":[-4.3234233E-2,1.3819109E-2,-7.0315796E-1,9.946724E-2,-4.8970526E-1,-5.2377228E-2,-9.7371596E-1,2.1265557E-1,-3.3666837E-1,-8.132142E-1,9.806708E-2,-1.8734765E-1,1.3315469E-1,-3.3837864E-1,-7.228493E-2,-7.36019E-1,2.8551102E-1,4.0797737E-1,-6.1448556E-1,-9.741328E-1,2.1350153E-2,4.3636143E-1,-2.0734891E-1,-2.3151943E-2,-2.696288E-1,-3.1542122E-1,4.0120554E-1,-1.3490003E-1,7.704291E-1,-1.1643112E0,-2.8374332E-1,-4.6430486E-1,-3.5247165E-1,-9.573319E-2,7.603644E-1,-2.6157418E-1,1.2616105E-1,1.5199387E-1,-9.601221E-2,6.681206E-2,2.573634E-1,-6.5239206E-2,-4.1691765E-1,-2.3481433E-1,4.0203452E-2,7.9333656E-2,-2.5187388E-1,2.660079E-1,6.0264267E-2],"categories":[],"categories_nodes":[],"categories_segments":[],"categories_sizes":[],"default_left":[0,0,0,0,0,0,0,0,0,0,0,0,0,0,0,0,0,0,0,0,0,0,0,0,0,0,0,0,0,0,0,0,0,0,0,0,0,0,0,0,0,0,0,0,0,0,0,0,0],"id":11,"left_children":[1,3,5,7,9,11,13,15,17,19,21,-1,-1,-1,-1,23,25,27,29,31,-1,33,-1,-1,-1,35,37,-1,39,41,43,45,-1,-1,47,-1,-1,-1,-1,-1,-1,-1,-1,-1,-1,-1,-1,-1,-1],"loss_changes":[4.8999696E0,5.246653E0,1.7722082E0,5.1976657E0,3.4435358E0,1.4404856E0,5.483012E-1,5.95065E0,4.7571087E0,1.7084532E0,2.216595E0,0E0,0E0,0E0,0E0,5.957482E-1,5.5392423E0,2.3731413E0,2.6271496E0,4.5891E-1,0E0,1.6215807E0,0E0,0E0,0E0,5.7435937E0,5.1603937E0,0E0,4.6111107E-2,9.3277884E-1,2.4972663E0,1.4324181E0,0E0,0E0,1.2143326E-1,0E0,0E0,0E0,0E0,0E0,0E0,0E0,0E0,0E0,0E0,0E0,0E0,0E0,0E0],"parents":[2147483647,0,0,1,1,2,2,3,3,4,4,5,5,6,6,7,7,8,8,9,9,10,10,15,15,16,16,17,17,18,18,19,19,21,21,25,25,26,26,28,28,29,29,30,30,31,31,34,34],"right_children":[2,4,6,8,10,12,14,16,18,20,22,-1,-1,-1,-1,24,26,28,30,32,-1,34,-1,-1,-1,36,38,-1,40,42,44,46,-1,-1,48,-1,-1,-1,-1,-1,-1,-1,-1,-1,-1,-1,-1,-1,-1],"split_conditions":[1.3207091E-2,2.4053962E-3,-1.2733195E-3,9.483416E-3,-3.58726E-4,-8.4839435E-3,1.058281E-2,-2.0048E-2,-1.7650796E-2,7.642537E-3,1.6327151E-3,-1.8734765E-1,1.3315469E-1,-3.3837864E-1,-7.228493E-2,-3.1661056E-3,-1.21708615E-2,-2.5376964E-2,1.9751478E-3,5.635483E-3,2.1350153E-2,-1.5156922E-3,-2.0734891E-1,-2.3151943E-2,-2.696288E-1,6.8218065E-3,7.0307544E-3,-1.3490003E-1,-1.2641101E-3,-1.4536642E-3,-9.4106793E-4,5.7124444E-3,-3.5247165E-1,-9.573319E-2,9.182516E-3,-2.6157418E-1,1.2616105E-1,1.5199387E-1,-9.601221E-2,6.681206E-2,2.573634E-1,-6.5239206E-2,-4.1691765E-1,-2.3481433E-1,4.0203452E-2,7.9333656E-2,-2.5187388E-1,2.660079E-1,6.0264267E-2],"split_indices":[752,308,575,422,300,283,44,106,694,41,507,0,0,0,0,679,96,733,596,620,0,449,0,0,0,664,699,0,108,308,134,458,0,0,397,0,0,0,0,0,0,0,0,0,0,0,0,0,0],"split_type":[0,0,0,0,0,0,0,0,0,0,0,0,0,0,0,0,0,0,0,0,0,0,0,0,0,0,0,0,0,0,0,0,0,0,0,0,0,0,0,0,0,0,0,0,0,0,0,0,0],"sum_hessian":[1.2888423E2,1.1952944E2,9.354793E0,1.02839226E2,1.6690214E1,3.0976114E0,6.257181E0,8.205601E1,2.078322E1,1.0517725E1,6.17249E0,1.3187268E0,1.7788848E0,4.723774E0,1.5334072E0,5.203042E0,7.685297E1,5.5197854E0,1.5263434E1,8.812713E0,1.7050122E0,4.633499E0,1.538991E0,1.3226534E0,3.8803885E0,1.2128685E1,6.472428E1,1.5682707E0,3.9515147E0,4.7863364E0,1.0477098E1,3.4258752E0,5.3868375E0,1.3952707E0,3.2382286E0,6.8012247E0,5.3274603E0,5.6728542E1,7.995737E0,1.0323385E0,2.9191763E0,1.2981633E0,3.4881735E0,4.3763337E0,6.1007643E0,1.2648928E0,2.1609824E0,2.164625E0,1.0736036E0],"tree_param":{"num_deleted":"0","num_feature":"807","num_nodes":"49","size_leaf_vector":"1"}},{"base_weights":[-4.957666E-2,-3.4186548E-1,5.7591178E-2,-4.1562196E-2,-7.9568815E-1,-2.8832626E-1,3.0686378E-1,-3.912168E-1,2.4588802E-1,-1.119681E0,-1.9862503E-1,-5.3871614E-1,1.0605554E-1,4.0119356E-1,-5.6322235E-1,-8.685069E-1,3.4310204E-1,6.0254586E-1,-5.4355687E-1,-1.2563568E0,-3.7659932E-2,-2.109575E-1,2.2766753E-1,-7.020321E-1,5.2600867E-1,-7.490831E-1,3.189952E-1,-2.1449226E-1,5.9027183E-1,6.8561636E-2,-8.7923527E-1,8.943202E-2,-1.1934856E0,2.0106757E-1,-9.68321E-2,-1.19651526E-1,7.928926E-1,-2.2644751E-1,2.0058403E-2,-4.191333E-1,-8.1589594E-2,-1.4672416E-1,2.0117195E-1,-7.9047805E-1,1.0213961E-1,2.0582627E-1,1.6203186E-2,-3.2968664E-1,5.289061E-3,6.78135E-1,-1.8112966E-1,5.6023675E-1,-7.0989597E-1,-2.2550225E-2,7.7657753E-1,-7.9866394E-2,-3.019757E-1,-4.4400132E-1,-7.219655E-2,2.6887283E-1,1.6641041E-2,-3.6435893E-1,-1.4497773E-1,2.8273943E-1,1.9245509E-2,9.460595E-2,-1.5846717E-1,-5.5205855E-3,2.1522945E-1,-3.5382652E-1,3.7031777E-2,1.3281608E-1,-1.9011901E-1,5.5398762E-2,2.7726796E-1],"categories":[],"categories_nodes":[],"categories_segments":[],"categories_sizes":[],"default_left":[0,0,0,0,0,0,0,0,0,0,0,0,0,0,0,0,0,0,0,0,0,0,0,0,0,0,0,0,0,0,0,0,0,0,0,0,0,0,0,0,0,0,0,0,0,0,0,0,0,0,0,0,0,0,0,0,0,0,0,0,0,0,0,0,0,0,0,0,0,0,0,0,0,0,0],"id":12,"left_children":[1,3,5,7,9,11,13,15,17,19,21,23,25,27,29,31,33,35,37,39,-1,-1,41,43,45,47,49,51,53,-1,55,-1,57,-1,-1,-1,59,-1,-1,-1,-1,-1,-1,61,-1,-1,-1,-1,-1,63,65,67,69,71,73,-1,-1,-1,-1,-1,-1,-1,-1,-1,-1,-1,-1,-1,-1,-1,-1,-1,-1,-1,-1],"loss_changes":[3.7751515E0,4.3701477E0,7.7267056E0,2.1564395E0,2.2557764E0,3.7715628E0,4.491176E0,3.6746762E0,3.6679268E0,9.4135666E-1,1.3908563E0,4.398572E0,3.0509772E0,5.652532E0,1.5768082E0,2.6768937E0,1.1991723E0,1.9642882E0,5.9438765E-1,5.899534E-1,0E0,0E0,1.5523751E0,2.1610498E0,2.3897517E-1,9.2538106E-1,2.4695585E0,4.9596367E0,4.194189E0,0E0,5.4956913E-2,0E0,1.0056419E0,0E0,0E0,0E0,5.294919E-1,0E0,0E0,0E0,0E0,0E0,0E0,1.9163446E0,0E0,0E0,0E0,0E0,0E0,1.207921E0,1.2436197E0,4.8573208E-1,3.1549084E0,2.9821446E0,2.283558E0,0E0,0E0,0E0,0E0,0E0,0E0,0E0,0E0,0E0,0E0,0E0,0E0,0E0,0E0,0E0,0E0,0E0,0E0,0E0,0E0],"parents":[2147483647,0,0,1,1,2,2,3,3,4,4,5,5,6,6,7,7,8,8,9,9,10,10,11,11,12,12,13,13,14,14,15,15,16,16,17,17,18,18,19,19,22,22,23,23,24,24,25,25,26,26,27,27,28,28,30,30,32,32,36,36,43,43,49,49,50,50,51,51,52,52,53,53,54,54],"right_children":[2,4,6,8,10,12,14,16,18,20,22,24,26,28,30,32,34,36,38,40,-1,-1,42,44,46,48,50,52,54,-1,56,-1,58,-1,-1,-1,60,-1,-1,-1,-1,-1,-1,62,-1,-1,-1,-1,-1,64,66,68,70,72,74,-1,-1,-1,-1,-1,-1,-1,-1,-1,-1,-1,-1,-1,-1,-1,-1,-1,-1,-1,-1],"split_conditions":[-8.001028E-3,-6.110058E-4,-5.327104E-3,-1.1952549E-2,-9.233776E-5,6.7863904E-4,4.9549933E-3,5.7853665E-3,3.7162643E-4,5.1814527E-3,-2.632831E-3,9.214359E-3,-3.2561652E-3,-4.2151036E-3,-2.9420282E-3,-3.2706108E-4,4.3775467E-3,-1.787766E-2,-2.4546082E-3,3.6482692E-3,-3.7659932E-2,-2.109575E-1,-5.748105E-3,7.2056977E-3,1.309841E-2,-8.426763E-4,2.8114389E-3,3.0042497E-3,-5.045755E-3,6.8561636E-2,8.0413074E-4,8.943202E-2,1.740862E-3,2.0106757E-1,-9.68321E-2,-1.19651526E-1,2.0481808E-2,-2.2644751E-1,2.0058403E-2,-4.191333E-1,-8.1589594E-2,-1.4672416E-1,2.0117195E-1,-1.8000805E-4,1.0213961E-1,2.0582627E-1,1.6203186E-2,-3.2968664E-1,5.289061E-3,7.032413E-3,-4.4476422E-3,-6.299937E-4,1.1158775E-2,-1.1599057E-3,-4.309871E-3,-7.9866394E-2,-3.019757E-1,-4.4400132E-1,-7.219655E-2,2.6887283E-1,1.6641041E-2,-3.6435893E-1,-1.4497773E-1,2.8273943E-1,1.9245509E-2,9.460595E-2,-1.5846717E-1,-5.5205855E-3,2.1522945E-1,-3.5382652E-1,3.7031777E-2,1.3281608E-1,-1.9011901E-1,5.5398762E-2,2.7726796E-1],"split_indices":[145,403,187,152,546,803,532,59,526,518,666,127,483,622,376,389,301,412,221,56,0,0,545,120,201,646,422,179,733,0,260,0,386,0,0,0,754,0,0,0,0,0,0,106,0,0,0,0,0,376,332,603,328,209,483,0,0,0,0,0,0,0,0,0,0,0,0,0,0,0,0,0,0,0,0],"split_type":[0,0,0,0,0,0,0,0,0,0,0,0,0,0,0,0,0,0,0,0,0,0,0,0,0,0,0,0,0,0,0,0,0,0,0,0,0,0,0,0,0,0,0,0,0,0,0,0,0,0,0,0,0,0,0,0,0,0,0,0,0,0,0,0,0,0,0,0,0,0,0,0,0,0,0],"sum_hessian":[1.18891075E2,3.1309032E1,8.758204E1,1.9498247E1,1.1810786E1,3.6614777E1,5.0967266E1,8.634385E0,1.0863862E1,7.088784E0,4.7220016E0,2.2171984E1,1.4442792E1,4.6468338E1,4.498928E0,5.122283E0,3.5121024E0,7.64619E0,3.2176716E0,6.000131E0,1.0886532E0,1.865003E0,2.8569987E0,1.9518696E1,2.6532881E0,2.3774471E0,1.2065345E1,1.0886096E1,3.558224E1,1.362366E0,3.1365623E0,1.134026E0,3.988257E0,2.3507318E0,1.1613705E0,1.046323E0,6.5998673E0,2.2146146E0,1.0030571E0,4.8827095E0,1.1174219E0,1.0513532E0,1.8056453E0,1.8215067E1,1.3036296E0,1.6426122E0,1.010676E0,1.334943E0,1.0425042E0,6.815326E0,5.2500186E0,4.194978E0,6.691118E0,8.50043E0,2.708181E1,1.071113E0,2.0654492E0,2.640869E0,1.3473879E0,5.5996943E0,1.0001729E0,6.4117203E0,1.1803346E1,4.3902507E0,2.4250753E0,2.1977746E0,3.0522442E0,1.0847855E0,3.110193E0,4.0141335E0,2.676984E0,4.982813E0,3.5176167E0,5.856036E0,2.1225775E1],"tree_param":{"num_deleted":"0","num_feature":"807","num_nodes":"75","size_leaf_vector":"1"}},{"base_weights":[-4.745719E-2,-5.1591927E-1,1.4365229E-2,-3.1802857E-1,-1.2498578E-1,-3.0909553E-1,1.3374318E-1,3.639399E-1,-6.097028E-1,4.326293E-1,-4.4114614E-1,-4.1140872E-1,2.3198129E-1,1.8998672E-1,-9.599884E-2,-2.292157E-1,-2.365193E-2,2.1756071E-1,-4.3878023E-2,-1.514749E-1,-8.1726766E-1,-7.6951164E-1,2.1343894E-1,4.2849153E-1,-1.4131673E-1,-5.551434E-1,2.3991133E-1,-3.229285E-1,-3.6550683E-1,7.9422824E-2,-1.0011125E0,1.8384297E-1,-1.0551163E-1,-1.8735607E-1,5.9380263E-1,-5.739761E-1,3.3880374E-1,5.675211E-2,-2.795561E-1,1.5675361E-1,-1.2617952E-1,1.0879488E-1,-2.1912786E-1,-3.3825958E-1,-6.0309585E-2,1.2604658E-1,-2.0669053E-1,2.1153727E-1,-1.3165267E-1,-3.197971E-1,2.1959495E-2,-1.3568015E-1,1.7872103E-1],"categories":[],"categories_nodes":[],"categories_segments":[],"categories_sizes":[],"default_left":[0,0,0,0,0,0,0,0,0,0,0,0,0,0,0,0,0,0,0,0,0,0,0,0,0,0,0,0,0,0,0,0,0,0,0,0,0,0,0,0,0,0,0,0,0,0,0,0,0,0,0,0,0],"id":13,"left_children":[1,3,5,-1,7,9,11,13,15,17,19,21,23,-1,-1,-1,-1,-1,-1,25,27,29,31,33,35,37,39,41,-1,-1,43,-1,-1,45,47,49,51,-1,-1,-1,-1,-1,-1,-1,-1,-1,-1,-1,-1,-1,-1,-1,-1],"loss_changes":[3.1871753E0,2.5963054E0,3.8241997E0,0E0,2.2596023E0,2.8070757E0,3.9650202E0,1.1065605E0,3.241769E-1,8.752718E-1,2.4005547E0,2.713542E0,4.5985365E0,0E0,0E0,0E0,0E0,0E0,0E0,2.3950484E0,1.5601473E0,2.051847E0,1.3290297E0,4.2624536E0,4.782421E0,2.2369952E0,1.7069037E0,1.8780041E0,0E0,0E0,4.1093874E-1,0E0,0E0,3.1506848E0,4.032423E0,3.8954036E0,2.5250778E0,0E0,0E0,0E0,0E0,0E0,0E0,0E0,0E0,0E0,0E0,0E0,0E0,0E0,0E0,0E0,0E0],"parents":[2147483647,0,0,1,1,2,2,4,4,5,5,6,6,7,7,8,8,9,9,10,10,11,11,12,12,19,19,20,20,21,21,22,22,23,23,24,24,25,25,26,26,27,27,30,30,33,33,34,34,35,35,36,36],"right_children":[2,4,6,-1,8,10,12,14,16,18,20,22,24,-1,-1,-1,-1,-1,-1,26,28,30,32,34,36,38,40,42,-1,-1,44,-1,-1,46,48,50,52,-1,-1,-1,-1,-1,-1,-1,-1,-1,-1,-1,-1,-1,-1,-1,-1],"split_conditions":[-3.5392664E-2,-1.2739071E-3,-8.001028E-3,-3.1802857E-1,9.395044E-4,-1.3296349E-2,-1.1073985E-2,1.3049496E-2,-4.5057967E-2,-2.8989633E-4,-6.110058E-4,9.005388E-3,1.7360459E-3,1.8998672E-1,-9.599884E-2,-2.292157E-1,-2.365193E-2,2.1756071E-1,-4.3878023E-2,-1.2087917E-2,3.7826065E-3,-8.9168595E-3,5.5392007E-3,-3.8549663E-3,1.4966466E-3,6.5212406E-4,3.7162643E-4,3.6406629E-3,-3.6550683E-1,7.9422824E-2,1.024297E-2,1.8384297E-1,-1.0551163E-1,6.6966866E-4,8.921406E-3,-1.214453E-3,-6.5344633E-3,5.675211E-2,-2.795561E-1,1.5675361E-1,-1.2617952E-1,1.0879488E-1,-2.1912786E-1,-3.3825958E-1,-6.0309585E-2,1.2604658E-1,-2.0669053E-1,2.1153727E-1,-1.3165267E-1,-3.197971E-1,2.1959495E-2,-1.3568015E-1,1.7872103E-1],"split_indices":[92,557,145,0,450,371,737,53,92,615,403,653,723,0,0,0,0,0,0,152,779,641,199,334,243,717,526,42,0,0,428,0,0,1,533,740,492,0,0,0,0,0,0,0,0,0,0,0,0,0,0,0,0],"split_type":[0,0,0,0,0,0,0,0,0,0,0,0,0,0,0,0,0,0,0,0,0,0,0,0,0,0,0,0,0,0,0,0,0,0,0,0,0,0,0,0,0,0,0,0,0,0,0,0,0,0,0,0,0],"sum_hessian":[1.0879297E2,1.1827137E1,9.696583E1,4.228876E0,7.598261E0,2.5711086E1,7.1254745E1,3.906755E0,3.6915057E0,3.5416262E0,2.216946E1,1.0393014E1,6.086173E1,2.8560367E0,1.0507181E0,2.5196486E0,1.1718572E0,2.1847148E0,1.3569114E0,1.3316467E1,8.852992E0,6.4595175E0,3.9334962E0,3.9775433E1,2.1086298E1,6.3494053E0,6.9670625E0,4.774087E0,4.0789056E0,1.155652E0,5.3038654E0,2.2553585E0,1.6781379E0,8.389172E0,3.138626E1,1.0988529E1,1.0097768E1,2.3009448E0,4.0484605E0,5.025721E0,1.9413413E0,1.820805E0,2.953282E0,4.226733E0,1.0771323E0,3.86753E0,4.5216417E0,2.8618303E1,2.767955E0,5.8749523E0,5.113577E0,2.2892237E0,7.808544E0],"tree_param":{"num_deleted":"0","num_feature":"807","num_nodes":"53","size_leaf_vector":"1"}},{"base_weights":[-4.971542E-2,-2.452528E-3,-6.4043075E-1,-2.4924605E-1,3.6735173E-2,5.8763865E-2,-8.0360115E-1,8.506134E-2,-5.171394E-1,-2.7172482E-1,-4.0359713E-2,6.2336763E-3,4.4464514E-1,9.0404294E-2,-8.6886936E-1,3.4628695E-1,-1.1588518E-1,-3.640897E-1,6.39285E-1,-3.5236445E-1,4.39199E-2,-9.930028E-2,1.6035017E-1,-1.9479118E-1,-1.2659122E-3,6.966087E-2,-2.2465496E-1,-3.9903417E-2,2.4192089E-1],"categories":[],"categories_nodes":[],"categories_segments":[],"categories_sizes":[],"default_left":[0,0,0,0,0,0,0,0,0,0,0,0,0,0,0,0,0,0,0,0,0,0,0,0,0,0,0,0,0],"id":14,"left_children":[1,3,5,-1,7,-1,9,11,13,-1,-1,15,17,-1,19,21,23,25,27,-1,-1,-1,-1,-1,-1,-1,-1,-1,-1],"loss_changes":[2.8283236E0,3.109718E0,1.1815803E0,0E0,2.4939106E0,0E0,3.2074022E-1,2.4077728E0,2.4170594E0,0E0,0E0,2.9788184E0,2.6374915E0,0E0,1.8769116E0,2.5924501E0,3.1432648E0,9.999662E-1,1.7432957E0,0E0,0E0,0E0,0E0,0E0,0E0,0E0,0E0,0E0,0E0],"parents":[2147483647,0,0,1,1,2,2,4,4,6,6,7,7,8,8,11,11,12,12,14,14,15,15,16,16,17,17,18,18],"right_children":[2,4,6,-1,8,-1,10,12,14,-1,-1,16,18,-1,20,22,24,26,28,-1,-1,-1,-1,-1,-1,-1,-1,-1,-1],"split_conditions":[1.976826E-2,-4.1074123E-2,-1.0493673E-2,-2.4924605E-1,2.8644623E-3,5.8763865E-2,3.1365566E-3,6.1774785E-3,-4.360432E-3,-2.7172482E-1,-4.0359713E-2,-5.0290218E-3,-2.441048E-2,9.0404294E-2,2.1595035E-3,-3.7445398E-3,-6.5394915E-3,8.401652E-6,-5.7862997E-3,-3.5236445E-1,4.39199E-2,-9.930028E-2,1.6035017E-1,-1.9479118E-1,-1.2659122E-3,6.966087E-2,-2.2465496E-1,-3.9903417E-2,2.4192089E-1],"split_indices":[106,100,422,0,615,0,679,559,74,0,0,559,739,0,636,725,699,485,729,0,0,0,0,0,0,0,0,0,0],"split_type":[0,0,0,0,0,0,0,0,0,0,0,0,0,0,0,0,0,0,0,0,0,0,0,0,0,0,0,0,0],"sum_hessian":[1.0036119E2,9.3855965E1,6.5052257E0,3.327012E0,9.052895E1,1.0292857E0,5.4759398E0,8.404257E1,6.486382E0,4.4437556E0,1.0321842E0,6.9765884E1,1.4276684E1,1.992654E0,4.493728E0,1.7949076E1,5.181681E1,2.6005862E0,1.1676098E1,3.3332613E0,1.1604671E0,3.7382638E0,1.4210811E1,8.136163E0,4.368065E1,1.1754302E0,1.4251559E0,2.1134353E0,9.562662E0],"tree_param":{"num_deleted":"0","num_feature":"807","num_nodes":"29","size_leaf_vector":"1"}},{"base_weights":[-4.6128895E-2,-6.6597617E-1,-5.26814E-3,-2.0821813E-2,-2.4771754E-1,5.4862034E-2,-5.111626E-1,9.1719285E-2,-6.1964583E-1,-2.3990609E-1,-1.4779495E-1,-2.799331E-1,1.6258587E-1,-2.563239E-1,2.2766221E-2,3.0587447E-1,-1.6946739E-1,1.3475983E-1,-6.150331E-1,-1.8122733E-1,2.7043638E-1,-5.2213933E-2,1.7850247E-1,1.8327159E-1,-1.1606783E-1,4.127875E-2,-2.6589394E-1,-2.8828245E-1,1.11273356E-1,-3.0045284E-2,1.3777979E-1],"categories":[],"categories_nodes":[],"categories_segments":[],"categories_sizes":[],"default_left":[0,0,0,0,0,0,0,0,0,0,0,0,0,0,0,0,0,0,0,0,0,0,0,0,0,0,0,0,0,0,0],"id":15,"left_children":[1,3,5,-1,-1,7,9,11,13,-1,15,17,19,-1,-1,21,-1,23,25,27,29,-1,-1,-1,-1,-1,-1,-1,-1,-1,-1],"loss_changes":[2.4408143E0,5.107353E-1,2.8129017E0,0E0,0E0,2.1134455E0,9.1158795E-1,2.1343832E0,7.857797E-1,0E0,1.2275264E0,1.8989344E0,2.5423868E0,0E0,0E0,5.6406486E-1,0E0,1.8908083E0,1.6343937E0,7.5266695E0,3.655953E0,0E0,0E0,0E0,0E0,0E0,0E0,0E0,0E0,0E0,0E0],"parents":[2147483647,0,0,1,1,2,2,5,5,6,6,7,7,8,8,10,10,11,11,12,12,15,15,17,17,18,18,19,19,20,20],"right_children":[2,4,6,-1,-1,8,10,12,14,-1,16,18,20,-1,-1,22,-1,24,26,28,30,-1,-1,-1,-1,-1,-1,-1,-1,-1,-1],"split_conditions":[-1.8105472E-2,2.440313E-3,1.32021075E-2,-2.0821813E-2,-2.4771754E-1,7.895498E-3,-3.7124017E-3,-4.587752E-3,4.768927E-3,-2.3990609E-1,6.2836767E-3,7.874072E-5,-1.8665424E-2,-2.563239E-1,2.2766221E-2,-7.731828E-4,-1.6946739E-1,1.4933986E-3,4.2492826E-3,-2.397694E-3,-3.965131E-3,-5.2213933E-2,1.7850247E-1,1.8327159E-1,-1.1606783E-1,4.127875E-2,-2.6589394E-1,-2.8828245E-1,1.11273356E-1,-3.0045284E-2,1.3777979E-1],"split_indices":[380,786,380,0,0,626,786,10,539,0,181,65,98,0,0,333,0,772,103,737,586,0,0,0,0,0,0,0,0,0,0],"split_type":[0,0,0,0,0,0,0,0,0,0,0,0,0,0,0,0,0,0,0,0,0,0,0,0,0,0,0,0,0,0,0],"sum_hessian":[9.550892E1,4.9605136E0,9.05484E1,1.3507416E0,3.6097717E0,8.172607E1,8.822335E0,7.831093E1,3.4151378E0,4.2482986E0,4.5740366E0,1.2068547E1,6.6242386E1,2.382523E0,1.0326147E0,2.3186898E0,2.2553468E0,5.66091E0,6.407637E0,1.5655228E1,5.0587154E1,1.0213823E0,1.2973076E0,2.8700953E0,2.7908146E0,1.8282366E0,4.5794005E0,6.1831546E0,9.472073E0,1.7234068E1,3.335309E1],"tree_param":{"num_deleted":"0","num_feature":"807","num_nodes":"31","size_leaf_vector":"1"}},{"base_weights":[-4.6711523E-2,-1.4838109E-2,-7.152913E-1,5.2037284E-2,-3.6680037E-1,-2.6869628E-1,-2.5833245E-2,1.6649751E-1,-2.551199E-1,-6.9222695E-1,7.624386E-2,3.1106454E-1,-1.912221E-1,-5.054308E-1,1.9470504E-1,4.398529E-2,-9.021845E-1,4.5914906E-1,-4.7614902E-1,-1.9958018E-1,5.958254E-1,2.4000204E-1,-7.551518E-1,-7.625589E-1,1.714855E-1,4.3523452E-1,-1.8554151E-1,-3.784626E-2,-3.0511102E-1,2.119534E-1,-1.5433367E-2,-1.8228944E-2,-2.0502643E-1,-1.4533295E-1,1.7734885E-1,2.1108247E-1,-6.8598285E-2,1.4948383E-1,-1.2544216E-1,7.238754E-2,-2.8579694E-1,-2.6388007E-1,3.608705E-2,1.5247907E-1,-1.4620994E-1,2.106254E-1,-8.922688E-2],"categories":[],"categories_nodes":[],"categories_segments":[],"categories_sizes":[],"default_left":[0,0,0,0,0,0,0,0,0,0,0,0,0,0,0,0,0,0,0,0,0,0,0,0,0,0,0,0,0,0,0,0,0,0,0,0,0,0,0,0,0,0,0,0,0,0,0],"id":16,"left_children":[1,3,5,7,9,-1,-1,11,13,15,17,19,21,23,25,-1,27,29,31,33,35,37,39,41,43,45,-1,-1,-1,-1,-1,-1,-1,-1,-1,-1,-1,-1,-1,-1,-1,-1,-1,-1,-1,-1,-1],"loss_changes":[1.9283074E0,2.0872836E0,3.90311E-1,2.669208E0,2.0934782E0,0E0,0E0,2.9056191E0,2.4266832E0,1.586931E0,1.6769325E0,5.8737392E0,4.183867E0,2.4915361E0,1.8563563E0,0E0,4.7293615E-1,6.149455E-1,2.4376118E-1,3.6466258E0,2.441041E0,1.9228106E0,1.680985E0,1.1404696E0,1.257341E0,1.5479202E0,0E0,0E0,0E0,0E0,0E0,0E0,0E0,0E0,0E0,0E0,0E0,0E0,0E0,0E0,0E0,0E0,0E0,0E0,0E0,0E0,0E0],"parents":[2147483647,0,0,1,1,2,2,3,3,4,4,7,7,8,8,9,9,10,10,11,11,12,12,13,13,14,14,16,16,17,17,18,18,19,19,20,20,21,21,22,22,23,23,24,24,25,25],"right_children":[2,4,6,8,10,-1,-1,12,14,16,18,20,22,24,26,-1,28,30,32,34,36,38,40,42,44,46,-1,-1,-1,-1,-1,-1,-1,-1,-1,-1,-1,-1,-1,-1,-1,-1,-1,-1,-1,-1,-1],"split_conditions":[2.1242065E-2,5.0302027E-3,3.4120975E-3,6.1234795E-3,6.1516446E-4,-2.6869628E-1,-2.5833245E-2,3.5848443E-3,-4.2377008E-4,-1.6464049E-3,9.916679E-4,-3.1665233E-3,-6.818323E-3,8.222945E-3,7.941282E-3,4.398529E-2,-1.6529305E-2,4.0467814E-4,9.7651884E-4,4.6806494E-3,4.8298105E-3,1.7757675E-2,-6.8052574E-3,7.5240787E-3,1.4246881E-2,2.9141062E-3,-1.8554151E-1,-3.784626E-2,-3.0511102E-1,2.119534E-1,-1.5433367E-2,-1.8228944E-2,-2.0502643E-1,-1.4533295E-1,1.7734885E-1,2.1108247E-1,-6.8598285E-2,1.4948383E-1,-1.2544216E-1,7.238754E-2,-2.8579694E-1,-2.6388007E-1,3.608705E-2,1.5247907E-1,-1.4620994E-1,2.106254E-1,-8.922688E-2],"split_indices":[806,10,769,520,65,0,0,354,526,526,273,349,561,454,518,0,419,175,22,85,532,112,166,671,454,723,0,0,0,0,0,0,0,0,0,0,0,0,0,0,0,0,0,0,0,0,0],"split_type":[0,0,0,0,0,0,0,0,0,0,0,0,0,0,0,0,0,0,0,0,0,0,0,0,0,0,0,0,0,0,0,0,0,0,0,0,0,0,0,0,0,0,0,0,0,0,0],"sum_hessian":[8.9986786E1,8.686771E1,3.1190777E0,7.3713715E1,1.3153993E1,2.0949945E0,1.0240831E0,5.4035618E1,1.96781E1,7.259375E0,5.8946176E0,3.857609E1,1.5459525E1,1.2563411E1,7.114689E0,1.513632E0,5.745743E0,3.5810921E0,2.3135254E0,1.3917606E1,2.4658485E1,9.086045E0,6.3734794E0,9.0132065E0,3.550204E0,5.849298E0,1.2653909E0,1.0112641E0,4.734479E0,2.1539052E0,1.4271867E0,1.200603E0,1.1129223E0,1.0516444E1,3.4011626E0,2.1937294E1,2.7211924E0,6.699741E0,2.3863046E0,1.0176355E0,5.355844E0,7.9614224E0,1.0517843E0,2.5005748E0,1.0496292E0,4.318231E0,1.5310671E0],"tree_param":{"num_deleted":"0","num_feature":"807","num_nodes":"47","size_leaf_vector":"1"}},{"base_weights":[-4.5383688E-2,4.686562E-2,-2.870388E-1,-3.0084237E-1,1.769224E-1,7.006957E-2,-8.629337E-1,3.749089E-1,-5.116924E-1,-1.9521257E-1,3.0434868E-1,4.4549435E-1,-3.0522797E-1,-1.1191211E0,4.6810657E-2,-6.1133526E-2,5.921222E-1,2.399105E-1,-6.716191E-1,2.3142467E-1,-5.579457E-1,-2.53507E-1,4.3865213E-1,6.6678953E-1,-1.5249997E-2,-5.906739E-1,2.752701E-1,-4.0715417E-1,-3.9591394E-2,5.285193E-2,2.0547864E-1,1.6187257E-1,-4.980293E-2,-8.73323E-1,-9.646997E-2,-1.0324174E-1,4.7372776E-1,-2.6559687E-1,-1.4277822E-1,3.7766692E-1,-7.875189E-1,-5.155882E-1,5.368603E-1,4.4602945E-2,2.3016712E-1,-1.1655708E-1,1.17453955E-1,-4.0745784E-2,-2.3682803E-1,-4.886745E-2,1.618199E-1,-1.1532636E-2,-3.2094213E-1,8.4970005E-2,-1.5958342E-1,-1.6422844E-2,1.9000493E-1,-1.7060877E-1,1.04393564E-1,1.847724E-1,-4.9571935E-2,-6.969361E-2,-2.696295E-1,-3.0197746E-1,7.8908645E-2,2.0007521E-1,-8.601563E-2],"categories":[],"categories_nodes":[],"categories_segments":[],"categories_sizes":[],"default_left":[0,0,0,0,0,0,0,0,0,0,0,0,0,0,0,0,0,0,0,0,0,0,0,0,0,0,0,0,0,0,0,0,0,0,0,0,0,0,0,0,0,0,0,0,0,0,0,0,0,0,0,0,0,0,0,0,0,0,0,0,0,0,0,0,0,0,0],"id":17,"left_children":[1,3,5,7,9,11,13,15,17,19,21,23,25,27,-1,-1,29,31,33,35,37,39,41,43,45,47,49,-1,-1,-1,-1,-1,-1,51,53,-1,55,-1,57,59,61,63,65,-1,-1,-1,-1,-1,-1,-1,-1,-1,-1,-1,-1,-1,-1,-1,-1,-1,-1,-1,-1,-1,-1,-1,-1],"loss_changes":[1.8873037E0,2.843145E0,4.8652864E0,2.637494E0,2.2184105E0,2.2981467E0,2.5285978E0,7.0631737E-1,1.7845008E0,2.0206566E0,2.681531E0,8.338263E-1,1.5325508E0,1.543005E0,0E0,0E0,1.9989848E-2,4.67427E-1,1.2381611E0,1.0449005E0,8.1132174E-1,2.7547064E0,2.9023213E0,1.7106485E-1,6.985174E-1,4.2256618E-1,4.8220998E-1,0E0,0E0,0E0,0E0,0E0,0E0,1.3229136E0,8.259382E-1,0E0,4.4555175E-1,0E0,1.0829098E0,6.213607E-1,5.5146933E-2,1.4592382E0,2.9645548E0,0E0,0E0,0E0,0E0,0E0,0E0,0E0,0E0,0E0,0E0,0E0,0E0,0E0,0E0,0E0,0E0,0E0,0E0,0E0,0E0,0E0,0E0,0E0,0E0],"parents":[2147483647,0,0,1,1,2,2,3,3,4,4,5,5,6,6,7,7,8,8,9,9,10,10,11,11,12,12,13,13,16,16,17,17,18,18,19,19,20,20,21,21,22,22,23,23,24,24,25,25,26,26,33,33,34,34,36,36,38,38,39,39,40,40,41,41,42,42],"right_children":[2,4,6,8,10,12,14,16,18,20,22,24,26,28,-1,-1,30,32,34,36,38,40,42,44,46,48,50,-1,-1,-1,-1,-1,-1,52,54,-1,56,-1,58,60,62,64,66,-1,-1,-1,-1,-1,-1,-1,-1,-1,-1,-1,-1,-1,-1,-1,-1,-1,-1,-1,-1,-1,-1,-1,-1],"split_conditions":[1.8665424E-2,-9.8818345E-3,2.088315E-3,-4.1235485E-3,-8.999902E-3,3.1080795E-2,2.2648028E-3,-7.915695E-3,-2.8972968E-3,-3.986729E-3,-9.357104E-3,4.0554916E-3,5.8206795E-3,2.1826744E-3,4.6810657E-2,-6.1133526E-2,-1.1613566E-2,1.285287E-2,1.0602062E-3,-1.0684331E-2,-5.1113907E-3,4.2224936E-5,-2.3548626E-3,-8.205375E-3,1.761653E-3,2.166383E-3,-3.8571202E-3,-4.0715417E-1,-3.9591394E-2,5.285193E-2,2.0547864E-1,1.6187257E-1,-4.980293E-2,-4.089073E-3,-5.6222234E-5,-1.0324174E-1,-8.836437E-3,-2.6559687E-1,-8.471164E-4,6.6194464E-3,-1.528453E-3,-1.0986265E-3,9.873867E-3,4.4602945E-2,2.3016712E-1,-1.1655708E-1,1.17453955E-1,-4.0745784E-2,-2.3682803E-1,-4.886745E-2,1.618199E-1,-1.1532636E-2,-3.2094213E-1,8.4970005E-2,-1.5958342E-1,-1.6422844E-2,1.9000493E-1,-1.7060877E-1,1.04393564E-1,1.847724E-1,-4.9571935E-2,-6.969361E-2,-2.696295E-1,-3.0197746E-1,7.8908645E-2,2.0007521E-1,-8.601563E-2],"split_indices":[98,806,737,644,422,95,253,698,253,681,731,103,549,257,0,0,63,380,509,596,769,545,615,476,243,490,626,0,0,0,0,0,0,753,646,0,72,0,213,99,75,148,379,0,0,0,0,0,0,0,0,0,0,0,0,0,0,0,0,0,0,0,0,0,0,0,0],"split_type":[0,0,0,0,0,0,0,0,0,0,0,0,0,0,0,0,0,0,0,0,0,0,0,0,0,0,0,0,0,0,0,0,0,0,0,0,0,0,0,0,0,0,0,0,0,0,0,0,0,0,0,0,0,0,0,0,0,0,0,0,0,0,0,0,0,0,0],"sum_hessian":[8.305743E1,6.0694138E1,2.2363289E1,1.6164646E1,4.452949E1,1.4345854E1,8.017434E0,3.6592064E0,1.250544E1,1.122273E1,3.3306763E1,7.078205E0,7.2676487E0,6.3281374E0,1.6892966E0,1.0155327E0,2.6436737E0,2.106316E0,1.0399123E1,5.323438E0,5.8992915E0,6.290475E0,2.7016287E1,4.4795027E0,2.5987024E0,4.860222E0,2.4074266E0,4.7965593E0,1.531578E0,1.0109568E0,1.632717E0,1.022331E0,1.0839851E0,7.315248E0,3.0838754E0,1.4526197E0,3.8708186E0,2.6652117E0,3.23408E0,3.0171442E0,3.2733307E0,2.1244173E0,2.489187E1,1.130077E0,3.3494258E0,1.3785198E0,1.2201828E0,1.9898106E0,2.8704114E0,1.0495799E0,1.3578469E0,1.6214E0,5.6938477E0,1.8341899E0,1.2496856E0,1.0503627E0,2.8204558E0,1.6463941E0,1.5876858E0,2.003496E0,1.0136482E0,1.0618956E0,2.211435E0,1.1232753E0,1.001142E0,2.166139E1,3.2304795E0],"tree_param":{"num_deleted":"0","num_feature":"807","num_nodes":"67","size_leaf_vector":"1"}},{"base_weights":[-4.723532E-2,-4.7748807E-1,2.1082407E-3,-1.1525481E-1,-2.3130684E-1,5.7164617E-2,-4.5956212E-1,3.2190263E-1,-1.8532649E-1,1.02088444E-1,-4.480902E-1,-2.063505E-1,-9.3563855E-2,-1.2152211E-2,1.5433805E-1,1.4032207E-1,-5.111686E-1,-2.0428888E-1,2.5780896E-2,9.446821E-2,-1.6784151E-1,2.4963936E-1,-1.3242514E-1,-2.3459964E-1,2.7388008E-2,-2.308482E-2,1.3450848E-1,-1.0698115E-1,1.2569273E-1],"categories":[],"categories_nodes":[],"categories_segments":[],"categories_sizes":[],"default_left":[0,0,0,0,0,0,0,0,0,0,0,0,0,0,0,0,0,0,0,0,0,0,0,0,0,0,0,0,0],"id":18,"left_children":[1,3,5,7,-1,9,11,13,-1,15,17,-1,19,-1,-1,21,23,-1,-1,-1,-1,25,27,-1,-1,-1,-1,-1,-1],"loss_changes":[1.638603E0,7.554337E-1,1.8104728E0,1.2379215E0,0E0,1.489449E0,5.697489E-1,2.4323848E-1,0E0,1.4603994E0,7.274655E-1,0E0,9.512508E-1,0E0,0E0,1.7186973E0,6.7365515E-1,0E0,0E0,0E0,0E0,2.6763034E0,2.229712E0,0E0,0E0,0E0,0E0,0E0,0E0],"parents":[2147483647,0,0,1,1,2,2,3,3,5,5,6,6,7,7,9,9,10,10,12,12,15,15,16,16,21,21,22,22],"right_children":[2,4,6,8,-1,10,12,14,-1,16,18,-1,20,-1,-1,22,24,-1,-1,-1,-1,26,28,-1,-1,-1,-1,-1,-1],"split_conditions":[-1.3194963E-2,4.2387475E-3,1.32021075E-2,5.1298984E-3,-2.3130684E-1,6.5040486E-3,-3.5804121E-3,3.445228E-4,-1.8532649E-1,1.0143608E-2,1.8106704E-3,-2.063505E-1,8.898372E-3,-1.2152211E-2,1.5433805E-1,2.5714978E-3,-1.1202679E-2,-2.0428888E-1,2.5780896E-2,9.446821E-2,-1.6784151E-1,-2.067411E-3,4.136399E-3,-2.3459964E-1,2.7388008E-2,-2.308482E-2,1.3450848E-1,-1.0698115E-1,1.2569273E-1],"split_indices":[380,723,380,715,0,626,723,10,0,424,430,0,138,0,0,4,656,0,0,0,0,25,735,0,0,0,0,0,0],"split_type":[0,0,0,0,0,0,0,0,0,0,0,0,0,0,0,0,0,0,0,0,0,0,0,0,0,0,0,0,0],"sum_hessian":[7.6135216E1,6.9405E0,6.919472E1,3.7300801E0,3.21042E0,6.2604958E1,6.5897593E0,2.1869278E0,1.5431525E0,5.8225857E1,4.379101E0,3.5169194E0,3.0728397E0,1.0327803E0,1.1541474E0,5.553472E1,2.691137E0,2.8577676E0,1.5213335E0,1.8100823E0,1.2627574E0,3.9705463E1,1.5829257E1,1.6509607E0,1.0401765E0,1.5252166E1,2.4453297E1,1.1505027E1,4.3242307E0],"tree_param":{"num_deleted":"0","num_feature":"807","num_nodes":"29","size_leaf_vector":"1"}},{"base_weights":[-4.678994E-2,3.118278E-2,-2.8892538E-1,1.6820082E-1,-2.24666E-1,-5.3888228E-2,-7.505154E-1,-2.9627237E-1,3.1436074E-1,-3.4056064E-1,2.7599683E-1,-5.324946E-1,2.0917846E-1,-2.3365986E-2,-8.767122E-1,-5.9776187E-1,4.2343113E-1,-1.1098171E-1,4.6403837E-1,6.0400434E-2,-4.20506E-1,-5.749504E-2,4.8545706E-1,3.8400665E-2,-2.3895249E-1,-1.5386756E-1,4.027012E-1,-2.9465234E-1,-7.3766455E-2,-9.7151056E-2,-2.769495E-1,1.833365E-1,9.334939E-3,-6.518068E-1,2.714289E-1,6.3946325E-1,-1.685418E-1,-5.385135E-1,3.2475017E-2,1.822104E-1,3.1908933E-2,-1.1417047E-1,6.031153E-1,1.2227487E-1,-1.579986E-1,-2.383536E-1,-4.0938053E-2,1.6259983E-1,-1.0467126E-1,2.4538696E-1,1.1322571E-2,1.2432245E-1,-1.9103114E-1,-2.8060526E-1,-8.340592E-2,-1.4546567E-1,1.2593597E-1,-2.6632052E-2,2.3157671E-1],"categories":[],"categories_nodes":[],"categories_segments":[],"categories_sizes":[],"default_left":[0,0,0,0,0,0,0,0,0,0,0,0,0,0,0,0,0,0,0,0,0,0,0,0,0,0,0,0,0,0,0,0,0,0,0,0,0,0,0,0,0,0,0,0,0,0,0,0,0,0,0,0,0,0,0,0,0,0,0],"id":19,"left_children":[1,3,5,7,9,11,13,15,17,19,21,23,25,-1,27,29,31,33,35,-1,37,-1,39,-1,-1,-1,41,-1,-1,43,-1,-1,-1,45,47,49,51,53,55,-1,-1,-1,57,-1,-1,-1,-1,-1,-1,-1,-1,-1,-1,-1,-1,-1,-1,-1,-1],"loss_changes":[1.3928285E0,2.0130033E0,1.9070686E0,2.622995E0,1.2590705E0,1.7446033E0,4.3924928E-1,2.3002625E0,1.8869987E0,8.104156E-1,5.168484E-1,9.534608E-1,1.4765751E0,0E0,8.69503E-2,1.061017E0,2.2918606E-1,1.8959175E0,2.4957724E0,0E0,8.1517553E-1,0E0,8.6582184E-2,0E0,0E0,0E0,1.4426364E0,0E0,0E0,1.0602157E0,0E0,0E0,0E0,1.6639137E-1,1.1248229E0,1.8009787E0,1.7551452E0,9.696195E-1,1.0105183E0,0E0,0E0,0E0,8.324046E-1,0E0,0E0,0E0,0E0,0E0,0E0,0E0,0E0,0E0,0E0,0E0,0E0,0E0,0E0,0E0,0E0],"parents":[2147483647,0,0,1,1,2,2,3,3,4,4,5,5,6,6,7,7,8,8,9,9,10,10,11,11,12,12,14,14,15,15,16,16,17,17,18,18,20,20,22,22,26,26,29,29,33,33,34,34,35,35,36,36,37,37,38,38,42,42],"right_children":[2,4,6,8,10,12,14,16,18,20,22,24,26,-1,28,30,32,34,36,-1,38,-1,40,-1,-1,-1,42,-1,-1,44,-1,-1,-1,46,48,50,52,54,56,-1,-1,-1,58,-1,-1,-1,-1,-1,-1,-1,-1,-1,-1,-1,-1,-1,-1,-1,-1],"split_conditions":[6.1136093E-3,7.6910416E-3,2.559129E-3,-6.801527E-3,1.2739627E-2,-5.7540336E-3,-1.3522889E-2,3.6013576E-3,-5.497774E-3,-2.808642E-3,2.7007307E-3,-7.5109624E-3,-1.1375423E-2,-2.3365986E-2,3.2178374E-4,-5.8640945E-3,-5.1752187E-4,1.9353356E-3,2.4592313E-3,6.0400434E-2,5.1173326E-3,-5.749504E-2,4.965573E-3,3.8400665E-2,-2.3895249E-1,-1.5386756E-1,-6.25207E-3,-2.9465234E-1,-7.3766455E-2,1.9401207E-3,-2.769495E-1,1.833365E-1,9.334939E-3,2.478042E-3,9.4951765E-4,3.9769555E-3,-6.5418165E-3,-3.645938E-3,-2.041679E-3,1.822104E-1,3.1908933E-2,-1.1417047E-1,-9.716232E-3,1.2227487E-1,-1.579986E-1,-2.383536E-1,-4.0938053E-2,1.6259983E-1,-1.0467126E-1,2.4538696E-1,1.1322571E-2,1.2432245E-1,-1.9103114E-1,-2.8060526E-1,-8.340592E-2,-1.4546567E-1,1.2593597E-1,-2.6632052E-2,2.3157671E-1],"split_indices":[370,106,623,645,400,187,400,376,283,109,111,696,656,0,510,105,803,99,723,0,696,0,627,0,0,0,204,0,0,787,0,0,0,91,143,424,88,108,245,0,0,0,108,0,0,0,0,0,0,0,0,0,0,0,0,0,0,0,0],"split_type":[0,0,0,0,0,0,0,0,0,0,0,0,0,0,0,0,0,0,0,0,0,0,0,0,0,0,0,0,0,0,0,0,0,0,0,0,0,0,0,0,0,0,0,0,0,0,0,0,0,0,0,0,0,0,0,0,0,0,0],"sum_hessian":[7.2295654E1,5.534471E1,1.6950947E1,3.6265533E1,1.9079176E1,1.1971779E1,4.9791684E0,8.434615E0,2.783092E1,1.5752524E1,3.326652E0,3.8830428E0,8.088737E0,1.0420781E0,3.9370902E0,6.0638523E0,2.3707628E0,7.3116784E0,2.0519241E1,1.8299723E0,1.3922552E1,1.0553889E0,2.2712634E0,1.2560029E0,2.62704E0,1.3608507E0,6.7278852E0,2.895967E0,1.0411233E0,2.9003754E0,3.163477E0,1.2263304E0,1.1444323E0,2.7367523E0,4.574926E0,1.6055819E1,4.463423E0,1.08953495E1,3.027203E0,1.262958E0,1.0083052E0,1.1875863E0,5.540299E0,1.3568938E0,1.5434817E0,1.7190295E0,1.0177226E0,3.2734313E0,1.3014946E0,1.2105506E1,3.9503117E0,2.0393517E0,2.424071E0,3.2910564E0,7.6042924E0,1.1881615E0,1.8390416E0,1.1795977E0,4.3607016E0],"tree_param":{"num_deleted":"0","num_feature":"807","num_nodes":"59","size_leaf_vector":"1"}}]},"name":"gbtree"},"learner_model_param":{"base_score":"5E-1","boost_from_average":"1","num_class":"0","num_feature":"807","num_target":"1"},"objective":{"name":"binary:logistic","reg_loss_param":{"scale_pos_weight":"1"}}},"version":[3,0,0]}