{"learner":{"attributes":{"scikit_learn":"{\"_estimator_type\": \"classifier\"}"},"feature_names":[],"feature_types":[],"gradient_booster":{"model":{"gbtree_model_param":{"num_parallel_tree":"1","num_trees":"20"},"iteration_indptr":[0,1,2,3,4,5,6,7,8,9,10,11,12,13,14,15,16,17,18,19,20],"tree_info":[0,0,0,0,0,0,0,0,0,0,0,0,0,0,0,0,0,0,0,0],"trees":[{"base_weights":[-0E0,2.2021116E-1,-1.3153154E0,-1.3122172E0,5.2479714E-1,-1.8028169E0,-4.2857143E-1,-4.2857143E-1,-1.8014184E0,7.1784234E-1,-7.38255E-1,-1.1111112E0,-5.697479E-1,3.1578946E-1,-5.225807E-1,-5.225807E-1,3.1578946E-1,-5.6949157E-1,-1.1111112E0,-7.1895427E-1,9.840491E-1,6.086956E-1,-1.2897196E0,-4.8571432E-1,1.20000005E-1,7.906977E-1,-8.888889E-1,-4.0000004E-1,6.938776E-1,1.20000005E-1,-4.8571432E-1,-1.2727273E0,6.3829786E-1,1.1416781E0,-3.043478E-1,1.3939394E0,-1.0588236E0,-1.8208956E0,-3.6363637E-1,1.1578947E0,-3.3333337E-1,-4.2857146E-1,1.5E-1,-2.3076925E-1,3.3E-1,-1.0434783E-1,-5.470588E-1,-3.176471E-1,4.2352945E-1,-4.2105265E-2,4.1134524E-1,-4.046512E-1,1.6981132E-1,-0E0,4.758621E-1,-4.1538465E-1,-0E0,-1.5E-1,-5.619048E-1,1.5555556E-1,-4.2857146E-1,-2.0000002E-1,4.5454547E-1],"categories":[],"categories_nodes":[],"categories_segments":[],"categories_sizes":[],"default_left":[0,0,0,0,0,0,0,0,0,0,0,0,0,0,0,0,0,0,0,0,0,0,0,0,0,0,0,0,0,0,0,0,0,0,0,0,0,0,0,0,0,0,0,0,0,0,0,0,0,0,0,0,0,0,0,0,0,0,0,0,0,0,0],"id":0,"left_children":[1,3,5,7,9,11,13,15,17,19,21,23,-1,25,-1,-1,27,-1,29,31,33,35,37,-1,-1,39,41,-1,43,-1,-1,45,47,49,51,53,55,57,59,61,-1,-1,-1,-1,-1,-1,-1,-1,-1,-1,-1,-1,-1,-1,-1,-1,-1,-1,-1,-1,-1,-1,-1],"loss_changes":[1.1209344E2,1.5541832E2,2.3219398E1,2.3111458E1,6.813076E1,2.555771E-1,2.1080038E1,2.1080038E1,2.4835205E-1,9.288635E1,2.8454182E1,5.8285713E0,0E0,8.8554325E0,0E0,0E0,9.81024E0,0E0,5.8285713E0,2.956145E1,4.1726807E1,1.653414E1,1.2496529E1,0E0,0E0,8.79369E0,4.0873013E0,0E0,8.125118E0,0E0,0E0,1.3375259E1,1.691865E1,5.3661575E1,2.1672989E1,2.2110748E0,1.4660635E0,2.1665573E-1,1.1074554E1,7.202552E0,0E0,0E0,0E0,0E0,0E0,0E0,0E0,0E0,0E0,0E0,0E0,0E0,0E0,0E0,0E0,0E0,0E0,0E0,0E0,0E0,0E0,0E0,0E0],"parents":[2147483647,0,0,1,1,2,2,3,3,4,4,5,5,6,6,7,7,8,8,9,9,10,10,11,11,13,13,16,16,18,18,19,19,20,20,21,21,22,22,25,25,26,26,28,28,31,31,32,32,33,33,34,34,35,35,36,36,37,37,38,38,39,39],"right_children":[2,4,6,8,10,12,14,16,18,20,22,24,-1,26,-1,-1,28,-1,30,32,34,36,38,-1,-1,40,42,-1,44,-1,-1,46,48,50,52,54,56,58,60,62,-1,-1,-1,-1,-1,-1,-1,-1,-1,-1,-1,-1,-1,-1,-1,-1,-1,-1,-1,-1,-1,-1,-1],"split_conditions":[2.166721E-1,-2.166721E-1,-1.5644707E-2,1.5644707E-2,1.2442014E-1,-6.295857E-2,3.6008704E-2,-4.016008E-2,4.452307E-2,-1.2281912E-1,2.5443088E-2,3.684718E-2,-5.697479E-1,1.2926935E-1,-5.225807E-1,-5.225807E-1,-1.5676707E-1,-5.6949157E-1,-4.466439E-2,-2.5443088E-2,3.0136624E-1,-2.6097983E-2,-2.0003883E-2,-4.8571432E-1,1.20000005E-1,4.756144E-1,7.306857E-2,-4.0000004E-1,-4.313578E-1,1.20000005E-1,-4.8571432E-1,1.9332483E-2,1.6918197E-2,-6.861991E-2,-1.1537875E-2,-1.2894782E-1,-1.3679295E-2,-5.37025E-2,7.1921706E-2,-2.1151845E-1,-3.3333337E-1,-4.2857146E-1,1.5E-1,-2.3076925E-1,3.3E-1,-1.0434783E-1,-5.470588E-1,-3.176471E-1,4.2352945E-1,-4.2105265E-2,4.1134524E-1,-4.046512E-1,1.6981132E-1,-0E0,4.758621E-1,-4.1538465E-1,-0E0,-1.5E-1,-5.619048E-1,1.5555556E-1,-4.2857146E-1,-2.0000002E-1,4.5454547E-1],"split_indices":[140,140,0,0,11,143,28,28,143,11,0,61,0,109,0,0,109,0,61,0,100,140,96,0,0,137,0,0,121,0,0,96,140,111,37,1,0,16,111,42,0,0,0,0,0,0,0,0,0,0,0,0,0,0,0,0,0,0,0,0,0,0,0],"split_type":[0,0,0,0,0,0,0,0,0,0,0,0,0,0,0,0,0,0,0,0,0,0,0,0,0,0,0,0,0,0,0,0,0,0,0,0,0,0,0,0,0,0,0,0,0,0,0,0,0,0,0,0,0,0,0,0,0,0,0,0,0,0,0],"sum_hessian":[3.85E2,3.305E2,5.45E1,5.425E1,2.7625E2,3.45E1,2E1,2E1,3.425E1,2.4E2,3.625E1,5.75E0,2.875E1,1.325E1,6.75E0,6.75E0,1.325E1,2.85E1,5.75E0,3.725E1,2.0275E2,1.05E1,2.575E1,4.25E0,1.5E0,9.75E0,3.5E0,2E0,1.125E1,1.5E0,4.25E0,2.65E1,1.075E1,1.8075E2,2.2E1,7.25E0,3.25E0,1.575E1,1E1,8.5E0,1.25E0,2.5E0,1E0,2.25E0,9E0,1.05E1,1.6E1,3.25E0,7.5E0,2.75E1,1.5325E2,9.75E0,1.225E1,1E0,6.25E0,2.25E0,1E0,1E0,1.475E1,5.75E0,4.25E0,1.25E0,7.25E0],"tree_param":{"num_deleted":"0","num_feature":"168","num_nodes":"63","size_leaf_vector":"1"}},{"base_weights":[-1.48812095E-2,-1.0837737E0,1.4932388E-1,7.047341E-1,-1.3152963E0,-8.7714946E-1,4.085677E-1,3.75308E-1,-2.6810902E-1,8.972342E-2,-1.3768803E0,-1.767502E-1,-1.2827682E0,-7.2610486E-1,6.1079514E-1,-7.9011226E-1,-1.5017893E0,-1.1150196E0,4.974263E-1,-4.7321704E-1,-8.2514024E-1,3.1719348E-1,-1.2227764E0,7.8904265E-1,-6.3977265E-1,-4.3119508E-1,8.06737E-1,-4.657729E-1,-1.5098467E-1,-4.6916336E-1,1.88648E-1,-3.0390123E-1,9.336147E-1,-4.382129E-1,2.8273028E-1,8.998375E-1,-3.3426815E-1,1.3434285E-1,-1.386053E0,-4.2716405E-1,9.4824004E-1,-1.6201782E0,-1.8265906E-1,5.949841E-2,3.1179696E-1,3.7350816E-1,-3.2348672E-1,3.090786E-1,-2.8177005E-1,-1.5385792E-1,4.4043216E-1,-1.0152173E-1,-4.7350943E-1,3.452498E-2,-4.5567074E-1,3.1333584E-1,-2.2863714E-1,-5.187334E-1,-1.4675337E-1,-2.8998238E-1,1.8284453E-1],"categories":[],"categories_nodes":[],"categories_segments":[],"categories_sizes":[],"default_left":[0,0,0,0,0,0,0,0,0,0,0,0,0,0,0,0,0,0,0,0,0,0,0,0,0,0,0,0,0,0,0,0,0,0,0,0,0,0,0,0,0,0,0,0,0,0,0,0,0,0,0,0,0,0,0,0,0,0,0,0,0],"id":1,"left_children":[1,3,5,7,9,11,13,-1,-1,-1,15,17,19,21,23,25,27,29,31,-1,33,35,37,39,41,-1,43,-1,-1,-1,-1,-1,45,-1,47,49,-1,-1,51,53,55,57,59,-1,-1,-1,-1,-1,-1,-1,-1,-1,-1,-1,-1,-1,-1,-1,-1,-1,-1],"loss_changes":[6.496459E1,2.1335598E1,8.575811E1,6.6193094E0,4.7849426E0,1.8247005E1,5.9391384E1,0E0,0E0,0E0,1.9319305E0,1.6373379E1,4.22892E0,2.0760754E1,4.9228516E1,1.1058407E1,9.413223E-1,9.409082E0,1.0988457E1,0E0,1.3201501E1,1.2240391E1,7.9423447E0,3.7532883E1,1.2171988E1,0E0,2.7541065E-1,0E0,0E0,0E0,0E0,0E0,9.078892E0,0E0,7.7809834E0,8.88494E0,0E0,0E0,4.4415817E0,1.3722401E1,2.8750336E1,2.284298E-1,1.3071784E1,0E0,0E0,0E0,0E0,0E0,0E0,0E0,0E0,0E0,0E0,0E0,0E0,0E0,0E0,0E0,0E0,0E0,0E0],"parents":[2147483647,0,0,1,1,2,2,3,3,4,4,5,5,6,6,10,10,11,11,12,12,13,13,14,14,15,15,16,16,17,17,18,18,20,20,21,21,22,22,23,23,24,24,26,26,32,32,34,34,35,35,38,38,39,39,40,40,41,41,42,42],"right_children":[2,4,6,8,10,12,14,-1,-1,-1,16,18,20,22,24,26,28,30,32,-1,34,36,38,40,42,-1,44,-1,-1,-1,-1,-1,46,-1,48,50,-1,-1,52,54,56,58,60,-1,-1,-1,-1,-1,-1,-1,-1,-1,-1,-1,-1,-1,-1,-1,-1,-1,-1],"split_conditions":[-1.979433E-1,-1.2924324E-1,-1.8224205E-1,2.8011084E-1,-1.4735341E-1,1.812413E-2,-1.4783065E-1,3.75308E-1,-2.6810902E-1,8.972342E-2,3.1128164E-2,1.2210335E-1,-1.8003536E-2,-6.766928E-2,1.3027257E-1,2.2436841E-3,4.936568E-2,7.5149335E-2,-4.0922752E-1,-4.7321704E-1,-1.6473435E-1,6.1140638E-2,-3.2654326E-2,-1.3027257E-1,-1.1154168E-1,-4.3119508E-1,-6.0701333E-3,-4.657729E-1,-1.5098467E-1,-4.6916336E-1,1.88648E-1,-3.0390123E-1,6.1748438E-2,-4.382129E-1,9.083907E-2,-2.2132987E-1,-3.3426815E-1,1.3434285E-1,-1.13874204E-1,1.0880822E-1,7.727898E-2,1.5030083E-1,-7.431757E-2,5.949841E-2,3.1179696E-1,3.7350816E-1,-3.2348672E-1,3.090786E-1,-2.8177005E-1,-1.5385792E-1,4.4043216E-1,-1.0152173E-1,-4.7350943E-1,3.452498E-2,-4.5567074E-1,3.1333584E-1,-2.2863714E-1,-5.187334E-1,-1.4675337E-1,-2.8998238E-1,1.8284453E-1],"split_indices":[107,126,140,24,164,0,113,0,0,0,33,146,93,99,37,117,18,131,121,0,97,30,11,37,32,0,133,0,0,0,0,0,16,0,121,158,0,0,95,32,3,137,92,0,0,0,0,0,0,0,0,0,0,0,0,0,0,0,0,0,0],"split_type":[0,0,0,0,0,0,0,0,0,0,0,0,0,0,0,0,0,0,0,0,0,0,0,0,0,0,0,0,0,0,0,0,0,0,0,0,0,0,0,0,0,0,0,0,0,0,0,0,0,0,0,0,0,0,0,0,0,0,0,0,0],"sum_hessian":[3.682095E2,4.828677E1,3.1992273E2,5.300049E0,4.298672E1,6.402659E1,2.5589613E2,4.1120296E0,1.1880195E0,1.4378664E0,4.1548855E1,2.4007524E1,4.0019062E1,3.8316513E1,2.1757962E2,8.578115E0,3.297074E1,9.764338E0,1.4243187E1,2.2856876E1,1.7162186E1,1.24744E1,2.5842113E1,1.9075916E2,2.6820467E1,6.1752033E0,2.4029121E0,3.084688E1,2.1238596E0,7.847602E0,1.9167359E0,2.8952239E0,1.1347962E1,1.0703346E1,6.458839E0,9.129645E0,3.3447542E0,2.145678E0,2.3696436E1,2.1884764E1,1.6887439E2,7.7195044E0,1.9100962E1,1.176937E0,1.2259752E0,1.0156983E1,1.190979E0,4.10469E0,2.3541486E0,2.646945E0,6.482701E0,4.1032176E0,1.9593218E1,1.5219895E1,6.664868E0,1.6024925E2,8.625131E0,6.558942E0,1.1605624E0,9.489426E0,9.611537E0],"tree_param":{"num_deleted":"0","num_feature":"168","num_nodes":"61","size_leaf_vector":"1"}},{"base_weights":[-2.5447007E-2,-9.9394464E-1,1.0346197E-1,-1.3820926E0,-3.0903476E-1,2.731119E-1,-9.063275E-1,-4.33817E-1,2.5365714E-3,-1.1161872E0,5.80949E-1,4.2059487E-1,-8.005736E-1,-1.1404035E0,7.3466027E-1,-1.4152424E0,1.2956505E-1,1.0010535E0,-2.3401232E-1,-4.287192E-1,5.7273936E-1,7.999397E-2,-1.3103089E0,-3.5058853E-1,-1.2719798E0,-2.4828492E-1,3.7836888E-1,-1.2320728E-1,-4.5412806E-1,3.9091825E-1,-2.6277158E-2,2.1699524E-2,-1.295547E0,-5.950772E-1,6.9500124E-1,-4.2101234E-1,7.453043E-1,-1.3800437E0,-6.5054754E-3,2.9229888E-1,-1.0714188E0,-1.1440085E-1,-1.3127611E0,1.03893645E-1,-3.1658068E-1,3.0692654E-2,-4.4116718E-1,2.1711366E-1,-3.4608057E-1,2.3493187E-1,-3.241741E-1,3.051672E-1,-2.0003603E-1,-4.4096154E-1,-6.9562E-2,-2.849987E-2,-3.9862376E-1,-4.1739166E-1,-1.9538155E-1],"categories":[],"categories_nodes":[],"categories_segments":[],"categories_sizes":[],"default_left":[0,0,0,0,0,0,0,0,0,0,0,0,0,0,0,0,0,0,0,0,0,0,0,0,0,0,0,0,0,0,0,0,0,0,0,0,0,0,0,0,0,0,0,0,0,0,0,0,0,0,0,0,0,0,0,0,0,0,0],"id":2,"left_children":[1,3,5,7,9,11,13,-1,-1,15,17,19,21,23,25,27,-1,29,-1,31,33,35,37,39,41,-1,-1,-1,-1,-1,-1,43,45,47,49,-1,51,53,-1,-1,55,-1,57,-1,-1,-1,-1,-1,-1,-1,-1,-1,-1,-1,-1,-1,-1,-1,-1],"loss_changes":[4.273218E1,1.0260803E1,5.2025593E1,2.269024E0,1.2020259E1,4.143496E1,1.7626179E1,0E0,0E0,4.612954E0,5.461602E0,2.9817226E1,1.4328894E1,3.56979E0,6.0326385E0,1.1839771E-1,0E0,2.3148394E0,0E0,1.3825912E1,2.8185738E1,1.3442408E1,1.7788696E0,7.632431E0,6.886978E-1,0E0,0E0,0E0,0E0,0E0,0E0,8.839369E0,3.1106968E0,1.4809717E1,2.846341E1,0E0,4.2587605E0,1.6269684E0,0E0,0E0,1.116035E0,0E0,6.9935226E-1,0E0,0E0,0E0,0E0,0E0,0E0,0E0,0E0,0E0,0E0,0E0,0E0,0E0,0E0,0E0,0E0],"parents":[2147483647,0,0,1,1,2,2,3,3,4,4,5,5,6,6,9,9,10,10,11,11,12,12,13,13,14,14,15,15,17,17,19,19,20,20,21,21,22,22,23,23,24,24,31,31,32,32,33,33,34,34,36,36,37,37,40,40,42,42],"right_children":[2,4,6,8,10,12,14,-1,-1,16,18,20,22,24,26,28,-1,30,-1,32,34,36,38,40,42,-1,-1,-1,-1,-1,-1,44,46,48,50,-1,52,54,-1,-1,56,-1,58,-1,-1,-1,-1,-1,-1,-1,-1,-1,-1,-1,-1,-1,-1,-1,-1],"split_conditions":[-1.0130786E-1,-3.0563748E-2,1.979433E-1,2.690473E-1,5.460311E-2,1.6076162E-1,1.2606132E-1,-4.33817E-1,2.5365714E-3,1.4283772E-1,2.8447232E-1,-2.9344696E-1,1.8669257E-2,1.812413E-2,-1.7218417E-1,-1.3288394E-1,1.2956505E-1,3.3808943E-2,-2.3401232E-1,3.0207625E-2,-2.0180252E-1,-2.1489516E-2,6.9266167E-3,1.2632641E-2,-5.7244964E-2,-2.4828492E-1,3.7836888E-1,-1.2320728E-1,-4.5412806E-1,3.9091825E-1,-2.6277158E-2,3.7548706E-2,-1.2111264E-1,-3.572497E-2,2.3445065E-1,-4.2101234E-1,3.63503E-1,1.8319795E-1,-6.5054754E-3,2.9229888E-1,-2.3171397E-2,-1.1440085E-1,-3.0448247E-2,1.03893645E-1,-3.1658068E-1,3.0692654E-2,-4.4116718E-1,2.1711366E-1,-3.4608057E-1,2.3493187E-1,-3.241741E-1,3.051672E-1,-2.0003603E-1,-4.4096154E-1,-6.9562E-2,-2.849987E-2,-3.9862376E-1,-4.1739166E-1,-1.9538155E-1],"split_indices":[34,128,107,71,13,105,126,0,0,1,154,100,96,0,1,143,0,95,0,154,154,114,7,51,18,0,0,0,0,0,0,110,99,3,56,0,164,69,0,0,141,0,33,0,0,0,0,0,0,0,0,0,0,0,0,0,0,0,0],"split_type":[0,0,0,0,0,0,0,0,0,0,0,0,0,0,0,0,0,0,0,0,0,0,0,0,0,0,0,0,0,0,0,0,0,0,0,0,0,0,0,0,0,0,0,0,0,0,0,0,0,0,0,0,0,0,0,0,0,0,0],"sum_hessian":[3.4044986E2,3.9203342E1,3.0124652E2,2.437294E1,1.4830401E1,2.5853998E2,4.2706535E1,2.3262945E1,1.1099944E0,7.6438255E0,7.186576E0,2.2785039E2,3.0689587E1,3.764218E1,5.0643554E0,6.478178E0,1.1656475E0,5.693575E0,1.4930011E0,3.4339516E1,1.9351088E2,1.1561012E1,1.9128574E1,5.8986726E0,3.1743507E1,1.1325331E0,3.9318225E0,1.0402099E0,5.4379683E0,4.3029184E0,1.3906564E0,2.3239063E1,1.1100453E1,1.7972698E1,1.7553818E2,3.23622E0,8.324793E0,1.8079258E1,1.049315E0,1.9545133E0,3.9441595E0,1.8430445E0,2.9900463E1,1.8378098E1,4.8609657E0,1.2813518E0,9.819101E0,5.259114E0,1.2713584E1,1.6777222E2,7.7659574E0,7.2150564E0,1.1097361E0,1.6507587E1,1.5716705E0,1.1082226E0,2.8359368E0,2.574075E1,4.1597123E0],"tree_param":{"num_deleted":"0","num_feature":"168","num_nodes":"59","size_leaf_vector":"1"}},{"base_weights":[-3.439251E-2,9.499737E-2,-8.667037E-1,-7.7992773E-1,2.4641186E-1,-1.1944658E0,-3.3321372E-1,-2.56421E-1,-1.1097736E0,-9.1598654E-1,3.4354427E-1,-6.5421027E-1,-3.8306496E-1,2.9267576E-1,-1.0533535E0,-8.7598133E-1,3.4511194E-1,-6.9577354E-1,-3.7005988E-1,-1.2428027E0,2.6834682E-1,-5.0795126E-1,4.8076528E-1,1.0547537E-1,-3.2986212E-1,7.284179E-1,-2.5334284E-1,6.467787E-2,-3.9036554E-1,1.22639865E-1,-1.1047275E0,-2.7760318E-1,7.4850345E-1,1.3688739E-1,-3.2897025E-1,-4.629627E-2,-1.3658087E0,4.4528115E-1,-8.357169E-1,-2.3875128E-1,6.5129906E-1,-2.7532512E-1,3.5982898E-1,-3.197885E-2,-3.7681285E-1,-1.238642E-1,3.2568568E-1,-9.8960005E-2,-4.4392234E-1,2.566972E-1,-3.055575E-1,-4.1890362E-1,-1.2749916E-1,1.2603785E-1,-4.0236387E-1,2.6596266E-1,-5.111101E-2,-2.69756E-1,1.3294078E-1],"categories":[],"categories_nodes":[],"categories_segments":[],"categories_sizes":[],"default_left":[0,0,0,0,0,0,0,0,0,0,0,0,0,0,0,0,0,0,0,0,0,0,0,0,0,0,0,0,0,0,0,0,0,0,0,0,0,0,0,0,0,0,0,0,0,0,0,0,0,0,0,0,0,0,0,0,0,0,0],"id":3,"left_children":[1,3,5,7,9,11,13,15,17,19,21,23,-1,25,27,29,31,33,-1,35,-1,37,39,-1,-1,41,-1,-1,-1,-1,43,-1,45,-1,-1,-1,47,49,51,53,55,57,-1,-1,-1,-1,-1,-1,-1,-1,-1,-1,-1,-1,-1,-1,-1,-1,-1],"loss_changes":[3.3990173E1,3.641082E1,7.0265465E0,6.7216015E0,2.6714838E1,3.1853867E-1,8.216713E0,6.631832E0,4.0166473E-1,1.1942433E1,2.5542868E1,2.8414605E0,0E0,5.6543164E0,2.915042E0,2.9934616E0,5.476474E0,4.1726046E0,0E0,1.92132E0,0E0,9.912756E0,2.3098557E1,0E0,0E0,4.0601115E0,0E0,0E0,0E0,0E0,1.0157623E0,0E0,3.4385643E0,0E0,0E0,0E0,1.1855125E0,5.9568925E0,4.718813E0,2.711842E1,2.9420212E1,1.8923923E0,0E0,0E0,0E0,0E0,0E0,0E0,0E0,0E0,0E0,0E0,0E0,0E0,0E0,0E0,0E0,0E0,0E0],"parents":[2147483647,0,0,1,1,2,2,3,3,4,4,5,5,6,6,7,7,8,8,9,9,10,10,11,11,13,13,14,14,15,15,16,16,17,17,19,19,21,21,22,22,25,25,30,30,32,32,36,36,37,37,38,38,39,39,40,40,41,41],"right_children":[2,4,6,8,10,12,14,16,18,20,22,24,-1,26,28,30,32,34,-1,36,-1,38,40,-1,-1,42,-1,-1,-1,-1,44,-1,46,-1,-1,-1,48,50,52,54,56,58,-1,-1,-1,-1,-1,-1,-1,-1,-1,-1,-1,-1,-1,-1,-1,-1,-1],"split_conditions":[2.166721E-1,-2.166721E-1,-1.5644707E-2,1.5644707E-2,-1.24805264E-1,-6.295857E-2,-1.362594E-1,1.974693E-2,-1.1772417E-2,4.0365407E-1,-1.3027257E-1,1.4209627E-1,-3.8306496E-1,4.1292065E-1,-1.0504593E-1,2.254849E-2,-2.4243668E-1,9.322784E-2,-3.7005988E-1,1.6238792E-1,2.6834682E-1,-2.6517722E-1,-5.7906725E-2,1.0547537E-1,-3.2986212E-1,1.01620175E-1,-2.5334284E-1,6.467787E-2,-3.9036554E-1,1.22639865E-1,-1.4944649E-1,-2.7760318E-1,-1.915568E-1,1.3688739E-1,-3.2897025E-1,-4.629627E-2,-4.598827E-2,-9.441777E-2,4.863325E-2,4.6018377E-2,5.7906725E-2,-3.6156306E-3,3.5982898E-1,-3.197885E-2,-3.7681285E-1,-1.238642E-1,3.2568568E-1,-9.8960005E-2,-4.4392234E-1,2.566972E-1,-3.055575E-1,-4.1890362E-1,-1.2749916E-1,1.2603785E-1,-4.0236387E-1,2.6596266E-1,-5.111101E-2,-2.69756E-1,1.3294078E-1],"split_indices":[140,140,0,0,28,143,146,145,18,136,37,26,0,97,131,5,63,63,0,37,0,25,111,0,0,41,0,0,0,0,7,0,151,0,0,0,91,149,118,154,111,75,0,0,0,0,0,0,0,0,0,0,0,0,0,0,0,0,0],"split_type":[0,0,0,0,0,0,0,0,0,0,0,0,0,0,0,0,0,0,0,0,0,0,0,0,0,0,0,0,0,0,0,0,0,0,0,0,0,0,0,0,0,0,0,0,0,0,0,0,0,0,0,0,0,0,0,0,0,0,0],"sum_hessian":[3.1385757E2,2.72397E2,4.1460575E1,3.957398E1,2.3282301E2,2.4914688E1,1.6545889E1,1.5983523E1,2.3590456E1,1.7304705E1,2.1551831E2,4.480733E0,2.0433954E1,9.169798E0,7.37609E0,7.64902E0,8.334503E0,6.9530573E0,1.66374E1,1.4924224E1,2.3804815E0,2.9536179E1,1.8598213E2,1.4396765E0,3.0410562E0,6.889331E0,2.2804673E0,1.2266163E0,6.1494737E0,1.0370681E0,6.6119523E0,1.6967589E0,6.637744E0,1.7588506E0,5.1942067E0,1.7442164E0,1.3180008E1,7.465607E0,2.207057E1,3.555756E1,1.5042458E2,2.3330278E0,4.556303E0,1.094788E0,5.517164E0,1.4427235E0,5.1950207E0,1.6918609E0,1.1488147E1,6.1554046E0,1.3102027E0,8.317505E0,1.3753066E1,2.264367E1,1.291389E1,1.1688232E2,3.354225E1,1.1140871E0,1.2189407E0],"tree_param":{"num_deleted":"0","num_feature":"168","num_nodes":"59","size_leaf_vector":"1"}},{"base_weights":[-3.948973E-2,7.068047E-2,-8.323281E-1,-6.2112516E-1,2.1263742E-1,-3.2356763E-1,-1.2156794E0,-2.101932E-1,-1.0976089E0,3.4225017E-1,-6.092113E-1,3.3418012E-1,-1.1243007E0,9.0479385E-3,-1.2906824E0,-1.1512597E0,7.677031E-2,-4.4618064E-1,-3.852864E-1,5.5111927E-1,-2.8387168E-1,6.940917E-1,-9.3317443E-1,-6.8706083E-1,7.9125E-1,4.1046083E-2,-1.3354707E0,-1.1110016E-1,-4.0147075E-1,-3.7946853E-1,-1.15418755E-1,-6.818548E-1,4.7932824E-1,1.2405908E-1,-2.6769257E-1,6.474587E-1,-8.2577276E-1,1.653691E-1,-9.481226E-1,-6.4217456E-2,3.4619653E-1,-7.1751766E-2,-1.156285E0,-3.2460377E-1,3.8233034E-2,-5.379357E-2,1.0599169E0,-1.3825357E-1,-4.514345E-1,-3.5619164E-1,1.7826729E-1,2.3643588E-1,-2.5492868E-1,2.4178506E-1,-3.2460943E-2,1.2595318E-1,-3.8539347E-1,-2.6077038E-1,1.3519782E-1,-3.376004E-1,9.778157E-2,3.0309793E-1,-2.8057104E-1,-3.6864382E-1,-4.4351544E-2,3.3848792E-2,3.7126037E-1],"categories":[],"categories_nodes":[],"categories_segments":[],"categories_sizes":[],"default_left":[0,0,0,0,0,0,0,0,0,0,0,0,0,0,0,0,0,0,0,0,0,0,0,0,0,0,0,0,0,0,0,0,0,0,0,0,0,0,0,0,0,0,0,0,0,0,0,0,0,0,0,0,0,0,0,0,0,0,0,0,0,0,0,0,0,0,0],"id":4,"left_children":[1,3,5,7,9,11,13,15,17,19,21,23,25,-1,27,29,31,33,-1,35,37,39,41,43,45,-1,47,-1,-1,-1,-1,49,51,-1,-1,53,55,57,59,-1,-1,61,63,-1,-1,-1,65,-1,-1,-1,-1,-1,-1,-1,-1,-1,-1,-1,-1,-1,-1,-1,-1,-1,-1,-1,-1],"loss_changes":[2.5175844E1,2.5016947E1,6.464203E0,8.266701E0,2.2684135E1,9.051064E0,1.8787079E0,6.7150927E0,1.8420162E0,2.4074694E1,1.2935427E1,5.1246777E0,2.2220154E0,0E0,3.181839E-1,1.8275738E-2,6.355855E0,2.653285E0,0E0,1.8771614E1,1.4005865E1,2.9063609E0,4.478758E0,1.2862066E0,2.0791273E0,0E0,2.9160976E-1,0E0,0E0,0E0,0E0,5.3862123E0,6.2041435E0,0E0,0E0,1.554335E1,5.9293E0,8.814815E0,4.627836E0,0E0,0E0,6.503364E0,1.1923656E0,0E0,0E0,0E0,8.391738E-1,0E0,0E0,0E0,0E0,0E0,0E0,0E0,0E0,0E0,0E0,0E0,0E0,0E0,0E0,0E0,0E0,0E0,0E0,0E0,0E0],"parents":[2147483647,0,0,1,1,2,2,3,3,4,4,5,5,6,6,7,7,8,8,9,9,10,10,11,11,12,12,14,14,15,15,16,16,17,17,19,19,20,20,21,21,22,22,23,23,24,24,26,26,31,31,32,32,35,35,36,36,37,37,38,38,41,41,42,42,46,46],"right_children":[2,4,6,8,10,12,14,16,18,20,22,24,26,-1,28,30,32,34,-1,36,38,40,42,44,46,-1,48,-1,-1,-1,-1,50,52,-1,-1,54,56,58,60,-1,-1,62,64,-1,-1,-1,66,-1,-1,-1,-1,-1,-1,-1,-1,-1,-1,-1,-1,-1,-1,-1,-1,-1,-1,-1,-1],"split_conditions":[9.783518E-2,-2.96415E-1,5.298785E-2,3.0207625E-2,1.6429783E-1,-2.9136894E-2,-2.5991324E-1,-4.2462297E-2,-2.2281306E-2,1.013393E-1,6.428071E-2,-2.6126027E-1,-1.9094795E-1,9.0479385E-3,-3.4649956E-1,-1.8039724E-1,-1.2566844E-1,1.6776703E-1,-3.852864E-1,1.9368611E-1,5.955701E-2,2.0096695E-2,-9.4087375E-3,6.0845155E-2,-3.3072358E-1,4.1046083E-2,2.8996786E-2,-1.1110016E-1,-4.0147075E-1,-3.7946853E-1,-1.15418755E-1,8.881276E-2,5.0864375E-1,1.2405908E-1,-2.6769257E-1,1.0228114E-1,-6.0589492E-2,-1.3018881E-1,-1.414021E-2,-6.4217456E-2,3.4619653E-1,-4.4835664E-2,1.9775316E-1,-3.2460377E-1,3.8233034E-2,-5.379357E-2,-5.8496796E-2,-1.3825357E-1,-4.514345E-1,-3.5619164E-1,1.7826729E-1,2.3643588E-1,-2.5492868E-1,2.4178506E-1,-3.2460943E-2,1.2595318E-1,-3.8539347E-1,-2.6077038E-1,1.3519782E-1,-3.376004E-1,9.778157E-2,3.0309793E-1,-2.8057104E-1,-3.6864382E-1,-4.4351544E-2,3.3848792E-2,3.7126037E-1],"split_indices":[34,100,128,154,129,25,71,2,156,32,86,154,98,0,139,152,37,62,0,56,0,75,96,157,164,0,30,0,0,0,0,7,97,0,0,167,85,113,143,0,0,19,98,0,0,0,11,0,0,0,0,0,0,0,0,0,0,0,0,0,0,0,0,0,0,0,0],"split_type":[0,0,0,0,0,0,0,0,0,0,0,0,0,0,0,0,0,0,0,0,0,0,0,0,0,0,0,0,0,0,0,0,0,0,0,0,0,0,0,0,0,0,0,0,0,0,0,0,0,0,0,0,0,0,0,0,0,0,0,0,0,0,0,0,0,0,0],"sum_hessian":[2.8655386E2,2.52393E2,3.4160847E1,4.2397892E1,2.0999512E2,1.5471744E1,1.8689104E1,2.3538668E1,1.8859224E1,1.8189262E2,2.8102497E1,8.814165E0,6.6575794E0,1.0951966E0,1.7593908E1,4.79666E0,1.8742006E1,4.955786E0,1.3903438E1,1.3648285E2,4.5409775E1,5.367311E0,2.2735186E1,2.5696208E0,6.244544E0,1.0053926E0,5.652187E0,1.2961398E0,1.6297768E1,3.611162E0,1.1854982E0,6.256935E0,1.2485072E1,1.7180622E0,3.2377243E0,1.2805292E2,8.4299345E0,2.753713E1,1.7872644E1,1.9840312E0,3.38328E0,4.948971E0,1.7786215E1,1.5093223E0,1.0602984E0,1.425933E0,4.818611E0,1.5203348E0,4.1318517E0,4.5315647E0,1.7253703E0,1.0461537E1,2.0235348E0,1.05796715E2,2.2256205E1,2.2923527E0,6.137582E0,5.5096326E0,2.2027498E1,1.5792732E1,2.079912E0,2.1209903E0,2.8279805E0,1.6388994E1,1.3972197E0,1.019216E0,3.799395E0],"tree_param":{"num_deleted":"0","num_feature":"168","num_nodes":"67","size_leaf_vector":"1"}},{"base_weights":[-4.468567E-2,6.505736E-2,-6.504041E-1,-7.820344E-1,1.8460493E-1,-1.3165581E-1,-9.306772E-1,3.8800403E-1,-9.955936E-1,3.85357E-1,-2.802924E-1,-7.698948E-1,4.5841944E-1,-4.741845E-1,-3.7378708E-1,2.7465808E-1,-2.4301103E-1,-1.1533383E0,3.3297384E-1,-8.829211E-1,4.6135432E-1,-7.1105117E-1,1.7739426E-1,5.542926E-2,-3.2601777E-1,-1.6601576E-1,7.221598E-1,1.5885891E-1,-3.1501433E-1,-6.529362E-2,-1.2324516E0,2.3340894E-1,-8.490454E-2,-3.5085097E-1,2.1947227E-2,-5.923107E-1,5.5265236E-1,4.0976394E-2,-1.0411395E0,-3.8178423E-1,4.7610265E-1,1.1174592E-1,3.061782E-1,8.1980526E-1,-6.333631E-1,-4.530232E-2,-3.8853052E-1,-2.833773E-1,1.1302192E-1,2.016325E-1,-9.75526E-2,-2.2447404E-1,1.6916111E-1,-6.565628E-4,-3.5649252E-1,2.0358169E-1,-2.6255086E-1,2.6748702E-1,-1.07862055E-1,1.9592722E-1,-1.7998597E-1,4.0553354E-2,3.0607918E-1,-2.7168816E-1,2.7519835E-3],"categories":[],"categories_nodes":[],"categories_segments":[],"categories_sizes":[],"default_left":[0,0,0,0,0,0,0,0,0,0,0,0,0,0,0,0,0,0,0,0,0,0,0,0,0,0,0,0,0,0,0,0,0,0,0,0,0,0,0,0,0,0,0,0,0,0,0,0,0,0,0,0,0,0,0,0,0,0,0,0,0,0,0,0,0],"id":5,"left_children":[1,3,5,7,9,11,13,15,17,19,21,23,25,27,-1,-1,-1,29,31,33,35,37,39,-1,-1,-1,41,43,-1,-1,45,-1,-1,-1,-1,47,49,51,53,55,57,59,-1,61,63,-1,-1,-1,-1,-1,-1,-1,-1,-1,-1,-1,-1,-1,-1,-1,-1,-1,-1,-1,-1],"loss_changes":[1.7471518E1,2.2715868E1,5.7380314E0,7.321865E0,1.8412912E1,6.11654E0,3.1518974E0,3.9039779E0,5.3619823E0,1.3650988E1,1.1902113E1,2.5373783E0,2.6889212E0,4.628056E0,0E0,0E0,0E0,1.3200417E0,1.1240324E0,2.3079638E0,1.2861057E1,7.7305145E0,5.152669E0,0E0,0E0,0E0,1.2046399E0,4.026456E0,0E0,0E0,1.1302547E0,0E0,0E0,0E0,0E0,4.0673084E0,1.2845947E1,4.717589E0,3.2940693E0,6.305581E0,7.2106175E0,1.7402611E0,0E0,4.230404E-1,6.399522E-1,0E0,0E0,0E0,0E0,0E0,0E0,0E0,0E0,0E0,0E0,0E0,0E0,0E0,0E0,0E0,0E0,0E0,0E0,0E0,0E0],"parents":[2147483647,0,0,1,1,2,2,3,3,4,4,5,5,6,6,7,7,8,8,9,9,10,10,11,11,12,12,13,13,17,17,18,18,19,19,20,20,21,21,22,22,26,26,27,27,30,30,35,35,36,36,37,37,38,38,39,39,40,40,41,41,43,43,44,44],"right_children":[2,4,6,8,10,12,14,16,18,20,22,24,26,28,-1,-1,-1,30,32,34,36,38,40,-1,-1,-1,42,44,-1,-1,46,-1,-1,-1,-1,48,50,52,54,56,58,60,-1,62,64,-1,-1,-1,-1,-1,-1,-1,-1,-1,-1,-1,-1,-1,-1,-1,-1,-1,-1,-1,-1],"split_conditions":[1.8778194E-1,-1.7334948E-1,-1.2522183E-2,-1.2111264E-1,7.697157E-2,-4.6786177E-3,1.8003536E-2,2.2516644E-1,7.543102E-2,-1.931767E-1,7.3105386E-3,-1.3029328E-1,-4.381445E-2,1.6473435E-1,-3.7378708E-1,2.7465808E-1,-2.4301103E-1,1.143602E-1,-4.9082715E-2,1.3297555E-1,-1.07370324E-1,-1.1250569E-1,-1.1524811E-1,5.542926E-2,-3.2601777E-1,-1.6601576E-1,3.7348043E-2,-2.5303805E-2,-3.1501433E-1,-6.529362E-2,-2.6609562E-3,2.3340894E-1,-8.490454E-2,-3.5085097E-1,2.1947227E-2,6.4881526E-2,6.2399484E-2,-1.9151025E-1,-4.9169544E-2,-6.2045433E-2,9.861169E-2,3.5735138E-2,3.061782E-1,1.1772417E-2,-1.5205906E-1,-4.530232E-2,-3.8853052E-1,-2.833773E-1,1.1302192E-1,2.016325E-1,-9.75526E-2,-2.2447404E-1,1.6916111E-1,-6.565628E-4,-3.5649252E-1,2.0358169E-1,-2.6255086E-1,2.6748702E-1,-1.07862055E-1,1.9592722E-1,-1.7998597E-1,4.0553354E-2,3.0607918E-1,-2.7168816E-1,2.7519835E-3],"split_indices":[140,129,6,99,113,22,93,146,140,37,95,110,16,97,0,0,0,0,95,7,34,2,110,0,0,0,135,52,0,0,57,0,0,0,0,146,3,26,93,96,151,34,0,18,138,0,0,0,0,0,0,0,0,0,0,0,0,0,0,0,0,0,0,0,0],"split_type":[0,0,0,0,0,0,0,0,0,0,0,0,0,0,0,0,0,0,0,0,0,0,0,0,0,0,0,0,0,0,0,0,0,0,0,0,0,0,0,0,0,0,0,0,0,0,0,0,0,0,0,0,0,0,0,0,0,0,0,0,0,0,0,0,0],"sum_hessian":[2.611982E2,2.218893E2,3.9308926E1,2.675645E1,1.9513284E2,1.430395E1,2.5004976E1,4.0037947E0,2.2752657E1,1.3640256E2,5.873029E1,6.7251425E0,7.5788083E0,1.12378025E1,1.3767174E1,2.9435155E0,1.0602791E0,2.0455776E1,2.2968805E0,7.1111197E0,1.2929143E2,2.9969995E1,2.8760294E1,1.7796448E0,4.9454975E0,1.3399693E0,6.238839E0,5.6980753E0,5.5397267E0,1.8871402E0,1.8568636E1,1.1807344E0,1.1161462E0,5.2994065E0,1.8117132E0,9.871971E0,1.19419464E2,9.409212E0,2.0560783E1,9.917234E0,1.884306E1,2.4999375E0,3.7389016E0,3.0874314E0,2.610644E0,1.2035605E0,1.7365076E1,7.2585144E0,2.6134562E0,1.0532152E2,1.40979395E1,3.5779333E0,5.831279E0,2.6770186E0,1.7883764E1,3.029909E0,6.887326E0,1.2540397E1,6.302662E0,1.4666779E0,1.0332596E0,1.07847E0,2.0089612E0,1.5460674E0,1.0645767E0],"tree_param":{"num_deleted":"0","num_feature":"168","num_nodes":"65","size_leaf_vector":"1"}},{"base_weights":[-4.47586E-2,4.5700017E-2,-7.1647507E-1,1.8230331E-1,-4.8971754E-1,-9.2149854E-1,7.721008E-2,-3.6094522E-1,3.0658823E-1,-8.5944176E-1,-9.8286696E-2,-9.997939E-1,1.0356844E-1,-2.59703E-1,6.244756E-1,4.6477053E-2,-8.303697E-1,3.9024848E-1,-8.7623346E-1,-9.965729E-1,1.4456253E-1,-7.443497E-1,2.5713328E-1,-1.2480588E0,-3.0822343E-1,-4.3145355E-2,2.7821803E-1,-9.0339E-1,4.2893016E-1,1.8082984E-2,-1.0752822E0,-7.2861785E-1,4.9208763E-1,7.9996936E-2,-1.1720808E0,-1.1383669E0,-1.814226E-1,-1.2087916E0,-2.1166503E-2,-8.9693445E-1,6.6501325E-1,-9.463219E-2,-3.8773438E-1,-8.724362E-1,2.623717E-1,-3.6298758E-1,2.3966238E-2,2.2648785E-1,-2.4132954E-1,2.1693118E-1,-1.5702872E-1,-1.3942151E-1,-4.1628024E-1,-3.9006037E-1,1.5063113E-1,-9.19036E-2,1.9018973E-1,-1.5660842E-1,1.9304174E-1,-1.0641713E-1,-3.786991E-1,-8.638317E-2,-3.709348E-1,1.2944716E-1,-2.0673357E-1,-4.2038134E-1,-7.1506456E-2,-2.0850828E-1,2.3054884E-1,-3.261049E-1,-5.4408684E-2,-1.2413257E-1,2.8527904E-1,-3.055942E-1,-7.057854E-2,-1.3391972E-1,2.5421187E-1],"categories":[],"categories_nodes":[],"categories_segments":[],"categories_sizes":[],"default_left":[0,0,0,0,0,0,0,0,0,0,0,0,0,0,0,0,0,0,0,0,0,0,0,0,0,0,0,0,0,0,0,0,0,0,0,0,0,0,0,0,0,0,0,0,0,0,0,0,0,0,0,0,0,0,0,0,0,0,0,0,0,0,0,0,0,0,0,0,0,0,0,0,0,0,0,0,0],"id":6,"left_children":[1,3,5,7,9,11,13,15,17,19,21,23,-1,-1,25,27,29,31,33,35,-1,37,39,41,43,-1,-1,45,47,49,51,53,55,57,59,61,63,65,67,69,71,-1,-1,73,75,-1,-1,-1,-1,-1,-1,-1,-1,-1,-1,-1,-1,-1,-1,-1,-1,-1,-1,-1,-1,-1,-1,-1,-1,-1,-1,-1,-1,-1,-1,-1,-1],"loss_changes":[1.4586151E1,1.5596841E1,4.706588E0,1.1565428E1,6.192152E0,2.5980873E0,4.0343094E0,6.1676598E0,1.4058046E1,4.558916E0,5.2881007E0,3.3325024E0,0E0,0E0,1.2656115E0,6.964081E0,3.1246223E0,1.5187834E1,2.7711887E0,2.1564236E0,0E0,2.7064123E0,7.6864552E0,2.3825073E-1,2.4976022E0,0E0,0E0,1.7602167E0,6.069894E0,2.0318775E0,1.5694685E0,8.574254E0,1.3774719E1,1.4120637E0,9.01165E-2,1.0807247E0,1.6101066E0,5.878415E-1,2.768373E0,3.9575195E-1,4.003186E0,0E0,0E0,1.1199427E-1,2.149778E0,0E0,0E0,0E0,0E0,0E0,0E0,0E0,0E0,0E0,0E0,0E0,0E0,0E0,0E0,0E0,0E0,0E0,0E0,0E0,0E0,0E0,0E0,0E0,0E0,0E0,0E0,0E0,0E0,0E0,0E0,0E0,0E0],"parents":[2147483647,0,0,1,1,2,2,3,3,4,4,5,5,6,6,7,7,8,8,9,9,10,10,11,11,14,14,15,15,16,16,17,17,18,18,19,19,21,21,22,22,23,23,24,24,27,27,28,28,29,29,30,30,31,31,32,32,33,33,34,34,35,35,36,36,37,37,38,38,39,39,40,40,43,43,44,44],"right_children":[2,4,6,8,10,12,14,16,18,20,22,24,-1,-1,26,28,30,32,34,36,-1,38,40,42,44,-1,-1,46,48,50,52,54,56,58,60,62,64,66,68,70,72,-1,-1,74,76,-1,-1,-1,-1,-1,-1,-1,-1,-1,-1,-1,-1,-1,-1,-1,-1,-1,-1,-1,-1,-1,-1,-1,-1,-1,-1,-1,-1,-1,-1,-1,-1],"split_conditions":[9.783518E-2,2.2392727E-1,8.926712E-2,-1.0071227E-1,3.1024257E-2,2.8804156E-1,-1.5302905E-3,-7.225211E-2,1.727175E-1,1.9818178E-1,-2.1406775E-2,2.3493359E-2,1.0356844E-1,-2.59703E-1,1.5054817E-1,-1.09336965E-1,-1.0823527E-2,-2.4327216E-1,-3.9304525E-2,1.5461922E-2,1.4456253E-1,5.1138084E-2,-1.5959354E-1,-8.336442E-2,7.280859E-2,-4.3145355E-2,2.7821803E-1,1.2491466E-1,3.237563E-1,3.009568E-2,-7.2964355E-2,9.444295E-2,-1.9961765E-1,-6.0461022E-2,1.8561982E-1,1.7275041E-1,6.125145E-2,-5.697981E-2,1.4516108E-3,-2.5515044E-2,-8.944003E-2,-9.463219E-2,-3.8773438E-1,-5.961504E-2,-4.2364905E-3,-3.6298758E-1,2.3966238E-2,2.2648785E-1,-2.4132954E-1,2.1693118E-1,-1.5702872E-1,-1.3942151E-1,-4.1628024E-1,-3.9006037E-1,1.5063113E-1,-9.19036E-2,1.9018973E-1,-1.5660842E-1,1.9304174E-1,-1.0641713E-1,-3.786991E-1,-8.638317E-2,-3.709348E-1,1.2944716E-1,-2.0673357E-1,-4.2038134E-1,-7.1506456E-2,-2.0850828E-1,2.3054884E-1,-3.261049E-1,-5.4408684E-2,-1.2413257E-1,2.8527904E-1,-3.055942E-1,-7.057854E-2,-1.3391972E-1,2.5421187E-1],"split_indices":[34,97,156,74,29,95,76,95,37,125,81,137,0,0,106,108,11,162,99,91,0,40,140,29,127,0,0,140,137,33,136,109,140,32,37,121,108,10,90,22,127,0,0,44,75,0,0,0,0,0,0,0,0,0,0,0,0,0,0,0,0,0,0,0,0,0,0,0,0,0,0,0,0,0,0,0,0],"split_type":[0,0,0,0,0,0,0,0,0,0,0,0,0,0,0,0,0,0,0,0,0,0,0,0,0,0,0,0,0,0,0,0,0,0,0,0,0,0,0,0,0,0,0,0,0,0,0,0,0,0,0,0,0,0,0,0,0,0,0,0,0,0,0,0,0,0,0,0,0,0,0,0,0,0,0,0,0],"sum_hessian":[2.3851283E2,2.1102634E2,2.7486496E1,1.6865596E2,4.2370377E1,2.1715855E1,5.7706423E0,3.1046734E1,1.3760922E2,2.117448E1,2.1195896E1,2.065021E1,1.0656458E0,1.9056188E0,3.8650234E0,1.7103382E1,1.3943353E1,1.2914494E2,8.4642725E0,1.9443653E1,1.7308267E0,7.133936E0,1.406196E1,1.4603181E1,6.047028E0,1.2414773E0,2.6235461E0,4.518662E0,1.258472E1,3.3307545E0,1.0612598E1,1.0260652E1,1.1888429E2,2.1723752E0,6.291897E0,1.6224854E1,3.2187989E0,3.9351928E0,3.1987429E0,3.358971E0,1.070299E1,1.0317756E0,1.3571405E1,2.7745345E0,3.2724938E0,3.2689312E0,1.249731E0,1.0260361E1,2.3243592E0,1.3012507E0,2.029504E0,4.4335613E0,6.1790366E0,6.968036E0,3.2926154E0,1.7762857E1,1.0112144E2,1.0858233E0,1.0865519E0,1.1159177E0,5.175979E0,2.084752E0,1.4140101E1,1.526276E0,1.692523E0,2.9133842E0,1.0218087E0,1.7905844E0,1.4081584E0,2.243839E0,1.1151321E0,2.1486735E0,8.554316E0,1.7697409E0,1.0047934E0,1.5868446E0,1.6856492E0],"tree_param":{"num_deleted":"0","num_feature":"168","num_nodes":"77","size_leaf_vector":"1"}},{"base_weights":[-5.2252833E-2,-6.304774E-1,2.3504104E-2,-1.0272679E0,1.9628264E-2,-4.372358E-1,1.634435E-1,5.694366E-2,-1.1561325E0,5.468308E-1,-3.186044E-1,-9.813231E-2,-9.371729E-1,-3.136241E-1,3.9664885E-1,-3.646144E-1,-5.969016E-2,-1.292532E-1,9.079012E-1,-9.311144E-1,1.7650148E-1,-1.0522254E0,-7.9615094E-2,-1.0273686E-1,-1.2629817E0,5.4198265E-1,-6.1564046E-1,3.1062466E-1,4.8626803E-2,-3.5439205E-1,1.5537136E-2,-7.5659317E-1,4.3012655E-1,-1.1186255E0,-1.7258437E-2,1.970225E-1,-2.1435429E-1,-6.837044E-1,2.1264781E-1,-4.2571715E-1,-3.7018724E-2,7.6218057E-1,-1.2256779E-1,-4.7750995E-2,-1.3028202E0,-2.2090133E-2,-3.0627033E-1,-1.4966682E-1,2.1819523E-1,-4.6418462E-2,-3.5408992E-1,1.104052E-2,-3.154031E-1,1.6658634E-1,-1.2126107E-1,2.5458077E-1,-5.9967484E-2,2.3675723E-1,-1.4852294E-1,1.542941E-1,-2.8344312E-1,-1.627227E-2,-4.7245923E-1],"categories":[],"categories_nodes":[],"categories_segments":[],"categories_sizes":[],"default_left":[0,0,0,0,0,0,0,0,0,0,0,0,0,0,0,0,0,0,0,0,0,0,0,0,0,0,0,0,0,0,0,0,0,0,0,0,0,0,0,0,0,0,0,0,0,0,0,0,0,0,0,0,0,0,0,0,0,0,0,0,0,0,0],"id":7,"left_children":[1,3,5,7,9,11,13,-1,15,17,-1,19,21,23,25,-1,-1,-1,27,29,31,33,35,37,39,41,43,-1,-1,-1,-1,45,47,49,-1,-1,-1,51,53,-1,-1,55,57,59,61,-1,-1,-1,-1,-1,-1,-1,-1,-1,-1,-1,-1,-1,-1,-1,-1,-1,-1],"loss_changes":[9.57501E0,6.550969E0,1.2575175E1,2.6881695E0,6.6122265E0,7.6134443E0,1.6754494E1,0E0,5.733719E-1,3.134449E0,0E0,6.6152763E0,1.7171001E0,9.807886E0,1.5169367E1,0E0,0E0,0E0,4.024973E-1,1.8197932E0,5.5431457E0,9.931793E-1,1.9844564E0,7.786605E0,1.4138155E0,1.3074976E1,5.06099E0,0E0,0E0,0E0,0E0,8.408263E-1,5.32516E0,7.0643425E-1,0E0,0E0,0E0,3.9883256E0,6.098634E0,0E0,0E0,5.72134E0,8.182157E0,4.63356E0,1.9193621E0,0E0,0E0,0E0,0E0,0E0,0E0,0E0,0E0,0E0,0E0,0E0,0E0,0E0,0E0,0E0,0E0,0E0,0E0],"parents":[2147483647,0,0,1,1,2,2,3,3,4,4,5,5,6,6,8,8,9,9,11,11,12,12,13,13,14,14,18,18,19,19,20,20,21,21,22,22,23,23,24,24,25,25,26,26,31,31,32,32,33,33,37,37,38,38,41,41,42,42,43,43,44,44],"right_children":[2,4,6,8,10,12,14,-1,16,18,-1,20,22,24,26,-1,-1,-1,28,30,32,34,36,38,40,42,44,-1,-1,-1,-1,46,48,50,-1,-1,-1,52,54,-1,-1,56,58,60,62,-1,-1,-1,-1,-1,-1,-1,-1,-1,-1,-1,-1,-1,-1,-1,-1,-1,-1],"split_conditions":[-1.6076162E-1,-1.9332483E-2,-1.013393E-1,-2.0122683E-1,2.1489516E-2,6.81198E-2,-7.723662E-2,5.694366E-2,-4.157625E-2,-5.0665263E-2,-3.186044E-1,-1.01186916E-1,1.9775316E-1,1.02815315E-1,1.0228114E-1,-3.646144E-1,-5.969016E-2,-1.292532E-1,1.9817208E-1,2.0672473E-1,-1.1882431E-1,6.0624897E-2,2.4596648E-1,-6.8529725E-2,1.7972368E-1,1.16071716E-1,2.6504798E-2,3.1062466E-1,4.8626803E-2,-3.5439205E-1,1.5537136E-2,-3.9750837E-2,-1.04063906E-1,-6.295857E-2,-1.7258437E-2,1.970225E-1,-2.1435429E-1,-2.6349334E-2,1.4048381E-1,-4.2571715E-1,-3.7018724E-2,7.630195E-2,-8.925605E-2,6.79929E-2,1.1143443E-3,-2.2090133E-2,-3.0627033E-1,-1.4966682E-1,2.1819523E-1,-4.6418462E-2,-3.5408992E-1,1.104052E-2,-3.154031E-1,1.6658634E-1,-1.2126107E-1,2.5458077E-1,-5.9967484E-2,2.3675723E-1,-1.4852294E-1,1.542941E-1,-2.8344312E-1,-1.627227E-2,-4.7245923E-1],"split_indices":[105,96,32,35,114,105,167,0,13,75,0,10,98,140,167,0,0,0,73,162,28,17,95,154,49,131,109,0,0,0,0,103,111,143,0,0,0,139,56,0,0,15,68,123,117,0,0,0,0,0,0,0,0,0,0,0,0,0,0,0,0,0,0],"split_type":[0,0,0,0,0,0,0,0,0,0,0,0,0,0,0,0,0,0,0,0,0,0,0,0,0,0,0,0,0,0,0,0,0,0,0,0,0,0,0,0,0,0,0,0,0,0,0,0,0,0,0,0,0,0,0,0,0,0,0,0,0,0,0],"sum_hessian":[2.1724669E2,2.4317543E1,1.9292915E2,1.4740535E1,9.577007E0,4.4451496E1,1.4847765E2,1.3660173E0,1.3374517E1,6.7711377E0,2.8058689E0,2.7198948E1,1.7252548E1,4.863674E1,9.984091E1,1.2340843E1,1.0336745E0,1.7741125E0,4.9970255E0,6.151293E0,2.1047655E1,1.5011553E1,2.2409952E0,4.0703266E1,7.933476E0,8.7712654E1,1.2128259E1,3.9358E0,1.0612253E0,4.7423134E0,1.4089795E0,4.0744624E0,1.6973192E1,1.3955384E1,1.0561692E0,1.0216645E0,1.2193307E0,1.3910677E1,2.679259E1,6.762111E0,1.1713653E0,6.57722E1,2.1940447E1,7.226075E0,4.9021835E0,1.4936165E0,2.580846E0,3.9492354E0,1.3023958E1,1.0502331E0,1.2905151E1,5.0038805E0,8.906797E0,1.728896E1,9.503628E0,6.0459164E1,5.31304E0,6.039494E0,1.5900952E1,4.7048535E0,2.521222E0,1.0915877E0,3.810596E0],"tree_param":{"num_deleted":"0","num_feature":"168","num_nodes":"63","size_leaf_vector":"1"}},{"base_weights":[-5.4819744E-2,1.6411416E-2,-6.741646E-1,-3.5594073E-1,1.3829537E-1,-8.6073494E-1,-1.2227355E-3,-7.0973866E-2,-1.0641996E0,2.6505584E-1,-4.6178126E-1,1.8624256E-3,-9.835506E-1,1.8135062E-1,-6.1007106E-1,-6.087842E-1,1.9844663E-1,-3.2834294E-3,-1.2009822E0,-4.3237457E-1,3.9282897E-1,-1.1711799E-1,-9.3112046E-1,-1.1022271E0,-4.0240332E-1,-2.190962E-1,-5.478426E-2,4.5959258E-1,-9.3625265E-1,-4.738778E-1,4.6256566E-1,-1.3675388E0,-4.1580707E-1,-1.008443E0,2.562528E-1,-7.909961E-1,4.648846E-1,2.9660714E-1,-2.7424747E-1,-1.1455634E0,5.6150086E-2,-3.4841138E-1,-9.062529E-2,1.20961435E-1,-2.4392964E-1,2.1704699E-1,-2.002359E-2,-3.2535955E-1,-6.559651E-4,1.7025357E-1,-2.6408908E-1,-9.906312E-2,2.5334898E-1,-8.56743E-2,-4.4118723E-1,-2.1444564E-1,4.1991066E-2,-3.4435484E-1,1.2120552E-2,-1.443576E-1,2.4371587E-1,-3.2634166E-1,8.9977905E-2,-1.610347E-1,1.6271682E-1,-1.2267076E-1,1.9237228E-1,-3.560528E-2,-3.8249394E-1],"categories":[],"categories_nodes":[],"categories_segments":[],"categories_sizes":[],"default_left":[0,0,0,0,0,0,0,0,0,0,0,0,0,0,0,0,0,0,0,0,0,0,0,0,0,0,0,0,0,0,0,0,0,0,0,0,0,0,0,0,0,0,0,0,0,0,0,0,0,0,0,0,0,0,0,0,0,0,0,0,0,0,0,0,0,0,0,0,0],"id":8,"left_children":[1,3,5,7,9,11,13,15,17,19,21,-1,23,-1,25,27,29,-1,31,33,35,37,39,41,43,-1,-1,45,47,49,51,53,55,57,59,61,63,65,-1,67,-1,-1,-1,-1,-1,-1,-1,-1,-1,-1,-1,-1,-1,-1,-1,-1,-1,-1,-1,-1,-1,-1,-1,-1,-1,-1,-1,-1,-1],"loss_changes":[8.739575E0,8.146554E0,2.5641508E0,8.861494E0,1.0401897E1,1.709177E0,2.3737063E0,4.851266E0,1.8068438E0,1.0168871E1,3.7624412E0,0E0,5.2316666E-1,0E0,3.1576395E-2,4.3284535E0,4.215482E0,0E0,8.9235497E-1,7.3393955E0,8.501743E0,5.198748E0,2.6100454E0,1.7279053E-1,1.6353884E0,0E0,0E0,5.0453097E-1,1.2243962E0,3.3951201E0,5.3243527E0,5.592537E-1,6.63746E-1,1.4971104E0,4.052439E0,2.2176197E0,7.318201E0,2.837582E0,0E0,9.813194E-1,0E0,0E0,0E0,0E0,0E0,0E0,0E0,0E0,0E0,0E0,0E0,0E0,0E0,0E0,0E0,0E0,0E0,0E0,0E0,0E0,0E0,0E0,0E0,0E0,0E0,0E0,0E0,0E0,0E0],"parents":[2147483647,0,0,1,1,2,2,3,3,4,4,5,5,6,6,7,7,8,8,9,9,10,10,12,12,14,14,15,15,16,16,18,18,19,19,20,20,21,21,22,22,23,23,24,24,27,27,28,28,29,29,30,30,31,31,32,32,33,33,34,34,35,35,36,36,37,37,39,39],"right_children":[2,4,6,8,10,12,14,16,18,20,22,-1,24,-1,26,28,30,-1,32,34,36,38,40,42,44,-1,-1,46,48,50,52,54,56,58,60,62,64,66,-1,68,-1,-1,-1,-1,-1,-1,-1,-1,-1,-1,-1,-1,-1,-1,-1,-1,-1,-1,-1,-1,-1,-1,-1,-1,-1,-1,-1,-1,-1],"split_conditions":[1.063381E-1,-1.5274349E-1,1.4793278E-1,3.1943407E-2,1.3027257E-1,-4.60157E-2,1.7076302E-1,-4.0863873E-3,-2.615509E-2,-1.853743E-1,-4.73194E-2,1.8624256E-3,1.2114935E-1,1.8135062E-1,-9.4720766E-2,-7.026055E-2,-7.0675924E-2,-3.2834294E-3,1.21984E-1,-3.0563748E-2,-2.0562804E-1,3.1807292E-1,4.1937903E-1,1.0120144E-1,2.2457999E-1,-2.190962E-1,-5.478426E-2,1.9439396E-1,-2.1205898E-2,-9.468232E-2,8.095506E-2,-1.4191298E-1,-2.8915986E-1,4.381445E-2,1.0968313E-1,7.543102E-2,-1.9238487E-1,5.5204064E-2,-2.7424747E-1,-1.7605187E-1,5.6150086E-2,-3.4841138E-1,-9.062529E-2,1.20961435E-1,-2.4392964E-1,2.1704699E-1,-2.002359E-2,-3.2535955E-1,-6.559651E-4,1.7025357E-1,-2.6408908E-1,-9.906312E-2,2.5334898E-1,-8.56743E-2,-4.4118723E-1,-2.1444564E-1,4.1991066E-2,-3.4435484E-1,1.2120552E-2,-1.443576E-1,2.4371587E-1,-3.2634166E-1,8.9977905E-2,-1.610347E-1,1.6271682E-1,-1.2267076E-1,1.9237228E-1,-3.560528E-2,-3.8249394E-1],"split_indices":[34,64,115,154,37,17,127,91,162,162,118,0,101,0,72,38,15,0,95,128,9,151,64,89,100,0,0,119,109,32,162,10,163,16,160,140,113,152,0,128,0,0,0,0,0,0,0,0,0,0,0,0,0,0,0,0,0,0,0,0,0,0,0,0,0,0,0,0,0],"split_type":[0,0,0,0,0,0,0,0,0,0,0,0,0,0,0,0,0,0,0,0,0,0,0,0,0,0,0,0,0,0,0,0,0,0,0,0,0,0,0,0,0,0,0,0,0,0,0,0,0,0,0,0,0,0,0,0,0,0,0,0,0,0,0,0,0,0,0,0,0],"sum_hessian":[1.968507E2,1.7741913E2,1.943156E1,4.32799E1,1.3413924E2,1.4995153E1,4.4364076E0,3.164699E1,1.1632909E1,1.1120627E2,2.2932968E1,1.9785099E0,1.3016644E1,2.227487E0,2.2089205E0,1.0142061E1,2.1504929E1,1.4612209E0,1.0171687E1,1.6849867E1,9.43564E1,1.3943197E1,8.98977E0,1.0064687E1,2.9519565E0,1.1709824E0,1.0379382E0,2.2846954E0,7.8573656E0,5.8413587E0,1.566357E1,7.7797065E0,2.3919811E0,8.921881E0,7.9279866E0,4.8412013E0,8.95152E1,9.592051E0,4.3511477E0,7.5228047E0,1.4669652E0,8.95156E0,1.113127E0,1.0029124E0,1.949044E0,1.272241E0,1.0124544E0,6.641904E0,1.2154619E0,1.5284802E0,4.3128786E0,5.1367044E0,1.0526866E1,1.004723E0,6.7749834E0,1.3691884E0,1.0227927E0,7.79184E0,1.1300406E0,3.466323E0,4.4616637E0,3.8080063E0,1.0331949E0,6.0032883E0,8.351191E1,3.086698E0,6.505352E0,1.0565417E0,6.4662633E0],"tree_param":{"num_deleted":"0","num_feature":"168","num_nodes":"69","size_leaf_vector":"1"}},{"base_weights":[-5.8821276E-2,1.0864764E-3,-6.198356E-1,1.2652732E-1,-3.7457788E-1,-9.4281477E-1,-2.1971996E-1,2.5637382E-1,-4.0247586E-1,-9.554388E-2,-9.372874E-1,-3.2516947E-1,1.3552788E-2,-2.1881561E-1,1.5001434E-1,-3.6095107E-1,4.1171557E-1,-5.852351E-1,3.1183392E-1,7.818337E-2,-8.6826813E-1,2.2532289E-1,-1.2098093E0,-2.3223947E-1,5.576217E-1,-9.692457E-1,8.889957E-2,6.2754166E-1,-1.5431865E-1,-3.149518E-1,-1.1112225E0,2.233856E-1,-2.856909E-1,5.5327237E-1,-3.6816633E-1,-3.2253304E-1,-2.797873E-2,2.0635183E-1,-8.479592E-2,-4.879281E-1,-1.4344689E0,-3.837111E-2,2.3551425E-1,-3.3347994E-1,2.351728E-2,-3.1615317E-1,1.445077E-1,2.3374642E-1,1.4572404E-2,-1.8421687E-1,1.7447175E-1,2.7871529E-2,-2.611909E-1,-1.7145062E-2,-4.0566352E-1,3.7662692E-2,-1.6266039E-1,-1.0173832E-1,2.2575371E-1,6.7366086E-2,-2.2003774E-1,3.8964875E-2,-2.3341453E-1,-4.8319426E-1,-1.8778016E-1],"categories":[],"categories_nodes":[],"categories_segments":[],"categories_sizes":[],"default_left":[0,0,0,0,0,0,0,0,0,0,0,0,0,0,0,0,0,0,0,0,0,0,0,0,0,0,0,0,0,0,0,0,0,0,0,0,0,0,0,0,0,0,0,0,0,0,0,0,0,0,0,0,0,0,0,0,0,0,0,0,0,0,0,0,0],"id":9,"left_children":[1,3,5,7,9,11,13,15,17,19,21,-1,-1,-1,23,25,27,29,31,33,35,37,39,-1,41,43,45,47,49,51,53,-1,55,57,59,-1,-1,-1,-1,61,63,-1,-1,-1,-1,-1,-1,-1,-1,-1,-1,-1,-1,-1,-1,-1,-1,-1,-1,-1,-1,-1,-1,-1,-1],"loss_changes":[6.1134024E0,7.838234E0,2.0607634E0,8.667966E0,6.448347E0,1.3601999E0,1.8322575E0,9.807863E0,3.44132E0,3.9541132E0,4.6099405E0,0E0,0E0,0E0,2.7400608E0,5.7733808E0,9.985185E0,2.5252929E0,1.6965904E0,5.4102497E0,7.6479673E-1,1.0032357E0,1.1240883E0,0E0,8.540257E-1,1.4173832E0,6.281661E0,5.1232376E0,8.18785E0,3.4250274E0,1.5661073E0,0E0,3.985558E-1,2.4409208E0,3.0356445E0,0E0,0E0,0E0,0E0,8.511605E-1,1.4025307E-1,0E0,0E0,0E0,0E0,0E0,0E0,0E0,0E0,0E0,0E0,0E0,0E0,0E0,0E0,0E0,0E0,0E0,0E0,0E0,0E0,0E0,0E0,0E0,0E0],"parents":[2147483647,0,0,1,1,2,2,3,3,4,4,5,5,6,6,7,7,8,8,9,9,10,10,14,14,15,15,16,16,17,17,18,18,19,19,20,20,21,21,22,22,24,24,25,25,26,26,27,27,28,28,29,29,30,30,32,32,33,33,34,34,39,39,40,40],"right_children":[2,4,6,8,10,12,14,16,18,20,22,-1,-1,-1,24,26,28,30,32,34,36,38,40,-1,42,44,46,48,50,52,54,-1,56,58,60,-1,-1,-1,-1,62,64,-1,-1,-1,-1,-1,-1,-1,-1,-1,-1,-1,-1,-1,-1,-1,-1,-1,-1,-1,-1,-1,-1,-1,-1],"split_conditions":[1.2029795E-1,7.269174E-2,8.488583E-2,1.2674291E-1,3.607303E-2,-9.281859E-2,-7.588145E-2,-1.1184691E-1,5.6041434E-2,3.63031E-2,-4.466439E-2,-3.2516947E-1,1.3552788E-2,-2.1881561E-1,-6.936765E-2,-1.869448E-2,1.0071227E-1,4.728574E-2,2.3730458E-1,-8.5013844E-2,1.9736369E-1,-8.308143E-3,8.242034E-3,-2.3223947E-1,-2.4016015E-1,2.8725305E-1,-7.7163585E-2,1.0831347E-1,5.9878852E-2,1.1028019E-1,-2.24064E-1,2.233856E-1,-1.6176401E-1,-3.3830854E-1,1.25885E-1,-3.2253304E-1,-2.797873E-2,2.0635183E-1,-8.479592E-2,5.8817856E-2,7.280859E-2,-3.837111E-2,2.3551425E-1,-3.3347994E-1,2.351728E-2,-3.1615317E-1,1.445077E-1,2.3374642E-1,1.4572404E-2,-1.8421687E-1,1.7447175E-1,2.7871529E-2,-2.611909E-1,-1.7145062E-2,-4.0566352E-1,3.7662692E-2,-1.6266039E-1,-1.0173832E-1,2.2575371E-1,6.7366086E-2,-2.2003774E-1,3.8964875E-2,-2.3341453E-1,-4.8319426E-1,-1.8778016E-1],"split_indices":[28,109,162,140,146,49,33,105,148,75,61,0,0,0,11,76,74,123,140,19,117,91,3,0,37,120,142,98,99,54,35,0,110,145,151,0,0,0,0,34,127,0,0,0,0,0,0,0,0,0,0,0,0,0,0,0,0,0,0,0,0,0,0,0,0],"split_type":[0,0,0,0,0,0,0,0,0,0,0,0,0,0,0,0,0,0,0,0,0,0,0,0,0,0,0,0,0,0,0,0,0,0,0,0,0,0,0,0,0,0,0,0,0,0,0,0,0,0,0,0,0,0,0,0,0,0,0,0,0,0,0,0,0],"sum_hessian":[1.8087717E2,1.6432756E2,1.6549606E1,1.2368889E2,4.063867E1,8.407E0,8.142606E0,9.9726E1,2.3962885E1,2.7949156E1,1.2689517E1,7.2715597E0,1.13544E0,3.0144994E0,5.1281066E0,1.9783438E1,7.994256E1,1.9224827E1,4.738058E0,2.3552746E1,4.39641E0,2.4425416E0,1.0246975E1,1.2943312E0,3.8337753E0,7.919704E0,1.1863734E1,5.779641E1,2.2146154E1,1.3755316E1,5.4695115E0,2.6050556E0,2.1330025E0,1.1293034E1,1.2259712E1,3.1645832E0,1.2318267E0,1.0931449E0,1.3493967E0,3.184933E0,7.062042E0,1.0640453E0,2.76973E0,6.9185486E0,1.0011555E0,2.6042614E0,9.259473E0,4.5528244E1,1.2268165E1,1.3732518E1,8.413635E0,8.413126E0,5.34219E0,1.247997E0,4.221514E0,1.0155176E0,1.1174849E0,1.932996E0,9.360038E0,4.821568E0,7.4381447E0,1.1941994E0,1.9907335E0,4.983983E0,2.078059E0],"tree_param":{"num_deleted":"0","num_feature":"168","num_nodes":"65","size_leaf_vector":"1"}},{"base_weights":[-6.097342E-2,-3.1634222E-4,-5.4605865E-1,-5.0697714E-1,7.0028156E-2,-2.4743015E-1,-3.0734754E-1,-7.494104E-1,2.2344215E-1,-6.455685E-1,1.15600616E-1,9.618966E-2,-6.7145795E-1,-8.9120424E-1,5.0184067E-2,-1.7549449E-1,5.5410385E-1,1.1991854E-1,-1.0219222E0,-2.887091E-1,2.1094795E-1,3.732547E-1,-1.4818168E-1,-2.7581763E-1,-2.5485193E-2,-6.962147E-2,-9.884641E-1,2.4456827E-1,-3.17889E-2,-3.3402866E-1,-8.2643144E-2,-9.512681E-1,4.2922992E-2,-1.8358554E-1,3.5004258E-1,5.993647E-1,-1.0758033E-1,-3.142137E-1,-7.0642725E-2,-3.9523643E-1,-6.489458E-2,1.5018782E-1,-1.5601191E-1,7.1054175E-2,-1.9245946E-1,1.296384E-1,-1.4064391E-1,2.4929939E-1,-3.2507613E-2],"categories":[],"categories_nodes":[],"categories_segments":[],"categories_sizes":[],"default_left":[0,0,0,0,0,0,0,0,0,0,0,0,0,0,0,0,0,0,0,0,0,0,0,0,0,0,0,0,0,0,0,0,0,0,0,0,0,0,0,0,0,0,0,0,0,0,0,0,0],"id":10,"left_children":[1,3,5,7,9,11,-1,13,15,17,19,21,23,25,-1,-1,27,-1,29,31,33,35,-1,-1,-1,-1,37,-1,-1,-1,-1,39,41,43,45,47,-1,-1,-1,-1,-1,-1,-1,-1,-1,-1,-1,-1,-1],"loss_changes":[4.903246E0,5.350476E0,2.392768E0,3.4082918E0,4.3736167E0,1.9182541E0,0E0,1.9650064E0,1.7492218E0,3.5731738E0,4.8711495E0,1.4763808E0,7.6822305E-1,5.563812E-1,0E0,0E0,8.2702863E-1,0E0,1.1649084E-1,5.365529E0,5.6368794E0,1.1990343E0,0E0,0E0,0E0,0E0,2.1359539E-1,0E0,0E0,0E0,0E0,1.9021516E0,4.668219E0,5.374454E0,5.272135E0,8.962034E-1,0E0,0E0,0E0,0E0,0E0,0E0,0E0,0E0,0E0,0E0,0E0,0E0,0E0],"parents":[2147483647,0,0,1,1,2,2,3,3,4,4,5,5,7,7,8,8,9,9,10,10,11,11,12,12,13,13,16,16,18,18,19,19,20,20,21,21,26,26,31,31,32,32,33,33,34,34,35,35],"right_children":[2,4,6,8,10,12,-1,14,16,18,20,22,24,26,-1,-1,28,-1,30,32,34,36,-1,-1,-1,-1,38,-1,-1,-1,-1,40,42,44,46,48,-1,-1,-1,-1,-1,-1,-1,-1,-1,-1,-1,-1,-1],"split_conditions":[9.783518E-2,-1.0130786E-1,2.7324988E-2,1.014091E-1,-2.1016763E-1,5.298785E-2,-3.0734754E-1,4.60157E-2,-3.9347392E-1,-6.0834814E-2,-4.1239776E-2,7.106751E-2,7.746712E-2,-8.114994E-2,5.0184067E-2,-1.7549449E-1,5.9565943E-2,1.1991854E-1,1.176657E-1,-3.8314275E-2,-7.826291E-2,2.9500282E-1,-1.4818168E-1,-2.7581763E-1,-2.5485193E-2,-6.962147E-2,2.8075637E-2,2.4456827E-1,-3.17889E-2,-3.3402866E-1,-8.2643144E-2,-8.194395E-3,4.768124E-2,-7.386764E-2,3.63503E-1,-9.163927E-3,-1.0758033E-1,-3.142137E-1,-7.0642725E-2,-3.9523643E-1,-6.489458E-2,1.5018782E-1,-1.5601191E-1,7.1054175E-2,-1.9245946E-1,1.296384E-1,-1.4064391E-1,2.4929939E-1,-3.2507613E-2],"split_indices":[34,34,3,124,26,128,0,17,119,132,90,164,156,156,0,0,109,0,32,40,105,145,0,0,0,0,91,0,0,0,0,109,129,49,164,160,0,0,0,0,0,0,0,0,0,0,0,0,0],"split_type":[0,0,0,0,0,0,0,0,0,0,0,0,0,0,0,0,0,0,0,0,0,0,0,0,0,0,0,0,0,0,0,0,0,0,0,0,0,0,0,0,0,0,0,0,0,0,0,0,0],"sum_hessian":[1.6564774E2,1.4812608E2,1.7521652E1,1.7301786E1,1.308243E2,1.1722111E1,5.799541E0,1.2970689E1,4.331097E0,7.044412E0,1.23779884E2,6.9020457E0,4.8200645E0,1.1257222E1,1.7134664E0,1.0339943E0,3.2971027E0,1.8484259E0,5.1959863E0,2.3233376E1,1.0054651E2,4.9469557E0,1.95509E0,2.9889674E0,1.8310974E0,1.8828952E0,9.374328E0,2.1940598E0,1.1030427E0,4.190617E0,1.0053688E0,7.1266956E0,1.610668E1,2.6124914E1,7.44216E1,3.9176235E0,1.0293323E0,8.331497E0,1.0428302E0,4.2276964E0,2.8989992E0,8.944942E0,7.1617374E0,1.3872032E1,1.2252883E1,6.807024E1,6.3513618E0,2.8203547E0,1.0972686E0],"tree_param":{"num_deleted":"0","num_feature":"168","num_nodes":"49","size_leaf_vector":"1"}},{"base_weights":[-5.94554E-2,-3.3519787E-1,4.0537477E-2,-8.622782E-1,-1.3146417E-1,2.3435102E-1,-3.2751116E-1,1.2307778E-1,-1.0665733E0,8.409863E-2,-8.756053E-1,-3.0179656E-1,3.91084E-1,-1.0538936E0,-1.4951488E-1,-1.1598918E0,-3.17442E-2,4.521387E-1,-2.230002E-1,-3.1336838E-1,2.2744033E-2,-6.171233E-1,3.0212596E-1,6.306135E-1,-1.6338544E-1,-3.697172E-1,-1.7650438E-2,8.9314E-2,-7.713216E-1,-9.5298894E-2,-3.6795542E-1,-1.7128567E-1,6.7314476E-1,-7.758935E-1,5.437485E-1,9.6567996E-2,-8.3794045E-1,5.6759095E-1,-1.5957308E-1,-1.2725455E-1,7.2574747E-1,-4.426932E-1,5.166861E-1,3.2442808E-1,-4.8902127E-1,-3.0868053E-1,6.258612E-2,2.4268053E-1,-6.725748E-2,-3.5122678E-1,9.816727E-4,-8.074273E-3,2.8290734E-1,-1.6569851E-1,1.9558083E-1,-5.5384103E-2,-3.2596806E-1,6.267277E-3,2.2374019E-1,1.5548715E-1,-1.4915603E-1,2.5032386E-1,-2.2015994E-2,-2.1686623E-1,8.210432E-2,-1.10763304E-1,2.3133625E-1,2.1709551E-1,-6.869271E-3,-2.8016022E-1,5.4664325E-2],"categories":[],"categories_nodes":[],"categories_segments":[],"categories_sizes":[],"default_left":[0,0,0,0,0,0,0,0,0,0,0,0,0,0,0,0,0,0,0,0,0,0,0,0,0,0,0,0,0,0,0,0,0,0,0,0,0,0,0,0,0,0,0,0,0,0,0,0,0,0,0,0,0,0,0,0,0,0,0,0,0,0,0,0,0,0,0,0,0,0,0],"id":11,"left_children":[1,3,5,7,9,11,13,-1,15,17,19,21,23,25,27,29,-1,31,33,-1,-1,35,37,39,41,-1,-1,43,45,-1,-1,-1,47,49,51,53,55,57,-1,59,61,63,65,67,69,-1,-1,-1,-1,-1,-1,-1,-1,-1,-1,-1,-1,-1,-1,-1,-1,-1,-1,-1,-1,-1,-1,-1,-1,-1,-1],"loss_changes":[4.347258E0,4.3899174E0,8.368386E0,3.4301033E0,5.114536E0,6.5654016E0,5.0805507E0,0E0,7.914429E-1,2.9579866E0,1.2279239E0,3.5990171E0,8.045866E0,1.3143778E0,5.0742784E0,1.2625694E-1,0E0,3.0589657E0,6.5477424E0,0E0,0E0,1.9880838E0,1.8115485E0,3.1182938E0,3.8066072E0,0E0,0E0,3.5917501E0,2.6020508E0,0E0,0E0,0E0,1.4225812E0,2.7137213E0,1.5388104E0,1.7137266E0,1.3173904E0,5.354601E-1,0E0,1.5786717E0,3.312254E0,2.986042E0,1.6247761E0,2.588958E0,2.4682713E0,0E0,0E0,0E0,0E0,0E0,0E0,0E0,0E0,0E0,0E0,0E0,0E0,0E0,0E0,0E0,0E0,0E0,0E0,0E0,0E0,0E0,0E0,0E0,0E0,0E0,0E0],"parents":[2147483647,0,0,1,1,2,2,3,3,4,4,5,5,6,6,8,8,9,9,10,10,11,11,12,12,13,13,14,14,15,15,17,17,18,18,21,21,22,22,23,23,24,24,27,27,28,28,32,32,33,33,34,34,35,35,36,36,37,37,39,39,40,40,41,41,42,42,43,43,44,44],"right_children":[2,4,6,8,10,12,14,-1,16,18,20,22,24,26,28,30,-1,32,34,-1,-1,36,38,40,42,-1,-1,44,46,-1,-1,-1,48,50,52,54,56,58,-1,60,62,64,66,68,70,-1,-1,-1,-1,-1,-1,-1,-1,-1,-1,-1,-1,-1,-1,-1,-1,-1,-1,-1,-1,-1,-1,-1,-1,-1,-1],"split_conditions":[-7.345365E-2,-6.2230784E-2,7.345365E-2,-9.6784085E-2,8.755556E-2,-1.1731339E-1,-1.04872644E-1,1.2307778E-1,2.3496506E-1,6.797319E-2,1.261682E-1,8.7625995E-2,1.1731339E-1,4.0964015E-2,6.483539E-2,-1.3651893E-1,-3.17442E-2,-1.8487522E-1,4.463657E-2,-3.1336838E-1,2.2744033E-2,-7.8257695E-3,2.0711371E-1,-1.4528005E-1,1.5472739E-2,-3.697172E-1,-1.7650438E-2,1.1743105E-1,3.9606743E-2,-9.5298894E-2,-3.6795542E-1,-1.7128567E-1,1.5419933E-1,1.8039593E-2,3.9444733E-2,-2.0451185E-1,-3.884866E-2,-7.43097E-2,-1.5957308E-1,-7.142199E-2,1.4911543E-1,6.9503663E-3,-7.3256716E-2,1.1741679E-1,3.6156306E-3,-3.0868053E-1,6.258612E-2,2.4268053E-1,-6.725748E-2,-3.5122678E-1,9.816727E-4,-8.074273E-3,2.8290734E-1,-1.6569851E-1,1.9558083E-1,-5.5384103E-2,-3.2596806E-1,6.267277E-3,2.2374019E-1,1.5548715E-1,-1.4915603E-1,2.5032386E-1,-2.2015994E-2,-2.1686623E-1,8.210432E-2,-1.10763304E-1,2.3133625E-1,2.1709551E-1,-6.869271E-3,-2.8016022E-1,5.4664325E-2],"split_indices":[167,9,167,31,140,131,140,0,101,74,143,155,131,134,9,68,0,166,99,0,0,78,64,105,158,0,0,110,31,0,0,0,151,148,139,135,93,109,0,2,105,113,66,89,75,0,0,0,0,0,0,0,0,0,0,0,0,0,0,0,0,0,0,0,0,0,0,0,0,0,0],"split_type":[0,0,0,0,0,0,0,0,0,0,0,0,0,0,0,0,0,0,0,0,0,0,0,0,0,0,0,0,0,0,0,0,0,0,0,0,0,0,0,0,0,0,0,0,0,0,0,0,0,0,0,0,0,0,0,0,0,0,0,0,0,0,0,0,0,0,0,0,0,0,0],"sum_hessian":[1.5617488E2,4.0936184E1,1.152387E2,1.0510931E1,3.0425255E1,7.5725235E1,3.951347E1,1.3145475E0,9.196383E0,2.4279078E1,6.146177E0,1.6920053E1,5.880518E1,6.8083787E0,3.270509E1,8.1933E0,1.0030824E0,1.0828937E1,1.3450141E1,5.1361794E0,1.0099976E0,1.1101668E1,5.818385E0,4.0969234E1,1.7835945E1,5.570596E0,1.2377827E0,2.4248053E1,8.457037E0,1.02346E0,7.169841E0,1.6424074E0,9.186529E0,7.807976E0,5.6421647E0,2.7561955E0,8.345472E0,4.6559196E0,1.1624657E0,4.531578E0,3.6437656E1,1.2890728E1,4.945218E0,1.7551691E1,6.6963615E0,6.657005E0,1.8000327E0,8.064652E0,1.121877E0,4.8483653E0,2.9596105E0,2.7065032E0,2.9356618E0,1.273593E0,1.4826027E0,2.7807434E0,5.564729E0,1.4192531E0,3.2366664E0,1.5047296E0,3.0268486E0,3.2037136E1,4.40052E0,9.259848E0,3.63088E0,1.0027423E0,3.9424758E0,7.661687E0,9.890004E0,3.7920208E0,2.904341E0],"tree_param":{"num_deleted":"0","num_feature":"168","num_nodes":"71","size_leaf_vector":"1"}},{"base_weights":[-5.563863E-2,5.2896723E-2,-3.027824E-1,-3.0844283E-1,2.2718874E-1,-7.271757E-1,-1.05247624E-1,-1.0825033E0,-1.3570628E-1,3.1819975E-1,-6.9087416E-1,3.5327133E-2,-9.569929E-1,7.360419E-2,-6.3579595E-1,-7.364567E-2,-4.1266385E-1,-4.285327E-1,2.094359E-1,5.025987E-1,-9.6381396E-2,6.8002716E-2,-9.063914E-1,-1.5392798E-1,1.2534109E-1,-2.428107E-2,-1.0502262E0,-3.020273E-1,3.9973858E-1,1.4313191E-1,-9.156471E-1,4.3248028E-1,-6.200073E-1,-1.812074E-1,4.011619E-1,8.566606E-1,1.1366358E-1,3.9486632E-1,-6.426183E-1,-9.08563E-2,-3.0831572E-1,-9.816289E-2,-1.1065339E0,4.1144428E-1,-5.132598E-1,-2.1687384E-1,6.460849E-1,-3.640796E-2,-3.1311372E-1,2.0851226E-1,-5.15096E-3,-2.638091E-1,-3.6431026E-2,1.7859487E-1,-1.1764631E-1,-4.3894436E-2,2.8756806E-1,-1.2628645E-1,1.5158682E-1,-2.1035077E-1,1.8463427E-1,-3.4932205E-1,8.499468E-3,-3.6026454E-1,-1.2673177E-1,-1.9132905E-2,2.0093958E-1,-2.4439195E-1,1.193159E-2,2.5365156E-1,-1.0067731E-1],"categories":[],"categories_nodes":[],"categories_segments":[],"categories_sizes":[],"default_left":[0,0,0,0,0,0,0,0,0,0,0,0,0,0,0,0,0,0,0,0,0,0,0,0,0,0,0,0,0,0,0,0,0,0,0,0,0,0,0,0,0,0,0,0,0,0,0,0,0,0,0,0,0,0,0,0,0,0,0,0,0,0,0,0,0,0,0,0,0,0,0],"id":12,"left_children":[1,3,5,7,9,11,13,15,17,19,21,23,25,27,29,-1,-1,31,33,35,37,-1,39,-1,-1,-1,41,43,45,-1,47,49,51,-1,53,55,57,59,61,-1,-1,-1,63,65,67,-1,69,-1,-1,-1,-1,-1,-1,-1,-1,-1,-1,-1,-1,-1,-1,-1,-1,-1,-1,-1,-1,-1,-1,-1,-1],"loss_changes":[3.8619103E0,6.3979216E0,3.6036978E0,4.2813387E0,5.931369E0,2.4475303E0,3.000305E0,1.1092253E0,2.9418225E0,4.85527E0,1.4869978E0,1.0857955E0,7.8238773E-1,3.0822818E0,2.913203E0,0E0,0E0,2.839197E0,2.36721E0,5.9177866E0,5.6731033E0,0E0,8.768892E-2,0E0,0E0,0E0,2.5287628E-2,1.9902008E0,4.1647563E0,0E0,5.544567E-1,4.164387E-1,1.5960536E0,0E0,2.02427E0,2.4615364E0,4.812212E0,3.152024E0,3.5141125E0,0E0,0E0,0E0,3.5337448E-2,4.4192898E-1,1.6245978E0,0E0,2.5335636E0,0E0,0E0,0E0,0E0,0E0,0E0,0E0,0E0,0E0,0E0,0E0,0E0,0E0,0E0,0E0,0E0,0E0,0E0,0E0,0E0,0E0,0E0,0E0,0E0],"parents":[2147483647,0,0,1,1,2,2,3,3,4,4,5,5,6,6,7,7,8,8,9,9,10,10,11,11,12,12,13,13,14,14,17,17,18,18,19,19,20,20,22,22,26,26,27,27,28,28,30,30,31,31,32,32,34,34,35,35,36,36,37,37,38,38,42,42,43,43,44,44,46,46],"right_children":[2,4,6,8,10,12,14,16,18,20,22,24,26,28,30,-1,-1,32,34,36,38,-1,40,-1,-1,-1,42,44,46,-1,48,50,52,-1,54,56,58,60,62,-1,-1,-1,64,66,68,-1,70,-1,-1,-1,-1,-1,-1,-1,-1,-1,-1,-1,-1,-1,-1,-1,-1,-1,-1,-1,-1,-1,-1,-1,-1],"split_conditions":[1.4373398E-2,-5.3081814E-2,-7.2150454E-2,-1.3156846E-2,1.9983627E-1,-3.1908788E-2,1.9368611E-1,-1.2380606E-1,-7.4694236E-3,4.403987E-2,1.1016746E-1,-1.0489922E-1,6.169834E-2,-2.202565E-1,-1.0603212E-1,-7.364567E-2,-4.1266385E-1,5.995015E-3,-3.6246237E-1,5.403196E-2,-1.7334195E-2,6.8002716E-2,2.3977527E-4,-1.5392798E-1,1.2534109E-1,-2.428107E-2,-1.6882123E-1,-9.219459E-2,-1.1047021E-1,1.4313191E-1,-8.789462E-2,2.8114079E-2,5.114412E-2,-1.812074E-1,6.874907E-2,-4.6049047E-2,-4.2735707E-2,-4.1260812E-1,3.184661E-2,-9.08563E-2,-3.0831572E-1,-9.816289E-2,-3.5714682E-2,-6.1543346E-3,-9.142348E-2,-2.1687384E-1,6.7055136E-2,-3.640796E-2,-3.1311372E-1,2.0851226E-1,-5.15096E-3,-2.638091E-1,-3.6431026E-2,1.7859487E-1,-1.1764631E-1,-4.3894436E-2,2.8756806E-1,-1.2628645E-1,1.5158682E-1,-2.1035077E-1,1.8463427E-1,-3.4932205E-1,8.499468E-3,-3.6026454E-1,-1.2673177E-1,-1.9132905E-2,2.0093958E-1,-2.4439195E-1,1.193159E-2,2.5365156E-1,-1.0067731E-1],"split_indices":[76,109,8,91,162,117,56,86,106,111,48,110,86,97,85,0,0,16,158,166,95,0,107,0,0,0,52,46,29,0,106,78,67,0,16,90,133,94,62,0,0,0,81,90,1,0,9,0,0,0,0,0,0,0,0,0,0,0,0,0,0,0,0,0,0,0,0,0,0,0,0],"split_type":[0,0,0,0,0,0,0,0,0,0,0,0,0,0,0,0,0,0,0,0,0,0,0,0,0,0,0,0,0,0,0,0,0,0,0,0,0,0,0,0,0,0,0,0,0,0,0,0,0,0,0,0,0,0,0,0,0,0,0,0,0,0,0,0,0,0,0,0,0,0,0],"sum_hessian":[1.4237599E2,9.947614E1,4.2899853E1,3.2118618E1,6.735752E1,1.2774101E1,3.0125751E1,4.89893E0,2.7219688E1,6.1876842E1,5.480682E0,3.1544242E0,9.619677E0,2.3174665E1,6.951086E0,1.7469194E0,3.1520107E0,1.4595188E1,1.26245E1,4.268081E1,1.9196033E1,1.0326155E0,4.448066E0,1.1557418E0,1.9986825E0,1.104979E0,8.514698E0,1.0804405E1,1.2370261E1,1.2550781E0,5.6960077E0,2.4262543E0,1.2168934E1,1.9977847E0,1.0626715E1,2.1712523E1,2.0968287E1,1.0252636E1,8.9433975E0,1.3297039E0,3.1183622E0,1.1073178E0,7.4073796E0,2.2515635E0,8.552841E0,1.8778718E0,1.049239E1,1.0612925E0,4.6347156E0,1.1872537E0,1.2390004E0,7.502411E0,4.6665235E0,8.737825E0,1.8888894E0,1.9622873E0,1.9750235E1,8.833948E0,1.2134337E1,1.3526721E0,8.899964E0,4.6172023E0,4.3261952E0,5.8457265E0,1.5616534E0,1.0582136E0,1.19335E0,5.2297792E0,3.323062E0,8.836111E0,1.6562786E0],"tree_param":{"num_deleted":"0","num_feature":"168","num_nodes":"71","size_leaf_vector":"1"}},{"base_weights":[-5.7941623E-2,-5.2280724E-1,-1.0516829E-2,-1.8069026E-1,-7.998357E-1,-3.280218E-1,8.176383E-2,7.785444E-2,-2.0314352E-1,-3.4284756E-2,-2.8219637E-1,-5.6934226E-2,-6.712623E-1,2.2377072E-1,-2.1116067E-1,4.5404872E-1,-1.6025388E-1,-5.318657E-1,3.093146E-1,-8.5163903E-1,5.271541E-2,-1.5255535E-1,3.7438014E-1,1.1226198E-1,-5.19469E-1,2.0555611E-1,-2.6285471E-2,1.4240782E-1,-3.058338E-1,8.0421734E-1,-3.5840827E-1,-3.1639326E-1,-2.2537509E-1,3.557739E-2,-7.8086686E-1,-5.4886755E-2,5.811689E-1,-3.8971424E-1,3.6620224E-1,-9.343618E-2,-9.537731E-1,-1.1812123E-1,1.6645235E-1,2.77547E-1,3.1204022E-2,-2.301344E-1,5.627852E-2,-1.6897134E-1,5.648452E-2,-1.7133659E-1,7.68784E-2,-3.014361E-1,-4.75643E-2,-1.9695838E-1,1.3295811E-1,2.1278097E-1,-6.2518716E-2,-2.3161682E-1,1.0026833E-1,-1.5625493E-1,1.7525129E-1,5.4090712E-2,-2.5674012E-1,-3.1053105E-1,-6.562652E-2],"categories":[],"categories_nodes":[],"categories_segments":[],"categories_sizes":[],"default_left":[0,0,0,0,0,0,0,0,0,0,0,0,0,0,0,0,0,0,0,0,0,0,0,0,0,0,0,0,0,0,0,0,0,0,0,0,0,0,0,0,0,0,0,0,0,0,0,0,0,0,0,0,0,0,0,0,0,0,0,0,0,0,0,0,0],"id":13,"left_children":[1,3,5,7,9,11,13,15,-1,-1,-1,17,19,21,23,25,-1,27,29,31,-1,33,35,37,39,-1,-1,41,-1,43,45,-1,47,49,51,53,55,57,59,61,63,-1,-1,-1,-1,-1,-1,-1,-1,-1,-1,-1,-1,-1,-1,-1,-1,-1,-1,-1,-1,-1,-1,-1,-1],"loss_changes":[2.8777306E0,1.000984E0,3.533833E0,9.1267115E-1,5.090623E-1,2.4884102E0,3.9383087E0,1.4633764E0,0E0,0E0,0E0,2.9935725E0,1.9661016E0,3.6553347E0,3.1550372E0,5.388518E-1,0E0,2.5941815E0,3.5317206E0,1.0302501E0,0E0,2.2566566E0,4.0822887E0,2.1795645E0,2.8856192E0,0E0,0E0,1.1037375E0,0E0,4.0723395E-1,1.2306255E0,0E0,6.250037E-1,2.2172606E0,4.5223308E-1,5.010182E0,3.2712288E0,1.8779256E0,2.4555674E0,2.0793514E0,2.429967E-1,0E0,0E0,0E0,0E0,0E0,0E0,0E0,0E0,0E0,0E0,0E0,0E0,0E0,0E0,0E0,0E0,0E0,0E0,0E0,0E0,0E0,0E0,0E0,0E0],"parents":[2147483647,0,0,1,1,2,2,3,3,4,4,5,5,6,6,7,7,11,11,12,12,13,13,14,14,15,15,17,17,18,18,19,19,21,21,22,22,23,23,24,24,27,27,29,29,30,30,32,32,33,33,34,34,35,35,36,36,37,37,38,38,39,39,40,40],"right_children":[2,4,6,8,10,12,14,16,-1,-1,-1,18,20,22,24,26,-1,28,30,32,-1,34,36,38,40,-1,-1,42,-1,44,46,-1,48,50,52,54,56,58,60,62,64,-1,-1,-1,-1,-1,-1,-1,-1,-1,-1,-1,-1,-1,-1,-1,-1,-1,-1,-1,-1,-1,-1,-1,-1],"split_conditions":[-1.2029795E-1,-8.412343E-2,-8.348853E-2,4.266244E-2,1.6664954E-1,-3.1804733E-2,4.5225035E-2,6.225476E-2,-2.0314352E-1,-3.4284756E-2,-2.8219637E-1,3.3907168E-2,8.418039E-2,-1.2413463E-1,-4.8142575E-2,3.1789175E-1,-1.6025388E-1,4.390808E-2,1.15463205E-1,-9.34727E-3,5.271541E-2,2.657632E-2,-2.7324988E-2,-2.7337471E-2,2.3425903E-2,2.0555611E-1,-2.6285471E-2,8.496587E-3,-3.058338E-1,6.9362363E-3,7.882589E-3,-3.1639326E-1,-2.2671607E-1,-8.7084375E-2,-4.1052572E-2,5.5997893E-2,6.1017692E-2,-6.1881483E-2,-3.4610447E-1,4.686342E-2,1.7229424E-1,-1.1812123E-1,1.6645235E-1,2.77547E-1,3.1204022E-2,-2.301344E-1,5.627852E-2,-1.6897134E-1,5.648452E-2,-1.7133659E-1,7.68784E-2,-3.014361E-1,-4.75643E-2,-1.9695838E-1,1.3295811E-1,2.1278097E-1,-6.2518716E-2,-2.3161682E-1,1.0026833E-1,-1.5625493E-1,1.7525129E-1,5.4090712E-2,-2.5674012E-1,-3.1053105E-1,-6.562652E-2],"split_indices":[28,162,109,11,37,137,34,33,0,0,0,99,67,135,61,160,0,108,128,101,0,91,3,162,18,0,0,63,0,23,6,0,166,151,152,92,10,154,164,139,51,0,0,0,0,0,0,0,0,0,0,0,0,0,0,0,0,0,0,0,0,0,0,0,0],"split_type":[0,0,0,0,0,0,0,0,0,0,0,0,0,0,0,0,0,0,0,0,0,0,0,0,0,0,0,0,0,0,0,0,0,0,0,0,0,0,0,0,0,0,0,0,0,0,0,0,0,0,0,0,0,0,0,0,0,0,0,0,0,0,0,0,0],"sum_hessian":[1.297815E2,1.1086443E1,1.1869505E2,5.699757E0,5.3866854E0,2.615396E1,9.254109E1,4.30235E0,1.3974072E0,1.2266244E0,4.160061E0,1.52642765E1,1.0889683E1,6.2485043E1,3.0056051E1,2.824418E0,1.477932E0,6.44916E0,8.815116E0,8.973207E0,1.9164743E0,1.7855865E1,4.4629177E1,1.4978808E1,1.5077243E1,1.7939501E0,1.0304681E0,3.0035238E0,3.4456365E0,4.945324E0,3.8697922E0,6.2599907E0,2.7132173E0,1.4467344E1,3.3885214E0,1.474826E1,2.9880919E1,4.8523197E0,1.0126489E1,8.224508E0,6.8527346E0,1.3256143E0,1.6779095E0,3.9430184E0,1.0023056E0,1.9815532E0,1.8882389E0,1.2943907E0,1.4188266E0,3.4352553E0,1.1032089E1,2.039936E0,1.3485855E0,6.5356293E0,8.21263E0,2.5797207E1,4.0837107E0,3.1318219E0,1.7204977E0,1.7233857E0,8.403103E0,6.613372E0,1.6111366E0,5.802422E0,1.0503125E0],"tree_param":{"num_deleted":"0","num_feature":"168","num_nodes":"65","size_leaf_vector":"1"}},{"base_weights":[-6.1794765E-2,-2.3701334E-2,-6.2732345E-1,7.777033E-2,-2.6877806E-1,-2.6242384E-1,6.6807896E-2,2.0674708E-1,-2.6454052E-1,2.2753578E-2,-6.579009E-1,1.0453758E-1,7.690912E-1,1.1558731E-1,-5.938648E-1,-6.036526E-1,2.3269406E-1,4.7486845E-2,-7.580421E-1,1.943276E-1,-6.053917E-1,-1.28286285E-2,8.79071E-1,-5.8393484E-1,4.3128636E-1,-7.4577016E-1,6.7536905E-2,-2.2631237E-2,-2.3078883E-1,-1.5961686E-1,3.8003162E-1,-4.0011114E-1,-9.7043157E-1,1.391127E-1,-2.119241E-2,-2.4813698E-1,4.890145E-2,6.0813602E-2,2.8749156E-1,-2.5518584E-1,1.8750288E-2,1.938773E-1,-9.357174E-2,-4.266119E-2,-2.6899E-1,-1.2883529E-1,1.526736E-1,1.5849404E-1,-1.0611383E-1,-2.3376141E-1,1.8073404E-2,-6.1853815E-2,-3.2368237E-1],"categories":[],"categories_nodes":[],"categories_segments":[],"categories_sizes":[],"default_left":[0,0,0,0,0,0,0,0,0,0,0,0,0,0,0,0,0,0,0,0,0,0,0,0,0,0,0,0,0,0,0,0,0,0,0,0,0,0,0,0,0,0,0,0,0,0,0,0,0,0,0,0,0],"id":14,"left_children":[1,3,5,7,9,-1,-1,11,13,15,17,19,21,23,25,27,29,-1,31,33,35,-1,37,39,41,43,45,-1,-1,-1,47,49,51,-1,-1,-1,-1,-1,-1,-1,-1,-1,-1,-1,-1,-1,-1,-1,-1,-1,-1,-1,-1],"loss_changes":[2.5872622E0,2.8609848E0,1.7896988E0,3.6547132E0,3.8339036E0,0E0,0E0,3.3559535E0,2.9170794E0,2.798519E0,1.3012309E0,3.41634E0,8.445687E-1,2.769239E0,1.2916293E0,4.102316E-1,1.9892701E0,0E0,6.034527E-1,3.3657732E0,1.166151E0,0E0,2.3479271E-1,7.375014E-1,1.5483358E0,7.9489326E-1,9.2586595E-1,0E0,0E0,0E0,1.6971924E0,1.1917394E0,3.983307E-1,0E0,0E0,0E0,0E0,0E0,0E0,0E0,0E0,0E0,0E0,0E0,0E0,0E0,0E0,0E0,0E0,0E0,0E0,0E0,0E0],"parents":[2147483647,0,0,1,1,2,2,3,3,4,4,7,7,8,8,9,9,10,10,11,11,12,12,13,13,14,14,15,15,16,16,18,18,19,19,20,20,22,22,23,23,24,24,25,25,26,26,30,30,31,31,32,32],"right_children":[2,4,6,8,10,-1,-1,12,14,16,18,20,22,24,26,28,30,-1,32,34,36,-1,38,40,42,44,46,-1,-1,-1,48,50,52,-1,-1,-1,-1,-1,-1,-1,-1,-1,-1,-1,-1,-1,-1,-1,-1,-1,-1,-1,-1],"split_conditions":[2.1016763E-1,9.75933E-2,6.0834814E-2,9.7593255E-2,1.3557991E-2,-2.6242384E-1,6.6807896E-2,1.5993074E-1,1.9332483E-2,-1.9064015E-2,-1.0616075E-1,6.3140385E-2,-1.03336744E-1,-2.1077022E-2,2.0940378E-1,1.7829452E-1,-1.3756053E-1,4.7486845E-2,-9.013045E-3,6.252958E-2,-1.39994025E-2,-1.28286285E-2,-6.4430565E-2,1.3833393E-1,1.05183996E-1,9.521194E-3,-1.6756862E-1,-2.2631237E-2,-2.3078883E-1,-1.5961686E-1,1.07370324E-1,-1.0407612E-1,-1.8251526E-1,1.391127E-1,-2.119241E-2,-2.4813698E-1,4.890145E-2,6.0813602E-2,2.8749156E-1,-2.5518584E-1,1.8750288E-2,1.938773E-1,-9.357174E-2,-4.266119E-2,-2.6899E-1,-1.2883529E-1,1.526736E-1,1.5849404E-1,-1.0611383E-1,-2.3376141E-1,1.8073404E-2,-6.1853815E-2,-3.2368237E-1],"split_indices":[26,8,132,129,85,0,0,149,96,76,127,111,11,139,151,146,108,0,91,41,154,0,166,71,142,132,153,0,0,0,34,41,41,0,0,0,0,0,0,0,0,0,0,0,0,0,0,0,0,0,0,0,0],"split_type":[0,0,0,0,0,0,0,0,0,0,0,0,0,0,0,0,0,0,0,0,0,0,0,0,0,0,0,0,0,0,0,0,0,0,0,0,0,0,0,0,0,0,0,0,0,0,0,0,0,0,0,0,0],"sum_hessian":[1.19788155E2,1.1320471E2,6.583443E0,8.05404E1,3.266431E1,5.076642E0,1.5068012E0,5.8786644E1,2.1753757E1,1.9212095E1,1.3452215E1,5.074866E1,8.037985E0,1.0399261E1,1.1354496E1,4.351885E0,1.486021E1,1.4066658E0,1.2045549E1,4.5695484E1,5.0531745E0,1.0318935E0,7.0060916E0,2.9696002E0,7.429661E0,9.130026E0,2.2244694E0,1.3863664E0,2.9655187E0,1.9787004E0,1.288151E1,5.5597663E0,6.4857826E0,2.2287148E1,2.3408337E1,3.862243E0,1.1909316E0,1.1078291E0,5.8982625E0,1.8786925E0,1.0909077E0,5.863927E0,1.565734E0,2.2141929E0,6.9158335E0,1.0590247E0,1.1654447E0,1.0948843E1,1.9326668E0,2.6691568E0,2.8906095E0,1.166938E0,5.318845E0],"tree_param":{"num_deleted":"0","num_feature":"168","num_nodes":"53","size_leaf_vector":"1"}},{"base_weights":[-5.8526892E-2,-2.9403177E-1,2.4937341E-2,-1.6472434E-1,-8.5409296E-1,1.8362191E-1,-2.5627527E-1,2.1320257E-2,-6.1386013E-1,-2.993595E-2,-3.0203655E-1,-2.0759758E-1,2.3919596E-1,-8.677205E-1,-1.11834474E-1,4.050132E-1,-1.99259E-1,-8.0111986E-1,9.6405605E-3,3.0739453E-1,-5.8011484E-1,-3.0668467E-1,-2.3969244E-2,-5.905921E-1,8.727303E-2,-1.2610312E-1,7.2231865E-1,5.118106E-1,-4.7904196E-1,-5.8147434E-2,-2.751108E-1,4.4110835E-1,-1.9915816E-1,-3.0984214E-2,-2.1192837E-1,-9.631755E-3,-7.575748E-1,2.8816998E-1,-3.0927026E-1,2.421001E-1,5.7265937E-2,2.2250018E-1,-2.0575712E-2,5.9694987E-2,-2.0132752E-1,1.8436214E-1,-2.170723E-2,6.604098E-3,-2.2606188E-1,-2.6980826E-1,-2.974337E-2,1.3266277E-1,-1.018E-1,6.8141274E-2,-2.116391E-1],"categories":[],"categories_nodes":[],"categories_segments":[],"categories_sizes":[],"default_left":[0,0,0,0,0,0,0,0,0,0,0,0,0,0,0,0,0,0,0,0,0,0,0,0,0,0,0,0,0,0,0,0,0,0,0,0,0,0,0,0,0,0,0,0,0,0,0,0,0,0,0,0,0,0,0],"id":15,"left_children":[1,3,5,7,9,11,13,15,17,-1,-1,-1,19,21,23,25,27,29,-1,31,33,-1,-1,35,37,-1,39,41,43,-1,-1,45,47,-1,-1,-1,49,51,53,-1,-1,-1,-1,-1,-1,-1,-1,-1,-1,-1,-1,-1,-1,-1,-1],"loss_changes":[2.234221E0,2.0118575E0,3.820857E0,2.134387E0,5.141692E-1,2.8246086E0,2.6340888E0,1.6817712E0,9.2930436E-1,0E0,0E0,0E0,3.090939E0,6.198535E-1,2.5454829E0,2.1984563E0,2.7682364E0,2.3261166E-1,0E0,3.39151E0,1.8915606E-1,0E0,0E0,7.043402E-1,1.6305684E0,0E0,9.769678E-2,5.931014E-1,1.3859003E0,0E0,0E0,3.5085301E0,1.3500217E0,0E0,0E0,0E0,4.6824026E-1,1.4414824E0,1.645501E0,0E0,0E0,0E0,0E0,0E0,0E0,0E0,0E0,0E0,0E0,0E0,0E0,0E0,0E0,0E0,0E0],"parents":[2147483647,0,0,1,1,2,2,3,3,4,4,5,5,6,6,7,7,8,8,12,12,13,13,14,14,15,15,16,16,17,17,19,19,20,20,23,23,24,24,26,26,27,27,28,28,31,31,32,32,36,36,37,37,38,38],"right_children":[2,4,6,8,10,12,14,16,18,-1,-1,-1,20,22,24,26,28,30,-1,32,34,-1,-1,36,38,-1,40,42,44,-1,-1,46,48,-1,-1,-1,50,52,54,-1,-1,-1,-1,-1,-1,-1,-1,-1,-1,-1,-1,-1,-1,-1,-1],"split_conditions":[-7.345365E-2,1.1333674E-1,7.345365E-2,2.9712303E-2,-7.996513E-2,-2.3445065E-1,-1.04872644E-1,1.7519746E-2,5.103354E-2,-2.993595E-2,-3.0203655E-1,-2.0759758E-1,1.230274E-1,4.0964015E-2,-2.9712303E-2,-9.921592E-2,-1.297645E-1,-3.0396491E-2,9.6405605E-3,6.349798E-2,-2.9912176E-2,-3.0668467E-1,-2.3969244E-2,-5.103354E-2,1.4216587E-1,-1.2610312E-1,7.9051875E-2,-1.3488049E-2,-5.1017283E-3,-5.8147434E-2,-2.751108E-1,5.922948E-2,4.887576E-2,-3.0984214E-2,-2.1192837E-1,-9.631755E-3,3.0396491E-2,1.1035364E-1,-1.3317887E-1,2.421001E-1,5.7265937E-2,2.2250018E-1,-2.0575712E-2,5.9694987E-2,-2.0132752E-1,1.8436214E-1,-2.170723E-2,6.604098E-3,-2.2606188E-1,-2.6980826E-1,-2.974337E-2,1.3266277E-1,-1.018E-1,6.8141274E-2,-2.116391E-1],"split_indices":[167,140,167,0,156,56,140,129,137,0,0,0,1,134,0,109,101,110,0,34,148,0,0,137,14,0,164,106,74,0,0,20,104,0,0,0,110,154,32,0,0,0,0,0,0,0,0,0,0,0,0,0,0,0,0],"split_type":[0,0,0,0,0,0,0,0,0,0,0,0,0,0,0,0,0,0,0,0,0,0,0,0,0,0,0,0,0,0,0,0,0,0,0,0,0,0,0,0,0,0,0,0,0,0,0,0,0,0,0,0,0,0,0],"sum_hessian":[1.1229172E2,2.8723078E1,8.3568634E1,2.4386759E1,4.336319E0,5.3644684E1,2.9923954E1,1.79174E1,6.469357E0,1.0083978E0,3.3279212E0,2.5181103E0,5.112657E1,4.7612467E0,2.5162708E1,6.2352242E0,1.1682177E1,4.8293138E0,1.6400434E0,4.7774673E1,3.3519E0,3.731555E0,1.0296917E0,6.8134484E0,1.8349258E1,1.6412829E0,4.5939417E0,3.0644786E0,8.617698E0,1.2023269E0,3.6269867E0,3.7899582E1,9.875092E0,1.082625E0,2.2692752E0,1.8426929E0,4.970756E0,1.2360481E1,5.988778E0,3.5152595E0,1.0786821E0,1.9960942E0,1.0683844E0,1.8941966E0,6.723501E0,2.8183323E1,9.71626E0,7.7453547E0,2.1297367E0,3.7889323E0,1.1818236E0,1.0161362E1,2.1991189E0,2.725463E0,3.2633152E0],"tree_param":{"num_deleted":"0","num_feature":"168","num_nodes":"55","size_leaf_vector":"1"}},{"base_weights":[-6.1075788E-2,-1.7938532E-2,-4.728123E-1,7.9257526E-2,-2.6014465E-1,2.9088339E-2,-6.120846E-1,1.9889703E-1,-2.9823074E-1,1.9446075E-2,-6.240622E-1,-7.6873404E-1,-1.528731E-1,-2.331084E-1,3.1017366E-1,-8.236505E-1,8.849624E-2,-4.7068357E-1,2.5401098E-1,-2.9596004E-1,-2.2494249E-1,-2.5832087E-1,-4.8752885E-2,-1.6694185E-1,9.680406E-2,-8.207023E-1,1.8360513E-1,-4.3548158E-1,3.7648684E-1,-1.6309675E-2,-2.8168127E-1,-5.7535475E-1,3.7785876E-1,-6.9613975E-1,3.9716706E-2,5.4046625E-1,-2.7897906E-1,4.1844922E-1,-5.650983E-1,-8.649775E-3,-3.074696E-1,1.24722525E-1,-1.4617582E-1,-2.2243741E-1,6.605338E-2,8.250914E-3,1.5878327E-1,-2.3470291E-1,-4.2418055E-3,-1.3800435E-1,1.7993683E-1,-6.5271445E-2,-2.3449837E-1,2.1977277E-1,-6.244055E-3,-1.7650042E-1,5.2978534E-2,1.7545561E-1,1.3863905E-2,2.7518919E-2,-2.3686396E-1],"categories":[],"categories_nodes":[],"categories_segments":[],"categories_sizes":[],"default_left":[0,0,0,0,0,0,0,0,0,0,0,0,0,0,0,0,0,0,0,0,0,0,0,0,0,0,0,0,0,0,0,0,0,0,0,0,0,0,0,0,0,0,0,0,0,0,0,0,0,0,0,0,0,0,0,0,0,0,0,0,0],"id":16,"left_children":[1,3,5,7,9,-1,11,13,15,17,19,21,23,25,27,29,31,33,35,-1,37,-1,-1,-1,-1,39,41,43,45,-1,-1,47,49,51,-1,53,55,57,59,-1,-1,-1,-1,-1,-1,-1,-1,-1,-1,-1,-1,-1,-1,-1,-1,-1,-1,-1,-1,-1,-1],"loss_changes":[1.8670533E0,2.2952585E0,8.508799E-1,3.2079976E0,2.8512878E0,0E0,4.6891332E-1,2.6460912E0,3.563508E0,2.0452542E0,1.5363712E0,1.8643117E-1,8.171289E-1,2.975659E0,2.2903113E0,6.03508E-1,2.2917013E0,8.7696433E-1,1.9795408E0,0E0,1.7859118E0,0E0,0E0,0E0,0E0,7.74066E-1,1.381029E0,9.608452E-1,2.1197567E0,0E0,0E0,4.1577673E-1,1.7865597E0,8.425713E-3,0E0,8.920145E-1,7.869639E-1,1.6022551E-1,8.179114E-1,0E0,0E0,0E0,0E0,0E0,0E0,0E0,0E0,0E0,0E0,0E0,0E0,0E0,0E0,0E0,0E0,0E0,0E0,0E0,0E0,0E0,0E0],"parents":[2147483647,0,0,1,1,2,2,3,3,4,4,6,6,7,7,8,8,9,9,10,10,11,11,12,12,13,13,14,14,15,15,16,16,17,17,18,18,20,20,25,25,26,26,27,27,28,28,31,31,32,32,33,33,35,35,36,36,37,37,38,38],"right_children":[2,4,6,8,10,-1,12,14,16,18,20,22,24,26,28,30,32,34,36,-1,38,-1,-1,-1,-1,40,42,44,46,-1,-1,48,50,52,-1,54,56,58,60,-1,-1,-1,-1,-1,-1,-1,-1,-1,-1,-1,-1,-1,-1,-1,-1,-1,-1,-1,-1,-1,-1],"split_conditions":[1.2029795E-1,1.0686244E-1,-4.0365407E-1,1.5012711E-1,-1.8831782E-2,2.9088339E-2,2.59575E-2,-1.8731076E-2,-3.518982E-2,-1.1154168E-1,-1.8250288E-2,-1.6238792E-1,-2.8988993E-1,-4.207838E-2,-4.9055752E-1,-9.346966E-2,-9.3078434E-2,2.6863826E-2,7.721443E-2,-2.9596004E-1,5.9521407E-2,-2.5832087E-1,-4.8752885E-2,-1.6694185E-1,9.680406E-2,-4.7828548E-2,8.909842E-2,-3.6117863E-2,-4.995908E-2,-1.6309675E-2,-2.8168127E-1,9.1197774E-2,-1.03336744E-1,1.9507727E-1,3.9716706E-2,7.3041886E-2,1.0861501E-1,1.9064015E-2,6.265266E-3,-8.649775E-3,-3.074696E-1,1.24722525E-1,-1.4617582E-1,-2.2243741E-1,6.605338E-2,8.250914E-3,1.5878327E-1,-2.3470291E-1,-4.2418055E-3,-1.3800435E-1,1.7993683E-1,-6.5271445E-2,-2.3449837E-1,2.1977277E-1,-6.244055E-3,-1.7650042E-1,5.2978534E-2,1.7545561E-1,1.3863905E-2,2.7518919E-2,-2.3686396E-1],"split_indices":[28,151,136,64,7,0,99,91,154,32,2,37,151,109,119,61,66,36,8,0,154,0,0,0,0,15,123,20,96,0,0,85,11,40,0,9,139,76,143,0,0,0,0,0,0,0,0,0,0,0,0,0,0,0,0,0,0,0,0,0,0],"split_type":[0,0,0,0,0,0,0,0,0,0,0,0,0,0,0,0,0,0,0,0,0,0,0,0,0,0,0,0,0,0,0,0,0,0,0,0,0,0,0,0,0,0,0,0,0,0,0,0,0,0,0,0,0,0,0,0,0,0,0,0,0],"sum_hessian":[1.0459739E2,9.5622665E1,8.9747305E0,6.8718895E1,2.6903767E1,1.8225096E0,7.152221E0,5.254015E1,1.6178745E1,1.5749952E1,1.1153814E1,4.830408E0,2.3218129E0,1.0537175E1,4.2002975E1,6.38037E0,9.798375E0,4.7720346E0,1.0977918E1,5.073975E0,6.0798397E0,3.8271108E0,1.0032976E0,1.1638771E0,1.1579356E0,3.9698946E0,6.567281E0,2.97571E0,3.9027264E1,1.0233495E0,5.357021E0,2.674417E0,7.1239586E0,3.3611581E0,1.4108765E0,7.13122E0,3.846698E0,2.023084E0,4.056756E0,1.0477887E0,2.9221058E0,5.1615243E0,1.4057564E0,1.9396676E0,1.0360422E0,1.2243143E1,2.678412E1,1.6659595E0,1.0084574E0,1.2671598E0,5.8567986E0,1.0468976E0,2.3142605E0,5.085436E0,2.0457838E0,2.1174436E0,1.7292546E0,1.0033609E0,1.0197232E0,1.1837949E0,2.872961E0],"tree_param":{"num_deleted":"0","num_feature":"168","num_nodes":"61","size_leaf_vector":"1"}},{"base_weights":[-6.5507725E-2,-4.5432216E-1,-2.1932958E-2,-7.011307E-1,1.3083916E-2,2.0657863E-2,-5.2344924E-1,-3.1649157E-2,-8.1008947E-1,-1.6133036E-1,4.3511212E-1,6.2066346E-2,-5.3498524E-1,9.508793E-2,-2.601542E-1,-2.6966602E-1,-6.984714E-2,2.7417101E-2,1.696672E-1,-2.124219E-1,1.4593847E-1,-2.151237E-1,4.3202043E-2,1.33395E-1,-1.1071196E-1,4.3672115E-1,-3.568052E-1,3.2074744E-1,-8.411159E-2,1.0525487E-2,1.8046446E-1,-1.4528021E-2,-2.1961108E-1,-4.6835985E-2,1.3843897E-1,-1.3348706E-1,6.978034E-2],"categories":[],"categories_nodes":[],"categories_segments":[],"categories_sizes":[],"default_left":[0,0,0,0,0,0,0,0,0,0,0,0,0,0,0,0,0,0,0,0,0,0,0,0,0,0,0,0,0,0,0,0,0,0,0,0,0],"id":17,"left_children":[1,3,5,7,9,11,13,-1,15,-1,17,19,21,23,-1,-1,-1,-1,-1,25,27,-1,-1,-1,-1,29,31,33,35,-1,-1,-1,-1,-1,-1,-1,-1],"loss_changes":[1.6506042E0,1.1427691E0,1.9158133E0,3.3308673E-1,1.2516313E0,1.9467237E0,1.5747924E0,0E0,6.250358E-2,0E0,8.4226966E-2,1.833487E0,8.292737E-1,7.1708864E-1,0E0,0E0,0E0,0E0,0E0,1.9114491E0,2.462501E0,0E0,0E0,0E0,0E0,2.3428857E-1,1.8013487E0,2.395203E0,3.1825333E0,0E0,0E0,0E0,0E0,0E0,0E0,0E0,0E0],"parents":[2147483647,0,0,1,1,2,2,3,3,4,4,5,5,6,6,8,8,10,10,11,11,12,12,13,13,19,19,20,20,25,25,26,26,27,27,28,28],"right_children":[2,4,6,8,10,12,14,-1,16,-1,18,20,22,24,-1,-1,-1,-1,-1,26,28,-1,-1,-1,-1,30,32,34,36,-1,-1,-1,-1,-1,-1,-1,-1],"split_conditions":[-1.07370324E-1,1.4325167E-2,3.2976153E-1,-6.7960106E-2,7.682561E-2,1.8603645E-1,-3.0613208E-1,-3.1649157E-2,9.034535E-2,-1.6133036E-1,9.7182915E-2,-7.723662E-2,-9.882625E-3,5.797498E-1,-2.601542E-1,-2.6966602E-1,-6.984714E-2,2.7417101E-2,1.696672E-1,-8.325584E-2,3.9746396E-2,-2.151237E-1,4.3202043E-2,1.33395E-1,-1.1071196E-1,-1.3874198E-1,-3.6965103E-3,-1.2809259E-1,-1.582869E-2,1.0525487E-2,1.8046446E-1,-1.4528021E-2,-2.1961108E-1,-4.6835985E-2,1.3843897E-1,-1.3348706E-1,6.978034E-2],"split_indices":[34,90,64,26,139,110,142,0,38,0,117,167,96,136,0,0,0,0,0,31,2,0,0,0,0,155,132,54,61,0,0,0,0,0,0,0,0],"split_type":[0,0,0,0,0,0,0,0,0,0,0,0,0,0,0,0,0,0,0,0,0,0,0,0,0,0,0,0,0,0,0,0,0,0,0,0,0],"sum_hessian":[9.701205E1,8.826608E0,8.818543E1,5.449182E0,3.3774252E0,8.216634E1,6.019094E0,1.1470352E0,4.3021464E0,1.3461363E0,2.0312889E0,7.729439E1,4.8719525E0,2.40847E0,3.610624E0,3.2457306E0,1.0564162E0,1.026658E0,1.0046308E0,1.7731577E1,5.9562813E1,3.7974496E0,1.0745027E0,1.3977262E0,1.0107436E0,2.8578837E0,1.4873693E1,3.3620914E1,2.5941898E1,1.1844873E0,1.6733962E0,8.783865E0,6.089828E0,7.6355534E0,2.5985361E1,1.1936815E1,1.4005082E1],"tree_param":{"num_deleted":"0","num_feature":"168","num_nodes":"37","size_leaf_vector":"1"}},{"base_weights":[-5.7103164E-2,-5.306132E-1,-2.5475131E-2,-1.733661E-2,-2.2172569E-1,-2.0464398E-1,6.386519E-2,4.0507887E-2,-5.466763E-1,1.3934062E-1,-4.784926E-1,-4.058568E-1,2.0267129E-1,-6.947045E-1,5.0848927E-2,4.1983715E-1,-5.2503962E-2,-6.9845295E-1,8.910893E-2,-2.3495674E-1,1.2877753E-1,-1.5805443E-1,4.8118073E-1,2.1027757E-2,-7.899106E-1,-3.5561597E-1,5.4987997E-1,-7.023311E-1,8.588231E-2,-8.919326E-1,1.7332066E-2,8.163969E-2,-2.3784012E-2,-1.7113298E-1,9.397958E-2,-7.27143E-2,1.9970606E-1,-8.789311E-2,-2.878272E-1,-2.1104017E-1,7.1775235E-2,-9.1763236E-2,2.0002545E-1,-2.6388758E-1,-5.5975774E-3,-1.3386615E-1,6.734026E-2,-8.4724635E-2,-2.9640386E-1],"categories":[],"categories_nodes":[],"categories_segments":[],"categories_sizes":[],"default_left":[0,0,0,0,0,0,0,0,0,0,0,0,0,0,0,0,0,0,0,0,0,0,0,0,0,0,0,0,0,0,0,0,0,0,0,0,0,0,0,0,0,0,0,0,0,0,0,0,0],"id":18,"left_children":[1,3,5,-1,-1,7,9,11,13,15,17,19,21,23,-1,25,27,29,-1,-1,31,33,35,-1,37,39,41,43,45,47,-1,-1,-1,-1,-1,-1,-1,-1,-1,-1,-1,-1,-1,-1,-1,-1,-1,-1,-1],"loss_changes":[1.3906072E0,5.3096676E-1,1.4366875E0,0E0,0E0,2.5233593E0,2.5271554E0,1.4073664E0,1.4453602E0,2.9030776E0,1.4985027E0,1.1521982E0,1.492132E0,8.253012E-1,0E0,2.3995967E0,2.9993804E0,9.5786595E-1,0E0,0E0,1.1150269E-1,1.5186455E0,1.2562337E0,0E0,5.1789665E-1,9.4348466E-1,2.115233E0,6.9231415E-1,2.1528072E0,1.33907795E-2,0E0,0E0,0E0,0E0,0E0,0E0,0E0,0E0,0E0,0E0,0E0,0E0,0E0,0E0,0E0,0E0,0E0,0E0,0E0],"parents":[2147483647,0,0,1,1,2,2,5,5,6,6,7,7,8,8,9,9,10,10,11,11,12,12,13,13,15,15,16,16,17,17,20,20,21,21,22,22,24,24,25,25,26,26,27,27,28,28,29,29],"right_children":[2,4,6,-1,-1,8,10,12,14,16,18,20,22,24,-1,26,28,30,-1,-1,32,34,36,-1,38,40,42,44,46,48,-1,-1,-1,-1,-1,-1,-1,-1,-1,-1,-1,-1,-1,-1,-1,-1,-1,-1,-1],"split_conditions":[-1.3381816E-1,-3.454262E-2,-1.3411303E-2,-1.733661E-2,-2.2172569E-1,3.728049E-2,2.7177056E-2,-1.6848788E-1,2.4906162E-2,7.000883E-3,1.0433809E-2,9.34727E-3,-1.3402167E-1,-4.4771373E-2,5.0848927E-2,-2.7177056E-2,-3.9317407E-2,7.413902E-2,8.910893E-2,-2.3495674E-1,-1.5547693E-2,2.8771734E-2,-6.4091586E-2,2.1027757E-2,4.55144E-2,7.17783E-2,-2.4044628E-1,4.2286236E-2,-1.133286E-1,2.8217398E-2,1.7332066E-2,8.163969E-2,-2.3784012E-2,-1.7113298E-1,9.397958E-2,-7.27143E-2,1.9970606E-1,-8.789311E-2,-2.878272E-1,-2.1104017E-1,7.1775235E-2,-9.1763236E-2,2.0002545E-1,-2.6388758E-1,-5.5975774E-3,-1.3386615E-1,6.734026E-2,-8.4724635E-2,-2.9640386E-1],"split_indices":[1,99,76,0,0,8,91,56,93,76,135,101,35,57,0,91,5,99,0,0,3,148,9,0,121,86,166,57,110,166,0,0,0,0,0,0,0,0,0,0,0,0,0,0,0,0,0,0,0],"split_type":[0,0,0,0,0,0,0,0,0,0,0,0,0,0,0,0,0,0,0,0,0,0,0,0,0,0,0,0,0,0,0,0,0,0,0,0,0,0,0,0,0,0,0,0,0,0,0,0,0],"sum_hessian":[9.275714E1,4.819951E0,8.793719E1,1.865689E0,2.954262E0,2.882968E1,5.910751E1,1.7306675E1,1.1523004E1,5.2539154E1,6.568354E0,4.2115E0,1.3095176E1,9.57408E0,1.9489233E0,2.0856453E1,3.1682701E1,5.19444E0,1.3739144E0,2.1964157E0,2.0150845E0,5.893895E0,7.2012806E0,1.0890944E0,8.484985E0,2.746184E0,1.811027E1,4.847045E0,2.6835655E1,3.9933054E0,1.2011343E0,1.0107182E0,1.0043663E0,3.0312996E0,2.8625956E0,1.399461E0,5.8018193E0,2.8521526E0,5.632833E0,1.6176771E0,1.1285071E0,1.9818137E0,1.6128454E1,3.6213238E0,1.2257214E0,5.086404E0,2.1749252E1,1.0801814E0,2.913124E0],"tree_param":{"num_deleted":"0","num_feature":"168","num_nodes":"49","size_leaf_vector":"1"}},{"base_weights":[-5.8670446E-2,-4.280383E-1,-1.8003594E-2,-4.480995E-2,-6.860955E-1,-3.4728804E-1,3.171694E-2,1.1063769E-1,-3.3550227E-1,-4.5498274E-2,-2.3392092E-1,-6.979744E-1,1.9705592E-1,8.675741E-2,-3.383715E-1,-1.994798E-1,5.1580306E-2,-2.7086725E-2,-8.5576695E-1,1.678491E-1,-9.1104425E-2,1.5925448E-1,-2.8013247E-1,1.2910917E-1,-5.264432E-1,-2.8159875E-1,-7.722144E-2,2.2600879E-1,-4.3174776E-1,6.2702194E-2,-7.1637106E-1,-6.91252E-1,2.7339576E-2,-1.0676979E-1,8.3833106E-2,3.9890617E-2,-2.1849036E-1,-1.1712193E-1,9.803658E-2,-3.966383E-2,-2.5176716E-1,-3.1400726E-3,-2.4475652E-1],"categories":[],"categories_nodes":[],"categories_segments":[],"categories_sizes":[],"default_left":[0,0,0,0,0,0,0,0,0,0,0,0,0,0,0,0,0,0,0,0,0,0,0,0,0,0,0,0,0,0,0,0,0,0,0,0,0,0,0,0,0,0,0],"id":19,"left_children":[1,3,5,7,9,11,13,-1,15,-1,-1,17,19,21,23,-1,-1,-1,25,-1,-1,27,29,-1,31,-1,-1,33,35,37,39,41,-1,-1,-1,-1,-1,-1,-1,-1,-1,-1,-1],"loss_changes":[1.3149424E0,8.285649E-1,1.3267505E0,6.7275685E-1,1.3810897E-1,2.166056E0,1.4702703E0,0E0,6.5013945E-1,0E0,0E0,5.635531E-1,1.0670785E0,1.7036983E0,1.5801407E0,0E0,0E0,0E0,1.5687466E-2,0E0,0E0,2.177532E0,1.6383237E0,0E0,8.74382E-1,0E0,0E0,1.5928152E0,1.0504352E0,9.514674E-1,2.3128486E-1,5.3512645E-1,0E0,0E0,0E0,0E0,0E0,0E0,0E0,0E0,0E0,0E0,0E0],"parents":[2147483647,0,0,1,1,2,2,3,3,4,4,5,5,6,6,8,8,11,11,12,12,13,13,14,14,18,18,21,21,22,22,24,24,27,27,28,28,29,29,30,30,31,31],"right_children":[2,4,6,8,10,12,14,-1,16,-1,-1,18,20,22,24,-1,-1,-1,26,-1,-1,28,30,-1,32,-1,-1,34,36,38,40,42,-1,-1,-1,-1,-1,-1,-1,-1,-1,-1,-1],"split_conditions":[-1.07370324E-1,-3.6936912E-3,-3.63503E-1,1.5115048E-4,6.6336745E-4,9.051305E-3,2.7177056E-2,1.1063769E-1,1.0672036E-1,-4.5498274E-2,-2.3392092E-1,-1.5509829E-1,-2.1627057E-2,4.019023E-2,-1.9311026E-1,-1.994798E-1,5.1580306E-2,-2.7086725E-2,7.475822E-3,1.678491E-1,-9.1104425E-2,1.4216587E-1,2.7789267E-2,1.2910917E-1,7.413902E-2,-2.8159875E-1,-7.722144E-2,-1.0032522E-1,-3.945435E-2,-5.2834123E-2,8.83629E-3,-7.769827E-2,2.7339576E-2,-1.0676979E-1,8.3833106E-2,3.9890617E-2,-2.1849036E-1,-1.1712193E-1,9.803658E-2,-3.966383E-2,-2.5176716E-1,-3.1400726E-3,-2.4475652E-1],"split_indices":[34,50,164,75,121,143,91,0,88,0,0,98,10,90,79,0,0,0,91,0,0,14,40,0,99,0,0,134,145,129,109,166,0,0,0,0,0,0,0,0,0,0,0],"split_type":[0,0,0,0,0,0,0,0,0,0,0,0,0,0,0,0,0,0,0,0,0,0,0,0,0,0,0,0,0,0,0,0,0,0,0,0,0,0,0,0,0,0,0],"sum_hessian":[8.705313E1,7.689118E0,7.936401E1,3.5664287E0,4.1226892E0,9.6264E0,6.973762E1,1.3611258E0,2.205303E0,1.0052199E0,3.1174693E0,5.6829834E0,3.9434166E0,6.1375305E1,8.362311E0,1.1489943E0,1.0563086E0,1.4955546E0,4.1874285E0,2.219537E0,1.7238797E0,5.1721184E1,9.6541195E0,1.3904809E0,6.9718304E0,3.178384E0,1.0090445E0,4.7027016E1,4.6941667E0,5.885244E0,3.768876E0,5.409048E0,1.5627822E0,3.4790955E0,4.354792E1,1.806235E0,2.8879316E0,1.9909408E0,3.8943028E0,1.0156595E0,2.7532165E0,1.0045515E0,4.4044967E0],"tree_param":{"num_deleted":"0","num_feature":"168","num_nodes":"43","size_leaf_vector":"1"}}]},"name":"gbtree"},"learner_model_param":{"base_score":"5E-1","boost_from_average":"1","num_class":"0","num_feature":"168","num_target":"1"},"objective":{"name":"binary:logistic","reg_loss_param":{"scale_pos_weight":"1"}}},"version":[3,0,0]}