{"learner":{"attributes":{"scikit_learn":"{\"_estimator_type\": \"classifier\"}"},"feature_names":[],"feature_types":[],"gradient_booster":{"model":{"gbtree_model_param":{"num_parallel_tree":"1","num_trees":"20"},"iteration_indptr":[0,1,2,3,4,5,6,7,8,9,10,11,12,13,14,15,16,17,18,19,20],"tree_info":[0,0,0,0,0,0,0,0,0,0,0,0,0,0,0,0,0,0,0,0],"trees":[{"base_weights":[-0E0,2.7172196E-1,-1.2198582E0,-1.2055749E0,7.0193285E-1,9.52381E-2,-1.7425742E0,-1.7087379E0,7.058824E-2,8.476821E-1,-9.62963E-1,-1.4E0,1.3333334E0,-1.8453039E0,-7.2E-1,-6.666667E-1,-1.8251367E0,1.2653061E0,-1.4E0,-6.2184876E-1,1.0644753E0,-1.75E0,1.6216215E-1,1.5E-1,-5E-1,-2.0000002E-1,1.6279069E0,-4.6153846E-1,-1.9069767E0,-4.0000004E-1,1.6363637E-1,1.6363637E-1,-1.2E0,-5.882353E-1,-1.9058824E0,1.5555556E0,-3E-1,-5E-1,1.5E-1,-1.373494E0,1E0,-7.755102E-1,1.1796247E0,-1.5E-1,-5.4545456E-1,-8.5714287E-1,1.2E0,6.666667E-2,5.368421E-1,1.5E-1,-3.3333337E-1,-1.5E-1,-1.9285715E0,-0E0,-4.5000002E-1,2.0000002E-1,-4.0000004E-1,-2.0000002E-1,-5.851852E-1,5.1219517E-1,-0E0,1.7142859E-1,-5.013699E-1,4.4000003E-1,-8.5714296E-2,-3.8461542E-1,2.5714287E-1,3.8773182E-1,-1.5918368E-1,-3.8823533E-1,1.5E-1,-0E0,4.5000002E-1,-1.5E-1,-5.853659E-1],"categories":[],"categories_nodes":[],"categories_segments":[],"categories_sizes":[],"default_left":[0,0,0,0,0,0,0,0,0,0,0,0,0,0,0,0,0,0,0,0,0,0,0,0,0,0,0,0,0,0,0,0,0,0,0,0,0,0,0,0,0,0,0,0,0,0,0,0,0,0,0,0,0,0,0,0,0,0,0,0,0,0,0,0,0,0,0,0,0,0,0,0,0,0,0],"id":0,"left_children":[1,3,5,7,9,11,13,15,17,19,21,23,25,27,29,31,33,35,37,39,41,43,45,-1,-1,-1,47,49,51,-1,-1,-1,53,55,57,59,-1,-1,-1,61,63,65,67,-1,-1,69,71,-1,-1,-1,-1,-1,73,-1,-1,-1,-1,-1,-1,-1,-1,-1,-1,-1,-1,-1,-1,-1,-1,-1,-1,-1,-1,-1,-1],"loss_changes":[1.2827588E2,2.0199756E2,4.8629204E1,4.619258E1,6.0449326E1,4.074286E1,3.9763489E0,5.0299835E0,3.9106365E1,7.282129E1,1.8215466E1,5.8999996E0,8.155039E0,2.9815216E0,5.578182E0,5.018182E0,3.4481354E0,9.609976E0,5.8999996E0,3.7640373E1,4.28127E1,1.1363602E-1,1.0813899E1,0E0,0E0,0E0,2.0437908E0,2.58547E0,3.421936E-1,0E0,0E0,0E0,1.8000002E0,4.8627453E0,1.0556335E0,2.6558266E0,0E0,0E0,0E0,1.2970882E1,6.4190483E0,1.1229722E1,3.6669067E1,0E0,0E0,3.7605042E0,1.8000002E0,0E0,0E0,0E0,0E0,0E0,3.8328552E-1,0E0,0E0,0E0,0E0,0E0,0E0,0E0,0E0,0E0,0E0,0E0,0E0,0E0,0E0,0E0,0E0,0E0,0E0,0E0,0E0,0E0,0E0],"parents":[2147483647,0,0,1,1,2,2,3,3,4,4,5,5,6,6,7,7,8,8,9,9,10,10,11,11,12,12,13,13,14,14,15,15,16,16,17,17,18,18,19,19,20,20,21,21,22,22,26,26,27,27,28,28,32,32,33,33,34,34,35,35,39,39,40,40,41,41,42,42,45,45,46,46,52,52],"right_children":[2,4,6,8,10,12,14,16,18,20,22,24,26,28,30,32,34,36,38,40,42,44,46,-1,-1,-1,48,50,52,-1,-1,-1,54,56,58,60,-1,-1,-1,62,64,66,68,-1,-1,70,72,-1,-1,-1,-1,-1,74,-1,-1,-1,-1,-1,-1,-1,-1,-1,-1,-1,-1,-1,-1,-1,-1,-1,-1,-1,-1,-1,-1],"split_conditions":[6.817774E-2,-6.653348E-2,-1.0393407E-2,9.815228E-3,4.8502214E-2,2.1572409E-3,1.8249428E-3,-1.8168017E-3,-1.03884125E-2,-4.0036686E-2,-5.465185E-2,-5.5627856E-2,-3.640287E-2,-3.6248438E-2,1.015835E-3,-1.748766E-3,-1.1873741E-2,8.248239E-2,5.0955497E-2,-7.5266766E-3,-1.03166975E-1,-5.6625716E-2,-2.9990977E-2,1.5E-1,-5E-1,-2.0000002E-1,-2.1387275E-2,9.535604E-2,-2.6369477E-2,-4.0000004E-1,1.6363637E-1,1.6363637E-1,1.9782646E-2,-2.7088942E-2,-1.0908553E-1,2.6606644E-2,-3E-1,-5E-1,1.5E-1,-2.1177508E-2,1.251015E-2,5.2388487E-3,1.03166975E-1,-1.5E-1,-5.4545456E-1,2.8125059E-2,-4.8910943E-3,6.666667E-2,5.368421E-1,1.5E-1,-3.3333337E-1,-1.5E-1,-1.6526453E-1,-0E0,-4.5000002E-1,2.0000002E-1,-4.0000004E-1,-2.0000002E-1,-5.851852E-1,5.1219517E-1,-0E0,1.7142859E-1,-5.013699E-1,4.4000003E-1,-8.5714296E-2,-3.8461542E-1,2.5714287E-1,3.8773182E-1,-1.5918368E-1,-3.8823533E-1,1.5E-1,-0E0,4.5000002E-1,-1.5E-1,-5.853659E-1],"split_indices":[95,95,210,210,121,25,117,117,25,121,316,30,264,176,112,112,125,74,30,58,47,38,49,0,0,0,112,31,51,0,0,0,34,55,55,4,0,0,0,188,33,105,47,0,0,51,0,0,0,0,0,0,76,0,0,0,0,0,0,0,0,0,0,0,0,0,0,0,0,0,0,0,0,0,0],"split_type":[0,0,0,0,0,0,0,0,0,0,0,0,0,0,0,0,0,0,0,0,0,0,0,0,0,0,0,0,0,0,0,0,0,0,0,0,0,0,0,0,0,0,0,0,0,0,0,0,0,0,0,0,0,0,0,0,0,0,0,0,0,0,0,0,0,0,0,0,0,0,0,0,0,0,0],"sum_hessian":[3.85E2,3.155E2,6.95E1,7.075E1,2.4475E2,2E1,4.95E1,5.05E1,2.025E1,2.255E2,1.925E1,9E0,1.1E1,4.425E1,5.25E0,5.75E0,4.475E1,1.125E1,9E0,2.875E1,1.9675E2,1.1E1,8.25E0,1E0,8E0,1.25E0,9.75E0,2.25E0,4.2E1,3.5E0,1.75E0,1.75E0,4E0,3.25E0,4.15E1,1.025E1,1E0,8E0,1E0,1.975E1,9E0,1.125E1,1.855E2,1E0,1E1,4.25E0,4E0,1.25E0,8.5E0,1E0,1.25E0,1E0,4.1E1,1E0,3E0,1.25E0,2E0,2E0,3.95E1,9.25E0,1E0,2.5E0,1.725E1,6.5E0,2.5E0,8.75E0,2.5E0,1.7425E2,1.125E1,3.25E0,1E0,1E0,3E0,1E0,4E1],"tree_param":{"num_deleted":"0","num_feature":"318","num_nodes":"75","size_leaf_vector":"1"}},{"base_weights":[-1.0273122E-2,-9.427174E-1,1.9919907E-1,-2.7825804E-2,-1.5063983E0,5.4648674E-1,-8.8958526E-1,3.653659E-1,-3.96803E-1,-1.5457342E0,-2.5762554E-2,7.2781205E-1,-5.189684E-1,-1.30676E0,1.21860564E-1,8.4664685E-1,-8.236466E-1,-1.2834388E-1,-4.7049412E-1,-5.268078E-1,9.345977E-1,4.448204E-1,-1.3264837E0,-1.4752743E0,-5.2278584E-1,-3.7383348E-1,5.3513944E-1,1.2187089E0,-3.5417968E-1,1.86761E-1,-3.7709692E-1,-2.9121914E-3,-1.4758434E0,1.0126768E0,-1.3510203E0,-3.882786E-1,8.049697E-1,-1.4780623E0,1.4278157E-1,-1.5207007E0,-6.17866E-1,-1.1951919E0,3.2900208E-1,-3.7026578E-1,9.4922113E-1,-2.0708375E-1,4.3766582E-1,1.5213269E-1,-3.2391137E-1,-5.3229046E-1,2.29708E-3,3.289881E-1,-2.412177E-1,-4.8257092E-1,-4.8540756E-2,-2.0099713E-1,3.3947957E-1,-4.165311E-2,-4.699845E-1,-4.622425E-1,-1.4175563E-1,-3.1893957E-1,6.210586E-2,-4.4894874E-1,-7.4468115E-3,3.836942E-1,-2.6392782E-1],"categories":[],"categories_nodes":[],"categories_segments":[],"categories_sizes":[],"default_left":[0,0,0,0,0,0,0,0,0,0,0,0,0,0,0,0,0,0,0,0,0,0,0,0,0,0,0,0,0,0,0,0,0,0,0,0,0,0,0,0,0,0,0,0,0,0,0,0,0,0,0,0,0,0,0,0,0,0,0,0,0,0,0,0,0,0,0],"id":1,"left_children":[1,3,5,7,9,11,13,15,-1,17,-1,19,21,23,25,27,29,-1,-1,31,33,35,37,39,41,-1,43,45,-1,-1,-1,47,49,51,53,-1,55,57,-1,59,61,63,-1,-1,65,-1,-1,-1,-1,-1,-1,-1,-1,-1,-1,-1,-1,-1,-1,-1,-1,-1,-1,-1,-1,-1,-1],"loss_changes":[7.20177E1,3.4837784E1,1.1434536E2,1.412954E1,2.2046814E0,4.460324E1,3.1046135E1,1.29112625E1,0E0,3.5502625E-1,0E0,5.13528E1,2.6955156E1,6.0866776E0,1.3268655E1,1.3270767E1,4.954359E0,0E0,0E0,1.4105583E1,3.1467499E1,1.1183796E1,5.8080063E0,7.031784E-1,1.2998096E1,0E0,1.422609E1,7.30966E0,0E0,0E0,0E0,1.1139709E1,4.481907E0,2.5842773E1,1.5773582E0,0E0,7.5178776E0,1.8552132E0,0E0,1.01737976E-1,1.6182023E0,2.805974E0,0E0,0E0,1.0174562E1,0E0,0E0,0E0,0E0,0E0,0E0,0E0,0E0,0E0,0E0,0E0,0E0,0E0,0E0,0E0,0E0,0E0,0E0,0E0,0E0,0E0,0E0],"parents":[2147483647,0,0,1,1,2,2,3,3,4,4,5,5,6,6,7,7,9,9,11,11,12,12,13,13,14,14,15,15,16,16,19,19,20,20,21,21,22,22,23,23,24,24,26,26,27,27,31,31,32,32,33,33,34,34,36,36,37,37,39,39,40,40,41,41,44,44],"right_children":[2,4,6,8,10,12,14,16,-1,18,-1,20,22,24,26,28,30,-1,-1,32,34,36,38,40,42,-1,44,46,-1,-1,-1,48,50,52,54,-1,56,58,-1,60,62,64,-1,-1,66,-1,-1,-1,-1,-1,-1,-1,-1,-1,-1,-1,-1,-1,-1,-1,-1,-1,-1,-1,-1,-1,-1],"split_conditions":[-8.892479E-2,6.679474E-3,6.1213247E-2,5.157266E-3,2.246607E-2,1.0213346E-1,-4.4787647E-3,-2.3726223E-3,-3.96803E-1,-5.578756E-2,-2.5762554E-2,-2.8408173E-2,2.200819E-2,-2.751093E-2,-2.0678736E-2,1.2897415E-1,2.8770093E-2,-1.2834388E-1,-4.7049412E-1,2.5970463E-2,1.0261188E-1,-1.2489646E-2,9.11937E-3,-1.2975868E-3,1.0200724E-2,-3.7383348E-1,-7.3377565E-2,-9.114043E-2,-3.5417968E-1,1.86761E-1,-3.7709692E-1,-2.8108575E-3,1.627078E-2,1.03166975E-1,1.0013445E-2,-3.882786E-1,-1.0137019E-1,-4.846132E-2,1.4278157E-1,5.578756E-2,-4.880937E-3,-4.546555E-2,3.2900208E-1,-3.7026578E-1,2.2705251E-2,-2.0708375E-1,4.3766582E-1,1.5213269E-1,-3.2391137E-1,-5.3229046E-1,2.29708E-3,3.289881E-1,-2.412177E-1,-4.8257092E-1,-4.8540756E-2,-2.0099713E-1,3.3947957E-1,-4.165311E-2,-4.699845E-1,-4.622425E-1,-1.4175563E-1,-3.1893957E-1,6.210586E-2,-4.4894874E-1,-7.4468115E-3,3.836942E-1,-2.6392782E-1],"split_indices":[119,276,95,295,51,253,276,16,0,83,0,223,121,113,293,233,305,0,0,163,244,122,0,156,241,0,35,239,0,0,0,290,158,47,66,0,233,315,0,83,7,125,0,0,292,0,0,0,0,0,0,0,0,0,0,0,0,0,0,0,0,0,0,0,0,0,0],"split_type":[0,0,0,0,0,0,0,0,0,0,0,0,0,0,0,0,0,0,0,0,0,0,0,0,0,0,0,0,0,0,0,0,0,0,0,0,0,0,0,0,0,0,0,0,0,0,0,0,0,0,0,0,0,0,0,0,0,0,0,0,0,0,0,0,0,0,0],"sum_hessian":[3.667529E2,6.663472E1,3.0011816E2,2.5803423E1,4.08313E1,2.2791772E2,7.220045E1,2.0343721E1,5.459701E0,3.9645332E1,1.185967E0,1.9504135E2,3.287637E1,5.091032E1,2.1290127E1,1.4686823E1,5.6568985E0,1.1798036E0,3.846553E1,2.7378935E1,1.6766241E2,1.5192687E1,1.7683683E1,4.1177475E1,9.732844E0,4.472097E0,1.6818031E1,1.2746317E1,1.9405069E0,1.203593E0,4.4533052E0,1.8287027E1,9.0919075E0,1.6266263E2,4.999795E0,2.1615162E0,1.3031171E1,1.6477898E1,1.2057859E0,3.8370945E1,2.8065307E0,7.062463E0,2.6703813E0,2.813863E0,1.4004168E1,1.2150167E0,1.15313E1,1.2768365E1,5.5186615E0,7.4059234E0,1.6859847E0,1.5585696E2,6.805669E0,3.8198917E0,1.1799035E0,2.1719675E0,1.0859203E1,1.181252E0,1.5296646E1,3.718758E1,1.1833643E0,1.6350968E0,1.1714339E0,5.3949223E0,1.6675407E0,1.2119732E1,1.8844359E0],"tree_param":{"num_deleted":"0","num_feature":"318","num_nodes":"67","size_leaf_vector":"1"}},{"base_weights":[-2.5677254E-2,1.4746454E-1,-8.1992877E-1,-7.5398105E-1,4.1962516E-1,-1.3162665E0,-5.6700774E-2,1.0400402E-1,-1.1289166E0,-9.010977E-1,5.378829E-1,-1.6773852E-2,-1.3532262E0,-3.519447E-1,2.7478462E-1,5.041897E-1,-3.5213646E-1,-1.1930443E0,8.2821675E-2,-1.1436304E0,5.2327114E-1,7.237447E-1,-5.799739E-1,-5.9389275E-1,-4.1975397E-1,-6.657478E-1,6.703481E-1,8.658662E-1,-3.1751066E-1,-1.2728329E0,-2.605965E-1,3.1860407E-2,-1.28366E0,2.893995E-1,-5.6304242E-2,8.590917E-2,9.540263E-1,8.389469E-2,-1.1706343E0,-2.7211004E-1,2.8931484E-2,-3.3678585E-1,1.885041E-1,-3.1108767E-1,9.909116E-1,-1.8841858E-1,3.3441913E-1,-3.9178693E-1,-1.4160287E-1,2.4317057E-1,-2.95952E-1,-4.0890756E-1,-8.220834E-2,-2.3378202E-1,1.4126965E-1,-3.8472787E-1,3.0529338E-1,1.696167E-1,-2.1206577E-1,-1.07508466E-1,-4.731911E-1,3.675009E-1,-2.2742476E-1],"categories":[],"categories_nodes":[],"categories_segments":[],"categories_sizes":[],"default_left":[0,0,0,0,0,0,0,0,0,0,0,0,0,0,0,0,0,0,0,0,0,0,0,0,0,0,0,0,0,0,0,0,0,0,0,0,0,0,0,0,0,0,0,0,0,0,0,0,0,0,0,0,0,0,0,0,0,0,0,0,0,0,0],"id":2,"left_children":[1,3,5,7,9,11,13,15,17,19,21,-1,23,-1,25,27,-1,29,-1,31,33,35,37,39,-1,41,43,45,-1,47,49,-1,51,-1,-1,53,55,57,59,-1,-1,-1,-1,-1,61,-1,-1,-1,-1,-1,-1,-1,-1,-1,-1,-1,-1,-1,-1,-1,-1,-1,-1],"loss_changes":[4.6315258E1,6.8186935E1,2.2758156E1,2.086987E1,3.3772552E1,1.6235428E0,9.49907E0,1.1091774E1,4.3817596E0,6.778345E0,4.119211E1,0E0,4.0412903E-1,0E0,7.8608975E0,1.0148566E1,0E0,2.8824654E0,0E0,2.866579E0,1.2131503E0,2.4698326E1,1.1286118E1,8.996948E-1,0E0,4.4905205E0,8.978462E0,5.836541E0,0E0,4.323883E-1,4.4252787E0,0E0,7.5671196E-1,0E0,0E0,1.5639527E1,1.8927376E1,5.869813E0,4.4442406E0,0E0,0E0,0E0,0E0,0E0,6.1457024E0,0E0,0E0,0E0,0E0,0E0,0E0,0E0,0E0,0E0,0E0,0E0,0E0,0E0,0E0,0E0,0E0,0E0,0E0],"parents":[2147483647,0,0,1,1,2,2,3,3,4,4,5,5,6,6,7,7,8,8,9,9,10,10,12,12,14,14,15,15,17,17,19,19,20,20,21,21,22,22,23,23,25,25,26,26,27,27,29,29,30,30,32,32,35,35,36,36,37,37,38,38,44,44],"right_children":[2,4,6,8,10,12,14,16,18,20,22,-1,24,-1,26,28,-1,30,-1,32,34,36,38,40,-1,42,44,46,-1,48,50,-1,52,-1,-1,54,56,58,60,-1,-1,-1,-1,-1,62,-1,-1,-1,-1,-1,-1,-1,-1,-1,-1,-1,-1,-1,-1,-1,-1,-1,-1],"split_conditions":[8.892479E-2,-6.1213247E-2,-6.679474E-3,4.4787647E-3,-4.7890104E-2,-3.0656744E-2,-1.1209054E-2,1.7833462E-2,5.0955497E-2,3.7216228E-2,2.8408173E-2,-1.6773852E-2,-4.2187624E-2,-3.519447E-1,1.9363819E-3,6.830703E-2,-3.5213646E-1,7.475664E-2,8.2821675E-2,-7.652938E-2,2.2816412E-2,-1.6525615E-2,1.6133526E-2,-5.2172672E-2,-4.1975397E-1,-2.8770093E-2,-1.4013606E-1,-2.2705251E-2,-3.1751066E-1,1.251807E-1,1.14090726E-1,3.1860407E-2,1.5671212E-2,2.893995E-1,-5.6304242E-2,-5.132868E-2,-1.0261188E-1,4.1551217E-2,-2.6076254E-2,-2.7211004E-1,2.8931484E-2,-3.3678585E-1,1.885041E-1,-3.1108767E-1,9.114043E-2,-1.8841858E-1,3.3441913E-1,-3.9178693E-1,-1.4160287E-1,2.4317057E-1,-2.95952E-1,-4.0890756E-1,-8.220834E-2,-2.3378202E-1,1.4126965E-1,-3.8472787E-1,3.0529338E-1,1.696167E-1,-2.1206577E-1,-1.07508466E-1,-4.731911E-1,3.675009E-1,-2.2742476E-1],"split_indices":[119,95,276,276,121,18,295,293,30,177,223,0,1,0,16,35,0,245,0,43,21,223,74,1,0,305,233,292,0,118,47,0,159,0,0,124,244,58,85,0,0,0,0,0,239,0,0,0,0,0,0,0,0,0,0,0,0,0,0,0,0,0,0],"split_type":[0,0,0,0,0,0,0,0,0,0,0,0,0,0,0,0,0,0,0,0,0,0,0,0,0,0,0,0,0,0,0,0,0,0,0,0,0,0,0,0,0,0,0,0,0,0,0,0,0,0,0,0,0,0,0,0,0,0,0,0,0,0,0],"sum_hessian":[3.349146E2,2.7564096E2,5.9273647E1,6.351091E1,2.1213005E2,3.547752E1,2.379613E1,1.953364E1,4.397727E1,1.6889164E1,1.9524089E2,1.0823209E0,3.43952E1,4.8665257E0,1.8929604E1,1.533604E1,4.1976004E0,4.2201904E1,1.7753636E0,1.4600226E1,2.288938E0,1.6770909E2,2.7531788E1,2.757318E0,3.1637878E1,5.402064E0,1.3527539E1,1.2815561E1,2.5204782E0,3.853911E1,3.6627958E0,1.4953244E0,1.3104901E1,1.1920136E0,1.0969245E0,4.485168E1,1.2285742E2,1.3366533E1,1.4165256E1,1.680924E0,1.0763938E0,4.09046E0,1.3116039E0,1.7851439E0,1.1742395E1,1.6124337E0,1.1203128E1,3.640266E1,2.13645E0,1.4324397E0,2.230356E0,1.1825316E1,1.279585E0,1.3496659E1,3.1355019E1,2.868242E0,1.19989174E2,8.4851055E0,4.8814273E0,5.353501E0,8.811755E0,1.0620506E1,1.1218892E0],"tree_param":{"num_deleted":"0","num_feature":"318","num_nodes":"63","size_leaf_vector":"1"}},{"base_weights":[-3.4416012E-2,-9.664882E-1,7.051964E-2,-1.1222351E0,-1.6911611E-1,-7.083503E-1,2.5324908E-1,-3.8664833E-1,-2.0628949E-1,4.7437316E-1,-2.7018952E-1,-1.034426E-1,-1.1744381E0,-9.653332E-1,3.6388442E-1,-2.4397394E-1,4.2901286E-1,-7.091059E-2,2.8559527E-1,1.7932779E-1,-1.0208406E0,-3.7477443E-1,-3.2845294E-1,-1.2204812E0,5.007641E-1,5.6496274E-1,-1.8502165E-1,2.4682012E-1,-5.5901106E-2,6.700922E-1,-5.037772E-1,-9.538742E-2,-3.3547187E-1,-2.5630888E-1,1.5109402E-1,-1.3295424E0,4.574545E-2,2.6731658E-1,-4.894572E-2,6.7512E-1,-9.301918E-1,7.872339E-2,-1.1464243E0,-2.2785862E-1,2.77402E-1,1.258879E-1,-2.8802025E-1,-9.251581E-2,-4.1538325E-1,2.3473354E-1,-1.7407022E-1,-3.8316154E-1,6.301599E-2,1.3702637E-1,-3.0147234E-1,-7.835146E-2,-4.2172107E-1],"categories":[],"categories_nodes":[],"categories_segments":[],"categories_sizes":[],"default_left":[0,0,0,0,0,0,0,0,0,0,0,0,0,0,0,0,0,0,0,0,0,0,0,0,0,0,0,0,0,0,0,0,0,0,0,0,0,0,0,0,0,0,0,0,0,0,0,0,0,0,0,0,0,0,0,0,0],"id":3,"left_children":[1,3,5,7,9,11,13,-1,15,17,-1,19,21,23,25,-1,27,-1,-1,29,31,-1,33,35,37,39,41,-1,-1,43,45,-1,-1,-1,-1,47,-1,-1,-1,49,51,53,55,-1,-1,-1,-1,-1,-1,-1,-1,-1,-1,-1,-1,-1,-1],"loss_changes":[2.9724464E1,3.629013E0,3.909897E1,3.6324768E0,3.3467674E0,1.4603718E1,3.0312252E1,0E0,2.3239987E0,1.5674577E0,0E0,6.3637905E0,1.4505005E0,7.632845E0,2.2671581E1,0E0,9.1824067E-1,0E0,0E0,6.7282653E0,3.8980484E-2,0E0,2.0693612E0,2.6403618E0,1.0501151E0,2.5315193E1,1.4181239E1,0E0,0E0,4.895911E0,4.001329E0,0E0,0E0,0E0,0E0,4.2686844E-1,0E0,0E0,0E0,1.9341114E1,4.5044622E0,1.8706282E1,2.393855E0,0E0,0E0,0E0,0E0,0E0,0E0,0E0,0E0,0E0,0E0,0E0,0E0,0E0,0E0],"parents":[2147483647,0,0,1,1,2,2,3,3,4,4,5,5,6,6,8,8,9,9,11,11,12,12,13,13,14,14,16,16,19,19,20,20,22,22,23,23,24,24,25,25,26,26,29,29,30,30,35,35,39,39,40,40,41,41,42,42],"right_children":[2,4,6,8,10,12,14,-1,16,18,-1,20,22,24,26,-1,28,-1,-1,30,32,-1,34,36,38,40,42,-1,-1,44,46,-1,-1,-1,-1,48,-1,-1,-1,50,52,54,56,-1,-1,-1,-1,-1,-1,-1,-1,-1,-1,-1,-1,-1,-1],"split_conditions":[-1.14090726E-1,8.8619314E-2,-8.892479E-2,2.0058664E-2,2.0565443E-2,8.037357E-3,-4.3046672E-2,-3.8664833E-1,-1.5651579E-1,-2.5715712E-2,-2.7018952E-1,5.157266E-3,1.499606E-3,2.0260794E-2,2.2251472E-2,-2.4397394E-1,-2.704294E-2,-7.091059E-2,2.8559527E-1,4.8024926E-2,-1.5271926E-2,-3.7477443E-1,-5.698113E-3,9.9144004E-2,8.507804E-3,8.4536165E-2,1.1073079E-2,2.4682012E-1,-5.5901106E-2,-1.984142E-2,-4.4844672E-2,-9.538742E-2,-3.3547187E-1,-2.5630888E-1,1.5109402E-1,-4.3641657E-2,4.574545E-2,2.6731658E-1,-4.894572E-2,4.7890104E-2,-3.7438455E-3,1.8730905E-2,-2.3973587E-3,-2.2785862E-1,2.77402E-1,1.258879E-1,-2.8802025E-1,-9.251581E-2,-4.1538325E-1,2.3473354E-1,-1.7407022E-1,-3.8316154E-1,6.301599E-2,1.3702637E-1,-3.0147234E-1,-7.835146E-2,-4.2172107E-1],"split_indices":[47,210,119,301,129,276,223,0,32,67,0,295,3,58,194,0,249,0,0,88,134,0,270,36,177,244,274,0,0,188,161,0,0,0,0,49,0,0,0,121,121,121,132,0,0,0,0,0,0,0,0,0,0,0,0,0,0],"split_type":[0,0,0,0,0,0,0,0,0,0,0,0,0,0,0,0,0,0,0,0,0,0,0,0,0,0,0,0,0,0,0,0,0,0,0,0,0,0,0,0,0,0,0,0,0,0,0,0,0,0,0,0,0,0,0,0,0],"sum_hessian":[3.0221066E2,2.9750132E1,2.7246054E2,2.4547895E1,5.2022376E0,5.1228134E1,2.2123239E2,2.0425749E1,4.122146E0,2.9546514E0,2.247586E0,2.282581E1,2.8402323E1,1.7770922E1,2.0346147E2,1.9648596E0,2.1572866E0,1.3905101E0,1.5641413E0,1.8062819E1,4.762992E0,2.5656828E1,2.7454946E0,1.5279354E1,2.491567E0,1.4889E2,5.4571472E1,1.1100334E0,1.0472531E0,1.0522306E1,7.540511E0,1.0986973E0,3.6642947E0,1.6658659E0,1.0796288E0,1.4184258E1,1.0950956E0,1.3536742E0,1.1378927E0,1.3918393E2,9.706076E0,4.3544003E1,1.1027468E1,1.2907199E0,9.231586E0,2.5203605E0,5.0201507E0,1.0634952E0,1.3120764E1,1.285688E2,1.06151285E1,7.349325E0,2.3567507E0,3.2711056E1,1.0832949E1,2.9531255E0,8.074342E0],"tree_param":{"num_deleted":"0","num_feature":"318","num_nodes":"57","size_leaf_vector":"1"}},{"base_weights":[-4.128304E-2,5.1627547E-2,-8.7879676E-1,2.1061309E-1,-6.560358E-1,-8.1176296E-2,-1.0305108E0,3.1762385E-1,-9.9916726E-1,-1.1028929E0,-3.8022935E-2,5.846947E-1,-2.7639437E-1,-2.037552E-1,-3.5647255E-1,-2.0259798E-1,5.0825673E-1,-1.2085112E0,1.35942E-1,-2.7277717E-1,-1.173984E0,-4.7437757E-1,5.072622E-1,-1.0059185E-1,3.1982362E-1,-2.252477E-1,1.6576003E-1,-1.1644045E0,6.205572E-2,-8.1544036E-1,6.082402E-1,3.7371125E-2,-1.3166919E0,1.22054175E-1,-2.1804702E-1,-3.587708E-1,-1.0050831E-1,-7.354032E-1,4.0802807E-1,7.553156E-1,-2.0894709E-1,-4.3440086E-1,-1.0129361E-1,-2.646945E-1,1.2774901E-1,-3.3461484E-1,1.4324395E-1,-1.5972644E-1,2.1128269E-1,-6.847163E-2,-4.2176953E-1,6.963403E-2,-2.783263E-1,-6.5022156E-2,2.4411558E-1,3.0132043E-1,-1.5028514E-1],"categories":[],"categories_nodes":[],"categories_segments":[],"categories_sizes":[],"default_left":[0,0,0,0,0,0,0,0,0,0,0,0,0,0,0,0,0,0,0,0,0,0,0,0,0,0,0,0,0,0,0,0,0,0,0,0,0,0,0,0,0,0,0,0,0,0,0,0,0,0,0,0,0,0,0,0,0],"id":4,"left_children":[1,3,5,7,9,11,13,15,17,19,21,23,-1,25,-1,27,29,31,-1,33,35,37,39,-1,-1,-1,-1,41,43,45,47,-1,49,-1,-1,-1,-1,51,53,55,-1,-1,-1,-1,-1,-1,-1,-1,-1,-1,-1,-1,-1,-1,-1,-1,-1],"loss_changes":[2.1437584E1,2.8086006E1,3.2451E0,2.6674553E1,1.260993E1,3.6052203E0,2.7606564E0,1.8728106E1,5.651268E0,1.2467308E0,5.061356E0,1.9826785E0,0E0,2.4406192E0,0E0,1.3074482E1,1.8723896E1,2.31921E0,0E0,1.3440349E0,4.3518066E-2,3.0113077E0,3.3595397E0,0E0,0E0,0E0,0E0,2.1073484E0,1.4463211E1,4.4492393E0,1.4465363E1,0E0,1.0296535E0,0E0,0E0,0E0,0E0,1.9723053E0,1.0204709E0,3.1153169E0,0E0,0E0,0E0,0E0,0E0,0E0,0E0,0E0,0E0,0E0,0E0,0E0,0E0,0E0,0E0,0E0,0E0],"parents":[2147483647,0,0,1,1,2,2,3,3,4,4,5,5,6,6,7,7,8,8,9,9,10,10,11,11,13,13,15,15,16,16,17,17,19,19,20,20,21,21,22,22,27,27,28,28,29,29,30,30,32,32,37,37,38,38,39,39],"right_children":[2,4,6,8,10,12,14,16,18,20,22,24,-1,26,-1,28,30,32,-1,34,36,38,40,-1,-1,-1,-1,42,44,46,48,-1,50,-1,-1,-1,-1,52,54,56,-1,-1,-1,-1,-1,-1,-1,-1,-1,-1,-1,-1,-1,-1,-1,-1,-1],"split_conditions":[1.14090726E-1,8.892479E-2,-9.123055E-2,4.3046672E-2,-6.679474E-3,2.3602988E-4,-2.042572E-2,-2.2251472E-2,2.2706494E-2,-1.6618795E-3,1.6300825E-2,-2.32531E-2,-2.7639437E-1,-3.4542806E-2,-3.5647255E-1,-1.1073079E-2,-8.4536165E-2,-1.220929E-1,1.35942E-1,1.1182609E-2,-8.531558E-3,-2.1524571E-3,4.3349203E-2,-1.0059185E-1,3.1982362E-1,-2.252477E-1,1.6576003E-1,8.7764644E-4,-1.6980095E-2,1.808379E-1,-4.7890104E-2,3.7371125E-2,5.9369733E-3,1.22054175E-1,-2.1804702E-1,-3.587708E-1,-1.0050831E-1,7.765377E-4,-1.0701871E-2,1.3026753E-2,-2.0894709E-1,-4.3440086E-1,-1.0129361E-1,-2.646945E-1,1.2774901E-1,-3.3461484E-1,1.4324395E-1,-1.5972644E-1,2.1128269E-1,-6.847163E-2,-4.2176953E-1,6.963403E-2,-2.783263E-1,-6.5022156E-2,2.4411558E-1,3.0132043E-1,-1.5028514E-1],"split_indices":[47,119,210,223,276,302,301,194,67,3,16,33,0,116,0,274,244,36,0,132,276,93,62,0,0,0,0,225,121,31,121,0,239,0,0,0,0,3,290,121,0,0,0,0,0,0,0,0,0,0,0,0,0,0,0,0,0],"split_type":[0,0,0,0,0,0,0,0,0,0,0,0,0,0,0,0,0,0,0,0,0,0,0,0,0,0,0,0,0,0,0,0,0,0,0,0,0,0,0,0,0,0,0,0,0,0,0,0,0,0,0,0,0,0,0,0,0],"sum_hessian":[2.7391507E2,2.4740703E2,2.650804E1,2.0259409E2,4.4812946E1,4.481593E0,2.2026445E1,1.8680753E2,1.5786552E1,2.5552507E1,1.926044E1,2.6697054E0,1.8118875E0,3.8961852E0,1.813026E1,5.0080124E1,1.367274E2,1.3944396E1,1.8421572E0,2.3972578E0,2.3155249E1,1.0771098E1,8.489342E0,1.0212978E0,1.6484077E0,2.2649963E0,1.6311889E0,1.0073004E1,4.000712E1,9.099668E0,1.2762774E2,1.03529E0,1.2909105E1,1.001759E0,1.3954988E0,2.2151068E1,1.0041821E0,8.440805E0,2.3302934E0,7.347747E0,1.1415946E0,6.940742E0,3.1322618E0,1.072895E1,2.9278172E1,7.4976215E0,1.6020459E0,9.558038E0,1.180697E2,1.247407E0,1.1661698E1,1.3655313E0,7.075274E0,1.1007986E0,1.2294948E0,6.299251E0,1.0484958E0],"tree_param":{"num_deleted":"0","num_feature":"318","num_nodes":"57","size_leaf_vector":"1"}},{"base_weights":[-4.5092583E-2,-6.7917365E-1,4.909483E-2,-2.1879566E-1,-1.2796175E0,1.7056482E-1,-6.239425E-1,2.2489727E-1,-7.4953556E-1,-5.261999E-1,-5.413625E-1,3.0938566E-1,-4.3904063E-1,-1.2142369E0,-1.8440871E-1,5.821091E-1,-8.375219E-1,1.5431316E-1,-1.0453298E0,-8.5953796E-1,1.11188315E-1,-4.1394192E-1,5.2406496E-1,-1.019064E0,2.6632375E-1,7.516439E-2,-1.3750846E0,-7.595423E-1,3.0628705E-1,9.223246E-1,-1.7430037E-1,-7.732605E-2,-2.9627368E-1,-7.5689465E-2,-3.3857912E-1,-3.3671585E-1,4.3241568E-2,3.097647E-1,-1.0316298E0,6.246256E-1,-3.1948045E-1,2.5231425E-2,-1.1003709E0,5.3541917E-1,-2.8423992E-1,-3.0851665E-1,-1.552644E0,-1.0730418E0,1.7700906E-1,-7.340074E-1,6.8671715E-1,4.8044007E-2,3.0788964E-1,-2.6457033E-1,1.6421089E-1,-3.366046E-1,3.184192E-2,-2.869103E-2,2.3343883E-1,1.6551122E-1,-3.947201E-1,-3.4729555E-1,-9.72222E-2,2.540105E-1,-1.8888709E-1,1.16365284E-1,-2.539837E-1,-4.8822364E-1,-1.3217103E-1,-5.3659372E-2,-3.5198778E-1,-2.865779E-1,-2.5226168E-2,2.8419262E-1,-1.9226722E-1],"categories":[],"categories_nodes":[],"categories_segments":[],"categories_sizes":[],"default_left":[0,0,0,0,0,0,0,0,0,0,0,0,0,0,0,0,0,0,0,0,0,0,0,0,0,0,0,0,0,0,0,0,0,0,0,0,0,0,0,0,0,0,0,0,0,0,0,0,0,0,0,0,0,0,0,0,0,0,0,0,0,0,0,0,0,0,0,0,0,0,0,0,0,0,0],"id":5,"left_children":[1,3,5,7,9,11,13,15,17,-1,19,21,23,25,27,29,31,-1,33,35,-1,37,39,41,43,-1,45,47,49,51,-1,-1,-1,-1,-1,-1,-1,53,55,57,59,-1,61,63,-1,65,67,69,-1,71,73,-1,-1,-1,-1,-1,-1,-1,-1,-1,-1,-1,-1,-1,-1,-1,-1,-1,-1,-1,-1,-1,-1,-1,-1],"loss_changes":[1.4940161E1,8.662166E0,1.7949442E1,4.764326E0,3.8947773E0,1.5848351E1,8.489277E0,4.813526E0,3.9462137E0,0E0,2.3084774E0,2.379176E1,1.45303955E1,3.679348E0,5.9979095E0,4.144993E0,3.0652523E-2,0E0,2.2489643E-1,1.5824864E0,0E0,1.6101736E1,1.0167904E1,1.8265839E0,5.9030232E0,0E0,1.9654522E0,4.7339168E0,5.148741E0,4.2548037E-1,0E0,0E0,0E0,0E0,0E0,0E0,0E0,5.3036613E0,2.101654E0,1.1720535E1,1.2163718E1,0E0,4.2864037E-1,5.66862E0,0E0,1.4863622E0,1.8247223E-1,5.2700996E-1,0E0,4.410751E-1,3.7589083E0,0E0,0E0,0E0,0E0,0E0,0E0,0E0,0E0,0E0,0E0,0E0,0E0,0E0,0E0,0E0,0E0,0E0,0E0,0E0,0E0,0E0,0E0,0E0,0E0],"parents":[2147483647,0,0,1,1,2,2,3,3,4,4,5,5,6,6,7,7,8,8,10,10,11,11,12,12,13,13,14,14,15,15,16,16,18,18,19,19,21,21,22,22,23,23,24,24,26,26,27,27,28,28,29,29,37,37,38,38,39,39,40,40,42,42,43,43,45,45,46,46,47,47,49,49,50,50],"right_children":[2,4,6,8,10,12,14,16,18,-1,20,22,24,26,28,30,32,-1,34,36,-1,38,40,42,44,-1,46,48,50,52,-1,-1,-1,-1,-1,-1,-1,54,56,58,60,-1,62,64,-1,66,68,70,-1,72,74,-1,-1,-1,-1,-1,-1,-1,-1,-1,-1,-1,-1,-1,-1,-1,-1,-1,-1,-1,-1,-1,-1,-1,-1],"split_conditions":[-4.0403325E-2,-1.8609632E-2,4.0403325E-2,5.4729763E-2,5.4384036E-6,7.308297E-2,1.8609632E-2,6.659985E-2,-3.659036E-2,-5.261999E-1,2.8514227E-2,-7.308297E-2,-2.979815E-3,-2.700952E-2,-5.4729763E-2,8.607363E-3,5.4394403E-3,1.5431316E-1,-2.2158634E-2,1.4254041E-2,1.11188315E-1,2.979815E-3,4.8385367E-2,-5.0693743E-2,3.478318E-2,7.516439E-2,-2.3979768E-2,3.1304017E-2,-6.622808E-2,-2.3291225E-2,-1.7430037E-1,-7.732605E-2,-2.9627368E-1,-7.5689465E-2,-3.3857912E-1,-3.3671585E-1,4.3241568E-2,-3.478318E-2,4.799059E-2,-4.0730286E-2,-5.4282867E-3,2.5231425E-2,-8.531558E-3,6.662318E-2,-2.8423992E-1,2.3525191E-2,6.1362583E-2,-6.4045624E-3,1.7700906E-1,3.9467882E-2,5.545581E-2,4.8044007E-2,3.0788964E-1,-2.6457033E-1,1.6421089E-1,-3.366046E-1,3.184192E-2,-2.869103E-2,2.3343883E-1,1.6551122E-1,-3.947201E-1,-3.4729555E-1,-9.72222E-2,2.540105E-1,-1.8888709E-1,1.16365284E-1,-2.539837E-1,-4.8822364E-1,-1.3217103E-1,-5.3659372E-2,-3.5198778E-1,-2.865779E-1,-2.5226168E-2,2.8419262E-1,-1.9226722E-1],"split_indices":[149,303,149,124,195,119,303,236,121,0,112,119,276,287,124,274,232,0,15,287,0,276,262,229,121,0,174,121,236,225,0,0,0,0,0,0,0,121,229,262,93,0,276,244,0,60,119,126,0,303,121,0,0,0,0,0,0,0,0,0,0,0,0,0,0,0,0,0,0,0,0,0,0,0,0],"split_type":[0,0,0,0,0,0,0,0,0,0,0,0,0,0,0,0,0,0,0,0,0,0,0,0,0,0,0,0,0,0,0,0,0,0,0,0,0,0,0,0,0,0,0,0,0,0,0,0,0,0,0,0,0,0,0,0,0,0,0,0,0,0,0,0,0,0,0,0,0,0,0,0,0,0,0],"sum_hessian":[2.4860152E2,3.1348532E1,2.1725298E2,1.851609E1,1.2832441E1,1.8467021E2,3.2582764E1,1.0398942E1,8.117148E0,6.9747753E0,5.8576655E0,1.5081804E2,3.3852173E1,1.315416E1,1.9428604E1,8.120664E0,2.2782786E0,1.3992518E0,6.7178965E0,4.3852515E0,1.472414E0,3.4304913E1,1.1651313E2,1.8332537E1,1.5519637E1,1.246356E0,1.1907804E1,8.692468E0,1.0736136E1,6.4430566E0,1.6776072E0,1.0272073E0,1.2510712E0,1.0212793E0,5.696617E0,3.3814301E0,1.0038215E0,1.6026346E1,1.8278566E1,1.0433471E2,1.2178423E1,1.2560526E0,1.7076483E1,1.3160795E1,2.3588417E0,2.0901546E0,9.817649E0,7.22016E0,1.4723077E0,2.6259644E0,8.110172E0,1.07837E0,5.3646865E0,2.213466E0,1.381288E1,1.6946194E1,1.332373E0,1.8395811E1,8.5938896E1,6.73508E0,5.443343E0,1.5445548E1,1.6309352E0,1.0601479E1,2.5593169E0,1.0327405E0,1.0574142E0,8.764953E0,1.0526963E0,1.0085605E0,6.2115993E0,1.6085541E0,1.0174102E0,7.0189095E0,1.0912633E0],"tree_param":{"num_deleted":"0","num_feature":"318","num_nodes":"75","size_leaf_vector":"1"}},{"base_weights":[-5.3021844E-2,-9.34733E-1,5.0236015E-3,8.548991E-3,-1.0468504E0,7.8587465E-2,-8.223153E-1,-1.1530359E0,-5.9995417E-2,1.5160552E-1,-6.9238013E-1,1.9888209E-1,-9.586243E-1,-9.254854E-2,-3.6322474E-1,-6.4992136E-1,2.3993878E-1,-9.840618E-1,2.1514705E-1,-1.1091654E0,-2.9710862E-1,-8.5965776E-1,2.3117562E-1,-8.1701666E-1,2.8922397E-1,-3.3867034E-1,-1.3899885E-1,-2.0993271E-1,6.83132E-1,-3.552002E-1,-4.6118513E-2,-2.480495E-1,2.1308377E-1,1.2753108E-1,-3.0005488E-1,-3.3318186E-1,8.732318E-2,1.3150454E-1,-4.290004E-2,-2.5036785E-1,1.8862146E-1,4.0943157E-2,2.509133E-1,-1.0122699E-1,1.9610065E-1],"categories":[],"categories_nodes":[],"categories_segments":[],"categories_sizes":[],"default_left":[0,0,0,0,0,0,0,0,0,0,0,0,0,0,0,0,0,0,0,0,0,0,0,0,0,0,0,0,0,0,0,0,0,0,0,0,0,0,0,0,0,0,0,0,0],"id":6,"left_children":[1,3,5,-1,7,9,11,13,-1,15,17,-1,19,-1,-1,21,23,25,27,29,31,33,-1,35,37,-1,39,-1,41,-1,-1,-1,43,-1,-1,-1,-1,-1,-1,-1,-1,-1,-1,-1,-1],"loss_changes":[1.1505353E1,1.5293503E0,1.2956948E1,0E0,8.902235E-1,1.1107387E1,4.1550064E0,1.5607929E-1,0E0,1.2854552E1,4.735223E0,0E0,1.2968559E0,0E0,0E0,6.0471377E0,8.689913E0,1.4479179E0,2.6090517E0,7.4307156E-1,1.3635706E0,3.3537474E0,0E0,2.7604132E0,1.0104169E1,0E0,2.1581743E0,0E0,2.0408702E-1,0E0,0E0,0E0,9.5622545E-1,0E0,0E0,0E0,0E0,0E0,0E0,0E0,0E0,0E0,0E0,0E0,0E0],"parents":[2147483647,0,0,1,1,2,2,4,4,5,5,6,6,7,7,9,9,10,10,12,12,15,15,16,16,17,17,18,18,19,19,20,20,21,21,23,23,24,24,26,26,28,28,32,32],"right_children":[2,4,6,-1,8,10,12,14,-1,16,18,-1,20,-1,-1,22,24,26,28,30,32,34,-1,36,38,-1,40,-1,42,-1,-1,-1,44,-1,-1,-1,-1,-1,-1,-1,-1,-1,-1,-1,-1],"split_conditions":[-9.144539E-2,-2.3714133E-2,8.4536165E-2,8.548991E-3,5.3581405E-2,2.0740509E-2,-3.8458228E-2,-2.1773192E-1,-5.9995417E-2,-2.0740509E-2,6.324346E-2,1.9888209E-1,-3.7438455E-3,-9.254854E-2,-3.6322474E-1,3.6751673E-2,-4.8934516E-2,4.735269E-4,-7.750562E-2,2.013203E-2,1.0019633E-2,-4.99987E-2,2.3117562E-1,-2.022117E-2,1.767015E-2,-3.3867034E-1,-2.411864E-2,-2.0993271E-1,4.2263456E-2,-3.552002E-1,-4.6118513E-2,-2.480495E-1,-6.9399485E-3,1.2753108E-1,-3.0005488E-1,-3.3318186E-1,8.732318E-2,1.3150454E-1,-4.290004E-2,-2.5036785E-1,1.8862146E-1,4.0943157E-2,2.509133E-1,-1.0122699E-1,1.9610065E-1],"split_indices":[244,59,244,0,298,129,23,20,0,129,294,0,121,0,0,57,223,156,74,59,102,161,0,239,223,0,43,0,59,0,0,0,109,0,0,0,0,0,0,0,0,0,0,0,0],"split_type":[0,0,0,0,0,0,0,0,0,0,0,0,0,0,0,0,0,0,0,0,0,0,0,0,0,0,0,0,0,0,0,0,0,0,0,0,0,0,0,0,0,0,0,0,0],"sum_hessian":[2.2371303E2,1.2885076E1,2.1082794E2,1.4211811E0,1.1463894E1,1.9444376E2,1.6384195E1,9.865376E0,1.5985172E0,1.7835516E2,1.6088593E1,1.0524914E0,1.5331705E1,1.0369271E0,8.82845E0,1.7073586E1,1.6128157E2,1.2111569E1,3.9770234E0,1.193822E1,3.3934848E0,1.5221039E1,1.8525479E0,6.491409E0,1.5479016E2,1.005271E1,2.05886E0,1.1782395E0,2.798784E0,1.0849224E1,1.0889955E0,1.3603903E0,2.0330946E0,1.3010435E0,1.3919994E1,5.1299586E0,1.3614501E0,1.1507367E2,3.9716496E1,1.0345404E0,1.0243196E0,1.0267516E0,1.7720323E0,1.0078909E0,1.0252036E0],"tree_param":{"num_deleted":"0","num_feature":"318","num_nodes":"45","size_leaf_vector":"1"}},{"base_weights":[-5.12266E-2,2.813874E-2,-6.3572073E-1,-4.97489E-1,1.2682685E-1,-1.0232854E0,8.712966E-2,4.1595995E-2,-3.387256E-1,1.8233933E-1,-7.9327315E-1,-1.0891281E0,-4.5841257E-3,7.4273485E-1,-4.1918585E-1,3.156016E-1,-5.950695E-1,3.0078623E-1,-2.9752073E-1,-1.2040995E0,2.3851712E-1,-1.159761E0,-1.1155497E-1,3.009291E-1,-1.4975668E-2,1.3625531E-1,-8.0339444E-1,5.9736437E-1,-3.8379645E-1,-3.0637828E-1,7.279478E-2,4.3588546E-1,-2.9006302E-1,-8.271834E-1,1.0944195E-1,-2.1545256E-2,-4.119359E-1,-3.6266845E-1,-1.063054E-1,2.0170469E-2,-3.371852E-1,2.906186E-1,-5.865034E-2,-2.2970891E-1,1.0295734E-1,1.6605769E-1,-1.3241348E-1,-4.9655706E-1,6.0665295E-2,9.2745885E-2,-3.5575512E-1,-1.5226275E-1,2.2749545E-1],"categories":[],"categories_nodes":[],"categories_segments":[],"categories_sizes":[],"default_left":[0,0,0,0,0,0,0,0,0,0,0,0,0,0,0,0,0,0,0,0,0,0,0,0,0,0,0,0,0,0,0,0,0,0,0,0,0,0,0,0,0,0,0,0,0,0,0,0,0,0,0,0,0],"id":7,"left_children":[1,3,5,7,9,11,13,15,-1,17,19,21,-1,23,25,27,29,31,33,35,-1,37,-1,-1,-1,-1,39,41,43,-1,-1,45,47,49,51,-1,-1,-1,-1,-1,-1,-1,-1,-1,-1,-1,-1,-1,-1,-1,-1,-1,-1],"loss_changes":[9.731815E0,9.676579E0,7.1144743E0,1.0090724E1,8.154957E0,1.0720081E0,3.5225718E0,3.132386E0,0E0,8.542295E0,6.902142E0,3.4809113E-1,0E0,9.945164E-1,2.4110212E0,2.683505E0,2.1847715E0,9.687134E0,6.545129E0,1.3627377E0,0E0,1.0712433E-1,0E0,0E0,0E0,0E0,1.3582301E0,2.918485E0,1.4247677E0,0E0,0E0,1.0345978E1,1.5717568E1,5.716996E0,7.517746E0,0E0,0E0,0E0,0E0,0E0,0E0,0E0,0E0,0E0,0E0,0E0,0E0,0E0,0E0,0E0,0E0,0E0,0E0],"parents":[2147483647,0,0,1,1,2,2,3,3,4,4,5,5,6,6,7,7,9,9,10,10,11,11,13,13,14,14,15,15,16,16,17,17,18,18,19,19,21,21,26,26,27,27,28,28,31,31,32,32,33,33,34,34],"right_children":[2,4,6,8,10,12,14,16,-1,18,20,22,-1,24,26,28,30,32,34,36,-1,38,-1,-1,-1,-1,40,42,44,-1,-1,46,48,50,52,-1,-1,-1,-1,-1,-1,-1,-1,-1,-1,-1,-1,-1,-1,-1,-1,-1,-1],"split_conditions":[4.6378363E-2,-4.0036686E-2,-3.3614144E-2,6.276014E-2,6.4992644E-2,-1.9896962E-2,3.0673807E-3,6.8811956E-3,-3.387256E-1,4.079417E-2,5.3202603E-2,6.4485416E-2,-4.5841257E-3,2.630781E-2,1.0365129E-3,2.0477578E-2,3.8064193E-2,1.7814945E-2,-4.3378384E-3,-2.200819E-2,2.3851712E-1,5.690582E-3,-1.1155497E-1,3.009291E-1,-1.4975668E-2,1.3625531E-1,-4.940512E-2,1.8588854E-2,6.2288176E-2,-3.0637828E-1,7.279478E-2,6.323047E-2,1.1164157E-2,-4.037969E-2,-1.1178082E-3,-2.1545256E-2,-4.119359E-1,-3.6266845E-1,-1.063054E-1,2.0170469E-2,-3.371852E-1,2.906186E-1,-5.865034E-2,-2.2970891E-1,1.0295734E-1,1.6605769E-1,-1.3241348E-1,-4.9655706E-1,6.0665295E-2,9.2745885E-2,-3.5575512E-1,-1.5226275E-1,2.2749545E-1],"split_indices":[121,121,316,316,292,175,156,0,0,14,131,85,0,83,301,4,7,96,54,121,0,134,0,0,0,0,258,271,41,0,0,251,152,213,3,0,0,0,0,0,0,0,0,0,0,0,0,0,0,0,0,0,0],"split_type":[0,0,0,0,0,0,0,0,0,0,0,0,0,0,0,0,0,0,0,0,0,0,0,0,0,0,0,0,0,0,0,0,0,0,0,0,0,0,0,0,0,0,0,0,0,0,0,0,0,0,0,0,0],"sum_hessian":[2.0840343E2,1.8432657E2,2.4076862E1,2.849846E1,1.5582811E2,1.5402831E1,8.674032E0,1.5879234E1,1.26192255E1,1.4771767E2,8.110435E0,1.4382865E1,1.0199665E0,3.5763004E0,5.0977316E0,1.1453998E1,4.425236E0,1.1877329E2,2.8944384E1,6.6359377E0,1.4744971E0,1.2531914E1,1.8509506E0,2.492199E0,1.0841016E0,1.5017878E0,3.5959437E0,8.268713E0,3.1852846E0,2.7878263E0,1.6374102E0,9.6883E1,2.1890284E1,1.2127648E1,1.6816734E1,1.0469848E0,5.588953E0,1.1339198E1,1.1927156E0,1.1803563E0,2.4155874E0,5.480116E0,2.788597E0,2.0533676E0,1.1319171E0,8.575269E1,1.1130312E1,5.1756296E0,1.6714655E1,2.9426699E0,9.1849785E0,8.731855E0,8.084879E0],"tree_param":{"num_deleted":"0","num_feature":"318","num_nodes":"53","size_leaf_vector":"1"}},{"base_weights":[-5.102655E-2,-5.7645893E-1,2.6897425E-2,-9.9890685E-1,9.402309E-3,1.444544E-1,-5.161146E-1,-3.3244902E-1,3.6018595E-2,6.512193E-1,-7.1252906E-1,-2.2637063E-1,2.8176546E-1,1.9723028E-1,-7.184387E-1,2.707822E-1,-3.8948167E-2,5.6036837E-2,-2.8464523E-1,-1.2926859E0,-3.942645E-3,5.447618E-1,-2.134035E-1,-2.0917374E-1,6.4285886E-1,2.6103696E-1,-9.8347896E-1,-7.761785E-2,-4.332457E-1,7.745855E-1,-2.5849384E-1,6.2373424E-1,-5.16093E-1,2.2366857E-3,-1.3403413E0,2.90997E-1,-4.674484E-2,-2.4502307E-1,7.11176E-1,2.199032E-2,-1.1102513E0,3.1362832E-1,-9.943846E-2,8.5891835E-2,-1.8461975E-1,2.3035154E-1,-1.7021535E-2,1.439153E-1,-4.4719583E-1,-1.6261655E-1,1.1904982E-1,-4.555127E-1,-1.2689136E-1,7.4815326E-3,2.6811397E-1,-1.2854208E-2,-3.5514814E-1],"categories":[],"categories_nodes":[],"categories_segments":[],"categories_sizes":[],"default_left":[0,0,0,0,0,0,0,0,0,0,0,0,0,0,0,0,0,0,0,0,0,0,0,0,0,0,0,0,0,0,0,0,0,0,0,0,0,0,0,0,0,0,0,0,0,0,0,0,0,0,0,0,0,0,0,0,0],"id":8,"left_children":[1,3,5,7,9,11,13,-1,-1,15,17,19,21,23,25,-1,-1,-1,-1,27,29,31,33,-1,35,37,39,-1,-1,41,43,45,47,49,51,-1,-1,-1,53,-1,55,-1,-1,-1,-1,-1,-1,-1,-1,-1,-1,-1,-1,-1,-1,-1,-1],"loss_changes":[7.927884E0,6.1975193E0,1.0878404E1,1.9102488E0,5.7767954E0,7.1876974E0,4.520343E0,0E0,0E0,1.4115543E0,1.425396E0,9.093367E0,1.3470732E1,3.4330208E0,6.4482737E0,0E0,0E0,0E0,0E0,6.627779E-1,6.6891665E0,5.956545E0,8.822096E0,0E0,1.5929291E0,3.428474E0,2.624239E0,0E0,0E0,2.8383594E0,5.1199255E0,6.226137E0,5.7684255E0,6.971958E0,3.1003475E-1,0E0,0E0,0E0,5.6330657E-1,0E0,1.2851238E0,0E0,0E0,0E0,0E0,0E0,0E0,0E0,0E0,0E0,0E0,0E0,0E0,0E0,0E0,0E0,0E0],"parents":[2147483647,0,0,1,1,2,2,3,3,4,4,5,5,6,6,9,9,10,10,11,11,12,12,13,13,14,14,19,19,20,20,21,21,22,22,24,24,25,25,26,26,29,29,30,30,31,31,32,32,33,33,34,34,38,38,40,40],"right_children":[2,4,6,8,10,12,14,-1,-1,16,18,20,22,24,26,-1,-1,-1,-1,28,30,32,34,-1,36,38,40,-1,-1,42,44,46,48,50,52,-1,-1,-1,54,-1,56,-1,-1,-1,-1,-1,-1,-1,-1,-1,-1,-1,-1,-1,-1,-1,-1],"split_conditions":[-7.4455254E-2,-3.39072E-3,3.4542806E-2,3.6248438E-2,-1.0587098E-2,-1.7327242E-2,-6.881339E-2,-3.3244902E-1,3.6018595E-2,8.1490025E-2,-1.3116449E-2,-3.5570253E-2,1.767015E-2,-1.2035504E-1,-6.1249048E-2,2.707822E-1,-3.8948167E-2,5.6036837E-2,-2.8464523E-1,-5.265119E-2,-3.9863653E-2,6.74102E-2,3.5570253E-2,-2.0917374E-1,1.28353E-1,-1.6197947E-1,3.5566635E-2,-7.761785E-2,-4.332457E-1,3.6429197E-2,-1.6559832E-2,1.7814945E-2,-1.0069523E-2,-7.450228E-2,2.593517E-3,2.90997E-1,-4.674484E-2,-2.4502307E-1,-8.208534E-2,2.199032E-2,-4.9428657E-2,3.1362832E-1,-9.943846E-2,8.5891835E-2,-1.8461975E-1,2.3035154E-1,-1.7021535E-2,1.439153E-1,-4.4719583E-1,-1.6261655E-1,1.1904982E-1,-4.555127E-1,-1.2689136E-1,7.4815326E-3,2.6811397E-1,-1.2854208E-2,-3.5514814E-1],"split_indices":[95,15,116,176,232,223,19,0,0,89,117,245,223,47,75,0,0,0,0,31,49,115,245,0,25,208,95,0,0,200,95,96,274,19,214,0,0,0,49,0,131,0,0,0,0,0,0,0,0,0,0,0,0,0,0,0,0],"split_type":[0,0,0,0,0,0,0,0,0,0,0,0,0,0,0,0,0,0,0,0,0,0,0,0,0,0,0,0,0,0,0,0,0,0,0,0,0,0,0,0,0,0,0,0,0,0,0,0,0,0,0,0,0,0,0,0,0],"sum_hessian":[1.9224983E2,2.4002954E1,1.6824687E2,1.3536876E1,1.0466079E1,1.3890848E2,2.9338398E1,1.2341504E1,1.1953715E0,5.5923095E0,4.8737698E0,3.736127E1,1.015472E2,6.4881067E0,2.285029E1,4.1128936E0,1.479416E0,1.0576847E0,3.816085E0,5.617826E0,3.1743446E1,6.625657E1,3.5290634E1,1.9697483E0,4.5183587E0,4.8695645E0,1.7980726E1,1.0638405E0,4.5539856E0,7.318216E0,2.442523E1,6.204951E1,4.2070622E0,3.0460093E1,4.83054E0,3.0532658E0,1.4650928E0,1.1946809E0,3.6748836E0,1.9711256E0,1.60096E1,5.922706E0,1.3955096E0,9.746083E0,1.4679148E1,5.1099697E1,1.0949813E1,2.3319855E0,1.8750767E0,1.2644718E1,1.7815374E1,3.4967797E0,1.3337607E0,1.0109396E0,2.6639438E0,1.1344118E0,1.4875189E1],"tree_param":{"num_deleted":"0","num_feature":"318","num_nodes":"57","size_leaf_vector":"1"}},{"base_weights":[-5.027971E-2,-4.2731512E-1,4.4423927E-2,3.135024E-2,-1.2353407E0,-3.2567996E-1,1.8362357E-1,-2.8540593E-1,7.522417E-1,-1.5772014E0,1.2336236E-1,1.3801052E-1,-9.669819E-1,-6.483113E-1,3.1339198E-1,8.18976E-2,-3.1289077E-1,-5.4536313E-2,2.8094998E-1,1.36432275E-2,-1.8115543E0,6.281856E-1,-5.6354487E-1,-1.2483426E0,-2.2811326E-1,1.1807993E-1,-7.8792226E-1,4.431415E-1,-4.57177E-1,-7.0310295E-1,3.992743E-1,-1.9418194E0,-1.1256696E-1,-1.5289582E-1,8.1513375E-1,-9.443041E-1,2.2827116E-1,-5.3653117E-2,-1.3371056E0,3.0526805E-1,-2.6815972E-1,-9.349855E-1,3.85576E-2,6.1353487E-1,-3.3324534E-1,-8.377129E-1,4.172222E-1,-2.4158515E-1,-6.0840417E-2,-1.907004E-1,2.027043E-1,-6.2386584E-1,-1.686471E-1,-5.7216495E-2,2.9615068E-1,6.828085E-3,-3.368278E-1,2.2872567E-1,-1.3065933E-1,-8.4405266E-2,-4.3276176E-1,1.9643919E-1,-9.117195E-2,4.6566155E-2,-3.1999964E-1,2.080668E-1,-6.642345E-2,-2.956773E-1,6.3056424E-2,-3.03627E-1,8.843871E-2,-1.6381669E-1,2.6979336E-1],"categories":[],"categories_nodes":[],"categories_segments":[],"categories_sizes":[],"default_left":[0,0,0,0,0,0,0,0,0,0,0,0,0,0,0,0,0,0,0,0,0,0,0,0,0,0,0,0,0,0,0,0,0,0,0,0,0,0,0,0,0,0,0,0,0,0,0,0,0,0,0,0,0,0,0,0,0,0,0,0,0,0,0,0,0,0,0,0,0,0,0,0,0],"id":9,"left_children":[1,3,5,7,9,11,13,15,17,19,-1,21,23,25,27,29,-1,-1,-1,-1,31,33,35,37,39,-1,41,43,45,47,49,51,-1,-1,53,55,57,-1,59,61,-1,63,-1,65,67,69,71,-1,-1,-1,-1,-1,-1,-1,-1,-1,-1,-1,-1,-1,-1,-1,-1,-1,-1,-1,-1,-1,-1,-1,-1,-1,-1],"loss_changes":[6.293298E0,1.3147476E1,7.3418202E0,5.589552E0,7.871725E0,1.1728603E1,1.1361284E1,4.8373957E0,1.4541965E0,4.2018986E0,0E0,8.43714E0,3.1428185E0,2.3861933E0,9.209174E0,3.3771858E0,0E0,0E0,0E0,0E0,1.0470581E0,3.4594426E0,3.289317E0,8.731842E-1,2.321996E0,0E0,1.8613243E0,1.047137E1,4.833029E0,3.8125277E-2,3.1437316E0,4.3889046E-1,0E0,0E0,2.3816671E0,1.2472796E0,1.7914292E0,0E0,7.812462E-1,1.0398804E0,0E0,1.7810755E0,0E0,4.429159E0,5.388386E0,2.2181134E0,2.6985006E0,0E0,0E0,0E0,0E0,0E0,0E0,0E0,0E0,0E0,0E0,0E0,0E0,0E0,0E0,0E0,0E0,0E0,0E0,0E0,0E0,0E0,0E0,0E0,0E0,0E0,0E0],"parents":[2147483647,0,0,1,1,2,2,3,3,4,4,5,5,6,6,7,7,8,8,9,9,11,11,12,12,13,13,14,14,15,15,20,20,21,21,22,22,23,23,24,24,26,26,27,27,28,28,29,29,30,30,31,31,34,34,35,35,36,36,38,38,39,39,41,41,43,43,44,44,45,45,46,46],"right_children":[2,4,6,8,10,12,14,16,18,20,-1,22,24,26,28,30,-1,-1,-1,-1,32,34,36,38,40,-1,42,44,46,48,50,52,-1,-1,54,56,58,-1,60,62,-1,64,-1,66,68,70,72,-1,-1,-1,-1,-1,-1,-1,-1,-1,-1,-1,-1,-1,-1,-1,-1,-1,-1,-1,-1,-1,-1,-1,-1,-1,-1],"split_conditions":[-1.7814945E-2,-3.283106E-2,-9.2103705E-3,-5.9698332E-2,2.0525001E-2,5.8521954E-3,-7.0463315E-2,-5.2333858E-2,-3.2118667E-2,-1.3396714E-2,1.2336236E-1,9.343932E-3,1.344857E-2,-1.1797614E-2,4.196683E-2,-4.8476487E-2,-3.1289077E-1,-5.4536313E-2,2.8094998E-1,1.36432275E-2,-1.20687345E-2,3.9450736E-3,2.0433903E-2,-5.4310545E-2,2.1926328E-3,1.1807993E-1,1.9825464E-2,1.6506478E-2,-1.9896962E-2,7.519708E-3,-4.8922177E-2,3.4723196E-2,-1.1256696E-1,-1.5289582E-1,-6.5236464E-2,-6.0286988E-3,-2.17575E-3,-5.3653117E-2,-2.251702E-2,-6.360903E-4,-2.6815972E-1,-2.006917E-2,3.85576E-2,3.430336E-2,-5.8649917E-4,2.0096177E-2,-5.8899433E-3,-2.4158515E-1,-6.0840417E-2,-1.907004E-1,2.027043E-1,-6.2386584E-1,-1.686471E-1,-5.7216495E-2,2.9615068E-1,6.828085E-3,-3.368278E-1,2.2872567E-1,-1.3065933E-1,-8.4405266E-2,-4.3276176E-1,1.9643919E-1,-9.117195E-2,4.6566155E-2,-3.1999964E-1,2.080668E-1,-6.642345E-2,-2.956773E-1,6.3056424E-2,-3.03627E-1,8.843871E-2,-1.6381669E-1,2.6979336E-1],"split_indices":[96,41,110,119,302,42,38,253,181,81,0,116,25,42,121,267,0,0,0,0,280,278,31,141,3,0,66,129,175,177,121,229,0,0,64,0,306,0,295,310,0,114,0,261,120,188,96,0,0,0,0,0,0,0,0,0,0,0,0,0,0,0,0,0,0,0,0,0,0,0,0,0,0],"split_type":[0,0,0,0,0,0,0,0,0,0,0,0,0,0,0,0,0,0,0,0,0,0,0,0,0,0,0,0,0,0,0,0,0,0,0,0,0,0,0,0,0,0,0,0,0,0,0,0,0,0,0,0,0,0,0,0,0,0,0,0,0,0,0,0,0,0,0,0,0,0,0,0,0],"sum_hessian":[1.747185E2,3.4370415E1,1.403481E2,2.2538132E1,1.1832281E1,3.799291E1,1.0235519E2,1.6077744E1,6.4603887E0,9.832871E0,1.99941E0,2.250533E1,1.5487581E1,1.3272208E1,8.908298E1,1.142853E1,4.649214E0,1.0666757E0,5.393713E0,1.3425926E0,8.490279E0,1.3310144E1,9.195185E0,1.0717015E1,4.7705655E0,1.3533026E0,1.1918906E1,7.660845E1,1.2474524E1,2.9403937E0,8.488136E0,7.4616313E0,1.0286475E0,1.6346803E0,1.1675464E1,6.079274E0,3.1159108E0,1.0523367E0,9.664679E0,2.9492123E0,1.8213533E0,1.0253318E1,1.665588E0,6.2993126E1,1.3615327E1,8.721088E0,3.7534351E0,1.9354943E0,1.0048993E0,1.5151694E0,6.972967E0,6.3230977E0,1.1385332E0,1.6893791E0,9.986085E0,1.082979E0,4.9962955E0,1.6442522E0,1.4716585E0,1.210626E0,8.454053E0,1.8263851E0,1.122827E0,1.0857111E0,9.167606E0,5.763841E1,5.354716E0,5.8178525E0,7.797474E0,7.64958E0,1.0715082E0,1.2076678E0,2.5457673E0],"tree_param":{"num_deleted":"0","num_feature":"318","num_nodes":"73","size_leaf_vector":"1"}},{"base_weights":[-5.4859005E-2,-6.25807E-1,-3.1143355E-3,-7.6866513E-1,8.31061E-2,1.05606854E-1,-3.546409E-1,-2.960744E-1,4.6157073E-2,1.2699775E-1,-8.875003E-2,-4.380419E-1,2.1225882E-1,-8.346907E-1,9.141675E-2,-1.3789992E-1,1.4739399E-1,-1.0620708E0,1.9915594E-1,3.5010856E-1,-2.7136448E-1,-1.3247726E0,-2.786041E-1,3.785558E-1,-6.9808E-1,9.539951E-2,-1.2701843E0,4.4796678E-1,-2.023342E-1,-4.15547E-1,4.5127192E-1,4.9863017E-1,-6.3657117E-1,-4.592816E-1,-1.093553E-1,-6.238006E-1,4.5712972E-1,6.8098265E-1,-1.9477262E-1,2.8669022E-2,-2.7988002E-1,1.1308986E-2,-4.436547E-1,1.9337161E-1,-1.513489E-1,9.334918E-2,-2.6674604E-1,-1.0145319E-1,1.6504113E-1,2.6159254E-1,-1.5453278E-1,-2.9346287E-1,7.9955734E-2,-2.7144638E-1,3.541195E-2,-8.348643E-3,2.0543426E-1,2.5947392E-1,-4.84151E-2,-2.0051439E-1,2.122926E-1],"categories":[],"categories_nodes":[],"categories_segments":[],"categories_sizes":[],"default_left":[0,0,0,0,0,0,0,0,0,0,0,0,0,0,0,0,0,0,0,0,0,0,0,0,0,0,0,0,0,0,0,0,0,0,0,0,0,0,0,0,0,0,0,0,0,0,0,0,0,0,0,0,0,0,0,0,0,0,0,0,0],"id":10,"left_children":[1,3,5,7,9,11,13,-1,15,-1,-1,17,19,21,23,-1,-1,25,27,29,31,33,35,37,39,-1,41,43,-1,45,47,49,51,-1,-1,53,55,57,59,-1,-1,-1,-1,-1,-1,-1,-1,-1,-1,-1,-1,-1,-1,-1,-1,-1,-1,-1,-1,-1,-1],"loss_changes":[4.677382E0,1.396316E0,5.626166E0,2.0102124E0,5.260631E-1,6.613452E0,7.522158E0,0E0,9.6648943E-1,0E0,0E0,7.6750455E0,6.4076295E0,4.2221546E0,4.554641E0,0E0,0E0,3.1728935E0,2.5038152E0,5.9287453E0,6.3820133E0,1.1620407E0,2.6111138E0,2.6514084E0,1.095494E0,0E0,2.3967056E0,1.9140117E0,0E0,3.433146E0,5.3334494E0,3.287294E0,4.90947E0,0E0,0E0,1.4944985E0,4.0566093E-1,1.6475067E0,2.9493296E0,0E0,0E0,0E0,0E0,0E0,0E0,0E0,0E0,0E0,0E0,0E0,0E0,0E0,0E0,0E0,0E0,0E0,0E0,0E0,0E0,0E0,0E0],"parents":[2147483647,0,0,1,1,2,2,3,3,4,4,5,5,6,6,8,8,11,11,12,12,13,13,14,14,17,17,18,18,19,19,20,20,21,21,22,22,23,23,24,24,26,26,27,27,29,29,30,30,31,31,32,32,35,35,36,36,37,37,38,38],"right_children":[2,4,6,8,10,12,14,-1,16,-1,-1,18,20,22,24,-1,-1,26,28,30,32,34,36,38,40,-1,42,44,-1,46,48,50,52,-1,-1,54,56,58,60,-1,-1,-1,-1,-1,-1,-1,-1,-1,-1,-1,-1,-1,-1,-1,-1,-1,-1,-1,-1,-1,-1],"split_conditions":[-1.14090726E-1,5.988148E-2,3.39722E-2,2.0058664E-2,3.9733496E-2,-1.7814945E-2,1.8609632E-2,-2.960744E-1,-1.5651579E-1,1.2699775E-1,-8.875003E-2,5.7937955E-3,1.8028282E-2,7.6343855E-3,1.3725394E-1,-1.3789992E-1,1.4739399E-1,-1.4658559E-2,2.1453943E-2,-5.836812E-2,-6.061644E-3,-1.7156392E-2,-8.7121845E-4,1.05994895E-1,3.0289723E-2,9.539951E-2,-2.1160098E-3,-2.8710611E-2,-2.023342E-1,-2.9642263E-3,-1.7426528E-2,1.732654E-2,6.466133E-3,-4.592816E-1,-1.093553E-1,-1.3072517E-3,-4.2789463E-2,6.3298E-2,2.089546E-1,2.8669022E-2,-2.7988002E-1,1.1308986E-2,-4.436547E-1,1.9337161E-1,-1.513489E-1,9.334918E-2,-2.6674604E-1,-1.0145319E-1,1.6504113E-1,2.6159254E-1,-1.5453278E-1,-2.9346287E-1,7.9955734E-2,-2.7144638E-1,3.541195E-2,-8.348643E-3,2.0543426E-1,2.5947392E-1,-4.84151E-2,-2.0051439E-1,2.122926E-1],"split_indices":[47,177,35,301,232,96,303,0,32,0,0,302,274,226,79,0,0,246,41,119,19,56,231,113,175,0,137,120,0,120,54,242,165,0,0,0,38,115,151,0,0,0,0,0,0,0,0,0,0,0,0,0,0,0,0,0,0,0,0,0,0],"split_type":[0,0,0,0,0,0,0,0,0,0,0,0,0,0,0,0,0,0,0,0,0,0,0,0,0,0,0,0,0,0,0,0,0,0,0,0,0,0,0,0,0,0,0,0,0,0,0,0,0,0,0,0,0,0,0,0,0,0,0,0,0],"sum_hessian":[1.5738776E2,1.2156743E1,1.45231E2,1.0047677E1,2.1090658E0,1.114584E2,3.377261E1,7.7583947E0,2.2892826E0,1.0495896E0,1.0594763E0,1.7770035E1,9.368836E1,1.5846864E1,1.7925747E1,1.0563613E0,1.2329214E0,8.640916E0,9.129119E0,7.312206E1,2.0566303E1,7.6885724E0,8.158291E0,1.3526635E1,4.3991117E0,1.0631052E0,7.577811E0,7.484639E0,1.6444798E0,8.171129E0,6.495093E1,6.4988723E0,1.4067431E1,5.840349E0,1.8482232E0,5.656483E0,2.5018082E0,8.73252E0,4.7941155E0,1.1399513E0,3.25916E0,1.1553823E0,6.4224286E0,6.471968E0,1.0126711E0,3.3593965E0,4.811733E0,6.95933E0,5.79916E1,4.8518515E0,1.6470209E0,1.014602E1,3.9214115E0,3.943084E0,1.713399E0,1.0796398E0,1.4221684E0,7.14553E0,1.5869893E0,3.3141248E0,1.4799905E0],"tree_param":{"num_deleted":"0","num_feature":"318","num_nodes":"61","size_leaf_vector":"1"}},{"base_weights":[-5.537764E-2,5.8192876E-3,-4.992647E-1,1.2751682E-1,-3.1096533E-1,1.8680333E-1,-8.4738E-1,2.3455906E-1,-4.8523378E-1,1.411937E-2,-8.4678674E-1,-1.895601E-1,6.6398734E-1,-3.6612228E-3,-9.6371055E-1,-2.3595831E-1,3.7050682E-1,-1.054403E0,2.77515E-1,-7.680785E-1,3.1111524E-1,1.2140337E-1,-1.0909826E0,2.3623739E-1,3.589951E-2,-3.1729352E-1,-4.598718E-2,1.8128437E-1,-9.808069E-1,4.8287377E-1,-3.6661896E-1,7.650379E-2,-1.3743944E0,6.674159E-1,-1.6537023E-1,-5.8148056E-3,-3.144566E-1,-6.872899E-1,6.2131125E-1,-1.2156208E0,-1.8139812E-3,-7.654855E-2,2.1088742E-1,1.0874227E-1,-4.3075767E-1,1.6882667E-1,-2.0079003E-1,5.288442E-2,-3.3891994E-1,-4.794088E-1,-6.382461E-2,2.4668565E-1,8.007093E-3,7.457696E-2,-3.1194836E-1,2.3407085E-1,-1.0982921E-1,-3.890069E-1,-7.0502885E-2],"categories":[],"categories_nodes":[],"categories_segments":[],"categories_sizes":[],"default_left":[0,0,0,0,0,0,0,0,0,0,0,0,0,0,0,0,0,0,0,0,0,0,0,0,0,0,0,0,0,0,0,0,0,0,0,0,0,0,0,0,0,0,0,0,0,0,0,0,0,0,0,0,0,0,0,0,0,0,0],"id":11,"left_children":[1,3,5,7,9,11,13,15,17,19,21,-1,23,-1,25,27,29,31,33,35,37,-1,39,-1,-1,-1,-1,41,43,45,47,-1,49,51,-1,-1,-1,53,55,57,-1,-1,-1,-1,-1,-1,-1,-1,-1,-1,-1,-1,-1,-1,-1,-1,-1,-1,-1],"loss_changes":[3.9311712E0,4.9772816E0,4.345656E0,6.2294216E0,6.254441E0,3.0451744E0,1.1358232E0,5.2077484E0,6.4537306E0,5.64916E0,4.5821085E0,0E0,2.2391081E-1,0E0,6.261473E-1,5.944312E0,5.353242E0,3.8430996E0,2.5833533E0,1.3842413E0,5.8750896E0,0E0,1.5622587E0,0E0,0E0,0E0,0E0,3.0793133E0,4.68805E0,5.407279E0,3.8593292E0,0E0,1.4408646E0,4.8560286E-1,0E0,0E0,0E0,1.7909362E0,2.4742026E0,5.2254295E-1,0E0,0E0,0E0,0E0,0E0,0E0,0E0,0E0,0E0,0E0,0E0,0E0,0E0,0E0,0E0,0E0,0E0,0E0,0E0],"parents":[2147483647,0,0,1,1,2,2,3,3,4,4,5,5,6,6,7,7,8,8,9,9,10,10,12,12,14,14,15,15,16,16,17,17,18,18,19,19,20,20,22,22,27,27,28,28,29,29,30,30,32,32,33,33,37,37,38,38,39,39],"right_children":[2,4,6,8,10,12,14,16,18,20,22,-1,24,-1,26,28,30,32,34,36,38,-1,40,-1,-1,-1,-1,42,44,46,48,-1,50,52,-1,-1,-1,54,56,58,-1,-1,-1,-1,-1,-1,-1,-1,-1,-1,-1,-1,-1,-1,-1,-1,-1,-1,-1],"split_conditions":[7.4455254E-2,1.767015E-2,-1.3270402E-2,1.8364716E-2,1.3147622E-3,2.1572409E-3,-4.9428657E-2,-1.7814945E-2,3.5772223E-2,-7.748795E-3,-2.465987E-2,-1.895601E-1,1.6872029E-1,-3.6612228E-3,1.8249428E-3,-1.5194367E-2,1.168424E-2,-5.0111536E-2,2.9818956E-2,1.745425E-3,-2.149767E-2,1.2140337E-1,1.8304393E-2,2.3623739E-1,3.589951E-2,-3.1729352E-1,-4.598718E-2,-2.2122508E-2,-3.6247306E-2,9.941979E-3,2.5179783E-2,7.650379E-2,2.2341918E-2,5.490728E-2,-1.6537023E-1,-5.8148056E-3,-3.144566E-1,1.2393422E-2,2.0922828E-1,2.9056314E-2,-1.8139812E-3,-7.654855E-2,2.1088742E-1,1.0874227E-1,-4.3075767E-1,1.6882667E-1,-2.0079003E-1,5.288442E-2,-3.3891994E-1,-4.794088E-1,-6.382461E-2,2.4668565E-1,8.007093E-3,7.457696E-2,-3.1194836E-1,2.3407085E-1,-1.0982921E-1,-3.890069E-1,-7.0502885E-2],"split_indices":[95,223,210,54,225,25,131,96,102,129,74,0,238,0,117,95,0,237,316,13,49,0,72,0,0,0,0,116,170,3,150,0,74,281,0,0,0,87,205,97,0,0,0,0,0,0,0,0,0,0,0,0,0,0,0,0,0,0,0],"split_type":[0,0,0,0,0,0,0,0,0,0,0,0,0,0,0,0,0,0,0,0,0,0,0,0,0,0,0,0,0,0,0,0,0,0,0,0,0,0,0,0,0,0,0,0,0,0,0,0,0,0,0,0,0,0,0,0,0,0,0],"sum_hessian":[1.4361015E2,1.270774E2,1.653276E1,9.223963E1,3.4837765E1,5.721055E0,1.0811707E1,7.904786E1,1.3191774E1,2.2288752E1,1.2549014E1,1.9873476E0,3.7337074E0,1.4569173E0,9.354789E0,1.7554792E1,6.1493065E1,7.335553E0,5.8562207E0,5.697387E0,1.6591364E1,1.941574E0,1.060744E1,2.6792808E0,1.0544267E0,8.109742E0,1.2450465E0,1.1736795E1,5.817998E0,5.3658348E1,7.8347163E0,1.4804732E0,5.85508E0,4.114939E0,1.7412816E0,1.8423191E0,3.855068E0,3.6447172E0,1.2946648E1,9.406376E0,1.2010645E0,6.6685696E0,5.068226E0,1.5236715E0,4.2943263E0,5.065775E1,3.0005991E0,5.027215E0,2.8075013E0,4.594842E0,1.260238E0,3.085724E0,1.029215E0,1.0779492E0,2.566768E0,1.1332482E1,1.6141652E0,8.390398E0,1.0159773E0],"tree_param":{"num_deleted":"0","num_feature":"318","num_nodes":"59","size_leaf_vector":"1"}},{"base_weights":[-5.9821915E-2,-2.7531656E-2,-2.4427874E-1,-6.133739E-1,1.7805113E-2,-8.0430996E-1,7.601602E-2,-2.9502353E-1,1.0908083E-1,-9.157662E-1,-3.6951907E-2,-1.254016E0,-2.8335368E-2,1.92502E-1,-4.411729E-1,-6.2043313E-2,-3.0196425E-1,-2.926126E-2,-1.4761671E0,-6.2043196E-1,2.203394E-1,2.960302E-1,-3.9093503E-1,2.89479E-1,-6.886411E-1,-5.073268E-1,-9.834174E-2,8.1808865E-2,-2.618271E-1,-2.1482703E-1,1.1257728E-1,-2.1206306E-1,1.0530855E-1,1.8943392E-1,-2.4585207E-1,1.8542334E-1,-6.623307E-2,-2.5731176E-1,3.9574206E-2],"categories":[],"categories_nodes":[],"categories_segments":[],"categories_sizes":[],"default_left":[0,0,0,0,0,0,0,0,0,0,0,0,0,0,0,0,0,0,0,0,0,0,0,0,0,0,0,0,0,0,0,0,0,0,0,0,0,0,0],"id":12,"left_children":[1,3,-1,5,7,9,-1,11,13,15,-1,17,19,21,23,-1,-1,-1,25,27,29,31,33,35,37,-1,-1,-1,-1,-1,-1,-1,-1,-1,-1,-1,-1,-1,-1],"loss_changes":[3.1987E0,3.406163E0,0E0,1.728054E0,3.4478207E0,4.7837877E-1,0E0,6.9437065E0,4.3691587E0,2.1253538E-1,0E0,1.3755417E0,3.4311233E0,5.053119E0,2.4759147E0,0E0,0E0,0E0,6.5272427E-1,1.7884157E0,2.6616135E0,4.108776E0,6.1039476E0,7.886156E-1,1.4589572E0,0E0,0E0,0E0,0E0,0E0,0E0,0E0,0E0,0E0,0E0,0E0,0E0,0E0,0E0],"parents":[2147483647,0,0,1,1,3,3,4,4,5,5,7,7,8,8,9,9,11,11,12,12,13,13,14,14,18,18,19,19,20,20,21,21,22,22,23,23,24,24],"right_children":[2,4,-1,6,8,10,-1,12,14,16,-1,18,20,22,24,-1,-1,-1,26,28,30,32,34,36,38,-1,-1,-1,-1,-1,-1,-1,-1,-1,-1,-1,-1,-1,-1],"split_conditions":[1.0261188E-1,-8.4536165E-2,-2.4427874E-1,3.6505338E-2,-6.410321E-2,4.994447E-2,7.601602E-2,-8.440304E-3,5.7390884E-2,-9.817132E-2,-3.6951907E-2,-1.800904E-2,-1.2608755E-2,1.7448142E-2,-1.6081214E-2,-6.2043313E-2,-3.0196425E-1,-2.926126E-2,2.6471188E-2,1.9380181E-3,-1.2897415E-1,-6.4992644E-2,-2.0260308E-2,5.2322455E-2,3.538344E-2,-5.073268E-1,-9.834174E-2,8.1808865E-2,-2.618271E-1,-2.1482703E-1,1.1257728E-1,-2.1206306E-1,1.0530855E-1,1.8943392E-1,-2.4585207E-1,1.8542334E-1,-6.623307E-2,-2.5731176E-1,3.9574206E-2],"split_indices":[244,244,0,263,47,8,0,46,35,92,0,10,295,153,164,0,0,0,43,56,233,292,302,148,176,0,0,0,0,0,0,0,0,0,0,0,0,0,0],"split_type":[0,0,0,0,0,0,0,0,0,0,0,0,0,0,0,0,0,0,0,0,0,0,0,0,0,0,0,0,0,0,0,0,0,0,0,0,0,0,0],"sum_hessian":[1.3122392E2,1.2683197E2,4.3919497E0,8.210214E0,1.1862176E2,6.7871447E0,1.4230694E0,2.6289097E1,9.2332664E1,5.536694E0,1.2504506E0,4.914545E0,2.1374552E1,8.074194E1,1.159072E1,1.0006056E0,4.5360885E0,1.0238137E0,3.8907313E0,5.879784E0,1.5494766E1,6.899221E1,1.1749735E1,2.8895469E0,8.701173E0,2.8792527E0,1.0114785E0,1.2774379E0,4.6023464E0,1.6853008E0,1.3809465E1,2.970563E0,6.6021645E1,3.3307283E0,8.419006E0,1.6291096E0,1.2604371E0,7.1771407E0,1.5240321E0],"tree_param":{"num_deleted":"0","num_feature":"318","num_nodes":"39","size_leaf_vector":"1"}},{"base_weights":[-6.0879815E-2,-1.8502729E-2,-6.1349964E-1,-3.2788107E-1,7.2975256E-2,-8.383361E-1,5.2812256E-2,9.47191E-2,-7.786159E-1,1.5944788E-1,-4.15532E-1,-8.32794E-2,-2.8409344E-1,-1.298504E-1,1.5662628E-1,-6.3841885E-1,3.326957E-1,1.40712485E-2,-1.0602146E0,3.427451E-1,-1.1620141E-1,-1.050524E-2,-9.2702574E-1,-2.3682337E-1,-2.9808646E-2,7.073538E-1,-1.4329016E-1,1.7474249E-1,-2.2459678E-1,-1.2170362E0,-5.358952E-2,6.1751974E-1,2.868693E-2,-5.911861E-1,1.11667424E-1,-1.9772738E-1,3.0246884E-1,-7.428497E-2,-3.1254423E-1,-8.957648E-3,2.555992E-1,-1.320196E-1,1.6135255E-1,-3.9380184E-1,-9.0339854E-2,2.4188879E-1,-4.0651E-2,-2.5667077E-1,9.243008E-2,-2.9349184E-1,1.00367025E-1,-1.6380925E-1,9.717441E-2,-1.2924714E-1,1.6610964E-1],"categories":[],"categories_nodes":[],"categories_segments":[],"categories_sizes":[],"default_left":[0,0,0,0,0,0,0,0,0,0,0,0,0,0,0,0,0,0,0,0,0,0,0,0,0,0,0,0,0,0,0,0,0,0,0,0,0,0,0,0,0,0,0,0,0,0,0,0,0,0,0,0,0,0,0],"id":13,"left_children":[1,3,5,7,9,11,13,15,17,19,21,-1,-1,-1,-1,23,25,27,29,31,33,35,37,-1,-1,39,41,-1,-1,43,-1,45,47,49,51,-1,53,-1,-1,-1,-1,-1,-1,-1,-1,-1,-1,-1,-1,-1,-1,-1,-1,-1,-1],"loss_changes":[2.9134727E0,3.33603E0,1.372225E0,5.1955914E0,3.9162784E0,1.444912E-1,9.500595E-1,2.7891743E0,2.943531E0,3.988756E0,2.8873541E0,0E0,0E0,0E0,0E0,2.4403155E-1,2.206981E0,2.3548923E0,1.1227913E0,4.055001E0,3.5253534E0,1.9888808E0,2.2309303E-1,0E0,0E0,7.47916E-1,1.4560078E0,0E0,0E0,3.1053162E-1,0E0,3.680584E0,5.9640684E0,4.097745E0,3.309455E0,0E0,1.4602957E0,0E0,0E0,0E0,0E0,0E0,0E0,0E0,0E0,0E0,0E0,0E0,0E0,0E0,0E0,0E0,0E0,0E0,0E0],"parents":[2147483647,0,0,1,1,2,2,3,3,4,4,5,5,6,6,7,7,8,8,9,9,10,10,15,15,16,16,17,17,18,18,19,19,20,20,21,21,22,22,25,25,26,26,29,29,31,31,32,32,33,33,34,34,36,36],"right_children":[2,4,6,8,10,12,14,16,18,20,22,-1,-1,-1,-1,24,26,28,30,32,34,36,38,-1,-1,40,42,-1,-1,44,-1,46,48,50,52,-1,54,-1,-1,-1,-1,-1,-1,-1,-1,-1,-1,-1,-1,-1,-1,-1,-1,-1,-1],"split_conditions":[1.7564993E-2,-3.39722E-2,1.499606E-3,-1.8609632E-2,5.9698332E-2,-2.4086157E-2,-5.2492514E-2,-1.3892034E-1,1.7384081E-3,1.1183558E-2,-1.11356E-3,-8.32794E-2,-2.8409344E-1,-1.298504E-1,1.5662628E-1,-2.1051329E-2,7.647231E-2,2.206683E-2,1.9047698E-2,9.017967E-3,6.3975835E-3,-1.8824589E-2,-1.0450627E-2,-2.3682337E-1,-2.9808646E-2,-7.315022E-3,9.713179E-3,1.7474249E-1,-2.2459678E-1,1.9199647E-2,-5.358952E-2,1.8118614E-2,-2.0271048E-2,2.2621895E-3,-3.7078473E-3,-1.9772738E-1,-1.1096655E-1,-7.428497E-2,-3.1254423E-1,-8.957648E-3,2.555992E-1,-1.320196E-1,1.6135255E-1,-3.9380184E-1,-9.0339854E-2,2.4188879E-1,-4.0651E-2,-2.5667077E-1,9.243008E-2,-2.9349184E-1,1.00367025E-1,-1.6380925E-1,9.717441E-2,-1.2924714E-1,1.6610964E-1],"split_indices":[156,35,3,303,119,211,51,79,231,144,299,0,0,0,0,68,20,274,300,109,270,298,6,0,0,22,105,0,0,197,0,249,272,196,10,0,19,0,0,0,0,0,0,0,0,0,0,0,0,0,0,0,0,0,0],"split_type":[0,0,0,0,0,0,0,0,0,0,0,0,0,0,0,0,0,0,0,0,0,0,0,0,0,0,0,0,0,0,0,0,0,0,0,0,0,0,0,0,0,0,0,0,0,0,0,0,0,0,0,0,0,0,0],"sum_hessian":[1.2389418E2,1.16030014E2,7.8641615E0,2.5889048E1,9.014097E1,5.6869993E0,2.1771622E0,1.3769185E1,1.2119863E1,7.7156746E1,1.2984223E1,1.5000249E0,4.1869745E0,1.1080788E0,1.0690833E0,2.9618561E0,1.0807329E1,3.4259646E0,8.693898E0,4.6195156E1,3.0961588E1,7.8158073E0,5.1684155E0,1.950954E0,1.0109022E0,5.7753515E0,5.0319777E0,2.0984628E0,1.3275019E0,7.0578837E0,1.6360145E0,2.4123156E1,2.2072002E1,9.520993E0,2.1440596E1,2.18398E0,5.6318274E0,1.2033263E0,3.9650893E0,1.0774456E0,4.6979055E0,3.7513864E0,1.2805911E0,5.9983506E0,1.0595335E0,1.9231295E1,4.891861E0,4.804677E0,1.7267324E1,6.6735287E0,2.8474646E0,4.8473434E0,1.6593252E1,1.2547097E0,4.3771176E0],"tree_param":{"num_deleted":"0","num_feature":"318","num_nodes":"55","size_leaf_vector":"1"}},{"base_weights":[-6.0692243E-2,-4.0139386E-1,-6.1661624E-3,-3.80428E-2,-2.8033602E-1,-2.7349684E-1,9.8427E-2,-2.2553815E-1,1.7241246E-1,4.288524E-2,-6.50925E-1,2.5111008E-1,-2.0748258E-1,-5.8717805E-1,1.6875806E-1,-6.3921493E-1,3.4610462E-1,-3.5301208E-1,-2.7380186E-1,4.1024205E-1,-1.6869801E-1,5.9248745E-1,-3.7599155E-1,5.7169955E-2,-2.568867E-1,5.164691E-1,-1.023283E-1,-9.304375E-1,9.5405206E-2,-3.9958888E-1,7.010326E-1,-7.89114E-1,6.1915286E-2,5.8966696E-1,-1.2609118E-1,-6.436227E-1,3.4624466E-1,2.4544163E-1,-2.1342706E-2,-5.056878E-1,4.575497E-1,2.0674397E-1,1.9350462E-2,-3.1853038E-1,-9.5984064E-2,7.721784E-2,-2.4197426E-1,2.593822E-1,-6.4888835E-2,-7.369807E-2,-2.7141923E-1,-1.2807038E-1,1.3078539E-1,2.1003988E-1,-6.1356137E-3,-2.5588575E-1,1.1215668E-1,3.7213814E-2,-2.3417689E-1,-1.0741668E-1,2.056646E-1,6.1899614E-2,-1.9150467E-1,1.9844972E-1,-2.8080242E-3],"categories":[],"categories_nodes":[],"categories_segments":[],"categories_sizes":[],"default_left":[0,0,0,0,0,0,0,0,0,0,0,0,0,0,0,0,0,0,0,0,0,0,0,0,0,0,0,0,0,0,0,0,0,0,0,0,0,0,0,0,0,0,0,0,0,0,0,0,0,0,0,0,0,0,0,0,0,0,0,0,0,0,0,0,0],"id":14,"left_children":[1,3,5,7,-1,9,11,13,-1,15,17,19,21,23,25,27,29,31,-1,33,35,37,39,-1,-1,41,-1,43,-1,45,47,49,51,53,55,57,59,-1,-1,61,63,-1,-1,-1,-1,-1,-1,-1,-1,-1,-1,-1,-1,-1,-1,-1,-1,-1,-1,-1,-1,-1,-1,-1,-1],"loss_changes":[2.1471152E0,3.0534062E0,2.8443658E0,1.3389463E0,0E0,3.443272E0,3.469295E0,1.3507841E0,0E0,3.6332963E0,6.996646E-1,3.3597486E0,3.5801528E0,1.1682119E0,1.0583491E0,1.8090677E0,3.4744434E0,1.4529487E0,0E0,3.539506E0,3.7072046E0,7.6527524E-1,2.5215507E0,0E0,0E0,2.1748757E-1,0E0,1.439786E-2,0E0,1.4186019E0,1.4684782E0,2.00243E-2,1.0826468E0,1.8447046E0,3.8984299E0,9.1291666E-1,2.0343993E0,0E0,0E0,1.9081635E0,3.2780492E-1,0E0,0E0,0E0,0E0,0E0,0E0,0E0,0E0,0E0,0E0,0E0,0E0,0E0,0E0,0E0,0E0,0E0,0E0,0E0,0E0,0E0,0E0,0E0,0E0],"parents":[2147483647,0,0,1,1,2,2,3,3,5,5,6,6,7,7,9,9,10,10,11,11,12,12,13,13,14,14,15,15,16,16,17,17,19,19,20,20,21,21,22,22,25,25,27,27,29,29,30,30,31,31,32,32,33,33,34,34,35,35,36,36,39,39,40,40],"right_children":[2,4,6,8,-1,10,12,14,-1,16,18,20,22,24,26,28,30,32,-1,34,36,38,40,-1,-1,42,-1,44,-1,46,48,50,52,54,56,58,60,-1,-1,62,64,-1,-1,-1,-1,-1,-1,-1,-1,-1,-1,-1,-1,-1,-1,-1,-1,-1,-1,-1,-1,-1,-1,-1,-1],"split_conditions":[-4.0036686E-2,6.276014E-2,-3.785299E-2,5.6306396E-2,-2.8033602E-1,2.200819E-2,1.1023148E-2,2.3359641E-2,1.7241246E-1,-1.1023148E-2,-2.764551E-3,9.056902E-3,-5.1297985E-2,-1.00766495E-1,2.0477578E-2,2.0525001E-2,-9.056902E-3,2.5567054E-3,-2.7380186E-1,4.653968E-2,-6.8012445E-4,1.4744629E-1,3.782628E-2,5.7169955E-2,-2.568867E-1,1.994887E-3,-1.023283E-1,-1.7375806E-2,9.5405206E-2,1.6063564E-2,2.8609471E-2,-2.9257663E-2,-4.0894967E-2,5.335747E-2,1.5592613E-2,-2.5080584E-2,-1.3439391E-2,2.4544163E-1,-2.1342706E-2,-2.760242E-2,8.107053E-2,2.0674397E-1,1.9350462E-2,-3.1853038E-1,-9.5984064E-2,7.721784E-2,-2.4197426E-1,2.593822E-1,-6.4888835E-2,-7.369807E-2,-2.7141923E-1,-1.2807038E-1,1.3078539E-1,2.1003988E-1,-6.1356137E-3,-2.5588575E-1,1.1215668E-1,3.7213814E-2,-2.3417689E-1,-1.0741668E-1,2.056646E-1,6.1899614E-2,-1.9150467E-1,1.9844972E-1,-2.8080242E-3],"split_indices":[121,316,316,219,0,121,116,79,0,116,231,156,199,90,4,302,156,225,0,271,3,152,249,0,0,62,0,233,0,317,272,56,119,286,63,24,299,0,0,302,181,0,0,0,0,0,0,0,0,0,0,0,0,0,0,0,0,0,0,0,0,0,0,0,0],"split_type":[0,0,0,0,0,0,0,0,0,0,0,0,0,0,0,0,0,0,0,0,0,0,0,0,0,0,0,0,0,0,0,0,0,0,0,0,0,0,0,0,0,0,0,0,0,0,0,0,0,0,0,0,0,0,0,0,0,0,0,0,0,0,0,0,0],"sum_hessian":[1.147117E2,1.494812E1,9.976358E1,9.526148E0,5.4219723E0,2.7601576E1,7.2162E1,7.778067E0,1.7480812E0,1.5497255E1,1.2104321E1,4.8255997E1,2.3906004E1,3.8018827E0,3.9761844E0,4.4280787E0,1.1069176E1,6.7595234E0,5.344797E0,3.5008503E1,1.3247496E1,3.7217097E0,2.0184294E1,1.0523635E0,2.749519E0,2.3562691E0,1.6199152E0,3.416619E0,1.0114597E0,3.5290055E0,7.5401707E0,2.8559823E0,3.903541E0,2.6158123E1,8.85038E0,6.761533E0,6.485963E0,2.603596E0,1.1181138E0,1.7806923E1,2.377371E0,1.3251983E0,1.0310708E0,2.2034109E0,1.2132081E0,1.4905219E0,2.0384836E0,6.447881E0,1.0922893E0,1.0491691E0,1.8068134E0,1.6308692E0,2.272672E0,2.2023157E1,4.1349664E0,3.3189487E0,5.531431E0,1.0380166E0,5.7235165E0,2.0907938E0,4.3951693E0,2.7094436E0,1.509748E1,1.3645617E0,1.0128095E0],"tree_param":{"num_deleted":"0","num_feature":"318","num_nodes":"65","size_leaf_vector":"1"}},{"base_weights":[-5.375838E-2,-2.456271E-1,4.380931E-2,-8.7416196E-1,-9.044794E-2,1.6875656E-1,-3.0827606E-1,-3.1518045E-1,1.8122602E-2,-4.8752302E-1,1.8453409E-1,-2.4015863E-1,3.1329975E-1,-5.226031E-1,3.6357003E-1,-6.880133E-1,2.1038796E-1,-6.4069307E-1,3.4484008E-1,2.972989E-1,-6.752563E-1,5.122451E-1,-1.9516045E-1,-6.254397E-1,6.0870156E-2,6.219851E-1,-9.69651E-2,-8.042737E-1,3.876818E-2,1.575842E-1,-7.969779E-2,-2.3397487E-1,-4.77955E-2,-2.197365E-1,6.6882926E-1,6.231778E-1,-2.5946617E-1,-8.077058E-1,1.6469881E-2,7.552818E-1,1.6166167E-1,-7.3958546E-1,2.734431E-1,-8.0677664E-1,-2.2276413E-1,5.4796387E-2,2.1224467E-1,9.626386E-3,-2.7794248E-1,-1.4797887E-1,1.4037749E-1,-7.106262E-2,2.5906327E-1,2.2959517E-1,2.665303E-2,-1.8920556E-1,5.2938234E-2,-2.8171393E-1,-6.391903E-2,-7.944951E-2,2.5945103E-1,2.1492705E-1,-1.1060316E-1,-3.0629587E-1,5.65559E-2,2.2373162E-1,-2.1247841E-1,-2.6674485E-1,-3.453802E-2,-1.7351785E-1,8.640931E-2],"categories":[],"categories_nodes":[],"categories_segments":[],"categories_sizes":[],"default_left":[0,0,0,0,0,0,0,0,0,0,0,0,0,0,0,0,0,0,0,0,0,0,0,0,0,0,0,0,0,0,0,0,0,0,0,0,0,0,0,0,0,0,0,0,0,0,0,0,0,0,0,0,0,0,0,0,0,0,0,0,0,0,0,0,0,0,0,0,0,0,0],"id":15,"left_children":[1,3,5,7,9,11,13,-1,-1,15,17,19,21,23,25,27,29,31,33,35,37,39,41,43,-1,45,-1,47,-1,-1,-1,-1,-1,49,51,53,55,57,-1,59,61,63,65,67,69,-1,-1,-1,-1,-1,-1,-1,-1,-1,-1,-1,-1,-1,-1,-1,-1,-1,-1,-1,-1,-1,-1,-1,-1,-1,-1],"loss_changes":[1.9868349E0,3.4063292E0,3.1677117E0,1.2111716E0,3.340988E0,3.2030942E0,2.9121318E0,0E0,0E0,1.8878176E0,2.6440973E0,3.5650358E0,4.098936E0,1.2268147E0,1.1171465E0,1.0456438E0,6.710768E-1,9.887397E-2,3.0714083E0,1.4554517E0,8.4278345E-1,2.3224845E0,3.223361E0,7.8101635E-1,0E0,2.4499059E-2,0E0,9.3070555E-1,0E0,0E0,0E0,0E0,0E0,1.4688785E0,2.03963E0,2.9594946E-1,6.515741E-1,3.506961E-1,0E0,2.0922718E0,4.0943937E0,1.6936166E0,3.8177128E0,3.9275503E-1,1.1596519E0,0E0,0E0,0E0,0E0,0E0,0E0,0E0,0E0,0E0,0E0,0E0,0E0,0E0,0E0,0E0,0E0,0E0,0E0,0E0,0E0,0E0,0E0,0E0,0E0,0E0,0E0],"parents":[2147483647,0,0,1,1,2,2,3,3,4,4,5,5,6,6,9,9,10,10,11,11,12,12,13,13,14,14,15,15,16,16,17,17,18,18,19,19,20,20,21,21,22,22,23,23,25,25,27,27,33,33,34,34,35,35,36,36,37,37,39,39,40,40,41,41,42,42,43,43,44,44],"right_children":[2,4,6,8,10,12,14,-1,-1,16,18,20,22,24,26,28,30,32,34,36,38,40,42,44,-1,46,-1,48,-1,-1,-1,-1,-1,50,52,54,56,58,-1,60,62,64,66,68,70,-1,-1,-1,-1,-1,-1,-1,-1,-1,-1,-1,-1,-1,-1,-1,-1,-1,-1,-1,-1,-1,-1,-1,-1,-1,-1],"split_conditions":[-1.2390318E-2,-4.5022868E-2,3.785299E-2,8.55858E-2,-4.630623E-3,-9.056902E-3,1.0224419E-2,-3.1518045E-1,1.8122602E-2,-3.4050022E-3,-2.531879E-2,3.2163205E-4,2.200819E-2,6.480004E-4,4.7959924E-2,4.816718E-2,-2.3823278E-2,7.7974363E-3,-1.1858619E-2,-2.5471384E-2,3.3521578E-2,5.1973183E-3,-2.2698104E-2,1.8233348E-3,6.0870156E-2,3.6753647E-2,-9.69651E-2,-7.781182E-4,3.876818E-2,1.575842E-1,-7.969779E-2,-2.3397487E-1,-4.77955E-2,1.319255E-2,-2.6219133E-2,1.1169284E-2,7.3198476E-3,6.280152E-3,1.6469881E-2,-1.813043E-2,-1.9140586E-2,5.9538655E-2,5.1766753E-2,2.8810589E-2,-1.7531516E-2,5.4796387E-2,2.1224467E-1,9.626386E-3,-2.7794248E-1,-1.4797887E-1,1.4037749E-1,-7.106262E-2,2.5906327E-1,2.2959517E-1,2.665303E-2,-1.8920556E-1,5.2938234E-2,-2.8171393E-1,-6.391903E-2,-7.944951E-2,2.5945103E-1,2.1492705E-1,-1.1060316E-1,-3.0629587E-1,5.65559E-2,2.2373162E-1,-2.1247841E-1,-2.6674485E-1,-3.453802E-2,-1.7351785E-1,8.640931E-2],"split_indices":[116,299,316,280,231,156,121,0,0,251,135,3,121,188,117,292,255,104,118,246,254,287,262,192,0,115,0,35,0,0,0,0,0,135,155,194,56,293,0,96,59,235,313,108,249,0,0,0,0,0,0,0,0,0,0,0,0,0,0,0,0,0,0,0,0,0,0,0,0,0,0],"split_type":[0,0,0,0,0,0,0,0,0,0,0,0,0,0,0,0,0,0,0,0,0,0,0,0,0,0,0,0,0,0,0,0,0,0,0,0,0,0,0,0,0,0,0,0,0,0,0,0,0,0,0,0,0,0,0,0,0,0,0,0,0,0,0,0,0,0,0,0,0,0,0],"sum_hessian":[1.0455845E2,3.4734627E1,6.9823814E1,5.96022E0,2.8774408E1,5.1919456E1,1.7904362E1,4.9092402E0,1.0509795E0,1.1457217E1,1.7317192E1,1.3386713E1,3.853274E1,1.3742483E1,4.1618795E0,8.911403E0,2.5458148E0,2.3293614E0,1.498783E1,6.1305785E0,7.256134E0,2.7690737E1,1.0842007E1,1.2157185E1,1.5852985E0,3.0925946E0,1.0692852E0,7.815446E0,1.0959562E0,1.4700164E0,1.0757984E0,1.3257445E0,1.0036168E0,5.5821953E0,9.405635E0,3.791879E0,2.3386993E0,6.052082E0,1.204052E0,1.5672001E1,1.2018735E1,4.747764E0,6.094242E0,7.6904173E0,4.466767E0,1.0147326E0,2.077862E0,1.090351E0,6.7250953E0,4.1959114E0,1.3862839E0,1.6259772E0,7.779658E0,2.6536856E0,1.1381934E0,1.0218027E0,1.3168968E0,4.482778E0,1.5693043E0,1.3824121E0,1.4289589E1,5.7026215E0,6.316114E0,3.566368E0,1.181396E0,4.276846E0,1.817396E0,6.616831E0,1.0735868E0,2.5553374E0,1.9114294E0],"tree_param":{"num_deleted":"0","num_feature":"318","num_nodes":"71","size_leaf_vector":"1"}},{"base_weights":[-4.8849788E-2,-3.3639562E-1,1.7448956E-2,-7.213253E-1,-2.2808725E-2,1.356643E-1,-2.2085762E-1,-8.8045037E-1,-2.0522304E-1,-3.6819902E-1,2.4272317E-1,2.1209544E-1,-5.0950295E-1,1.9728353E-2,-6.24838E-1,-6.411139E-2,-2.988266E-1,-1.6209671E-1,6.1129604E-2,-6.26811E-1,7.341159E-2,5.3805476E-1,-1.3800709E-1,-3.1676248E-1,3.125811E-1,3.299898E-2,-2.5208965E-1,-4.6775925E-1,2.7199316E-1,-2.0726456E-1,-2.696124E-1,-4.3628104E-2,-2.3291998E-1,2.1734658E-1,-3.2310355E-2,-7.32449E-1,1.8546185E-1,-1.5568338E-1,4.2163244E-1,-8.010313E-1,7.4525796E-2,-1.7653674E-1,4.6164104E-1,1.758808E-1,-6.9265586E-1,-5.222298E-3,-2.7712494E-1,-1.073717E-1,1.426008E-1,-1.8481354E-1,2.2104739E-1,1.5567186E-1,-1.3156813E-1,-4.234128E-2,-2.9121485E-1,-7.714676E-2,1.7974028E-1,-2.4615382E-1,-5.3079467E-2],"categories":[],"categories_nodes":[],"categories_segments":[],"categories_sizes":[],"default_left":[0,0,0,0,0,0,0,0,0,0,0,0,0,0,0,0,0,0,0,0,0,0,0,0,0,0,0,0,0,0,0,0,0,0,0,0,0,0,0,0,0,0,0,0,0,0,0,0,0,0,0,0,0,0,0,0,0,0,0],"id":16,"left_children":[1,3,5,7,9,11,13,15,17,19,21,23,25,27,29,-1,-1,-1,-1,31,-1,33,-1,35,37,-1,-1,39,41,43,-1,-1,-1,-1,-1,45,47,49,51,53,-1,-1,55,-1,57,-1,-1,-1,-1,-1,-1,-1,-1,-1,-1,-1,-1,-1,-1],"loss_changes":[1.8279153E0,2.1511173E0,2.244764E0,4.7867727E-1,1.0916163E0,2.7299087E0,2.5829406E0,2.3684883E-1,5.481189E-1,9.6922797E-1,1.6548758E0,2.662832E0,1.306755E0,2.2849789E0,9.4621015E-1,0E0,0E0,0E0,0E0,1.6796911E-1,0E0,7.0832574E-1,0E0,1.8476729E0,2.16157E0,0E0,0E0,1.7148936E0,2.2616625E0,2.4174862E0,0E0,0E0,0E0,0E0,0E0,6.252382E-1,8.806883E-1,3.9395332E0,3.0357637E0,3.7482E-1,0E0,0E0,1.197017E0,0E0,9.870255E-2,0E0,0E0,0E0,0E0,0E0,0E0,0E0,0E0,0E0,0E0,0E0,0E0,0E0,0E0],"parents":[2147483647,0,0,1,1,2,2,3,3,4,4,5,5,6,6,7,7,8,8,9,9,10,10,11,11,12,12,13,13,14,14,19,19,21,21,23,23,24,24,27,27,28,28,29,29,35,35,36,36,37,37,38,38,39,39,42,42,44,44],"right_children":[2,4,6,8,10,12,14,16,18,20,22,24,26,28,30,-1,-1,-1,-1,32,-1,34,-1,36,38,-1,-1,40,42,44,-1,-1,-1,-1,-1,46,48,50,52,54,-1,-1,56,-1,58,-1,-1,-1,-1,-1,-1,-1,-1,-1,-1,-1,-1,-1,-1],"split_conditions":[-2.6840527E-2,-2.1901412E-2,1.767015E-2,1.7488401E-2,-2.2470491E-2,7.4455254E-2,2.3041314E-2,-7.405735E-2,-5.132868E-2,2.4367183E-2,4.765721E-2,-3.4542806E-2,8.871988E-6,-9.89635E-2,2.5671916E-3,-6.411139E-2,-2.988266E-1,-1.6209671E-1,6.1129604E-2,-4.4630803E-2,7.341159E-2,-7.6603102E-3,-1.3800709E-1,9.442835E-3,-1.898009E-2,3.299898E-2,-2.5208965E-1,3.1080264E-5,-3.9235096E-2,3.1503405E-2,-2.696124E-1,-4.3628104E-2,-2.3291998E-1,2.1734658E-1,-3.2310355E-2,-3.658929E-2,-2.3892743E-3,2.9870947E-3,6.928733E-2,-7.339184E-2,7.4525796E-2,-1.7653674E-1,-1.5545999E-2,1.758808E-1,1.5768295E-2,-5.222298E-3,-2.7712494E-1,-1.073717E-1,1.426008E-1,-1.8481354E-1,2.2104739E-1,1.5567186E-1,-1.3156813E-1,-4.234128E-2,-2.9121485E-1,-7.714676E-2,1.7974028E-1,-2.4615382E-1,-5.3079467E-2],"split_indices":[223,74,223,303,121,95,74,52,124,187,71,116,15,206,124,0,0,0,0,295,0,141,0,62,274,0,0,150,154,113,0,0,0,0,0,76,3,130,115,317,0,0,174,0,125,0,0,0,0,0,0,0,0,0,0,0,0,0,0],"split_type":[0,0,0,0,0,0,0,0,0,0,0,0,0,0,0,0,0,0,0,0,0,0,0,0,0,0,0,0,0,0,0,0,0,0,0,0,0,0,0,0,0,0,0,0,0,0,0,0,0,0,0,0,0,0,0,0,0,0,0],"sum_hessian":[9.457555E1,1.6957E1,7.7618546E1,7.0288315E0,9.928169E0,5.2169727E1,2.5448814E1,4.832813E0,2.1960185E0,4.1471376E0,5.7810316E0,4.7244106E1,4.925621E0,1.6546124E1,8.902692E0,1.1352496E0,3.6975632E0,1.0305399E0,1.1654787E0,2.9005675E0,1.24657E0,4.235432E0,1.5455992E0,7.1996884E0,4.004442E1,1.9469465E0,2.9786747E0,5.3511286E0,1.1194994E1,4.222058E0,4.6806335E0,1.1552138E0,1.7453537E0,3.191968E0,1.0434643E0,3.6884127E0,3.5112758E0,7.4833674E0,3.256105E1,3.5709262E0,1.7802024E0,1.6420379E0,9.552957E0,1.5235233E0,2.6985347E0,1.0087855E0,2.6796272E0,1.1398814E0,2.3713944E0,5.14124E0,2.3421273E0,2.9609463E1,2.9515886E0,1.1050844E0,2.4658418E0,1.3941587E0,8.158797E0,1.6888492E0,1.0096855E0],"tree_param":{"num_deleted":"0","num_feature":"318","num_nodes":"59","size_leaf_vector":"1"}},{"base_weights":[-5.8818016E-2,1.9322547E-1,-1.3572428E-1,-1.5245572E-1,2.9218522E-1,-6.649112E-2,-6.311674E-1,4.724419E-1,-2.2307709E-1,2.9506832E-2,-5.206669E-1,-7.9115474E-1,-3.3097009E-3,-1.5245019E-1,6.4830047E-1,-4.2065185E-1,9.171208E-2,1.3212249E-1,-3.0318788E-1,-2.747255E-1,-1.7558384E-1,-5.032799E-2,-2.6336235E-1,-1.6435668E-1,9.35292E-2,8.217653E-1,-8.416305E-2,-2.2643237E-1,3.3008393E-2,2.8619683E-1,-2.9882053E-1,-7.923339E-1,2.0666377E-1,2.0434992E-1,-5.356086E-1,4.5079454E-3,2.7428022E-1,1.7694253E-1,-2.247521E-2,-2.0759961E-1,3.0297661E-2,-3.0786395E-1,-3.006272E-2,1.3263978E-1,-1.6294676E-1,-1.23762436E-1,1.7909476E-1,-2.1040967E-1,-2.1703213E-2],"categories":[],"categories_nodes":[],"categories_segments":[],"categories_sizes":[],"default_left":[0,0,0,0,0,0,0,0,0,0,0,0,0,0,0,0,0,0,0,0,0,0,0,0,0,0,0,0,0,0,0,0,0,0,0,0,0,0,0,0,0,0,0,0,0,0,0,0,0],"id":17,"left_children":[1,3,5,-1,7,9,11,13,15,17,19,21,-1,23,25,27,-1,29,31,-1,33,-1,-1,-1,-1,35,-1,-1,-1,37,39,41,43,45,47,-1,-1,-1,-1,-1,-1,-1,-1,-1,-1,-1,-1,-1,-1],"loss_changes":[1.7186208E0,1.5939872E0,2.2728424E0,0E0,1.8594382E0,2.645688E0,8.004961E-1,1.6715596E0,7.109066E-1,1.7725946E0,1.2816784E0,2.024746E-1,0E0,8.963238E-1,2.0606942E0,8.7713915E-1,0E0,2.7070198E0,3.2228985E0,0E0,1.051176E0,0E0,0E0,0E0,0E0,7.195153E-1,0E0,0E0,0E0,3.2888863E0,1.7813721E0,9.4403505E-1,1.4406133E0,1.2329429E0,2.4191391E-1,0E0,0E0,0E0,0E0,0E0,0E0,0E0,0E0,0E0,0E0,0E0,0E0,0E0,0E0],"parents":[2147483647,0,0,1,1,2,2,4,4,5,5,6,6,7,7,8,8,9,9,10,10,11,11,13,13,14,14,15,15,17,17,18,18,20,20,25,25,29,29,30,30,31,31,32,32,33,33,34,34],"right_children":[2,4,6,-1,8,10,12,14,16,18,20,22,-1,24,26,28,-1,30,32,-1,34,-1,-1,-1,-1,36,-1,-1,-1,38,40,42,44,46,48,-1,-1,-1,-1,-1,-1,-1,-1,-1,-1,-1,-1,-1,-1],"split_conditions":[-2.47306E-2,-4.892292E-2,6.276014E-2,-1.5245572E-1,5.7479154E-2,2.200819E-2,-2.1660177E-2,-1.9402223E-2,8.787708E-2,1.3699894E-2,1.4609234E-2,-2.094156E-2,-3.3097009E-3,1.0753176E-2,8.4536165E-2,-1.7384081E-3,9.171208E-2,1.0809377E-2,3.8725775E-2,-2.747255E-1,8.465284E-2,-5.032799E-2,-2.6336235E-1,-1.6435668E-1,9.35292E-2,-1.3213923E-2,-8.416305E-2,-2.2643237E-1,3.3008393E-2,1.6796911E-2,-5.8712247E-3,7.863045E-3,9.822159E-3,1.1404557E-2,6.3991295E-3,4.5079454E-3,2.7428022E-1,1.7694253E-1,-2.247521E-2,-2.0759961E-1,3.0297661E-2,-3.0786395E-1,-3.006272E-2,1.3263978E-1,-1.6294676E-1,-1.23762436E-1,1.7909476E-1,-2.1040967E-1,-2.1703213E-2],"split_indices":[112,115,316,0,92,121,121,129,93,100,55,283,0,291,244,231,0,276,190,0,238,0,0,0,0,278,0,0,0,138,223,279,278,312,149,0,0,0,0,0,0,0,0,0,0,0,0,0,0],"split_type":[0,0,0,0,0,0,0,0,0,0,0,0,0,0,0,0,0,0,0,0,0,0,0,0,0,0,0,0,0,0,0,0,0,0,0,0,0,0,0,0,0,0,0,0,0,0,0,0,0],"sum_hessian":[8.6310135E1,1.9825129E1,6.648501E1,1.9399303E0,1.7885197E1,5.9328636E1,7.156371E0,1.3311481E1,4.5737157E0,4.9748466E1,9.580172E0,5.4695225E0,1.6868486E0,2.9526622E0,1.035882E1,3.478501E0,1.0952146E0,3.848202E1,1.1266443E1,3.695495E0,5.884677E0,1.0263064E0,4.443216E0,1.4972047E0,1.4554577E0,8.825844E0,1.5329753E0,1.8754289E0,1.6030722E0,2.8594545E1,9.887478E0,5.467212E0,5.799231E0,3.0735562E0,2.8111205E0,1.0274639E0,7.7983804E0,1.5190027E1,1.3404518E1,4.6166406E0,5.2708373E0,3.725583E0,1.741629E0,4.725585E0,1.073646E0,1.1756724E0,1.8978838E0,1.6918205E0,1.1193001E0],"tree_param":{"num_deleted":"0","num_feature":"318","num_nodes":"49","size_leaf_vector":"1"}},{"base_weights":[-5.988788E-2,9.439681E-3,-2.8952622E-1,1.22370556E-1,-2.2454685E-1,-1.63884E-2,-7.073665E-1,3.0167213E-1,-1.4796978E-1,3.3726677E-2,-5.619442E-1,3.7755707E-1,-3.7264347E-1,-2.670771E-1,-1.7105687E-1,-3.9593452E-1,3.8779095E-1,-5.184855E-1,3.2228655E-1,4.0860692E-1,-2.955364E-1,2.830922E-1,-8.935188E-1,5.376239E-1,-6.7789E-2,6.0796387E-2,-5.668903E-1,-1.5311232E-1,6.948276E-2,1.0414827E-1,-2.667099E-1,5.295472E-1,-1.1557925E-1,8.027314E-2,-7.3658276E-1,5.280787E-1,-8.391443E-2,-8.074694E-2,5.927184E-1,1.8785603E-1,-5.874338E-1,1.4448796E-1,-2.7078187E-2,-2.919831E-1,-6.775015E-2,2.0820837E-1,-1.2469605E-2,-1.4941624E-2,-2.0417437E-1,2.2269113E-1,7.153794E-3,1.5559359E-1,-1.6641572E-1,-2.5244296E-1,8.325159E-4,2.1859348E-1,-3.731982E-2,2.2318587E-1,-8.163415E-3,-7.162893E-2,1.4804567E-1,-2.2454858E-1,-3.332189E-3],"categories":[],"categories_nodes":[],"categories_segments":[],"categories_sizes":[],"default_left":[0,0,0,0,0,0,0,0,0,0,0,0,0,0,0,0,0,0,0,0,0,0,0,0,0,0,0,0,0,0,0,0,0,0,0,0,0,0,0,0,0,0,0,0,0,0,0,0,0,0,0,0,0,0,0,0,0,0,0,0,0,0,0],"id":18,"left_children":[1,3,5,7,9,11,13,15,17,19,21,23,25,-1,27,29,31,33,35,37,39,41,43,45,-1,-1,47,-1,-1,-1,-1,49,51,-1,53,55,-1,-1,57,59,61,-1,-1,-1,-1,-1,-1,-1,-1,-1,-1,-1,-1,-1,-1,-1,-1,-1,-1,-1,-1,-1,-1],"loss_changes":[1.2941988E0,1.6995568E0,2.1388965E0,2.1447864E0,1.8446778E0,1.8835144E0,5.759721E-1,1.7382865E0,3.294325E0,1.702025E0,2.814142E0,7.391505E-1,8.9984447E-1,0E0,5.4530644E-1,1.5520384E0,1.7726879E0,1.9838114E0,1.2039887E0,9.5940614E-1,1.1545786E0,2.9069775E-1,1.4261675E-1,5.1344097E-1,0E0,0E0,2.9029286E-1,0E0,0E0,0E0,0E0,2.0151248E0,1.984183E0,0E0,6.557145E-1,9.6747744E-1,0E0,0E0,5.2211714E-1,5.799205E-1,4.4248927E-1,0E0,0E0,0E0,0E0,0E0,0E0,0E0,0E0,0E0,0E0,0E0,0E0,0E0,0E0,0E0,0E0,0E0,0E0,0E0,0E0,0E0,0E0],"parents":[2147483647,0,0,1,1,2,2,3,3,4,4,5,5,6,6,7,7,8,8,9,9,10,10,11,11,12,12,14,14,15,15,16,16,17,17,18,18,19,19,20,20,21,21,22,22,23,23,26,26,31,31,32,32,34,34,35,35,38,38,39,39,40,40],"right_children":[2,4,6,8,10,12,14,16,18,20,22,24,26,-1,28,30,32,34,36,38,40,42,44,46,-1,-1,48,-1,-1,-1,-1,50,52,-1,54,56,-1,-1,58,60,62,-1,-1,-1,-1,-1,-1,-1,-1,-1,-1,-1,-1,-1,-1,-1,-1,-1,-1,-1,-1,-1,-1],"split_conditions":[2.0477578E-2,1.8584803E-2,8.787273E-3,1.19359605E-2,1.3147622E-3,3.91317E-3,-8.614872E-3,-1.5008791E-2,2.6145515E-3,-2.3717973E-3,-2.2341918E-2,2.3477048E-2,-5.0047815E-2,-2.670771E-1,1.5013571E-2,-2.051922E-2,1.587417E-2,-3.3549283E-2,1.1884479E-3,-4.2324185E-2,-1.2204058E-2,1.5051964E-2,1.0702874E-2,3.4426947E-3,-6.7789E-2,6.0796387E-2,2.1030901E-2,-1.5311232E-1,6.948276E-2,1.0414827E-1,-2.667099E-1,1.4189694E-2,-3.645934E-2,8.027314E-2,6.3599763E-3,1.14090726E-1,-8.391443E-2,-8.074694E-2,2.7117878E-2,9.436304E-4,5.2852067E-3,1.4448796E-1,-2.7078187E-2,-2.919831E-1,-6.775015E-2,2.0820837E-1,-1.2469605E-2,-1.4941624E-2,-2.0417437E-1,2.2269113E-1,7.153794E-3,1.5559359E-1,-1.6641572E-1,-2.5244296E-1,8.325159E-4,2.1859348E-1,-3.731982E-2,2.2318587E-1,-8.163415E-3,-7.162893E-2,1.4804567E-1,-2.2454858E-1,-3.332189E-3],"split_indices":[4,223,316,109,225,129,121,153,278,121,74,249,265,0,303,132,96,96,154,250,291,129,176,72,0,0,31,0,0,0,0,274,114,0,168,47,0,0,74,162,52,0,0,0,0,0,0,0,0,0,0,0,0,0,0,0,0,0,0,0,0,0,0],"split_type":[0,0,0,0,0,0,0,0,0,0,0,0,0,0,0,0,0,0,0,0,0,0,0,0,0,0,0,0,0,0,0,0,0,0,0,0,0,0,0,0,0,0,0,0,0,0,0,0,0,0,0,0,0,0,0,0,0,0,0,0,0,0,0],"sum_hessian":[8.012086E1,6.227807E1,1.7842785E1,4.2326633E1,1.9951437E1,1.1418108E1,6.424677E0,2.5378561E1,1.6948072E1,1.1810604E1,8.140833E0,5.3938336E0,6.024275E0,4.2987604E0,2.1259162E0,2.3933842E0,2.2985176E1,9.421947E0,7.5261254E0,5.410052E0,6.4005523E0,2.3353307E0,5.8055024E0,4.349451E0,1.0443823E0,1.5097084E0,4.5145664E0,1.008548E0,1.1173683E0,1.0727375E0,1.3206469E0,1.7893974E1,5.0912027E0,1.9971132E0,7.4248333E0,5.700294E0,1.8258315E0,1.0570071E0,4.3530445E0,2.544011E0,3.856541E0,1.3352785E0,1.0000522E0,4.7771587E0,1.0283438E0,3.268541E0,1.0809102E0,1.0729036E0,3.4416625E0,1.226572E1,5.6282525E0,2.008865E0,3.0823379E0,6.38138E0,1.0434533E0,4.270763E0,1.4295309E0,3.3385353E0,1.0145093E0,1.1531483E0,1.390863E0,2.7807047E0,1.0758362E0],"tree_param":{"num_deleted":"0","num_feature":"318","num_nodes":"63","size_leaf_vector":"1"}},{"base_weights":[-5.402637E-2,9.851717E-3,-3.1585863E-1,-2.9965436E-1,1.0338387E-1,9.710485E-2,-8.310325E-1,-7.536235E-1,8.80874E-2,-2.9583564E-1,1.8782134E-1,3.290975E-1,-3.7791646E-1,-3.0526465E-1,-6.8071246E-2,-1.9470301E-1,-3.0318096E-1,-3.7452576E-1,3.1273162E-1,-5.986441E-1,3.943121E-1,3.469174E-1,-1.3831457E-1,-8.2643665E-2,5.0351816E-1,1.3080644E-2,-1.820153E-1,9.05663E-2,-1.6080168E-1,-1.7405398E-1,4.550967E-3,5.305036E-1,-5.8845986E-2,-1.2131448E-1,-2.8728622E-1,1.818593E-1,-1.2247345E-2,4.920539E-1,-1.4939836E-1,-6.735906E-1,1.927932E-1,-2.5712969E-2,1.9974327E-1,2.069545E-1,-6.501277E-3,-1.3660093E-1,1.0357463E-1,1.7838913E-1,-4.441011E-2,-1.4956564E-1,1.0871334E-1,-2.5929952E-1,1.717002E-2,1.1620516E-1,-1.1265046E-1],"categories":[],"categories_nodes":[],"categories_segments":[],"categories_sizes":[],"default_left":[0,0,0,0,0,0,0,0,0,0,0,0,0,0,0,0,0,0,0,0,0,0,0,0,0,0,0,0,0,0,0,0,0,0,0,0,0,0,0,0,0,0,0,0,0,0,0,0,0,0,0,0,0,0,0],"id":19,"left_children":[1,3,5,7,9,11,13,15,17,19,21,23,25,-1,-1,27,-1,29,31,33,35,37,39,-1,41,-1,-1,-1,-1,-1,-1,43,-1,45,-1,-1,-1,47,49,51,53,-1,-1,-1,-1,-1,-1,-1,-1,-1,-1,-1,-1,-1,-1],"loss_changes":[1.2530444E0,1.7981874E0,3.205285E0,2.6052186E0,1.6608828E0,1.1214149E0,5.172334E-1,7.7258396E-1,1.018603E0,2.054697E0,2.119328E0,8.36079E-1,3.5766408E-1,0E0,0E0,7.320203E-1,0E0,2.7250716E-1,8.1153774E-1,9.882877E-1,3.2501608E-1,2.0268064E0,2.5763822E0,0E0,5.816921E-1,0E0,0E0,0E0,0E0,0E0,0E0,4.3206513E-1,0E0,7.6682675E-1,0E0,0E0,0E0,1.4808893E0,1.4140668E0,8.158784E-1,1.1743658E0,0E0,0E0,0E0,0E0,0E0,0E0,0E0,0E0,0E0,0E0,0E0,0E0,0E0,0E0],"parents":[2147483647,0,0,1,1,2,2,3,3,4,4,5,5,6,6,7,7,8,8,9,9,10,10,11,11,12,12,15,15,17,17,18,18,19,19,20,20,21,21,22,22,24,24,31,31,33,33,37,37,38,38,39,39,40,40],"right_children":[2,4,6,8,10,12,14,16,18,20,22,24,26,-1,-1,28,-1,30,32,34,36,38,40,-1,42,-1,-1,-1,-1,-1,-1,44,-1,46,-1,-1,-1,48,50,52,54,-1,-1,-1,-1,-1,-1,-1,-1,-1,-1,-1,-1,-1,-1],"split_conditions":[7.352904E-2,-7.352904E-2,-1.583943E-2,1.5494675E-2,-1.7448142E-2,1.0952039E-1,9.2459755E-5,1.4684466E-3,-1.0952039E-1,1.9536352E-2,1.0900088E-2,-2.4115684E-2,7.030256E-2,-3.0526465E-1,-6.8071246E-2,-6.0280417E-3,-3.0318096E-1,-7.030256E-2,2.9034432E-2,-4.5429975E-2,2.052061E-2,5.7770737E-2,2.4062232E-3,-8.2643665E-2,-6.267018E-2,1.3080644E-2,-1.820153E-1,9.05663E-2,-1.6080168E-1,-1.7405398E-1,4.550967E-3,2.1497814E-2,-5.8845986E-2,-1.9650523E-2,-2.8728622E-1,1.818593E-1,-1.2247345E-2,3.2641646E-2,-8.556758E-3,3.5728402E-2,7.4689747E-3,-2.5712969E-2,1.9974327E-1,2.069545E-1,-6.501277E-3,-1.3660093E-1,1.0357463E-1,1.7838913E-1,-4.441011E-2,-1.4956564E-1,1.0871334E-1,-2.5929952E-1,1.717002E-2,1.1620516E-1,-1.1265046E-1],"split_indices":[47,47,309,309,153,233,296,296,233,302,153,188,196,0,0,231,0,196,310,41,150,38,41,0,244,0,0,0,0,0,0,87,0,132,0,0,0,16,271,170,5,0,0,0,0,0,0,0,0,0,0,0,0,0,0],"split_type":[0,0,0,0,0,0,0,0,0,0,0,0,0,0,0,0,0,0,0,0,0,0,0,0,0,0,0,0,0,0,0,0,0,0,0,0,0,0,0,0,0,0,0,0,0,0,0,0,0,0,0,0,0,0,0],"sum_hessian":[7.373285E1,6.0046047E1,1.3686801E1,1.34233265E1,4.662272E1,8.047463E0,5.6393375E0,5.7488894E0,7.674437E0,7.7023735E0,3.8920345E1,5.6132417E0,2.4342215E0,3.786105E0,1.8532326E0,2.3642972E0,3.384592E0,2.2904613E0,5.3839755E0,5.4456377E0,2.256736E0,2.611646E1,1.2803885E1,1.1270995E0,4.486142E0,1.1412107E0,1.2930108E0,1.0100994E0,1.3541979E0,1.1793042E0,1.1111571E0,3.7407E0,1.6432757E0,2.9117892E0,2.5338483E0,1.2533225E0,1.0034136E0,2.0213934E1,5.902528E0,4.4979877E0,8.305899E0,1.0706968E0,3.4154453E0,2.7094777E0,1.0312223E0,1.7109494E0,1.2008399E0,1.7483198E1,2.7307343E0,3.524093E0,2.378435E0,3.422145E0,1.0758425E0,6.4247613E0,1.8811369E0],"tree_param":{"num_deleted":"0","num_feature":"318","num_nodes":"55","size_leaf_vector":"1"}}]},"name":"gbtree"},"learner_model_param":{"base_score":"5E-1","boost_from_average":"1","num_class":"0","num_feature":"318","num_target":"1"},"objective":{"name":"binary:logistic","reg_loss_param":{"scale_pos_weight":"1"}}},"version":[3,0,0]}