{"learner":{"attributes":{"scikit_learn":"{\"_estimator_type\": \"classifier\"}"},"feature_names":[],"feature_types":[],"gradient_booster":{"model":{"gbtree_model_param":{"num_parallel_tree":"1","num_trees":"20"},"iteration_indptr":[0,1,2,3,4,5,6,7,8,9,10,11,12,13,14,15,16,17,18,19,20],"tree_info":[0,0,0,0,0,0,0,0,0,0,0,0,0,0,0,0,0,0,0,0],"trees":[{"base_weights":[-0E0,2E-1,-1.6428572E0,-1.2395437E0,5.370205E-1,-1.862069E0,-2.2222222E-1,2.5454545E-1,-1.6037736E0,-1.2075472E0,7.1638864E-1,-1.6363637E-1,-5.739131E-1,-4.4000003E-1,1E0,-1.04E0,1.1764706E0,-1.7171717E0,-0E0,8E-1,-1.6E0,-1.392405E0,8.898305E-1,4.0000004E-1,-0E0,1.20000005E-1,-4.7368425E-1,-1.6363637E-1,5.1111114E-1,-1.8241758E0,-4E-1,-3E-1,3.6E-1,-3E-1,4.5000002E-1,-1.7619047E0,1.20000005E-1,-5.5789477E-1,-1.5384616E-1,-1.6521739E0,1.015521E0,-5.710843E-1,-2.4000001E-1,-4.0000004E-1,2.0000002E-1,6.666667E-2,-5.696203E-1,-4.2857146E-1,3E-1,-0E0,-5.4285717E-1,3.564576E-1,-1.6129033E-1],"categories":[],"categories_nodes":[],"categories_segments":[],"categories_sizes":[],"default_left":[0,0,0,0,0,0,0,0,0,0,0,0,0,0,0,0,0,0,0,0,0,0,0,0,0,0,0,0,0,0,0,0,0,0,0,0,0,0,0,0,0,0,0,0,0,0,0,0,0,0,0,0,0],"id":0,"left_children":[1,3,5,7,9,11,13,15,17,19,21,-1,-1,-1,23,25,27,29,31,33,35,37,39,-1,-1,-1,-1,-1,-1,41,43,-1,-1,-1,-1,45,-1,-1,47,49,51,-1,-1,-1,-1,-1,-1,-1,-1,-1,-1,-1,-1],"loss_changes":[1.2715714E2,1.6804439E2,1.2665848E1,3.6188858E1,8.8560844E1,1.3894043E0,1.1733334E1,1.7633797E1,9.63884E0,2.215849E1,9.441463E1,0E0,0E0,0E0,1.3333335E0,5.4821043E0,8.646069E0,6.2470093E0,6.6E0,7.8E0,7.9904785E0,1.114341E1,7.708121E1,0E0,0E0,0E0,0E0,0E0,0E0,2.1789398E0,5.866667E0,0E0,0E0,0E0,0E0,6.123169E0,0E0,0E0,1.0989011E1,2.989647E0,6.111444E1,0E0,0E0,0E0,0E0,0E0,0E0,0E0,0E0,0E0,0E0,0E0,0E0],"parents":[2147483647,0,0,1,1,2,2,3,3,4,4,5,5,6,6,7,7,8,8,9,9,10,10,14,14,15,15,16,16,17,17,18,18,19,19,20,20,21,21,22,22,29,29,30,30,35,35,38,38,39,39,40,40],"right_children":[2,4,6,8,10,12,14,16,18,20,22,-1,-1,-1,24,26,28,30,32,34,36,38,40,-1,-1,-1,-1,-1,-1,42,44,-1,-1,-1,-1,46,-1,-1,48,50,52,-1,-1,-1,-1,-1,-1,-1,-1,-1,-1,-1,-1],"split_conditions":[1.744916E-2,-2.3144914E-2,1.06210755E-2,-1.524351E-2,-8.414895E-3,-7.4882777E-3,-1.7124258E-2,-1.4871366E-2,8.137349E-3,-1.6552275E-2,-1.6363371E-2,-1.6363637E-1,-5.739131E-1,-4.4000003E-1,-1.9578396E-3,-9.543662E-3,3.5330236E-3,3.2564888E-3,3.6663553E-3,-2.5646144E-3,7.786355E-3,2.7234135E-3,-2.3541726E-2,4.0000004E-1,-0E0,1.20000005E-1,-4.7368425E-1,-1.6363637E-1,5.1111114E-1,-2.5120558E-2,-4.978893E-3,-3E-1,3.6E-1,-3E-1,4.5000002E-1,-4.9768195E-2,1.20000005E-1,-5.5789477E-1,-8.55383E-3,-8.790211E-3,3.116794E-2,-5.710843E-1,-2.4000001E-1,-4.0000004E-1,2.0000002E-1,6.666667E-2,-5.696203E-1,-4.2857146E-1,3E-1,-0E0,-5.4285717E-1,3.564576E-1,-1.6129033E-1],"split_indices":[280,259,272,140,126,96,75,32,156,247,58,0,0,0,12,1,141,12,34,111,94,243,184,0,0,0,0,0,0,259,11,0,0,0,0,90,0,0,80,8,136,0,0,0,0,0,0,0,0,0,0,0,0],"split_type":[0,0,0,0,0,0,0,0,0,0,0,0,0,0,0,0,0,0,0,0,0,0,0,0,0,0,0,0,0,0,0,0,0,0,0,0,0,0,0,0,0,0,0,0,0,0,0,0,0,0,0,0,0],"sum_hessian":[3.85E2,3.44E2,4.1E1,6.475E1,2.7925E2,3.525E1,5.75E0,1.275E1,5.2E1,2.55E1,2.5375E2,1.75E0,3.35E1,2.75E0,3E0,5.25E0,7.5E0,4.85E1,3.5E0,4E0,2.15E1,1.875E1,2.35E2,2E0,1E0,1.5E0,3.75E0,1.75E0,5.75E0,4.45E1,4E0,2E0,1.5E0,1E0,3E0,2E1,1.5E0,1.325E1,5.5E0,1.05E1,2.245E2,4.05E1,4E0,2E0,2E0,1.25E0,1.875E1,2.5E0,3E0,1E0,9.5E0,2.0225E2,2.225E1],"tree_param":{"num_deleted":"0","num_feature":"312","num_nodes":"53","size_leaf_vector":"1"}},{"base_weights":[-1.0683085E-2,-1.1051188E0,1.8074273E-1,-2.8301147E-1,-1.4845876E0,5.2879983E-1,-7.108436E-1,7.2871023E-1,-1.0661131E0,6.657312E-2,-1.5464301E0,6.712248E-1,-1.6653283E0,-2.8056395E-1,-1.4852629E0,-2.9837444E-1,1.1311866E0,-4.427862E-1,1.17806345E-1,-6.880406E-1,-1.6711695E0,8.339275E-1,-1.4656934E0,-1.4271156E-1,-5.206184E-1,-1.0124975E0,2.5359E-1,8.189229E-2,-1.5640564E0,4.367751E-1,-9.537316E-2,-4.682257E-1,2.5193945E-1,-1.4695285E-1,-5.103616E-1,9.4730353E-1,-1.0706034E0,-3.574478E-2,-4.703635E-1,4.7738995E-2,-1.3724124E0,8.699631E-1,-9.5502096E-1,-5.287567E-2,-1.6153829E0,3.3254126E-1,-1.3789591E-1,-4.070031E-1,1.1947637E-1,-2.7676383E-1,3.2833135E-1,9.442577E-3,-4.8224378E-1,-1.5987842E-1,3.7981954E-1,1.846805E-1,-4.227911E-1,-4.9521968E-1,-1.2487475E-1],"categories":[],"categories_nodes":[],"categories_segments":[],"categories_sizes":[],"default_left":[0,0,0,0,0,0,0,0,0,0,0,0,0,0,0,0,0,0,0,0,0,0,0,0,0,0,0,0,0,0,0,0,0,0,0,0,0,0,0,0,0,0,0,0,0,0,0,0,0,0,0,0,0,0,0,0,0,0,0],"id":1,"left_children":[1,3,5,7,9,11,13,15,17,-1,19,21,23,25,27,-1,29,-1,-1,31,33,35,37,-1,-1,39,41,-1,43,-1,-1,-1,-1,-1,-1,45,47,-1,-1,49,51,53,55,-1,57,-1,-1,-1,-1,-1,-1,-1,-1,-1,-1,-1,-1,-1,-1],"loss_changes":[7.757621E1,1.677626E1,9.8192795E1,1.5548095E1,4.2985E0,7.214288E1,2.9215832E1,7.179033E0,7.105625E0,0E0,2.7363434E0,7.5674995E1,3.531685E-1,2.3088783E1,4.794983E0,0E0,4.0127125E0,0E0,0E0,9.717329E0,2.6622772E-1,4.4119217E1,1.9477882E0,0E0,0E0,9.543762E0,2.6576952E1,0E0,1.8754272E0,0E0,0E0,0E0,0E0,0E0,0E0,4.335292E1,5.450551E0,0E0,0E0,8.384227E0,6.181202E0,1.3684137E1,9.536147E0,0E0,5.473099E-1,0E0,0E0,0E0,0E0,0E0,0E0,0E0,0E0,0E0,0E0,0E0,0E0,0E0,0E0],"parents":[2147483647,0,0,1,1,2,2,3,3,4,4,5,5,6,6,7,7,8,8,10,10,11,11,12,12,13,13,14,14,16,16,19,19,20,20,21,21,22,22,25,25,26,26,28,28,35,35,36,36,39,39,40,40,41,41,42,42,44,44],"right_children":[2,4,6,8,10,12,14,16,18,-1,20,22,24,26,28,-1,30,-1,-1,32,34,36,38,-1,-1,40,42,-1,44,-1,-1,-1,-1,-1,-1,46,48,-1,-1,50,52,54,56,-1,58,-1,-1,-1,-1,-1,-1,-1,-1,-1,-1,-1,-1,-1,-1],"split_conditions":[-3.073299E-2,-8.252413E-3,1.8482365E-2,5.5132467E-2,-3.016047E-2,1.564601E-2,1.6765127E-2,9.364077E-3,-6.4605735E-3,6.657312E-2,-4.3091842E-4,1.04932E-2,-4.3188133E-3,-2.1542372E-2,-1.054403E-2,-2.9837444E-1,2.7175969E-2,-4.427862E-1,1.17806345E-1,-4.0100957E-3,-2.068039E-2,4.5196537E-2,6.4200857E-3,-1.4271156E-1,-5.206184E-1,1.2362239E-2,3.4456558E-3,8.189229E-2,-1.6176973E-2,4.367751E-1,-9.537316E-2,-4.682257E-1,2.5193945E-1,-1.4695285E-1,-5.103616E-1,2.5120558E-2,3.305583E-3,-3.574478E-2,-4.703635E-1,1.5452069E-3,1.3932549E-2,-8.962834E-3,-3.3728646E-3,-5.287567E-2,2.622205E-4,3.3254126E-1,-1.3789591E-1,-4.070031E-1,1.1947637E-1,-2.7676383E-1,3.2833135E-1,9.442577E-3,-4.8224378E-1,-1.5987842E-1,3.7981954E-1,1.846805E-1,-4.227911E-1,-4.9521968E-1,-1.2487475E-1],"split_indices":[136,31,136,145,159,58,300,91,131,0,280,126,10,148,1,0,52,0,0,107,283,300,181,0,0,206,126,0,261,0,0,0,0,0,0,259,152,0,0,227,223,205,205,0,116,0,0,0,0,0,0,0,0,0,0,0,0,0,0],"split_type":[0,0,0,0,0,0,0,0,0,0,0,0,0,0,0,0,0,0,0,0,0,0,0,0,0,0,0,0,0,0,0,0,0,0,0,0,0,0,0,0,0,0,0,0,0,0,0,0,0,0,0,0,0,0,0,0,0,0,0],"sum_hessian":[3.6833304E2,5.412306E1,3.1421E2,1.7643904E1,3.6479156E1,2.2628128E2,8.7928696E1,7.7285385E0,9.915364E0,1.1852335E0,3.5293922E1,2.1314005E2,1.3141236E1,5.7399117E1,3.0529575E1,1.1847243E0,6.543814E0,7.731493E0,2.1838717E0,5.3048205E0,2.9989103E1,1.9862659E2,1.4513466E1,1.1641979E0,1.1977039E1,2.3838495E1,3.3560623E1,1.2037648E0,2.9325811E1,5.342009E0,1.2018051E0,3.362561E0,1.9422596E0,1.172749E0,2.8816353E1,1.8794112E2,1.0685465E1,1.1764735E0,1.3336992E1,6.2613077E0,1.7577187E1,2.2411366E1,1.1149259E1,1.2040396E0,2.812177E1,1.6881541E2,1.9125702E1,9.007538E0,1.6779273E0,3.3108132E0,2.9504948E0,2.6452255E0,1.4931962E1,4.8584733E0,1.755289E1,2.4216418E0,8.727616E0,2.695069E1,1.1710823E0],"tree_param":{"num_deleted":"0","num_feature":"312","num_nodes":"59","size_leaf_vector":"1"}},{"base_weights":[-2.1819832E-2,-1.285458E0,1.0271395E-1,1.0766608E-1,-1.3724251E0,-1.0278357E0,2.7726075E-1,-1.4522953E0,1.6299356E-2,-4.795857E-2,-1.2716259E0,4.956725E-1,-8.5293067E-1,1.1530257E-2,-1.5132449E0,8.3102435E-1,-9.631068E-1,-3.7029218E-2,-1.3080268E0,6.7556626E-1,-7.7884E-1,-2.483965E-1,-1.3179168E0,-4.728515E-1,-6.939557E-1,3.6848617E-1,-9.5148705E-2,-2.7770901E-2,-3.492466E-1,-6.334382E-2,-1.3457756E0,-7.326662E-1,8.1778556E-1,-1.1465685E0,3.9614865E-1,1.1887024E-1,-3.803161E-1,-4.3231204E-1,5.1569127E-2,-1.3031716E-2,-2.7697283E-1,-4.1183788E-1,-1.4430535E-1,2.5763008E-1,-3.421871E-1,-4.826707E-1,2.6190156E-1,9.587807E-2,-3.7769243E-1,3.6501107E-1,-2.6727718E-1,2.7099776E-1,-2.7289551E-1],"categories":[],"categories_nodes":[],"categories_segments":[],"categories_sizes":[],"default_left":[0,0,0,0,0,0,0,0,0,0,0,0,0,0,0,0,0,0,0,0,0,0,0,0,0,0,0,0,0,0,0,0,0,0,0,0,0,0,0,0,0,0,0,0,0,0,0,0,0,0,0,0,0],"id":2,"left_children":[1,3,5,-1,7,9,11,13,-1,15,17,19,21,-1,23,25,27,-1,29,31,33,35,37,-1,39,-1,-1,-1,-1,-1,41,43,45,47,49,51,-1,-1,-1,-1,-1,-1,-1,-1,-1,-1,-1,-1,-1,-1,-1,-1,-1],"loss_changes":[5.3609474E1,4.862789E0,6.1511543E1,0E0,3.4100914E0,9.902538E0,6.696295E1,2.5766792E0,0E0,8.320498E0,1.2328339E0,5.2465714E1,1.204776E1,0E0,2.8040695E-1,2.8095326E0,7.749214E-1,0E0,1.0503807E0,4.046486E1,1.2761717E1,7.7772903E0,4.7696E0,0E0,5.099554E-1,0E0,0E0,0E0,0E0,0E0,6.32782E-2,1.3176107E1,2.5694328E1,4.020109E0,9.039592E0,1.3642596E1,0E0,0E0,0E0,0E0,0E0,0E0,0E0,0E0,0E0,0E0,0E0,0E0,0E0,0E0,0E0,0E0,0E0],"parents":[2147483647,0,0,1,1,2,2,4,4,5,5,6,6,7,7,9,9,10,10,11,11,12,12,14,14,15,15,16,16,18,18,19,19,20,20,21,21,22,22,24,24,30,30,31,31,32,32,33,33,34,34,35,35],"right_children":[2,4,6,-1,8,10,12,14,-1,16,18,20,22,-1,24,26,28,-1,30,32,34,36,38,-1,40,-1,-1,-1,-1,-1,42,44,46,48,50,52,-1,-1,-1,-1,-1,-1,-1,-1,-1,-1,-1,-1,-1,-1,-1,-1,-1],"split_conditions":[-4.6539813E-2,-8.248668E-3,-1.5342356E-2,1.0766608E-1,3.055158E-2,-5.8644253E-4,4.4265065E-2,-7.739898E-2,1.6299356E-2,1.0485664E-2,-7.50113E-3,9.804373E-3,-4.0340675E-3,1.1530257E-2,-1.1344965E-2,-2.1880206E-3,-1.3205599E-2,-3.7029218E-2,-2.071233E-2,-1.1596127E-2,-1.2621407E-3,2.2098871E-2,8.109292E-3,-4.728515E-1,5.8280337E-3,3.6848617E-1,-9.5148705E-2,-2.7770901E-2,-3.492466E-1,-6.334382E-2,1.2260963E-2,1.3292015E-2,-1.1529687E-2,-8.524944E-3,-1.5925226E-3,2.664424E-2,-3.803161E-1,-4.3231204E-1,5.1569127E-2,-1.3031716E-2,-2.7697283E-1,-4.1183788E-1,-1.4430535E-1,2.5763008E-1,-3.421871E-1,-4.826707E-1,2.6190156E-1,9.587807E-2,-3.7769243E-1,3.6501107E-1,-2.6727718E-1,2.7099776E-1,-2.7289551E-1],"split_indices":[300,236,280,0,172,126,301,275,0,93,193,131,225,0,144,218,5,0,208,58,127,289,272,0,221,0,0,0,0,0,65,249,50,0,185,259,0,0,0,0,0,0,0,0,0,0,0,0,0,0,0,0,0],"split_type":[0,0,0,0,0,0,0,0,0,0,0,0,0,0,0,0,0,0,0,0,0,0,0,0,0,0,0,0,0,0,0,0,0,0,0,0,0,0,0,0,0,0,0,0,0,0,0,0,0,0,0,0,0],"sum_hessian":[3.388292E2,2.9560286E1,3.0926892E2,1.3278103E0,2.8232475E1,4.070857E1,2.6856036E2,2.671885E1,1.5136272E0,8.348753E0,3.2359818E1,2.2553642E2,4.3023933E1,1.0640212E0,2.5654827E1,4.30541E0,4.043343E0,1.1292964E0,3.123052E1,1.9805191E2,2.7484514E1,1.9372154E1,2.3651777E1,2.2966984E1,2.6878424E0,3.1468606E0,1.1585494E0,1.0326062E0,3.0107365E0,1.2583916E0,2.997213E1,1.7786018E1,1.8026588E2,2.095161E1,6.5329027E0,1.4890447E1,4.4817085E0,2.1876562E1,1.7752155E0,1.0104678E0,1.6773746E0,2.8494402E1,1.4777272E0,3.403602E0,1.4382416E1,3.384703E0,1.7688118E2,1.3606646E0,1.9590946E1,4.0228596E0,2.5100434E0,8.516568E0,6.373878E0],"tree_param":{"num_deleted":"0","num_feature":"312","num_nodes":"53","size_leaf_vector":"1"}},{"base_weights":[-3.0099493E-2,-1.0115818E0,9.215623E-2,4.2916417E-1,-1.1301899E0,2.6205727E-1,-8.222032E-1,2.5032133E-1,-7.005625E-2,-1.1862428E0,8.654882E-2,-1.1244795E0,3.880617E-1,5.0812952E-2,-1.1724383E0,-1.3254049E0,-7.165797E-1,2.574861E-1,-3.856576E-1,5.064055E-1,-9.696627E-1,-3.3045778E-1,6.7382056E-1,-2.1395381E-1,-1.3686804E0,-7.13243E-2,-1.3736856E0,4.039127E-1,-3.574885E-1,-3.6877963E-1,7.365646E-1,-1.1406224E0,1.5342866E-1,1.061339E0,-2.0107883E-1,6.001392E-1,-3.0869254E-1,6.626715E-2,-4.3406263E-1,-4.4726306E-1,-2.4809895E-1,2.3289369E-1,-4.0933926E-2,1.7115082E-1,-2.5024825E-1,-2.862078E-1,2.4771535E-1,1.2875481E-1,-3.8630977E-1,3.950639E-1,-6.526683E-2,-5.3235047E-2,2.939515E-1],"categories":[],"categories_nodes":[],"categories_segments":[],"categories_sizes":[],"default_left":[0,0,0,0,0,0,0,0,0,0,0,0,0,0,0,0,0,0,0,0,0,0,0,0,0,0,0,0,0,0,0,0,0,0,0,0,0,0,0,0,0,0,0,0,0,0,0,0,0,0,0,0,0],"id":3,"left_children":[1,3,5,7,9,11,13,-1,-1,15,-1,17,19,21,23,25,27,-1,-1,29,31,-1,33,35,37,-1,39,41,-1,43,45,47,-1,49,-1,51,-1,-1,-1,-1,-1,-1,-1,-1,-1,-1,-1,-1,-1,-1,-1,-1,-1],"loss_changes":[3.719877E1,6.3524857E0,4.30764E1,1.0908415E0,2.8868675E0,4.121779E1,1.3352306E1,0E0,0E0,1.0749931E0,0E0,7.394602E0,3.499212E1,1.036646E1,5.5509872E0,8.665428E-1,5.409214E0,0E0,0E0,4.0188E1,5.0292473E0,0E0,5.566737E0,4.907257E0,3.5019875E0,0E0,1.4743042E-1,8.108857E-1,0E0,1.8803938E1,2.4486397E1,4.2585335E0,0E0,2.7776928E0,0E0,1.3153368E0,0E0,0E0,0E0,0E0,0E0,0E0,0E0,0E0,0E0,0E0,0E0,0E0,0E0,0E0,0E0,0E0,0E0],"parents":[2147483647,0,0,1,1,2,2,3,3,4,4,5,5,6,6,9,9,11,11,12,12,13,13,14,14,15,15,16,16,19,19,20,20,22,22,23,23,24,24,26,26,27,27,29,29,30,30,31,31,33,33,35,35],"right_children":[2,4,6,8,10,12,14,-1,-1,16,-1,18,20,22,24,26,28,-1,-1,30,32,-1,34,36,38,-1,40,42,-1,44,46,48,-1,50,-1,52,-1,-1,-1,-1,-1,-1,-1,-1,-1,-1,-1,-1,-1,-1,-1,-1,-1],"split_conditions":[-1.0483923E-2,-3.54464E-2,1.1596127E-2,-8.089917E-3,1.2995888E-2,-4.0752653E-2,4.17463E-3,2.5032133E-1,-7.005625E-2,4.596048E-3,8.654882E-2,-1.4957145E-2,4.6539813E-2,-7.5537967E-3,-1.1695403E-2,-3.8585767E-2,4.3387436E-3,2.574861E-1,-3.856576E-1,-1.9670052E-2,4.7486536E-3,-3.3045778E-1,-6.874849E-4,1.6131224E-2,-1.1597835E-2,-7.13243E-2,7.3658912E-3,2.8468561E-3,-3.574885E-1,-8.99058E-3,-4.754887E-2,-6.7746495E-3,1.5342866E-1,1.5617554E-2,-2.0107883E-1,-3.0142933E-3,-3.0869254E-1,6.626715E-2,-4.3406263E-1,-4.4726306E-1,-2.4809895E-1,2.3289369E-1,-4.0933926E-2,1.7115082E-1,-2.5024825E-1,-2.862078E-1,2.4771535E-1,1.2875481E-1,-3.8630977E-1,3.950639E-1,-6.526683E-2,-5.3235047E-2,2.939515E-1],"split_indices":[131,260,58,51,165,262,32,0,0,1,0,102,300,152,298,78,229,0,0,136,200,0,129,58,17,0,221,265,0,31,181,310,0,295,0,280,0,0,0,0,0,0,0,0,0,0,0,0,0,0,0,0,0],"split_type":[0,0,0,0,0,0,0,0,0,0,0,0,0,0,0,0,0,0,0,0,0,0,0,0,0,0,0,0,0,0,0,0,0,0,0,0,0,0,0,0,0,0,0,0,0,0,0,0,0,0,0,0,0],"sum_hessian":[3.0823392E2,3.333584E1,2.7489807E2,2.3364441E0,3.0999395E1,2.3242381E2,4.2474266E1,1.2890481E0,1.047396E0,2.9978765E1,1.0206296E0,1.870227E1,2.1372154E2,1.2405791E1,3.0068472E1,2.1720814E1,8.257953E0,1.0797033E0,1.7622568E1,1.9716316E2,1.6558374E1,4.0839267E0,8.321865E0,5.465272E0,2.46032E1,1.1749976E0,2.0545816E1,2.5032668E0,5.754686E0,4.092868E1,1.5623448E2,1.5050949E1,1.5074257E0,6.6227837E0,1.6990813E0,2.8660944E0,2.5991778E0,1.0679859E0,2.3535215E1,1.5496747E1,5.049069E0,1.2234447E0,1.2798221E0,1.3485305E1,2.7443375E1,7.3403497E0,1.4889413E2,1.1250278E0,1.3925921E1,5.4950895E0,1.1276942E0,1.1151088E0,1.7509855E0],"tree_param":{"num_deleted":"0","num_feature":"312","num_nodes":"53","size_leaf_vector":"1"}},{"base_weights":[-3.36665E-2,8.942083E-2,-8.7127477E-1,-1.0631044E0,2.1887808E-1,-1.2193248E0,-1.0970099E-2,-1.1741017E0,1.2842959E-1,-4.7666925E-1,3.8068864E-1,-1.2599924E0,-4.8405517E-2,5.658225E-1,-3.8109544E-1,1.6647099E-2,-1.2440611E0,-4.7243517E-2,-1.0027273E0,5.4395336E-1,-6.2613845E-1,-3.89768E-1,-6.940213E-2,-2.89869E-1,9.3079704E-1,-1.163542E-2,-3.90281E-1,6.4189756E-1,-5.53479E-1,-1.1216116E0,8.4456965E-2,-3.6078918E-1,6.196025E-1,-1.2080722E0,1.2080857E-1,-7.903334E-2,3.5433394E-1,-2.2232722E-1,2.854684E-1,7.559233E-3,-3.2905564E-1,5.344884E-2,-3.6581787E-1,2.177558E-1,-1.0533489E-1,1.50153665E-2,-3.937123E-1,1.2948003E-1,-2.7832586E-1],"categories":[],"categories_nodes":[],"categories_segments":[],"categories_sizes":[],"default_left":[0,0,0,0,0,0,0,0,0,0,0,0,0,0,0,0,0,0,0,0,0,0,0,0,0,0,0,0,0,0,0,0,0,0,0,0,0,0,0,0,0,0,0,0,0,0,0,0,0],"id":4,"left_children":[1,3,5,7,9,11,13,15,-1,17,19,21,-1,23,-1,-1,25,27,29,31,33,-1,-1,-1,35,-1,-1,37,39,41,-1,-1,43,45,47,-1,-1,-1,-1,-1,-1,-1,-1,-1,-1,-1,-1,-1,-1],"loss_changes":[2.8797482E1,3.660528E1,1.0701235E1,4.605545E0,2.4940832E1,8.924408E-1,8.93853E0,2.0766068E0,0E0,9.43228E0,2.976912E1,6.832886E-1,0E0,5.6260138E0,0E0,0E0,1.4661827E0,8.781517E0,3.1876621E0,2.1169872E1,1.1206198E1,0E0,0E0,0E0,2.504208E0,0E0,0E0,5.284047E0,4.574835E0,2.4308586E0,0E0,0E0,1.5604584E1,1.9544334E0,4.3278937E0,0E0,0E0,0E0,0E0,0E0,0E0,0E0,0E0,0E0,0E0,0E0,0E0,0E0,0E0],"parents":[2147483647,0,0,1,1,2,2,3,3,4,4,5,5,6,6,7,7,9,9,10,10,11,11,13,13,16,16,17,17,18,18,19,19,20,20,24,24,27,27,28,28,29,29,32,32,33,33,34,34],"right_children":[2,4,6,8,10,12,14,16,-1,18,20,22,-1,24,-1,-1,26,28,30,32,34,-1,-1,-1,36,-1,-1,38,40,42,-1,-1,44,46,48,-1,-1,-1,-1,-1,-1,-1,-1,-1,-1,-1,-1,-1,-1],"split_conditions":[7.4450034E-3,-2.3668155E-2,6.1159474E-3,1.3187271E-2,-1.4758642E-2,2.0672148E-2,-1.8272226E-3,-1.0398514E-2,1.2842959E-1,-5.820641E-4,2.6251484E-2,5.307606E-2,-4.8405517E-2,-1.8445168E-2,-3.8109544E-1,1.6647099E-2,-3.0748818E-2,7.343225E-3,2.4724498E-2,-1.5396621E-2,6.055155E-3,-3.89768E-1,-6.940213E-2,-2.89869E-1,-4.7953177E-2,-1.163542E-2,-3.90281E-1,-7.744318E-3,3.8451338E-3,-5.052474E-3,8.4456965E-2,-3.6078918E-1,7.2488044E-3,1.9281702E-3,-1.1706334E-3,-7.903334E-2,3.5433394E-1,-2.2232722E-1,2.854684E-1,7.559233E-3,-3.2905564E-1,5.344884E-2,-3.6581787E-1,2.177558E-1,-1.0533489E-1,1.50153665E-2,-3.937123E-1,1.2948003E-1,-2.7832586E-1],"split_indices":[126,205,247,162,148,308,138,156,0,129,307,212,0,65,0,0,191,295,204,203,144,0,0,0,277,0,0,59,65,272,0,0,50,187,31,0,0,0,0,0,0,0,0,0,0,0,0,0,0],"split_type":[0,0,0,0,0,0,0,0,0,0,0,0,0,0,0,0,0,0,0,0,0,0,0,0,0,0,0,0,0,0,0,0,0,0,0,0,0,0,0,0,0,0,0,0,0,0,0,0,0],"sum_hessian":[2.7756314E2,2.4277968E2,3.4783463E1,2.3788109E1,2.1899156E2,2.4467447E1,1.0316014E1,2.2338032E1,1.4500775E0,4.0963394E1,1.7802817E2,2.3377872E1,1.0895737E0,7.453121E0,2.8628936E0,1.2136682E0,2.1124363E1,2.3153112E1,1.781028E1,1.5358322E2,2.4444958E1,2.2265593E1,1.1122798E0,1.1169816E0,6.336139E0,1.0277038E0,2.009666E1,9.691729E0,1.3461384E1,1.6417168E1,1.3931128E0,5.7574763E0,1.4782574E2,1.3393199E1,1.1051759E1,1.0888519E0,5.2472873E0,1.5181798E0,8.173549E0,6.980734E0,6.48065E0,1.0911258E0,1.5326042E1,1.3346913E2,1.4356616E1,1.0651531E0,1.2328046E1,8.978838E0,2.0729215E0],"tree_param":{"num_deleted":"0","num_feature":"312","num_nodes":"49","size_leaf_vector":"1"}},{"base_weights":[-4.0778533E-2,1.0987094E-1,-5.987411E-1,-5.5087566E-1,3.5550898E-1,-1.1395328E0,1.7460603E-1,2.1427241E-1,-1.0968368E0,-6.678521E-1,4.8166862E-1,-1.203585E0,8.1816845E-2,-6.7818123E-1,5.6100005E-1,5.73515E-1,-6.2344646E-1,-1.1770027E0,1.3113123E-1,-1.1412123E0,2.1885037E-1,-3.4734777E-1,6.7621434E-1,-1.2765208E0,-5.163628E-1,-9.6692336E-1,1.7811981E-1,-4.3522584E-1,7.56073E-1,8.9869547E-1,-2.5272235E-1,-1.1246535E0,3.9218512E-1,-1.210601E0,-4.5891613E-2,1.1823475E-1,-1.3824786E0,-2.032076E-1,7.633655E-1,5.564945E-1,-7.414863E-1,-7.102798E-1,7.484389E-1,-8.087108E-2,-3.922771E-1,-2.7171218E-1,5.7755396E-2,-1.2651347E0,5.9729535E-2,7.3376276E-2,-2.5485E-1,-1.7381357E-1,9.1458184E-1,-1.2568405E-1,3.187231E-1,1.5365262E-1,-2.8005645E-1,-4.0548643E-1,-4.158529E-2,2.4573873E-1,-8.059416E-2,-3.7325263E-1,-6.562319E-2,-2.8698523E-2,-4.6866265E-1,6.419646E-2,2.7241057E-1,3.0188826E-1,-2.1284784E-1,5.297205E-2,-2.9410392E-1,-3.2388926E-1,8.43766E-2,-7.760144E-2,2.601169E-1,-1.1279372E-1,-4.2002636E-1,3.1670323E-1,1.2064598E-2],"categories":[],"categories_nodes":[],"categories_segments":[],"categories_sizes":[],"default_left":[0,0,0,0,0,0,0,0,0,0,0,0,0,0,0,0,0,0,0,0,0,0,0,0,0,0,0,0,0,0,0,0,0,0,0,0,0,0,0,0,0,0,0,0,0,0,0,0,0,0,0,0,0,0,0,0,0,0,0,0,0,0,0,0,0,0,0,0,0,0,0,0,0,0,0,0,0,0,0],"id":5,"left_children":[1,3,5,7,9,11,13,15,17,19,21,23,-1,25,27,29,31,33,-1,35,37,39,41,43,45,47,-1,49,51,53,55,57,59,61,-1,-1,63,-1,65,67,69,71,73,-1,-1,-1,-1,75,-1,-1,-1,-1,77,-1,-1,-1,-1,-1,-1,-1,-1,-1,-1,-1,-1,-1,-1,-1,-1,-1,-1,-1,-1,-1,-1,-1,-1,-1,-1],"loss_changes":[2.1241398E1,3.2528122E1,2.2662724E1,2.2951447E1,1.9149124E1,3.1995583E0,7.949649E0,7.4239383E0,4.4370193E0,7.1432476E0,2.1266762E1,8.720856E-1,0E0,3.3708768E0,3.5075445E0,4.782344E0,4.272311E0,8.671112E-1,0E0,4.5707674E0,3.716016E0,9.477608E0,1.1142166E1,4.9030685E-1,1.4468429E0,2.5422773E0,0E0,1.1407728E0,3.5024595E0,3.11689E0,3.3779855E0,9.9832535E-1,1.1309054E0,7.0918655E-1,0E0,0E0,2.074152E0,0E0,1.6714716E-1,5.439274E0,4.15277E0,2.412859E0,1.2313614E1,0E0,0E0,0E0,0E0,1.1932564E-1,0E0,0E0,0E0,0E0,1.5540152E0,0E0,0E0,0E0,0E0,0E0,0E0,0E0,0E0,0E0,0E0,0E0,0E0,0E0,0E0,0E0,0E0,0E0,0E0,0E0,0E0,0E0,0E0,0E0,0E0,0E0,0E0],"parents":[2147483647,0,0,1,1,2,2,3,3,4,4,5,5,6,6,7,7,8,8,9,9,10,10,11,11,13,13,14,14,15,15,16,16,17,17,19,19,20,20,21,21,22,22,23,23,24,24,25,25,27,27,28,28,29,29,30,30,31,31,32,32,33,33,36,36,38,38,39,39,40,40,41,41,42,42,47,47,52,52],"right_children":[2,4,6,8,10,12,14,16,18,20,22,24,-1,26,28,30,32,34,-1,36,38,40,42,44,46,48,-1,50,52,54,56,58,60,62,-1,-1,64,-1,66,68,70,72,74,-1,-1,-1,-1,76,-1,-1,-1,-1,78,-1,-1,-1,-1,-1,-1,-1,-1,-1,-1,-1,-1,-1,-1,-1,-1,-1,-1,-1,-1,-1,-1,-1,-1,-1,-1],"split_conditions":[4.780198E-3,-4.780198E-3,2.7033312E-3,-2.8039885E-3,-7.4895206E-3,1.4851889E-2,-2.4725609E-3,2.4725609E-3,9.845372E-2,-1.2004802E-3,-7.880714E-3,1.0602138E-2,8.1816845E-2,7.492677E-3,-6.4200363E-3,3.4686323E-2,1.3830635E-2,1.02855405E-2,1.3113123E-1,-2.2685671E-2,-8.276145E-3,-1.1070465E-2,-2.5344271E-2,-8.497482E-3,-2.2644334E-2,-4.4256956E-3,1.7811981E-1,3.2558064E-3,-2.9517319E-2,-8.715272E-3,2.589254E-2,-6.578895E-3,1.7482506E-2,3.69381E-3,-4.5891613E-2,1.1823475E-1,-4.9271164E-3,-2.032076E-1,-1.5690573E-2,2.7916612E-2,-1.2297585E-2,1.0189002E-2,-2.9455697E-2,-8.087108E-2,-3.922771E-1,-2.7171218E-1,5.7755396E-2,-3.128144E-2,5.9729535E-2,7.3376276E-2,-2.5485E-1,-1.7381357E-1,1.5571112E-2,-1.2568405E-1,3.187231E-1,1.5365262E-1,-2.8005645E-1,-4.0548643E-1,-4.158529E-2,2.4573873E-1,-8.059416E-2,-3.7325263E-1,-6.562319E-2,-2.8698523E-2,-4.6866265E-1,6.419646E-2,2.7241057E-1,3.0188826E-1,-2.1284784E-1,5.297205E-2,-2.9410392E-1,-3.2388926E-1,8.43766E-2,-7.760144E-2,2.601169E-1,-1.1279372E-1,-4.2002636E-1,3.1670323E-1,1.2064598E-2],"split_indices":[126,126,247,247,107,230,2,2,269,63,98,233,0,144,50,254,25,54,0,145,65,297,253,129,147,184,0,36,167,20,167,125,81,205,0,0,270,0,173,85,310,209,70,0,0,0,0,79,0,0,0,0,148,0,0,0,0,0,0,0,0,0,0,0,0,0,0,0,0,0,0,0,0,0,0,0,0,0,0],"split_type":[0,0,0,0,0,0,0,0,0,0,0,0,0,0,0,0,0,0,0,0,0,0,0,0,0,0,0,0,0,0,0,0,0,0,0,0,0,0,0,0,0,0,0,0,0,0,0,0,0,0,0,0,0,0,0,0,0,0,0,0,0,0,0,0,0,0,0,0,0,0,0,0,0,0,0,0,0,0,0],"sum_hessian":[2.5092036E2,1.9820755E2,5.2712803E1,5.3379192E1,1.4482837E2,3.074189E1,2.1970913E1,2.2480701E1,3.089849E1,1.5423646E1,1.2940472E2,2.9549446E1,1.192445E0,6.6153693E0,1.5355544E1,1.5954325E1,6.5263762E0,2.958503E1,1.3134611E0,9.868423E0,5.5552225E0,2.4446325E1,1.049584E2,2.5938997E1,3.6104474E0,5.5868626E0,1.0285068E0,2.3128526E0,1.3042691E1,1.1385615E1,4.5687094E0,4.2979994E0,2.2283764E0,2.846878E1,1.1162496E0,1.2541226E0,8.614302E0,2.007365E0,3.5478575E0,7.2981687E0,1.7148155E1,4.759328E0,1.00199066E2,1.0660195E0,2.4872978E1,2.151244E0,1.4592035E0,4.3813314E0,1.2055311E0,1.0308512E0,1.2820014E0,1.1021124E0,1.1940578E1,1.0860059E0,1.0299609E1,2.2681081E0,2.3006012E0,3.1924028E0,1.1055968E0,1.2082324E0,1.0201441E0,2.7290602E1,1.178179E0,1.2434939E0,7.370807E0,1.2562917E0,2.291566E0,5.5362825E0,1.7618861E0,3.594281E0,1.3553875E1,3.4028893E0,1.3564385E0,1.04335165E1,8.976555E1,1.0762597E0,3.3050718E0,1.0102919E1,1.83766E0],"tree_param":{"num_deleted":"0","num_feature":"312","num_nodes":"79","size_leaf_vector":"1"}},{"base_weights":[-4.2342562E-2,3.1364176E-2,-1.0159845E0,-4.9910614E-1,1.90003E-1,-1.3180324E0,-3.1569317E-1,-8.659186E-1,8.024683E-2,3.212707E-1,-6.023256E-1,-4.3008378E-1,-3.4256168E-2,1.6267756E-1,-2.58945E-1,-9.469045E-1,1.3102308E-1,-1.0970591E0,3.19179E-1,-5.7599443E-1,4.945181E-1,-1.1528957E0,-1.3487944E-1,-1.143541E0,-2.6145542E-1,-3.9872015E-1,-8.954638E-2,5.983214E-1,-7.939119E-1,-9.549241E-1,6.5627825E-1,-5.4451025E-1,6.3580215E-1,-3.6636703E-2,-3.781199E-1,-8.470018E-1,1.9282112E-1,-3.7401313E-1,2.7864248E-2,1.8444441E-1,-3.567868E-1,-1.3209642E-1,2.639008E-1,-3.0951548E-1,-2.5528936E-2,-3.201394E-1,1.4156154E-1,2.8289846E-1,-1.0103451E-1,3.9150015E-2,-3.4542388E-1,-2.3823383E-1,2.1169205E-1,-1.5150906E-2,-3.17649E-1,-2.2179787E-1,1.4758743E-1],"categories":[],"categories_nodes":[],"categories_segments":[],"categories_sizes":[],"default_left":[0,0,0,0,0,0,0,0,0,0,0,0,0,0,0,0,0,0,0,0,0,0,0,0,0,0,0,0,0,0,0,0,0,0,0,0,0,0,0,0,0,0,0,0,0,0,0,0,0,0,0,0,0,0,0,0,0],"id":6,"left_children":[1,3,5,7,9,11,13,15,17,19,21,-1,-1,-1,-1,23,-1,25,27,29,31,33,35,37,39,-1,-1,41,43,45,47,49,51,-1,-1,53,55,-1,-1,-1,-1,-1,-1,-1,-1,-1,-1,-1,-1,-1,-1,-1,-1,-1,-1,-1,-1],"loss_changes":[1.6123766E1,1.7718475E1,2.9281216E0,1.03736E1,1.7036074E1,1.3294239E0,3.3234353E0,3.554638E0,5.895266E0,2.1981339E1,5.857337E0,0E0,0E0,0E0,0E0,3.5217476E0,0E0,2.612152E-1,5.807314E0,1.1389731E1,1.7598404E1,1.0201693E0,3.3762639E0,2.8878803E0,6.9229183E0,0E0,0E0,4.5634403E0,5.646453E-1,3.391096E0,2.029832E0,6.1339483E0,1.0937759E1,0E0,0E0,7.098918E-1,3.2200356E0,0E0,0E0,0E0,0E0,0E0,0E0,0E0,0E0,0E0,0E0,0E0,0E0,0E0,0E0,0E0,0E0,0E0,0E0,0E0,0E0],"parents":[2147483647,0,0,1,1,2,2,3,3,4,4,5,5,6,6,7,7,8,8,9,9,10,10,15,15,17,17,18,18,19,19,20,20,21,21,22,22,23,23,24,24,27,27,28,28,29,29,30,30,31,31,32,32,35,35,36,36],"right_children":[2,4,6,8,10,12,14,16,18,20,22,-1,-1,-1,-1,24,-1,26,28,30,32,34,36,38,40,-1,-1,42,44,46,48,50,52,-1,-1,54,56,-1,-1,-1,-1,-1,-1,-1,-1,-1,-1,-1,-1,-1,-1,-1,-1,-1,-1,-1,-1],"split_conditions":[9.431117E-3,-8.112897E-3,3.1858366E-2,-5.878684E-3,1.0732811E-2,9.804111E-3,1.5396621E-2,7.6679992E-3,-1.2229244E-2,-3.0732257E-2,-1.716631E-2,-4.3008378E-1,-3.4256168E-2,1.6267756E-1,-2.58945E-1,1.02069145E-2,1.3102308E-1,2.8399993E-2,8.702651E-3,6.2016845E-3,-7.4450034E-3,-8.5330065E-3,3.337408E-4,7.0621814E-3,1.5754238E-3,-3.9872015E-1,-8.954638E-2,-9.03123E-3,6.5094535E-3,7.097887E-3,-1.7994886E-3,2.3977517E-3,-1.3503746E-2,-3.6636703E-2,-3.781199E-1,-3.6261943E-3,-1.1583203E-2,-3.7401313E-1,2.7864248E-2,1.8444441E-1,-3.567868E-1,-1.3209642E-1,2.639008E-1,-3.0951548E-1,-2.5528936E-2,-3.201394E-1,1.4156154E-1,2.8289846E-1,-1.0103451E-1,3.9150015E-2,-3.4542388E-1,-2.3823383E-1,2.1169205E-1,-1.5150906E-2,-3.17649E-1,-2.2179787E-1,1.4758743E-1],"split_indices":[50,58,212,32,139,288,203,226,238,300,143,0,0,0,0,298,0,94,92,1,126,37,234,200,309,0,0,280,0,164,152,243,95,0,0,95,119,0,0,0,0,0,0,0,0,0,0,0,0,0,0,0,0,0,0,0,0],"split_type":[0,0,0,0,0,0,0,0,0,0,0,0,0,0,0,0,0,0,0,0,0,0,0,0,0,0,0,0,0,0,0,0,0,0,0,0,0,0,0,0,0,0,0,0,0,0,0,0,0,0,0,0,0,0,0,0,0],"sum_hessian":[2.2323367E2,2.0842337E2,1.4810299E1,4.7486774E1,1.609366E2,9.731021E0,5.079278E0,2.877408E1,1.8712694E1,1.3857324E2,2.2363361E1,8.704452E0,1.026569E0,1.982259E0,3.0970192E0,2.7347029E1,1.4270513E0,2.5510805E0,1.6161613E1,2.2049913E1,1.1652332E2,9.595346E0,1.2768015E1,2.073144E1,6.6155896E0,1.4620165E0,1.0890639E0,1.3290958E1,2.8706555E0,1.7036255E1,5.0136576E0,1.3606278E1,1.02917046E2,1.1079572E0,8.48739E0,3.5244315E0,9.243584E0,1.9127113E1,1.6043259E0,3.5758398E0,3.0397499E0,2.7124503E0,1.0578508E1,1.8083909E0,1.0622647E0,1.6027857E1,1.0083971E0,3.929536E0,1.0841216E0,6.8133245E0,6.7929544E0,4.3095384E0,9.8607506E1,1.0005734E0,2.523858E0,1.8881979E0,7.355386E0],"tree_param":{"num_deleted":"0","num_feature":"312","num_nodes":"57","size_leaf_vector":"1"}},{"base_weights":[-5.028713E-2,-6.499873E-1,5.3364832E-2,-1.2547338E0,-4.2858794E-1,-5.390374E-1,1.9239137E-1,-8.77012E-2,-4.0940243E-1,-8.502281E-1,1.0993296E-1,-1.2199835E0,-1.6454887E-1,3.5354847E-1,-4.9588424E-1,-1.0276276E0,-2.2375773E-1,4.985915E-1,-6.5323466E-1,-8.233756E-2,-3.9788637E-1,3.4859502E-1,-7.0734876E-1,-5.779561E-1,4.594779E-1,5.834894E-1,-7.2454697E-1,-8.009125E-2,-3.4892744E-1,1.5987249E-1,-2.2439237E-1,8.1174654E-1,-2.1385455E-1,7.693983E-2,-3.072201E-1,7.1165013E-1,-2.6176283E-1,1.20847434E-1,-9.450478E-1,1.6365972E-1,-1.1777478E0,6.979416E-1,-4.1503247E-2,2.7497834E-1,-1.2093831E-1,-1.8964626E-1,-1.0503372E0,2.8808287E-1,-1.4525079E-3,2.7992672E-1,-1.16205335E-1,-3.5934293E-1,3.648929E-3,-2.862386E-1,1.8842216E-1,-1.3979455E-3,-4.1711769E-1,2.7396318E-1,-7.5635545E-2,-2.6892665E-1,1.1310836E-1,-2.8207755E-1,1.2039481E-1,1.3611559E-3,-3.402759E-1],"categories":[],"categories_nodes":[],"categories_segments":[],"categories_sizes":[],"default_left":[0,0,0,0,0,0,0,0,0,0,0,0,0,0,0,0,0,0,0,0,0,0,0,0,0,0,0,0,0,0,0,0,0,0,0,0,0,0,0,0,0,0,0,0,0,0,0,0,0,0,0,0,0,0,0,0,0,0,0,0,0,0,0,0,0],"id":7,"left_children":[1,3,5,7,9,11,13,-1,-1,15,17,19,21,23,25,27,29,31,33,-1,-1,35,37,39,41,43,45,-1,-1,-1,-1,47,-1,-1,-1,49,-1,-1,51,53,55,57,59,-1,-1,61,63,-1,-1,-1,-1,-1,-1,-1,-1,-1,-1,-1,-1,-1,-1,-1,-1,-1,-1],"loss_changes":[1.2569468E1,3.4512625E0,1.4340389E1,3.9095592E-1,5.3903008E0,8.244927E0,1.5786331E1,0E0,0E0,1.2368479E0,3.6268377E0,8.014946E-1,6.520271E0,1.1575799E1,7.1158185E0,7.206478E-1,2.060972E0,3.5913038E0,1.6755394E0,0E0,0E0,6.051036E0,3.3562288E0,5.595778E0,1.2390795E1,2.109531E0,3.7781477E0,0E0,0E0,0E0,0E0,8.26694E-1,0E0,0E0,0E0,2.7930932E0,0E0,0E0,2.3339062E0,3.8744822E0,1.699131E0,1.4579674E1,1.2615812E1,0E0,0E0,4.750859E0,1.2412434E0,0E0,0E0,0E0,0E0,0E0,0E0,0E0,0E0,0E0,0E0,0E0,0E0,0E0,0E0,0E0,0E0,0E0,0E0],"parents":[2147483647,0,0,1,1,2,2,3,3,4,4,5,5,6,6,9,9,10,10,11,11,12,12,13,13,14,14,15,15,16,16,17,17,18,18,21,21,22,22,23,23,24,24,25,25,26,26,31,31,35,35,38,38,39,39,40,40,41,41,42,42,45,45,46,46],"right_children":[2,4,6,8,10,12,14,-1,-1,16,18,20,22,24,26,28,30,32,34,-1,-1,36,38,40,42,44,46,-1,-1,-1,-1,48,-1,-1,-1,50,-1,-1,52,54,56,58,60,-1,-1,62,64,-1,-1,-1,-1,-1,-1,-1,-1,-1,-1,-1,-1,-1,-1,-1,-1,-1,-1],"split_conditions":[-8.30517E-3,-9.035243E-3,-2.1246402E-2,-3.8073685E-2,-8.714871E-3,-4.4300435E-3,2.2780899E-2,-8.77012E-2,-4.0940243E-1,3.6902903E-3,5.707693E-3,-1.3619099E-2,-2.4550878E-3,-3.3511873E-2,-4.799418E-2,-2.5148029E-3,4.3920923E-2,8.25832E-3,3.4015067E-4,-8.233756E-2,-3.9788637E-1,2.1618497E-2,-2.9923397E-3,3.3087106E-3,7.2233872E-3,4.9792817E-3,3.8358874E-3,-8.009125E-2,-3.4892744E-1,1.5987249E-1,-2.2439237E-1,4.0964615E-3,-2.1385455E-1,7.693983E-2,-3.072201E-1,1.7044665E-2,-2.6176283E-1,1.20847434E-1,1.601467E-2,-5.930207E-3,-7.2942264E-3,3.0362573E-2,-2.4829278E-4,2.7497834E-1,-1.2093831E-1,-2.5017622E-3,-1.2459422E-2,2.8808287E-1,-1.4525079E-3,2.7992672E-1,-1.16205335E-1,-3.5934293E-1,3.648929E-3,-2.862386E-1,1.8842216E-1,-1.3979455E-3,-4.1711769E-1,2.7396318E-1,-7.5635545E-2,-2.6892665E-1,1.1310836E-1,-2.8207755E-1,1.2039481E-1,1.3611559E-3,-3.402759E-1],"split_indices":[131,230,187,188,220,10,259,0,0,204,14,144,129,181,160,289,73,68,146,0,0,271,27,92,152,153,217,0,0,0,0,34,0,0,0,58,0,0,7,89,306,300,310,0,0,8,279,0,0,0,0,0,0,0,0,0,0,0,0,0,0,0,0,0,0],"split_type":[0,0,0,0,0,0,0,0,0,0,0,0,0,0,0,0,0,0,0,0,0,0,0,0,0,0,0,0,0,0,0,0,0,0,0,0,0,0,0,0,0,0,0,0,0,0,0,0,0,0,0,0,0,0,0,0,0,0,0,0,0,0,0,0,0],"sum_hessian":[2.006532E2,2.8793207E1,1.7185999E2,6.4655194E0,2.2327688E1,3.211945E1,1.3974054E2,1.0380162E0,5.4275036E0,1.2198182E1,1.0129505E1,1.0595511E1,2.1523937E1,1.13622574E2,2.6117966E1,9.007232E0,3.1909509E0,6.9412265E0,3.1882784E0,1.4328486E0,9.1626625E0,1.1248132E1,1.02758045E1,1.1146684E1,1.0247589E2,4.2945123E0,2.1823454E1,1.810681E0,7.196551E0,1.2991498E0,1.8918011E0,5.7776475E0,1.1635789E0,1.0126117E0,2.1756668E0,8.991964E0,2.2561674E0,1.6896425E0,8.586162E0,5.309215E0,5.8374686E0,6.916206E1,3.331383E1,3.2636127E0,1.0308996E0,8.859514E0,1.2963939E1,4.7395983E0,1.0380493E0,7.609654E0,1.3823105E0,6.593676E0,1.9924861E0,1.2488666E0,4.0603485E0,1.0525904E0,4.7848783E0,5.641751E1,1.2744552E1,1.0573625E1,2.2740204E1,3.6422448E0,5.2172694E0,1.0249987E0,1.193894E1],"tree_param":{"num_deleted":"0","num_feature":"312","num_nodes":"65","size_leaf_vector":"1"}},{"base_weights":[-5.55936E-2,6.171742E-3,-8.883663E-1,-8.807642E-1,7.717146E-2,-1.0176897E0,-1.690023E-2,4.283943E-2,-1.0296378E0,-5.3276503E-1,1.7023914E-1,-1.1021433E0,-4.6587266E-2,-1.0985034E0,-5.6087464E-2,9.829396E-3,-1.1421163E0,2.8507298E-1,-4.9671578E-1,-3.5152796E-1,-8.39286E-2,-1.311549E-1,-3.5837662E-1,4.2680222E-1,-8.2922494E-1,-1.2516152E0,-5.8356304E-2,-2.2824799E-1,4.299674E-1,-1.155327E0,1.07550256E-1,2.502614E-1,-5.4652076E-2,1.3874884E-1,-4.2489877E-1,-1.2074658E-1,-4.0329108E-1,9.302969E-2,-2.7553722E-1,1.9687015E-1,-4.50932E-2,-1.03613175E-1,-3.8573292E-1,-1.908038E-1,1.5754595E-1],"categories":[],"categories_nodes":[],"categories_segments":[],"categories_sizes":[],"default_left":[0,0,0,0,0,0,0,0,0,0,0,0,0,0,0,0,0,0,0,0,0,0,0,0,0,0,0,0,0,0,0,0,0,0,0,0,0,0,0,0,0,0,0,0,0],"id":8,"left_children":[1,3,5,7,9,11,-1,-1,13,15,17,19,-1,21,-1,23,25,27,29,-1,-1,-1,-1,31,33,35,-1,37,39,41,43,-1,-1,-1,-1,-1,-1,-1,-1,-1,-1,-1,-1,-1,-1],"loss_changes":[9.230122E0,1.0644185E1,1.2758341E0,2.056159E0,8.970045E0,6.055746E-1,0E0,0E0,4.3642998E-1,6.9379964E0,1.0593832E1,2.1889687E-1,0E0,1.1438084E-1,0E0,4.57802E0,7.8133297E-1,8.80485E0,8.247126E0,0E0,0E0,0E0,0E0,2.3167844E0,3.9524367E0,1.412592E-1,0E0,1.0102567E1,1.2130615E1,5.96776E-1,3.9233012E0,0E0,0E0,0E0,0E0,0E0,0E0,0E0,0E0,0E0,0E0,0E0,0E0,0E0,0E0],"parents":[2147483647,0,0,1,1,2,2,3,3,4,4,5,5,8,8,9,9,10,10,11,11,13,13,15,15,16,16,17,17,18,18,23,23,24,24,25,25,27,27,28,28,29,29,30,30],"right_children":[2,4,6,8,10,12,-1,-1,14,16,18,20,-1,22,-1,24,26,28,30,-1,-1,-1,-1,32,34,36,-1,38,40,42,44,-1,-1,-1,-1,-1,-1,-1,-1,-1,-1,-1,-1,-1,-1],"split_conditions":[2.4691464E-2,-2.4691464E-2,2.4594288E-2,-2.5837379E-2,-8.749818E-3,4.1382774E-3,-1.690023E-2,4.283943E-2,1.8243782E-2,1.3676026E-5,8.749818E-3,1.2882929E-2,-4.6587266E-2,-5.8321434E-4,-5.6087464E-2,4.373693E-3,9.863409E-3,-6.565327E-3,1.3676026E-5,-3.5152796E-1,-8.39286E-2,-1.311549E-1,-3.5837662E-1,2.455566E-2,-2.3000243E-3,-6.6764913E-3,-5.8356304E-2,3.0813492E-3,6.565327E-3,-1.0654038E-2,-3.6125507E-3,2.502614E-1,-5.4652076E-2,1.3874884E-1,-4.2489877E-1,-1.2074658E-1,-4.0329108E-1,9.302969E-2,-2.7553722E-1,1.9687015E-1,-4.50932E-2,-1.03613175E-1,-3.8573292E-1,-1.908038E-1,1.5754595E-1],"split_indices":[289,289,191,191,10,8,0,0,193,169,10,214,0,50,0,65,14,242,169,0,0,0,0,283,246,194,0,243,242,298,185,0,0,0,0,0,0,0,0,0,0,0,0,0,0],"split_type":[0,0,0,0,0,0,0,0,0,0,0,0,0,0,0,0,0,0,0,0,0,0,0,0,0,0,0,0,0,0,0,0,0,0,0,0,0,0,0,0,0,0,0,0,0],"sum_hessian":[1.7834038E2,1.6695053E2,1.1389851E1,1.1528621E1,1.554219E2,9.664544E0,1.7253063E0,1.4690638E0,1.0059557E1,1.9950178E1,1.3547174E2,8.549323E0,1.1152207E0,9.018929E0,1.0406287E0,1.1073602E1,8.876576E0,1.160613E2,1.941043E1,7.490405E0,1.058918E0,1.8482231E0,7.1707053E0,7.7256336E0,3.3479683E0,7.669499E0,1.2070771E0,2.5422201E1,9.06391E1,8.851219E0,1.0559212E1,4.4073114E0,3.3183222E0,1.1125114E0,2.235457E0,1.2805598E0,6.3889394E0,1.4591722E1,1.083048E1,6.511722E1,2.5521885E1,1.7337993E0,7.11742E0,3.6094308E0,6.9497805E0],"tree_param":{"num_deleted":"0","num_feature":"312","num_nodes":"45","size_leaf_vector":"1"}},{"base_weights":[-5.7015542E-2,5.2657876E-2,-4.8138428E-1,-8.230101E-1,1.419534E-1,-9.3781555E-1,8.53021E-2,-9.767001E-1,5.536275E-2,-3.115947E-1,3.065691E-1,2.7523817E-2,-1.0002154E0,-4.0551674E-1,5.208371E-1,-7.2143935E-2,-1.0979258E0,1.9898532E-2,-1.0512671E0,-2.5551546E-1,5.411349E-1,-1.0508713E0,-6.0541444E-2,2.9786015E-1,-8.3779943E-1,-1.00628495E-1,7.7018195E-1,-3.4764975E-1,-9.573581E-2,-7.8639835E-1,3.033464E-1,-1.2444749E0,-3.928989E-2,1.9538487E-1,-9.792281E-1,6.5996075E-1,-4.6704957E-1,-5.9863452E-2,-3.2849526E-1,-8.597412E-2,1.860669E-1,-2.3566904E-2,-1.0078274E0,2.0290988E-2,2.731908E-1,1.8130515E-2,-3.314784E-1,1.377523E-1,-2.5058654E-1,-3.9699382E-1,-1.0025304E-1,-1.9564226E-1,1.4835458E-1,-3.3939034E-1,1.4811585E-2,-2.1333739E-1,2.1777488E-1,1.7941925E-1,-2.581283E-1,-3.3921966E-1,-9.578484E-2],"categories":[],"categories_nodes":[],"categories_segments":[],"categories_sizes":[],"default_left":[0,0,0,0,0,0,0,0,0,0,0,0,0,0,0,0,0,0,0,0,0,0,0,0,0,0,0,0,0,0,0,0,0,0,0,0,0,0,0,0,0,0,0,0,0,0,0,0,0,0,0,0,0,0,0,0,0,0,0,0,0],"id":9,"left_children":[1,3,5,7,9,11,13,15,-1,17,19,-1,21,23,25,-1,27,29,31,33,35,37,-1,39,41,-1,43,-1,-1,45,47,49,-1,51,53,55,57,-1,-1,-1,-1,-1,59,-1,-1,-1,-1,-1,-1,-1,-1,-1,-1,-1,-1,-1,-1,-1,-1,-1,-1],"loss_changes":[7.8240294E0,1.0598813E1,9.006123E0,2.12393E0,9.241539E0,1.3251209E0,3.6982377E0,7.2214127E-1,0E0,8.141213E0,1.2054864E1,0E0,5.2339935E-1,2.7524202E0,2.1970937E0,0E0,6.6924095E-2,5.6893206E0,1.6626606E0,9.0971775E0,7.9862576E0,4.1475105E-1,0E0,9.070523E-1,6.128366E-1,0E0,6.622944E-1,0E0,0E0,1.8152094E0,3.64263E0,1.583376E-1,0E0,4.7968254E0,1.7206259E0,5.7384243E0,3.5912585E0,0E0,0E0,0E0,0E0,0E0,2.459526E-3,0E0,0E0,0E0,0E0,0E0,0E0,0E0,0E0,0E0,0E0,0E0,0E0,0E0,0E0,0E0,0E0,0E0,0E0],"parents":[2147483647,0,0,1,1,2,2,3,3,4,4,5,5,6,6,7,7,9,9,10,10,12,12,13,13,14,14,16,16,17,17,18,18,19,19,20,20,21,21,23,23,24,24,26,26,29,29,30,30,31,31,33,33,34,34,35,35,36,36,42,42],"right_children":[2,4,6,8,10,12,14,16,-1,18,20,-1,22,24,26,-1,28,30,32,34,36,38,-1,40,42,-1,44,-1,-1,46,48,50,-1,52,54,56,58,-1,-1,-1,-1,-1,60,-1,-1,-1,-1,-1,-1,-1,-1,-1,-1,-1,-1,-1,-1,-1,-1,-1,-1],"split_conditions":[4.780198E-3,-2.3668155E-2,2.7033312E-3,9.5333075E-3,-1.2491586E-2,-9.507822E-2,2.1030026E-4,-7.8019304E-3,5.536275E-2,2.496089E-3,-8.7356595E-3,2.7523817E-2,1.3446458E-2,-6.300133E-4,-6.4200363E-3,-7.2143935E-2,6.527183E-3,1.7883885E-3,-6.204554E-3,8.265402E-3,3.613936E-2,-2.6702406E-3,-6.0541444E-2,-1.4979857E-2,-5.453239E-2,-1.00628495E-1,-5.7364922E-2,-3.4764975E-1,-9.573581E-2,5.858135E-3,4.1349135E-2,1.9362526E-2,-3.928989E-2,-1.6364168E-2,6.412321E-3,-5.847907E-2,-9.75409E-3,-5.9863452E-2,-3.2849526E-1,-8.597412E-2,1.860669E-1,-2.3566904E-2,6.753723E-3,2.0290988E-2,2.731908E-1,1.8130515E-2,-3.314784E-1,1.377523E-1,-2.5058654E-1,-3.9699382E-1,-1.0025304E-1,-1.9564226E-1,1.4835458E-1,-3.3939034E-1,1.4811585E-2,-2.1333739E-1,2.1777488E-1,1.7941925E-1,-2.581283E-1,-3.3921966E-1,-9.578484E-2],"split_indices":[126,205,247,59,152,269,2,283,0,12,75,0,233,22,50,0,219,283,84,179,187,205,0,26,251,0,82,0,0,107,259,166,0,206,18,301,138,0,0,0,0,0,37,0,0,0,0,0,0,0,0,0,0,0,0,0,0,0,0,0,0],"split_type":[0,0,0,0,0,0,0,0,0,0,0,0,0,0,0,0,0,0,0,0,0,0,0,0,0,0,0,0,0,0,0,0,0,0,0,0,0,0,0,0,0,0,0,0,0,0,0,0,0,0,0,0,0,0,0,0,0,0,0,0,0],"sum_hessian":[1.6656232E2,1.3305232E2,3.350999E1,1.1552004E1,1.2150032E2,1.8197836E1,1.5312155E1,1.0049669E1,1.5023354E0,3.2117508E1,8.938281E1,1.0130357E0,1.71848E1,7.2315755E0,8.08058E0,1.8426613E0,8.207007E0,2.2850069E1,9.267439E0,2.6291582E1,6.309123E1,1.5862205E1,1.322595E0,2.8710253E0,4.3605504E0,1.7445275E0,6.336052E0,7.1591644E0,1.0478432E0,5.481883E0,1.7368187E1,7.368294E0,1.8991456E0,1.6648785E1,9.642798E0,5.674821E1,6.343017E0,1.0535469E0,1.4808658E1,1.0600914E0,1.8109341E0,1.0653512E0,3.295199E0,1.302509E0,5.033543E0,1.7198387E0,3.7620442E0,1.5802296E1,1.5658908E0,6.363463E0,1.004831E0,4.0353394E0,1.2613445E1,8.313802E0,1.3289965E0,2.1556025E0,5.459261E1,1.5704699E0,4.7725472E0,2.251162E0,1.0440369E0],"tree_param":{"num_deleted":"0","num_feature":"312","num_nodes":"61","size_leaf_vector":"1"}},{"base_weights":[-6.335947E-2,3.943711E-3,-6.8878907E-1,1.0790763E-1,-5.2594894E-1,-1.1367222E0,-1.8335286E-1,2.355003E-1,-3.759354E-1,-2.9237464E-1,-1.1498269E0,-8.549876E-2,-3.6791116E-1,1.8758188E-1,-4.9965587E-1,4.0430135E-1,-4.2649636E-1,-8.846836E-1,3.8214628E-2,2.0827696E-1,-6.529469E-1,-3.8337728E-1,-9.322494E-2,-7.501231E-1,9.766729E-2,5.637476E-1,-1.9912335E-1,-6.8151486E-1,5.991391E-1,1.375152E-2,-1.058429E0,-6.613112E-1,3.7822193E-1,6.3352555E-1,-3.201624E-1,-1.3545324E-1,-8.6617315E-1,-2.6634663E-1,-2.898088E-2,1.9549704E-1,-1.975266E-1,1.2214953E-1,-1.7276596E-1,-2.775726E-1,3.5367828E-2,-3.0444289E-2,2.5430816E-1,-1.0700464E-1,-3.7900245E-1,-3.1625274E-1,6.1058935E-2,1.6155316E-1,-1.4585531E-1,-5.723259E-2,2.6907608E-1,9.229975E-2,-2.162746E-1,-1.9040167E-1,7.711594E-2,-2.8973415E-1,-3.877173E-2],"categories":[],"categories_nodes":[],"categories_segments":[],"categories_sizes":[],"default_left":[0,0,0,0,0,0,0,0,0,0,0,0,0,0,0,0,0,0,0,0,0,0,0,0,0,0,0,0,0,0,0,0,0,0,0,0,0,0,0,0,0,0,0,0,0,0,0,0,0,0,0,0,0,0,0,0,0,0,0,0,0],"id":10,"left_children":[1,3,5,7,9,11,13,15,17,19,21,-1,-1,-1,23,25,27,29,31,33,35,-1,-1,37,-1,39,41,43,45,-1,47,49,51,53,55,57,59,-1,-1,-1,-1,-1,-1,-1,-1,-1,-1,-1,-1,-1,-1,-1,-1,-1,-1,-1,-1,-1,-1,-1,-1],"loss_changes":[6.34256E0,7.602666E0,3.1058097E0,7.208927E0,2.9624681E0,2.2838974E-1,2.3765454E0,1.0440157E1,5.186143E0,3.3513021E0,2.2901392E-1,0E0,0E0,0E0,1.5581079E0,7.2060003E0,5.418618E0,1.8293505E0,3.6842742E0,2.0489528E0,1.0518694E0,0E0,0E0,3.8032126E-1,0E0,6.7229023E0,3.9233367E0,3.1892748E0,8.429643E-1,0E0,8.900595E-1,1.9427378E0,1.6961696E0,1.2323322E0,1.3106112E0,1.0012689E0,4.1240358E-1,0E0,0E0,0E0,0E0,0E0,0E0,0E0,0E0,0E0,0E0,0E0,0E0,0E0,0E0,0E0,0E0,0E0,0E0,0E0,0E0,0E0,0E0,0E0,0E0],"parents":[2147483647,0,0,1,1,2,2,3,3,4,4,5,5,6,6,7,7,8,8,9,9,10,10,14,14,15,15,16,16,17,17,18,18,19,19,20,20,23,23,25,25,26,26,27,27,28,28,30,30,31,31,32,32,33,33,34,34,35,35,36,36],"right_children":[2,4,6,8,10,12,14,16,18,20,22,-1,-1,-1,24,26,28,30,32,34,36,-1,-1,38,-1,40,42,44,46,-1,48,50,52,54,56,58,60,-1,-1,-1,-1,-1,-1,-1,-1,-1,-1,-1,-1,-1,-1,-1,-1,-1,-1,-1,-1,-1,-1,-1,-1],"split_conditions":[4.000471E-2,8.30517E-3,4.351257E-3,6.6775098E-3,9.035243E-3,-1.7052231E-2,3.9230725E-3,1.8243348E-2,-4.857653E-3,1.888362E-2,1.0836069E-2,-8.549876E-2,-3.6791116E-1,1.8758188E-1,-9.949958E-3,1.0220869E-2,9.752522E-3,-3.0821385E-3,-4.4838996E-3,-4.3103233E-4,1.0702196E-2,-3.8337728E-1,-9.322494E-2,2.3133305E-3,9.766729E-2,2.6376104E-2,8.136063E-3,-1.7148377E-2,-4.5360886E-3,1.375152E-2,-2.7311044E-3,2.2140755E-3,1.5209997E-2,-8.615085E-3,5.525814E-3,-3.3922791E-3,7.130884E-3,-2.6634663E-1,-2.898088E-2,1.9549704E-1,-1.975266E-1,1.2214953E-1,-1.7276596E-1,-2.775726E-1,3.5367828E-2,-3.0444289E-2,2.5430816E-1,-1.0700464E-1,-3.7900245E-1,-3.1625274E-1,6.1058935E-2,1.6155316E-1,-1.4585531E-1,-5.723259E-2,2.6907608E-1,9.229975E-2,-2.162746E-1,-1.9040167E-1,7.711594E-2,-2.8973415E-1,-3.877173E-2],"split_indices":[181,131,300,34,230,7,75,136,169,269,143,0,0,0,46,280,31,16,65,165,131,0,0,48,0,289,187,70,36,0,164,246,226,259,115,38,20,0,0,0,0,0,0,0,0,0,0,0,0,0,0,0,0,0,0,0,0,0,0,0,0],"split_type":[0,0,0,0,0,0,0,0,0,0,0,0,0,0,0,0,0,0,0,0,0,0,0,0,0,0,0,0,0,0,0,0,0,0,0,0,0,0,0,0,0,0,0,0,0,0,0,0,0,0,0,0,0,0,0,0,0,0,0,0,0],"sum_hessian":[1.4961371E2,1.3597498E2,1.3638725E1,1.1433837E2,2.1636608E1,6.568514E0,7.070212E0,9.088472E1,2.3453646E1,1.6811264E1,4.8253446E0,1.0235033E0,5.5450106E0,1.7133167E0,5.356895E0,7.272899E1,1.8155731E1,1.0014966E1,1.343868E1,7.2152796E0,9.595985E0,3.7325108E0,1.0928335E0,4.1793747E0,1.1775205E0,5.758005E1,1.514894E1,1.4809061E1,3.34667E0,1.6915841E0,8.323381E0,4.086397E0,9.352283E0,3.8878036E0,3.327476E0,3.27731E0,6.318675E0,3.1558938E0,1.0234808E0,5.4151783E1,3.4282703E0,5.775038E0,9.373902E0,1.1228312E1,3.580749E0,1.0313214E0,2.3153486E0,2.500563E0,5.8228188E0,2.6594055E0,1.4269915E0,8.207388E0,1.1448948E0,1.0082288E0,2.8795748E0,1.3869425E0,1.9405335E0,1.1709872E0,2.1063225E0,5.2927456E0,1.0259293E0],"tree_param":{"num_deleted":"0","num_feature":"312","num_nodes":"61","size_leaf_vector":"1"}},{"base_weights":[-6.583961E-2,-5.5998266E-3,-7.3214847E-1,-7.8190565E-1,5.3656843E-2,1.2499598E-1,-9.056709E-1,-9.339406E-1,4.4678956E-2,1.3904364E-1,-4.9669978E-1,-2.767459E-2,-1.0049493E0,-3.0589744E-1,-5.486377E-2,2.7899575E-1,-2.937305E-1,-8.438533E-1,-4.7445405E-2,-3.2895622E-1,-4.8235983E-2,4.047876E-1,-3.816092E-1,1.1736487E-1,-7.141466E-1,-9.46426E-1,-1.3058069E-2,2.4980174E-1,-2.0723253E-1,1.4761855E-1,-1.8290454E-1,-1.7793432E-1,1.3352843E-1,1.0544458E-1,-2.3875767E-1,9.840868E-3,-3.065368E-1,-4.694302E-2,-3.131289E-1,-1.5881002E-1,1.9387837E-1],"categories":[],"categories_nodes":[],"categories_segments":[],"categories_sizes":[],"default_left":[0,0,0,0,0,0,0,0,0,0,0,0,0,0,0,0,0,0,0,0,0,0,0,0,0,0,0,0,0,0,0,0,0,0,0,0,0,0,0,0,0],"id":11,"left_children":[1,3,5,7,9,-1,11,13,-1,15,17,-1,19,-1,-1,21,23,25,27,-1,-1,29,31,33,35,37,-1,39,-1,-1,-1,-1,-1,-1,-1,-1,-1,-1,-1,-1,-1],"loss_changes":[5.492163E0,5.8651395E0,2.639041E0,1.4186511E0,5.6399097E0,0E0,7.287359E-1,3.2274342E-1,0E0,6.344959E0,2.477257E0,0E0,5.166559E-1,0E0,0E0,6.6901727E0,4.535143E0,7.013545E-1,1.7205956E0,0E0,0E0,6.1925163E0,2.5537767E0,3.2474802E0,2.9919887E0,4.494648E-1,0E0,2.2793863E0,0E0,0E0,0E0,0E0,0E0,0E0,0E0,0E0,0E0,0E0,0E0,0E0,0E0],"parents":[2147483647,0,0,1,1,2,2,3,3,4,4,6,6,7,7,9,9,10,10,12,12,15,15,16,16,17,17,18,18,21,21,22,22,23,23,24,24,25,25,27,27],"right_children":[2,4,6,8,10,-1,12,14,-1,16,18,-1,20,-1,-1,22,24,26,28,-1,-1,30,32,34,36,38,-1,40,-1,-1,-1,-1,-1,-1,-1,-1,-1,-1,-1,-1,-1],"split_conditions":[2.3668155E-2,-8.898414E-3,-1.3187271E-2,8.816794E-3,1.8493371E-2,1.2499598E-1,-9.277391E-3,8.645501E-3,4.4678956E-2,8.112897E-3,7.3128953E-3,-2.767459E-2,3.44792E-2,-3.0589744E-1,-5.486377E-2,7.4895206E-3,3.254502E-3,5.203246E-4,1.0576513E-2,-3.2895622E-1,-4.8235983E-2,8.414895E-3,2.876792E-3,9.571571E-3,-1.0518621E-2,-1.2158911E-3,-1.3058069E-2,-5.781954E-3,-2.0723253E-1,1.4761855E-1,-1.8290454E-1,-1.7793432E-1,1.3352843E-1,1.0544458E-1,-2.3875767E-1,9.840868E-3,-3.065368E-1,-4.694302E-2,-3.131289E-1,-1.5881002E-1,1.9387837E-1],"split_indices":[205,126,162,205,148,0,239,161,0,58,252,0,190,0,0,107,50,131,158,0,0,126,27,289,298,126,0,119,0,0,0,0,0,0,0,0,0,0,0,0,0],"split_type":[0,0,0,0,0,0,0,0,0,0,0,0,0,0,0,0,0,0,0,0,0,0,0,0,0,0,0,0,0,0,0,0,0,0,0,0,0,0,0,0,0],"sum_hessian":[1.3593312E2,1.25587395E2,1.0345727E1,8.041578E0,1.17545815E2,1.1737549E0,9.171971E0,6.909674E0,1.1319046E0,1.024052E2,1.5140618E1,1.2075229E0,7.964449E0,5.8808765E0,1.0287979E0,7.764984E1,2.475536E1,8.045363E0,7.0952554E0,6.9153547E0,1.049094E0,6.555429E1,1.2095549E1,1.2880884E1,1.1874475E1,6.9695683E0,1.075795E0,5.2713575E0,1.8238982E0,6.0835598E1,4.7186923E0,9.856422E0,2.2391264E0,1.0742119E1,2.1387653E0,3.7246013E0,8.149874E0,1.0506306E0,5.9189377E0,1.6646186E0,3.6067388E0],"tree_param":{"num_deleted":"0","num_feature":"312","num_nodes":"41","size_leaf_vector":"1"}},{"base_weights":[-6.656704E-2,-5.0862885E-1,1.069858E-2,1.1218152E-2,-8.19174E-1,1.8015607E-1,-3.2361612E-1,-1.9425742E-1,3.6597687E-1,-1.0485859E0,7.054107E-2,-1.9559242E-1,4.0195137E-1,-5.946168E-1,1.934502E-1,-1.4266977E-1,6.6862106E-1,-3.3681813E-1,-1.0011328E-1,1.3623679E-1,-1.11437485E-1,3.1124616E-1,-4.6862635E-1,-6.79558E-1,5.098397E-1,-7.870406E-1,-4.1003663E-2,-3.0645803E-1,5.8698076E-1,-1.2924203E-3,2.5758192E-1,7.385575E-1,-3.726675E-1,-7.195308E-1,1.897261E-1,-6.214081E-3,-2.694846E-1,-3.5495734E-1,6.4570266E-1,3.196825E-2,-8.853289E-1,2.9448208E-1,-1.9462375E-1,-7.4628323E-1,4.4399956E-1,-4.341069E-2,7.1963423E-1,-1.7227208E-2,2.6876187E-1,-2.1527307E-1,6.514908E-2,-2.6012555E-1,3.345999E-3,-1.9516574E-1,1.6730769E-1,9.06908E-2,-2.1678224E-1,2.2301559E-1,-8.8467255E-2,-1.03582546E-1,-3.316527E-1,-1.0946264E-1,1.602041E-1,-3.1157827E-1,2.27917E-2,1.7402448E-1,2.6128344E-2,2.5509244E-1,2.4754046E-2],"categories":[],"categories_nodes":[],"categories_segments":[],"categories_sizes":[],"default_left":[0,0,0,0,0,0,0,0,0,0,0,0,0,0,0,0,0,0,0,0,0,0,0,0,0,0,0,0,0,0,0,0,0,0,0,0,0,0,0,0,0,0,0,0,0,0,0,0,0,0,0,0,0,0,0,0,0,0,0,0,0,0,0,0,0,0,0,0,0],"id":12,"left_children":[1,3,5,7,9,11,13,-1,15,17,19,21,23,25,27,-1,29,-1,-1,-1,-1,31,33,35,37,39,41,43,45,-1,-1,47,49,51,53,-1,-1,55,57,-1,59,61,-1,63,65,-1,67,-1,-1,-1,-1,-1,-1,-1,-1,-1,-1,-1,-1,-1,-1,-1,-1,-1,-1,-1,-1,-1,-1],"loss_changes":[4.3195314E0,3.046163E0,6.2046356E0,2.111628E0,2.4805346E0,6.1324263E0,5.2789326E0,0E0,1.8086103E0,1.2548733E-1,7.3732E-1,3.9701395E0,5.714461E0,2.569664E0,2.8214095E0,0E0,6.07178E-1,0E0,0E0,0E0,0E0,3.2783442E0,3.169158E0,6.445241E-1,5.2113523E0,1.6814404E0,1.6906074E0,2.500319E0,8.666363E-1,0E0,0E0,8.853905E-1,1.0949401E0,1.4653716E0,2.1739032E0,0E0,0E0,1.7655685E0,3.6188526E0,0E0,1.5668402E0,1.051918E0,0E0,1.1643686E0,9.786129E-2,0E0,4.9744558E-1,0E0,0E0,0E0,0E0,0E0,0E0,0E0,0E0,0E0,0E0,0E0,0E0,0E0,0E0,0E0,0E0,0E0,0E0,0E0,0E0,0E0,0E0],"parents":[2147483647,0,0,1,1,2,2,3,3,4,4,5,5,6,6,8,8,9,9,10,10,11,11,12,12,13,13,14,14,16,16,21,21,22,22,23,23,24,24,25,25,26,26,27,27,28,28,31,31,32,32,33,33,34,34,37,37,38,38,40,40,41,41,43,43,44,44,46,46],"right_children":[2,4,6,8,10,12,14,-1,16,18,20,22,24,26,28,-1,30,-1,-1,-1,-1,32,34,36,38,40,42,44,46,-1,-1,48,50,52,54,-1,-1,56,58,-1,60,62,-1,64,66,-1,68,-1,-1,-1,-1,-1,-1,-1,-1,-1,-1,-1,-1,-1,-1,-1,-1,-1,-1,-1,-1,-1,-1],"split_conditions":[-6.9809943E-3,-6.419668E-4,8.165032E-3,6.7819306E-3,5.6419254E-4,-8.165032E-3,1.09727755E-2,-1.9425742E-1,-1.5238718E-2,5.642701E-3,5.8334824E-3,-2.6985902E-2,-4.0592358E-2,7.1092797E-3,9.9338405E-3,-1.4266977E-1,-1.08311195E-2,-3.3681813E-1,-1.0011328E-1,1.3623679E-1,-1.11437485E-1,1.717512E-2,-9.460646E-3,-1.1396758E-2,-1.3175349E-2,-8.637538E-3,1.7739765E-2,-5.962926E-3,-2.6969438E-2,-1.2924203E-3,2.5758192E-1,2.3733702E-2,-1.0947346E-2,1.5049335E-3,-7.715501E-3,-6.214081E-3,-2.694846E-1,-4.271534E-3,3.2014474E-2,3.196825E-2,-8.9237355E-3,-2.2640796E-3,-1.9462375E-1,9.086476E-3,6.945993E-3,-4.341069E-2,1.7153732E-2,-1.7227208E-2,2.6876187E-1,-2.1527307E-1,6.514908E-2,-2.6012555E-1,3.345999E-3,-1.9516574E-1,1.6730769E-1,9.06908E-2,-2.1678224E-1,2.2301559E-1,-8.8467255E-2,-1.03582546E-1,-3.316527E-1,-1.0946264E-1,1.602041E-1,-3.1157827E-1,2.27917E-2,1.7402448E-1,2.6128344E-2,2.5509244E-1,2.4754046E-2],"split_indices":[50,310,152,298,226,152,282,0,203,54,126,174,261,292,172,0,243,0,0,0,0,223,84,238,234,219,259,123,156,0,0,232,175,161,79,0,0,1,274,0,101,60,0,51,311,0,148,0,0,0,0,0,0,0,0,0,0,0,0,0,0,0,0,0,0,0,0,0,0],"split_type":[0,0,0,0,0,0,0,0,0,0,0,0,0,0,0,0,0,0,0,0,0,0,0,0,0,0,0,0,0,0,0,0,0,0,0,0,0,0,0,0,0,0,0,0,0,0,0,0,0,0,0,0,0,0,0,0,0,0,0,0,0,0,0,0,0,0,0,0,0],"sum_hessian":[1.2530481E2,1.781225E1,1.0749255E2,7.0217843E0,1.0790466E1,7.164052E1,3.585204E1,2.1689885E0,4.852796E0,8.436549E0,2.3539171E0,2.6635262E1,4.5005257E1,2.3424824E1,1.2427214E1,1.1324625E0,3.7203336E0,7.1268826E0,1.3096666E0,1.2455552E0,1.108362E0,9.276026E0,1.7359236E1,3.6017156E0,4.140354E1,1.7070017E1,6.3548083E0,5.5712385E0,6.855975E0,1.0342697E0,2.6860638E0,5.659841E0,3.6161847E0,1.2501765E1,4.85747E0,1.1705291E0,2.4311862E0,5.402548E0,3.6000996E1,1.6831608E0,1.5386855E1,4.426656E0,1.9281529E0,3.5160995E0,2.0551393E0,1.0382763E0,5.8176985E0,1.0387858E0,4.621055E0,2.1451862E0,1.4709985E0,1.0246011E1,2.255754E0,1.2454418E0,3.6120281E0,2.0017314E0,3.4008162E0,3.2803905E1,3.1970904E0,5.200155E0,1.0186701E1,1.0401504E0,3.3865054E0,2.399851E0,1.1162485E0,1.0351449E0,1.0199943E0,4.549901E0,1.2677978E0],"tree_param":{"num_deleted":"0","num_feature":"312","num_nodes":"69","size_leaf_vector":"1"}},{"base_weights":[-6.19726E-2,-1.8970428E-2,-2.670552E-1,-4.996704E-1,6.16633E-2,1.1879277E-1,-6.0852593E-1,-3.4154546E-1,1.9395891E-1,-3.155197E-1,-3.929406E-1,-5.6657594E-1,2.5607523E-1,-3.850448E-1,2.949991E-1,2.4706057E-1,-5.5914325E-1,-2.2840793E-1,-8.7893814E-1,-1.736159E-1,7.157127E-1,-7.341909E-1,3.0639955E-1,-2.5802314E-1,4.1364613E-1,1.604712E-1,-4.918441E-2,-6.3000076E-2,-2.4530087E-1,1.1348193E-1,-1.6835865E-1,-5.6248285E-2,-2.9541358E-1,4.1603558E-2,2.5406063E-1,6.891549E-2,-2.8817278E-1,2.0738792E-1,-1.4739604E-1,9.991592E-2,-1.7154369E-1,-3.5262406E-2,1.7994201E-1],"categories":[],"categories_nodes":[],"categories_segments":[],"categories_sizes":[],"default_left":[0,0,0,0,0,0,0,0,0,0,0,0,0,0,0,0,0,0,0,0,0,0,0,0,0,0,0,0,0,0,0,0,0,0,0,0,0,0,0,0,0,0,0],"id":13,"left_children":[1,3,-1,5,7,-1,9,11,13,-1,15,17,19,21,23,25,27,29,31,-1,33,35,37,39,41,-1,-1,-1,-1,-1,-1,-1,-1,-1,-1,-1,-1,-1,-1,-1,-1,-1,-1],"loss_changes":[4.0713468E0,4.3001347E0,0E0,1.7942626E0,5.145218E0,0E0,9.81709E-1,3.3571641E0,4.3450403E0,0E0,1.3527219E0,1.6649456E0,3.1853783E0,2.9240718E0,4.184594E0,4.482364E-1,6.741352E-1,2.197329E0,4.6120167E-1,0E0,2.688942E-1,1.9060469E0,1.7080724E0,2.3408463E0,5.1685495E0,0E0,0E0,0E0,0E0,0E0,0E0,0E0,0E0,0E0,0E0,0E0,0E0,0E0,0E0,0E0,0E0,0E0,0E0],"parents":[2147483647,0,0,1,1,3,3,4,4,6,6,7,7,8,8,10,10,11,11,12,12,13,13,14,14,15,15,16,16,17,17,18,18,20,20,21,21,22,22,23,23,24,24],"right_children":[2,4,-1,6,8,-1,10,12,14,-1,16,18,20,22,24,26,28,30,32,-1,34,36,38,40,42,-1,-1,-1,-1,-1,-1,-1,-1,-1,-1,-1,-1,-1,-1,-1,-1,-1,-1],"split_conditions":[1.5238718E-2,-8.30517E-3,-2.670552E-1,-4.206908E-2,-2.4158733E-2,1.1879277E-1,-6.90532E-3,1.2371736E-2,-8.749818E-3,-3.155197E-1,-8.1393184E-5,1.0837255E-2,-7.727198E-2,1.9637248E-3,-9.54792E-3,1.3328652E-3,3.441557E-3,6.037121E-4,-4.62554E-2,-1.736159E-1,3.469687E-3,-1.5214024E-2,4.2239062E-2,-1.6342455E-3,-1.9670052E-2,1.604712E-1,-4.918441E-2,-6.3000076E-2,-2.4530087E-1,1.1348193E-1,-1.6835865E-1,-5.6248285E-2,-2.9541358E-1,4.1603558E-2,2.5406063E-1,6.891549E-2,-2.8817278E-1,2.0738792E-1,-1.4739604E-1,9.991592E-2,-1.7154369E-1,-3.5262406E-2,1.7994201E-1],"split_indices":[203,131,0,275,181,0,226,291,10,0,242,220,303,108,280,126,10,0,251,0,234,254,133,139,136,0,0,0,0,0,0,0,0,0,0,0,0,0,0,0,0,0,0],"split_type":[0,0,0,0,0,0,0,0,0,0,0,0,0,0,0,0,0,0,0,0,0,0,0,0,0,0,0,0,0,0,0,0,0,0,0,0,0,0,0,0,0,0,0],"sum_hessian":[1.1379E2,1.0914587E2,4.6441364E0,1.493194E1,9.421392E1,1.332306E0,1.3599634E1,2.2884666E1,7.132926E1,3.181179E0,1.0418455E1,1.6662462E1,6.2222037E0,1.0180396E1,6.114886E1,2.0475175E0,8.370937E0,8.832016E0,7.8304467E0,2.1174347E0,4.1047688E0,6.7235203E0,3.4568756E0,1.0594136E1,5.0554726E1,1.0269012E0,1.0206164E0,4.332347E0,4.0385904E0,3.0801451E0,5.7518706E0,1.4067981E0,6.4236484E0,1.1412181E0,2.9635508E0,1.275963E0,5.4475574E0,2.421793E0,1.0350827E0,3.6525443E0,6.9415917E0,1.3215224E1,3.73395E1],"tree_param":{"num_deleted":"0","num_feature":"312","num_nodes":"43","size_leaf_vector":"1"}},{"base_weights":[-5.72416E-2,-7.0993E-1,-7.3614935E-3,9.521303E-3,-8.437168E-1,8.709258E-2,-3.740346E-1,-2.862222E-1,-6.1744314E-2,-1.9049041E-1,2.4870645E-1,-7.7265185E-1,6.50832E-2,-5.5470496E-1,5.957537E-2,3.6888954E-1,-5.579481E-1,-1.9690114E-1,-9.390178E-1,-3.550549E-1,6.0672337E-1,-6.9465625E-1,1.1925252E-1,2.2913666E-1,-6.0804677E-1,5.0318164E-1,-2.507954E-1,-6.2087078E-2,-2.4787925E-1,-1.7808963E-1,6.2361773E-2,-3.016487E-1,-8.016767E-2,-6.2238204E-1,5.7485852E-2,-1.35769155E-2,2.4617875E-1,-3.0122054E-1,-7.379716E-2,1.1544094E-1,-1.6661611E-1,-2.8805915E-1,4.486794E-2,1.7313856E-1,-1.6382028E-1,-2.2245549E-1,1.1694169E-1,-1.7845228E-1,1.2268703E-1,-2.594152E-1,-1.25216255E-2],"categories":[],"categories_nodes":[],"categories_segments":[],"categories_sizes":[],"default_left":[0,0,0,0,0,0,0,0,0,0,0,0,0,0,0,0,0,0,0,0,0,0,0,0,0,0,0,0,0,0,0,0,0,0,0,0,0,0,0,0,0,0,0,0,0,0,0,0,0,0,0],"id":14,"left_children":[1,3,5,-1,7,9,11,-1,-1,13,15,17,19,21,23,25,27,29,31,33,35,37,-1,39,41,43,45,47,-1,-1,-1,-1,-1,49,-1,-1,-1,-1,-1,-1,-1,-1,-1,-1,-1,-1,-1,-1,-1,-1,-1],"loss_changes":[3.4477072E0,7.7290225E-1,3.4800665E0,0E0,2.5464535E-1,3.6346219E0,3.6522958E0,0E0,0E0,2.7645345E0,5.147397E0,8.557401E-1,2.6535347E0,1.9160519E0,2.2545128E0,3.8681064E0,8.8104224E-1,7.177038E-1,9.587717E-2,1.0932286E0,7.412293E-1,1.2929573E0,0E0,2.1221251E0,1.2262738E0,3.2083282E0,3.01645E0,1.1320645E0,0E0,0E0,0E0,0E0,0E0,6.2683105E-1,0E0,0E0,0E0,0E0,0E0,0E0,0E0,0E0,0E0,0E0,0E0,0E0,0E0,0E0,0E0,0E0,0E0],"parents":[2147483647,0,0,1,1,2,2,4,4,5,5,6,6,9,9,10,10,11,11,12,12,13,13,14,14,15,15,16,16,17,17,18,18,19,19,20,20,21,21,23,23,24,24,25,25,26,26,27,27,33,33],"right_children":[2,4,6,-1,8,10,12,-1,-1,14,16,18,20,22,24,26,28,30,32,34,36,38,-1,40,42,44,46,48,-1,-1,-1,-1,-1,50,-1,-1,-1,-1,-1,-1,-1,-1,-1,-1,-1,-1,-1,-1,-1,-1,-1],"split_conditions":[-2.4691464E-2,-2.3489675E-2,4.896173E-3,9.521303E-3,4.4161314E-3,-4.7034305E-3,2.7033312E-3,-2.862222E-1,-6.1744314E-2,2.553303E-2,1.1773382E-2,-6.2959157E-3,8.117936E-3,2.7432201E-2,4.1279206E-3,2.857626E-2,-3.6481523E-4,-3.7190475E-2,1.0166477E-2,2.1030026E-4,3.9849887E-4,1.2600886E-4,1.1925252E-1,5.426483E-2,1.0525152E-2,1.0312913E-2,2.2905325E-3,-2.0310074E-2,-2.4787925E-1,-1.7808963E-1,6.2361773E-2,-3.016487E-1,-8.016767E-2,-6.8430614E-5,5.7485852E-2,-1.35769155E-2,2.4617875E-1,-3.0122054E-1,-7.379716E-2,1.1544094E-1,-1.6661611E-1,-2.8805915E-1,4.486794E-2,1.7313856E-1,-1.6382028E-1,-2.2245549E-1,1.1694169E-1,-1.7845228E-1,1.2268703E-1,-2.594152E-1,-1.25216255E-2],"split_indices":[289,191,126,0,98,242,247,0,0,251,58,219,144,250,218,187,304,132,233,2,200,58,0,213,97,107,129,259,0,0,0,0,0,131,0,0,0,0,0,0,0,0,0,0,0,0,0,0,0,0,0],"split_type":[0,0,0,0,0,0,0,0,0,0,0,0,0,0,0,0,0,0,0,0,0,0,0,0,0,0,0,0,0,0,0,0,0,0,0,0,0,0,0,0,0,0,0,0,0,0,0,0,0,0,0],"sum_hessian":[1.05060814E2,6.519499E0,9.854131E1,1.1128757E0,5.4066234E0,7.89631E1,1.9578217E1,4.186684E0,1.2199392E0,2.8990772E1,4.997233E1,9.864227E0,9.713989E0,1.1305849E1,1.7684923E1,4.3964733E1,6.0075936E0,2.7008398E0,7.163388E0,5.6645823E0,4.049407E0,1.0092927E1,1.2129226E0,1.462682E1,3.0581026E0,3.628862E1,7.676113E0,2.5417364E0,3.4658575E0,1.1283408E0,1.5724989E0,6.0663495E0,1.0970381E0,3.7112637E0,1.9533185E0,1.194976E0,2.854431E0,5.240818E0,4.852109E0,1.26302185E1,1.9966011E0,1.9051454E0,1.1529573E0,3.4319855E1,1.968766E0,4.257321E0,3.4187922E0,1.0694107E0,1.4723256E0,2.2732627E0,1.4380009E0],"tree_param":{"num_deleted":"0","num_feature":"312","num_nodes":"51","size_leaf_vector":"1"}},{"base_weights":[-6.411521E-2,-4.286151E-1,2.0580368E-2,1.2564853E-2,-7.500766E-1,-6.9381225E-1,8.280916E-2,2.5393558E-1,-2.0186923E-1,-8.7992346E-1,-1.2901089E-2,-9.256623E-1,3.5737723E-2,2.007772E-1,-3.7768197E-1,-2.397938E-1,5.554056E-1,-3.6976782E-3,-2.9736346E-1,-3.0409828E-1,-8.4503956E-2,-1.9084327E-1,3.4449518E-1,-9.1529393E-1,1.4127034E-2,-1.8816991E-1,7.85632E-2,9.356406E-3,2.1011497E-1,-5.282952E-1,1.5711476E-1,5.260208E-1,-6.572004E-2,-5.22785E-2,-3.055534E-1,4.595567E-1,-4.768438E-1,-2.6465866E-1,-5.280796E-3,1.319066E-1,-1.0693857E-1,-1.751354E-1,1.9387306E-1,-1.4397116E-1,1.4907208E-1,-4.8945785E-2,2.1489283E-1,-2.5934705E-1,-9.176521E-3],"categories":[],"categories_nodes":[],"categories_segments":[],"categories_sizes":[],"default_left":[0,0,0,0,0,0,0,0,0,0,0,0,0,0,0,0,0,0,0,0,0,0,0,0,0,0,0,0,0,0,0,0,0,0,0,0,0,0,0,0,0,0,0,0,0,0,0,0,0],"id":15,"left_children":[1,3,5,7,9,11,13,15,-1,17,-1,19,-1,21,23,25,27,-1,-1,-1,-1,29,31,33,35,-1,-1,-1,-1,37,39,41,43,-1,-1,45,47,-1,-1,-1,-1,-1,-1,-1,-1,-1,-1,-1,-1],"loss_changes":[3.0066235E0,2.6125817E0,3.6028342E0,1.6136636E0,9.385438E-1,1.334796E0,4.109538E0,1.2012007E0,0E0,8.5032463E-1,0E0,7.405281E-3,0E0,3.4294245E0,3.2757714E0,8.2874614E-1,3.396616E-1,0E0,0E0,0E0,0E0,2.042471E0,3.31667E0,3.231392E-1,2.3939993E0,0E0,0E0,0E0,0E0,1.5570455E0,1.4609241E0,4.468849E0,3.596426E0,0E0,0E0,1.0319495E0,8.767942E-1,0E0,0E0,0E0,0E0,0E0,0E0,0E0,0E0,0E0,0E0,0E0,0E0],"parents":[2147483647,0,0,1,1,2,2,3,3,4,4,5,5,6,6,7,7,9,9,11,11,13,13,14,14,15,15,16,16,21,21,22,22,23,23,24,24,29,29,30,30,31,31,32,32,35,35,36,36],"right_children":[2,4,6,8,10,12,14,16,-1,18,-1,20,-1,22,24,26,28,-1,-1,-1,-1,30,32,34,36,-1,-1,-1,-1,38,40,42,44,-1,-1,46,48,-1,-1,-1,-1,-1,-1,-1,-1,-1,-1,-1,-1],"split_conditions":[-2.0898974E-2,-2.4550878E-3,-9.384765E-3,2.1618497E-2,1.822945E-3,7.4402695E-3,4.3329615E-3,-3.6447952E-3,-2.0186923E-1,-1.2849457E-2,-1.2901089E-2,2.3328566E-3,3.5737723E-2,-8.112897E-3,-9.710369E-3,4.45587E-3,-8.029775E-3,-3.6976782E-3,-2.9736346E-1,-3.0409828E-1,-8.4503956E-2,-4.052139E-3,5.4171192E-3,-1.9513475E-2,2.1453131E-2,-1.8816991E-1,7.85632E-2,9.356406E-3,2.1011497E-1,4.1734315E-3,3.3355285E-3,-1.3462963E-2,1.7042411E-2,-5.22785E-2,-3.055534E-1,-3.912711E-3,-6.4108497E-3,-2.6465866E-1,-5.280796E-3,1.319066E-1,-1.0693857E-1,-1.751354E-1,1.9387306E-1,-1.4397116E-1,1.4907208E-1,-4.8945785E-2,2.1489283E-1,-2.5934705E-1,-9.176521E-3],"split_indices":[187,129,2,271,12,288,12,179,0,47,0,205,0,58,205,202,113,0,0,0,0,11,57,190,74,0,0,0,0,311,268,157,254,0,0,302,271,0,0,0,0,0,0,0,0,0,0,0,0],"split_type":[0,0,0,0,0,0,0,0,0,0,0,0,0,0,0,0,0,0,0,0,0,0,0,0,0,0,0,0,0,0,0,0,0,0,0,0,0,0,0,0,0,0,0,0,0,0,0,0,0],"sum_hessian":[9.610574E1,1.7355057E1,7.875069E1,7.720377E0,9.63468E0,5.4968567E0,7.325383E1,6.1753883E0,1.5449884E0,7.9333415E0,1.701338E0,4.1691513E0,1.3277055E0,5.876379E1,1.4490042E1,2.4187276E0,3.7566607E0,1.0282089E0,6.905133E0,3.1628983E0,1.006253E0,1.5687811E1,4.307598E1,5.54522E0,8.944821E0,1.2235196E0,1.1952081E0,1.0771104E0,2.6795504E0,7.70103E0,7.986781E0,2.9666058E1,1.3409924E1,1.0066243E0,4.5385957E0,4.723471E0,4.2213507E0,4.1191125E0,3.5819173E0,5.244878E0,2.7419033E0,2.5226834E0,2.7143373E1,7.808583E0,5.6013412E0,1.485413E0,3.238058E0,1.7574804E0,2.4638703E0],"tree_param":{"num_deleted":"0","num_feature":"312","num_nodes":"49","size_leaf_vector":"1"}},{"base_weights":[-6.583501E-2,-2.4096185E-2,-6.6679245E-1,7.785669E-2,-3.2750046E-1,-2.8320435E-1,-2.74517E-2,-2.859025E-1,1.9631153E-1,-8.7236834E-1,-8.0035366E-2,3.022238E-1,-6.131365E-1,2.8006613E-1,-5.691238E-1,-4.7754195E-2,-2.969149E-1,3.2627562E-1,-3.8654673E-1,5.1153666E-1,-1.0260894E-1,-7.330179E-1,6.70032E-2,4.54579E-1,-8.951641E-2,-2.3825206E-1,1.7511085E-2,-3.0539963E-1,6.7690897E-1,-7.375445E-1,5.9502464E-2,2.0731331E-1,-3.7652582E-2,-2.552256E-1,-2.9503116E-2,-6.080197E-2,1.7197062E-1,3.2892108E-2,-2.4210365E-1,-1.6913122E-1,3.998473E-2,4.8501585E-2,2.3143876E-1,-4.0066624E-3,-2.845059E-1,1.3715301E-1,-1.6124742E-1],"categories":[],"categories_nodes":[],"categories_segments":[],"categories_sizes":[],"default_left":[0,0,0,0,0,0,0,0,0,0,0,0,0,0,0,0,0,0,0,0,0,0,0,0,0,0,0,0,0,0,0,0,0,0,0,0,0,0,0,0,0,0,0,0,0,0,0],"id":16,"left_children":[1,3,5,7,9,-1,-1,11,13,15,17,19,21,23,25,-1,-1,27,29,31,-1,33,-1,35,37,-1,-1,39,41,43,45,-1,-1,-1,-1,-1,-1,-1,-1,-1,-1,-1,-1,-1,-1,-1,-1],"loss_changes":[2.2297082E0,2.6472437E0,8.3495665E-1,2.8244448E0,2.8304045E0,0E0,0E0,3.3009791E0,3.304397E0,3.9622974E-1,2.1053479E0,1.0457326E0,1.2398844E0,2.9359002E0,7.762058E-1,0E0,0E0,1.8404058E0,1.5338042E0,6.8990004E-1,0E0,6.351738E-1,0E0,2.5069475E0,2.2652133E0,0E0,0E0,4.5165876E-1,1.2149572E-1,8.117759E-1,1.4603459E0,0E0,0E0,0E0,0E0,0E0,0E0,0E0,0E0,0E0,0E0,0E0,0E0,0E0,0E0,0E0,0E0],"parents":[2147483647,0,0,1,1,2,2,3,3,4,4,7,7,8,8,9,9,10,10,11,11,12,12,13,13,14,14,17,17,18,18,19,19,21,21,23,23,24,24,27,27,28,28,29,29,30,30],"right_children":[2,4,6,8,10,-1,-1,12,14,16,18,20,22,24,26,-1,-1,28,30,32,-1,34,-1,36,38,-1,-1,40,42,44,46,-1,-1,-1,-1,-1,-1,-1,-1,-1,-1,-1,-1,-1,-1,-1,-1],"split_conditions":[1.3018734E-2,1.2807226E-2,2.2981458E-4,-4.780198E-3,-2.496089E-3,-2.8320435E-1,-2.74517E-2,-9.716852E-3,4.4483293E-2,-7.170073E-3,-1.3934534E-2,7.855699E-3,4.868908E-2,8.7356595E-3,1.6170302E-2,-4.7754195E-2,-2.969149E-1,-9.634917E-3,-8.396466E-3,1.4979857E-2,-1.0260894E-1,1.4870035E-2,6.70032E-2,-8.14972E-3,7.2195414E-3,-2.3825206E-1,1.7511085E-2,7.627809E-3,-1.2554756E-2,-7.301618E-3,2.2152169E-3,2.0731331E-1,-3.7652582E-2,-2.552256E-1,-2.9503116E-2,-6.080197E-2,1.7197062E-1,3.2892108E-2,-2.4210365E-1,-1.6913122E-1,3.998473E-2,4.8501585E-2,2.3143876E-1,-4.0066624E-3,-2.845059E-1,1.3715301E-1,-1.6124742E-1],"split_indices":[95,152,139,126,12,0,0,247,136,165,255,131,251,75,291,0,0,139,167,26,0,224,0,131,95,0,0,208,31,219,28,0,0,0,0,0,0,0,0,0,0,0,0,0,0,0,0],"split_type":[0,0,0,0,0,0,0,0,0,0,0,0,0,0,0,0,0,0,0,0,0,0,0,0,0,0,0,0,0,0,0,0,0,0,0,0,0,0,0,0,0,0,0,0,0,0,0],"sum_hessian":[8.853285E1,8.375579E1,4.777067E0,6.324648E1,2.050931E1,2.791122E0,1.985945E0,1.5189115E1,4.805736E1,5.616875E0,1.4892435E1,5.45731E0,9.731805E0,4.388909E1,4.168273E0,1.1265718E0,4.4903035E0,6.3759737E0,8.516461E0,4.274545E0,1.1827646E0,8.620091E0,1.1117132E0,2.965591E1,1.4233181E1,2.8724475E0,1.2958254E0,2.3219411E0,4.0540323E0,4.4003253E0,4.1161366E0,3.2687163E0,1.0058291E0,6.98407E0,1.636022E0,4.42687E0,2.522904E1,1.180393E1,2.4292507E0,1.2818323E0,1.0401088E0,1.0488002E0,3.005232E0,1.2318645E0,3.1684608E0,2.6110473E0,1.5050893E0],"tree_param":{"num_deleted":"0","num_feature":"312","num_nodes":"47","size_leaf_vector":"1"}},{"base_weights":[-6.716482E-2,-2.0146066E-2,-5.7821167E-1,6.574626E-2,-3.5486612E-1,-7.6508284E-1,7.382865E-2,1.9655585E-1,-3.1611055E-1,1.3245933E-1,-7.246138E-1,-5.67796E-2,-2.7016914E-1,4.0379387E-1,-1.7001112E-1,2.477372E-1,-5.354587E-1,-3.3868948E-1,5.3732365E-1,-9.26011E-1,5.541373E-2,9.414587E-3,5.876454E-1,-8.1080675E-1,5.4505672E-2,5.12768E-1,-1.1349783E-1,5.0263867E-2,-6.815663E-1,-1.6894034E-1,2.703485E-2,2.0352004E-1,8.587633E-3,-2.9836348E-1,-7.197319E-2,1.0244871E-1,-1.1057576E-1,2.2943489E-1,1.6564038E-2,-3.6024485E-2,-3.0772913E-1,-1.2333136E-1,8.9311145E-2,2.1378465E-2,1.945748E-1,3.4161188E-2,-2.3535836E-1],"categories":[],"categories_nodes":[],"categories_segments":[],"categories_sizes":[],"default_left":[0,0,0,0,0,0,0,0,0,0,0,0,0,0,0,0,0,0,0,0,0,0,0,0,0,0,0,0,0,0,0,0,0,0,0,0,0,0,0,0,0,0,0,0,0,0,0],"id":17,"left_children":[1,3,5,7,9,11,-1,13,15,17,19,-1,-1,21,23,25,27,29,31,33,-1,35,37,39,41,43,-1,-1,45,-1,-1,-1,-1,-1,-1,-1,-1,-1,-1,-1,-1,-1,-1,-1,-1,-1,-1],"loss_changes":[1.9730407E0,2.2276835E0,1.2546813E0,3.152064E0,2.9453986E0,2.8880382E-1,0E0,3.615724E0,2.132203E0,1.6445844E0,1.8460159E0,0E0,0E0,2.1787581E0,2.5716052E0,1.0587366E0,1.3422103E0,4.508374E-1,3.0427778E-1,1.2129736E-1,0E0,1.4557931E0,1.8940735E0,5.629461E-1,1.7016063E0,1.9879782E-1,0E0,0E0,9.161706E-1,0E0,0E0,0E0,0E0,0E0,0E0,0E0,0E0,0E0,0E0,0E0,0E0,0E0,0E0,0E0,0E0,0E0,0E0],"parents":[2147483647,0,0,1,1,2,2,3,3,4,4,5,5,7,7,8,8,9,9,10,10,13,13,14,14,15,15,16,16,17,17,18,18,19,19,21,21,22,22,23,23,24,24,25,25,28,28],"right_children":[2,4,6,8,10,12,-1,14,16,18,20,-1,-1,22,24,26,28,30,32,34,-1,36,38,40,42,44,-1,-1,46,-1,-1,-1,-1,-1,-1,-1,-1,-1,-1,-1,-1,-1,-1,-1,-1,-1,-1],"split_conditions":[2.3668155E-2,8.117476E-3,1.5262548E-2,1.5435507E-2,4.1133813E-3,-5.2070636E-3,7.382865E-2,1.5356231E-2,-2.7289148E-2,1.7566524E-3,1.2199091E-2,-5.67796E-2,-2.7016914E-1,-5.9219254E-3,2.3385067E-3,6.235613E-3,-7.390795E-3,1.1342745E-3,-2.4312864E-4,1.5751619E-2,5.541373E-2,-8.409794E-4,1.1853611E-2,-3.3115686E-3,7.0346035E-3,-2.9104488E-2,-1.1349783E-1,5.0263867E-2,-4.9695796E-3,-1.6894034E-1,2.703485E-2,2.0352004E-1,8.587633E-3,-2.9836348E-1,-7.197319E-2,1.0244871E-1,-1.1057576E-1,2.2943489E-1,1.6564038E-2,-3.6024485E-2,-3.0772913E-1,-1.2333136E-1,8.9311145E-2,2.1378465E-2,1.945748E-1,3.4161188E-2,-2.3535836E-1],"split_indices":[205,226,81,310,125,239,0,78,78,18,97,0,0,167,156,2,252,221,93,243,0,81,206,156,106,298,0,0,60,0,0,0,0,0,0,0,0,0,0,0,0,0,0,0,0,0,0],"split_type":[0,0,0,0,0,0,0,0,0,0,0,0,0,0,0,0,0,0,0,0,0,0,0,0,0,0,0,0,0,0,0,0,0,0,0,0,0,0,0,0,0,0,0,0,0,0,0],"sum_hessian":[8.159633E1,7.567343E1,5.9228973E0,6.085981E1,1.4813624E1,4.8868837E0,1.0360135E0,4.5692547E1,1.5167263E1,6.6675663E0,8.146058E0,1.3873578E0,3.4995258E0,2.9125143E1,1.6567406E1,4.211618E0,1.0955646E1,3.1570697E0,3.5104966E0,6.6539874E0,1.4920708E0,9.59473E0,1.9530413E1,3.621086E0,1.294632E1,3.0861328E0,1.1254851E0,1.8599005E0,9.095745E0,1.866727E0,1.2903428E0,2.4871414E0,1.0233551E0,5.640956E0,1.0130312E0,5.159009E0,4.4357214E0,1.432737E1,5.2030416E0,1.2293675E0,2.3917184E0,4.2051063E0,8.741213E0,1.0846967E0,2.001436E0,1.0302812E0,8.065464E0],"tree_param":{"num_deleted":"0","num_feature":"312","num_nodes":"47","size_leaf_vector":"1"}},{"base_weights":[-5.9915915E-2,-6.2768936E-1,-1.4615491E-2,-2.1568207E-2,-7.5323427E-1,-4.0208083E-1,5.5098232E-2,-2.562435E-1,-6.549876E-2,-5.928224E-1,2.694825E-1,-4.1789767E-1,1.317828E-1,-7.885807E-1,-3.5921216E-2,1.6065954E-1,-4.156439E-2,-2.6566004E-2,-2.4140157E-1,-1.8565735E-1,3.356113E-1,-2.776828E-1,-4.742696E-3,-1.23706676E-1,1.2760444E-1,1.4598598E-1,-3.04713E-1,7.017813E-2,-5.107213E-1,-1.6152403E-1,4.1471016E-1,-2.0376642E-1,3.5857473E-2,-1.0418306E-1,1.00475214E-1,-2.7157518E-1,-4.2995594E-2,1.4890769E-1,-9.066957E-2],"categories":[],"categories_nodes":[],"categories_segments":[],"categories_sizes":[],"default_left":[0,0,0,0,0,0,0,0,0,0,0,0,0,0,0,0,0,0,0,0,0,0,0,0,0,0,0,0,0,0,0,0,0,0,0,0,0,0,0],"id":18,"left_children":[1,3,5,-1,7,9,11,-1,-1,13,15,17,19,21,23,-1,-1,25,-1,27,29,-1,-1,-1,-1,-1,31,33,35,-1,37,-1,-1,-1,-1,-1,-1,-1,-1],"loss_changes":[1.9719276E0,3.413136E-1,1.976637E0,0E0,5.7371378E-2,1.5885273E0,2.3112683E0,0E0,0E0,9.527545E-1,4.1666424E-1,1.3283546E0,3.5747626E0,6.8540907E-1,7.6373667E-1,0E0,0E0,9.286158E-1,0E0,1.8546777E0,2.5333905E0,0E0,0E0,0E0,0E0,0E0,7.421589E-1,1.5660443E0,1.2839644E0,0E0,1.9767694E0,0E0,0E0,0E0,0E0,0E0,0E0,0E0,0E0],"parents":[2147483647,0,0,1,1,2,2,4,4,5,5,6,6,9,9,10,10,11,11,12,12,13,13,14,14,17,17,19,19,20,20,26,26,27,27,28,28,30,30],"right_children":[2,4,6,-1,8,10,12,-1,-1,14,16,18,20,22,24,-1,-1,26,-1,28,30,-1,-1,-1,-1,-1,32,34,36,-1,38,-1,-1,-1,-1,-1,-1,-1,-1],"split_conditions":[-2.4691464E-2,-1.9809129E-2,-8.749818E-3,-2.1568207E-2,4.380681E-3,8.063871E-3,-3.4590036E-2,-2.562435E-1,-6.549876E-2,-3.498115E-3,-1.9917586E-3,-9.677472E-4,-9.4591025E-3,1.9578396E-3,-1.3641711E-2,1.6065954E-1,-4.156439E-2,-6.3186055E-3,-2.4140157E-1,-1.0276196E-2,-2.5672102E-2,-2.776828E-1,-4.742696E-3,-1.23706676E-1,1.2760444E-1,1.4598598E-1,9.363298E-4,-6.4605735E-3,-6.08822E-4,-1.6152403E-1,1.1686843E-2,-2.0376642E-1,3.5857473E-2,-1.0418306E-1,1.00475214E-1,-2.7157518E-1,-4.2995594E-2,1.4890769E-1,-9.066957E-2],"split_indices":[289,146,10,0,211,242,181,0,0,115,86,129,206,12,127,0,0,1,0,265,259,0,0,0,0,0,108,131,26,0,203,0,0,0,0,0,0,0,0],"split_type":[0,0,0,0,0,0,0,0,0,0,0,0,0,0,0,0,0,0,0,0,0,0,0,0,0,0,0,0,0,0,0,0,0,0,0,0,0,0,0],"sum_hessian":[7.602459E1,4.667557E0,7.135703E1,1.1498321E0,3.5177248E0,1.0154002E1,6.1203033E1,2.45733E0,1.0603948E0,7.999255E0,2.1547472E0,7.9175367E0,5.3285496E1,5.6109233E0,2.3883321E0,1.1151516E0,1.0395956E0,4.4667945E0,3.450742E0,2.0870764E1,3.2414734E1,4.5978503E0,1.013073E0,1.3734906E0,1.0148416E0,1.3065962E0,3.1601985E0,1.2117793E1,8.752971E0,2.2081635E0,3.020657E1,1.3592457E0,1.8009528E0,4.5815654E0,7.536227E0,3.5147724E0,5.2381983E0,2.7394432E1,2.8121376E0],"tree_param":{"num_deleted":"0","num_feature":"312","num_nodes":"39","size_leaf_vector":"1"}},{"base_weights":[-6.2844396E-2,-3.4345028E-1,1.0909332E-2,-8.369636E-2,-8.162297E-1,6.413618E-2,-6.004583E-1,3.2081148E-1,-4.5380425E-1,-6.0216326E-2,-2.772221E-1,1.2043245E-1,-5.9648156E-1,-2.9274615E-2,-2.1602096E-1,5.325228E-1,-9.954014E-2,3.038819E-2,-6.871685E-1,2.800678E-1,-1.1574639E-1,-2.3730707E-1,1.2617481E-3,6.869088E-3,1.9953457E-1,-2.4894516E-1,-4.2403296E-2,-3.7120843E-1,4.4055814E-1,3.556304E-1,-3.010405E-1,4.110956E-2,-2.1078897E-1,-1.7185615E-1,1.5804957E-1,-5.0341636E-2,1.9191734E-1,-1.9173996E-1,-1.4500392E-2],"categories":[],"categories_nodes":[],"categories_segments":[],"categories_sizes":[],"default_left":[0,0,0,0,0,0,0,0,0,0,0,0,0,0,0,0,0,0,0,0,0,0,0,0,0,0,0,0,0,0,0,0,0,0,0,0,0,0,0],"id":19,"left_children":[1,3,5,7,9,11,13,15,17,-1,-1,19,21,-1,-1,23,-1,-1,25,27,29,-1,-1,-1,-1,-1,-1,31,33,35,37,-1,-1,-1,-1,-1,-1,-1,-1],"loss_changes":[1.496352E0,1.7788869E0,1.9284966E0,1.7657863E0,1.6097975E-1,2.0924506E0,2.1532965E-1,9.720563E-1,8.5533535E-1,0E0,0E0,1.9513723E0,5.2153003E-1,0E0,0E0,3.044194E-1,0E0,0E0,2.2520256E-1,3.3684824E0,1.961787E0,0E0,0E0,0E0,0E0,0E0,0E0,1.2088113E0,2.4926019E0,1.0665457E0,1.3177105E0,0E0,0E0,0E0,0E0,0E0,0E0,0E0,0E0],"parents":[2147483647,0,0,1,1,2,2,3,3,4,4,5,5,6,6,7,7,8,8,11,11,12,12,15,15,18,18,19,19,20,20,27,27,28,28,29,29,30,30],"right_children":[2,4,6,8,10,12,14,16,18,-1,-1,20,22,-1,-1,24,-1,-1,26,28,30,-1,-1,-1,-1,-1,-1,32,34,36,38,-1,-1,-1,-1,-1,-1,-1,-1],"split_conditions":[-4.896173E-3,-2.7057643E-3,2.4691464E-2,-5.026738E-4,-6.0570706E-3,2.3668155E-2,-4.4161314E-3,-1.2582033E-3,-2.716031E-3,-6.0216326E-2,-2.772221E-1,4.7034305E-3,7.248081E-3,-2.9274615E-2,-2.1602096E-1,-1.1898631E-2,-9.954014E-2,3.038819E-2,3.107019E-3,-8.117476E-3,-1.0550375E-2,-2.3730707E-1,1.2617481E-3,6.869088E-3,1.9953457E-1,-2.4894516E-1,-4.2403296E-2,3.1296255E-3,-1.2025454E-2,6.1421614E-4,-4.574752E-3,4.110956E-2,-2.1078897E-1,-1.7185615E-1,1.5804957E-1,-5.0341636E-2,1.9191734E-1,-1.9173996E-1,-1.4500392E-2],"split_indices":[126,51,289,113,298,205,98,200,246,0,0,242,290,0,0,110,0,0,1,226,31,0,0,0,0,0,0,144,34,129,67,0,0,0,0,0,0,0,0],"split_type":[0,0,0,0,0,0,0,0,0,0,0,0,0,0,0,0,0,0,0,0,0,0,0,0,0,0,0,0,0,0,0,0,0,0,0,0,0,0,0],"sum_hessian":[7.1121414E1,1.4041592E1,5.707982E1,9.822149E0,4.2194424E0,5.333175E1,3.7480707E0,4.7566185E0,5.065531E0,1.0556488E0,3.1637938E0,4.9897316E1,3.4344337E0,1.0691065E0,2.6789641E0,3.7304504E0,1.026168E0,1.6667678E0,3.398763E0,2.9662407E1,2.023491E1,2.3548987E0,1.079535E0,1.0123018E0,2.7181485E0,2.2820563E0,1.1167067E0,5.604828E0,2.4057579E1,5.4503303E0,1.4784578E1,2.4437816E0,3.1610465E0,1.4449188E0,2.261266E1,2.0614655E0,3.3888648E0,5.6698217E0,9.114757E0],"tree_param":{"num_deleted":"0","num_feature":"312","num_nodes":"39","size_leaf_vector":"1"}}]},"name":"gbtree"},"learner_model_param":{"base_score":"5E-1","boost_from_average":"1","num_class":"0","num_feature":"312","num_target":"1"},"objective":{"name":"binary:logistic","reg_loss_param":{"scale_pos_weight":"1"}}},"version":[3,0,0]}