{"learner":{"attributes":{"scikit_learn":"{\"_estimator_type\": \"classifier\"}"},"feature_names":[],"feature_types":[],"gradient_booster":{"model":{"gbtree_model_param":{"num_parallel_tree":"1","num_trees":"20"},"iteration_indptr":[0,1,2,3,4,5,6,7,8,9,10,11,12,13,14,15,16,17,18,19,20],"tree_info":[0,0,0,0,0,0,0,0,0,0,0,0,0,0,0,0,0,0,0,0],"trees":[{"base_weights":[-0E0,2.3787168E-1,-1.1259259E0,-1.0889679E0,6.093906E-1,-1.2153846E0,8.5714287E-1,3.818182E-1,-1.1678832E0,-7.804878E-1,7.3022753E-1,-1.8241758E0,-8.67052E-1,3.6E-1,-0E0,-4.3243244E-1,-1.4117647E0,8E-1,-1.2121212E0,8.6454654E-1,-7.692308E-1,-6.666667E-2,-5.72093E-1,-2.2222222E-1,-1.1929824E0,-1.0204082E0,6.2068963E-1,-1.0103092E0,-1.7117118E0,-3E-1,4.5000002E-1,-1.6296296E0,5E-1,1.0013496E0,-7.1428575E-2,4.6511628E-2,-1.5897436E0,2.9787233E-1,-4.2000002E-1,-1.3461539E0,2.857143E-1,1.5E-1,-4.702703E-1,-2.7272728E-1,3.818182E-1,-4.1538465E-1,1.3043478E-1,-5.327103E-1,-0E0,-5.28E-1,-0E0,3.6E-1,-1.20000005E-1,-1.0714287E-2,3.535545E-1,-3.6666667E-1,1.35E-1,-4.5000002E-1,2.516129E-1,-0E0,-5.314286E-1,-3E-1,2.5714287E-1,2.0000002E-1,-4.4242424E-1,-3E-1,3.6E-1],"categories":[],"categories_nodes":[],"categories_segments":[],"categories_sizes":[],"default_left":[0,0,0,0,0,0,0,0,0,0,0,0,0,0,0,0,0,0,0,0,0,0,0,0,0,0,0,0,0,0,0,0,0,0,0,0,0,0,0,0,0,0,0,0,0,0,0,0,0,0,0,0,0,0,0,0,0,0,0,0,0,0,0,0,0,0,0],"id":0,"left_children":[1,3,5,7,9,11,13,-1,15,17,19,21,23,-1,-1,25,27,29,31,33,35,-1,-1,37,39,41,43,45,47,-1,-1,49,51,53,55,57,59,61,-1,63,65,-1,-1,-1,-1,-1,-1,-1,-1,-1,-1,-1,-1,-1,-1,-1,-1,-1,-1,-1,-1,-1,-1,-1,-1,-1,-1],"loss_changes":[1.0364862E2,1.5815988E2,1.3016434E1,1.4579147E1,4.2599075E1,1.220237E1,1.0285714E0,0E0,1.1675858E1,1.495462E1,4.713942E1,2.5938568E0,8.824734E0,0E0,0E0,1.2088746E1,4.411827E0,7.8E0,1.2609428E1,2.7248901E1,1.312582E1,0E0,0E0,1.0064775E1,6.839691E0,1.0974628E1,8.388715E0,1.3718996E1,3.0394897E0,0E0,0E0,2.8681488E0,3E0,3.407843E1,1.735159E1,1.4428357E1,2.8161182E0,9.386019E0,0E0,7.7128983E0,5.3142858E0,0E0,0E0,0E0,0E0,0E0,0E0,0E0,0E0,0E0,0E0,0E0,0E0,0E0,0E0,0E0,0E0,0E0,0E0,0E0,0E0,0E0,0E0,0E0,0E0,0E0,0E0],"parents":[2147483647,0,0,1,1,2,2,3,3,4,4,5,5,6,6,8,8,9,9,10,10,11,11,12,12,15,15,16,16,17,17,18,18,19,19,20,20,23,23,24,24,25,25,26,26,27,27,28,28,31,31,32,32,33,33,34,34,35,35,36,36,37,37,39,39,40,40],"right_children":[2,4,6,8,10,12,14,-1,16,18,20,22,24,-1,-1,26,28,30,32,34,36,-1,-1,38,40,42,44,46,48,-1,-1,50,52,54,56,58,60,62,-1,64,66,-1,-1,-1,-1,-1,-1,-1,-1,-1,-1,-1,-1,-1,-1,-1,-1,-1,-1,-1,-1,-1,-1,-1,-1,-1,-1],"split_conditions":[8.22312E-2,-7.955704E-2,4.847052E-2,-7.580767E-3,-2.2009581E-2,-3.551365E-2,4.38986E-3,3.818182E-1,1.7045278E-2,-3.0729001E-2,2.2009581E-2,-2.1413382E-2,-3.1895975E-3,3.6E-1,-0E0,-1.6740631E-2,1.3307569E-2,-4.9149442E-2,-9.193354E-3,2.1478154E-2,-4.264722E-3,-6.666667E-2,-5.72093E-1,8.644702E-3,3.0114034E-1,-4.2059068E-2,-1.7171569E-1,2.1133482E-4,-5.4781614E-3,-3E-1,4.5000002E-1,1.6748756E-2,1.6582219E-2,-2.1478154E-2,2.0681357E-2,-3.2040514E-2,8.45666E-3,-5.385593E-3,-4.2000002E-1,-3.6315817E-2,-3.2921538E-2,1.5E-1,-4.702703E-1,-2.7272728E-1,3.818182E-1,-4.1538465E-1,1.3043478E-1,-5.327103E-1,-0E0,-5.28E-1,-0E0,3.6E-1,-1.20000005E-1,-1.0714287E-2,3.535545E-1,-3.6666667E-1,1.35E-1,-4.5000002E-1,2.516129E-1,-0E0,-5.314286E-1,-3E-1,2.5714287E-1,2.0000002E-1,-4.4242424E-1,-3E-1,3.6E-1],"split_indices":[123,123,167,66,101,101,1,0,12,43,101,27,190,0,0,108,308,27,32,14,205,0,0,212,40,128,145,288,206,0,0,14,19,14,198,19,32,232,0,163,1,0,0,0,0,0,0,0,0,0,0,0,0,0,0,0,0,0,0,0,0,0,0,0,0,0,0],"split_type":[0,0,0,0,0,0,0,0,0,0,0,0,0,0,0,0,0,0,0,0,0,0,0,0,0,0,0,0,0,0,0,0,0,0,0,0,0,0,0,0,0,0,0,0,0,0,0,0,0,0,0,0,0,0,0,0,0,0,0,0,0,0,0,0,0,0,0],"sum_hessian":[3.85E2,3.185E2,6.65E1,6.925E1,2.4925E2,6.4E1,2.5E0,1.75E0,6.75E1,1.95E1,2.2975E2,2.175E1,4.225E1,1.5E0,1E0,1.75E1,5E1,4E0,1.55E1,2.1125E2,1.85E1,1.25E0,2.05E1,1.475E1,2.75E1,1.125E1,6.25E0,2.325E1,2.675E1,1E0,3E0,1.25E1,3E0,1.8425E2,2.7E1,9.75E0,8.75E0,1.075E1,4E0,2.5E1,2.5E0,3E0,8.25E0,1.75E0,4.5E0,1.85E1,4.75E0,2.575E1,1E0,1.15E1,1E0,1.5E0,1.5E0,2.7E1,1.5725E2,8E0,1.9E1,3E0,6.75E0,1E0,7.75E0,3E0,7.75E0,1.25E0,2.375E1,1E0,1.5E0],"tree_param":{"num_deleted":"0","num_feature":"309","num_nodes":"67","size_leaf_vector":"1"}},{"base_weights":[-7.938558E-3,1.2424699E-1,-1.1584281E0,3.5233435E-1,-8.465245E-1,3.3470094E-1,-1.2782007E0,-4.266915E-1,5.796618E-1,-9.078121E-1,3.161502E-1,-1.3666869E0,2.1649571E-1,5.7308614E-1,-6.646622E-1,-5.251047E-1,6.794201E-1,-1.4594315E0,-6.1629003E-1,-1.492102E0,-3.5805273E-1,-8.0331194E-1,1.1266319E0,-4.803158E-2,-1.1198831E0,4.651051E-1,-1.3660022E0,-7.4133776E-2,8.7944424E-1,-4.4975144E-1,-1.2793997E-1,-1.2785347E0,-3.379015E-1,-7.9130724E-2,-1.5424098E0,1.8690847E-1,-3.3462268E-1,5.273812E-2,-3.791224E-1,4.0482E-1,-6.2163E-2,-2.7054507E-1,1.07606545E-1,-4.076349E-1,5.7475786E-3,-3.340664E-1,2.5707042E-1,-5.2071875E-1,-4.500542E-2,1.4382091E-1,-2.0445494E-1,2.93175E-1,-2.3756517E-1,-4.5577565E-1,1.1301092E-4,-2.6493073E-1,3.6751855E-2,-1.3920225E-1,-4.711271E-1],"categories":[],"categories_nodes":[],"categories_segments":[],"categories_sizes":[],"default_left":[0,0,0,0,0,0,0,0,0,0,0,0,0,0,0,0,0,0,0,0,0,0,0,0,0,0,0,0,0,0,0,0,0,0,0,0,0,0,0,0,0,0,0,0,0,0,0,0,0,0,0,0,0,0,0,0,0,0,0],"id":1,"left_children":[1,3,5,7,9,-1,11,13,15,17,-1,19,-1,21,23,25,27,29,31,33,35,37,39,41,43,45,47,49,51,-1,-1,53,55,-1,57,-1,-1,-1,-1,-1,-1,-1,-1,-1,-1,-1,-1,-1,-1,-1,-1,-1,-1,-1,-1,-1,-1,-1,-1],"loss_changes":[5.6810066E1,7.4499855E1,1.1911461E1,4.8428383E1,8.416599E0,0E0,7.54018E0,1.5139748E1,2.3614487E1,9.165134E0,0E0,3.9959564E0,0E0,1.0401035E1,1.4141304E1,1.5657957E1,2.9305092E1,2.1896744E-1,7.436165E0,1.5419235E0,4.6153326E0,2.0968761E0,3.0444775E0,8.144291E0,7.9304047E0,6.540139E0,4.240103E0,1.4317681E1,2.5845558E1,0E0,0E0,3.778494E0,7.991639E0,0E0,1.8031311E-1,0E0,0E0,0E0,0E0,0E0,0E0,0E0,0E0,0E0,0E0,0E0,0E0,0E0,0E0,0E0,0E0,0E0,0E0,0E0,0E0,0E0,0E0,0E0,0E0],"parents":[2147483647,0,0,1,1,2,2,3,3,4,4,6,6,7,7,8,8,9,9,11,11,13,13,14,14,15,15,16,16,17,17,18,18,19,19,20,20,21,21,22,22,23,23,24,24,25,25,26,26,27,27,28,28,31,31,32,32,34,34],"right_children":[2,4,6,8,10,-1,12,14,16,18,-1,20,-1,22,24,26,28,30,32,34,36,38,40,42,44,46,48,50,52,-1,-1,54,56,-1,58,-1,-1,-1,-1,-1,-1,-1,-1,-1,-1,-1,-1,-1,-1,-1,-1,-1,-1,-1,-1,-1,-1,-1,-1],"split_conditions":[2.9617159E-2,8.22312E-2,-4.239148E-2,-1.2517742E-2,8.890703E-2,3.3470094E-1,3.0394116E-2,-7.579518E-2,-4.0461667E-2,-3.551365E-2,3.161502E-1,-1.0898381E-2,2.1649571E-1,-1.2961358E-1,4.3038937E-4,2.2369805E-3,-2.3358023E-2,-2.674269E-3,-1.7307727E-2,-1.16998464E-1,-7.408634E-4,2.643604E-3,1.2230456E-2,-2.2183046E-2,3.2336406E-2,-8.576252E-2,-4.6242326E-3,8.778604E-3,3.972273E-2,-4.4975144E-1,-1.2793997E-1,2.6020741E-2,-2.5183404E-2,-7.9130724E-2,-8.136841E-2,1.8690847E-1,-3.3462268E-1,5.273812E-2,-3.791224E-1,4.0482E-1,-6.2163E-2,-2.7054507E-1,1.07606545E-1,-4.076349E-1,5.7475786E-3,-3.340664E-1,2.5707042E-1,-5.2071875E-1,-4.500542E-2,1.4382091E-1,-2.0445494E-1,2.93175E-1,-2.3756517E-1,-4.5577565E-1,1.1301092E-4,-2.6493073E-1,3.6751855E-2,-1.3920225E-1,-4.711271E-1],"split_indices":[101,123,167,141,81,0,143,133,195,101,0,270,0,237,173,112,171,12,100,84,128,58,226,284,14,96,86,206,195,0,0,151,30,0,90,0,0,0,0,0,0,0,0,0,0,0,0,0,0,0,0,0,0,0,0,0,0,0,0],"split_type":[0,0,0,0,0,0,0,0,0,0,0,0,0,0,0,0,0,0,0,0,0,0,0,0,0,0,0,0,0,0,0,0,0,0,0,0,0,0,0,0,0,0,0,0,0,0,0,0,0,0,0,0,0,0,0,0,0,0,0],"sum_hessian":[3.7161212E2,3.3411588E2,3.7496254E1,2.7106494E2,6.3050934E1,1.4600327E0,3.603622E1,6.1033363E1,2.1003157E2,6.1587013E1,1.463922E0,3.48125E1,1.2237209E0,1.1463587E1,4.9569775E1,1.7041618E1,1.9298994E2,1.9908955E1,4.167806E1,3.053625E1,4.2762513E0,3.1585653E0,8.305022E0,2.1522055E1,2.804772E1,8.031232E0,9.010387E0,4.061392E1,1.5237604E2,1.873679E1,1.1721647E0,1.1271712E1,3.0406343E1,1.447072E0,2.9089176E1,1.940233E0,2.3360183E0,1.2079813E0,1.9505839E0,7.106487E0,1.198535E0,6.5516224E0,1.4970432E1,2.302549E1,5.02223E0,1.2306025E0,6.800629E0,6.5817432E0,2.4286437E0,2.135908E1,1.9254839E1,1.4434431E2,8.031713E0,9.328055E0,1.9436574E0,1.3500898E1,1.6905445E1,1.1812199E0,2.7907957E1],"tree_param":{"num_deleted":"0","num_feature":"309","num_nodes":"59","size_leaf_vector":"1"}},{"base_weights":[-1.5527256E-2,-9.242549E-1,9.5835805E-2,-1.1589092E0,2.2943057E-1,-6.83711E-1,2.866532E-1,2.9385682E-2,-1.2925506E0,-4.6318653E-1,3.87366E-1,-1.1588569E0,-3.2575533E-1,4.5983177E-1,-3.7458253E-1,-2.4842231E-1,2.5153574E-1,3.2673955E-2,-1.3627346E0,-3.190843E-1,2.6574224E-1,-1.4950626E0,-5.6429434E-1,-6.755811E-1,3.582477E-1,-1.8466651E-1,6.7243135E-1,-1.0659388E0,2.3255423E-1,-1.3918763E0,-9.197588E-2,-1.4097893E-1,-4.6160865E-1,3.5974374E-1,-9.051723E-1,-9.60931E-1,7.275879E-1,1.2844571E0,-4.6522656E-1,-1.1731873E0,1.7121558E-1,8.919843E-1,7.8189455E-2,-1.1815435E0,2.0703278E-1,-2.803783E-1,1.097176E0,-4.265607E-1,-1.0132052E-1,1.0446559E-1,-3.8625064E-1,2.2294112E-1,-3.288678E-1,-1.9754006E-1,4.045997E-1,1.21260986E-1,4.195487E-1,2.2643755E-1,-3.2904947E-1,2.7070087E-1,-4.3378603E-1,1.4792703E-1,-2.972277E-1,-7.1030096E-3,3.023945E-1,1.7159581E-1,-1.2047195E-1,7.394463E-2,-3.9920542E-1,-2.586172E-1,1.739254E-1,4.0394974E-1,-1.18693866E-1],"categories":[],"categories_nodes":[],"categories_segments":[],"categories_sizes":[],"default_left":[0,0,0,0,0,0,0,0,0,0,0,0,0,0,0,0,0,0,0,0,0,0,0,0,0,0,0,0,0,0,0,0,0,0,0,0,0,0,0,0,0,0,0,0,0,0,0,0,0,0,0,0,0,0,0,0,0,0,0,0,0,0,0,0,0,0,0,0,0,0,0,0,0],"id":2,"left_children":[1,3,5,7,9,11,13,15,17,19,-1,21,23,25,27,-1,-1,-1,29,-1,-1,31,33,35,37,39,41,43,45,47,-1,-1,-1,-1,49,51,53,55,57,59,61,63,65,67,-1,69,71,-1,-1,-1,-1,-1,-1,-1,-1,-1,-1,-1,-1,-1,-1,-1,-1,-1,-1,-1,-1,-1,-1,-1,-1,-1,-1],"loss_changes":[3.5709454E1,1.0694065E1,4.6973583E1,5.147579E0,5.999988E0,1.01903515E1,2.9182076E1,3.6291947E0,2.9954147E0,5.1390533E0,0E0,4.4147835E0,9.0543585E0,2.7693333E1,2.2548862E1,0E0,0E0,0E0,4.239235E-1,0E0,0E0,1.4343262E-3,7.762844E0,1.0594047E1,1.0600783E1,1.803439E1,1.9697739E1,5.8948135E0,1.3217079E1,3.6121368E-1,0E0,0E0,0E0,0E0,5.182309E0,5.6487274E0,4.9731436E0,8.104229E-2,6.7434187E0,8.973799E0,1.4755616E1,1.1764801E1,1.01732025E1,5.406254E0,0E0,1.0039107E1,4.642562E0,0E0,0E0,0E0,0E0,0E0,0E0,0E0,0E0,0E0,0E0,0E0,0E0,0E0,0E0,0E0,0E0,0E0,0E0,0E0,0E0,0E0,0E0,0E0,0E0,0E0,0E0],"parents":[2147483647,0,0,1,1,2,2,3,3,4,4,5,5,6,6,7,7,8,8,9,9,11,11,12,12,13,13,14,14,18,18,21,21,22,22,23,23,24,24,25,25,26,26,27,27,28,28,29,29,34,34,35,35,36,36,37,37,38,38,39,39,40,40,41,41,42,42,43,43,45,45,46,46],"right_children":[2,4,6,8,10,12,14,16,18,20,-1,22,24,26,28,-1,-1,-1,30,-1,-1,32,34,36,38,40,42,44,46,48,-1,-1,-1,-1,50,52,54,56,58,60,62,64,66,68,-1,70,72,-1,-1,-1,-1,-1,-1,-1,-1,-1,-1,-1,-1,-1,-1,-1,-1,-1,-1,-1,-1,-1,-1,-1,-1,-1,-1],"split_conditions":[-2.79103E-2,3.533929E-2,-1.6114675E-2,-7.2115004E-2,-2.5379587E-2,2.7418036E-3,1.3077222E-2,-4.7992423E-2,-2.836755E-2,1.16998464E-1,3.87366E-1,1.0600482E-2,-4.320798E-4,-1.1840624E-2,-3.6400529E-3,-2.4842231E-1,2.5153574E-1,3.2673955E-2,9.585944E-2,-3.190843E-1,2.6574224E-1,-3.1962868E-2,5.964573E-2,2.204862E-2,3.307918E-3,-2.75578E-3,1.5292873E-2,2.4549356E-2,1.4077449E-2,4.5100514E-2,-9.197588E-2,-1.4097893E-1,-4.6160865E-1,3.5974374E-1,-3.391606E-2,5.893832E-3,-7.209607E-3,-2.307132E-2,-3.787012E-3,-3.6085155E-2,4.550659E-2,-8.12883E-3,-1.4375762E-2,-1.951058E-1,2.0703278E-1,2.5483243E-2,1.4585128E-1,-4.265607E-1,-1.0132052E-1,1.0446559E-1,-3.8625064E-1,2.2294112E-1,-3.288678E-1,-1.9754006E-1,4.045997E-1,1.21260986E-1,4.195487E-1,2.2643755E-1,-3.2904947E-1,2.7070087E-1,-4.3378603E-1,1.4792703E-1,-2.972277E-1,-7.1030096E-3,3.023945E-1,1.7159581E-1,-1.2047195E-1,7.394463E-2,-3.9920542E-1,-2.586172E-1,1.739254E-1,4.0394974E-1,-1.18693866E-1],"split_indices":[101,131,130,84,44,154,135,14,13,84,0,150,233,131,232,0,0,0,65,0,0,71,180,29,126,212,2,29,142,90,0,0,0,0,166,154,165,98,131,171,195,129,142,7,0,96,235,0,0,0,0,0,0,0,0,0,0,0,0,0,0,0,0,0,0,0,0,0,0,0,0,0,0],"split_type":[0,0,0,0,0,0,0,0,0,0,0,0,0,0,0,0,0,0,0,0,0,0,0,0,0,0,0,0,0,0,0,0,0,0,0,0,0,0,0,0,0,0,0,0,0,0,0,0,0,0,0,0,0,0,0,0,0,0,0,0,0,0,0,0,0,0,0,0,0,0,0,0,0],"sum_hessian":[3.509895E2,3.752056E1,3.1346896E2,3.117515E1,6.3454094E0,6.1134197E1,2.5233475E2,3.2305243E0,2.7944626E1,4.181523E0,2.1638865E0,2.5305954E1,3.5828243E1,2.0020529E2,5.2129467E1,1.5569519E0,1.6735723E0,1.3063817E0,2.6638245E1,3.0399933E0,1.1415297E0,1.5197631E1,1.0108322E1,2.371287E1,1.2115373E1,4.9692677E1,1.5051262E2,2.4020855E1,2.810861E1,2.5613619E1,1.0246258E0,1.100969E0,1.4096662E1,1.2295845E0,8.878738E0,1.9967442E1,3.7454288E0,5.4385347E0,6.6768384E0,1.2546409E1,3.7146267E1,1.0954008E2,4.0972534E1,2.2844131E1,1.176724E0,1.806648E1,1.0042129E1,2.4565828E1,1.0477899E0,2.0961504E0,6.7825875E0,1.1382482E0,1.8829193E1,1.1403401E0,2.6050887E0,1.1449798E0,4.293555E0,2.210999E0,4.4658394E0,1.1892335E0,1.1357175E1,2.9539326E1,7.6069403E0,1.240593E1,9.713415E1,2.0096226E1,2.0876307E1,2.0984855E0,2.0745646E1,1.0776457E1,7.2900248E0,8.688963E0,1.353166E0],"tree_param":{"num_deleted":"0","num_feature":"309","num_nodes":"73","size_leaf_vector":"1"}},{"base_weights":[-1.4255908E-2,7.231683E-2,-8.5275054E-1,-6.8456554E-1,1.9861522E-1,2.7124375E-1,-9.8306376E-1,-1.1530623E0,-1.2141019E-1,2.5586608E-1,-9.62445E-1,1.4048567E-1,-1.1078434E0,1.8227346E-2,-1.2723134E0,7.85821E-1,-6.37959E-1,-1.7181313E-1,3.9772764E-1,2.450651E-1,-1.340441E0,1.8591935E-2,-1.2437727E0,1.392838E-1,-1.327544E-1,-6.4338125E-2,-3.9701906E-1,1.2653638E0,-2.1319693E-1,6.1337006E-1,-9.1258764E-1,-3.7104437E-1,5.194514E-1,-8.993314E-2,5.8255E-1,-3.6612853E-2,-1.4579322E0,2.4015142E-1,-2.5008354E-1,-3.8945243E-1,-2.4134658E-2,4.3433234E-1,4.605281E-2,4.8154112E-2,2.2698227E-1,-3.2080144E-1,9.070305E-2,-4.2212072E-1,-2.488677E-2,2.8633323E-1,-2.2967482E-1,2.5047773E-1,-8.636572E-2,1.9966617E-1,-2.0638199E-1,-1.3634719E-1,-4.6015948E-1],"categories":[],"categories_nodes":[],"categories_segments":[],"categories_sizes":[],"default_left":[0,0,0,0,0,0,0,0,0,0,0,0,0,0,0,0,0,0,0,0,0,0,0,0,0,0,0,0,0,0,0,0,0,0,0,0,0,0,0,0,0,0,0,0,0,0,0,0,0,0,0,0,0,0,0,0,0],"id":3,"left_children":[1,3,5,7,9,-1,11,13,15,17,19,-1,21,23,25,27,29,31,33,-1,35,37,39,-1,-1,-1,-1,41,-1,43,45,47,49,51,53,-1,55,-1,-1,-1,-1,-1,-1,-1,-1,-1,-1,-1,-1,-1,-1,-1,-1,-1,-1,-1,-1],"loss_changes":[2.3849428E1,2.8617998E1,7.9279804E0,1.1160931E1,1.7270851E1,0E0,5.7891006E0,3.2726364E0,1.0140631E1,1.4925045E1,9.331058E0,0E0,4.171795E0,8.498528E-1,8.5793304E-1,6.5760717E0,5.253534E0,8.688954E0,1.6652748E1,0E0,1.3220882E0,3.26795E0,1.4266167E0,0E0,0E0,0E0,0E0,1.0657187E0,0E0,7.679725E-2,2.532876E0,1.4350668E1,8.678795E0,9.666292E0,1.4556778E1,0E0,2.4097443E-2,0E0,0E0,0E0,0E0,0E0,0E0,0E0,0E0,0E0,0E0,0E0,0E0,0E0,0E0,0E0,0E0,0E0,0E0,0E0,0E0],"parents":[2147483647,0,0,1,1,2,2,3,3,4,4,6,6,7,7,8,8,9,9,10,10,12,12,13,13,14,14,15,15,16,16,17,17,18,18,20,20,21,21,22,22,27,27,29,29,30,30,31,31,32,32,33,33,34,34,36,36],"right_children":[2,4,6,8,10,-1,12,14,16,18,20,-1,22,24,26,28,30,32,34,-1,36,38,40,-1,-1,-1,-1,42,-1,44,46,48,50,52,54,-1,56,-1,-1,-1,-1,-1,-1,-1,-1,-1,-1,-1,-1,-1,-1,-1,-1,-1,-1,-1,-1],"split_conditions":[2.9617159E-2,-2.4225539E-2,-1.2033903E-1,4.217632E-3,2.9433453E-2,2.7124375E-1,-4.2512856E-2,-4.148115E-2,2.3275489E-2,-5.0247435E-2,1.8587474E-2,1.4048567E-1,-5.157864E-2,-4.5386185E-3,-4.076874E-2,5.302596E-3,-1.9585345E-2,1.2432765E-3,-2.4563966E-2,2.450651E-1,-5.531971E-2,2.7979907E-2,-1.268577E-3,1.392838E-1,-1.327544E-1,-6.4338125E-2,-3.9701906E-1,-6.309206E-3,-2.1319693E-1,-5.3469665E-2,-1.7824423E-2,1.339057E-3,7.238168E-2,-2.6443867E-2,3.972273E-2,-3.6612853E-2,3.1077405E-2,2.4015142E-1,-2.5008354E-1,-3.8945243E-1,-2.4134658E-2,4.3433234E-1,4.605281E-2,4.8154112E-2,2.2698227E-1,-3.2080144E-1,9.070305E-2,-4.2212072E-1,-2.488677E-2,2.8633323E-1,-2.2967482E-1,2.5047773E-1,-8.636572E-2,1.9966617E-1,-2.0638199E-1,-1.3634719E-1,-4.6015948E-1],"split_indices":[101,101,84,205,244,0,128,63,19,24,166,0,216,82,86,253,13,203,171,0,178,2,219,0,0,0,0,171,0,108,44,126,306,1,195,0,244,0,0,0,0,0,0,0,0,0,0,0,0,0,0,0,0,0,0,0,0],"split_type":[0,0,0,0,0,0,0,0,0,0,0,0,0,0,0,0,0,0,0,0,0,0,0,0,0,0,0,0,0,0,0,0,0,0,0,0,0,0,0,0,0,0,0,0,0,0,0,0,0,0,0,0,0,0,0,0,0],"sum_hessian":[3.2669675E2,2.9695096E2,2.9745785E1,4.183307E1,2.5511789E2,1.6439271E0,2.8101858E1,2.2263908E1,1.956916E1,2.4387238E2,1.1245508E1,2.006837E0,2.609502E1,2.1355512E0,2.0128357E1,6.9105854E0,1.2658574E1,6.0691284E1,1.831811E2,1.7669429E0,9.478565E0,2.9028196E0,2.3192202E1,1.0811726E0,1.0543786E0,1.1666775E0,1.896168E1,5.3504763E0,1.5601093E0,2.0561943E0,1.060238E1,4.7472378E1,1.3218905E1,5.0485806E1,1.326953E2,1.0129446E0,8.46562E0,1.5454789E0,1.3573406E0,2.2045347E1,1.1468546E0,4.336848E0,1.0136285E0,1.0036595E0,1.0525348E0,9.4969225E0,1.1054572E0,9.483529E0,3.798885E1,1.0068061E1,3.1508446E0,8.333387E0,4.2152416E1,1.25004616E2,7.69068E0,1.0869629E0,7.3786573E0],"tree_param":{"num_deleted":"0","num_feature":"309","num_nodes":"57","size_leaf_vector":"1"}},{"base_weights":[-1.7001648E-2,6.129828E-2,-6.4802295E-1,-4.1239807E-1,2.1972576E-1,4.799772E-1,-8.1418186E-1,-5.440287E-2,-9.881476E-1,3.742569E-1,-1.8183644E-1,3.1670842E-1,-2.3834144E-1,1.4816393E-1,-9.5418876E-1,-3.4353164E-1,7.6896864E-1,-1.1910526E0,-5.4174405E-2,-3.7038612E-1,5.7500696E-1,2.6624778E-1,-1.0983914E0,3.028016E-1,-2.4996583E-1,-1.0192772E0,7.525267E-2,-8.973128E-1,9.253239E-3,1.2175981E0,-8.2471275E-1,4.0871136E-2,-1.3038869E0,4.7637922E-1,-2.5118575E-1,-7.0560205E-1,9.413294E-1,7.3374903E-1,-2.0811431E-1,-6.599353E-1,5.272185E-1,4.233651E-1,-1.3595068E0,4.0296767E-2,-1.0767773E0,1.6127408E-2,-3.6606655E-1,9.393979E-2,-3.0852216E-1,4.162461E-1,2.3883412E-2,-3.8061807E-1,1.7312633E-2,-4.343093E-2,-4.265287E-1,3.0871344E-1,-9.154104E-2,-1.2677253E-2,-3.9710814E-1,-6.9224685E-2,3.620806E-1,-2.837365E-1,2.3522766E-1,-2.058174E-1,3.260523E-1,3.829744E-2,-4.4664916E-1,-3.1744543E-1,2.0279625E-1,2.7414924E-1,-1.1228285E-1,-1.5170479E-1,-5.0816625E-1,-2.9750505E-2,-3.3505896E-1],"categories":[],"categories_nodes":[],"categories_segments":[],"categories_sizes":[],"default_left":[0,0,0,0,0,0,0,0,0,0,0,0,0,0,0,0,0,0,0,0,0,0,0,0,0,0,0,0,0,0,0,0,0,0,0,0,0,0,0,0,0,0,0,0,0,0,0,0,0,0,0,0,0,0,0,0,0,0,0,0,0,0,0,0,0,0,0,0,0,0,0,0,0,0,0],"id":4,"left_children":[1,3,5,7,9,11,13,15,17,19,21,-1,-1,23,25,27,29,31,33,35,37,39,41,-1,-1,43,-1,45,47,49,51,-1,53,55,-1,57,59,61,63,65,67,69,71,-1,73,-1,-1,-1,-1,-1,-1,-1,-1,-1,-1,-1,-1,-1,-1,-1,-1,-1,-1,-1,-1,-1,-1,-1,-1,-1,-1,-1,-1,-1,-1],"loss_changes":[1.5115702E1,2.0530144E1,6.719922E0,1.4087418E1,1.2773595E1,4.481433E0,4.156988E0,1.0586971E1,4.9092674E0,2.236394E1,2.3936266E1,0E0,0E0,4.7716646E0,2.306942E0,6.4131536E0,9.282276E0,3.3996506E0,2.7803683E0,1.4767193E1,1.4710682E1,9.888545E0,8.164463E0,0E0,0E0,1.8036118E0,0E0,3.9867287E0,6.9488807E0,1.7143316E0,1.3033144E0,0E0,2.5162697E0,2.0651224E0,0E0,1.065218E1,2.4441867E0,8.993137E0,1.34434185E1,6.144651E0,8.109482E0,1.7346241E0,3.865322E0,0E0,8.27158E-1,0E0,0E0,0E0,0E0,0E0,0E0,0E0,0E0,0E0,0E0,0E0,0E0,0E0,0E0,0E0,0E0,0E0,0E0,0E0,0E0,0E0,0E0,0E0,0E0,0E0,0E0,0E0,0E0,0E0,0E0],"parents":[2147483647,0,0,1,1,2,2,3,3,4,4,5,5,6,6,7,7,8,8,9,9,10,10,13,13,14,14,15,15,16,16,17,17,18,18,19,19,20,20,21,21,22,22,25,25,27,27,28,28,29,29,30,30,32,32,33,33,35,35,36,36,37,37,38,38,39,39,40,40,41,41,42,42,44,44],"right_children":[2,4,6,8,10,12,14,16,18,20,22,-1,-1,24,26,28,30,32,34,36,38,40,42,-1,-1,44,-1,46,48,50,52,-1,54,56,-1,58,60,62,64,66,68,70,72,-1,74,-1,-1,-1,-1,-1,-1,-1,-1,-1,-1,-1,-1,-1,-1,-1,-1,-1,-1,-1,-1,-1,-1,-1,-1,-1,-1,-1,-1,-1,-1],"split_conditions":[2.6697088E-2,-1.4126806E-2,-4.12448E-2,6.973795E-3,8.976701E-3,6.38488E-2,-7.093075E-3,-9.23963E-3,7.218044E-2,-1.239226E-2,7.2358623E-3,3.1670842E-1,-2.3834144E-1,1.5543836E-2,9.622022E-2,-3.3868942E-3,-5.485374E-2,-3.707627E-2,1.9624889E-2,1.312056E-2,1.6989447E-2,-9.2771046E-2,-1.7922103E-2,3.028016E-1,-2.4996583E-1,8.45666E-3,7.525267E-2,3.5875726E-2,2.3290712E-2,1.0264591E-1,6.7227613E-3,4.0871136E-2,-7.869912E-3,-3.4029142E-3,-2.5118575E-1,-2.1199856E-2,-5.378152E-2,-3.6588156E-1,-2.3093428E-3,3.5729587E-2,-2.9280951E-2,6.1931047E-3,-7.189129E-2,4.0296767E-2,-3.1822026E-2,1.6127408E-2,-3.6606655E-1,9.393979E-2,-3.0852216E-1,4.162461E-1,2.3883412E-2,-3.8061807E-1,1.7312633E-2,-4.343093E-2,-4.265287E-1,3.0871344E-1,-9.154104E-2,-1.2677253E-2,-3.9710814E-1,-6.9224685E-2,3.620806E-1,-2.837365E-1,2.3522766E-1,-2.058174E-1,3.260523E-1,3.829744E-2,-4.4664916E-1,-3.1744543E-1,2.0279625E-1,2.7414924E-1,-1.1228285E-1,-1.5170479E-1,-5.0816625E-1,-2.9750505E-2,-3.3505896E-1],"split_indices":[101,101,152,178,250,194,28,44,99,135,18,0,0,250,84,167,16,86,97,228,31,69,82,0,0,32,0,111,224,218,65,0,99,82,0,136,204,220,13,192,1,226,169,0,155,0,0,0,0,0,0,0,0,0,0,0,0,0,0,0,0,0,0,0,0,0,0,0,0,0,0,0,0,0,0],"split_type":[0,0,0,0,0,0,0,0,0,0,0,0,0,0,0,0,0,0,0,0,0,0,0,0,0,0,0,0,0,0,0,0,0,0,0,0,0,0,0,0,0,0,0,0,0,0,0,0,0,0,0,0,0,0,0,0,0,0,0,0,0,0,0,0,0,0,0,0,0,0,0,0,0,0,0],"sum_hessian":[3.0412665E2,2.7135815E2,3.276847E1,6.760799E1,2.0375018E2,3.9647028E0,2.8803768E1,4.2362133E1,2.5245852E1,1.4717975E2,5.657044E1,2.8492382E0,1.1154647E0,3.65089E0,2.5152878E1,3.1783915E1,1.0578219E1,2.0513956E1,4.731896E0,3.1073536E1,1.1610621E2,3.847187E1,1.8098568E1,1.9293653E0,1.7215248E0,2.4010143E1,1.1427346E0,1.1767875E1,2.0016039E1,8.438674E0,2.1395457E0,1.5910267E0,1.892293E1,3.0543048E0,1.6775907E0,2.5116863E1,5.956672E0,9.6590034E1,1.9516178E1,8.121161E0,3.0350708E1,2.5596714E0,1.5538896E1,1.0765109E0,2.2933632E1,3.1940084E0,8.573867E0,1.6022171E1,3.9938686E0,7.1517496E0,1.2869241E0,1.1321137E0,1.007432E0,1.9523932E0,1.6970537E1,1.6035744E0,1.4507306E0,1.263026E1,1.2486603E1,1.1247141E0,4.8319583E0,2.293339E0,9.429669E1,1.45983925E1,4.917785E0,4.598132E0,3.5230293E0,2.0793383E0,2.827137E1,1.494837E0,1.0648342E0,5.0799046E0,1.0458991E1,1.0401604E0,2.189347E1],"tree_param":{"num_deleted":"0","num_feature":"309","num_nodes":"75","size_leaf_vector":"1"}},{"base_weights":[-2.270925E-2,6.5779924E-2,-4.505883E-1,2.1737368E-1,-3.752789E-1,-1.16663076E-1,-9.589586E-1,2.893455E-1,-6.0065633E-1,-1.5923816E-1,-1.0197239E0,-3.872505E-1,5.7517034E-1,-1.1649202E0,4.2168847E-1,-8.4869945E-1,3.437094E-1,-1.2441285E0,2.8791294E-1,2.9376885E-1,-5.920649E-1,6.9110113E-1,-1.3868508E0,4.867766E-1,-6.7400306E-1,1.028753E0,-5.9806705E-1,-1.2799027E0,-6.2020127E-2,-9.2430905E-2,2.9566857E-1,-1.1657366E0,9.121832E-2,4.4107082E-1,-2.3199616E-1,-4.3566516E-1,3.0111179E-2,-4.3564382E-1,7.709429E-1,4.6746516E-1,-2.4978717E-1,2.117941E-1,-7.3323303E-1,3.9120615E-2,2.7097034E-1,-3.7896878E-1,-5.1132256E-1,-2.2307421E-1,3.0882013E-1,1.405766E-1,-1.0958642E0,1.71473E-2,3.7796554E-1,1.4358901E-2,-2.795299E-1,-4.1728684E-1,-8.899545E-2,-9.460544E-2,-3.8317028E-1,-3.181255E-2,1.6420001E-1,-2.1289004E-1,1.685593E-1,6.1981946E-2,-2.4696831E-1,-2.1712413E-2,3.1840575E-1,3.612674E-1,1.6492706E-2,-4.0803492E-2,-3.0088603E-1,-2.5181156E-1,1.109521E-1,1.6671269E-1,-2.564085E-1,-3.513473E-1,-4.67034E-2],"categories":[],"categories_nodes":[],"categories_segments":[],"categories_sizes":[],"default_left":[0,0,0,0,0,0,0,0,0,0,0,0,0,0,0,0,0,0,0,0,0,0,0,0,0,0,0,0,0,0,0,0,0,0,0,0,0,0,0,0,0,0,0,0,0,0,0,0,0,0,0,0,0,0,0,0,0,0,0,0,0,0,0,0,0,0,0,0,0,0,0,0,0,0,0,0,0],"id":5,"left_children":[1,3,5,7,9,11,13,15,17,19,21,23,25,27,29,31,33,35,37,39,41,43,45,47,49,51,53,55,-1,-1,-1,57,-1,59,61,-1,-1,63,65,67,-1,-1,69,-1,-1,71,-1,-1,-1,73,75,-1,-1,-1,-1,-1,-1,-1,-1,-1,-1,-1,-1,-1,-1,-1,-1,-1,-1,-1,-1,-1,-1,-1,-1,-1,-1],"loss_changes":[1.0694684E1,1.57458935E1,8.104045E0,1.0476142E1,8.231956E0,5.904156E0,5.9079266E0,1.0284144E1,8.634989E0,9.260013E0,1.0349993E1,5.945722E0,5.370194E0,1.590929E0,1.623358E0,3.1509395E0,8.7824E0,2.5472708E0,2.744616E0,4.9499516E0,4.920887E0,2.7582073E-1,3.4007206E0,4.8497477E0,6.097775E0,1.4576292E0,7.1788394E-1,1.2083035E0,0E0,0E0,0E0,1.8585491E-1,0E0,7.7788696E0,9.141099E0,0E0,0E0,1.0159373E0,1.1774321E0,6.266177E0,0E0,0E0,3.4336815E0,0E0,0E0,1.7980803E0,0E0,0E0,0E0,3.2794156E0,6.323786E-1,0E0,0E0,0E0,0E0,0E0,0E0,0E0,0E0,0E0,0E0,0E0,0E0,0E0,0E0,0E0,0E0,0E0,0E0,0E0,0E0,0E0,0E0,0E0,0E0,0E0,0E0],"parents":[2147483647,0,0,1,1,2,2,3,3,4,4,5,5,6,6,7,7,8,8,9,9,10,10,11,11,12,12,13,13,14,14,15,15,16,16,17,17,18,18,19,19,20,20,21,21,22,22,23,23,24,24,25,25,26,26,27,27,31,31,33,33,34,34,37,37,38,38,39,39,42,42,45,45,49,49,50,50],"right_children":[2,4,6,8,10,12,14,16,18,20,22,24,26,28,30,32,34,36,38,40,42,44,46,48,50,52,54,56,-1,-1,-1,58,-1,60,62,-1,-1,64,66,68,-1,-1,70,-1,-1,72,-1,-1,-1,74,76,-1,-1,-1,-1,-1,-1,-1,-1,-1,-1,-1,-1,-1,-1,-1,-1,-1,-1,-1,-1,-1,-1,-1,-1,-1,-1],"split_conditions":[1.6114675E-2,6.4170165E-3,1.4157749E-2,2.9866725E-2,7.2144717E-3,-1.1018802E-2,9.905643E-3,-3.1590182E-2,2.7047148E-2,1.3307569E-2,2.1324633E-3,2.8895838E-3,2.0460838E-4,1.445178E-2,-2.3025585E-2,-1.762274E-2,1.2952479E-2,1.1910405E-2,2.7878344E-2,-1.9596969E-3,-7.3567145E-3,-3.1144486E-3,-2.0362983E-2,-1.3592513E-2,1.5296716E-2,2.374354E-2,2.5638983E-2,1.5377292E-2,-6.2020127E-2,-9.2430905E-2,2.9566857E-1,-1.6465964E-2,9.121832E-2,-1.4126806E-2,-1.4978488E-3,-4.3566516E-1,3.0111179E-2,8.286916E-3,9.829895E-3,3.792783E-2,-2.4978717E-1,2.117941E-1,-1.4637404E-2,3.9120615E-2,2.7097034E-1,-2.4538355E-2,-5.1132256E-1,-2.2307421E-1,3.0882013E-1,-2.5222896E-2,5.652385E-2,1.71473E-2,3.7796554E-1,1.4358901E-2,-2.795299E-1,-4.1728684E-1,-8.899545E-2,-9.460544E-2,-3.8317028E-1,-3.181255E-2,1.6420001E-1,-2.1289004E-1,1.685593E-1,6.1981946E-2,-2.4696831E-1,-2.1712413E-2,3.1840575E-1,3.612674E-1,1.6492706E-2,-4.0803492E-2,-3.0088603E-1,-2.5181156E-1,1.109521E-1,1.6671269E-1,-2.564085E-1,-3.513473E-1,-4.67034E-2],"split_indices":[130,126,248,131,64,276,226,244,59,308,189,165,154,211,227,296,58,130,167,128,226,195,203,64,299,151,80,244,0,0,0,203,0,101,64,0,0,31,97,62,0,0,223,0,0,203,0,0,0,23,89,0,0,0,0,0,0,0,0,0,0,0,0,0,0,0,0,0,0,0,0,0,0,0,0,0,0],"split_type":[0,0,0,0,0,0,0,0,0,0,0,0,0,0,0,0,0,0,0,0,0,0,0,0,0,0,0,0,0,0,0,0,0,0,0,0,0,0,0,0,0,0,0,0,0,0,0,0,0,0,0,0,0,0,0,0,0,0,0,0,0,0,0,0,0,0,0,0,0,0,0,0,0,0,0,0,0],"sum_hessian":[2.806771E2,2.3327916E2,4.7397934E1,1.7398645E2,5.9292713E1,2.9349243E1,1.8048689E1,1.605107E2,1.3475742E1,4.5340176E1,1.3952536E1,2.1414093E1,7.9351497E0,1.5841711E1,2.2069783E0,6.6517925E0,1.5385892E2,7.583719E0,5.892023E0,2.231062E1,2.3029558E1,2.3091862E0,1.164335E1,5.1177E0,1.6296392E1,5.8115206E0,2.123629E0,1.3844604E1,1.9971077E0,1.1596718E0,1.0473065E0,5.208164E0,1.4436282E0,1.3180273E2,2.2056177E1,6.497916E0,1.0858026E0,2.3980124E0,3.4940107E0,1.9836678E1,2.473942E0,1.8664551E0,2.1163103E1,1.0770648E0,1.2321216E0,3.3150969E0,8.328253E0,1.4529365E0,3.6647637E0,5.7876596E0,1.0508734E1,1.3565152E0,4.455005E0,1.0151693E0,1.1084597E0,1.206704E1,1.7775632E0,1.0474738E0,4.1606903E0,2.1436247E1,1.10366486E2,1.383703E1,8.219146E0,1.0782399E0,1.3197726E0,1.0873241E0,2.4066865E0,6.4308834E0,1.3405794E1,7.052207E0,1.4110895E1,1.977992E0,1.3371049E0,4.3958015E0,1.3918581E0,9.502106E0,1.0066274E0],"tree_param":{"num_deleted":"0","num_feature":"309","num_nodes":"77","size_leaf_vector":"1"}},{"base_weights":[-2.601387E-2,2.3923019E-2,-6.18141E-1,-6.238957E-1,7.990306E-2,-9.2159724E-1,9.9681646E-2,2.1597749E-1,-7.363243E-1,-5.7366776E-1,1.278699E-1,-3.0905753E-1,7.713085E-2,-1.9104274E-1,4.885921E-1,-8.6057585E-1,1.8100855E-1,3.908123E-1,-9.428181E-1,7.9610355E-2,8.945864E-1,8.122101E-1,-1.1224382E-1,-9.808782E-1,1.057896E-1,1.768716E-1,-9.4980024E-2,8.247806E-1,-1.18346825E-1,-8.900028E-2,-4.174843E-1,1.7043845E-1,-5.882325E-1,1.1240185E0,-9.405414E-2,6.0925588E-2,2.8830954E-1,-1.0345828E-3,-3.1478718E-1,3.0940977E-1,4.4415046E-2,2.3498482E-1,-1.7897776E-1,8.551484E-2,-6.147184E-2,-4.7730255E-1,-2.8996956E-2,4.3679237E-2,3.9146182E-1],"categories":[],"categories_nodes":[],"categories_segments":[],"categories_sizes":[],"default_left":[0,0,0,0,0,0,0,0,0,0,0,0,0,0,0,0,0,0,0,0,0,0,0,0,0,0,0,0,0,0,0,0,0,0,0,0,0,0,0,0,0,0,0,0,0,0,0,0,0],"id":6,"left_children":[1,3,5,7,9,11,13,-1,15,17,19,-1,-1,-1,21,23,25,27,29,31,33,35,-1,37,-1,-1,-1,39,-1,41,-1,43,45,47,-1,-1,-1,-1,-1,-1,-1,-1,-1,-1,-1,-1,-1,-1,-1],"loss_changes":[7.8357286E0,8.930744E0,4.5810246E0,3.490131E0,7.1677175E0,2.1314697E0,2.3235748E0,0E0,2.272811E0,5.9422774E0,7.7598405E0,0E0,0E0,0E0,1.7456076E0,2.7587442E0,8.050911E-1,2.0430827E0,4.3268223E0,1.22446165E1,3.7990665E0,1.7383099E-1,0E0,1.0197935E0,0E0,0E0,0E0,3.46385E-1,0E0,2.712127E0,0E0,7.673303E0,1.177217E1,1.6977978E0,0E0,0E0,0E0,0E0,0E0,0E0,0E0,0E0,0E0,0E0,0E0,0E0,0E0,0E0,0E0],"parents":[2147483647,0,0,1,1,2,2,3,3,4,4,5,5,6,6,8,8,9,9,10,10,14,14,15,15,16,16,17,17,18,18,19,19,20,20,21,21,23,23,27,27,29,29,31,31,32,32,33,33],"right_children":[2,4,6,8,10,12,14,-1,16,18,20,-1,-1,-1,22,24,26,28,30,32,34,36,-1,38,-1,-1,-1,40,-1,42,-1,44,46,48,-1,-1,-1,-1,-1,-1,-1,-1,-1,-1,-1,-1,-1,-1,-1],"split_conditions":[2.9617159E-2,-2.9617159E-2,3.4530383E-2,-2.7434498E-1,-2.9351046E-2,4.3426402E-2,-2.9120194E-2,2.1597749E-1,5.008339E-2,-2.149056E-2,1.0319533E-1,-3.0905753E-1,7.713085E-2,-1.9104274E-1,3.5039375E-3,4.2512856E-2,-1.2880112E-2,5.049595E-4,-9.018517E-3,1.345292E-2,9.747868E-2,-3.603882E-2,-1.1224382E-1,-9.436003E-3,1.057896E-1,1.768716E-1,-9.4980024E-2,2.0192902E-1,-1.18346825E-1,3.353054E-2,-4.174843E-1,2.4563966E-2,-1.174666E-2,-7.892063E-3,-9.405414E-2,6.0925588E-2,2.8830954E-1,-1.0345828E-3,-3.1478718E-1,3.0940977E-1,4.4415046E-2,2.3498482E-1,-1.7897776E-1,8.551484E-2,-6.147184E-2,-4.7730255E-1,-2.8996956E-2,4.3679237E-2,3.9146182E-1],"split_indices":[101,101,150,294,131,63,151,0,216,83,276,0,0,0,57,128,150,100,224,212,120,167,0,93,0,0,0,46,0,251,0,171,230,126,0,0,0,0,0,0,0,0,0,0,0,0,0,0,0],"split_type":[0,0,0,0,0,0,0,0,0,0,0,0,0,0,0,0,0,0,0,0,0,0,0,0,0,0,0,0,0,0,0,0,0,0,0,0,0,0,0,0,0,0,0,0,0,0,0,0,0],"sum_hessian":[2.6349814E2,2.4388937E2,1.9608751E1,1.8591991E1,2.252974E2,1.3582803E1,6.0259476E0,1.0182155E0,1.7573776E1,1.4655099E1,2.1064229E2,1.255234E1,1.0304638E0,1.8621407E0,4.163807E0,1.5531876E1,2.0419004E0,4.040304E0,1.0614795E1,1.9920738E2,1.1434908E1,3.0705814E0,1.0932257E0,1.4304895E1,1.2269807E0,1.0197885E0,1.0221119E0,2.5698812E0,1.470423E0,4.070029E0,6.5447664E0,1.760139E2,2.3193483E1,9.66837E0,1.7665372E0,1.0671941E0,2.0033872E0,1.0044461E0,1.3300449E1,1.5673686E0,1.0025127E0,1.2973814E0,2.7726471E0,1.350248E2,4.0989098E1,6.8939104E0,1.6299574E1,1.7899257E0,7.878445E0],"tree_param":{"num_deleted":"0","num_feature":"309","num_nodes":"49","size_leaf_vector":"1"}},{"base_weights":[-2.3613503E-2,6.637142E-2,-3.4547582E-1,-2.3422593E-1,2.1370159E-1,-5.434031E-1,6.040587E-1,-7.498968E-1,2.1946615E-1,-3.4649447E-1,3.8823587E-1,-8.4001493E-1,-2.1238606E-2,9.4036794E-1,-1.5274589E-1,-3.4430116E-1,-1.3792807E0,4.6701217E-1,-5.072546E-1,5.3832996E-1,-7.291115E-1,5.464116E-1,-9.2415705E-2,-4.4195879E-1,-1.4406472E0,-4.9415874E-1,4.8902857E-1,-1.6775137E-2,1.1000233E0,-5.187755E-1,2.2066458E-1,-5.2072804E-2,-1.5415653E0,7.506151E-1,-4.2485482E-1,-3.5938004E-1,1.2086888E-1,8.729253E-1,-2.3731235E-1,1.3692068E-1,-9.986373E-1,7.1064E-1,-2.2107735E-1,7.969735E-1,-3.9716274E-1,5.5782706E-2,-7.317323E-1,-1.1917588E-1,-4.5608702E-1,-9.271542E-1,2.7806365E-1,9.714303E-1,-2.3342489E-1,3.6909384E-1,5.4131366E-2,-2.738222E-1,-1.4167159E-2,-7.646557E-2,-5.1416945E-1,2.7491137E-1,-1.9931032E-1,-3.5977915E-1,4.5071896E-2,-2.795015E-1,2.0764282E-1,-6.226582E-2,3.4369573E-1,1.5957439E-1,-2.3885833E-1,8.830071E-3,-3.8324022E-1,2.4548477E-1,-5.180067E-2,-2.4016811E-1,1.8044001E-1,3.0372047E-1,-4.4884756E-2,1.00374416E-1,-2.519933E-1,3.457542E-1,-1.5804343E-1,-2.7833405E-1,9.718531E-2,-3.277141E-1,-4.7246158E-2,-1.380056E-1,2.6107052E-1,3.404372E-1,3.2784216E-2,-2.800203E-1,9.94069E-2],"categories":[],"categories_nodes":[],"categories_segments":[],"categories_sizes":[],"default_left":[0,0,0,0,0,0,0,0,0,0,0,0,0,0,0,0,0,0,0,0,0,0,0,0,0,0,0,0,0,0,0,0,0,0,0,0,0,0,0,0,0,0,0,0,0,0,0,0,0,0,0,0,0,0,0,0,0,0,0,0,0,0,0,0,0,0,0,0,0,0,0,0,0,0,0,0,0,0,0,0,0,0,0,0,0,0,0,0,0,0,0],"id":7,"left_children":[1,3,5,7,9,11,13,15,17,19,21,23,25,27,-1,29,31,33,35,37,39,41,43,45,47,49,51,-1,53,55,-1,-1,57,59,61,-1,63,65,-1,67,69,71,73,75,77,79,81,-1,-1,83,85,87,89,-1,-1,-1,-1,-1,-1,-1,-1,-1,-1,-1,-1,-1,-1,-1,-1,-1,-1,-1,-1,-1,-1,-1,-1,-1,-1,-1,-1,-1,-1,-1,-1,-1,-1,-1,-1,-1,-1],"loss_changes":[7.3330255E0,8.822828E0,1.07226715E1,1.5519457E1,1.3183104E1,7.1521616E0,4.2277308E0,7.4243546E0,6.6569676E0,1.1304283E1,7.8224993E0,6.4156876E0,4.536222E0,1.3406215E0,0E0,4.177986E0,2.040104E0,7.183725E0,4.2865796E0,5.274293E0,5.488036E0,9.869942E0,7.408772E0,2.807612E0,3.3628464E-1,3.512429E0,3.3852696E0,0E0,6.142101E-1,3.2885218E0,0E0,0E0,1.8399334E0,5.523364E0,3.3808346E0,0E0,4.197427E0,2.8039389E0,0E0,2.7532287E0,5.084179E0,6.1993103E0,7.3193164E0,1.581059E0,6.812276E0,5.710888E0,2.8245296E0,0E0,0E0,6.504135E-1,2.264983E0,6.6863966E-1,2.062534E0,0E0,0E0,0E0,0E0,0E0,0E0,0E0,0E0,0E0,0E0,0E0,0E0,0E0,0E0,0E0,0E0,0E0,0E0,0E0,0E0,0E0,0E0,0E0,0E0,0E0,0E0,0E0,0E0,0E0,0E0,0E0,0E0,0E0,0E0,0E0,0E0,0E0,0E0],"parents":[2147483647,0,0,1,1,2,2,3,3,4,4,5,5,6,6,7,7,8,8,9,9,10,10,11,11,12,12,13,13,15,15,16,16,17,17,18,18,19,19,20,20,21,21,22,22,23,23,24,24,25,25,26,26,28,28,29,29,32,32,33,33,34,34,36,36,37,37,39,39,40,40,41,41,42,42,43,43,44,44,45,45,46,46,49,49,50,50,51,51,52,52],"right_children":[2,4,6,8,10,12,14,16,18,20,22,24,26,28,-1,30,32,34,36,38,40,42,44,46,48,50,52,-1,54,56,-1,-1,58,60,62,-1,64,66,-1,68,70,72,74,76,78,80,82,-1,-1,84,86,88,90,-1,-1,-1,-1,-1,-1,-1,-1,-1,-1,-1,-1,-1,-1,-1,-1,-1,-1,-1,-1,-1,-1,-1,-1,-1,-1,-1,-1,-1,-1,-1,-1,-1,-1,-1,-1,-1,-1],"split_conditions":[1.2022684E-2,-8.705777E-3,7.579518E-2,-3.637988E-3,-1.6903482E-2,3.4351868E-3,1.3384575E-1,-2.7604768E-2,1.4223982E-2,1.1492615E-3,1.4126806E-2,-2.7045272E-3,-5.2648247E-3,-1.2488336E-2,-1.5274589E-1,1.5531737E-2,-4.0988214E-2,1.2519045E-2,1.8675592E-2,1.6666029E-2,-2.5651434E-2,2.0371193E-2,-9.609337E-3,-1.3929156E-2,-2.6865972E-2,3.2581391E-3,1.990807E-3,-1.6775137E-2,-1.5622346E-2,9.680295E-4,2.2066458E-1,-5.2072804E-2,4.3608677E-3,2.4772989E-2,1.5620527E-2,-3.5938004E-1,-2.3659935E-2,-1.7172923E-2,-2.3731235E-1,6.2256954E-3,-1.2351523E-2,4.645323E-2,3.258919E-3,5.3189594E-2,2.6200935E-3,1.4083108E-1,2.2629967E-2,-1.1917588E-1,-4.5608702E-1,3.7444344E-1,-1.3342781E-2,6.3521154E-3,-5.0895177E-2,3.6909384E-1,5.4131366E-2,-2.738222E-1,-1.4167159E-2,-7.646557E-2,-5.1416945E-1,2.7491137E-1,-1.9931032E-1,-3.5977915E-1,4.5071896E-2,-2.795015E-1,2.0764282E-1,-6.226582E-2,3.4369573E-1,1.5957439E-1,-2.3885833E-1,8.830071E-3,-3.8324022E-1,2.4548477E-1,-5.180067E-2,-2.4016811E-1,1.8044001E-1,3.0372047E-1,-4.4884756E-2,1.00374416E-1,-2.519933E-1,3.457542E-1,-1.5804343E-1,-2.7833405E-1,9.718531E-2,-3.277141E-1,-4.7246158E-2,-1.380056E-1,2.6107052E-1,3.404372E-1,3.2784216E-2,-2.800203E-1,9.94069E-2],"split_indices":[141,250,133,18,31,173,237,201,143,13,101,126,126,226,0,195,210,131,178,101,216,195,92,1,178,128,206,0,109,57,0,0,223,1,154,0,81,115,0,155,177,290,95,230,226,289,109,0,0,21,215,2,306,0,0,0,0,0,0,0,0,0,0,0,0,0,0,0,0,0,0,0,0,0,0,0,0,0,0,0,0,0,0,0,0,0,0,0,0,0,0],"split_type":[0,0,0,0,0,0,0,0,0,0,0,0,0,0,0,0,0,0,0,0,0,0,0,0,0,0,0,0,0,0,0,0,0,0,0,0,0,0,0,0,0,0,0,0,0,0,0,0,0,0,0,0,0,0,0,0,0,0,0,0,0,0,0,0,0,0,0,0,0,0,0,0,0,0,0,0,0,0,0,0,0,0,0,0,0,0,0,0,0,0,0],"sum_hessian":[2.5139641E2,1.970889E2,5.4307503E1,6.463154E1,1.3245737E2,4.5293865E1,9.013637E0,2.9944008E1,3.468753E1,3.1231037E1,1.01226326E2,2.8497402E1,1.6796463E1,7.0415883E0,1.9720485E0,1.9150099E1,1.0793909E1,2.614054E1,8.546994E0,9.305213E0,2.1925823E1,7.605942E1,2.5166904E1,1.81829E1,1.0314503E1,8.733628E0,8.062835E0,1.0623082E0,5.97928E0,1.6933664E1,2.2164342E0,1.5259963E0,9.267913E0,1.9953836E1,6.186702E0,3.638724E0,4.90827E0,7.708405E0,1.5968078E0,5.320892E0,1.660493E1,6.2713882E1,1.334554E1,6.0104637E0,1.915644E1,6.987694E0,1.1195206E1,1.1561257E0,9.158377E0,5.4673696E0,3.2662582E0,4.62798E0,3.4348545E0,4.9412847E0,1.0379951E0,8.716075E0,8.21759E0,1.3875021E0,7.8804107E0,1.8176908E1,1.7769272E0,2.1739616E0,4.0127406E0,1.5048324E0,3.4034374E0,1.6017275E0,6.1066775E0,4.0404854E0,1.2804066E0,3.7335281E0,1.2871404E1,5.596718E1,6.7467012E0,7.8452682E0,5.5002723E0,4.839539E0,1.1709247E0,7.3142266E0,1.1842214E1,2.0848072E0,4.902887E0,9.543978E0,1.6512275E0,4.1559196E0,1.3114499E0,1.5533409E0,1.7129173E0,3.6248991E0,1.003081E0,1.2423897E0,2.1924648E0],"tree_param":{"num_deleted":"0","num_feature":"309","num_nodes":"91","size_leaf_vector":"1"}},{"base_weights":[-2.548965E-2,-4.159957E-1,2.7364785E-2,-8.9372736E-1,1.6931917E-1,6.631854E-2,-8.0648917E-1,-1.0422993E0,3.8518652E-2,6.7668563E-1,-4.6655935E-1,1.8212412E-1,-1.9456217E-1,-2.814956E-1,2.7754653E-2,-1.1642927E0,5.0793476E-3,9.43029E-1,-2.395789E-2,-3.1609234E-1,2.7344877E-1,2.9411048E-1,-3.6326137E-1,1.209542E-1,-5.690275E-1,-3.6845934E-1,-8.272307E-2,1.0790438E-1,3.1641802E-1,2.1728793E-1,-1.0554802E-1,4.6870157E-1,1.8704509E-3,4.950242E-1,-6.220872E-1,3.15351E-1,-6.061134E-1,-1.2817983E-1,-1.044147E0,6.698853E-2,2.5775033E-1,-1.327476E-1,1.1781655E-1,2.772812E-1,-4.8426878E-2,9.666512E-2,-2.6327962E-1,1.5039858E-1,-1.957168E-1,-3.45464E-1,1.7533368E-1,-2.0447394E-1,9.94718E-2,6.7003556E-2,-3.6549342E-1],"categories":[],"categories_nodes":[],"categories_segments":[],"categories_sizes":[],"default_left":[0,0,0,0,0,0,0,0,0,0,0,0,0,0,0,0,0,0,0,0,0,0,0,0,0,0,0,0,0,0,0,0,0,0,0,0,0,0,0,0,0,0,0,0,0,0,0,0,0,0,0,0,0,0,0],"id":8,"left_children":[1,3,5,7,9,11,13,15,-1,17,19,21,23,-1,-1,25,-1,27,-1,-1,29,31,33,35,37,-1,-1,-1,-1,-1,-1,39,41,43,45,47,49,51,53,-1,-1,-1,-1,-1,-1,-1,-1,-1,-1,-1,-1,-1,-1,-1,-1],"loss_changes":[4.806467E0,7.912935E0,6.730525E0,2.4789085E0,4.611395E0,5.99653E0,1.183116E0,1.7761116E0,0E0,1.6498141E0,3.1124282E0,8.484522E0,7.292958E0,0E0,0E0,3.5424995E-1,0E0,2.2916794E-3,0E0,0E0,1.2893667E0,5.8337517E0,5.5983076E0,4.997887E0,5.75924E0,0E0,0E0,0E0,0E0,0E0,0E0,6.6673985E0,7.775995E0,1.8608721E0,4.8044214E0,5.274956E0,5.554226E0,4.2291274E0,3.2304735E0,0E0,0E0,0E0,0E0,0E0,0E0,0E0,0E0,0E0,0E0,0E0,0E0,0E0,0E0,0E0,0E0],"parents":[2147483647,0,0,1,1,2,2,3,3,4,4,5,5,6,6,7,7,9,9,10,10,11,11,12,12,15,15,17,17,20,20,21,21,22,22,23,23,24,24,31,31,32,32,33,33,34,34,35,35,36,36,37,37,38,38],"right_children":[2,4,6,8,10,12,14,16,-1,18,20,22,24,-1,-1,26,-1,28,-1,-1,30,32,34,36,38,-1,-1,-1,-1,-1,-1,40,42,44,46,48,50,52,54,-1,-1,-1,-1,-1,-1,-1,-1,-1,-1,-1,-1,-1,-1,-1,-1],"split_conditions":[-4.23986E-2,3.689083E-3,3.4803353E-2,4.479841E-2,-8.463537E-3,8.976701E-3,2.5076432E-2,3.2089163E-2,3.8518652E-2,2.6368197E-2,-6.98966E-2,2.043511E-2,1.6045355E-3,-2.814956E-1,2.7754653E-2,1.8771985E-1,5.0793476E-3,-1.2173421E-2,-2.395789E-2,-3.1609234E-1,-7.103975E-4,2.2449946E-2,-4.8334853E-4,5.382193E-2,-8.167943E-2,-3.6845934E-1,-8.272307E-2,1.0790438E-1,3.1641802E-1,2.1728793E-1,-1.0554802E-1,-1.0492068E-2,4.0888853E-2,2.4658129E-2,-2.6837097E-2,1.5359649E-2,2.3370512E-2,-3.9094E-2,-1.8090734E-2,6.698853E-2,2.5775033E-1,-1.327476E-1,1.1781655E-1,2.772812E-1,-4.8426878E-2,9.666512E-2,-2.6327962E-1,1.5039858E-1,-1.957168E-1,-3.45464E-1,1.7533368E-1,-2.0447394E-1,9.94718E-2,6.7003556E-2,-3.6549342E-1],"split_indices":[92,127,98,80,224,250,13,135,0,42,261,31,18,0,0,51,0,12,0,0,99,242,223,197,52,0,0,0,0,0,0,308,118,108,114,19,136,12,82,0,0,0,0,0,0,0,0,0,0,0,0,0,0,0,0],"split_type":[0,0,0,0,0,0,0,0,0,0,0,0,0,0,0,0,0,0,0,0,0,0,0,0,0,0,0,0,0,0,0,0,0,0,0,0,0,0,0,0,0,0,0,0,0,0,0,0,0,0,0,0,0,0,0],"sum_hessian":[2.313202E2,2.6757364E1,2.0456285E2,1.444252E1,1.2314844E1,1.9631252E2,8.250335E0,1.2592397E1,1.850123E0,6.8138833E0,5.5009613E0,1.3616875E2,6.0143757E1,7.1570926E0,1.0932426E0,1.1202946E1,1.3894509E0,4.8573494E0,1.9565339E0,2.831099E0,2.669862E0,1.1335401E2,2.281474E1,3.3008503E1,2.7135254E1,1.0094679E1,1.108267E0,1.4588019E0,3.3985474E0,1.4593E0,1.210562E0,7.058252E1,4.2771492E1,5.074556E0,1.7740183E1,2.6491669E1,6.5168347E0,1.4733922E1,1.2401332E1,4.4307373E1,2.6275148E1,1.9953758E1,2.2817732E1,2.8215647E0,2.2529914E0,3.722335E0,1.4017847E1,2.262552E1,3.866148E0,4.4917765E0,2.0250585E0,6.4670725E0,8.2668495E0,1.4640709E0,1.0937261E1],"tree_param":{"num_deleted":"0","num_feature":"309","num_nodes":"55","size_leaf_vector":"1"}},{"base_weights":[-2.3379037E-2,6.368557E-3,-7.078391E-1,-1.7637251E-1,1.2737931E-1,1.1613109E-1,-9.242788E-1,-7.341941E-1,1.0518926E-2,4.4375363E-1,-7.166673E-2,-2.9809829E-2,-3.0932587E-1,-6.813232E-2,-1.1004083E0,-5.381428E-1,1.8333681E-1,-3.801215E-1,5.706527E-1,-5.877014E-1,1.7596525E-1,-6.749279E-1,4.654342E-1,-2.3357788E-1,-1.2559706E0,4.5046765E-1,-7.6299787E-1,4.261867E-1,-1.9231918E-1,-2.7290055E-1,2.5167644E-1,7.1840054E-1,-2.2249965E-1,3.3148137E-1,-7.7915156E-1,-2.513696E-1,2.582703E-1,-2.7057844E-1,1.33847E-2,-1.5457675E-1,2.808071E-1,8.692381E-2,-2.1057725E-1,-9.4525E-2,-3.9677313E-1,2.6165703E-1,-6.3410215E-2,1.7256979E-3,-2.786403E-1,2.0332126E-1,-4.5260172E-2,-1.843834E-1,1.4270702E-1,-1.7375013E-1,2.2007638E-1,2.3323178E-1,-1.7915778E-1,1.2208971E-1,-2.4157931E-1,-2.3802578E-1,2.7881703E-1,-3.3953637E-1,2.5037587E-2,1.2969974E-1,-7.865251E-2],"categories":[],"categories_nodes":[],"categories_segments":[],"categories_sizes":[],"default_left":[0,0,0,0,0,0,0,0,0,0,0,0,0,0,0,0,0,0,0,0,0,0,0,0,0,0,0,0,0,0,0,0,0,0,0,0,0,0,0,0,0,0,0,0,0,0,0,0,0,0,0,0,0,0,0,0,0,0,0,0,0,0,0,0,0],"id":9,"left_children":[1,3,5,7,9,-1,11,13,15,17,19,-1,-1,21,23,25,27,29,31,33,35,37,39,41,43,45,47,49,51,-1,53,55,57,59,61,-1,63,-1,-1,-1,-1,-1,-1,-1,-1,-1,-1,-1,-1,-1,-1,-1,-1,-1,-1,-1,-1,-1,-1,-1,-1,-1,-1,-1,-1],"loss_changes":[4.481802E0,4.7045274E0,2.5304627E0,8.845042E0,8.089746E0,0E0,5.9798336E-1,5.1174994E0,6.2126822E0,5.3977757E0,1.025022E1,0E0,0E0,3.1043599E0,1.5499058E0,3.8336062E0,4.6234574E0,2.6425653E0,5.2387266E0,4.8299303E0,4.7580113E0,7.6552916E-1,2.8717566E0,1.0142431E0,2.9527092E-1,1.1718144E0,1.6829357E0,4.5363193E0,6.0006595E0,0E0,2.0555868E0,3.320322E0,3.1043077E0,4.221209E0,6.7254133E0,0E0,4.7428055E0,0E0,0E0,0E0,0E0,0E0,0E0,0E0,0E0,0E0,0E0,0E0,0E0,0E0,0E0,0E0,0E0,0E0,0E0,0E0,0E0,0E0,0E0,0E0,0E0,0E0,0E0,0E0,0E0],"parents":[2147483647,0,0,1,1,2,2,3,3,4,4,6,6,7,7,8,8,9,9,10,10,13,13,14,14,15,15,16,16,17,17,18,18,19,19,20,20,21,21,22,22,23,23,24,24,25,25,26,26,27,27,28,28,30,30,31,31,32,32,33,33,34,34,36,36],"right_children":[2,4,6,8,10,-1,12,14,16,18,20,-1,-1,22,24,26,28,30,32,34,36,38,40,42,44,46,48,50,52,-1,54,56,58,60,62,-1,64,-1,-1,-1,-1,-1,-1,-1,-1,-1,-1,-1,-1,-1,-1,-1,-1,-1,-1,-1,-1,-1,-1,-1,-1,-1,-1,-1,-1],"split_conditions":[3.1590182E-2,-2.312353E-2,1.8587474E-2,-7.900544E-3,2.2449946E-2,1.1613109E-1,1.0757144E-2,-9.150191E-3,-1.1719575E-2,-1.4598142E-2,1.3801117E-3,-2.9809829E-2,-3.0932587E-1,-3.4859587E-2,-3.2700196E-2,-4.6597205E-2,8.04691E-3,1.3677632E-4,1.4598142E-2,-4.3576326E-2,-5.4142706E-2,1.4690477E-3,-2.487193E-2,-1.7008439E-2,-1.265596E-2,1.1807775E-2,-1.8234528E-3,-4.1284744E-2,2.0135816E-2,-2.7290055E-1,-1.5799161E-2,2.8471293E-2,-4.6948312E-4,-1.8209832E-2,6.7827813E-3,-2.513696E-1,2.0371193E-2,-2.7057844E-1,1.33847E-2,-1.5457675E-1,2.808071E-1,8.692381E-2,-2.1057725E-1,-9.4525E-2,-3.9677313E-1,2.6165703E-1,-6.3410215E-2,1.7256979E-3,-2.786403E-1,2.0332126E-1,-4.5260172E-2,-1.843834E-1,1.4270702E-1,-1.7375013E-1,2.2007638E-1,2.3323178E-1,-1.7915778E-1,1.2208971E-1,-2.4157931E-1,-2.3802578E-1,2.7881703E-1,-3.3953637E-1,2.5037587E-2,1.2969974E-1,-7.865251E-2],"split_indices":[244,242,166,52,242,0,275,82,141,101,151,0,0,306,85,130,165,205,101,6,10,38,245,300,176,253,100,10,27,0,82,30,205,12,115,0,195,0,0,0,0,0,0,0,0,0,0,0,0,0,0,0,0,0,0,0,0,0,0,0,0,0,0,0,0],"split_type":[0,0,0,0,0,0,0,0,0,0,0,0,0,0,0,0,0,0,0,0,0,0,0,0,0,0,0,0,0,0,0,0,0,0,0,0,0,0,0,0,0,0,0,0,0,0,0,0,0,0,0,0,0,0,0,0,0,0,0,0,0,0,0,0,0],"sum_hessian":[2.1889516E2,2.1072736E2,8.16781E0,8.376876E1,1.2695859E2,1.217932E0,6.9498787E0,2.0287495E1,6.3481266E1,4.8554344E1,7.840424E1,1.0179794E0,5.931899E0,7.6180363E0,1.2669458E1,1.4699477E1,4.8781788E1,6.2141767E0,4.2340164E1,2.497861E1,5.3425636E1,3.4404578E0,4.1775784E0,2.3083398E0,1.0361118E1,2.5378873E0,1.216159E1,2.954643E1,1.923536E1,3.1413867E0,3.07279E0,3.5771015E1,6.569151E0,4.1797147E0,2.0798895E1,3.322121E0,5.0103516E1,2.422682E0,1.0177758E0,1.3238374E0,2.853741E0,1.2702838E0,1.0380559E0,1.0638336E0,9.297284E0,1.3560035E0,1.1818838E0,2.3288996E0,9.83269E0,2.0455109E1,9.091322E0,1.1834154E1,7.401204E0,1.053934E0,2.018856E0,3.4626183E1,1.1448306E0,3.3030598E0,3.266091E0,1.3371052E0,2.8426096E0,1.4542038E1,6.2568564E0,3.7673107E1,1.2430409E1],"tree_param":{"num_deleted":"0","num_feature":"309","num_nodes":"65","size_leaf_vector":"1"}},{"base_weights":[-2.6611418E-2,-6.595335E-1,2.5643478E-3,-9.272082E-1,1.5052494E-1,4.905123E-2,-4.22872E-1,-7.8334846E-2,-3.230945E-1,-1.4420076E-1,1.5525152E-1,2.7680722E-1,-5.5558723E-1,-5.525717E-1,8.746902E-2,-3.7708917E-1,2.3131414E-1,-1.4078732E-1,2.6521975E-1,-7.615262E-1,1.3744694E-2,-8.3584404E-1,3.3585805E-1,1.8896343E-1,-2.3269625E-1,3.134051E-1,-8.259915E-1,-4.7711262E-1,2.9043403E-1,-9.7526956E-1,2.1437788E-1,-1.8512973E-1,2.167488E-1,-3.9527985E-1,-3.553729E-2,-1.8974535E-1,2.0389591E-1,4.910107E-3,2.5060958E-1,2.5514162E-1,-1.4667107E-1,9.052007E-2,-3.6928952E-1,2.0033072E-1,-2.677484E-1,1.7736849E-1,2.3674713E-2,-3.1790894E-1,-4.61248E-2,1.12727664E-1,-1.5875228E-2],"categories":[],"categories_nodes":[],"categories_segments":[],"categories_sizes":[],"default_left":[0,0,0,0,0,0,0,0,0,0,0,0,0,0,0,0,0,0,0,0,0,0,0,0,0,0,0,0,0,0,0,0,0,0,0,0,0,0,0,0,0,0,0,0,0,0,0,0,0,0,0],"id":10,"left_children":[1,3,5,7,-1,9,11,-1,-1,13,15,17,19,21,23,25,27,-1,-1,29,31,33,35,37,-1,39,41,43,45,47,49,-1,-1,-1,-1,-1,-1,-1,-1,-1,-1,-1,-1,-1,-1,-1,-1,-1,-1,-1,-1],"loss_changes":[3.789681E0,3.276271E0,3.9186354E0,4.869914E-1,0E0,3.6872907E0,1.9662266E0,0E0,0E0,6.088877E0,4.7729983E0,2.1272435E0,1.9730659E0,6.131338E0,3.7909324E0,4.8611965E0,4.4053197E0,0E0,0E0,2.7768984E0,2.8730903E0,6.0349827E0,2.5384233E0,4.2290063E0,0E0,3.2488184E0,4.6064644E0,4.5076213E0,5.9753027E0,5.499821E-1,1.5065491E-1,0E0,0E0,0E0,0E0,0E0,0E0,0E0,0E0,0E0,0E0,0E0,0E0,0E0,0E0,0E0,0E0,0E0,0E0,0E0,0E0],"parents":[2147483647,0,0,1,1,2,2,3,3,5,5,6,6,9,9,10,10,11,11,12,12,13,13,14,14,15,15,16,16,19,19,20,20,21,21,22,22,23,23,25,25,26,26,27,27,28,28,29,29,30,30],"right_children":[2,4,6,8,-1,10,12,-1,-1,14,16,18,20,22,24,26,28,-1,-1,30,32,34,36,38,-1,40,42,44,46,48,50,-1,-1,-1,-1,-1,-1,-1,-1,-1,-1,-1,-1,-1,-1,-1,-1,-1,-1,-1,-1],"split_conditions":[-3.1590182E-2,-1.9439619E-2,2.0080057E-1,-6.3620643E-3,1.5052494E-1,-1.8647581E-2,-6.190608E-2,-7.8334846E-2,-3.230945E-1,1.9876282E-3,-1.39837265E-2,-1.6746383E-2,2.8605506E-4,8.689474E-3,1.7849235E-2,1.205938E-3,-1.5830984E-2,-1.4078732E-1,2.6521975E-1,1.1093121E-2,1.6564991E-3,3.4677275E-2,-4.3590054E-2,1.46720065E-2,-2.3269625E-1,6.342608E-3,-3.1252477E-2,-8.612473E-3,1.3254279E-2,6.4732763E-4,-3.2496094E-3,-1.8512973E-1,2.167488E-1,-3.9527985E-1,-3.553729E-2,-1.8974535E-1,2.0389591E-1,4.910107E-3,2.5060958E-1,2.5514162E-1,-1.4667107E-1,9.052007E-2,-3.6928952E-1,2.0033072E-1,-2.677484E-1,1.7736849E-1,2.3674713E-2,-3.1790894E-1,-4.61248E-2,1.12727664E-1,-1.5875228E-2],"split_indices":[244,166,168,64,0,195,12,0,0,58,223,126,100,13,126,143,141,0,0,211,14,177,154,82,0,226,198,137,24,58,244,0,0,0,0,0,0,0,0,0,0,0,0,0,0,0,0,0,0,0,0],"split_type":[0,0,0,0,0,0,0,0,0,0,0,0,0,0,0,0,0,0,0,0,0,0,0,0,0,0,0,0,0,0,0,0,0,0,0,0,0,0,0,0,0,0,0,0,0,0,0,0,0,0,0],"sum_hessian":[2.0413335E2,8.043205E0,1.9609015E2,6.7003474E0,1.3428574E0,1.7757181E2,1.851834E1,1.7336481E0,4.9666996E0,6.2848663E1,1.14723145E2,2.77942E0,1.5738919E1,2.2247387E1,4.0601276E1,1.3847914E1,1.0087523E2,1.3490856E0,1.4303343E0,1.1310207E1,4.428712E0,1.6913708E1,5.333679E0,3.702821E1,3.5730665E0,5.5747566E0,8.273157E0,7.225282E0,9.364995E1,9.278642E0,2.0315654E0,2.4115553E0,2.0171566E0,9.618088E0,7.295621E0,1.17747E0,4.1562095E0,3.0034096E1,6.9941144E0,3.3034139E0,2.2713425E0,2.253313E0,6.0198445E0,1.761795E0,5.463487E0,3.7924057E1,5.572589E1,8.151046E0,1.1275964E0,1.0137354E0,1.0178299E0],"tree_param":{"num_deleted":"0","num_feature":"309","num_nodes":"51","size_leaf_vector":"1"}},{"base_weights":[-2.4820039E-2,-3.8992813E-1,2.0509668E-2,5.3223126E-2,-7.514212E-1,4.894539E-1,-3.1942226E-2,4.79104E-1,-6.563585E-1,-4.3533582E-2,-3.747694E-1,-4.6651304E-1,6.922001E-1,-6.20074E-1,1.6073545E-2,8.427182E-1,-2.1487568E-1,-2.7233403E-2,-2.5331908E-1,-1.9425046E-1,2.6219276E-1,7.032109E-2,-2.4647477E-1,-1.0705744E-1,8.39737E-1,-4.8818793E-2,-9.0374875E-1,-3.427842E-1,1.0405468E-1,3.0913645E-1,2.5078032E-2,-2.3264626E-1,1.4342034E-1,-1.469112E-1,2.2709212E-1,1.0276774E0,-3.5311192E-2,-4.152513E-1,1.9390434E-1,-3.1865323E-1,-5.741631E-2,-9.6370053E-1,-8.0902085E-2,-1.9350478E-1,2.2342922E-1,7.0842537E-3,3.4286213E-1,1.7221227E-1,-2.0400155E-1,-2.1911363E-1,6.5313414E-2,1.2034432E-1,-3.723318E-1,1.4490548E-1,-1.13277346E-1,1.6304481E-1,-9.8614104E-2,-8.318942E-2,9.591887E-2],"categories":[],"categories_nodes":[],"categories_segments":[],"categories_sizes":[],"default_left":[0,0,0,0,0,0,0,0,0,0,0,0,0,0,0,0,0,0,0,0,0,0,0,0,0,0,0,0,0,0,0,0,0,0,0,0,0,0,0,0,0,0,0,0,0,0,0,0,0,0,0,0,0,0,0,0,0,0,0],"id":11,"left_children":[1,3,5,7,9,11,13,15,17,19,-1,21,23,25,27,29,31,-1,-1,-1,33,-1,-1,-1,35,37,39,41,43,-1,-1,-1,-1,-1,-1,45,47,49,-1,-1,-1,51,53,55,57,-1,-1,-1,-1,-1,-1,-1,-1,-1,-1,-1,-1,-1,-1],"loss_changes":[3.2449315E0,3.508325E0,4.318433E0,3.5360487E0,4.1708145E0,3.745606E0,4.47952E0,2.0080566E0,3.9346302E-1,1.2751807E0,0E0,1.1102588E0,2.616939E0,1.8958726E0,4.686362E0,6.198888E-1,1.6472821E0,0E0,0E0,0E0,2.1141455E0,0E0,0E0,0E0,2.2439795E0,1.5495386E0,6.930499E-1,4.6760044E0,4.2725477E0,0E0,0E0,0E0,0E0,0E0,0E0,1.2550259E0,1.7025408E0,9.373659E-1,0E0,0E0,0E0,3.7468505E0,3.8054197E0,3.6290374E0,4.208549E0,0E0,0E0,0E0,0E0,0E0,0E0,0E0,0E0,0E0,0E0,0E0,0E0,0E0,0E0],"parents":[2147483647,0,0,1,1,2,2,3,3,4,4,5,5,6,6,7,7,8,8,9,9,11,11,12,12,13,13,14,14,15,15,16,16,20,20,24,24,25,25,26,26,27,27,28,28,35,35,36,36,37,37,41,41,42,42,43,43,44,44],"right_children":[2,4,6,8,10,12,14,16,18,20,-1,22,24,26,28,30,32,-1,-1,-1,34,-1,-1,-1,36,38,40,42,44,-1,-1,-1,-1,-1,-1,46,48,50,-1,-1,-1,52,54,56,58,-1,-1,-1,-1,-1,-1,-1,-1,-1,-1,-1,-1,-1,-1],"split_conditions":[-3.197085E-2,-1.1238821E-3,-2.2232568E-2,2.492711E-1,-3.57253E-2,-4.4166776E-3,-4.23986E-2,-8.8912627E-4,-1.2524838E-2,-3.8703267E-2,-3.747694E-1,-6.02233E-3,-2.0934044E-1,-2.7606254E-2,-7.6153707E-3,-3.3758063E-2,-4.945157E-3,-2.7233403E-2,-2.5331908E-1,-1.9425046E-1,-1.0405651E-2,7.032109E-2,-2.4647477E-1,-1.0705744E-1,2.3979024E-5,1.7922103E-2,3.4004044E-2,6.090765E-4,-3.5219565E-2,3.0913645E-1,2.5078032E-2,-2.3264626E-1,1.4342034E-1,-1.469112E-1,2.2709212E-1,-2.0611007E-2,-1.2247837E-2,3.3632733E-3,1.9390434E-1,-3.1865323E-1,-5.741631E-2,-7.220852E-2,-6.050941E-3,-7.384738E-2,-2.04327E-2,7.0842537E-3,3.4286213E-1,1.7221227E-1,-2.0400155E-1,-2.1911363E-1,6.5313414E-2,1.2034432E-1,-3.723318E-1,1.4490548E-1,-1.13277346E-1,1.6304481E-1,-9.8614104E-2,-8.318942E-2,9.591887E-2],"split_indices":[109,99,109,303,197,212,92,63,213,149,0,44,121,86,224,219,65,0,0,0,165,0,0,0,13,82,59,44,195,0,0,0,0,0,0,173,97,132,0,0,0,49,172,99,31,0,0,0,0,0,0,0,0,0,0,0,0,0,0],"split_type":[0,0,0,0,0,0,0,0,0,0,0,0,0,0,0,0,0,0,0,0,0,0,0,0,0,0,0,0,0,0,0,0,0,0,0,0,0,0,0,0,0,0,0,0,0,0,0,0,0,0,0,0,0,0,0,0,0,0,0],"sum_hessian":[1.9458229E2,2.0650536E1,1.7393176E2,9.660536E0,1.0989999E1,1.665921E1,1.5727255E2,6.2401147E0,3.4204211E0,4.9865527E0,6.003446E0,2.687313E0,1.3971897E1,1.09715185E1,1.4630103E2,3.9540458E0,2.2860692E0,1.2234129E0,2.1970084E0,1.3001568E0,3.686396E0,1.0178626E0,1.6694505E0,1.5477657E0,1.2424131E1,4.029379E0,6.94214E0,2.8235966E1,1.1806506E2,2.8835096E0,1.070536E0,1.1978511E0,1.088218E0,1.4671278E0,2.219268E0,1.0083914E1,2.340218E0,2.90223E0,1.1271489E0,5.277386E0,1.6647537E0,7.581206E0,2.065476E1,3.3626022E1,8.443904E1,1.1618763E0,8.922037E0,1.2594254E0,1.0807927E0,1.8348331E0,1.0673969E0,1.2052493E0,6.375956E0,6.9040756E0,1.3750685E1,4.744646E0,2.8881376E1,1.3316823E1,7.112222E1],"tree_param":{"num_deleted":"0","num_feature":"309","num_nodes":"59","size_leaf_vector":"1"}},{"base_weights":[-2.3741417E-2,3.9782226E-3,-5.737368E-1,-1.8477045E-1,1.1570067E-1,6.3703455E-2,-2.8000864E-1,-9.076586E-1,-8.132185E-2,3.706569E-1,-1.02791384E-1,-1.3040952E-1,3.885582E-1,-1.2264534E-2,-1.0627072E0,-3.1172797E-1,2.1233341E-1,4.5320567E-1,-5.388214E-1,-4.5350604E-3,-7.8171736E-1,-2.5074825E-2,2.0037983E-1,-3.4183288E-1,-9.557268E-2,3.6353227E-1,-4.648336E-1,4.8287466E-1,-3.2299703E-1,5.7900995E-1,-1.6822377E-1,-9.753881E-1,1.5664169E-1,-6.7972696E-1,1.1593304E-1,-1.456221E0,5.098988E-3,-7.50099E-2,2.1014218E-1,-2.4613714E-1,-3.707974E-2,-1.1695745E-1,2.0109099E-1,-2.1415058E-1,1.7912874E-1,-9.794524E-3,2.253429E-1,8.390444E-2,-3.0739456E-1,-7.389472E-2,-3.465497E-1,-3.0074957E-1,3.3779334E-2,-1.08907774E-1,9.566828E-2,-9.1982976E-2,-5.576677E-1,-1.7181364E-1,1.7053686E-1],"categories":[],"categories_nodes":[],"categories_segments":[],"categories_sizes":[],"default_left":[0,0,0,0,0,0,0,0,0,0,0,0,0,0,0,0,0,0,0,0,0,0,0,0,0,0,0,0,0,0,0,0,0,0,0,0,0,0,0,0,0,0,0,0,0,0,0,0,0,0,0,0,0,0,0,0,0,0,0],"id":12,"left_children":[1,3,5,7,9,11,-1,13,15,17,19,-1,21,-1,23,25,27,29,31,33,35,-1,-1,-1,-1,37,39,41,43,45,47,49,-1,51,53,55,57,-1,-1,-1,-1,-1,-1,-1,-1,-1,-1,-1,-1,-1,-1,-1,-1,-1,-1,-1,-1,-1,-1],"loss_changes":[2.8536794E0,3.7970684E0,2.1182287E0,4.9335623E0,6.337838E0,8.4493077E-1,0E0,1.0698962E0,4.1038394E0,4.178702E0,4.111216E0,0E0,4.5890018E-1,0E0,3.5981655E-2,3.6679928E0,4.0419445E0,3.896017E0,2.7407632E0,4.543506E0,4.1429615E0,0E0,0E0,0E0,0E0,1.5843554E0,3.2997694E0,3.2424192E0,3.8809283E0,4.3027096E0,3.721809E0,2.0854092E-1,0E0,2.2755206E0,4.726791E0,1.3739052E0,1.8207405E0,0E0,0E0,0E0,0E0,0E0,0E0,0E0,0E0,0E0,0E0,0E0,0E0,0E0,0E0,0E0,0E0,0E0,0E0,0E0,0E0,0E0,0E0],"parents":[2147483647,0,0,1,1,2,2,3,3,4,4,5,5,7,7,8,8,9,9,10,10,12,12,14,14,15,15,16,16,17,17,18,18,19,19,20,20,25,25,26,26,27,27,28,28,29,29,30,30,31,31,33,33,34,34,35,35,36,36],"right_children":[2,4,6,8,10,12,-1,14,16,18,20,-1,22,-1,24,26,28,30,32,34,36,-1,-1,-1,-1,38,40,42,44,46,48,50,-1,52,54,56,58,-1,-1,-1,-1,-1,-1,-1,-1,-1,-1,-1,-1,-1,-1,-1,-1,-1,-1,-1,-1,-1,-1],"split_conditions":[4.2215534E-2,-4.7668878E-2,7.869912E-3,-9.504968E-3,4.463785E-2,-1.0037139E-2,-2.8000864E-1,-1.1060477E-3,2.8439595E-3,3.20421E-2,-2.5326924E-2,-1.3040952E-1,-2.710361E-1,-1.2264534E-2,2.8471293E-2,-2.4953373E-2,-1.1435323E-4,1.5300169E-2,1.1948425E-2,-7.848825E-3,-3.366877E-3,-2.5074825E-2,2.0037983E-1,-3.4183288E-1,-9.557268E-2,-1.469842E-3,-4.9516936E-3,-4.03427E-2,2.496029E-2,-3.93446E-3,5.7323817E-2,-3.453834E-2,1.5664169E-1,-4.8154272E-4,4.015967E-3,-1.1840963E-2,-5.4657422E-2,-7.50099E-2,2.1014218E-1,-2.4613714E-1,-3.707974E-2,-1.1695745E-1,2.0109099E-1,-2.1415058E-1,1.7912874E-1,-9.794524E-3,2.253429E-1,8.390444E-2,-3.0739456E-1,-7.389472E-2,-3.465497E-1,-3.0074957E-1,3.3779334E-2,-1.08907774E-1,9.566828E-2,-9.1982976E-2,-5.576677E-1,-1.7181364E-1,1.7053686E-1],"split_indices":[65,45,99,212,45,92,0,44,211,109,16,0,7,0,30,167,205,64,179,224,126,0,0,0,0,226,203,86,57,126,187,116,0,173,99,121,62,0,0,0,0,0,0,0,0,0,0,0,0,0,0,0,0,0,0,0,0,0,0],"split_type":[0,0,0,0,0,0,0,0,0,0,0,0,0,0,0,0,0,0,0,0,0,0,0,0,0,0,0,0,0,0,0,0,0,0,0,0,0,0,0,0,0,0,0,0,0,0,0,0,0,0,0,0,0,0,0,0,0,0,0],"sum_hessian":[1.8602992E2,1.7804906E2,7.980864E0,6.595985E1,1.1208921E2,3.1753604E0,4.8055034E0,7.28425E0,5.8675594E1,5.1406746E1,6.0682465E1,1.1195626E0,2.0557978E0,1.2970345E0,5.987215E0,3.28441E1,2.5831495E1,4.7589016E1,3.8177283E0,5.389001E1,6.792454E0,1.0247686E0,1.0310293E0,4.9459453E0,1.04127E0,5.816499E0,2.70276E1,1.722463E1,8.606865E0,3.96337E1,7.955318E0,2.761907E0,1.0558212E0,7.4564114E0,4.64336E1,3.1991687E0,3.5932848E0,2.153303E0,3.6631963E0,1.25470705E1,1.448053E1,2.8542442E0,1.4370386E1,6.198169E0,2.4086962E0,8.882151E0,3.0751549E1,5.665648E0,2.28967E0,1.0151533E0,1.7467539E0,5.1096263E0,2.346785E0,1.3585395E1,3.2848206E1,1.2868112E0,1.9123576E0,1.7656887E0,1.8275963E0],"tree_param":{"num_deleted":"0","num_feature":"309","num_nodes":"59","size_leaf_vector":"1"}},{"base_weights":[-2.8886005E-2,3.8930273E-1,-6.395071E-2,6.432041E-1,-3.205116E-1,-2.9154214E-1,1.6216032E-2,-8.073438E-2,8.678474E-1,1.1071906E-1,-1.9247419E-1,-6.2801963E-1,-1.4623029E-3,-4.795747E-2,4.7798273E-1,3.056801E-1,5.111021E-2,-8.29947E-1,1.6513333E-1,-4.607899E-1,2.2141008E-1,8.418257E-2,-3.9117146E-1,6.497596E-1,-1.4482076E-1,-3.6309797E-1,-3.6220744E-1,-1.7468873E-1,5.3203374E-1,1.2237185E-1,-2.8367195E-1,5.014674E-1,-4.0472186E-1,2.6706377E-1,-1.7937203E-1,-6.198787E-1,3.0552274E-1,9.525038E-1,-1.3409643E-1,4.337069E-2,-2.05602E-1,-2.5987769E-2,2.4449487E-1,1.7084053E-1,-7.56167E-2,-9.63249E-2,2.1358016E-1,1.04349E-1,-2.0460895E-1,-2.8047364E-2,1.9464661E-1,-2.3924015E-1,-1.3041615E-2,-2.5227353E-1,1.612382E-2,-1.22099735E-1,2.0595558E-1,3.1724235E-1,3.6457285E-2,1.631112E-1,-1.5763482E-1],"categories":[],"categories_nodes":[],"categories_segments":[],"categories_sizes":[],"default_left":[0,0,0,0,0,0,0,0,0,0,0,0,0,0,0,0,0,0,0,0,0,0,0,0,0,0,0,0,0,0,0,0,0,0,0,0,0,0,0,0,0,0,0,0,0,0,0,0,0,0,0,0,0,0,0,0,0,0,0,0,0],"id":13,"left_children":[1,3,5,7,9,11,13,-1,15,-1,-1,17,19,21,23,-1,-1,25,27,29,31,33,35,37,-1,-1,39,-1,41,43,-1,45,47,49,51,53,55,57,59,-1,-1,-1,-1,-1,-1,-1,-1,-1,-1,-1,-1,-1,-1,-1,-1,-1,-1,-1,-1,-1,-1],"loss_changes":[2.6279733E0,2.7066293E0,3.008711E0,2.3960576E0,1.1938503E0,4.190285E0,3.65904E0,0E0,7.435756E-1,0E0,0E0,3.3206844E0,2.565325E0,4.9600534E0,2.7995224E0,0E0,0E0,2.4101105E0,1.644705E0,2.4298525E0,3.1623387E0,3.868348E0,5.029692E0,3.2612915E0,0E0,0E0,1.5086215E0,0E0,7.3361325E-1,9.138046E-1,0E0,2.3246503E0,1.4411817E0,6.556851E0,2.7430458E0,3.4995146E0,2.499323E0,7.1315956E-1,1.4941071E0,0E0,0E0,0E0,0E0,0E0,0E0,0E0,0E0,0E0,0E0,0E0,0E0,0E0,0E0,0E0,0E0,0E0,0E0,0E0,0E0,0E0,0E0],"parents":[2147483647,0,0,1,1,2,2,3,3,4,4,5,5,6,6,8,8,11,11,12,12,13,13,14,14,17,17,18,18,19,19,20,20,21,21,22,22,23,23,26,26,28,28,29,29,31,31,32,32,33,33,34,34,35,35,36,36,37,37,38,38],"right_children":[2,4,6,8,10,12,14,-1,16,-1,-1,18,20,22,24,-1,-1,26,28,30,32,34,36,38,-1,-1,40,-1,42,44,-1,46,48,50,52,54,56,58,60,-1,-1,-1,-1,-1,-1,-1,-1,-1,-1,-1,-1,-1,-1,-1,-1,-1,-1,-1,-1,-1,-1],"split_conditions":[-3.1849522E-2,1.129527E-2,-8.705777E-3,-1.3785438E-1,2.3709636E-2,-7.7028982E-3,3.9188188E-2,-8.073438E-2,2.2036526E-2,1.1071906E-1,-1.9247419E-1,1.7922103E-2,-3.388551E-2,6.852059E-3,2.4477404E-2,3.056801E-1,5.111021E-2,7.7675015E-2,-2.8396126E-2,-1.1238821E-3,1.0593537E-2,6.2247477E-2,1.7336521E-2,7.078998E-3,-1.4482076E-1,-3.6309797E-1,1.1570351E-1,-1.7468873E-1,-2.4569841E-2,-1.4921522E-2,-2.8367195E-1,-8.488907E-3,-2.2554612E-3,-4.395322E-2,4.680296E-2,1.5499432E-2,-9.729627E-3,1.3453063E-2,-9.834136E-3,4.337069E-2,-2.05602E-1,-2.5987769E-2,2.4449487E-1,1.7084053E-1,-7.56167E-2,-9.63249E-2,2.1358016E-1,1.04349E-1,-2.0460895E-1,-2.8047364E-2,1.9464661E-1,-2.3924015E-1,-1.3041615E-2,-2.5227353E-1,1.612382E-2,-1.22099735E-1,2.0595558E-1,3.1724235E-1,3.6457285E-2,1.631112E-1,-1.5763482E-1],"split_indices":[190,130,250,51,195,18,213,0,223,0,0,82,109,100,65,0,0,66,244,99,131,51,99,126,0,0,105,0,19,173,0,212,96,45,261,202,216,211,11,0,0,0,0,0,0,0,0,0,0,0,0,0,0,0,0,0,0,0,0,0,0],"split_type":[0,0,0,0,0,0,0,0,0,0,0,0,0,0,0,0,0,0,0,0,0,0,0,0,0,0,0,0,0,0,0,0,0,0,0,0,0,0,0,0,0,0,0,0,0,0,0,0,0,0,0,0,0,0,0,0,0,0,0,0,0],"sum_hessian":[1.7651889E2,1.28743515E1,1.6364455E2,9.551582E0,3.3227696E0,4.194031E1,1.2170423E2,1.8481069E0,7.703475E0,1.0081131E0,2.3146565E0,1.887792E1,2.3062391E1,1.07641075E2,1.4063153E1,5.9530606E0,1.7504144E0,1.501013E1,3.8677905E0,7.185653E0,1.5876738E1,7.826368E1,2.9377398E1,1.2204634E1,1.8585199E0,7.4025497E0,7.6075797E0,1.0802E0,2.7875905E0,3.601211E0,3.5844421E0,1.110761E1,4.769128E0,4.6195316E1,3.2068363E1,2.2199963E1,7.177435E0,8.64902E0,3.555613E0,3.1772404E0,4.4303393E0,1.0925688E0,1.6950219E0,1.4039171E0,2.197294E0,2.1559787E0,8.951632E0,1.2156945E0,3.5534332E0,2.414575E1,2.2049566E1,4.902581E0,2.7165783E1,1.6528284E1,5.671679E0,2.4769323E0,4.700503E0,7.4370017E0,1.2120185E0,1.1589999E0,2.3966131E0],"tree_param":{"num_deleted":"0","num_feature":"309","num_nodes":"61","size_leaf_vector":"1"}},{"base_weights":[-2.3182638E-2,3.5875376E-2,-2.3578615E-1,1.0578363E-1,-3.1203198E-1,-6.010907E-1,7.494326E-2,-8.183809E-2,2.6765448E-1,1.3935642E-1,-8.188829E-1,-7.810801E-1,1.491111E-1,-2.767466E-1,5.097613E-1,-4.128301E-1,2.2606167E-1,3.4640875E-1,-5.256554E-1,4.453974E-1,-4.3245736E-1,-1.0561601E0,6.495081E-2,-2.5530867E-2,-9.779753E-1,-5.493594E-1,3.6163527E-1,-1.24708764E-1,7.399859E-1,-8.1211835E-1,1.7346842E-2,4.3818456E-1,-7.3673767E-1,-3.9561358E-1,4.4735226E-1,-2.9013017E-1,7.080871E-2,7.4918014E-1,-1.3134159E-1,-6.1510974E-1,4.257228E-2,8.6607095E-3,-1.251355E0,1.7888917E-1,-2.3457278E-1,-1.3756582E-2,-3.4357512E-1,-2.6667187E-1,5.1893037E-2,2.0545548E-1,-8.435367E-2,9.44994E-1,-9.790895E-2,-2.9711753E-1,1.292342E-1,1.03215374E-1,-2.4335098E-1,3.2768358E-2,2.243274E-1,1.8753687E-2,-3.1172612E-1,1.7366168E-1,-2.2954194E-1,1.6567127E-1,-6.227208E-2,-1.4378699E-2,2.7010515E-1,-2.4136919E-1,-9.385875E-3,-4.2790878E-1,-2.6308699E-2,2.1209846E-1,-2.0161255E-1,5.69253E-2,3.196746E-1],"categories":[],"categories_nodes":[],"categories_segments":[],"categories_sizes":[],"default_left":[0,0,0,0,0,0,0,0,0,0,0,0,0,0,0,0,0,0,0,0,0,0,0,0,0,0,0,0,0,0,0,0,0,0,0,0,0,0,0,0,0,0,0,0,0,0,0,0,0,0,0,0,0,0,0,0,0,0,0,0,0,0,0,0,0,0,0,0,0,0,0,0,0,0,0],"id":14,"left_children":[1,3,5,7,9,11,13,15,17,19,21,23,-1,25,27,29,31,33,35,37,39,41,-1,43,45,47,49,-1,51,53,55,57,59,61,63,-1,-1,65,-1,67,-1,-1,69,-1,-1,-1,-1,-1,71,-1,-1,73,-1,-1,-1,-1,-1,-1,-1,-1,-1,-1,-1,-1,-1,-1,-1,-1,-1,-1,-1,-1,-1,-1,-1],"loss_changes":[2.1113336E0,3.2419713E0,4.192912E0,3.3811803E0,5.2226896E0,3.7298503E0,3.2965856E0,5.3923473E0,3.9065695E0,2.4090164E0,2.848456E0,2.193801E0,0E0,2.2967968E0,2.3485043E0,4.378986E0,5.9563103E0,4.2841105E0,2.1720262E0,2.6736174E0,6.037334E-1,1.9095716E0,0E0,2.3993657E0,1.7880659E0,1.8519223E0,1.0674306E0,0E0,2.0639215E0,3.35147E0,3.8553002E0,2.284061E0,1.3585181E0,2.9984806E0,3.46243E0,0E0,0E0,8.714497E-1,0E0,4.0868413E-1,0E0,0E0,1.4062614E0,0E0,0E0,0E0,0E0,0E0,2.4372108E0,0E0,0E0,4.3460035E-1,0E0,0E0,0E0,0E0,0E0,0E0,0E0,0E0,0E0,0E0,0E0,0E0,0E0,0E0,0E0,0E0,0E0,0E0,0E0,0E0,0E0,0E0,0E0],"parents":[2147483647,0,0,1,1,2,2,3,3,4,4,5,5,6,6,7,7,8,8,9,9,10,10,11,11,13,13,14,14,15,15,16,16,17,17,18,18,19,19,20,20,21,21,23,23,24,24,25,25,26,26,28,28,29,29,30,30,31,31,32,32,33,33,34,34,37,37,39,39,42,42,48,48,51,51],"right_children":[2,4,6,8,10,12,14,16,18,20,22,24,-1,26,28,30,32,34,36,38,40,42,-1,44,46,48,50,-1,52,54,56,58,60,62,64,-1,-1,66,-1,68,-1,-1,70,-1,-1,-1,-1,-1,72,-1,-1,74,-1,-1,-1,-1,-1,-1,-1,-1,-1,-1,-1,-1,-1,-1,-1,-1,-1,-1,-1,-1,-1,-1,-1],"split_conditions":[1.1874762E-2,1.2143081E-2,4.7881227E-2,-5.98313E-3,-3.3106983E-2,7.3696606E-2,-6.67427E-3,-6.6764536E-4,1.4436902E-2,1.7734367E-2,7.79474E-3,6.922602E-3,1.491111E-1,8.563513E-3,-1.1987163E-2,2.0143865E-3,2.7123088E-1,-1.914415E-2,1.6333818E-2,4.7963555E-3,-3.3068461E-3,-1.4569028E-2,6.495081E-2,2.3136051E-2,-1.15017295E-2,6.053707E-3,-4.9476945E-3,-1.24708764E-1,9.337977E-2,3.8513735E-2,5.360872E-3,1.4548524E-2,6.507882E-2,3.3795223E-2,2.5197482E-2,-2.9013017E-1,7.080871E-2,-1.4968378E-2,-1.3134159E-1,-1.9749328E-2,4.257228E-2,8.6607095E-3,1.6421523E-2,1.7888917E-1,-2.3457278E-1,-1.3756582E-2,-3.4357512E-1,-2.6667187E-1,4.171661E-2,2.0545548E-1,-8.435367E-2,-5.371264E-2,-9.790895E-2,-2.9711753E-1,1.292342E-1,1.03215374E-1,-2.4335098E-1,3.2768358E-2,2.243274E-1,1.8753687E-2,-3.1172612E-1,1.7366168E-1,-2.2954194E-1,1.6567127E-1,-6.227208E-2,-1.4378699E-2,2.7010515E-1,-2.4136919E-1,-9.385875E-3,-4.2790878E-1,-2.6308699E-2,2.1209846E-1,-2.0161255E-1,5.69253E-2,3.196746E-1],"split_indices":[141,29,195,18,201,55,126,13,212,12,135,135,0,223,225,211,94,206,42,18,206,173,0,108,129,128,253,0,123,221,59,60,102,238,19,0,0,252,0,153,0,0,58,0,0,0,0,0,198,0,0,249,0,0,0,0,0,0,0,0,0,0,0,0,0,0,0,0,0,0,0,0,0,0,0],"split_type":[0,0,0,0,0,0,0,0,0,0,0,0,0,0,0,0,0,0,0,0,0,0,0,0,0,0,0,0,0,0,0,0,0,0,0,0,0,0,0,0,0,0,0,0,0,0,0,0,0,0,0,0,0,0,0,0,0,0,0,0,0,0,0,0,0,0,0,0,0,0,0,0,0,0,0],"sum_hessian":[1.6648042E2,1.3093886E2,3.554156E1,1.0960988E2,2.1328985E1,1.5906667E1,1.9634895E1,5.099587E1,5.861401E1,1.1665259E1,9.663726E0,1.3914687E1,1.99198E0,1.105606E1,8.5788355E0,2.4412092E1,2.6583776E1,5.3833164E1,4.780845E0,7.7424793E0,3.92278E0,7.845682E0,1.8180434E0,3.110062E0,1.0804625E1,7.8452826E0,3.2107773E0,1.5485123E0,7.0303235E0,1.2200124E1,1.2211968E1,2.2230797E1,4.3529797E0,6.096852E0,4.7736313E1,2.8559508E0,1.9248942E0,5.8738728E0,1.8686066E0,2.9224727E0,1.0003074E0,1.3261455E0,6.519537E0,1.822996E0,1.287066E0,1.8378054E0,8.96682E0,4.708062E0,3.1372201E0,2.0929937E0,1.1177837E0,5.992127E0,1.0381962E0,1.0847403E1,1.3527211E0,9.1777115E0,3.0342572E0,1.1433862E1,1.0796934E1,1.4124533E0,2.9405262E0,1.5205222E0,4.5763297E0,4.128188E1,6.454433E0,1.0452585E0,4.828614E0,1.9210018E0,1.0014708E0,5.470978E0,1.048559E0,1.6591893E0,1.4780308E0,1.1793582E0,4.812769E0],"tree_param":{"num_deleted":"0","num_feature":"309","num_nodes":"75","size_leaf_vector":"1"}},{"base_weights":[-2.7891906E-2,-5.5176937E-3,-5.1846004E-1,-7.450868E-2,2.0351604E-1,-2.4107288E-1,5.1534455E-2,-3.1122053E-1,2.6804958E-2,6.438091E-1,1.3935816E-2,-1.0786932E-1,-7.616433E-1,-1.0623481E-1,4.136504E-1,-5.8348585E-2,7.6321054E-1,6.152165E-1,-1.378863E-1,-3.1790707E-1,5.7076305E-1,-9.6430624E-1,2.095994E-2,-2.087835E-1,2.9702848E-1,6.761322E-1,-2.468264E-1,1.01721175E-2,8.8454324E-1,-3.7326396E-2,8.363867E-1,-3.0076388E-1,3.6548954E-1,-5.544278E-3,-2.2821783E-1,-8.620619E-2,2.419554E-1,-7.280175E-2,-3.1203434E-1,-2.3052527E-1,-2.7238118E-2,1.740739E-1,-1.3678662E-1,2.563278E-1,-3.0699473E-2,1.3972901E-1,-2.0885864E-1,4.4237085E-2,2.8911522E-1,2.841709E-1,7.056205E-2,-2.2666976E-1,-7.11099E-3,1.8337707E-1,-1.0100425E-1],"categories":[],"categories_nodes":[],"categories_segments":[],"categories_sizes":[],"default_left":[0,0,0,0,0,0,0,0,0,0,0,0,0,0,0,0,0,0,0,0,0,0,0,0,0,0,0,0,0,0,0,0,0,0,0,0,0,0,0,0,0,0,0,0,0,0,0,0,0,0,0,0,0,0,0],"id":15,"left_children":[1,3,5,7,9,-1,-1,11,13,15,17,19,21,23,25,-1,27,29,31,33,35,37,-1,39,41,43,45,-1,47,-1,49,51,53,-1,-1,-1,-1,-1,-1,-1,-1,-1,-1,-1,-1,-1,-1,-1,-1,-1,-1,-1,-1,-1,-1],"loss_changes":[1.6878018E0,2.1542044E0,1.458168E0,2.700327E0,3.0856304E0,0E0,0E0,3.0066621E0,4.1368475E0,1.2631435E0,2.5438988E0,3.6592007E0,1.8071785E0,2.5420728E0,3.7304318E0,0E0,8.5056686E-1,1.022367E0,1.9402387E0,2.541552E0,1.4707506E0,2.054038E-1,0E0,3.1261277E0,2.94552E0,2.1661754E0,2.4307537E0,0E0,3.5346222E-1,0E0,7.3812485E-2,2.1765223E0,1.2255046E0,0E0,0E0,0E0,0E0,0E0,0E0,0E0,0E0,0E0,0E0,0E0,0E0,0E0,0E0,0E0,0E0,0E0,0E0,0E0,0E0,0E0,0E0],"parents":[2147483647,0,0,1,1,2,2,3,3,4,4,7,7,8,8,9,9,10,10,11,11,12,12,13,13,14,14,16,16,17,17,18,18,19,19,20,20,21,21,23,23,24,24,25,25,26,26,28,28,30,30,31,31,32,32],"right_children":[2,4,6,8,10,-1,-1,12,14,16,18,20,22,24,26,-1,28,30,32,34,36,38,-1,40,42,44,46,-1,48,-1,50,52,54,-1,-1,-1,-1,-1,-1,-1,-1,-1,-1,-1,-1,-1,-1,-1,-1,-1,-1,-1,-1,-1,-1],"split_conditions":[3.551365E-2,1.4375762E-2,3.7794128E-2,-2.1503653E-2,1.9476432E-2,-2.4107288E-1,5.1534455E-2,1.28272455E-2,1.5112334E-4,-3.8449038E-2,-1.3787334E-2,-8.795563E-3,1.3767395E-2,7.341024E-3,1.5015685E-2,-5.8348585E-2,-1.8260902E-2,-3.3670437E-2,9.076961E-3,-1.6203964E-2,-2.011094E-2,4.3124054E-2,2.095994E-2,-6.342608E-3,1.5546177E-2,5.8284476E-3,-4.176656E-2,1.01721175E-2,-6.2722564E-3,-3.7326396E-2,1.78177E-2,-1.6639121E-3,1.1161849E-2,-5.544278E-3,-2.2821783E-1,-8.620619E-2,2.419554E-1,-7.280175E-2,-3.1203434E-1,-2.3052527E-1,-2.7238118E-2,1.740739E-1,-1.3678662E-1,2.563278E-1,-3.0699473E-2,1.3972901E-1,-2.0885864E-1,4.4237085E-2,2.8911522E-1,2.841709E-1,7.056205E-2,-2.2666976E-1,-7.11099E-3,1.8337707E-1,-1.0100425E-1],"split_indices":[101,142,43,242,28,0,0,88,110,209,82,152,244,211,200,0,250,218,179,152,63,181,0,226,19,23,287,0,64,0,147,137,100,0,0,0,0,0,0,0,0,0,0,0,0,0,0,0,0,0,0,0,0,0,0],"split_type":[0,0,0,0,0,0,0,0,0,0,0,0,0,0,0,0,0,0,0,0,0,0,0,0,0,0,0,0,0,0,0,0,0,0,0,0,0,0,0,0,0,0,0,0,0,0,0,0,0,0,0,0,0,0,0],"sum_hessian":[1.5303162E2,1.4732361E2,5.708002E0,1.1124957E2,3.6074047E1,3.923243E0,1.7847589E0,3.2722954E1,7.852662E1,1.0136478E1,2.5937567E1,2.3398691E1,9.324262E0,5.8971237E1,1.955538E1,1.1853498E0,8.951129E0,4.6135826E0,2.1323984E1,1.8274311E1,5.1243796E0,7.368613E0,1.9556489E0,4.7399857E1,1.1571382E1,1.3977029E1,5.5783505E0,1.4592662E0,7.4918623E0,1.1627047E0,3.4508781E0,1.6415062E1,4.9089227E0,1.1523837E1,6.7504745E0,1.0572523E0,4.067127E0,1.099869E0,6.2687435E0,7.2935324E0,4.0106323E1,8.575358E0,2.9960232E0,1.1292985E1,2.684044E0,2.1432288E0,3.4351215E0,1.0043277E0,6.487535E0,2.4276276E0,1.0232507E0,5.560417E0,1.0854645E1,3.7321162E0,1.1768067E0],"tree_param":{"num_deleted":"0","num_feature":"309","num_nodes":"55","size_leaf_vector":"1"}},{"base_weights":[-2.0997824E-2,1.8461726E-3,-5.38079E-1,-4.9031824E-2,3.9374152E-1,-2.5296286E-1,-2.2216415E-2,2.9968044E-2,-2.4692546E-1,4.944613E-1,-1.414034E-1,1.2376802E-1,-1.4656419E-1,-8.556183E-1,7.812695E-2,-5.055702E-1,8.940037E-2,6.1206675E-1,-6.3244924E-2,-2.698848E-2,-3.165064E-1,-2.6035946E-2,4.6346754E-1,5.6819126E-2,-7.367148E-1,4.4657132E-1,-3.124719E-1,3.9166067E-2,8.322989E-1,1.564715E-2,-1.5612955E-1,1.9495898E-1,-1.6193049E-1,-1.3394271E-1,1.2906897E-1,-2.5953839E-2,-3.2323015E-1,1.8732208E-1,-1.3236803E-1,2.6847823E-2,-2.1428645E-1,-1.923048E-1,1.5494049E-1,-1.0919706E-2,2.843068E-1],"categories":[],"categories_nodes":[],"categories_segments":[],"categories_sizes":[],"default_left":[0,0,0,0,0,0,0,0,0,0,0,0,0,0,0,0,0,0,0,0,0,0,0,0,0,0,0,0,0,0,0,0,0,0,0,0,0,0,0,0,0,0,0,0,0],"id":16,"left_children":[1,3,5,7,9,-1,11,13,15,17,-1,-1,-1,19,21,23,25,27,-1,-1,-1,29,31,33,35,37,39,41,43,-1,-1,-1,-1,-1,-1,-1,-1,-1,-1,-1,-1,-1,-1,-1,-1],"loss_changes":[1.7366474E0,2.8449821E0,9.60372E-1,1.9822639E0,1.6615877E0,0E0,8.785138E-1,3.955278E0,3.1897495E0,1.3875811E0,0E0,0E0,0E0,6.357913E-1,3.519627E0,2.7177114E0,2.5171366E0,1.6405563E0,0E0,0E0,0E0,2.7231221E0,3.8380322E0,1.4934236E0,3.1545491E0,1.7251118E0,1.4178706E0,1.8671931E0,9.897146E-1,0E0,0E0,0E0,0E0,0E0,0E0,0E0,0E0,0E0,0E0,0E0,0E0,0E0,0E0,0E0,0E0],"parents":[2147483647,0,0,1,1,2,2,3,3,4,4,6,6,7,7,8,8,9,9,13,13,14,14,15,15,16,16,17,17,21,21,22,22,23,23,24,24,25,25,26,26,27,27,28,28],"right_children":[2,4,6,8,10,-1,12,14,16,18,-1,-1,-1,20,22,24,26,28,-1,-1,-1,30,32,34,36,38,40,42,44,-1,-1,-1,-1,-1,-1,-1,-1,-1,-1,-1,-1,-1,-1,-1,-1],"split_conditions":[3.1590182E-2,1.9716103E-2,-2.5569398E-2,8.674117E-3,4.1110545E-2,-2.5296286E-1,-1.0912289E-1,-1.4993998E-1,2.9092433E-2,1.8485645E-2,-1.414034E-1,1.2376802E-1,-1.4656419E-1,-2.9873173E-3,2.1244861E-2,-3.3259705E-2,8.552462E-2,-7.928467E-3,-6.3244924E-2,-2.698848E-2,-3.165064E-1,2.8170303E-2,1.8244645E-2,-1.8411469E-2,-7.630676E-3,1.0523455E-1,5.883095E-3,1.1683605E-2,-1.0522356E-3,1.564715E-2,-1.5612955E-1,1.9495898E-1,-1.6193049E-1,-1.3394271E-1,1.2906897E-1,-2.5953839E-2,-3.2323015E-1,1.8732208E-1,-1.3236803E-1,2.6847823E-2,-2.1428645E-1,-1.923048E-1,1.5494049E-1,-1.0919706E-2,2.843068E-1],"split_indices":[244,244,148,227,99,0,4,53,218,98,0,0,0,190,288,222,261,32,0,0,0,92,216,80,213,54,253,203,100,0,0,0,0,0,0,0,0,0,0,0,0,0,0,0,0],"split_type":[0,0,0,0,0,0,0,0,0,0,0,0,0,0,0,0,0,0,0,0,0,0,0,0,0,0,0,0,0,0,0,0,0,0,0,0,0,0,0,0,0,0,0,0,0],"sum_hessian":[1.4593738E2,1.407171E2,5.2202754E0,1.2532201E2,1.53951025E1,2.881386E0,2.3388894E0,9.017313E1,3.5148876E1,1.417336E1,1.2217427E0,1.2700675E0,1.0688219E0,3.786022E0,8.638711E1,1.958455E1,1.5564326E1,1.2260994E1,1.9123662E0,1.0821183E0,2.7039037E0,6.8738556E1,1.764855E1,5.924371E0,1.3660181E1,8.181579E0,7.3827477E0,3.7316103E0,8.529384E0,6.0123924E1,8.614632E0,1.5180356E1,2.4681935E0,2.439997E0,3.4843738E0,5.1280723E0,8.532108E0,7.063385E0,1.1181936E0,4.0792603E0,3.3034873E0,1.397334E0,2.3342762E0,1.0803908E0,7.4489923E0],"tree_param":{"num_deleted":"0","num_feature":"309","num_nodes":"45","size_leaf_vector":"1"}},{"base_weights":[-2.3992788E-2,4.462641E-2,-1.9078857E-1,-5.7442945E-1,8.3376E-2,-3.395319E-1,1.4756593E-1,-1.458329E-2,-2.3672824E-1,4.5201352E-1,1.959627E-2,-8.259038E-1,-1.4738566E-1,-1.6315594E-1,3.1308657E-1,5.5995923E-1,-1.3636768E-1,1.399796E-1,-3.551663E-1,-1.0743124E0,7.4945986E-2,-2.4257176E-1,1.6828763E-1,4.8942426E-1,-1.4888483E-1,-1.02313936E-1,7.1057165E-1,-2.9186076E-1,2.3129572E-1,2.5623587E-1,-7.2541887E-1,-4.3183986E-2,-3.6844724E-1,-6.647228E-2,-7.038131E-1,6.4231765E-1,-1.1642652E-1,1.1530275E-1,-1.5561941E-1,-1.8270697E-2,2.4132937E-1,-1.4977089E-1,1.3217066E-1,-8.1413295E-3,1.45663E-1,-8.3314106E-2,2.167465E-1,-3.6479145E-1,-3.905266E-2,1.3201326E-1,-1.0104893E-1,-2.8693992E-1,3.3767685E-2,2.4427657E-1,-6.31018E-2],"categories":[],"categories_nodes":[],"categories_segments":[],"categories_sizes":[],"default_left":[0,0,0,0,0,0,0,0,0,0,0,0,0,0,0,0,0,0,0,0,0,0,0,0,0,0,0,0,0,0,0,0,0,0,0,0,0,0,0,0,0,0,0,0,0,0,0,0,0,0,0,0,0,0,0],"id":17,"left_children":[1,3,5,7,9,11,13,-1,-1,15,17,19,21,-1,23,25,-1,27,29,31,-1,33,-1,35,-1,37,39,41,43,45,47,-1,-1,49,51,53,-1,-1,-1,-1,-1,-1,-1,-1,-1,-1,-1,-1,-1,-1,-1,-1,-1,-1,-1],"loss_changes":[1.6249628E0,2.467709E0,2.131465E0,6.4668393E-1,2.2437034E0,2.5912757E0,1.6953292E0,0E0,0E0,1.6329715E0,3.7816718E0,2.407125E0,1.6211985E0,0E0,1.8680007E0,1.3729019E0,0E0,2.5647159E0,4.8026085E0,7.8088903E-1,0E0,1.5870719E0,0E0,1.5712123E0,0E0,8.659508E-1,8.2709455E-1,1.9659946E0,3.4844751E0,2.2996223E0,3.6269379E0,0E0,0E0,2.2929416E0,1.2325222E0,1.4566364E0,0E0,0E0,0E0,0E0,0E0,0E0,0E0,0E0,0E0,0E0,0E0,0E0,0E0,0E0,0E0,0E0,0E0,0E0,0E0],"parents":[2147483647,0,0,1,1,2,2,3,3,4,4,5,5,6,6,9,9,10,10,11,11,12,12,14,14,15,15,17,17,18,18,19,19,21,21,23,23,25,25,26,26,27,27,28,28,29,29,30,30,33,33,34,34,35,35],"right_children":[2,4,6,8,10,12,14,-1,-1,16,18,20,22,-1,24,26,-1,28,30,32,-1,34,-1,36,-1,38,40,42,44,46,48,-1,-1,50,52,54,-1,-1,-1,-1,-1,-1,-1,-1,-1,-1,-1,-1,-1,-1,-1,-1,-1,-1,-1],"split_conditions":[8.976701E-3,-2.9433453E-2,1.0104951E-2,2.2784593E-2,-3.6227673E-2,4.397334E-3,-1.730384E-2,-1.458329E-2,-2.3672824E-1,5.7317402E-2,1.636092E-2,1.1988702E-2,-2.4151394E-2,-1.6315594E-1,3.8383532E-2,-2.4477404E-2,-1.3636768E-1,-1.084703E-2,-7.2823474E-3,-2.083893E-2,7.4945986E-2,-5.91351E-2,1.6828763E-1,1.0627341E-1,-1.4888483E-1,-6.137113E-2,-2.6582306E-2,7.24052E-3,-1.8531924E-2,-1.3415224E-2,-3.2496094E-3,-4.3183986E-2,-3.6844724E-1,1.045641E-1,7.883759E-3,2.3396803E-2,-1.1642652E-1,1.1530275E-1,-1.5561941E-1,-1.8270697E-2,2.4132937E-1,-1.4977089E-1,1.3217066E-1,-8.1413295E-3,1.45663E-1,-8.3314106E-2,2.167465E-1,-3.6479145E-1,-3.905266E-2,1.3201326E-1,-1.0104893E-1,-2.8693992E-1,3.3767685E-2,2.4427657E-1,-6.31018E-2],"split_indices":[250,244,0,148,213,168,130,0,0,269,243,108,52,0,109,65,0,100,147,249,0,169,0,276,0,84,59,191,243,191,244,0,0,10,150,12,0,0,0,0,0,0,0,0,0,0,0,0,0,0,0,0,0,0,0],"split_type":[0,0,0,0,0,0,0,0,0,0,0,0,0,0,0,0,0,0,0,0,0,0,0,0,0,0,0,0,0,0,0,0,0,0,0,0,0,0,0,0,0,0,0,0,0,0,0,0,0,0,0,0,0,0,0],"sum_hessian":[1.4023138E2,9.987543E1,4.0355953E1,5.0690536E0,9.480637E1,2.8030182E1,1.2325771E1,1.8250542E0,3.2439992E0,1.3085719E1,8.172066E1,7.0036993E0,2.1026484E1,1.9392698E0,1.0386502E1,1.2035039E1,1.0506804E0,6.232633E1,1.9394327E1,5.6908636E0,1.3128356E0,1.9115347E1,1.9111364E0,8.852997E0,1.5335052E0,2.2892818E0,9.745757E0,1.0495624E1,5.1830704E1,7.4311433E0,1.1963185E1,1.082172E0,4.6086917E0,1.4661702E1,4.4536443E0,7.767629E0,1.0853679E0,1.0911307E0,1.198151E0,1.0951732E0,8.650583E0,8.427811E0,2.0678134E0,2.6146744E1,2.568396E1,3.6525893E0,3.7785537E0,5.9866476E0,5.976537E0,4.8839507E0,9.777752E0,3.270022E0,1.1836224E0,6.501621E0,1.2660084E0],"tree_param":{"num_deleted":"0","num_feature":"309","num_nodes":"55","size_leaf_vector":"1"}},{"base_weights":[-2.5319938E-2,-3.596561E-1,5.9860456E-3,6.77411E-2,-6.9653976E-1,-1.3324316E-1,9.903807E-2,4.8521936E-1,-1.627684E-1,-8.3091676E-1,-8.44796E-3,-3.829539E-1,7.7690296E-2,-6.866127E-2,3.6867118E-1,2.2581068E-1,-4.7923137E-2,-2.7719808E-1,-6.5485485E-2,-6.984609E-2,-6.689572E-1,-1.3563006E-1,5.612827E-1,1.578107E-1,-2.927595E-1,-3.2619454E-2,5.9076643E-1,2.2726457E-1,-6.932837E-1,1.457185E-1,-8.491747E-1,-5.429058E-1,9.4933696E-2,4.814747E-2,2.630163E-1,-1.2032605E-1,4.4043538E-1,-8.533458E-1,-1.1921357E-1,3.8387448E-1,-4.7225085E-1,7.471406E-1,-2.0180735E-1,1.6148844E-1,-1.0791952E-1,-6.590114E-2,-2.3461287E-1,-2.1345232E-2,-3.0172926E-1,8.431537E-2,-2.1627945E-1,1.0461488E-1,-1.0942681E-1,1.3570577E-1,-1.9771515E-1,1.3555594E-1,-1.4547703E-1,-1.13911845E-1,1.9578733E-1,-2.9996598E-1,-4.8531596E-2,3.212656E-2,-1.6383494E-1,2.014877E-1,-1.14613846E-1,1.6184646E-1,-2.7240387E-1,4.8691574E-3,2.858913E-1,-1.7301977E-1,1.2205914E-1],"categories":[],"categories_nodes":[],"categories_segments":[],"categories_sizes":[],"default_left":[0,0,0,0,0,0,0,0,0,0,0,0,0,0,0,0,0,0,0,0,0,0,0,0,0,0,0,0,0,0,0,0,0,0,0,0,0,0,0,0,0,0,0,0,0,0,0,0,0,0,0,0,0,0,0,0,0,0,0,0,0,0,0,0,0,0,0,0,0,0,0],"id":18,"left_children":[1,3,5,7,9,11,13,15,-1,17,-1,19,21,23,25,-1,-1,-1,-1,27,29,31,33,35,37,39,41,43,45,-1,47,49,51,53,-1,55,57,59,61,63,65,67,69,-1,-1,-1,-1,-1,-1,-1,-1,-1,-1,-1,-1,-1,-1,-1,-1,-1,-1,-1,-1,-1,-1,-1,-1,-1,-1,-1,-1],"loss_changes":[1.404593E0,1.7013376E0,1.613232E0,1.7857049E0,5.615821E-1,2.6581707E0,3.3985488E0,8.2343185E-1,0E0,1.055305E-1,0E0,2.01462E0,2.9524739E0,2.4232836E0,2.5827928E0,0E0,0E0,0E0,0E0,2.3998332E0,2.8916225E0,1.9439812E0,1.3707211E0,1.9352722E0,2.2226865E0,2.2311778E0,2.452067E0,1.827935E0,2.8290749E-3,0E0,1.2282543E0,1.2930365E0,1.7277211E0,1.5505384E0,0E0,2.9005978E0,2.3519866E0,3.941822E-1,1.933336E0,1.6451921E0,3.0887153E0,2.3496466E0,1.1125848E0,0E0,0E0,0E0,0E0,0E0,0E0,0E0,0E0,0E0,0E0,0E0,0E0,0E0,0E0,0E0,0E0,0E0,0E0,0E0,0E0,0E0,0E0,0E0,0E0,0E0,0E0,0E0,0E0],"parents":[2147483647,0,0,1,1,2,2,3,3,4,4,5,5,6,6,7,7,9,9,11,11,12,12,13,13,14,14,19,19,20,20,21,21,22,22,23,23,24,24,25,25,26,26,27,27,28,28,30,30,31,31,32,32,33,33,35,35,36,36,37,37,38,38,39,39,40,40,41,41,42,42],"right_children":[2,4,6,8,10,12,14,16,-1,18,-1,20,22,24,26,-1,-1,-1,-1,28,30,32,34,36,38,40,42,44,46,-1,48,50,52,54,-1,56,58,60,62,64,66,68,70,-1,-1,-1,-1,-1,-1,-1,-1,-1,-1,-1,-1,-1,-1,-1,-1,-1,-1,-1,-1,-1,-1,-1,-1,-1,-1,-1,-1],"split_conditions":[-2.5289686E-2,-3.1403784E-2,-3.3897758E-2,2.888555E-2,-1.244135E-3,2.4688551E-2,-1.53520275E-2,2.9778091E-2,-1.627684E-1,6.342608E-3,-8.44796E-3,-6.8346314E-2,-6.1178226E-2,-1.3359815E-3,-1.5029696E-2,2.2581068E-1,-4.7923137E-2,-2.7719808E-1,-6.5485485E-2,7.7603315E-3,2.1503653E-2,-7.42167E-3,-3.1548142E-2,4.0273108E-2,-5.6276177E-3,7.4599446E-3,1.751343E-2,1.9655868E-3,1.7307946E-2,1.457185E-1,-2.3918E-2,7.1193434E-2,1.1719575E-2,-2.8973648E-2,2.630163E-1,-4.0506426E-2,-2.7880408E-2,6.4727035E-4,4.6295556E-3,1.7597632E-2,-3.6199524E-3,-9.431851E-3,-9.000573E-3,1.6148844E-1,-1.0791952E-1,-6.590114E-2,-2.3461287E-1,-2.1345232E-2,-3.0172926E-1,8.431537E-2,-2.1627945E-1,1.0461488E-1,-1.0942681E-1,1.3570577E-1,-1.9771515E-1,1.3555594E-1,-1.4547703E-1,-1.13911845E-1,1.9578733E-1,-2.9996598E-1,-4.8531596E-2,3.212656E-2,-1.6383494E-1,2.014877E-1,-1.14613846E-1,1.6184646E-1,-2.7240387E-1,4.8691574E-3,2.858913E-1,-1.7301977E-1,1.2205914E-1],"split_indices":[227,145,134,98,149,228,305,30,0,226,0,170,106,100,166,0,0,0,0,129,242,18,251,247,212,99,250,1,2,0,254,270,141,194,0,192,244,226,59,122,17,206,253,0,0,0,0,0,0,0,0,0,0,0,0,0,0,0,0,0,0,0,0,0,0,0,0,0,0,0,0],"split_type":[0,0,0,0,0,0,0,0,0,0,0,0,0,0,0,0,0,0,0,0,0,0,0,0,0,0,0,0,0,0,0,0,0,0,0,0,0,0,0,0,0,0,0,0,0,0,0,0,0,0,0,0,0,0,0,0,0,0,0,0,0,0,0,0,0,0,0,0,0,0,0],"sum_hessian":[1.3299039E2,1.048852E1,1.2250186E2,4.975335E0,5.5131845E0,4.8901306E1,7.3600555E1,3.076086E0,1.8992487E0,4.387835E0,1.1253495E0,2.201895E1,2.6882359E1,4.5837254E1,2.7763304E1,2.0562568E0,1.0198294E0,3.367913E0,1.0199219E0,1.1105354E1,1.0913594E1,1.915314E1,7.7292194E0,2.2945004E1,2.289225E1,1.019525E1,1.7568054E1,7.951423E0,3.1539319E0,1.2445176E0,9.669077E0,6.4337144E0,1.2719424E1,3.3813262E0,4.347893E0,1.18537445E1,1.1091259E1,4.4856453E0,1.8406605E1,5.300519E0,4.89473E0,1.4720948E1,2.8471067E0,5.2516904E0,2.6997323E0,1.0462285E0,2.1077032E0,1.8636746E0,7.8054023E0,1.040278E0,5.3934364E0,8.3506565E0,4.3687673E0,2.3808756E0,1.0004506E0,4.5203824E0,7.333362E0,2.117467E0,8.973792E0,3.3334851E0,1.1521603E0,1.2519267E1,5.8873386E0,3.9424722E0,1.3580469E0,1.4018719E0,3.4928584E0,3.4716973E0,1.124925E1,1.7943238E0,1.0527828E0],"tree_param":{"num_deleted":"0","num_feature":"309","num_nodes":"71","size_leaf_vector":"1"}},{"base_weights":[-2.458943E-2,4.8948288E-1,-4.5789555E-2,2.1366344E-1,-3.916502E-2,-6.731572E-1,-2.1111859E-2,-2.2920206E-1,-5.27468E-2,1.9370638E-2,-3.416091E-1,9.024274E-2,-2.2290002E-1,1.584691E-1,-6.334435E-1,-4.6833667E-1,1.3059269E-1,3.2585764E-1,-3.4667376E-1,1.868331E-1,-2.5305855E-1,-2.6586795E-1,-1.6955131E-1,1.8256415E-2,-1.9501327E-1,1.1360974E-2,1.444598E-1,1.921343E-1,-7.795665E-2,2.6520262E-2,-1.7864889E-1,8.980285E-2,-1.8935151E-1,9.032837E-2,-1.881429E-1],"categories":[],"categories_nodes":[],"categories_segments":[],"categories_sizes":[],"default_left":[0,0,0,0,0,0,0,0,0,0,0,0,0,0,0,0,0,0,0,0,0,0,0,0,0,0,0,0,0,0,0,0,0,0,0],"id":19,"left_children":[1,3,5,-1,-1,7,9,-1,-1,11,13,15,17,19,21,23,25,27,29,-1,31,-1,33,-1,-1,-1,-1,-1,-1,-1,-1,-1,-1,-1,-1],"loss_changes":[1.3844045E0,7.883359E-1,1.8581262E0,0E0,0E0,7.101011E-2,1.5297211E0,0E0,0E0,1.8259623E0,2.0295198E0,1.91117E0,1.7493055E0,1.241232E0,8.52051E-1,5.9226453E-1,2.4982138E0,1.0783826E0,2.2331645E0,0E0,9.654248E-1,0E0,1.1044296E0,0E0,0E0,0E0,0E0,0E0,0E0,0E0,0E0,0E0,0E0,0E0,0E0],"parents":[2147483647,0,0,1,1,2,2,5,5,6,6,9,9,10,10,11,11,12,12,13,13,14,14,15,15,16,16,17,17,18,18,20,20,22,22],"right_children":[2,4,6,-1,-1,8,10,-1,-1,12,14,16,18,20,22,24,26,28,30,-1,32,-1,34,-1,-1,-1,-1,-1,-1,-1,-1,-1,-1,-1,-1],"split_conditions":[-5.1491402E-2,-6.422263E-3,-3.4803353E-2,2.1366344E-1,-3.916502E-2,3.3180963E-3,4.23986E-2,-2.2920206E-1,-5.27468E-2,1.2143081E-2,-5.2066385E-3,-2.1894887E-2,-7.305663E-3,3.025839E-2,5.223562E-3,-3.7069544E-2,3.7915975E-2,3.2553054E-2,-2.576989E-3,1.868331E-1,-1.560338E-1,-2.6586795E-1,3.4426402E-2,1.8256415E-2,-1.9501327E-1,1.1360974E-2,1.444598E-1,1.921343E-1,-7.795665E-2,2.6520262E-2,-1.7864889E-1,8.980285E-2,-1.8935151E-1,9.032837E-2,-1.881429E-1],"split_indices":[43,116,98,0,0,226,92,0,0,29,127,227,211,139,211,145,294,153,232,0,291,0,249,0,0,0,0,0,0,0,0,0,0,0,0],"split_type":[0,0,0,0,0,0,0,0,0,0,0,0,0,0,0,0,0,0,0,0,0,0,0,0,0,0,0,0,0,0,0,0,0,0,0],"sum_hessian":[1.2397172E2,4.035203E0,1.1993651E2,2.859386E0,1.1758171E0,3.5446575E0,1.1639185E2,2.543775E0,1.0008825E0,1.0417314E2,1.2218709E1,8.108163E1,2.309152E1,4.6712284E0,7.5474806E0,4.7478924E0,7.633373E1,3.9493175E0,1.9142202E1,1.9536664E0,2.7175622E0,4.296065E0,3.251416E0,1.3835732E0,3.364319E0,6.1256817E1,1.5076916E1,2.5085244E0,1.4407929E0,7.199084E0,1.1943118E1,1.1889298E0,1.5286324E0,1.7714407E0,1.4799751E0],"tree_param":{"num_deleted":"0","num_feature":"309","num_nodes":"35","size_leaf_vector":"1"}}]},"name":"gbtree"},"learner_model_param":{"base_score":"5E-1","boost_from_average":"1","num_class":"0","num_feature":"309","num_target":"1"},"objective":{"name":"binary:logistic","reg_loss_param":{"scale_pos_weight":"1"}}},"version":[3,0,0]}