{"learner":{"attributes":{"scikit_learn":"{\"_estimator_type\": \"classifier\"}"},"feature_names":[],"feature_types":[],"gradient_booster":{"model":{"gbtree_model_param":{"num_parallel_tree":"1","num_trees":"20"},"iteration_indptr":[0,1,2,3,4,5,6,7,8,9,10,11,12,13,14,15,16,17,18,19,20],"tree_info":[0,0,0,0,0,0,0,0,0,0,0,0,0,0,0,0,0,0,0,0],"trees":[{"base_weights":[-0E0,-1.4111675E0,2.057735E-1,-1.84E0,-3.9215688E-2,-9.3948126E-1,5.992063E-1,-0E0,-1.8904109E0,-1.1304348E0,7.5E-1,-1.6363636E0,1.12676054E-1,-6.80203E-1,9.0552145E-1,-5.746479E-1,-1.5E-1,-4.7368425E-1,1.5E-1,-3.3333337E-1,1.2592592E0,-5E-1,-1.801105E0,-1.0434783E0,6.4E-1,-1.177305E0,5.3333336E-1,1.137255E0,-7.047619E-1,-0E0,4.8571432E-1,-4.1052634E-1,5.882353E-1,-4E-1,-1.882353E0,7.5E-1,-5.294118E-1,1.012987E0,-5.185185E-1,4E-1,-1.547826E0,-7.692308E-1,1.3684211E0,-1.0638298E0,1.2846497E0,2.7450982E-1,-1.5172414E0,-3E-1,4.1538465E-1,3E-1,-3.818182E-1,-5.8500004E-1,-1.7142859E-1,-1.5E-1,4.0000004E-1,4.0000004E-1,-2.0000002E-1,-3.8823533E-1,1.7142859E-1,3.714286E-1,-3.2307696E-1,-5.067962E-1,-7.5E-2,-4.2000002E-1,2.4000001E-1,4.8387098E-1,5.454546E-2,-4.9714288E-1,1.5E-1,-3.5E-1,4.1013828E-1,-2.8695655E-1,3.375E-1,1.20000005E-1,-5.307692E-1],"categories":[],"categories_nodes":[],"categories_segments":[],"categories_sizes":[],"default_left":[0,0,0,0,0,0,0,0,0,0,0,0,0,0,0,0,0,0,0,0,0,0,0,0,0,0,0,0,0,0,0,0,0,0,0,0,0,0,0,0,0,0,0,0,0,0,0,0,0,0,0,0,0,0,0,0,0,0,0,0,0,0,0,0,0,0,0,0,0,0,0,0,0,0,0],"id":0,"left_children":[1,3,5,7,9,11,13,-1,15,17,19,21,23,25,27,-1,-1,-1,-1,-1,29,31,33,35,37,39,41,43,45,-1,-1,-1,47,49,51,53,-1,55,57,59,61,63,65,67,69,71,73,-1,-1,-1,-1,-1,-1,-1,-1,-1,-1,-1,-1,-1,-1,-1,-1,-1,-1,-1,-1,-1,-1,-1,-1,-1,-1,-1,-1],"loss_changes":[1.12377396E2,2.8903465E1,1.5274663E2,3.4783554E0,1.1828218E1,6.379206E1,9.937536E1,0E0,3.151703E-1,4.994279E0,8.981482E0,8.880966E0,2.2311033E1,3.0338018E1,7.683214E1,0E0,0E0,0E0,0E0,0E0,3.0582008E0,8.365326E0,4.3981934E0,1.6198849E1,1.1328062E1,2.12201E1,1.7368961E1,5.9277176E1,2.1302E1,0E0,0E0,0E0,6.760181E0,5.8545456E0,2.6546173E0,3.5833335E0,0E0,1.1246754E1,6.44569E0,1.061685E1,4.8571777E0,7.553847E0,2.4627266E0,1.17307E1,3.5510498E1,1.4425086E1,7.7129974E0,0E0,0E0,0E0,0E0,0E0,0E0,0E0,0E0,0E0,0E0,0E0,0E0,0E0,0E0,0E0,0E0,0E0,0E0,0E0,0E0,0E0,0E0,0E0,0E0,0E0,0E0,0E0,0E0],"parents":[2147483647,0,0,1,1,2,2,3,3,4,4,5,5,6,6,8,8,9,9,10,10,11,11,12,12,13,13,14,14,20,20,21,21,22,22,23,23,24,24,25,25,26,26,27,27,28,28,32,32,33,33,34,34,35,35,37,37,38,38,39,39,40,40,41,41,42,42,43,43,44,44,45,45,46,46],"right_children":[2,4,6,8,10,12,14,-1,16,18,20,22,24,26,28,-1,-1,-1,-1,-1,30,32,34,36,38,40,42,44,46,-1,-1,-1,48,50,52,54,-1,56,58,60,62,64,66,68,70,72,74,-1,-1,-1,-1,-1,-1,-1,-1,-1,-1,-1,-1,-1,-1,-1,-1,-1,-1,-1,-1,-1,-1,-1,-1,-1,-1,-1,-1],"split_conditions":[-2.2868983E-2,-4.1599796E-4,-9.910753E-3,-7.6402477E-3,8.159667E-3,-2.3381116E-3,-3.392529E-2,-0E0,4.14673E-3,-2.961731E-3,-1.7883426E-2,-6.440916E-4,-1.88355E-2,-6.247043E-3,9.477824E-3,-5.746479E-1,-1.5E-1,-4.7368425E-1,1.5E-1,-3.3333337E-1,2.0249807E-3,-1.3668869E-3,7.081228E-4,-5.0037387E-3,5.1132636E-3,-1.0049509E-2,-1.4563975E-2,-5.133227E-2,6.0450416E-3,-0E0,4.8571432E-1,-4.1052634E-1,-9.632431E-3,-9.15843E-4,-3.2046377E-3,-1.3518291E-2,-5.294118E-1,3.2113155E-3,5.6539807E-3,1.1309123E-2,5.2603018E-3,-9.865789E-3,1.2847262E-2,-1.72993E-2,-1.0005464E-2,-9.365827E-3,-1.1139679E-2,-3E-1,4.1538465E-1,3E-1,-3.818182E-1,-5.8500004E-1,-1.7142859E-1,-1.5E-1,4.0000004E-1,4.0000004E-1,-2.0000002E-1,-3.8823533E-1,1.7142859E-1,3.714286E-1,-3.2307696E-1,-5.067962E-1,-7.5E-2,-4.2000002E-1,2.4000001E-1,4.8387098E-1,5.454546E-2,-4.9714288E-1,1.5E-1,-3.5E-1,4.1013828E-1,-2.8695655E-1,3.375E-1,1.20000005E-1,-5.307692E-1],"split_indices":[256,9,280,33,205,126,300,0,153,14,135,169,131,31,101,0,0,0,0,0,243,8,153,180,209,243,23,181,144,0,0,0,182,258,126,32,0,34,100,256,4,144,274,223,14,139,191,0,0,0,0,0,0,0,0,0,0,0,0,0,0,0,0,0,0,0,0,0,0,0,0,0,0,0,0],"split_type":[0,0,0,0,0,0,0,0,0,0,0,0,0,0,0,0,0,0,0,0,0,0,0,0,0,0,0,0,0,0,0,0,0,0,0,0,0,0,0,0,0,0,0,0,0,0,0,0,0,0,0,0,0,0,0,0,0,0,0,0,0,0,0,0,0,0,0,0,0,0,0,0,0,0,0],"sum_hessian":[3.85E2,4.825E1,3.3675E2,3.65E1,1.175E1,8.575E1,2.51E2,1E0,3.55E1,4.75E0,7E0,5.125E1,3.45E1,4.825E1,2.0275E2,3.45E1,1E0,3.75E0,1E0,1.25E0,5.75E0,7E0,4.425E1,1.05E1,2.4E1,3.425E1,1.4E1,1.775E2,2.525E1,1.5E0,4.25E0,3.75E0,3.25E0,2.75E0,4.15E1,3E0,7.5E0,1.825E1,5.75E0,6.5E0,2.775E1,5.5E0,8.5E0,1.075E1,1.6675E2,1.175E1,1.35E1,1E0,2.25E0,1E0,1.75E0,3.9E1,2.5E0,1E0,2E0,1.55E1,2.75E0,3.25E0,2.5E0,4.25E0,2.25E0,2.475E1,3E0,4E0,1.5E0,6.75E0,1.75E0,7.75E0,3E0,5E0,1.6175E2,4.75E0,7E0,1.5E0,1.2E1],"tree_param":{"num_deleted":"0","num_feature":"312","num_nodes":"75","size_leaf_vector":"1"}},{"base_weights":[-1.0499634E-2,-1.0782272E0,1.6502383E-1,-1.0660261E-1,-1.3261973E0,5.160137E-1,-6.388691E-1,-3.976119E-1,5.763194E-1,1.7863116E-1,-1.3984106E0,7.509996E-1,-9.3103456E-1,-1.4606884E0,-6.775966E-2,1.1516026E0,-2.6098377E-1,-1.5389405E0,-5.6494355E-1,-6.374096E-1,9.091766E-1,-1.376714E0,-1.9548899E-1,7.8963086E-2,-1.5213994E0,-1.1042506E0,3.9310506E-1,2.6423493E-2,4.157624E-1,-4.434741E-2,-1.6068335E0,-3.6081195E-1,2.4604745E-1,2.4841055E-1,-1.2017778E0,-4.99236E-1,1.0863599E0,7.414158E-2,-1.4967322E0,6.5007895E-1,-1.2231288E0,-1.5671668E0,-1.5128342E-2,-1.4231199E0,2.5905767E-1,-3.7951872E-1,6.045305E-1,-4.900317E-1,-1.4495876E-1,-2.944877E-1,3.309217E-1,1.0919193E-1,-4.4391674E-1,1.529715E-1,-4.0869525E-1,3.7596127E-1,6.061055E-2,-1.025211E-1,-4.7270814E-1,3.995572E-1,-3.4323457E-1,-3.7429966E-2,-4.3611768E-1,-1.4316908E-1,-4.7677922E-1,-4.577729E-1,-7.072306E-2,2.644714E-1,-1.5322742E-1],"categories":[],"categories_nodes":[],"categories_segments":[],"categories_sizes":[],"default_left":[0,0,0,0,0,0,0,0,0,0,0,0,0,0,0,0,0,0,0,0,0,0,0,0,0,0,0,0,0,0,0,0,0,0,0,0,0,0,0,0,0,0,0,0,0,0,0,0,0,0,0,0,0,0,0,0,0,0,0,0,0,0,0,0,0,0,0,0,0],"id":1,"left_children":[1,3,5,7,9,11,13,-1,15,-1,17,19,21,23,25,27,-1,29,31,33,35,37,39,-1,41,43,45,-1,-1,-1,47,-1,-1,49,51,53,55,-1,57,59,61,63,-1,65,-1,-1,67,-1,-1,-1,-1,-1,-1,-1,-1,-1,-1,-1,-1,-1,-1,-1,-1,-1,-1,-1,-1,-1,-1],"loss_changes":[6.901034E1,1.2383751E1,8.957474E1,1.046645E1,6.5677185E0,7.575194E1,4.52281E1,0E0,7.7976413E0,0E0,3.8309402E0,4.2402466E1,9.985598E0,4.5394745E0,2.815252E1,1.4410925E0,0E0,2.9510117E0,7.4969025E0,1.0329552E1,4.330803E1,4.1339645E0,1.2063718E1,0E0,2.5027618E0,1.2600046E1,1.5105036E1,0E0,0E0,0E0,1.6999054E-1,0E0,0E0,1.0162934E1,5.9469547E0,1.797065E1,2.225296E1,0E0,1.1146278E0,1.1025099E1,1.3891821E0,1.3651276E-1,0E0,1.5897675E0,0E0,0E0,1.186878E1,0E0,0E0,0E0,0E0,0E0,0E0,0E0,0E0,0E0,0E0,0E0,0E0,0E0,0E0,0E0,0E0,0E0,0E0,0E0,0E0,0E0,0E0],"parents":[2147483647,0,0,1,1,2,2,3,3,4,4,5,5,6,6,8,8,10,10,11,11,12,12,13,13,14,14,15,15,17,17,18,18,19,19,20,20,21,21,22,22,24,24,25,25,26,26,30,30,33,33,34,34,35,35,36,36,38,38,39,39,40,40,41,41,43,43,46,46],"right_children":[2,4,6,8,10,12,14,-1,16,-1,18,20,22,24,26,28,-1,30,32,34,36,38,40,-1,42,44,46,-1,-1,-1,48,-1,-1,50,52,54,56,-1,58,60,62,64,-1,66,-1,-1,68,-1,-1,-1,-1,-1,-1,-1,-1,-1,-1,-1,-1,-1,-1,-1,-1,-1,-1,-1,-1,-1,-1],"split_conditions":[-1.686891E-2,-1.7496139E-3,8.107642E-3,-3.4210652E-3,-5.765013E-2,3.536018E-2,-3.5963836E-3,-3.976119E-1,7.1679833E-3,1.7863116E-1,5.408228E-3,-7.890535E-3,3.3431614E-4,-1.4297919E-2,-7.779024E-3,2.1762527E-3,-2.6098377E-1,-2.75419E-2,-9.570238E-3,2.7093424E-3,-9.477824E-3,-5.289964E-3,7.283688E-2,7.8963086E-2,1.7494012E-2,4.0292526E-3,-3.4698073E-2,2.6423493E-2,4.157624E-1,-4.434741E-2,3.38536E-2,-3.6081195E-1,2.4604745E-1,-3.7050708E-3,3.484803E-3,8.943688E-3,3.3685684E-2,7.414158E-2,1.2371067E-2,5.3563644E-4,-1.766715E-3,-9.05091E-3,-1.5128342E-2,9.005793E-4,2.5905767E-1,-3.7951872E-1,7.27614E-3,-4.900317E-1,-1.4495876E-1,-2.944877E-1,3.309217E-1,1.0919193E-1,-4.4391674E-1,1.529715E-1,-4.0869525E-1,3.7596127E-1,6.061055E-2,-1.025211E-1,-4.7270814E-1,3.995572E-1,-3.4323457E-1,-3.7429966E-2,-4.3611768E-1,-1.4316908E-1,-4.7677922E-1,-4.577729E-1,-7.072306E-2,2.644714E-1,-1.5322742E-1],"split_indices":[78,31,280,126,251,262,9,0,53,0,236,5,132,108,203,2,0,205,126,226,101,9,301,0,16,205,256,0,0,0,109,0,0,15,291,139,301,0,193,163,33,132,0,177,0,0,101,0,0,0,0,0,0,0,0,0,0,0,0,0,0,0,0,0,0,0,0,0,0],"split_type":[0,0,0,0,0,0,0,0,0,0,0,0,0,0,0,0,0,0,0,0,0,0,0,0,0,0,0,0,0,0,0,0,0,0,0,0,0,0,0,0,0,0,0,0,0,0,0,0,0,0,0,0,0,0,0,0,0,0,0,0,0,0,0,0,0,0,0,0,0],"sum_hessian":[3.6628006E2,5.0985718E1,3.1529434E2,1.0657239E1,4.032848E1,2.1971992E2,9.557441E1,3.4893196E0,7.167919E0,1.1982001E0,3.913028E1,1.8943811E2,3.0281815E1,3.8547466E1,5.7026943E1,5.2738657E0,1.8940538E0,3.2760185E1,6.370092E0,1.9064898E1,1.7037321E2,1.8313602E1,1.196821E1,1.1978855E0,3.734958E1,1.7122398E1,3.9904545E1,1.2003957E0,4.07347E0,1.6722995E0,3.1087887E1,4.4519143E0,1.9181775E0,7.6373386E0,1.1427559E1,1.8835331E1,1.5153789E2,1.1875002E0,1.7126102E1,6.7673063E0,5.2009044E0,3.6159138E1,1.1904408E0,1.4972896E1,2.149503E0,3.9490957E0,3.595545E1,2.9925602E1,1.1622851E0,3.07017E0,4.5671687E0,1.6760896E0,9.751469E0,8.871597E0,9.963735E0,1.2713446E2,2.4403427E1,1.4368414E0,1.5689261E1,5.0906053E0,1.6767012E0,1.1698444E0,4.0310597E0,1.1675401E0,3.49916E1,1.3517584E1,1.4553117E0,2.8969023E1,6.9864283E0],"tree_param":{"num_deleted":"0","num_feature":"312","num_nodes":"69","size_leaf_vector":"1"}},{"base_weights":[-2.0196818E-2,1.2549902E-1,-1.0404431E0,-7.053381E-1,3.7712914E-1,-9.023481E-2,-1.3571652E0,2.8989378E-2,-1.2942826E0,4.8924235E-1,-1.1259226E0,3.6302835E-1,-5.518072E-1,-1.4112506E0,-1.6750567E-2,3.9767382E-1,-4.034692E-1,2.551473E-1,-1.3939996E0,-5.44789E-1,6.5816367E-1,-1.2281108E-1,-1.32326E0,-1.172285E0,3.534273E-1,-4.348538E-1,-5.6476522E-2,-9.5057917E-1,7.343899E-1,-1.1170152E-1,-1.4409709E0,9.159846E-2,-1.1834769E0,7.588164E-1,-9.540395E-1,-2.5865713E-1,2.5236475E-1,-6.81617E-2,-4.224984E-1,-2.345578E-2,-4.2152083E-1,-3.0730245E-1,3.3048964E-1,5.5629836E-4,-3.590351E-1,3.0342722E-1,-3.0104202E-1,-4.3800333E-1,-1.21594004E-1,2.1386248E-1,-2.520846E-1,-3.9827988E-1,1.0737282E-2,2.4981432E-1,-2.8010622E-1,-4.0462726E-1,1.7020516E-1],"categories":[],"categories_nodes":[],"categories_segments":[],"categories_sizes":[],"default_left":[0,0,0,0,0,0,0,0,0,0,0,0,0,0,0,0,0,0,0,0,0,0,0,0,0,0,0,0,0,0,0,0,0,0,0,0,0,0,0,0,0,0,0,0,0,0,0,0,0,0,0,0,0,0,0,0,0],"id":2,"left_children":[1,3,5,7,9,11,13,15,17,19,21,-1,23,25,-1,27,-1,-1,29,31,33,35,37,39,41,-1,-1,43,45,-1,47,49,51,53,55,-1,-1,-1,-1,-1,-1,-1,-1,-1,-1,-1,-1,-1,-1,-1,-1,-1,-1,-1,-1,-1,-1],"loss_changes":[5.0195976E1,6.2068367E1,1.2576328E1,2.9907494E1,3.889542E1,7.641853E0,2.1435928E0,1.660073E1,9.387405E0,3.746726E1,3.024044E0,0E0,5.6168423E0,1.1437912E0,0E0,1.2401063E1,0E0,0E0,1.240242E0,1.24564E1,3.0431282E1,3.3971794E0,9.246807E-1,1.3488111E0,5.8035946E0,0E0,0E0,1.3124118E0,1.1217456E1,0E0,9.9357605E-2,9.946545E0,2.7245636E0,2.2398758E1,7.4915276E0,0E0,0E0,0E0,0E0,0E0,0E0,0E0,0E0,0E0,0E0,0E0,0E0,0E0,0E0,0E0,0E0,0E0,0E0,0E0,0E0,0E0,0E0],"parents":[2147483647,0,0,1,1,2,2,3,3,4,4,5,5,6,6,7,7,8,8,9,9,10,10,12,12,13,13,15,15,18,18,19,19,20,20,21,21,22,22,23,23,24,24,27,27,28,28,30,30,31,31,32,32,33,33,34,34],"right_children":[2,4,6,8,10,12,14,16,18,20,22,-1,24,26,-1,28,-1,-1,30,32,34,36,38,40,42,-1,-1,44,46,-1,48,50,52,54,56,-1,-1,-1,-1,-1,-1,-1,-1,-1,-1,-1,-1,-1,-1,-1,-1,-1,-1,-1,-1,-1,-1],"split_conditions":[2.2868983E-2,-1.3542137E-2,4.1599796E-4,3.634369E-3,1.6615802E-2,4.194794E-4,9.329569E-3,5.4961345E-3,-9.694918E-2,-8.515335E-3,-1.9618243E-2,3.6302835E-1,1.9114992E-2,7.5749094E-3,-1.6750567E-2,-2.3203399E-2,-4.034692E-1,2.551473E-1,-4.7306668E-2,8.167452E-3,4.718121E-2,-4.07911E-3,-7.3850458E-3,-9.0703974E-4,4.18126E-3,-4.348538E-1,-5.6476522E-2,-4.6809423E-3,1.3764609E-2,-1.1170152E-1,1.3707131E-2,1.717714E-2,4.6892144E-2,1.2420057E-2,9.420831E-3,-2.5865713E-1,2.5236475E-1,-6.81617E-2,-4.224984E-1,-2.345578E-2,-4.2152083E-1,-3.0730245E-1,3.3048964E-1,5.5629836E-4,-3.590351E-1,3.0342722E-1,-3.0104202E-1,-4.3800333E-1,-1.21594004E-1,2.1386248E-1,-2.520846E-1,-3.9827988E-1,1.0737282E-2,2.4981432E-1,-2.8010622E-1,-4.0462726E-1,1.7020516E-1],"split_indices":[256,208,9,126,58,14,27,83,269,203,232,0,214,159,0,137,0,0,212,5,181,33,239,128,14,0,0,42,81,0,162,214,215,13,194,0,0,0,0,0,0,0,0,0,0,0,0,0,0,0,0,0,0,0,0,0,0],"split_type":[0,0,0,0,0,0,0,0,0,0,0,0,0,0,0,0,0,0,0,0,0,0,0,0,0,0,0,0,0,0,0,0,0,0,0,0,0,0,0,0,0,0,0,0,0,0,0,0,0,0,0,0,0,0,0,0,0],"sum_hessian":[3.358105E2,2.9461508E2,4.1195396E1,6.806702E1,2.2654807E2,1.0619724E1,3.057567E1,3.0717533E1,3.7349487E1,2.114504E2,1.5097668E1,2.357254E0,8.26247E0,2.9274506E1,1.3011651E0,2.4778685E1,5.9388475E0,1.3248453E0,3.602464E1,2.9379883E1,1.8207051E2,2.7485414E0,1.2349127E1,4.7272496E0,3.5352209E0,2.8206827E1,1.0676789E0,4.5873356E0,2.0191349E1,1.9758292E0,3.404881E1,1.5145508E1,1.4234374E1,1.718697E2,1.0200807E1,1.6152954E0,1.133246E0,1.1538084E0,1.1195318E1,1.0636954E0,3.6635544E0,1.1142814E0,2.4209394E0,1.1461112E0,3.4412243E0,1.7775717E1,2.4156337E0,3.3031796E1,1.017016E0,9.228179E0,5.91733E0,1.2650215E1,1.5841583E0,1.6516623E2,6.7034764E0,8.189537E0,2.0112696E0],"tree_param":{"num_deleted":"0","num_feature":"312","num_nodes":"57","size_leaf_vector":"1"}},{"base_weights":[-3.1216666E-2,-6.622088E-1,1.2712759E-1,5.6762714E-2,-1.0209812E0,3.808439E-1,-6.249651E-1,6.719214E-1,-5.2978766E-1,-1.1049722E0,1.4495672E-1,5.1660013E-1,-6.601888E-1,-9.7048163E-1,6.6479325E-2,-1.6749446E-1,1.0023775E0,-9.4003123E-1,7.0522344E-1,-1.1793973E0,-2.793709E-1,7.00585E-1,-5.1326454E-1,1.03454925E-1,-1.1802061E0,-1.825688E-1,-1.1320547E0,-1.0043008E0,3.9886543E-1,-2.3855286E-2,3.638268E-1,-1.1630954E0,1.06487244E-1,2.605219E-1,4.6555903E-2,-2.1110119E-1,-1.2322361E0,-2.9211417E-1,2.0045634E-1,-4.038508E-1,7.7851236E-1,2.0912917E-1,-1.0466844E0,7.953334E-1,-3.165325E-1,4.9747203E-2,-1.3141396E0,3.0921128E-1,-9.102684E-1,-3.411421E-1,-1.2717011E0,-3.7874022E-1,1.5826058E-2,-2.5775483E-1,6.592296E-1,-1.1004459E-1,-4.198992E-1,1.11801475E-1,-2.0359378E-1,-1.992173E-1,-3.9841506E-1,2.8568876E-1,5.520998E-2,-2.938671E-1,1.9209191E-1,-4.5785493E-1,-7.059901E-2,3.4430757E-1,-1.587103E-1,-3.0440431E-2,-4.3264052E-1,-3.2393548E-1,-2.4898464E-2,-3.381289E-1,2.9765597E-1,-4.1051963E-1,-2.0986512E-1,-1.8769516E-1,2.7494454E-1],"categories":[],"categories_nodes":[],"categories_segments":[],"categories_sizes":[],"default_left":[0,0,0,0,0,0,0,0,0,0,0,0,0,0,0,0,0,0,0,0,0,0,0,0,0,0,0,0,0,0,0,0,0,0,0,0,0,0,0,0,0,0,0,0,0,0,0,0,0,0,0,0,0,0,0,0,0,0,0,0,0,0,0,0,0,0,0,0,0,0,0,0,0,0,0,0,0,0,0],"id":3,"left_children":[1,3,5,7,9,11,13,15,17,19,-1,21,23,25,27,-1,29,31,33,35,37,39,41,43,45,47,49,51,53,-1,-1,55,-1,-1,-1,57,59,-1,-1,-1,61,63,65,67,-1,-1,69,-1,71,73,75,-1,-1,-1,77,-1,-1,-1,-1,-1,-1,-1,-1,-1,-1,-1,-1,-1,-1,-1,-1,-1,-1,-1,-1,-1,-1,-1,-1],"loss_changes":[3.0616268E1,1.5912018E1,4.701161E1,8.080334E0,5.7206383E0,2.633251E1,1.4927E1,4.986808E0,6.4984903E0,2.0784225E0,0E0,3.1293121E1,8.721548E0,5.0823746E0,8.111272E0,0E0,2.1316652E0,3.034155E0,1.7429614E-1,1.563179E0,3.6448178E0,2.3207619E1,9.976448E0,8.608149E0,2.5548973E0,8.232853E0,3.3527756E0,1.5446672E0,6.216107E0,0E0,0E0,9.8885155E-1,0E0,0E0,0E0,1.0855875E0,9.465103E-1,0E0,0E0,0E0,1.3717064E1,6.5671067E0,5.3725185E0,3.7049842E0,0E0,0E0,1.7010651E0,0E0,7.0911026E-1,7.9419284E0,6.3459015E-1,0E0,0E0,0E0,5.4840693E0,0E0,0E0,0E0,0E0,0E0,0E0,0E0,0E0,0E0,0E0,0E0,0E0,0E0,0E0,0E0,0E0,0E0,0E0,0E0,0E0,0E0,0E0,0E0,0E0],"parents":[2147483647,0,0,1,1,2,2,3,3,4,4,5,5,6,6,7,7,8,8,9,9,11,11,12,12,13,13,14,14,16,16,17,17,18,18,19,19,20,20,21,21,22,22,23,23,24,24,25,25,26,26,27,27,28,28,31,31,35,35,36,36,40,40,41,41,42,42,43,43,46,46,48,48,49,49,50,50,54,54],"right_children":[2,4,6,8,10,12,14,16,18,20,-1,22,24,26,28,-1,30,32,34,36,38,40,42,44,46,48,50,52,54,-1,-1,56,-1,-1,-1,58,60,-1,-1,-1,62,64,66,68,-1,-1,70,-1,72,74,76,-1,-1,-1,78,-1,-1,-1,-1,-1,-1,-1,-1,-1,-1,-1,-1,-1,-1,-1,-1,-1,-1,-1,-1,-1,-1,-1,-1],"split_conditions":[-1.2602688E-2,2.250739E-3,1.2602688E-2,4.93245E-3,1.1449435E-2,6.983928E-3,-2.250739E-3,-1.3922396E-2,2.3139404E-2,9.13871E-3,1.4495672E-1,6.674091E-3,-3.7345565E-3,-5.9279795E-3,-2.4768172E-2,-1.6749446E-1,-1.63664E-2,3.797125E-3,-1.4015603E-3,-4.9232394E-3,-1.411636E-3,-6.959925E-2,-3.7412033E-3,1.4130919E-2,-1.763162E-2,9.570238E-3,1.0557809E-2,2.6537143E-2,-7.680743E-2,-2.3855286E-2,3.638268E-1,-1.4155286E-3,1.06487244E-1,2.605219E-1,4.6555903E-2,-4.5491527E-3,-6.6022277E-3,-2.9211417E-1,2.0045634E-1,-4.038508E-1,9.635714E-3,-7.7059404E-3,1.0877912E-3,1.3289201E-2,-3.165325E-1,4.9747203E-2,-1.0507327E-3,3.0921128E-1,4.3174797E-3,-4.9342336E-3,8.220303E-3,-3.7874022E-1,1.5826058E-2,-2.5775483E-1,-5.98063E-2,-1.1004459E-1,-4.198992E-1,1.11801475E-1,-2.0359378E-1,-1.992173E-1,-3.9841506E-1,2.8568876E-1,5.520998E-2,-2.938671E-1,1.9209191E-1,-4.5785493E-1,-7.059901E-2,3.4430757E-1,-1.587103E-1,-3.0440431E-2,-4.3264052E-1,-3.2393548E-1,-2.4898464E-2,-3.381289E-1,2.9765597E-1,-4.1051963E-1,-2.0986512E-1,-1.8769516E-1,2.7494454E-1],"split_indices":[78,156,78,208,218,53,156,256,172,243,0,5,205,236,69,0,260,125,59,115,208,301,247,173,80,126,297,211,130,0,0,207,0,0,0,12,207,0,0,0,208,226,100,61,0,0,118,0,150,226,238,0,0,0,300,0,0,0,0,0,0,0,0,0,0,0,0,0,0,0,0,0,0,0,0,0,0,0,0],"split_type":[0,0,0,0,0,0,0,0,0,0,0,0,0,0,0,0,0,0,0,0,0,0,0,0,0,0,0,0,0,0,0,0,0,0,0,0,0,0,0,0,0,0,0,0,0,0,0,0,0,0,0,0,0,0,0,0,0,0,0,0,0,0,0,0,0,0,0,0,0,0,0,0,0,0,0,0,0,0,0],"sum_hessian":[3.045837E2,6.0462456E1,2.4412126E2,2.0407696E1,4.005476E1,1.8291052E2,6.1210728E1,9.889891E0,1.0517806E1,3.8187794E1,1.8669652E0,1.6225533E2,2.0655197E1,4.0546154E1,2.0664576E1,1.948056E0,7.9418344E0,8.074487E0,2.443319E0,3.4636868E1,3.550927E0,1.3793333E2,2.4321997E1,8.692032E0,1.1963166E1,7.2621465E0,3.3284004E1,4.416229E0,1.6248348E1,1.3941722E0,6.547662E0,6.974897E0,1.0995896E0,1.437911E0,1.005408E0,2.0507653E0,3.25861E1,2.0333476E0,1.5175794E0,4.4620976E0,1.3347124E2,1.0589252E1,1.3732744E1,5.638383E0,3.053649E0,1.0610925E0,1.0902073E1,2.5665774E0,4.695569E0,5.511508E0,2.7772497E1,3.3931797E0,1.0230491E0,2.391754E0,1.3856593E1,2.1817572E0,4.7931395E0,1.0022639E0,1.0485014E0,5.8465667E0,2.6739534E1,1.02813866E2,3.0657368E1,2.4801254E0,8.109127E0,8.077832E0,5.6549125E0,4.5588646E0,1.0795182E0,1.2119932E0,9.690081E0,3.6437051E0,1.0518639E0,3.5648303E0,1.9466779E0,2.2566864E1,5.2056336E0,2.0726113E0,1.1783982E1],"tree_param":{"num_deleted":"0","num_feature":"312","num_nodes":"79","size_leaf_vector":"1"}},{"base_weights":[-3.8439967E-2,-8.5855424E-1,6.606264E-2,-2.628193E-1,-1.1059439E0,-5.15099E-1,3.181986E-1,2.3959835E-1,-9.680644E-1,-3.4220952E-1,-8.734743E-2,-8.366125E-2,-1.1689222E0,-3.702178E-1,4.077514E-1,-1.5038821E-1,6.1684847E-1,-5.447462E-2,-3.4197697E-1,3.2595164E-1,-7.0145184E-1,-2.5420988E-2,-1.2344344E0,-4.0678045E-1,6.057706E-1,-5.8002304E-2,2.9564837E-1,5.0411594E-1,-3.1403702E-1,-3.8137135E-1,8.132094E-3,-3.9030722E-1,-3.044824E-1,-1.1337519E0,9.740319E-2,7.3288524E-1,-2.846486E-1,-1.2575842E-1,2.3562662E-1,-2.6811737E-1,1.5242322E-1,9.7625226E-2,-2.2837602E-1,-3.919406E-1,1.1385077E-1,1.1714088E-1,-3.395671E-1,2.707833E-1,1.8096432E-2,1.8698281E-1,-2.4462308E-1],"categories":[],"categories_nodes":[],"categories_segments":[],"categories_sizes":[],"default_left":[0,0,0,0,0,0,0,0,0,0,0,0,0,0,0,0,0,0,0,0,0,0,0,0,0,0,0,0,0,0,0,0,0,0,0,0,0,0,0,0,0,0,0,0,0,0,0,0,0,0,0],"id":4,"left_children":[1,3,5,7,9,11,13,15,17,-1,-1,19,21,-1,23,-1,25,-1,-1,27,29,-1,31,33,35,-1,-1,37,-1,-1,39,-1,41,43,45,47,49,-1,-1,-1,-1,-1,-1,-1,-1,-1,-1,-1,-1,-1,-1],"loss_changes":[2.3668362E1,4.308935E0,3.610705E1,3.941467E0,2.8350258E-1,2.0946108E1,2.4369802E1,2.2420733E0,4.085245E-1,0E0,0E0,1.1874563E1,1.9963989E0,0E0,2.654971E1,0E0,1.6930127E0,0E0,0E0,7.4628153E0,7.5569563E0,0E0,1.3266792E0,1.2019081E1,1.5102364E1,0E0,0E0,7.023453E0,0E0,0E0,4.650205E0,0E0,1.1582311E0,3.9940815E0,7.6853952E0,1.3121883E1,8.7768545E0,0E0,0E0,0E0,0E0,0E0,0E0,0E0,0E0,0E0,0E0,0E0,0E0,0E0,0E0],"parents":[2147483647,0,0,1,1,2,2,3,3,4,4,5,5,6,6,7,7,8,8,11,11,12,12,14,14,16,16,19,19,20,20,22,22,23,23,24,24,27,27,30,30,32,32,33,33,34,34,35,35,36,36],"right_children":[2,4,6,8,10,12,14,16,18,-1,-1,20,22,-1,24,-1,26,-1,-1,28,30,-1,32,34,36,-1,-1,38,-1,-1,40,-1,42,44,46,48,50,-1,-1,-1,-1,-1,-1,-1,-1,-1,-1,-1,-1,-1,-1],"split_conditions":[-2.2868983E-2,1.1315354E-3,-7.825487E-3,3.8402784E-3,2.1696237E-3,3.3464346E-3,-1.89602E-2,-1.6955185E-3,-2.5567238E-3,-3.4220952E-1,-8.734743E-2,1.1759E-2,-1.2029675E-2,-3.702178E-1,-3.6554277E-2,-1.5038821E-1,-3.974103E-3,-5.447462E-2,-3.4197697E-1,6.09628E-3,-3.9861593E-3,-2.5420988E-2,7.038024E-3,-5.143662E-2,9.344415E-3,-5.8002304E-2,2.9564837E-1,-2.7738096E-2,-3.1403702E-1,-3.8137135E-1,-2.5521092E-2,-3.9030722E-1,1.8376712E-2,1.8235324E-2,1.2765195E-2,5.139781E-3,-4.337708E-4,-1.2575842E-1,2.3562662E-1,-2.6811737E-1,1.5242322E-1,9.7625226E-2,-2.2837602E-1,-3.919406E-1,1.1385077E-1,1.1714088E-1,-3.395671E-1,2.707833E-1,1.8096432E-2,1.8698281E-1,-2.4462308E-1],"split_indices":[256,126,280,143,9,9,58,11,4,0,0,304,268,0,301,0,285,0,0,50,8,0,154,311,101,0,0,209,0,0,149,0,43,18,160,90,238,0,0,0,0,0,0,0,0,0,0,0,0,0,0],"split_type":[0,0,0,0,0,0,0,0,0,0,0,0,0,0,0,0,0,0,0,0,0,0,0,0,0,0,0,0,0,0,0,0,0,0,0,0,0,0,0,0,0,0,0,0,0,0,0,0,0,0,0],"sum_hessian":[2.7450198E2,3.0209396E1,2.4429257E2,9.469182E0,2.0740213E1,7.360153E1,1.7069104E2,5.9153447E0,3.5538378E0,1.9508106E1,1.232108E0,4.502132E1,2.8580215E1,8.61327E0,1.6207777E2,1.8848408E0,4.0305037E0,1.0061126E0,2.5477252E0,2.7355938E1,1.766538E1,1.7592442E0,2.6820972E1,3.1490507E1,1.3058727E2,1.4091314E0,2.6213722E0,2.4773432E1,2.582507E0,9.358839E0,8.306542E0,2.4656416E1,2.164557E0,1.2384655E1,1.9105852E1,1.14428566E2,1.6158693E1,5.6707067E0,1.9102724E1,2.681575E0,5.624967E0,1.0307264E0,1.1338304E0,1.1238578E1,1.1460766E0,1.5978826E1,3.127026E0,9.109749E1,2.3331083E1,5.8969774E0,1.0261716E1],"tree_param":{"num_deleted":"0","num_feature":"312","num_nodes":"51","size_leaf_vector":"1"}},{"base_weights":[-4.43307E-2,4.9602248E-2,-7.732429E-1,-4.8575723E-1,2.5535095E-1,1.7175633E-2,-1.0253718E0,-1.025192E0,-4.7448114E-2,-5.857218E-1,3.7329152E-1,5.5443937E-1,-5.5572116E-1,-1.1093999E0,6.433186E-2,1.1288692E-1,-1.138086E0,-8.358349E-1,2.2983095E-1,1.97255E-1,-9.3479294E-1,-6.2342197E-1,4.7221565E-1,-7.114152E-2,2.8469384E-1,-2.9633793E-1,8.2846254E-2,-3.4460714E-1,-7.565567E-2,-2.4279298E-2,-1.1782023E0,-3.4755987E-1,1.8626237E-2,-9.222296E-1,5.1813173E-1,-5.634473E-1,3.0119058E-1,-1.2190015E0,4.1911757E-1,-1.1807588E0,5.2554256E-1,-2.9049733E-1,6.22722E-1,-3.707529E-1,-7.081174E-2,-2.4181193E-1,2.0585915E-1,6.0382433E-2,-3.7039277E-1,2.4272028E-1,-1.362911E-1,-2.874104E-1,1.0613871E-1,-9.666124E-3,-3.986768E-1,2.1809767E-1,-3.2464903E-2,-4.9174705E-1,-1.2867321E-1,-1.6546597E-1,2.9709774E-1,-3.0709323E-1,2.7844194E-2,-1.7978112E-1,2.1490517E-1],"categories":[],"categories_nodes":[],"categories_segments":[],"categories_sizes":[],"default_left":[0,0,0,0,0,0,0,0,0,0,0,0,0,0,0,0,0,0,0,0,0,0,0,0,0,0,0,0,0,0,0,0,0,0,0,0,0,0,0,0,0,0,0,0,0,0,0,0,0,0,0,0,0,0,0,0,0,0,0,0,0,0,0,0,0],"id":5,"left_children":[1,3,5,7,9,11,13,15,17,19,21,23,25,27,-1,-1,29,31,33,35,37,39,41,-1,-1,-1,-1,-1,-1,-1,43,-1,45,47,49,51,-1,53,55,57,59,61,63,-1,-1,-1,-1,-1,-1,-1,-1,-1,-1,-1,-1,-1,-1,-1,-1,-1,-1,-1,-1,-1,-1],"loss_changes":[1.7000685E1,2.4400627E1,5.665636E0,1.4499876E1,1.6076708E1,2.7204752E0,2.4781246E0,4.7848473E0,7.8424344E0,5.664248E0,1.417864E1,1.644521E0,1.8156003E0,3.940506E-1,0E0,0E0,9.9588394E-1,2.5918245E0,9.337648E0,4.866354E0,5.9139757E0,9.038128E0,1.4951366E1,0E0,0E0,0E0,0E0,0E0,0E0,0E0,1.0505753E0,0E0,2.5016825E0,2.2488155E0,6.584928E0,1.8762391E0,0E0,1.5044994E0,5.950033E-1,2.4537115E0,3.0421069E0,6.24601E0,1.2761028E1,0E0,0E0,0E0,0E0,0E0,0E0,0E0,0E0,0E0,0E0,0E0,0E0,0E0,0E0,0E0,0E0,0E0,0E0,0E0,0E0,0E0,0E0],"parents":[2147483647,0,0,1,1,2,2,3,3,4,4,5,5,6,6,7,7,8,8,9,9,10,10,11,11,12,12,13,13,16,16,17,17,18,18,19,19,20,20,21,21,22,22,30,30,32,32,33,33,34,34,35,35,37,37,38,38,39,39,40,40,41,41,42,42],"right_children":[2,4,6,8,10,12,14,16,18,20,22,24,26,28,-1,-1,30,32,34,36,38,40,42,-1,-1,-1,-1,-1,-1,-1,44,-1,46,48,50,52,-1,54,56,58,60,62,64,-1,-1,-1,-1,-1,-1,-1,-1,-1,-1,-1,-1,-1,-1,-1,-1,-1,-1,-1,-1,-1,-1],"split_conditions":[2.2868983E-2,-1.0270505E-2,-2.2727196E-4,-7.4877213E-3,-7.646002E-3,9.472235E-3,2.9208295E-3,-9.694918E-2,-3.959814E-3,3.6672647E-3,-1.0367963E-2,-2.9316018E-3,-2.0783034E-3,9.3322415E-3,6.433186E-2,1.1288692E-1,-1.6435731E-2,4.199681E-3,-9.536296E-3,-7.065635E-4,1.0174311E-2,3.1946197E-3,-3.4419216E-2,-7.114152E-2,2.8469384E-1,-2.9633793E-1,8.2846254E-2,-3.4460714E-1,-7.565567E-2,-2.4279298E-2,2.6451603E-2,-3.4755987E-1,-6.167792E-3,-1.621759E-2,7.252212E-3,-7.984303E-3,3.0119058E-1,-4.9655503E-3,-9.909602E-3,-8.530352E-3,-1.5492495E-2,-9.442169E-3,-4.2451844E-2,-3.707529E-1,-7.081174E-2,-2.4181193E-1,2.0585915E-1,6.0382433E-2,-3.7039277E-1,2.4272028E-1,-1.362911E-1,-2.874104E-1,1.0613871E-1,-9.666124E-3,-3.986768E-1,2.1809767E-1,-3.2464903E-2,-4.9174705E-1,-1.2867321E-1,-1.6546597E-1,2.9709774E-1,-3.0709323E-1,2.7844194E-2,-1.7978112E-1,2.1490517E-1],"split_indices":[256,208,9,153,5,20,126,269,90,58,37,93,9,243,0,0,125,207,101,91,247,62,300,0,0,0,0,0,0,0,265,0,19,308,77,79,0,61,225,19,289,119,297,0,0,0,0,0,0,0,0,0,0,0,0,0,0,0,0,0,0,0,0,0,0],"split_type":[0,0,0,0,0,0,0,0,0,0,0,0,0,0,0,0,0,0,0,0,0,0,0,0,0,0,0,0,0,0,0,0,0,0,0,0,0,0,0,0,0,0,0,0,0,0,0,0,0,0,0,0,0,0,0,0,0,0,0,0,0,0,0,0,0],"sum_hessian":[2.4673782E2,2.193967E2,2.7341112E1,6.0531754E1,1.5886496E2,6.8375177E0,2.0503593E1,2.6535309E1,3.3996445E1,1.9049625E1,1.3981532E2,3.5451174E0,3.2924001E0,1.9300676E1,1.202917E0,1.804227E0,2.4731081E1,8.321507E0,2.5674936E1,6.008129E0,1.3041496E1,1.2145083E1,1.2767024E2,1.3119206E0,2.2331967E0,2.0435574E0,1.2488427E0,1.8129675E1,1.1710021E0,1.0144879E0,2.3716593E1,5.7819996E0,2.5395079E0,4.6989427E0,2.0975994E1,3.2474508E0,2.7606783E0,1.0861193E1,2.1803036E0,8.159447E0,3.9856365E0,2.0887861E1,1.0678239E2,2.2055548E1,1.6610452E0,1.043288E0,1.4962199E0,1.099749E0,3.5991938E0,1.6274843E1,4.701152E0,2.23955E0,1.0079007E0,1.0303178E0,9.830875E0,1.137548E0,1.0427557E0,4.3357763E0,3.8236704E0,1.1451528E0,2.8404837E0,6.597848E0,1.4290012E1,7.2150216E0,9.956736E1],"tree_param":{"num_deleted":"0","num_feature":"312","num_nodes":"65","size_leaf_vector":"1"}},{"base_weights":[-4.8142202E-2,4.230313E-2,-7.5291747E-1,2.2729294E-1,-4.257642E-1,-1.0552628E0,-4.0090653E-1,3.343272E-1,-7.958572E-1,1.2984862E-2,-8.9297193E-1,2.4205567E-3,-3.488518E-1,-9.3313706E-1,4.392863E-1,-4.5385486E-1,4.5566347E-1,-1.0066015E0,1.6714215E-1,4.3848237E-1,-5.61852E-1,1.4446892E-1,-9.861303E-1,-3.0436546E-1,-3.5198683E-1,-1.2775724E-1,7.210712E-1,-4.0775207E-1,-9.906941E-2,-2.5256246E-1,5.6529576E-1,-1.2638319E0,-2.542863E-1,-5.211965E-1,6.4930755E-1,-9.7716475E-1,5.073742E-1,-2.852748E-1,-1.0986884E0,1.0667599E-1,-2.1349292E-1,8.405138E-3,2.7199116E-1,2.212045E-1,-1.8805765E-1,-2.5304726E-1,1.4244258E-1,1.7040085E-2,2.3247533E-1,-9.6898094E-2,-4.025546E-1,1.215084E-1,-2.169339E-1,-2.637005E-1,6.591193E-2,-1.7783497E-1,2.4508366E-1,-9.858445E-2,-3.550204E-1,2.793823E-1,-1.2605543E-1,1.8577941E-1,-2.0141716E-1,-1.1163898E-2,-3.5087043E-1],"categories":[],"categories_nodes":[],"categories_segments":[],"categories_sizes":[],"default_left":[0,0,0,0,0,0,0,0,0,0,0,0,0,0,0,0,0,0,0,0,0,0,0,0,0,0,0,0,0,0,0,0,0,0,0,0,0,0,0,0,0,0,0,0,0,0,0,0,0,0,0,0,0,0,0,0,0,0,0,0,0,0,0,0,0],"id":6,"left_children":[1,3,5,7,9,11,13,15,17,19,21,-1,-1,23,25,27,29,31,-1,33,35,-1,37,39,-1,-1,41,-1,43,45,47,49,51,53,55,57,59,61,63,-1,-1,-1,-1,-1,-1,-1,-1,-1,-1,-1,-1,-1,-1,-1,-1,-1,-1,-1,-1,-1,-1,-1,-1,-1,-1],"loss_changes":[1.4232425E1,1.7274508E1,2.2792654E0,1.5908922E1,1.1602415E1,1.50175E0,6.37728E0,1.2641054E1,4.5024357E0,7.6197877E0,3.9832191E0,0E0,0E0,9.248247E-1,1.7344269E0,5.5974636E0,8.929895E0,2.062171E0,0E0,3.9569542E0,6.3845286E0,0E0,1.7366352E0,1.2466409E0,0E0,0E0,5.903437E-1,0E0,6.5985065E0,7.21819E0,1.0434999E1,2.2182083E-1,1.6499119E0,1.1941481E0,3.6302443E0,9.343405E-1,2.108818E0,2.1434653E0,1.6147518E0,0E0,0E0,0E0,0E0,0E0,0E0,0E0,0E0,0E0,0E0,0E0,0E0,0E0,0E0,0E0,0E0,0E0,0E0,0E0,0E0,0E0,0E0,0E0,0E0,0E0,0E0],"parents":[2147483647,0,0,1,1,2,2,3,3,4,4,5,5,6,6,7,7,8,8,9,9,10,10,13,13,14,14,15,15,16,16,17,17,19,19,20,20,22,22,23,23,26,26,28,28,29,29,30,30,31,31,32,32,33,33,34,34,35,35,36,36,37,37,38,38],"right_children":[2,4,6,8,10,12,14,16,18,20,22,-1,-1,24,26,28,30,32,-1,34,36,-1,38,40,-1,-1,42,-1,44,46,48,50,52,54,56,58,60,62,64,-1,-1,-1,-1,-1,-1,-1,-1,-1,-1,-1,-1,-1,-1,-1,-1,-1,-1,-1,-1,-1,-1,-1,-1,-1,-1],"split_conditions":[3.536018E-2,8.258268E-3,-3.7239015E-2,1.2922291E-2,4.035765E-3,8.979725E-3,6.0450984E-4,-7.8101186E-3,9.43342E-3,1.3900594E-3,-2.2413634E-2,2.4205567E-3,-3.488518E-1,-4.2901426E-3,-8.189331E-3,-1.0094328E-2,-9.751088E-3,9.2218287E-4,1.6714215E-1,-1.6887529E-2,7.1307058E-3,1.4446892E-1,-1.0287367E-2,2.0862633E-2,-3.5198683E-1,-1.2775724E-1,-9.337741E-3,-4.0775207E-1,-2.7452498E-3,-2.548009E-4,-4.896807E-3,-1.2601633E-3,1.7069975E-2,-1.7788715E-3,-1.2595665E-2,3.1727143E-3,-6.4302715E-3,7.0940424E-4,-9.801205E-3,1.0667599E-1,-2.1349292E-1,8.405138E-3,2.7199116E-1,2.212045E-1,-1.8805765E-1,-2.5304726E-1,1.4244258E-1,1.7040085E-2,2.3247533E-1,-9.6898094E-2,-4.025546E-1,1.215084E-1,-2.169339E-1,-2.637005E-1,6.591193E-2,-1.7783497E-1,2.4508366E-1,-9.858445E-2,-3.550204E-1,2.793823E-1,-1.2605543E-1,1.8577941E-1,-2.0141716E-1,-1.1163898E-2,-3.5087043E-1],"split_indices":[262,280,67,134,22,166,106,37,238,0,64,0,0,162,12,187,119,101,0,304,180,0,214,294,0,0,242,0,89,238,90,115,146,23,199,105,122,126,19,0,0,0,0,0,0,0,0,0,0,0,0,0,0,0,0,0,0,0,0,0,0,0,0,0,0],"split_type":[0,0,0,0,0,0,0,0,0,0,0,0,0,0,0,0,0,0,0,0,0,0,0,0,0,0,0,0,0,0,0,0,0,0,0,0,0,0,0,0,0,0,0,0,0,0,0,0,0,0,0,0,0,0,0,0,0,0,0,0,0,0,0,0,0],"sum_hessian":[2.2177635E2,1.9738542E2,2.439092E1,1.4184125E2,5.5544174E1,1.2046372E1,1.2344548E1,1.2901764E2,1.2823614E1,2.914586E1,2.6398312E1,1.1917372E0,1.0854635E1,7.489567E0,4.8549814E0,1.6846283E1,1.1217136E2,1.1316903E1,1.506711E0,1.6884823E1,1.2261038E1,1.4109339E0,2.498738E1,2.6966164E0,4.79295E0,1.0671875E0,3.7877939E0,3.9460454E0,1.2900238E1,1.4861588E1,9.730977E1,7.926697E0,3.3902059E0,2.7760475E0,1.4108776E1,8.892919E0,3.368119E0,3.9467795E0,2.10406E1,1.0775211E0,1.6190954E0,1.0430773E0,2.7447166E0,4.8372784E0,8.06296E0,8.111791E0,6.7497964E0,2.8776194E1,6.853358E1,1.0005597E0,6.926137E0,1.4654355E0,1.9247705E0,1.7463082E0,1.0297391E0,1.3761663E0,1.273261E1,2.771332E0,6.121587E0,2.3089223E0,1.0591968E0,1.0000848E0,2.9466949E0,1.4124936E0,1.9628105E1],"tree_param":{"num_deleted":"0","num_feature":"312","num_nodes":"65","size_leaf_vector":"1"}},{"base_weights":[-4.9638942E-2,6.463189E-2,-5.5529976E-1,-4.107532E-1,2.4503426E-1,6.811086E-2,-1.0315228E0,-9.684573E-1,2.204059E-3,-4.3174177E-1,3.7319684E-1,4.9615216E-1,-1.0248457E0,-3.1456625E-1,-1.1227282E0,-1.0843682E0,1.6888717E-1,-6.880169E-1,2.8955445E-1,-6.397269E-1,5.5754876E-1,-7.296096E-1,4.6231917E-1,-1.9901745E-1,6.835053E-1,-1.00405775E-2,-4.085856E-1,1.4301185E-1,-2.3233835E-1,-5.1090354E-1,-1.1775283E0,-4.5395544E-1,-1.1915214E0,2.9634679E-2,-8.7045234E-1,-3.1755966E-1,7.615639E-1,-1.1362451E0,-1.994294E-1,2.6395205E-1,-5.5859532E-2,-3.3847842E-1,9.888724E-3,-2.81686E-1,6.0207266E-1,8.865233E-1,-9.234675E-2,-2.2762914E-1,4.052467E-3,-3.700293E-1,-1.4398782E-1,8.327046E-2,-2.3481824E-1,-6.589706E-2,-3.743993E-1,-3.107888E-1,-1.5864687E-2,-2.6057178E-1,1.6103643E-1,-9.497623E-2,2.966801E-1,-7.4864425E-2,-3.7362954E-1,1.8895124E-1,-2.1569303E-1,-2.0876749E-1,2.0566583E-1,-2.800324E-1,1.2741849E-1,2.1786775E-1,-4.058667E-2,-6.6087924E-2,3.1571382E-1],"categories":[],"categories_nodes":[],"categories_segments":[],"categories_sizes":[],"default_left":[0,0,0,0,0,0,0,0,0,0,0,0,0,0,0,0,0,0,0,0,0,0,0,0,0,0,0,0,0,0,0,0,0,0,0,0,0,0,0,0,0,0,0,0,0,0,0,0,0,0,0,0,0,0,0,0,0,0,0,0,0,0,0,0,0,0,0,0,0,0,0,0,0],"id":7,"left_children":[1,3,5,7,9,11,13,15,17,19,21,23,25,27,29,31,-1,33,35,37,39,41,43,-1,45,-1,-1,-1,-1,47,49,51,53,-1,55,57,59,61,63,-1,-1,-1,65,67,69,71,-1,-1,-1,-1,-1,-1,-1,-1,-1,-1,-1,-1,-1,-1,-1,-1,-1,-1,-1,-1,-1,-1,-1,-1,-1,-1,-1],"loss_changes":[1.1684189E1,1.4279158E1,1.1132951E1,1.056263E1,1.0610618E1,8.496988E0,1.0322685E0,4.073677E0,5.622405E0,4.398862E0,1.0345389E1,3.265438E0,1.6694126E0,1.74486E0,1.5541077E-2,7.07386E-1,0E0,1.2821968E0,5.975948E0,3.4239182E0,1.1099379E0,2.3700676E0,1.0029327E1,0E0,2.6147265E0,0E0,0E0,0E0,0E0,4.365279E-1,3.690338E-2,1.2514601E0,5.5900764E-1,0E0,8.7442636E-1,4.918687E0,3.144887E0,4.284134E-1,4.7884603E0,0E0,0E0,0E0,2.2863164E0,7.6140976E0,7.4355717E0,2.052103E0,0E0,0E0,0E0,0E0,0E0,0E0,0E0,0E0,0E0,0E0,0E0,0E0,0E0,0E0,0E0,0E0,0E0,0E0,0E0,0E0,0E0,0E0,0E0,0E0,0E0,0E0,0E0],"parents":[2147483647,0,0,1,1,2,2,3,3,4,4,5,5,6,6,7,7,8,8,9,9,10,10,11,11,12,12,13,13,14,14,15,15,17,17,18,18,19,19,20,20,21,21,22,22,24,24,29,29,30,30,31,31,32,32,34,34,35,35,36,36,37,37,38,38,42,42,43,43,44,44,45,45],"right_children":[2,4,6,8,10,12,14,16,18,20,22,24,26,28,30,32,-1,34,36,38,40,42,44,-1,46,-1,-1,-1,-1,48,50,52,54,-1,56,58,60,62,64,-1,-1,-1,66,68,70,72,-1,-1,-1,-1,-1,-1,-1,-1,-1,-1,-1,-1,-1,-1,-1,-1,-1,-1,-1,-1,-1,-1,-1,-1,-1,-1,-1],"split_conditions":[4.4640107E-3,-9.337708E-3,3.5314376E-3,-7.321618E-3,-6.7324284E-3,3.5445578E-3,-8.725372E-4,7.529726E-2,-3.959814E-3,1.0174311E-2,-4.242822E-2,-9.791708E-3,-6.1636646E-3,1.5817946E-2,-1.7844849E-4,-1.54264765E-2,1.6888717E-1,-9.339657E-3,-2.7442995E-2,-7.065635E-4,-6.362114E-3,-3.4323454E-2,-2.3676997E-2,-1.9901745E-1,1.5415369E-2,-1.00405775E-2,-4.085856E-1,1.4301185E-1,-2.3233835E-1,-1.3876971E-2,3.5445578E-3,4.8616943E-3,-1.1311662E-2,2.9634679E-2,-7.617994E-4,2.9775186E-2,-7.238416E-3,-4.0157624E-3,8.279323E-3,2.6395205E-1,-5.5859532E-2,-3.3847842E-1,3.2479584E-3,-1.2277298E-2,9.210375E-3,-1.01217665E-2,-9.234675E-2,-2.2762914E-1,4.052467E-3,-3.700293E-1,-1.4398782E-1,8.327046E-2,-2.3481824E-1,-6.589706E-2,-3.743993E-1,-3.107888E-1,-1.5864687E-2,-2.6057178E-1,1.6103643E-1,-9.497623E-2,2.966801E-1,-7.4864425E-2,-3.7362954E-1,1.8895124E-1,-2.1569303E-1,-2.0876749E-1,2.0566583E-1,-2.800324E-1,1.2741849E-1,2.1786775E-1,-4.058667E-2,-6.6087924E-2,3.1571382E-1],"split_indices":[9,208,256,153,5,305,196,173,90,247,181,203,239,150,262,288,0,128,244,91,207,130,175,0,220,0,0,0,0,116,305,98,63,0,139,304,14,105,10,0,0,0,16,131,92,28,0,0,0,0,0,0,0,0,0,0,0,0,0,0,0,0,0,0,0,0,0,0,0,0,0,0,0],"split_type":[0,0,0,0,0,0,0,0,0,0,0,0,0,0,0,0,0,0,0,0,0,0,0,0,0,0,0,0,0,0,0,0,0,0,0,0,0,0,0,0,0,0,0,0,0,0,0,0,0,0,0,0,0,0,0,0,0,0,0,0,0,0,0,0,0,0,0,0,0,0,0,0,0],"sum_hessian":[2.0058948E2,1.6432661E2,3.6262863E1,4.48538E1,1.1947281E2,1.6075645E1,2.0187216E1,1.851027E1,2.6343534E1,1.8645353E1,1.0082745E2,1.1943992E1,4.1316533E0,2.7803288E0,1.7406887E1,1.7479206E1,1.0310633E0,7.333642E0,1.9009892E1,1.5698336E1,2.9470172E0,7.0016694E0,9.382579E1,1.3079739E0,1.0636018E1,1.327364E0,2.804289E0,1.0085363E0,1.7717923E0,2.2795475E0,1.512734E1,3.3001273E0,1.4179078E1,1.4666928E0,5.866949E0,8.458066E0,1.05518265E1,6.635232E0,9.063104E0,1.9283946E0,1.0186226E0,4.2076697E0,2.7939997E0,1.4676573E1,7.9149216E1,8.915831E0,1.7201878E0,1.2444701E0,1.0350773E0,1.32938E1,1.8335402E0,1.0715815E0,2.228546E0,1.0472339E0,1.31318445E1,4.6570444E0,1.2099047E0,5.131711E0,3.326355E0,1.7693691E0,8.782456E0,1.087691E0,5.547541E0,3.4092326E0,5.653871E0,1.351902E0,1.4420977E0,7.4664564E0,7.210117E0,6.775592E1,1.1393292E1,1.119147E0,7.7966833E0],"tree_param":{"num_deleted":"0","num_feature":"312","num_nodes":"73","size_leaf_vector":"1"}},{"base_weights":[-5.460657E-2,1.1028623E-2,-7.967607E-1,-3.764494E-1,1.6449548E-1,-9.673896E-1,6.845065E-2,-8.654209E-1,-2.1617519E-2,-3.331422E-1,3.8107017E-1,-1.0381879E0,-2.3427177E-2,1.1310493E-1,-9.8915225E-1,1.5545653E-1,-3.00189E-1,-1.1850642E-1,-1.0033361E0,-6.622601E-1,5.2078986E-1,-8.56954E-2,-3.3259743E-1,1.4730902E-1,-8.946714E-2,-2.2451067E-1,-3.5353687E-1,2.9886937E-1,-7.924349E-1,1.2257745E-1,-8.575831E-1,-1.1360412E0,-3.5287738E-2,2.1899354E-1,-9.3258774E-1,-7.2006464E-1,5.83371E-1,-2.3351023E-1,1.0198857E-1,-1.313096E-1,1.5647261E-1,-3.33361E-1,-1.6355803E-2,-2.535702E-1,1.0867206E-1,-3.5282385E-1,-4.6732314E-2,-3.7083784E-1,-7.220229E-2,-2.227279E-2,-3.7993586E-1,-7.2673387E-3,-3.121926E-1,2.1683449E-1,3.1304553E-3],"categories":[],"categories_nodes":[],"categories_segments":[],"categories_sizes":[],"default_left":[0,0,0,0,0,0,0,0,0,0,0,0,0,0,0,0,0,0,0,0,0,0,0,0,0,0,0,0,0,0,0,0,0,0,0,0,0,0,0,0,0,0,0,0,0,0,0,0,0,0,0,0,0,0,0],"id":8,"left_children":[1,3,5,7,9,11,-1,13,15,17,19,21,-1,23,25,27,-1,29,31,33,35,-1,-1,-1,-1,37,-1,39,41,43,45,47,-1,-1,49,51,53,-1,-1,-1,-1,-1,-1,-1,-1,-1,-1,-1,-1,-1,-1,-1,-1,-1,-1],"loss_changes":[8.802661E0,9.983533E0,2.788396E0,8.246793E0,1.3082532E1,7.234192E-1,0E0,2.5342512E0,5.119086E0,5.2013187E0,1.2622494E1,3.066454E-1,0E0,6.350617E-1,2.3212357E0,3.6505332E0,0E0,5.2985997E0,9.051361E-1,4.590072E0,6.2314205E0,0E0,0E0,0E0,0E0,1.759128E0,0E0,3.9253707E0,7.8008866E-1,5.6069374E0,1.4472389E0,3.8091564E-1,0E0,0E0,2.524459E0,8.761399E-1,5.7270336E0,0E0,0E0,0E0,0E0,0E0,0E0,0E0,0E0,0E0,0E0,0E0,0E0,0E0,0E0,0E0,0E0,0E0,0E0],"parents":[2147483647,0,0,1,1,2,2,3,3,4,4,5,5,7,7,8,8,9,9,10,10,11,11,13,13,14,14,15,15,17,17,18,18,19,19,20,20,25,25,27,27,28,28,29,29,30,30,31,31,34,34,35,35,36,36],"right_children":[2,4,6,8,10,12,-1,14,16,18,20,22,-1,24,26,28,-1,30,32,34,36,-1,-1,-1,-1,38,-1,40,42,44,46,48,-1,-1,50,52,54,-1,-1,-1,-1,-1,-1,-1,-1,-1,-1,-1,-1,-1,-1,-1,-1,-1,-1],"split_conditions":[4.3454673E-2,-7.825487E-3,3.9836488E-4,-3.4856072E-3,-2.9145384E-2,-3.5390336E-2,6.845065E-2,-1.4060889E-3,1.1945686E-2,3.0007835E-3,-1.2922291E-2,-5.6140916E-3,-2.3427177E-2,-2.9798616E-2,-9.746842E-3,1.2994633E-2,-3.00189E-1,4.8091565E-3,5.343538E-3,-1.3503016E-2,-2.213071E-2,-8.56954E-2,-3.3259743E-1,1.4730902E-1,-8.946714E-2,-3.3949573E-2,-3.5353687E-1,-1.897465E-2,6.8035047E-4,-7.283688E-2,-3.5142347E-3,7.4893157E-3,-3.5287738E-2,2.1899354E-1,-9.886066E-4,2.0080276E-3,6.7183967E-3,-2.3351023E-1,1.0198857E-1,-1.313096E-1,1.5647261E-1,-3.33361E-1,-1.6355803E-2,-2.535702E-1,1.0867206E-1,-3.5282385E-1,-4.6732314E-2,-3.7083784E-1,-7.220229E-2,-2.227279E-2,-3.7993586E-1,-7.2673387E-3,-3.121926E-1,2.1683449E-1,3.1304553E-3],"split_indices":[297,280,231,126,301,294,0,256,238,154,134,125,0,181,109,175,0,208,14,238,78,0,0,0,0,214,0,170,33,301,196,242,0,0,101,91,37,0,0,0,0,0,0,0,0,0,0,0,0,0,0,0,0,0,0],"split_type":[0,0,0,0,0,0,0,0,0,0,0,0,0,0,0,0,0,0,0,0,0,0,0,0,0,0,0,0,0,0,0,0,0,0,0,0,0,0,0,0,0,0,0,0,0,0,0,0,0,0,0,0,0,0,0],"sum_hessian":[1.7953E2,1.6584778E2,1.3682233E1,4.663905E1,1.19208725E2,1.1777646E1,1.9045871E0,1.900731E1,2.7631739E1,3.598513E1,8.3223595E1,1.0754077E1,1.0235686E0,2.1432629E0,1.6864048E1,2.411184E1,3.5198994E0,2.8147467E1,7.8376617E0,9.387124E0,7.383647E1,1.35353E0,9.400547E0,1.0160029E0,1.1272599E0,3.7803464E0,1.3083701E1,2.1537922E1,2.5739157E0,2.1853191E1,6.294276E0,6.570567E0,1.2670947E0,1.2498438E0,8.13728E0,3.0406444E0,7.079583E1,1.716853E0,2.0634935E0,4.776145E0,1.6761778E1,1.4441828E0,1.1297331E0,3.8359618E0,1.801723E1,3.8646352E0,2.4296408E0,5.567632E0,1.0029352E0,2.6210659E0,5.516215E0,1.298249E0,1.7423954E0,5.6730297E1,1.4065529E1],"tree_param":{"num_deleted":"0","num_feature":"312","num_nodes":"55","size_leaf_vector":"1"}},{"base_weights":[-6.23566E-2,2.5067292E-2,-5.649446E-1,-5.163389E-1,1.5435937E-1,-1.4768173E-1,-9.6127045E-1,-7.5592077E-1,1.7015333E-1,-6.9581866E-1,2.4000604E-1,-5.619239E-1,5.4784656E-1,8.248264E-2,-1.1001148E0,3.2473624E-2,-1.0526298E0,2.206354E-1,-3.031562E-1,-9.173991E-1,1.6017133E-1,3.3550376E-1,-3.6094332E-1,-8.5677046E-1,1.4722173E-1,2.4779372E-1,-9.477544E-2,-3.5887814E-1,-4.257049E-2,-2.192001E-1,4.9007913E-1,-1.1104016E0,-4.4174284E-2,-6.449209E-1,1.2486584E-1,-4.6308775E-2,-1.103794E0,1.7002603E-1,-9.5404185E-2,4.521267E-1,-1.7239845E-1,5.7793534E-1,-8.114336E-1,-1.0263554E-2,-3.026921E-1,2.535268E-1,-8.428192E-2,-5.5413637E-2,-3.5171574E-1,-4.3978814E-2,-2.437995E-1,-7.4856855E-2,-3.699407E-1,1.6103303E-1,-1.1964501E-1,1.0645422E-1,-1.8662484E-1,-1.043524E-1,2.634464E-1,-3.1904456E-1,-9.261186E-3],"categories":[],"categories_nodes":[],"categories_segments":[],"categories_sizes":[],"default_left":[0,0,0,0,0,0,0,0,0,0,0,0,0,0,0,0,0,0,0,0,0,0,0,0,0,0,0,0,0,0,0,0,0,0,0,0,0,0,0,0,0,0,0,0,0,0,0,0,0,0,0,0,0,0,0,0,0,0,0,0,0],"id":9,"left_children":[1,3,5,7,9,11,13,15,17,19,21,23,25,-1,27,29,31,-1,33,35,37,39,41,43,-1,-1,-1,-1,-1,-1,45,47,-1,49,-1,-1,51,-1,-1,53,55,57,59,-1,-1,-1,-1,-1,-1,-1,-1,-1,-1,-1,-1,-1,-1,-1,-1,-1,-1],"loss_changes":[7.2229705E0,9.929628E0,3.8853111E0,4.627886E0,8.493986E0,4.066211E0,2.4150658E0,4.8208513E0,2.3349328E0,2.1806908E0,6.126067E0,3.1111145E0,1.5523493E0,0E0,8.681059E-1,2.6508052E0,6.157017E-1,0E0,1.4987938E0,1.0621891E0,7.744324E-1,5.4566736E0,6.741186E0,8.58932E-1,0E0,0E0,0E0,0E0,0E0,0E0,1.5246669E0,5.781765E-1,0E0,1.9724584E-1,0E0,0E0,4.4391155E-1,0E0,0E0,5.5534925E0,4.4128003E0,1.8041917E0,2.0205708E0,0E0,0E0,0E0,0E0,0E0,0E0,0E0,0E0,0E0,0E0,0E0,0E0,0E0,0E0,0E0,0E0,0E0,0E0],"parents":[2147483647,0,0,1,1,2,2,3,3,4,4,5,5,6,6,7,7,8,8,9,9,10,10,11,11,12,12,14,14,15,15,16,16,18,18,19,19,20,20,21,21,22,22,23,23,30,30,31,31,33,33,36,36,39,39,40,40,41,41,42,42],"right_children":[2,4,6,8,10,12,14,16,18,20,22,24,26,-1,28,30,32,-1,34,36,38,40,42,44,-1,-1,-1,-1,-1,-1,46,48,-1,50,-1,-1,52,-1,-1,54,56,58,60,-1,-1,-1,-1,-1,-1,-1,-1,-1,-1,-1,-1,-1,-1,-1,-1,-1,-1],"split_conditions":[9.2079695E-3,-5.5911625E-3,1.0079792E-2,-1.4745779E-3,-4.3454673E-2,-2.9309618E-3,-1.364293E-2,-1.1452997E-2,6.5038973E-3,-4.423795E-3,8.953265E-3,4.796226E-3,2.7000948E-3,8.248264E-2,3.0208668E-3,-2.3637837E-2,-6.5868315E-3,2.206354E-1,-2.8677497E-3,-2.0068087E-2,-4.4559734E-3,4.395363E-3,-3.5744791E-3,5.6029535E-3,1.4722173E-1,2.4779372E-1,-9.477544E-2,-3.5887814E-1,-4.257049E-2,-2.192001E-1,2.594649E-2,-1.6417427E-2,-4.4174284E-2,1.7691494E-3,1.2486584E-1,-4.6308775E-2,-1.9471146E-2,1.7002603E-1,-9.5404185E-2,8.122595E-3,-1.2377645E-2,-3.5658316E-3,5.6180395E-3,-1.0263554E-2,-3.026921E-1,2.535268E-1,-8.428192E-2,-5.5413637E-2,-3.5171574E-1,-4.3978814E-2,-2.437995E-1,-7.4856855E-2,-3.699407E-1,1.6103303E-1,-1.1964501E-1,1.0645422E-1,-1.8662484E-1,-1.043524E-1,2.634464E-1,-3.1904456E-1,-9.261186E-3],"split_indices":[101,53,181,226,297,60,161,298,5,96,13,200,134,0,150,137,203,0,46,112,233,9,230,58,0,0,0,0,0,0,295,135,0,214,0,0,247,0,0,126,294,76,195,0,0,0,0,0,0,0,0,0,0,0,0,0,0,0,0,0,0],"split_type":[0,0,0,0,0,0,0,0,0,0,0,0,0,0,0,0,0,0,0,0,0,0,0,0,0,0,0,0,0,0,0,0,0,0,0,0,0,0,0,0,0,0,0,0,0,0,0,0,0,0,0,0,0,0,0,0,0,0,0,0,0],"sum_hessian":[1.6306699E2,1.3971419E2,2.3352798E1,2.6355953E1,1.1335824E2,1.2044568E1,1.130823E1,1.9462511E1,6.8934407E0,9.72253E0,1.0363571E2,7.669101E0,4.375467E0,1.0428559E0,1.0265375E1,5.565312E0,1.38972E1,2.8890507E0,4.0043902E0,7.666301E0,2.056229E0,8.980619E1,1.3829519E1,6.1364107E0,1.5326908E0,3.342822E0,1.0326446E0,9.103514E0,1.1618608E0,1.8625133E0,3.7027986E0,1.2850757E1,1.0464437E0,2.7848492E0,1.2195412E0,1.8639749E0,5.802326E0,1.0112153E0,1.0450138E0,7.312521E1,1.6680975E1,4.3923674E0,9.437152E0,1.1494054E0,4.987005E0,2.469614E0,1.2331847E0,1.0562595E0,1.1794497E1,1.1732752E0,1.6115739E0,1.148162E0,4.6541643E0,6.684483E1,6.2803864E0,7.7753863E0,8.905588E0,1.0367502E0,3.3556173E0,6.85967E0,2.5774815E0],"tree_param":{"num_deleted":"0","num_feature":"312","num_nodes":"61","size_leaf_vector":"1"}},{"base_weights":[-6.048868E-2,2.7695978E-2,-5.0974494E-1,-3.4365365E-1,1.83391E-1,1.3165098E-1,-7.925944E-1,-1.0545446E-1,-8.3818126E-1,-4.3185237E-1,2.9149795E-1,2.4054728E-1,-4.881638E-1,-9.568119E-1,1.2023913E-1,-7.1152765E-1,1.9450112E-1,-5.486447E-2,-1.0660882E0,1.789546E-2,-8.32816E-1,-2.662409E-1,4.3976662E-1,-2.6862437E-1,8.248819E-2,-4.958475E-2,-1.05795E0,-1.4629844E-1,1.7841616E-1,6.601663E-2,-9.4769555E-1,-2.7937737E-1,5.067027E-1,-1.656433E-1,1.5647206E-1,-3.736599E-1,-7.2079204E-2,4.0362808E-1,-5.124027E-1,-1.519481E-2,-9.764443E-1,-9.1267806E-1,1.8326779E-1,5.466904E-1,-6.681391E-1,-9.8446675E-2,-3.3101547E-1,-3.2105803E-1,-2.534413E-2,-2.1146493E-1,8.922878E-2,2.2808628E-1,-8.788944E-2,-1.10130936E-1,2.2267096E-1,9.9351555E-3,-2.3924468E-1,-3.3624256E-1,-3.7290752E-2,-3.6386287E-1,5.971189E-2,-1.7011184E-1,1.6219376E-1,-1.1530998E-1,1.8816476E-1,-2.6025525E-1,3.7303723E-2],"categories":[],"categories_nodes":[],"categories_segments":[],"categories_sizes":[],"default_left":[0,0,0,0,0,0,0,0,0,0,0,0,0,0,0,0,0,0,0,0,0,0,0,0,0,0,0,0,0,0,0,0,0,0,0,0,0,0,0,0,0,0,0,0,0,0,0,0,0,0,0,0,0,0,0,0,0,0,0,0,0,0,0,0,0,0,0],"id":10,"left_children":[1,3,5,7,9,11,13,15,17,19,21,-1,23,25,27,29,31,33,35,37,39,41,43,-1,-1,-1,45,-1,-1,-1,47,49,51,-1,-1,-1,-1,53,55,-1,57,59,61,63,65,-1,-1,-1,-1,-1,-1,-1,-1,-1,-1,-1,-1,-1,-1,-1,-1,-1,-1,-1,-1,-1,-1],"loss_changes":[5.9504304E0,7.359731E0,4.5740924E0,4.3442445E0,6.083581E0,3.8796132E0,2.6994133E0,4.963371E0,2.0996742E0,2.5016835E0,6.4666834E0,0E0,1.7952231E0,1.0037918E0,1.3044499E0,2.1889486E0,2.884374E0,1.3711915E0,1.080411E0,1.7365829E0,7.719178E-1,5.0339212E0,7.5955687E0,0E0,0E0,0E0,6.466293E-2,0E0,0E0,0E0,6.8884516E-1,2.175024E0,2.561159E0,0E0,0E0,0E0,0E0,1.5483297E0,5.8468086E-1,0E0,6.13852E-1,2.589764E0,3.1788013E0,4.4555798E0,1.0277798E0,0E0,0E0,0E0,0E0,0E0,0E0,0E0,0E0,0E0,0E0,0E0,0E0,0E0,0E0,0E0,0E0,0E0,0E0,0E0,0E0,0E0,0E0],"parents":[2147483647,0,0,1,1,2,2,3,3,4,4,5,5,6,6,7,7,8,8,9,9,10,10,12,12,13,13,14,14,15,15,16,16,17,17,18,18,19,19,20,20,21,21,22,22,26,26,30,30,31,31,32,32,37,37,38,38,40,40,41,41,42,42,43,43,44,44],"right_children":[2,4,6,8,10,12,14,16,18,20,22,-1,24,26,28,30,32,34,36,38,40,42,44,-1,-1,-1,46,-1,-1,-1,48,50,52,-1,-1,-1,-1,54,56,-1,58,60,62,64,66,-1,-1,-1,-1,-1,-1,-1,-1,-1,-1,-1,-1,-1,-1,-1,-1,-1,-1,-1,-1,-1,-1],"split_conditions":[1.5555388E-2,-9.337708E-3,-1.0410016E-3,4.307637E-3,-1.1162284E-2,9.68617E-4,5.6132833E-3,-1.3869603E-2,-2.2686072E-2,-3.4146819E-3,-1.0255768E-2,2.4054728E-1,-1.4106543E-2,-9.029066E-3,-6.510563E-3,-8.160792E-3,-1.8271774E-2,-3.318628E-3,2.7220382E-3,5.298502E-4,-7.293552E-4,-6.682223E-3,1.1243348E-2,-2.6862437E-1,8.248819E-2,-4.958475E-2,-6.4694247E-4,-1.4629844E-1,1.7841616E-1,6.601663E-2,5.67222E-4,2.9775186E-2,3.7665067E-3,-1.656433E-1,1.5647206E-1,-3.736599E-1,-7.2079204E-2,-2.6889804E-3,2.4822673E-3,-1.519481E-2,6.772488E-3,8.818595E-3,-1.3714959E-3,-4.3454673E-2,1.2157884E-2,-9.8446675E-2,-3.3101547E-1,-3.2105803E-1,-2.534413E-2,-2.1146493E-1,8.922878E-2,2.2808628E-1,-8.788944E-2,-1.10130936E-1,2.2267096E-1,9.9351555E-3,-2.3924468E-1,-3.3624256E-1,-3.7290752E-2,-3.6386287E-1,5.971189E-2,-1.7011184E-1,1.6219376E-1,-1.1530998E-1,1.8816476E-1,-2.6025525E-1,3.7303723E-2],"split_indices":[208,208,9,275,154,53,159,235,94,161,288,0,260,50,78,128,88,286,113,162,288,94,101,0,0,0,9,0,0,0,90,304,126,0,0,0,0,80,50,0,12,57,120,297,77,0,0,0,0,0,0,0,0,0,0,0,0,0,0,0,0,0,0,0,0,0,0],"split_type":[0,0,0,0,0,0,0,0,0,0,0,0,0,0,0,0,0,0,0,0,0,0,0,0,0,0,0,0,0,0,0,0,0,0,0,0,0,0,0,0,0,0,0,0,0,0,0,0,0,0,0,0,0,0,0,0,0,0,0,0,0,0,0,0,0,0,0],"sum_hessian":[1.4884064E2,1.2520287E2,2.3637762E1,3.6629734E1,8.857314E1,7.397524E0,1.6240238E1,2.5540756E1,1.1088978E1,1.2789968E1,7.578317E1,3.413276E0,3.9842482E0,1.3723264E1,2.5169747E0,8.001424E0,1.7539331E1,2.7788377E0,8.310141E0,6.478554E0,6.311414E0,1.5748129E1,6.003504E1,2.4848332E0,1.499415E0,1.8532822E0,1.1869982E1,1.0911838E0,1.425791E0,1.632019E0,6.369405E0,7.007723E0,1.053161E1,1.514477E0,1.2643607E0,6.4092355E0,1.9009049E0,3.8887722E0,2.5897813E0,1.1890055E0,5.122408E0,6.0365677E0,9.711561E0,5.5213E1,4.8220425E0,1.1775892E0,1.0692392E1,5.3678794E0,1.0015256E0,3.9049952E0,3.102728E0,8.033369E0,2.4982398E0,1.1613001E0,2.7274723E0,1.1922185E0,1.3975627E0,4.110714E0,1.0116938E0,4.681441E0,1.355127E0,2.944011E0,6.7675505E0,4.09478E0,5.111822E1,3.7770965E0,1.0449461E0],"tree_param":{"num_deleted":"0","num_feature":"312","num_nodes":"67","size_leaf_vector":"1"}},{"base_weights":[-6.378166E-2,2.3253689E-2,-5.004028E-1,-5.07293E-1,1.2567778E-1,-8.2702607E-1,3.4507558E-2,2.9270722E-2,-7.1184117E-1,1.9041294E-1,-6.052726E-1,2.6828138E-2,-9.5166403E-1,-2.1749216E-1,3.6578327E-1,-5.374197E-1,5.413319E-1,-2.2063719E-1,-8.592835E-1,-4.7516736E-1,2.6671153E-1,-8.078697E-1,7.862935E-2,2.461932E-2,-1.0529516E0,7.6016015E-1,-4.0337616E-1,-2.3808523E-1,5.3188163E-3,2.0926592E-1,1.7644733E-2,-1.7332871E-1,1.0679932E-1,-2.9354846E-1,-3.261343E-1,-8.6788946E-1,7.025487E-2,4.0091932E-1,-1.6448823E-1,-3.1934623E-2,-3.1296736E-1,-7.110134E-2,-3.3453825E-1,2.5591072E-1,7.600131E-2,5.134932E-2,-2.2750723E-1,-1.7710836E-1,3.7616238E-2,-3.5877725E-1,-7.195506E-2,-1.5235184E-1,2.0721026E-1,1.628361E-1,-3.128122E-2,-1.7740066E-1,1.19932264E-1],"categories":[],"categories_nodes":[],"categories_segments":[],"categories_sizes":[],"default_left":[0,0,0,0,0,0,0,0,0,0,0,0,0,0,0,0,0,0,0,0,0,0,0,0,0,0,0,0,0,0,0,0,0,0,0,0,0,0,0,0,0,0,0,0,0,0,0,0,0,0,0,0,0,0,0,0,0],"id":11,"left_children":[1,3,5,7,9,11,13,15,17,19,21,-1,23,-1,25,27,29,31,33,35,37,39,-1,-1,41,43,45,-1,-1,-1,-1,-1,-1,-1,47,49,51,53,55,-1,-1,-1,-1,-1,-1,-1,-1,-1,-1,-1,-1,-1,-1,-1,-1,-1,-1],"loss_changes":[5.178298E0,6.275866E0,3.9843874E0,2.072875E0,4.687176E0,1.6954412E0,2.6664019E0,2.0670767E0,7.9364157E-1,4.672848E0,1.6351547E0,0E0,1.3947945E0,0E0,2.5240188E0,4.9867845E-1,2.3890162E-1,1.1281953E0,3.2257175E-1,2.110062E0,4.750808E0,1.0133886E0,0E0,0E0,3.167572E-1,2.7674437E-2,7.683748E-1,0E0,0E0,0E0,0E0,0E0,0E0,0E0,4.7308514E-1,8.743954E-1,2.1189334E0,4.502268E0,5.0353665E0,0E0,0E0,0E0,0E0,0E0,0E0,0E0,0E0,0E0,0E0,0E0,0E0,0E0,0E0,0E0,0E0,0E0,0E0],"parents":[2147483647,0,0,1,1,2,2,3,3,4,4,5,5,6,6,7,7,8,8,9,9,10,10,12,12,14,14,15,15,16,16,17,17,18,18,19,19,20,20,21,21,24,24,25,25,26,26,34,34,35,35,36,36,37,37,38,38],"right_children":[2,4,6,8,10,12,14,16,18,20,22,-1,24,-1,26,28,30,32,34,36,38,40,-1,-1,42,44,46,-1,-1,-1,-1,-1,-1,-1,48,50,52,54,56,-1,-1,-1,-1,-1,-1,-1,-1,-1,-1,-1,-1,-1,-1,-1,-1,-1,-1],"split_conditions":[5.736445E-3,-6.5550823E-3,1.810867E-3,-1.1452997E-2,4.3454673E-2,-1.5945323E-2,-2.6770448E-2,6.08696E-3,-4.904111E-3,-1.0376708E-2,1.7120655E-3,2.6828138E-2,-1.6891155E-2,-2.1749216E-1,1.0822464E-2,3.0945145E-4,-6.0857832E-3,-1.983152E-2,-4.0199692E-4,5.4244585E-3,7.786938E-3,-8.469595E-3,7.862935E-2,2.461932E-2,-5.764278E-3,1.4907103E-2,5.582548E-3,-2.3808523E-1,5.3188163E-3,2.0926592E-1,1.7644733E-2,-1.7332871E-1,1.0679932E-1,-2.9354846E-1,-2.3960462E-3,-1.2879665E-3,-2.2592936E-3,4.9771587E-3,5.431659E-3,-3.1934623E-2,-3.1296736E-1,-7.110134E-2,-3.3453825E-1,2.5591072E-1,7.600131E-2,5.134932E-2,-2.2750723E-1,-1.7710836E-1,3.7616238E-2,-3.5877725E-1,-7.195506E-2,-1.5235184E-1,2.0721026E-1,1.628361E-1,-3.128122E-2,-1.7740066E-1,1.19932264E-1],"split_indices":[53,53,92,298,297,42,259,215,64,119,115,0,98,0,226,10,146,197,119,32,153,211,0,0,10,172,207,0,0,0,0,0,0,0,99,246,144,126,246,0,0,0,0,0,0,0,0,0,0,0,0,0,0,0,0,0,0],"split_type":[0,0,0,0,0,0,0,0,0,0,0,0,0,0,0,0,0,0,0,0,0,0,0,0,0,0,0,0,0,0,0,0,0,0,0,0,0,0,0,0,0,0,0,0,0,0,0,0,0,0,0,0,0,0,0,0,0],"sum_hessian":[1.3495953E2,1.133177E2,2.1641825E1,1.7696857E1,9.562085E1,1.3097945E1,8.5438795E0,5.120869E0,1.2575988E1,8.852069E1,7.100159E0,1.6018888E0,1.1496057E1,2.233936E0,6.309943E0,2.407264E0,2.7136054E0,3.4797232E0,9.096264E0,8.566271E0,7.9954414E1,5.8113627E0,1.2887964E0,1.0428319E0,1.0453224E1,4.178943E0,2.1310005E0,1.3532093E0,1.0540547E0,1.7132574E0,1.0003479E0,2.1476634E0,1.3320599E0,6.7513585E0,2.3449056E0,4.6365657E0,3.9297054E0,6.1029617E1,1.89248E1,1.8249146E0,3.986448E0,1.0808487E0,9.3723755E0,2.954435E0,1.2245078E0,1.0115762E0,1.1194242E0,1.2852788E0,1.0596269E0,2.451756E0,2.1848094E0,2.1282358E0,1.8014696E0,4.7590744E1,1.3438874E1,1.0747025E1,8.177775E0],"tree_param":{"num_deleted":"0","num_feature":"312","num_nodes":"57","size_leaf_vector":"1"}},{"base_weights":[-6.223457E-2,-3.609517E-1,5.298149E-2,-1.0771549E-1,-8.050785E-1,2.4226192E-1,-2.730895E-1,1.8847276E-1,-5.167548E-1,-1.1792336E-1,-9.5263153E-1,-6.730406E-1,3.344826E-1,-7.48665E-1,-4.266277E-2,4.8991135E-1,-6.5549725E-1,1.4233452E-1,-8.424985E-1,-1.8479513E-1,1.22151755E-1,-3.6774433E-1,-4.4746974E-1,-2.7692384E-1,1.2633186E-2,4.2331687E-1,-5.6202877E-1,-2.3843107E-1,-1.0212611E0,-4.659105E-1,2.741779E-1,6.660536E-1,-1.1892335E-1,-8.070809E-3,-2.561369E-1,-1.082915E-1,1.6305071E-1,-1.0180562E0,1.94349E-2,-2.758829E-1,8.023463E-2,-2.7371484E-1,5.4757255E-1,4.78878E-2,-2.6713496E-1,3.9848915E-1,-2.618234E-1,-3.532056E-1,-2.0325467E-2,-9.658857E-1,1.10888265E-1,-6.5756434E-1,5.3891647E-1,2.5686187E-1,-5.6388002E-2,1.5356454E-1,-2.003374E-1,-3.894627E-2,-3.82663E-1,6.950726E-2,-2.0419547E-1,2.1127646E-1,-6.839859E-2,1.8343939E-1,-1.0133116E-2,-3.0511888E-2,-3.5072047E-1,-1.5338157E-1,1.6662577E-1,-2.580168E-1,-2.4344431E-2,-3.1913724E-2,2.1949206E-1],"categories":[],"categories_nodes":[],"categories_segments":[],"categories_sizes":[],"default_left":[0,0,0,0,0,0,0,0,0,0,0,0,0,0,0,0,0,0,0,0,0,0,0,0,0,0,0,0,0,0,0,0,0,0,0,0,0,0,0,0,0,0,0,0,0,0,0,0,0,0,0,0,0,0,0,0,0,0,0,0,0,0,0,0,0,0,0,0,0,0,0,0,0],"id":12,"left_children":[1,3,5,7,9,11,13,15,17,19,21,23,25,27,29,31,33,35,37,-1,-1,-1,39,-1,-1,41,43,45,47,49,51,53,55,-1,-1,-1,-1,57,-1,-1,-1,59,61,-1,-1,63,-1,-1,-1,65,67,69,71,-1,-1,-1,-1,-1,-1,-1,-1,-1,-1,-1,-1,-1,-1,-1,-1,-1,-1,-1,-1],"loss_changes":[4.3563423E0,3.8727374E0,5.7328606E0,2.9535983E0,1.1682024E0,5.173439E0,3.7150216E0,3.9862587E0,2.3030581E0,1.1331698E0,8.6679935E-1,1.0577321E0,4.53253E0,1.3002772E0,3.3586497E0,1.2789748E0,5.0292635E-1,1.0480173E0,1.1729126E0,0E0,0E0,0E0,1.9925462E0,0E0,0E0,4.4486456E0,1.3961929E0,2.4363189E0,9.5161486E-1,3.1884778E0,3.90836E0,1.5946386E0,1.5047722E0,0E0,0E0,0E0,0E0,1.1798697E0,0E0,0E0,0E0,1.8392366E0,5.319908E0,0E0,0E0,3.2132965E-1,0E0,0E0,0E0,9.0417004E-1,1.9042015E0,3.5487878E-1,1.5415399E0,0E0,0E0,0E0,0E0,0E0,0E0,0E0,0E0,0E0,0E0,0E0,0E0,0E0,0E0,0E0,0E0,0E0,0E0,0E0,0E0],"parents":[2147483647,0,0,1,1,2,2,3,3,4,4,5,5,6,6,7,7,8,8,9,9,10,10,11,11,12,12,13,13,14,14,15,15,16,16,17,17,18,18,22,22,25,25,26,26,27,27,28,28,29,29,30,30,31,31,32,32,37,37,41,41,42,42,45,45,49,49,50,50,51,51,52,52],"right_children":[2,4,6,8,10,12,14,16,18,20,22,24,26,28,30,32,34,36,38,-1,-1,-1,40,-1,-1,42,44,46,48,50,52,54,56,-1,-1,-1,-1,58,-1,-1,-1,60,62,-1,-1,64,-1,-1,-1,66,68,70,72,-1,-1,-1,-1,-1,-1,-1,-1,-1,-1,-1,-1,-1,-1,-1,-1,-1,-1,-1,-1],"split_conditions":[-4.7063287E-3,7.467132E-3,4.990898E-3,-1.6849469E-3,6.429669E-3,-9.006333E-3,-8.3390195E-3,2.9903904E-2,-9.537409E-3,-4.039198E-3,-1.4075513E-2,3.6681553E-3,9.141385E-3,1.4075513E-2,1.6849469E-3,6.8556186E-4,-2.6666732E-3,-5.2069936E-2,4.6492144E-2,-1.8479513E-1,1.22151755E-1,-3.6774433E-1,-1.04327705E-2,-2.7692384E-1,1.2633186E-2,-4.022782E-2,-2.7925232E-3,1.04327705E-2,5.3328318E-3,2.7938138E-3,-2.9903904E-2,9.417513E-3,2.8784825E-5,-8.070809E-3,-2.561369E-1,-1.082915E-1,1.6305071E-1,-2.2460585E-3,1.94349E-2,-2.758829E-1,8.023463E-2,1.2493321E-3,4.1097324E-2,4.78878E-2,-2.6713496E-1,7.4178306E-3,-2.618234E-1,-3.532056E-1,-2.0325467E-2,-6.5272693E-3,-1.6411433E-2,-4.451725E-2,-1.5715008E-3,2.5686187E-1,-5.6388002E-2,1.5356454E-1,-2.003374E-1,-3.894627E-2,-3.82663E-1,6.950726E-2,-2.0419547E-1,2.1127646E-1,-6.839859E-2,1.8343939E-1,-1.0133116E-2,-3.0511888E-2,-3.5072047E-1,-1.5338157E-1,1.6662577E-1,-2.580168E-1,-2.4344431E-2,-3.1913724E-2,2.1949206E-1],"split_indices":[13,166,13,195,31,126,166,259,293,141,187,247,126,187,195,178,106,301,93,0,0,0,234,0,0,301,247,234,222,106,259,170,22,0,0,0,0,255,0,0,0,222,301,0,0,13,0,0,0,162,235,299,178,0,0,0,0,0,0,0,0,0,0,0,0,0,0,0,0,0,0,0,0],"split_type":[0,0,0,0,0,0,0,0,0,0,0,0,0,0,0,0,0,0,0,0,0,0,0,0,0,0,0,0,0,0,0,0,0,0,0,0,0,0,0,0,0,0,0,0,0,0,0,0,0,0,0,0,0,0,0,0,0,0,0,0,0,0,0,0,0,0,0,0,0,0,0,0,0],"sum_hessian":[1.2501962E2,3.4204876E1,9.081475E1,2.257525E1,1.1629625E1,5.762255E1,3.3192196E1,1.3406639E1,9.168611E0,2.3738391E0,9.255786E0,4.6978283E0,5.2924725E1,1.0099304E1,2.3092894E1,1.0187509E1,3.2191305E0,3.218846E0,5.9497647E0,1.1294514E0,1.2443876E0,5.081319E0,4.1744676E0,3.2653978E0,1.4324304E0,4.8633507E1,4.2912188E0,4.169562E0,5.9297423E0,9.684922E0,1.3407971E1,7.8286247E0,2.3588839E0,1.0443071E0,2.1748233E0,1.4721193E0,1.7467269E0,4.882846E0,1.066919E0,2.3416815E0,1.8327858E0,7.1759677E0,4.145754E1,1.5028647E0,2.7883542E0,2.2660143E0,1.9035475E0,4.893855E0,1.035887E0,4.8266063E0,4.858316E0,2.6383889E0,1.0769583E1,6.400858E0,1.4277669E0,1.1288738E0,1.2300102E0,1.4354074E0,3.4474385E0,3.3928163E0,3.7831511E0,3.456631E1,6.891227E0,1.240346E0,1.0256683E0,1.2044377E0,3.6221688E0,1.9620776E0,2.896238E0,1.5883399E0,1.0500488E0,2.5797718E0,8.189812E0],"tree_param":{"num_deleted":"0","num_feature":"312","num_nodes":"73","size_leaf_vector":"1"}},{"base_weights":[-7.042111E-2,-5.036974E-1,-7.1081044E-3,-4.143745E-2,-8.164742E-1,-4.1833022E-1,8.683256E-2,-2.0294608E-1,2.7623752E-1,-2.0041405E-1,-2.9701796E-1,-6.1256456E-1,1.8763795E-1,-4.258504E-1,1.6949837E-1,1.8262489E-1,-8.650893E-2,7.673097E-2,-1.68796E-1,9.627371E-2,-7.7088326E-1,-1.6731441E-1,5.7591903E-1,-6.40756E-1,1.2674426E-1,-1.6199052E-1,3.3289668E-1,-1.9264543E-1,-9.628902E-1,2.2171956E-2,2.1642455E-1,5.4704983E-2,-7.8467065E-1,9.030877E-2,-6.111601E-1,-1.5334654E-1,5.130359E-1,5.588218E-2,-1.7432028E-1,-3.1430143E-1,-5.2891787E-2,-6.946516E-2,-2.9886776E-1,9.298739E-2,-1.4741929E-1,2.8113827E-2,-2.6490617E-1,6.703628E-2,-2.2680824E-1,1.9530149E-1,-1.5953168E-1],"categories":[],"categories_nodes":[],"categories_segments":[],"categories_sizes":[],"default_left":[0,0,0,0,0,0,0,0,0,0,0,0,0,0,0,0,0,0,0,0,0,0,0,0,0,0,0,0,0,0,0,0,0,0,0,0,0,0,0,0,0,0,0,0,0,0,0,0,0,0,0],"id":13,"left_children":[1,3,5,7,9,11,13,-1,15,17,-1,19,21,23,25,-1,-1,-1,-1,-1,27,-1,29,31,-1,33,35,37,39,-1,-1,-1,41,43,45,47,49,-1,-1,-1,-1,-1,-1,-1,-1,-1,-1,-1,-1,-1,-1],"loss_changes":[3.1292596E0,2.0693145E0,3.9247754E0,1.5836688E0,7.2365E-1,2.3383243E0,3.5799696E0,0E0,1.1752714E0,6.643145E-1,0E0,2.3961344E0,1.8697484E0,2.4178164E0,3.9532518E0,0E0,0E0,0E0,0E0,0E0,1.2273159E0,0E0,2.3958051E-1,1.3032613E0,0E0,2.8250706E0,4.331086E0,7.5910413E-1,4.3567657E-1,0E0,0E0,0E0,7.6688766E-1,2.2633557E0,1.7920277E0,3.3240542E0,5.485841E0,0E0,0E0,0E0,0E0,0E0,0E0,0E0,0E0,0E0,0E0,0E0,0E0,0E0,0E0],"parents":[2147483647,0,0,1,1,2,2,3,3,4,4,5,5,6,6,8,8,9,9,11,11,12,12,13,13,14,14,20,20,22,22,23,23,25,25,26,26,27,27,28,28,32,32,33,33,34,34,35,35,36,36],"right_children":[2,4,6,8,10,12,14,-1,16,18,-1,20,22,24,26,-1,-1,-1,-1,-1,28,-1,30,32,-1,34,36,38,40,-1,-1,-1,42,44,46,48,50,-1,-1,-1,-1,-1,-1,-1,-1,-1,-1,-1,-1,-1,-1],"split_conditions":[-7.503762E-3,2.7093424E-3,-7.779024E-3,-5.198629E-3,-4.9655503E-3,3.4327884E-3,-1.5555388E-2,-2.0294608E-1,5.147869E-3,1.4976405E-2,-2.9701796E-1,-5.260631E-3,-2.9691241E-3,3.7185552E-3,-7.825487E-3,1.8262489E-1,-8.650893E-2,7.673097E-2,-1.68796E-1,9.627371E-2,-1.07308775E-2,-1.6731441E-1,-4.347648E-3,-5.75935E-3,1.2674426E-1,1.3466257E-2,-4.872706E-3,4.896807E-3,1.3241116E-2,2.2171956E-2,2.1642455E-1,5.4704983E-2,-2.3264007E-3,4.3939245E-3,-3.5963836E-3,-7.56689E-4,1.1599763E-2,5.588218E-2,-1.7432028E-1,-3.1430143E-1,-5.2891787E-2,-6.946516E-2,-2.9886776E-1,9.298739E-2,-1.4741929E-1,2.8113827E-2,-2.6490617E-1,6.703628E-2,-2.2680824E-1,1.9530149E-1,-1.5953168E-1],"split_indices":[5,226,203,15,61,24,208,0,134,184,0,236,62,92,280,0,0,0,0,0,308,0,255,159,0,193,13,90,42,0,0,0,5,14,9,255,19,0,0,0,0,0,0,0,0,0,0,0,0,0,0],"split_type":[0,0,0,0,0,0,0,0,0,0,0,0,0,0,0,0,0,0,0,0,0,0,0,0,0,0,0,0,0,0,0,0,0,0,0,0,0,0,0,0,0,0,0,0,0,0,0,0,0,0,0],"sum_hessian":[1.1320376E2,1.3546175E1,9.965758E1,5.9237757E0,7.6223993E0,1.7890291E1,8.176729E1,1.598598E0,4.3251777E0,2.1492403E0,5.4731593E0,1.3539512E1,4.3507805E0,1.0777169E1,7.099012E1,2.672851E0,1.6523263E0,1.0813581E0,1.0678821E0,1.8144093E0,1.1725102E1,1.3407261E0,3.0100546E0,8.794075E0,1.9830942E0,2.3441856E1,4.7548264E1,3.4222276E0,8.302875E0,1.0152047E0,1.9948499E0,1.2690122E0,7.5250626E0,1.5522041E1,7.919814E0,1.2893647E1,3.4654617E1,1.9957441E0,1.4264836E0,7.1953993E0,1.107475E0,2.661354E0,4.8637085E0,1.1606607E1,3.9154346E0,2.386764E0,5.5330505E0,8.320708E0,4.572939E0,3.0945162E1,3.709456E0],"tree_param":{"num_deleted":"0","num_feature":"312","num_nodes":"51","size_leaf_vector":"1"}},{"base_weights":[-6.813852E-2,-2.5519824E-1,-3.3596665E-2,4.026742E-2,-4.155987E-1,1.2478976E-1,-4.092592E-1,2.0086055E-1,-6.761157E-1,-4.9199158E-1,1.9538185E-1,-7.991349E-1,7.983296E-2,5.243742E-1,-1.1391693E-1,-8.1337285E-1,3.4438077E-2,-6.9009817E-1,1.1837577E-1,3.356419E-1,-1.03294805E-1,5.8267944E-2,-9.828877E-1,3.3242694E-1,-1.5813884E-1,2.0250674E-1,2.2523442E-2,-1.4609296E-3,-2.7156305E-1,1.7505268E-2,-2.4946907E-1,-7.009957E-2,1.3796017E-1,-1.20772436E-1,7.554325E-2,-8.6864606E-2,-3.2468063E-1,-1.4800541E-1,1.8634973E-1],"categories":[],"categories_nodes":[],"categories_segments":[],"categories_sizes":[],"default_left":[0,0,0,0,0,0,0,0,0,0,0,0,0,0,0,0,0,0,0,0,0,0,0,0,0,0,0,0,0,0,0,0,0,0,0,0,0,0,0],"id":14,"left_children":[1,-1,3,5,7,9,11,13,15,17,19,21,23,25,-1,27,-1,29,-1,31,33,-1,35,37,-1,-1,-1,-1,-1,-1,-1,-1,-1,-1,-1,-1,-1,-1,-1],"loss_changes":[2.8302922E0,0E0,2.9043071E0,3.3439953E0,2.8129852E0,3.3057547E0,2.7238984E0,1.2740525E0,1.390317E0,1.6519047E0,2.8356853E0,1.6243849E0,1.2633013E0,2.2650337E-1,0E0,7.606716E-1,0E0,7.668123E-1,0E0,3.3417287E0,2.4532743E0,0E0,1.5465593E-1,1.6475643E0,0E0,0E0,0E0,0E0,0E0,0E0,0E0,0E0,0E0,0E0,0E0,0E0,0E0,0E0,0E0],"parents":[2147483647,0,0,2,2,3,3,4,4,5,5,6,6,7,7,8,8,9,9,10,10,11,11,12,12,13,13,15,15,17,17,19,19,20,20,22,22,23,23],"right_children":[2,-1,4,6,8,10,12,14,16,18,20,22,24,26,-1,28,-1,30,-1,32,34,-1,36,38,-1,-1,-1,-1,-1,-1,-1,-1,-1,-1,-1,-1,-1,-1,-1],"split_conditions":[-1.9358601E-2,-2.5519824E-1,5.736445E-3,8.457569E-3,-5.9720906E-3,-1.0743854E-2,8.263237E-4,8.191163E-3,4.7279396E-3,1.4079314E-2,6.137696E-3,-2.2441315E-2,1.2735411E-3,4.3855477E-4,-1.1391693E-1,-1.5945323E-2,3.4438077E-2,-4.587287E-3,1.1837577E-1,-1.0740361E-2,4.2245194E-4,5.8267944E-2,7.091443E-3,-6.9049103E-3,-1.5813884E-1,2.0250674E-1,2.2523442E-2,-1.4609296E-3,-2.7156305E-1,1.7505268E-2,-2.4946907E-1,-7.009957E-2,1.3796017E-1,-1.20772436E-1,7.554325E-2,-8.6864606E-2,-3.2468063E-1,-1.4800541E-1,1.8634973E-1],"split_indices":[58,0,53,90,205,37,238,291,236,257,78,308,82,242,0,42,0,273,0,154,177,0,147,15,0,0,0,0,0,0,0,0,0,0,0,0,0,0,0],"split_type":[0,0,0,0,0,0,0,0,0,0,0,0,0,0,0,0,0,0,0,0,0,0,0,0,0,0,0,0,0,0,0,0,0,0,0,0,0,0,0],"sum_hessian":[1.0476753E2,3.430264E0,1.0133727E2,8.5667206E1,1.5670061E1,7.271698E1,1.2950229E1,4.7230167E0,1.0947044E1,6.8548536E0,6.586213E1,6.8532796E0,6.096949E0,3.0951488E0,1.6278679E0,9.303994E0,1.6430502E0,5.7840233E0,1.0708302E0,4.4731995E1,2.113013E1,1.0609299E0,5.79235E0,4.624658E0,1.4722909E0,1.9417E0,1.1534488E0,1.0564454E0,8.247548E0,1.0128542E0,4.771169E0,7.85458E0,3.6877415E1,1.1393831E1,9.736299E0,1.2167965E0,4.575553E0,1.0145254E0,3.610133E0],"tree_param":{"num_deleted":"0","num_feature":"312","num_nodes":"39","size_leaf_vector":"1"}},{"base_weights":[-6.2430095E-2,-4.0106666E-1,1.37567185E-2,1.5312041E-1,-7.865448E-1,1.4286403E-1,-3.1996295E-1,-5.327269E-1,5.863593E-1,-9.216688E-1,-1.4196156E-1,-3.5257018E-1,2.574297E-1,-1.39916735E-2,-7.880153E-1,-2.3336859E-1,-1.8702409E-3,2.2657426E-1,-1.8489009E-2,-5.0761383E-2,-2.9891968E-1,-1.6206433E-1,9.464645E-2,-7.922492E-1,4.1124336E-2,4.259251E-1,-7.608264E-2,-4.6964088E-1,3.605787E-1,3.9985072E-2,-9.182853E-1,-1.5069973E-2,-3.0998087E-1,-1.9584231E-1,3.060538E-1,-1.0986654E-1,6.573095E-1,-6.5663713E-1,3.1947577E-1,-8.823285E-1,8.715012E-3,-2.4160835E-1,6.0772926E-1,-2.983625E-1,-8.616957E-2,1.7120959E-1,-1.113272E-1,-1.6281669E-1,1.0258047E-1,2.2325589E-1,-7.028174E-2,-2.7127126E-1,3.4667533E-2,-9.854205E-2,1.733877E-1,-3.1680554E-1,-6.1477806E-2,1.2044765E-1,-1.24454804E-1,-1.7170954E-1,6.6960946E-2,-5.814539E-2,2.395334E-1],"categories":[],"categories_nodes":[],"categories_segments":[],"categories_sizes":[],"default_left":[0,0,0,0,0,0,0,0,0,0,0,0,0,0,0,0,0,0,0,0,0,0,0,0,0,0,0,0,0,0,0,0,0,0,0,0,0,0,0,0,0,0,0,0,0,0,0,0,0,0,0,0,0,0,0,0,0,0,0,0,0,0,0],"id":15,"left_children":[1,3,5,7,9,11,13,15,17,19,21,23,25,27,29,-1,-1,-1,-1,-1,-1,-1,-1,31,33,35,37,39,41,-1,43,-1,-1,-1,45,47,49,51,53,55,57,59,61,-1,-1,-1,-1,-1,-1,-1,-1,-1,-1,-1,-1,-1,-1,-1,-1,-1,-1,-1,-1],"loss_changes":[2.5714104E0,4.0296135E0,3.5854359E0,2.7916298E0,8.233433E-1,3.4923306E0,3.3152215E0,4.7973728E-1,6.582686E-1,3.304386E-1,7.316605E-1,2.053944E0,2.8001235E0,2.7401867E0,1.2221441E0,0E0,0E0,0E0,0E0,0E0,0E0,0E0,0E0,9.4350934E-1,1.5072068E0,4.147523E0,4.2008553E0,1.4350339E0,1.4614125E0,0E0,1.0676241E-1,0E0,0E0,0E0,1.2560828E0,2.2920547E0,1.9636984E0,1.5136285E0,2.033733E0,2.4144387E-1,8.884123E-1,6.3290846E-1,1.1555645E0,0E0,0E0,0E0,0E0,0E0,0E0,0E0,0E0,0E0,0E0,0E0,0E0,0E0,0E0,0E0,0E0,0E0,0E0,0E0,0E0],"parents":[2147483647,0,0,1,1,2,2,3,3,4,4,5,5,6,6,7,7,8,8,9,9,10,10,11,11,12,12,13,13,14,14,23,23,24,24,25,25,26,26,27,27,28,28,30,30,34,34,35,35,36,36,37,37,38,38,39,39,40,40,41,41,42,42],"right_children":[2,4,6,8,10,12,14,16,18,20,22,24,26,28,30,-1,-1,-1,-1,-1,-1,-1,-1,32,34,36,38,40,42,-1,44,-1,-1,-1,46,48,50,52,54,56,58,60,62,-1,-1,-1,-1,-1,-1,-1,-1,-1,-1,-1,-1,-1,-1,-1,-1,-1,-1,-1,-1],"split_conditions":[-4.4640107E-3,-5.75935E-3,9.635714E-3,-1.2616508E-2,3.383334E-3,-7.946488E-3,7.321618E-3,-3.6975415E-3,2.0400023E-2,-6.8276757E-3,-7.1957675E-3,-1.2046561E-3,4.896807E-3,-1.976995E-3,-1.0410016E-3,-2.3336859E-1,-1.8702409E-3,2.2657426E-1,-1.8489009E-2,-5.0761383E-2,-2.9891968E-1,-1.6206433E-1,9.464645E-2,-4.1302624E-3,-7.8101186E-3,-4.640278E-2,6.482737E-4,2.6201974E-3,-1.02825845E-2,3.9985072E-2,1.5216077E-2,-1.5069973E-2,-3.0998087E-1,-1.9584231E-1,1.3273965E-2,7.5906236E-3,1.0376708E-2,2.0511397E-3,-1.9637361E-2,-1.5698506E-2,1.5277237E-3,9.360149E-3,-2.2192996E-3,-2.983625E-1,-8.616957E-2,1.7120959E-1,-1.113272E-1,-1.6281669E-1,1.0258047E-1,2.2325589E-1,-7.028174E-2,-2.7127126E-1,3.4667533E-2,-9.854205E-2,1.733877E-1,-3.1680554E-1,-6.1477806E-2,1.2044765E-1,-1.24454804E-1,-1.7170954E-1,6.6960946E-2,-5.814539E-2,2.395334E-1],"split_indices":[9,159,208,76,208,242,153,8,304,154,29,54,90,308,9,0,0,0,0,0,0,0,0,32,37,278,34,159,18,0,288,0,0,0,166,279,119,118,169,247,19,271,123,0,0,0,0,0,0,0,0,0,0,0,0,0,0,0,0,0,0,0,0],"split_type":[0,0,0,0,0,0,0,0,0,0,0,0,0,0,0,0,0,0,0,0,0,0,0,0,0,0,0,0,0,0,0,0,0,0,0,0,0,0,0,0,0,0,0,0,0,0,0,0,0,0,0,0,0,0,0,0,0,0,0,0,0,0,0],"sum_hessian":[9.8454605E1,1.729908E1,8.1155525E1,7.3438654E0,9.9552145E0,5.8929256E1,2.2226267E1,2.754176E0,4.5896893E0,7.8745947E0,2.0806193E0,1.0677484E1,4.8251774E1,1.4063008E1,8.1632595E0,1.5533388E0,1.2008373E0,3.5094757E0,1.0802138E0,1.006298E0,6.8682966E0,1.0155562E0,1.0650632E0,4.565914E0,6.11157E0,3.1872313E1,1.637946E1,6.230298E0,7.8327103E0,1.0084113E0,7.1548476E0,1.4157482E0,3.1501658E0,1.2840819E0,4.827488E0,9.7712555E0,2.2101057E1,6.370118E0,1.0009342E1,2.8913596E0,3.3389387E0,2.2857828E0,5.5469275E0,5.8695683E0,1.2852798E0,3.5839784E0,1.2435094E0,4.887482E0,4.8837733E0,2.0289358E1,1.8117003E0,4.694013E0,1.6761054E0,2.7771034E0,7.232239E0,1.8564354E0,1.034924E0,1.7594692E0,1.5794696E0,1.2002797E0,1.0855031E0,1.0630065E0,4.483921E0],"tree_param":{"num_deleted":"0","num_feature":"312","num_nodes":"63","size_leaf_vector":"1"}},{"base_weights":[-6.635396E-2,-3.561208E-2,-2.2997642E-1,5.3484026E-2,-3.069696E-1,-2.2993933E-1,1.9940628E-1,-3.8022734E-2,-6.1088485E-1,-6.061113E-1,-2.6304854E-2,-3.37665E-1,3.0410036E-1,2.400752E-1,-4.3505102E-1,1.3304979E-2,-7.656936E-1,-7.405345E-1,3.3870146E-2,1.9548735E-1,-3.7513655E-1,2.2019687E-1,-7.9848325E-1,4.385593E-1,-1.7238382E-1,-3.2020155E-1,5.194328E-1,-6.948126E-1,9.298566E-2,-8.6020994E-1,-1.572176E-2,-2.606663E-1,-2.1003261E-2,1.266638E-1,-2.1671699E-1,8.463623E-2,-1.6811223E-1,1.6449912E-1,-9.3246706E-2,-4.7786087E-2,-2.852339E-1,-6.450668E-2,1.6837378E-1,9.0268806E-2,-1.9012417E-1,7.793781E-2,-2.096258E-1,2.0027936E-1,-2.2742312E-2,-2.754344E-1,8.635414E-3,-2.774508E-1,-7.976742E-2],"categories":[],"categories_nodes":[],"categories_segments":[],"categories_sizes":[],"default_left":[0,0,0,0,0,0,0,0,0,0,0,0,0,0,0,0,0,0,0,0,0,0,0,0,0,0,0,0,0,0,0,0,0,0,0,0,0,0,0,0,0,0,0,0,0,0,0,0,0,0,0,0,0],"id":16,"left_children":[1,3,-1,5,7,9,11,13,15,17,19,21,23,25,27,-1,29,31,-1,33,35,37,39,41,43,45,47,49,-1,51,-1,-1,-1,-1,-1,-1,-1,-1,-1,-1,-1,-1,-1,-1,-1,-1,-1,-1,-1,-1,-1,-1,-1],"loss_changes":[1.9185064E0,2.1352422E0,0E0,2.8096976E0,1.7595093E0,1.7594721E0,2.613299E0,1.4997712E0,1.0658951E0,8.6597896E-1,1.3176098E0,2.170165E0,2.5032852E0,1.4303877E0,1.2915766E0,0E0,5.1339054E-1,5.3748846E-1,0E0,2.4878106E0,9.6085554E-1,9.1851294E-1,2.8317213E-1,2.5130363E0,2.168411E0,9.0732086E-1,5.5953026E-1,7.42543E-1,0E0,3.2542706E-2,0E0,0E0,0E0,0E0,0E0,0E0,0E0,0E0,0E0,0E0,0E0,0E0,0E0,0E0,0E0,0E0,0E0,0E0,0E0,0E0,0E0,0E0,0E0],"parents":[2147483647,0,0,1,1,3,3,4,4,5,5,6,6,7,7,8,8,9,9,10,10,11,11,12,12,13,13,14,14,16,16,17,17,19,19,20,20,21,21,22,22,23,23,24,24,25,25,26,26,27,27,29,29],"right_children":[2,4,-1,6,8,10,12,14,16,18,20,22,24,26,28,-1,30,32,-1,34,36,38,40,42,44,46,48,50,-1,52,-1,-1,-1,-1,-1,-1,-1,-1,-1,-1,-1,-1,-1,-1,-1,-1,-1,-1,-1,-1,-1,-1,-1],"split_conditions":[1.9358601E-2,8.258268E-3,-2.2997642E-1,-7.825487E-3,2.3381116E-3,-3.4856072E-3,-8.382539E-3,8.573197E-3,-7.6872115E-3,8.843101E-3,3.459661E-3,-1.5708215E-3,7.7059404E-3,-6.934352E-3,4.6103977E-2,1.3304979E-2,2.5388002E-2,9.6085435E-3,3.3870146E-2,5.238317E-3,-8.302133E-3,5.241411E-3,2.2434336E-3,-2.3480132E-2,-5.489737E-3,-7.2557195E-3,3.5842923E-3,-1.3085337E-2,9.298566E-2,-3.2338532E-4,-1.572176E-2,-2.606663E-1,-2.1003261E-2,1.266638E-1,-2.1671699E-1,8.463623E-2,-1.6811223E-1,1.6449912E-1,-9.3246706E-2,-4.7786087E-2,-2.852339E-1,-6.450668E-2,1.6837378E-1,9.0268806E-2,-1.9012417E-1,7.793781E-2,-2.096258E-1,2.0027936E-1,-2.2742312E-2,-2.754344E-1,8.635414E-3,-2.774508E-1,-7.976742E-2],"split_indices":[58,280,0,280,126,126,226,90,19,19,38,48,226,209,190,0,55,89,0,96,230,134,200,295,304,100,275,88,0,115,0,0,0,0,0,0,0,0,0,0,0,0,0,0,0,0,0,0,0,0,0,0,0],"split_type":[0,0,0,0,0,0,0,0,0,0,0,0,0,0,0,0,0,0,0,0,0,0,0,0,0,0,0,0,0,0,0,0,0,0,0,0,0,0,0,0,0,0,0,0,0,0,0,0,0,0,0,0,0],"sum_hessian":[8.9391136E1,8.663837E1,2.752766E0,6.5827736E1,2.081063E1,2.2177273E1,4.3650463E1,1.1637366E1,9.173265E0,7.0947475E0,1.5082525E1,6.757882E0,3.6892582E1,7.076183E0,4.5611835E0,1.8894794E0,7.2837863E0,5.9520464E0,1.1427015E0,9.488925E0,5.5936003E0,3.2932584E0,3.4646237E0,2.8835184E1,8.057397E0,2.305696E0,4.770487E0,3.4319346E0,1.1292487E0,6.2496753E0,1.034111E0,4.7474446E0,1.2046014E0,8.042383E0,1.4465412E0,1.1148573E0,4.478743E0,2.0153255E0,1.2779329E0,1.0603168E0,2.404307E0,4.438358E0,2.4396826E1,4.149022E0,3.9083748E0,1.0344656E0,1.2712303E0,3.722369E0,1.0481179E0,2.4171748E0,1.0147598E0,5.1351523E0,1.114523E0],"tree_param":{"num_deleted":"0","num_feature":"312","num_nodes":"53","size_leaf_vector":"1"}},{"base_weights":[-6.8317816E-2,-9.727015E-3,-4.5148185E-1,8.458954E-2,-3.3180234E-1,1.7822011E-1,-6.743528E-1,2.338239E-1,-2.3991065E-1,-5.792751E-1,1.3644765E-1,-1.0884097E-1,1.5487605E-1,-8.4501535E-1,4.8700538E-2,4.209263E-1,-1.887696E-1,-4.28607E-1,2.427042E-1,1.8816128E-2,-7.270264E-1,5.072074E-1,-1.4672354E-1,-2.8988016E-1,-3.180706E-2,5.54567E-1,-2.2165713E-1,1.9315185E-1,-4.8770025E-1,-5.949603E-1,2.1100217E-1,-2.0863573E-1,1.8452738E-1,1.5824452E-1,-1.4847924E-1,-8.001739E-1,-2.6215123E-2,2.1493599E-1,-2.2769075E-2,-5.808131E-2,1.9948307E-1,9.976175E-2,-1.5090097E-1,-1.18847355E-1,1.8610907E-1,6.429325E-2,-1.981525E-1,1.2401609E-2,-2.1203409E-1,1.3638E-1,-5.2477505E-2,8.050644E-2,-1.741693E-1,-2.6126045E-1,-6.3309826E-2],"categories":[],"categories_nodes":[],"categories_segments":[],"categories_sizes":[],"default_left":[0,0,0,0,0,0,0,0,0,0,0,0,0,0,0,0,0,0,0,0,0,0,0,0,0,0,0,0,0,0,0,0,0,0,0,0,0,0,0,0,0,0,0,0,0,0,0,0,0,0,0,0,0,0,0],"id":17,"left_children":[1,3,5,7,9,11,13,15,17,19,21,-1,-1,23,-1,25,27,29,31,33,35,37,-1,-1,-1,39,41,43,45,47,49,51,-1,-1,-1,53,-1,-1,-1,-1,-1,-1,-1,-1,-1,-1,-1,-1,-1,-1,-1,-1,-1,-1,-1],"loss_changes":[1.8772118E0,2.2674367E0,1.6771865E0,2.8560228E0,2.0375376E0,8.623465E-1,1.3370798E0,3.2509446E0,1.8076458E0,1.0076511E0,1.7910792E0,0E0,0E0,5.373883E-1,0E0,2.5369854E0,1.578328E0,1.59498E0,1.1194239E0,1.0980912E0,3.5327673E-1,6.2395155E-1,0E0,0E0,0E0,2.0740838E0,1.033298E0,1.8630147E0,1.0605879E0,8.2765174E-1,4.1689932E-1,7.611997E-1,0E0,0E0,0E0,1.4916658E-1,0E0,0E0,0E0,0E0,0E0,0E0,0E0,0E0,0E0,0E0,0E0,0E0,0E0,0E0,0E0,0E0,0E0,0E0,0E0],"parents":[2147483647,0,0,1,1,2,2,3,3,4,4,5,5,6,6,7,7,8,8,9,9,10,10,13,13,15,15,16,16,17,17,18,18,19,19,20,20,21,21,25,25,26,26,27,27,28,28,29,29,30,30,31,31,35,35],"right_children":[2,4,6,8,10,12,14,16,18,20,22,-1,-1,24,-1,26,28,30,32,34,36,38,-1,-1,-1,40,42,44,46,48,50,52,-1,-1,-1,54,-1,-1,-1,-1,-1,-1,-1,-1,-1,-1,-1,-1,-1,-1,-1,-1,-1,-1,-1],"split_conditions":[5.33389E-3,3.5666898E-2,-5.873952E-3,1.663486E-2,-4.2011854E-3,2.5899163E-3,-3.233463E-3,2.3507703E-2,2.1725034E-3,-2.3413436E-2,-5.5497736E-3,-1.0884097E-1,1.5487605E-1,2.8327843E-2,4.8700538E-2,9.536296E-3,7.449637E-4,-8.3390195E-3,1.709414E-3,7.4887043E-3,9.023365E-3,7.636915E-3,-1.4672354E-1,-2.8988016E-1,-3.180706E-2,-1.2177228E-2,-4.031323E-3,-3.2113973E-2,-4.248334E-3,-2.0165145E-3,2.8066402E-2,5.582122E-3,1.8452738E-1,1.5824452E-1,-1.4847924E-1,1.0602747E-3,-2.6215123E-2,2.1493599E-1,-2.2769075E-2,-5.808131E-2,1.9948307E-1,9.976175E-2,-1.5090097E-1,-1.18847355E-1,1.8610907E-1,6.429325E-2,-1.981525E-1,1.2401609E-2,-2.1203409E-1,1.3638E-1,-5.2477505E-2,8.050644E-2,-1.741693E-1,-2.6126045E-1,-6.3309826E-2],"split_indices":[0,301,182,187,74,7,220,213,15,97,235,0,0,97,0,101,175,166,46,154,19,101,0,0,0,179,168,295,98,222,300,246,0,0,0,222,0,0,0,0,0,0,0,0,0,0,0,0,0,0,0,0,0,0,0],"split_type":[0,0,0,0,0,0,0,0,0,0,0,0,0,0,0,0,0,0,0,0,0,0,0,0,0,0,0,0,0,0,0,0,0,0,0,0,0,0,0,0,0,0,0,0,0,0,0,0,0,0,0,0,0,0,0],"sum_hessian":[8.281349E1,7.271916E1,1.0094328E1,5.6817955E1,1.5901211E1,2.6911285E0,7.403199E0,3.911075E1,1.7707203E1,1.0247987E1,5.653224E0,1.0066715E0,1.6844571E0,6.1407027E0,1.2624964E0,2.7111246E1,1.1999504E1,1.2810404E1,4.8968E0,2.2029972E0,8.04499E0,3.6681824E0,1.9850419E0,5.010968E0,1.1297345E0,2.2556957E1,4.5542884E0,5.4237895E0,6.5757146E0,1.0221693E1,2.588711E0,2.4125183E0,2.4842818E0,1.0935392E0,1.1094579E0,6.994187E0,1.0508032E0,2.5311837E0,1.1369987E0,2.8030262E0,1.9753931E1,1.4722631E0,3.0820253E0,2.3099957E0,3.1137938E0,1.2514967E0,5.324218E0,1.6220294E0,8.599663E0,1.4779097E0,1.1108013E0,1.1789796E0,1.2335386E0,5.81787E0,1.1763167E0],"tree_param":{"num_deleted":"0","num_feature":"312","num_nodes":"55","size_leaf_vector":"1"}},{"base_weights":[-5.8443014E-2,-3.933303E-4,-4.4537136E-1,8.345977E-2,-3.5866296E-1,1.4504513E-1,-6.370354E-1,2.1373889E-1,-2.72053E-1,1.484329E-1,-5.6454563E-1,1.6572787E-1,-9.300862E-2,5.0227935E-3,-8.5896033E-1,3.464177E-1,-1.5111545E-1,1.8533166E-2,-5.497006E-1,-2.3149161E-1,1.6013172E-1,-2.9736457E-2,-8.3092E-1,-2.8076503E-1,-8.0319226E-2,-1.6133112E-1,4.2643675E-1,3.240771E-1,-3.3453575E-1,-4.7575974E-1,5.647892E-1,-6.7438453E-1,4.735928E-2,4.4383336E-2,-1.4849277E-1,1.0318061E-1,-1.4279354E-1,-2.8240597E-1,-5.428589E-2,-1.3594377E-1,1.48233E-1,-3.2993358E-2,1.7002577E-1,4.0998675E-2,-1.7388578E-1,-2.2240523E-1,7.273013E-2,5.2079153E-3,2.2552323E-1,-5.06971E-2,-2.4136646E-1],"categories":[],"categories_nodes":[],"categories_segments":[],"categories_sizes":[],"default_left":[0,0,0,0,0,0,0,0,0,0,0,0,0,0,0,0,0,0,0,0,0,0,0,0,0,0,0,0,0,0,0,0,0,0,0,0,0,0,0,0,0,0,0,0,0,0,0,0,0,0,0],"id":18,"left_children":[1,3,5,7,9,11,13,15,17,19,21,-1,-1,-1,23,25,27,29,31,33,-1,35,37,-1,-1,-1,39,41,43,45,47,49,-1,-1,-1,-1,-1,-1,-1,-1,-1,-1,-1,-1,-1,-1,-1,-1,-1,-1,-1],"loss_changes":[1.7348706E0,2.0779116E0,1.2326561E0,2.6542673E0,1.4533447E0,7.800741E-1,1.1449797E0,2.0651906E0,1.2584825E0,7.94049E-1,1.3340943E0,0E0,0E0,0E0,1.4885426E-2,2.4081821E0,1.1355649E0,2.571156E0,8.073666E-1,3.7351656E-1,0E0,8.654366E-1,2.8400278E-1,0E0,0E0,0E0,1.938067E0,4.6153787E-1,1.117951E0,1.1371444E0,4.4831288E-1,3.2087994E-1,0E0,0E0,0E0,0E0,0E0,0E0,0E0,0E0,0E0,0E0,0E0,0E0,0E0,0E0,0E0,0E0,0E0,0E0,0E0],"parents":[2147483647,0,0,1,1,2,2,3,3,4,4,5,5,6,6,7,7,8,8,9,9,10,10,14,14,15,15,16,16,17,17,18,18,19,19,21,21,22,22,26,26,27,27,28,28,29,29,30,30,31,31],"right_children":[2,4,6,8,10,12,14,16,18,20,22,-1,-1,-1,24,26,28,30,32,34,-1,36,38,-1,-1,-1,40,42,44,46,48,50,-1,-1,-1,-1,-1,-1,-1,-1,-1,-1,-1,-1,-1,-1,-1,-1,-1,-1,-1],"split_conditions":[7.646002E-3,3.35756E-2,-1.0524072E-2,5.0592204E-3,5.536304E-3,-2.2004994E-3,-2.790175E-3,1.0270505E-2,-1.2603411E-3,-4.3146075E-3,-1.08775E-3,1.6572787E-1,-9.300862E-2,5.0227935E-3,1.3044803E-2,-2.4932966E-2,-6.4694247E-4,-5.8423984E-3,4.21833E-3,-6.885839E-4,1.6013172E-1,1.5478842E-3,7.1338937E-3,-2.8076503E-1,-8.0319226E-2,-1.6133112E-1,-3.420189E-2,-7.1175066E-3,-2.5675318E-3,1.2647881E-2,-2.3198113E-2,-9.594718E-3,4.735928E-2,4.4383336E-2,-1.4849277E-1,1.0318061E-1,-1.4279354E-1,-2.8240597E-1,-5.428589E-2,-1.3594377E-1,1.48233E-1,-3.2993358E-2,1.7002577E-1,4.0998675E-2,-1.7388578E-1,-2.2240523E-1,7.273013E-2,5.2079153E-3,2.2552323E-1,-5.06971E-2,-2.4136646E-1],"split_indices":[5,300,247,13,31,153,142,208,15,29,177,0,0,0,274,256,9,301,107,246,0,259,175,0,0,0,129,200,303,84,259,256,0,0,0,0,0,0,0,0,0,0,0,0,0,0,0,0,0,0,0],"split_type":[0,0,0,0,0,0,0,0,0,0,0,0,0,0,0,0,0,0,0,0,0,0,0,0,0,0,0,0,0,0,0,0,0,0,0,0,0,0,0,0,0,0,0,0,0,0,0,0,0,0,0],"sum_hessian":[7.62468E1,6.717044E1,9.076361E0,5.5052452E1,1.2117992E1,2.2839475E0,6.792413E0,4.0580387E1,1.4472064E1,3.579819E0,8.538174E0,1.0922453E0,1.1917021E0,1.9556723E0,4.836741E0,2.9795738E1,1.0784649E1,7.527269E0,6.944795E0,2.003614E0,1.576205E0,3.20833E0,5.329843E0,3.7640657E0,1.0726751E0,1.9979897E0,2.7797749E1,2.789904E0,7.994745E0,4.0193324E0,3.5079362E0,5.944224E0,1.0005711E0,1.0008404E0,1.0027736E0,1.8709261E0,1.3374039E0,4.172587E0,1.1572565E0,1.5789726E0,2.6218775E1,1.1965457E0,1.5933584E0,2.8868558E0,5.107889E0,2.9106998E0,1.1086327E0,1.1712401E0,2.3366961E0,1.6881404E0,4.2560835E0],"tree_param":{"num_deleted":"0","num_feature":"312","num_nodes":"51","size_leaf_vector":"1"}},{"base_weights":[-5.7877745E-2,-3.0267587E-1,2.2890255E-2,-6.0038006E-1,1.8358063E-2,-2.0354646E-1,1.7026004E-1,-1.831382E-1,-7.0497847E-1,-3.627967E-1,3.2094565E-1,-5.3577393E-1,-2.3591155E-2,-2.2352847E-1,3.085915E-1,7.6001674E-2,-1.5950926E-1,-7.651797E-2,-2.4613732E-1,1.1083836E-1,-2.1882206E-1,-7.342469E-2,5.0290895E-1,7.22887E-2,-7.867149E-1,2.4805233E-1,-4.2073962E-1,1.4525914E-1,-5.1739824E-1,-1.0092749E-1,5.748566E-1,1.9050467E-1,4.3281484E-3,-4.413007E-2,-2.679713E-1,5.4367137E-1,-3.8098836E-1,1.6700041E-1,-2.3263113E-1,4.2889667E-1,-9.884984E-2,-2.196365E-1,-2.1589788E-2,-2.8268093E-1,1.5443379E-1,7.247909E-1,-7.963397E-2,2.0765442E-1,-4.7416117E-2,9.003079E-2,-2.2329207E-1,1.4419296E-1,-5.534675E-2,1.8196377E-1,-2.5268937E-3,4.2757094E-2,-1.4867988E-1,2.4793194E-1,4.715721E-3,-1.3817936E-1,1.1694309E-1],"categories":[],"categories_nodes":[],"categories_segments":[],"categories_sizes":[],"default_left":[0,0,0,0,0,0,0,0,0,0,0,0,0,0,0,0,0,0,0,0,0,0,0,0,0,0,0,0,0,0,0,0,0,0,0,0,0,0,0,0,0,0,0,0,0,0,0,0,0,0,0,0,0,0,0,0,0,0,0,0,0],"id":19,"left_children":[1,3,5,7,9,11,13,15,17,19,21,23,25,27,29,-1,-1,-1,-1,-1,-1,-1,31,-1,33,35,37,39,41,43,45,-1,-1,-1,-1,47,49,51,-1,53,-1,-1,-1,55,-1,57,59,-1,-1,-1,-1,-1,-1,-1,-1,-1,-1,-1,-1,-1,-1],"loss_changes":[1.4282486E0,1.722177E0,1.869398E0,2.776115E-1,1.2218857E0,1.3105211E0,1.9129188E0,6.244196E-1,1.5964246E-1,1.5342076E0,7.277018E-1,1.6962352E0,1.7659456E0,1.0916928E0,2.8353431E0,0E0,0E0,0E0,0E0,0E0,0E0,0E0,2.9875398E-1,0E0,2.826414E-1,2.0248747E0,1.5109487E0,8.065989E-1,4.6755326E-1,1.3637674E0,1.5870118E0,0E0,0E0,0E0,0E0,8.453529E-1,1.1421921E0,4.5432526E-1,0E0,2.7913582E-1,0E0,0E0,0E0,8.9002633E-1,0E0,9.0804195E-1,8.6016417E-1,0E0,0E0,0E0,0E0,0E0,0E0,0E0,0E0,0E0,0E0,0E0,0E0,0E0,0E0],"parents":[2147483647,0,0,1,1,2,2,3,3,4,4,5,5,6,6,7,7,8,8,9,9,10,10,11,11,12,12,13,13,14,14,22,22,24,24,25,25,26,26,27,27,28,28,29,29,30,30,35,35,36,36,37,37,39,39,43,43,45,45,46,46],"right_children":[2,4,6,8,10,12,14,16,18,20,22,24,26,28,30,-1,-1,-1,-1,-1,-1,-1,32,-1,34,36,38,40,42,44,46,-1,-1,-1,-1,48,50,52,-1,54,-1,-1,-1,56,-1,58,60,-1,-1,-1,-1,-1,-1,-1,-1,-1,-1,-1,-1,-1,-1],"split_conditions":[-2.9145384E-2,7.1589816E-3,-1.4075513E-2,5.7253307E-3,-1.1414987E-2,-2.973234E-3,-2.3507703E-2,2.0893836E-2,-5.7028993E-3,8.972795E-3,-9.43342E-3,-6.4878687E-3,2.9323006E-3,4.260659E-3,-4.7446624E-3,7.6001674E-2,-1.5950926E-1,-7.651797E-2,-2.4613732E-1,1.1083836E-1,-2.1882206E-1,-7.342469E-2,9.2300335E-3,7.22887E-2,-6.450281E-3,5.181129E-3,-1.4402954E-3,3.8252585E-3,-8.045946E-4,2.4150006E-2,7.269759E-3,1.9050467E-1,4.3281484E-3,-4.413007E-2,-2.679713E-1,4.293381E-2,-5.2699423E-4,-4.1697007E-3,-2.3263113E-1,1.5004933E-3,-9.884984E-2,-2.196365E-1,-2.1589788E-2,-5.617602E-3,1.5443379E-1,2.423007E-2,1.7594908E-3,2.0765442E-1,-4.7416117E-2,9.003079E-2,-2.2329207E-1,1.4419296E-1,-5.534675E-2,1.8196377E-1,-2.5268937E-3,4.2757094E-2,-1.4867988E-1,2.4793194E-1,4.715721E-3,-1.3817936E-1,1.1694309E-1],"split_indices":[301,115,187,280,142,13,213,151,119,263,238,156,305,38,115,0,0,0,0,0,0,0,242,0,115,29,15,248,175,196,6,0,0,0,0,262,161,134,0,5,0,0,0,214,0,136,58,0,0,0,0,0,0,0,0,0,0,0,0,0,0],"split_type":[0,0,0,0,0,0,0,0,0,0,0,0,0,0,0,0,0,0,0,0,0,0,0,0,0,0,0,0,0,0,0,0,0,0,0,0,0,0,0,0,0,0,0,0,0,0,0,0,0,0,0,0,0,0,0,0,0,0,0,0,0],"sum_hessian":[7.088604E1,1.690414E1,5.3981895E1,8.319282E0,8.584859E0,2.1131584E1,3.285031E1,2.2189162E0,6.100365E0,3.7111387E0,4.8737206E0,6.729868E0,1.4401716E1,8.379756E0,2.4470556E1,1.1065018E0,1.1124144E0,1.9013247E0,4.1990404E0,1.235535E0,2.4756036E0,1.1021787E0,3.7715418E0,1.6530272E0,5.076841E0,8.775099E0,5.6266174E0,3.940449E0,4.4393067E0,9.886282E0,1.4584274E1,2.7325613E0,1.0389805E0,1.0647129E0,4.012128E0,6.0619745E0,2.7131243E0,2.316805E0,3.3098123E0,2.527207E0,1.413242E0,2.5610948E0,1.878212E0,8.050654E0,1.8356276E0,1.1778564E1,2.8057106E0,5.014358E0,1.0476166E0,1.0043418E0,1.7087826E0,1.0301396E0,1.2866654E0,1.5219811E0,1.0052258E0,2.7965276E0,5.2541265E0,1.0156987E1,1.6215773E0,1.5592172E0,1.2464932E0],"tree_param":{"num_deleted":"0","num_feature":"312","num_nodes":"61","size_leaf_vector":"1"}}]},"name":"gbtree"},"learner_model_param":{"base_score":"5E-1","boost_from_average":"1","num_class":"0","num_feature":"312","num_target":"1"},"objective":{"name":"binary:logistic","reg_loss_param":{"scale_pos_weight":"1"}}},"version":[3,0,0]}